~o
<STREAMINFO> 1 25
<VECSIZE> 25<NULLD><MFCC_D_N_Z_0><DIAGC>
~s "silst"
<MEAN> 25
 -3.928200e+000 -4.697469e-001 -4.608158e-001 2.216934e+000 4.168948e+000 2.054876e+000 3.483747e+000 3.051799e+000 2.462270e+000 -1.835358e+000 1.599220e-001 1.090054e+000 -1.132005e-001 1.202339e-001 8.957946e-002 2.994009e-002 -3.190612e-002 -1.077730e-001 -1.760139e-001 -1.837608e-001 -3.910127e-002 1.157435e-001 6.657350e-002 -5.689530e-002 -2.987890e-001
<VARIANCE> 25
 1.356260e+001 3.054088e+001 1.946762e+001 1.700152e+001 2.412237e+001 2.853096e+001 2.685445e+001 2.898617e+001 2.767603e+001 2.672989e+001 3.198972e+001 2.295407e+001 1.328474e+000 2.368579e+000 1.558118e+000 1.612322e+000 2.028517e+000 2.447477e+000 2.467614e+000 2.479363e+000 2.489867e+000 2.282642e+000 2.159714e+000 1.966702e+000 2.226575e+000
<GCONST> 9.363745e+001
~h "C"
<BEGINHMM>
<NUMSTATES> 5
<STATE> 2
<MEAN> 25
 -7.614023e+000 -1.150419e+000 3.307225e+000 3.681374e+000 -1.325301e+000 2.593893e+000 2.295174e+000 -6.242175e-001 5.134896e+000 -2.293068e+000 2.326110e+000 -1.098425e+000 -4.000650e+000 -1.345205e+000 -5.816509e-002 -3.406297e-001 -5.014383e-001 5.070648e-001 4.314103e-001 -6.836059e-001 6.958264e-001 -9.472782e-001 9.952317e-001 3.471705e-001 2.306732e+000
<VARIANCE> 25
 6.250863e+001 5.401488e+001 3.086236e+001 3.637259e+001 3.344647e+001 4.276425e+001 4.863908e+001 5.222281e+001 3.678466e+001 2.805915e+001 4.305885e+001 2.405654e+001 4.096455e+000 4.784845e+000 3.080156e+000 2.865460e+000 3.318960e+000 4.338114e+000 4.777421e+000 5.131372e+000 4.740816e+000 3.767285e+000 4.531909e+000 2.949663e+000 5.913602e+000
<GCONST> 1.083551e+002
<STATE> 3
<MEAN> 25
 -1.877417e+001 -1.878397e+000 3.107472e+000 1.909230e+000 -4.821387e-001 3.095400e+000 1.652131e+000 -6.978076e-001 9.628366e+000 -5.699887e+000 2.229697e+000 4.997893e-001 8.655333e-001 1.010896e-001 -3.173509e-001 -3.528790e-001 2.666232e-001 -4.714922e-001 -6.224723e-001 4.937882e-001 2.849801e-001 -5.161126e-001 -4.021105e-001 2.025754e-001 -5.708728e-001
<VARIANCE> 25
 1.315770e+001 2.583268e+001 2.561054e+001 3.503141e+001 2.785622e+001 3.828705e+001 4.496073e+001 6.489571e+001 4.715229e+001 4.504686e+001 5.908261e+001 2.884846e+001 6.103187e+000 2.345807e+000 2.410187e+000 2.205147e+000 2.350071e+000 3.461180e+000 3.707177e+000 4.128428e+000 4.629714e+000 3.359102e+000 2.909079e+000 2.635123e+000 1.432794e+000
<GCONST> 1.029244e+002
<STATE> 4
<MEAN> 25
 -5.588050e+000 -2.784699e+000 5.861068e-001 7.310696e-002 -1.813746e+000 -1.052626e+000 -1.347428e+000 -1.178534e+000 5.204063e+000 -5.746761e+000 1.462186e+000 2.952704e-001 4.930084e+000 -9.140917e-003 -4.800242e-001 -3.660208e-001 -7.244016e-001 -1.431897e+000 -7.196282e-001 -4.921802e-001 -2.085936e+000 1.316464e+000 -5.569949e-001 -2.946159e-001 7.381159e-001
<VARIANCE> 25
 4.799006e+001 2.505512e+001 2.510682e+001 2.131920e+001 2.938794e+001 4.354380e+001 3.826277e+001 5.016713e+001 4.495521e+001 3.504439e+001 3.617065e+001 2.145316e+001 1.654103e+000 3.115277e+000 2.516613e+000 2.968969e+000 3.037702e+000 4.805448e+000 3.863722e+000 5.249084e+000 4.220711e+000 4.299859e+000 5.955049e+000 2.558770e+000 1.527315e+000
<GCONST> 1.034394e+002
<TRANSP> 5
 0.000000e+000 1.000000e+000 0.000000e+000 0.000000e+000 0.000000e+000
 0.000000e+000 7.332769e-001 2.667231e-001 0.000000e+000 0.000000e+000
 0.000000e+000 0.000000e+000 7.199544e-001 2.800455e-001 0.000000e+000
 0.000000e+000 0.000000e+000 0.000000e+000 6.285288e-001 3.714712e-001
 0.000000e+000 0.000000e+000 0.000000e+000 0.000000e+000 0.000000e+000
<ENDHMM>
~h "L"
<BEGINHMM>
<NUMSTATES> 5
<STATE> 2
<MEAN> 25
 -4.931731e-002 5.662615e-001 7.896611e+000 2.638756e+000 -1.448720e+000 -5.013355e+000 -3.336230e+000 -5.441653e-001 -1.923984e+000 -4.198301e+000 -1.877149e-001 2.199890e+000 2.444135e-001 3.433590e-001 1.678885e+000 -1.682922e-002 -1.120003e+000 -7.902132e-001 -2.757842e-001 2.357715e-001 -1.270563e+000 -7.377160e-001 -1.183480e-001 9.420167e-001 5.043896e-001
<VARIANCE> 25
 1.893995e+001 2.505889e+001 2.204897e+001 2.440346e+001 2.705470e+001 3.759861e+001 4.152805e+001 3.908175e+001 3.874859e+001 3.236878e+001 3.222448e+001 2.338213e+001 2.877214e+000 2.793498e+000 3.048304e+000 2.955647e+000 3.203278e+000 4.144269e+000 4.876608e+000 4.379775e+000 3.667086e+000 4.079939e+000 3.295328e+000 2.864194e+000 1.916405e+000
<GCONST> 1.020038e+002
<STATE> 3
<MEAN> 25
 5.097863e-001 7.144086e-001 9.389821e+000 1.310974e+000 -4.019852e+000 -5.096051e+000 -4.050461e+000 -1.577843e-001 -4.199185e+000 -3.391386e+000 1.224351e-001 3.943765e+000 1.513118e-001 -9.685200e-001 -3.562032e-001 -8.847550e-001 -1.395961e+000 1.536594e-001 -5.694395e-001 6.736695e-001 1.141087e-001 9.722423e-001 3.774376e-001 2.696758e-001 1.178581e+000
<VARIANCE> 25
 7.240077e+000 1.766582e+001 1.981549e+001 2.434728e+001 2.473874e+001 3.048671e+001 3.834038e+001 2.963301e+001 2.813965e+001 2.980289e+001 2.686345e+001 2.303040e+001 1.472404e+000 1.851408e+000 2.398979e+000 2.194734e+000 2.467754e+000 2.961052e+000 4.259411e+000 3.492686e+000 3.434098e+000 2.819636e+000 2.863215e+000 2.322365e+000 7.592422e-001
<GCONST> 9.503956e+001
<STATE> 4
<MEAN> 25
 1.430317e+000 -2.423938e+000 5.835989e+000 -2.120046e-001 -6.607491e+000 -4.077324e+000 -4.911427e+000 1.689484e+000 -1.815796e+000 -4.701651e-001 8.160803e-001 2.484612e+000 4.722028e-001 -7.707655e-001 -1.496164e+000 -4.726142e-001 -1.436998e-001 5.794843e-001 1.855459e-001 2.023704e-001 5.173999e-001 1.110851e+000 2.591419e-001 -9.237411e-001 5.107819e-001
<VARIANCE> 25
 7.394526e+000 1.584900e+001 2.491845e+001 2.668949e+001 2.509437e+001 3.203819e+001 6.390477e+001 3.631090e+001 3.388096e+001 2.987641e+001 2.693473e+001 2.230280e+001 6.634288e-001 1.887446e+000 2.436550e+000 1.768850e+000 3.041883e+000 2.749648e+000 3.664778e+000 4.028141e+000 2.875819e+000 3.237555e+000 3.186200e+000 2.303990e+000 6.853548e-001
<GCONST> 9.531642e+001
<TRANSP> 5
 0.000000e+000 1.000000e+000 0.000000e+000 0.000000e+000 0.000000e+000
 0.000000e+000 4.794196e-001 5.205804e-001 0.000000e+000 0.000000e+000
 0.000000e+000 0.000000e+000 4.488522e-001 5.511478e-001 0.000000e+000
 0.000000e+000 0.000000e+000 0.000000e+000 4.429699e-001 5.570301e-001
 0.000000e+000 0.000000e+000 0.000000e+000 0.000000e+000 0.000000e+000
<ENDHMM>
~h "N"
<BEGINHMM>
<NUMSTATES> 5
<STATE> 2
<MEAN> 25
 2.456700e+000 5.074039e+000 5.740800e+000 -1.594912e+000 -1.440437e+000 2.772530e-001 9.843954e-001 -3.195386e+000 -5.272088e+000 -1.512744e+000 -1.169923e+000 7.579923e-001 -1.814333e-001 -4.588468e-001 1.037641e+000 -9.925684e-001 -1.038784e+000 4.949683e-001 2.739475e-001 3.951619e-001 -6.373282e-001 1.049349e-001 -9.418990e-002 1.295056e-001 1.186463e+000
<VARIANCE> 25
 1.699762e+001 2.669621e+001 2.258207e+001 2.995877e+001 3.198676e+001 3.355912e+001 2.721041e+001 3.578280e+001 3.060939e+001 3.056720e+001 2.875143e+001 2.383066e+001 2.598983e+000 4.528656e+000 2.468479e+000 2.655169e+000 4.466362e+000 3.541443e+000 3.760159e+000 4.152858e+000 3.184784e+000 2.720537e+000 2.854148e+000 2.145858e+000 2.601526e+000
<GCONST> 1.005947e+002
<STATE> 3
<MEAN> 25
 8.143559e-001 -1.286395e+000 7.221969e+000 -3.738271e+000 -6.563338e+000 1.906948e+000 3.539351e+000 1.547262e+000 -5.071991e+000 -1.614674e+000 -1.533907e+000 6.767375e-001 1.848814e-001 -1.764802e+000 -7.225894e-001 5.741023e-001 -1.869497e-001 -3.213165e-001 7.543948e-001 1.351254e+000 4.657508e-001 -3.725954e-001 -3.598849e-001 -1.360452e-001 7.651931e-001
<VARIANCE> 25
 7.543496e+000 2.121906e+001 1.842839e+001 2.327864e+001 2.714812e+001 3.844888e+001 3.071965e+001 3.116027e+001 2.659343e+001 3.418956e+001 2.500921e+001 2.420427e+001 8.716848e-001 1.683031e+000 1.652512e+000 1.671219e+000 2.748674e+000 2.292720e+000 2.658659e+000 2.199605e+000 2.401900e+000 2.550725e+000 1.962763e+000 1.743192e+000 9.754419e-001
<GCONST> 9.214090e+001
<STATE> 4
<MEAN> 25
 8.956491e-001 -3.070261e+000 4.493054e+000 2.831998e-001 -2.880462e+000 1.251862e+000 5.278351e+000 3.756840e+000 -3.507666e+000 -3.914441e+000 -2.724154e+000 3.756205e-001 3.611984e-001 -2.937489e-001 -9.023592e-001 7.590878e-001 9.640974e-001 -3.827500e-001 -2.263102e-001 5.371614e-001 7.385037e-001 3.177915e-002 -2.551179e-001 -2.563071e-001 -7.326490e-001
<VARIANCE> 25
 9.602996e+000 2.500428e+001 2.020453e+001 2.666734e+001 3.422131e+001 3.986384e+001 4.614448e+001 3.108118e+001 3.378700e+001 3.473855e+001 2.606463e+001 2.332590e+001 6.926525e-001 2.025567e+000 1.909073e+000 1.883088e+000 2.394945e+000 2.491066e+000 2.605776e+000 2.148731e+000 2.566597e+000 2.493456e+000 2.253292e+000 1.935922e+000 1.902789e+000
<GCONST> 9.478155e+001
<TRANSP> 5
 0.000000e+000 1.000000e+000 0.000000e+000 0.000000e+000 0.000000e+000
 0.000000e+000 7.102558e-001 2.897442e-001 0.000000e+000 0.000000e+000
 0.000000e+000 0.000000e+000 5.342221e-001 4.657778e-001 0.000000e+000
 0.000000e+000 0.000000e+000 0.000000e+000 4.766377e-001 5.233623e-001
 0.000000e+000 0.000000e+000 0.000000e+000 0.000000e+000 0.000000e+000
<ENDHMM>
~h "S"
<BEGINHMM>
<NUMSTATES> 5
<STATE> 2
<MEAN> 25
 -9.697197e+000 8.611360e-001 8.571840e+000 6.137374e+000 -6.352744e-001 4.955837e-001 -1.014972e+000 4.573377e-001 4.936369e+000 -5.197397e+000 3.742392e+000 4.183391e-001 -4.335259e+000 -6.998267e-002 5.595917e-001 1.005508e+000 1.597509e+000 4.798520e-001 5.705298e-001 5.269467e-001 2.786456e+000 -9.314947e-001 -1.645113e-001 6.659412e-002 7.174471e-001
<VARIANCE> 25
 4.246885e+001 2.045690e+001 3.340614e+001 2.913925e+001 3.583971e+001 3.690370e+001 4.392908e+001 4.971676e+001 6.434273e+001 5.071367e+001 4.890886e+001 3.148532e+001 2.209896e+000 3.569358e+000 3.789571e+000 2.797253e+000 3.803671e+000 3.896154e+000 3.845726e+000 5.231677e+000 5.169176e+000 5.205663e+000 5.637215e+000 3.231939e+000 7.918951e-001
<GCONST> 1.059865e+002
<STATE> 3
<MEAN> 25
 -1.889078e+001 -2.699026e+000 6.468591e+000 4.543455e+000 2.121948e+000 1.692042e+000 3.221607e-001 -1.478128e+000 1.003414e+001 -4.899349e+000 9.683327e-001 2.462323e-001 -3.074722e-002 -5.920064e-001 -8.594551e-001 -7.821625e-001 1.933760e-001 2.414181e-001 -1.517545e-001 -1.700850e-001 2.804651e-001 3.557365e-002 -2.989152e-001 6.331255e-002 -6.798571e-001
<VARIANCE> 25
 8.521143e+000 3.284102e+001 1.777353e+001 2.884742e+001 3.131684e+001 3.850418e+001 4.531244e+001 5.814504e+001 4.419198e+001 6.542805e+001 5.625116e+001 3.109461e+001 2.882289e+000 1.548288e+000 1.345400e+000 1.449828e+000 1.969042e+000 2.259928e+000 2.581190e+000 3.304404e+000 2.784230e+000 2.777291e+000 2.261873e+000 2.164402e+000 5.317346e-001
<GCONST> 9.703112e+001
<STATE> 4
<MEAN> 25
 -8.429757e+000 -4.013886e+000 7.703435e-001 -5.698099e-002 7.967148e-001 7.889904e-001 -1.335777e+000 -1.214481e+000 8.074997e+000 -4.080875e+000 8.965274e-001 7.350311e-001 4.113249e+000 5.236354e-002 -1.130368e+000 -8.833731e-001 -9.434229e-001 -1.057172e+000 -1.090066e-001 1.082107e-001 -1.739008e+000 9.127508e-001 -1.953488e-001 -5.752648e-002 -1.916234e-001
<VARIANCE> 25
 5.934747e+001 3.403105e+001 2.401958e+001 2.295022e+001 4.340759e+001 5.001040e+001 4.443790e+001 6.749371e+001 5.039685e+001 5.406206e+001 4.255434e+001 2.389102e+001 4.439541e+000 2.090250e+000 2.641785e+000 2.377262e+000 3.324818e+000 4.889304e+000 4.008981e+000 4.496990e+000 3.898906e+000 5.187137e+000 4.890213e+000 2.708435e+000 3.424999e+000
<GCONST> 1.069604e+002
<TRANSP> 5
 0.000000e+000 1.000000e+000 0.000000e+000 0.000000e+000 0.000000e+000
 0.000000e+000 6.775410e-001 3.224590e-001 0.000000e+000 0.000000e+000
 0.000000e+000 0.000000e+000 8.083364e-001 1.916635e-001 0.000000e+000
 0.000000e+000 0.000000e+000 0.000000e+000 6.684551e-001 3.315450e-001
 0.000000e+000 0.000000e+000 0.000000e+000 0.000000e+000 0.000000e+000
<ENDHMM>
~h "Z"
<BEGINHMM>
<NUMSTATES> 5
<STATE> 2
<MEAN> 25
 -6.320413e+000 1.091611e+000 6.416920e+000 4.514639e+000 1.442232e-001 -1.908645e+000 -2.117388e+000 -7.189810e+000 6.188150e+000 -2.648587e+000 3.355835e+000 -8.336183e-002 -3.702227e+000 7.905960e-001 1.851824e+000 9.822123e-001 1.329127e+000 -1.352323e-001 1.141659e+000 7.982192e-002 1.661734e+000 -4.857080e-001 -2.526641e-001 -4.741701e-001 4.255266e-001
<VARIANCE> 25
 3.262046e+001 1.567229e+001 3.870829e+001 2.889925e+001 4.944356e+001 3.300428e+001 4.256128e+001 5.816138e+001 3.997181e+001 4.718466e+001 4.260012e+001 3.164510e+001 1.928721e+000 2.529382e+000 2.078879e+000 2.500355e+000 3.396793e+000 4.796550e+000 3.823804e+000 4.778905e+000 4.200904e+000 3.622640e+000 3.001281e+000 2.706294e+000 7.372515e-001
<GCONST> 1.026055e+002
<STATE> 3
<MEAN> 25
 -1.516063e+001 1.987390e+000 9.669773e+000 5.380104e+000 1.654096e+000 2.512002e-001 9.424956e-001 -4.389996e+000 9.198339e+000 -3.781942e+000 2.176976e+000 -5.377093e-001 4.634815e-001 -2.168498e-001 -6.122912e-001 -6.687756e-001 -1.277423e-001 3.335299e-001 -4.301584e-002 3.154737e-001 -1.823033e-001 -5.017887e-001 -2.806616e-001 2.412543e-001 -6.883030e-001
<VARIANCE> 25
 1.573499e+001 2.497713e+001 2.474653e+001 3.264085e+001 4.515428e+001 4.257363e+001 4.989317e+001 5.423942e+001 4.462414e+001 4.938747e+001 4.829080e+001 3.486992e+001 4.471138e+000 1.355202e+000 1.820462e+000 1.737634e+000 2.280548e+000 2.583362e+000 3.338448e+000 2.808712e+000 3.199982e+000 2.660192e+000 2.510530e+000 2.069542e+000 7.768652e-001
<GCONST> 9.970830e+001
<STATE> 4
<MEAN> 25
 -4.271227e+000 -5.058137e-001 3.558445e+000 1.480069e+000 -3.349321e-001 -1.303653e+000 -1.792413e+000 -4.570880e+000 6.214359e+000 -3.911900e+000 1.286501e+000 4.326361e-001 4.101253e+000 -1.117635e+000 -1.926964e+000 -7.351065e-001 -9.415423e-001 -6.553884e-001 -6.077731e-001 5.102510e-001 -1.508317e+000 9.366620e-001 -5.567731e-001 7.867891e-002 6.304230e-002
<VARIANCE> 25
 4.139479e+001 2.577639e+001 2.954947e+001 2.408611e+001 3.451397e+001 3.526433e+001 4.641915e+001 4.977750e+001 4.022684e+001 4.862328e+001 3.463639e+001 2.514087e+001 1.949072e+000 2.588668e+000 2.769816e+000 2.606698e+000 3.257723e+000 3.941596e+000 3.920308e+000 5.041431e+000 4.265269e+000 3.570412e+000 4.284123e+000 2.727190e+000 1.146669e+000
<GCONST> 1.031349e+002
<TRANSP> 5
 0.000000e+000 1.000000e+000 0.000000e+000 0.000000e+000 0.000000e+000
 0.000000e+000 7.099891e-001 2.900110e-001 0.000000e+000 0.000000e+000
 0.000000e+000 0.000000e+000 6.965626e-001 3.034374e-001 0.000000e+000
 0.000000e+000 0.000000e+000 0.000000e+000 6.369969e-001 3.630032e-001
 0.000000e+000 0.000000e+000 0.000000e+000 0.000000e+000 0.000000e+000
<ENDHMM>
~h "a"
<BEGINHMM>
<NUMSTATES> 5
<STATE> 2
<MEAN> 25
 3.381233e+000 -8.310354e+000 -5.426404e+000 -2.622787e+000 2.913817e+000 -2.455088e-003 4.140150e-001 3.953602e+000 2.596876e+000 -7.247288e-002 -5.147605e+000 -2.432425e+000 2.679785e-001 -5.294119e-001 -4.445025e-001 -9.448485e-002 8.023996e-001 5.691454e-001 5.035553e-001 3.213923e-001 -1.425624e-001 -2.115908e-001 -6.103089e-001 -4.125847e-001 2.501288e-001
<VARIANCE> 25
 6.764003e+000 1.308727e+001 1.561652e+001 1.942894e+001 2.790806e+001 3.998268e+001 3.117178e+001 2.891407e+001 2.905643e+001 3.422590e+001 2.995534e+001 2.893773e+001 9.646658e-001 1.210270e+000 1.327005e+000 1.452276e+000 2.063572e+000 2.454146e+000 2.561750e+000 2.503945e+000 2.180579e+000 2.377215e+000 2.347280e+000 1.983016e+000 1.090402e+000
<GCONST> 9.119520e+001
<STATE> 3
<MEAN> 25
 4.229074e+000 -7.409059e+000 -5.589293e+000 -1.886473e+000 4.417760e+000 1.115751e+000 7.470182e-001 3.197944e+000 1.847747e+000 8.625674e-002 -5.776099e+000 -3.047279e+000 2.680862e-001 1.180021e+000 5.295433e-001 5.063903e-001 -1.572664e-001 -1.670120e-001 1.680190e-001 -2.552133e-001 8.598057e-002 2.034904e-001 9.066175e-002 5.390912e-002 -1.210780e+000
<VARIANCE> 25
 7.258873e+000 1.572104e+001 1.698692e+001 2.429406e+001 3.125920e+001 4.138984e+001 3.593309e+001 3.240221e+001 3.177602e+001 4.186106e+001 3.660433e+001 3.537300e+001 5.566472e-001 1.405506e+000 1.074813e+000 1.429125e+000 1.857672e+000 2.248732e+000 2.267514e+000 2.373974e+000 2.130628e+000 2.059290e+000 2.046573e+000 1.913970e+000 1.324824e+000
<GCONST> 9.171337e+001
<STATE> 4
<MEAN> 25
 3.983201e+000 -1.100997e+000 -2.195381e+000 6.976908e-001 2.717983e+000 8.197986e-003 2.292515e+000 3.729721e+000 3.432206e+000 -5.179380e-001 -4.746506e+000 -2.204593e+000 -3.739645e-001 1.723675e+000 9.255551e-001 5.286925e-001 -3.448831e-001 7.331258e-002 4.253727e-001 -2.959423e-001 1.589688e-001 -2.544792e-001 4.677220e-001 1.098550e-001 -1.926212e+000
<VARIANCE> 25
 1.307975e+001 2.542208e+001 1.942247e+001 2.437143e+001 3.166001e+001 4.207026e+001 3.932341e+001 3.896823e+001 3.750991e+001 4.376839e+001 3.439208e+001 3.355460e+001 1.267302e+000 2.308146e+000 1.626136e+000 2.247654e+000 2.425064e+000 2.952759e+000 2.824343e+000 3.728582e+000 3.292189e+000 2.866712e+000 2.908351e+000 2.417927e+000 1.765358e+000
<GCONST> 9.835283e+001
<TRANSP> 5
 0.000000e+000 1.000000e+000 0.000000e+000 0.000000e+000 0.000000e+000
 0.000000e+000 6.002513e-001 3.997487e-001 0.000000e+000 0.000000e+000
 0.000000e+000 0.000000e+000 6.143311e-001 3.856689e-001 0.000000e+000
 0.000000e+000 0.000000e+000 0.000000e+000 5.728161e-001 4.271839e-001
 0.000000e+000 0.000000e+000 0.000000e+000 0.000000e+000 0.000000e+000
<ENDHMM>
~h "b"
<BEGINHMM>
<NUMSTATES> 5
<STATE> 2
<MEAN> 25
 7.158787e+000 8.042994e+000 8.474461e-001 6.097496e-001 2.907361e+000 2.895312e+000 1.902928e+000 -1.364193e+000 -4.830923e-001 -1.956260e+000 -1.991411e+000 -3.643678e+000 -5.176537e-001 9.119378e-001 7.984383e-001 1.110103e+000 3.117445e-001 3.894632e-002 4.130569e-001 3.721315e-001 2.308605e-001 -7.447875e-001 -6.042910e-001 -1.224893e-001 -1.042788e+000
<VARIANCE> 25
 1.234205e+001 1.473068e+001 1.989045e+001 2.915892e+001 2.105367e+001 2.793742e+001 2.908046e+001 2.732941e+001 3.107169e+001 2.753051e+001 2.745478e+001 2.605668e+001 1.429610e+000 2.408335e+000 1.242811e+000 1.899540e+000 1.549799e+000 1.964975e+000 2.352889e+000 2.394058e+000 2.457637e+000 2.306586e+000 2.594740e+000 1.810798e+000 2.080283e+000
<GCONST> 9.284464e+001
<STATE> 3
<MEAN> 25
 4.748267e+000 8.013407e+000 2.030315e+000 2.333014e+000 3.109176e+000 2.589184e+000 2.138459e+000 1.868221e-001 6.864175e-001 -2.934493e+000 -2.243014e+000 -2.872821e+000 -1.724126e+000 -2.590231e+000 -2.055124e-001 4.808453e-001 -6.714981e-001 -5.839438e-001 -1.436045e+000 1.259949e-002 -3.408914e-001 1.316003e-001 1.149117e+000 7.129168e-001 2.247267e+000
<VARIANCE> 25
 1.583438e+001 1.842405e+001 2.059965e+001 2.718913e+001 2.020469e+001 2.568789e+001 2.727453e+001 2.900879e+001 2.892945e+001 2.443655e+001 2.492550e+001 2.432179e+001 1.796221e+000 2.330961e+000 3.289786e+000 3.429304e+000 3.019702e+000 3.765818e+000 3.113938e+000 3.422484e+000 3.698125e+000 3.642835e+000 2.964975e+000 2.655362e+000 1.614555e+000
<GCONST> 9.764017e+001
<STATE> 4
<MEAN> 25
 6.940428e-001 -9.161664e-001 -8.384108e-002 2.393757e+000 9.453433e-001 1.005986e+000 -2.575960e+000 -3.068160e-001 -4.050535e-001 -1.737986e+000 1.735401e+000 -9.239762e-001 -2.082347e-001 -2.708679e+000 -5.296002e-001 -1.367562e+000 -2.008605e+000 -7.361086e-001 -1.596590e+000 -6.378675e-001 -1.037631e+000 1.074781e+000 1.472386e+000 6.729326e-001 3.140008e+000
<VARIANCE> 25
 1.974878e+001 2.343537e+001 3.532223e+001 4.310045e+001 2.980016e+001 4.364181e+001 3.565533e+001 3.436873e+001 3.095596e+001 3.276900e+001 3.314245e+001 2.401206e+001 2.568135e+000 3.181392e+000 5.700472e+000 5.990674e+000 4.654896e+000 4.936964e+000 3.909565e+000 6.350334e+000 5.863880e+000 6.624588e+000 4.526790e+000 3.648650e+000 1.391427e+000
<GCONST> 1.060675e+002
<TRANSP> 5
 0.000000e+000 1.000000e+000 0.000000e+000 0.000000e+000 0.000000e+000
 0.000000e+000 6.296370e-001 3.703630e-001 0.000000e+000 0.000000e+000
 0.000000e+000 0.000000e+000 3.166295e-001 6.833704e-001 0.000000e+000
 0.000000e+000 0.000000e+000 0.000000e+000 3.854920e-001 6.145080e-001
 0.000000e+000 0.000000e+000 0.000000e+000 0.000000e+000 0.000000e+000
<ENDHMM>
~h "c"
<BEGINHMM>
<NUMSTATES> 5
<STATE> 2
<MEAN> 25
 -9.177239e+000 1.044849e+001 -1.914870e+000 7.266447e+000 1.748595e+000 9.028429e-001 1.420732e+000 4.400458e-001 7.425272e-001 -1.852349e+000 3.623448e-001 3.607726e-001 -3.356595e+000 -1.517074e-002 -2.272336e+000 4.639521e-003 7.607713e-001 6.214334e-001 2.621958e-001 2.967803e-002 1.891345e-002 -4.250166e-001 3.555453e-001 3.566866e-001 1.251623e+000
<VARIANCE> 25
 3.347502e+001 2.399039e+001 3.120276e+001 1.955754e+001 2.324162e+001 3.140516e+001 2.692904e+001 3.122293e+001 2.785123e+001 2.266286e+001 3.093064e+001 2.217706e+001 1.637230e+000 2.772329e+000 2.266018e+000 1.994809e+000 2.546481e+000 2.471112e+000 2.895831e+000 2.580314e+000 2.371410e+000 2.078026e+000 2.587904e+000 1.755242e+000 1.926642e+000
<GCONST> 9.599090e+001
<STATE> 3
<MEAN> 25
 -1.771328e+001 6.412495e+000 -7.774171e+000 4.227571e+000 3.605966e+000 -2.033810e-001 5.503584e+000 1.191383e+000 1.010826e+000 -2.392816e+000 1.175222e+000 3.266339e+000 -1.406482e-001 -1.818925e+000 3.160991e-002 -1.092453e+000 -6.772616e-001 -1.377208e+000 9.571041e-001 4.326513e-001 5.813376e-002 3.952158e-001 1.714556e-001 6.689395e-001 6.896622e-001
<VARIANCE> 25
 5.987486e+000 1.969814e+001 1.686337e+001 2.079652e+001 2.484006e+001 3.434686e+001 2.514107e+001 2.539148e+001 2.409415e+001 2.156490e+001 4.812191e+001 2.609326e+001 2.159624e+000 1.660618e+000 2.249937e+000 1.338214e+000 2.275420e+000 2.353004e+000 2.282872e+000 2.708723e+000 2.072847e+000 1.929847e+000 2.250515e+000 1.794711e+000 7.161483e-001
<GCONST> 9.150101e+001
<STATE> 4
<MEAN> 25
 -1.003097e+001 5.709956e-001 -3.564650e+000 1.683802e+000 -2.338138e+000 -8.009898e+000 3.802906e+000 6.856075e-001 -1.236505e-004 -5.854827e-001 -4.344240e-002 3.822028e+000 4.208461e+000 -1.215396e+000 1.963516e+000 -4.735583e-001 -1.904065e+000 -2.069001e+000 -1.772793e+000 -8.461211e-001 -6.645800e-001 6.348367e-001 -7.967603e-001 -2.540979e-001 1.161721e+000
<VARIANCE> 25
 5.221859e+001 1.616912e+001 2.492501e+001 1.584843e+001 3.470660e+001 3.979407e+001 4.086034e+001 3.508396e+001 2.915023e+001 2.207325e+001 4.315086e+001 2.311387e+001 1.755949e+000 2.495013e+000 2.526344e+000 2.401942e+000 2.596198e+000 4.247374e+000 3.534927e+000 4.101339e+000 3.389315e+000 2.665730e+000 4.938412e+000 3.812601e+000 1.395100e+000
<GCONST> 1.003591e+002
<TRANSP> 5
 0.000000e+000 1.000000e+000 0.000000e+000 0.000000e+000 0.000000e+000
 0.000000e+000 7.421170e-001 2.578830e-001 0.000000e+000 0.000000e+000
 0.000000e+000 0.000000e+000 6.893231e-001 3.106769e-001 0.000000e+000
 0.000000e+000 0.000000e+000 0.000000e+000 6.677771e-001 3.322229e-001
 0.000000e+000 0.000000e+000 0.000000e+000 0.000000e+000 0.000000e+000
<ENDHMM>
~h "d"
<BEGINHMM>
<NUMSTATES> 5
<STATE> 2
<MEAN> 25
 5.004436e+000 6.616911e+000 2.817757e+000 3.002121e+000 1.374323e+000 -3.021171e+000 -1.257112e+000 -1.952125e-001 3.070882e+000 -3.044327e-001 -3.729799e+000 -2.315856e+000 -2.175423e-001 1.060100e+000 7.735438e-001 5.491387e-001 4.956015e-001 6.794486e-001 4.918019e-001 3.328520e-001 1.489804e-001 -9.544670e-001 -1.311742e-002 -5.100961e-001 -1.177511e+000
<VARIANCE> 25
 1.349502e+001 2.003131e+001 2.253927e+001 2.093056e+001 2.477212e+001 3.284154e+001 3.147737e+001 3.270015e+001 2.875537e+001 3.293268e+001 2.891913e+001 2.820710e+001 2.579199e+000 2.813613e+000 2.079540e+000 2.158360e+000 2.648111e+000 3.193521e+000 3.525213e+000 3.111828e+000 2.788228e+000 3.054936e+000 3.633313e+000 2.956044e+000 3.143030e+000
<GCONST> 9.857336e+001
<STATE> 3
<MEAN> 25
 2.830533e+000 6.924238e+000 3.860909e+000 3.328991e+000 2.631482e+000 -6.967855e-001 -1.078334e-002 5.920559e-001 2.342802e+000 -1.721383e+000 -2.239569e+000 -2.494785e+000 -1.821529e+000 -1.692821e+000 -4.023532e-001 -5.913395e-001 2.938465e-001 3.959234e-001 -2.928744e-001 -2.505795e-001 -6.243622e-001 -1.170114e-001 1.046022e+000 7.401552e-001 1.752926e+000
<VARIANCE> 25
 1.925284e+001 2.390069e+001 2.474001e+001 2.148759e+001 2.368087e+001 2.870977e+001 2.803937e+001 3.166942e+001 2.798307e+001 2.741539e+001 2.907226e+001 2.040888e+001 2.791674e+000 2.957782e+000 2.494517e+000 2.678281e+000 3.325003e+000 4.066817e+000 3.588490e+000 3.460688e+000 3.001082e+000 3.111836e+000 3.777483e+000 2.799019e+000 2.420561e+000
<GCONST> 9.930411e+001
<STATE> 4
<MEAN> 25
 -1.537220e+000 4.897951e-002 7.121184e-001 1.342720e-001 2.262252e+000 -1.562121e+000 -2.374881e+000 -2.640996e-001 1.352829e+000 -5.818776e-001 3.137070e-001 4.510933e-001 -1.163748e-001 -1.936620e+000 -1.142665e+000 -1.235577e+000 -1.348619e+000 -9.199510e-001 -1.249017e+000 -4.132068e-001 -1.847510e-001 1.154583e+000 3.525260e-001 8.311387e-001 2.642027e+000
<VARIANCE> 25
 2.044978e+001 2.397653e+001 2.838564e+001 2.517655e+001 3.397805e+001 4.468972e+001 4.342222e+001 3.130415e+001 2.731906e+001 3.040648e+001 3.133487e+001 2.484300e+001 3.254324e+000 3.054615e+000 3.853086e+000 3.081740e+000 3.630533e+000 4.631236e+000 4.403688e+000 4.658919e+000 4.179055e+000 3.726004e+000 4.529324e+000 3.625982e+000 2.297772e+000
<GCONST> 1.036240e+002
<TRANSP> 5
 0.000000e+000 1.000000e+000 0.000000e+000 0.000000e+000 0.000000e+000
 0.000000e+000 4.678866e-001 5.321134e-001 0.000000e+000 0.000000e+000
 0.000000e+000 0.000000e+000 2.886425e-001 7.113575e-001 0.000000e+000
 0.000000e+000 0.000000e+000 0.000000e+000 4.547244e-001 5.452756e-001
 0.000000e+000 0.000000e+000 0.000000e+000 0.000000e+000 0.000000e+000
<ENDHMM>
~h "e"
<BEGINHMM>
<NUMSTATES> 5
<STATE> 2
<MEAN> 25
 2.031655e+000 -5.083364e+000 2.539875e+000 -4.279977e-001 -6.785319e+000 -6.948475e+000 1.186315e+000 4.589793e+000 -1.048285e+000 9.855347e-001 -2.907168e-001 2.002395e+000 4.162463e-001 3.236478e-001 3.294912e-001 1.935295e-001 -9.479971e-002 -1.231741e-001 2.737299e-001 5.505477e-002 -1.947561e-001 4.274159e-001 -9.277195e-002 3.558237e-002 -2.097757e-001
<VARIANCE> 25
 6.628966e+000 1.536474e+001 1.884649e+001 1.911277e+001 2.512041e+001 3.504689e+001 4.034476e+001 2.920308e+001 3.183087e+001 2.811287e+001 2.613754e+001 2.256550e+001 1.391170e+000 1.287195e+000 1.624216e+000 1.582953e+000 2.778150e+000 2.436975e+000 3.142669e+000 2.606283e+000 2.607873e+000 2.635273e+000 2.115205e+000 1.893551e+000 1.174700e+000
<GCONST> 9.250430e+001
<STATE> 3
<MEAN> 25
 2.798878e+000 -2.084498e+000 3.647793e+000 1.361653e+000 -5.851786e+000 -6.541673e+000 6.438460e-001 2.874452e+000 -7.087488e-001 1.420313e+000 -7.089184e-001 1.950771e+000 2.621381e-001 1.695785e+000 3.256980e-001 9.353275e-001 9.671057e-001 4.319192e-001 2.346499e-002 -6.776769e-001 5.982403e-001 -1.874426e-001 -1.190780e-001 -3.436559e-001 -1.890248e+000
<VARIANCE> 25
 8.078368e+000 2.425985e+001 2.463266e+001 2.168681e+001 3.162119e+001 3.713777e+001 4.566723e+001 3.809109e+001 3.937667e+001 3.500501e+001 2.928432e+001 2.823533e+001 9.950279e-001 1.644946e+000 1.549471e+000 1.694394e+000 2.350814e+000 2.619971e+000 2.973835e+000 3.089200e+000 2.804971e+000 2.613228e+000 2.273866e+000 2.132835e+000 1.597547e+000
<GCONST> 9.551486e+001
<STATE> 4
<MEAN> 25
 2.701154e+000 2.260348e+000 4.005781e+000 3.355129e+000 -2.899155e+000 -4.906515e+000 7.742833e-001 1.631879e+000 1.496686e+000 4.111307e-001 -4.838937e-001 6.670293e-001 -5.541709e-001 1.423142e+000 -8.846889e-002 4.589685e-001 1.281353e+000 9.550371e-001 4.808659e-002 -5.613270e-001 5.205830e-001 -2.156701e-001 2.567641e-001 -5.212221e-001 -1.671102e+000
<VARIANCE> 25
 1.331537e+001 3.070924e+001 2.447383e+001 1.992247e+001 3.016842e+001 3.310159e+001 4.258530e+001 3.493352e+001 3.737923e+001 3.280480e+001 3.093282e+001 2.707233e+001 2.199800e+000 2.907303e+000 2.017538e+000 2.374861e+000 2.676096e+000 3.218491e+000 3.360317e+000 4.312518e+000 3.566761e+000 2.973644e+000 2.960354e+000 2.661653e+000 1.846579e+000
<GCONST> 9.949149e+001
<TRANSP> 5
 0.000000e+000 1.000000e+000 0.000000e+000 0.000000e+000 0.000000e+000
 0.000000e+000 5.086016e-001 4.913984e-001 0.000000e+000 0.000000e+000
 0.000000e+000 0.000000e+000 4.495037e-001 5.504963e-001 0.000000e+000
 0.000000e+000 0.000000e+000 0.000000e+000 3.576895e-001 6.423104e-001
 0.000000e+000 0.000000e+000 0.000000e+000 0.000000e+000 0.000000e+000
<ENDHMM>
~h "f"
<BEGINHMM>
<NUMSTATES> 5
<STATE> 2
<MEAN> 25
 -9.837179e+000 5.230192e-001 -6.485720e-001 6.016589e+000 4.130732e+000 4.109851e+000 3.628535e-001 3.374480e+000 1.573684e+000 -2.023623e+000 -9.416957e-001 4.029890e-002 -6.117633e-001 -1.573374e+000 -8.355237e-001 -2.465653e-001 -4.435278e-001 2.586661e-001 -5.499023e-001 2.166924e-001 3.999277e-001 1.495223e-001 7.869095e-002 1.279924e-001 2.554968e-001
<VARIANCE> 25
 1.505786e+001 2.394046e+001 2.530294e+001 2.105105e+001 1.254654e+001 2.447710e+001 2.627310e+001 2.299081e+001 2.273024e+001 2.456790e+001 3.334517e+001 1.850631e+001 3.950688e+000 1.728770e+000 2.429150e+000 2.563430e+000 1.892444e+000 2.436949e+000 2.135281e+000 2.813580e+000 2.149984e+000 2.006836e+000 2.401947e+000 1.692523e+000 1.510935e+000
<GCONST> 9.334236e+001
<STATE> 3
<MEAN> 25
 -9.445612e+000 -3.964918e+000 -4.549702e+000 2.646235e+000 2.254590e+000 2.684327e+000 -7.982379e-001 3.228809e+000 3.067607e+000 -7.927516e-002 -3.292395e-001 -2.744767e-002 3.337043e+000 -1.121008e+000 -1.340105e+000 -1.764414e+000 -1.929069e+000 -1.027349e+000 -1.644722e+000 -1.652632e+000 -5.080356e-002 8.315660e-001 6.328866e-001 -3.648060e-001 1.267662e+000
<VARIANCE> 25
 7.990350e+000 1.254120e+001 1.873908e+001 1.724028e+001 1.789005e+001 2.676242e+001 2.868844e+001 2.372063e+001 1.973567e+001 2.551131e+001 2.846273e+001 1.768159e+001 2.465833e+000 1.980047e+000 2.221018e+000 2.682696e+000 2.373678e+000 3.399788e+000 2.312537e+000 2.788198e+000 2.544759e+000 2.366590e+000 3.801445e+000 1.786131e+000 1.339025e+000
<GCONST> 9.279398e+001
<STATE> 4
<MEAN> 25
 1.030138e+000 -4.180264e+000 -7.342502e+000 -1.712987e+000 -3.081491e+000 2.652858e-001 -5.272586e+000 -3.609477e+000 1.347176e+000 1.390976e+000 1.406735e+000 -5.010218e-001 4.404771e+000 -2.647579e-001 -3.251596e-001 -9.083220e-002 -1.467251e+000 -3.515560e-001 -9.627859e-001 -2.014134e+000 -2.149127e-001 9.740986e-001 7.107700e-001 7.121544e-002 1.658704e+000
<VARIANCE> 25
 2.893011e+001 1.071160e+001 2.532745e+001 2.370155e+001 2.155256e+001 3.891223e+001 2.623845e+001 3.671196e+001 1.992681e+001 2.730436e+001 1.980761e+001 1.690656e+001 9.542669e-001 2.052664e+000 1.838846e+000 3.523460e+000 2.871402e+000 3.482185e+000 3.970052e+000 3.298177e+000 2.747838e+000 3.750264e+000 3.545710e+000 2.218309e+000 9.568880e-001
<GCONST> 9.556215e+001
<TRANSP> 5
 0.000000e+000 1.000000e+000 0.000000e+000 0.000000e+000 0.000000e+000
 0.000000e+000 6.809167e-001 3.190832e-001 0.000000e+000 0.000000e+000
 0.000000e+000 0.000000e+000 4.236594e-001 5.763406e-001 0.000000e+000
 0.000000e+000 0.000000e+000 0.000000e+000 3.778349e-001 6.221651e-001
 0.000000e+000 0.000000e+000 0.000000e+000 0.000000e+000 0.000000e+000
<ENDHMM>
~h "g"
<BEGINHMM>
<NUMSTATES> 5
<STATE> 2
<MEAN> 25
 5.783907e+000 8.427608e+000 1.880620e+000 -4.270014e-001 -1.239846e+000 9.836000e-001 2.134384e+000 -1.760065e-001 -2.777077e+000 -1.973862e+000 6.520259e-002 -9.360245e-001 -9.254093e-001 -3.634262e-001 -3.092965e-001 1.018138e+000 1.042614e+000 2.364664e-001 -1.611143e-001 -2.817449e-001 5.071070e-001 1.078410e-002 -3.968993e-001 1.337858e-001 -4.750535e-001
<VARIANCE> 25
 1.412815e+001 1.875464e+001 2.919762e+001 3.354183e+001 2.999055e+001 3.658328e+001 3.067633e+001 3.541150e+001 3.982754e+001 4.109667e+001 3.864681e+001 2.873963e+001 1.121952e+000 2.756066e+000 3.125501e+000 3.197020e+000 3.184703e+000 4.296372e+000 3.518135e+000 3.813697e+000 4.019734e+000 3.713695e+000 4.086223e+000 2.521775e+000 1.797802e+000
<GCONST> 1.010834e+002
<STATE> 3
<MEAN> 25
 3.631989e+000 6.077910e+000 -5.767148e-001 7.203803e-001 1.778378e+000 2.672914e+000 5.495728e-001 -7.055044e-001 -3.117522e+000 -9.148390e-001 6.267774e-001 -4.952728e-001 -1.097189e+000 -1.996597e+000 -1.516448e+000 -2.566782e-001 7.824162e-001 5.324190e-001 -9.964650e-001 -5.406668e-001 -3.814565e-001 7.536870e-001 5.912846e-001 2.956643e-001 1.584895e+000
<VARIANCE> 25
 1.621352e+001 2.551127e+001 5.163040e+001 3.964671e+001 4.037745e+001 4.971274e+001 3.350758e+001 3.898353e+001 4.184374e+001 3.767439e+001 3.401628e+001 2.406780e+001 2.146052e+000 4.045875e+000 5.852046e+000 5.780718e+000 4.578041e+000 6.546126e+000 4.846570e+000 5.168642e+000 5.873169e+000 5.138629e+000 4.943421e+000 3.442480e+000 2.585773e+000
<GCONST> 1.079412e+002
<STATE> 4
<MEAN> 25
 1.586013e+000 3.110690e-001 -3.533058e+000 -6.880566e-001 2.067851e+000 2.042854e+000 -2.341319e+000 -1.843766e+000 -3.869533e+000 1.756557e+000 2.610610e+000 9.018695e-002 -3.243694e-001 -1.468170e+000 -8.734598e-002 -6.624363e-001 -7.135093e-001 -7.157620e-001 -7.049368e-001 -7.121249e-001 5.422803e-002 8.901030e-001 6.056063e-001 3.969368e-002 1.979011e+000
<VARIANCE> 25
 2.807383e+001 3.945222e+001 7.237572e+001 6.247257e+001 5.458145e+001 7.566798e+001 5.307397e+001 5.212696e+001 5.220328e+001 4.908441e+001 3.922573e+001 2.766422e+001 3.163702e+000 3.911780e+000 3.913790e+000 4.724604e+000 5.109962e+000 5.309309e+000 5.154941e+000 5.611460e+000 5.502582e+000 5.113510e+000 5.543134e+000 3.490010e+000 2.958636e+000
<GCONST> 1.119458e+002
<TRANSP> 5
 0.000000e+000 1.000000e+000 0.000000e+000 0.000000e+000 0.000000e+000
 0.000000e+000 2.946354e-001 7.053646e-001 0.000000e+000 0.000000e+000
 0.000000e+000 0.000000e+000 2.209714e-001 7.790285e-001 0.000000e+000
 0.000000e+000 0.000000e+000 0.000000e+000 3.603531e-001 6.396469e-001
 0.000000e+000 0.000000e+000 0.000000e+000 0.000000e+000 0.000000e+000
<ENDHMM>
~h "h"
<BEGINHMM>
<NUMSTATES> 5
<STATE> 2
<MEAN> 25
 -3.290584e+000 2.779104e+000 6.216907e+000 5.079050e+000 2.708521e+000 -1.097707e+000 1.425851e+000 2.453517e+000 -2.506036e+000 3.380516e-001 1.877007e-001 3.377292e-001 -1.420414e+000 -1.276460e+000 -1.642939e+000 1.740215e-001 2.000587e+000 4.632572e-001 -4.473114e-001 7.956274e-001 1.254158e+000 -3.297048e-002 -1.638784e-001 3.826973e-001 1.399534e-001
<VARIANCE> 25
 3.152683e+001 3.561868e+001 5.948608e+001 3.085268e+001 3.853120e+001 4.924514e+001 3.907352e+001 4.710514e+001 3.799049e+001 3.355525e+001 2.849927e+001 2.349955e+001 2.257227e+000 3.166064e+000 5.175812e+000 2.933001e+000 4.773283e+000 4.445616e+000 4.426580e+000 4.387874e+000 4.313868e+000 3.609883e+000 3.614443e+000 2.480962e+000 2.093691e+000
<GCONST> 1.055952e+002
<STATE> 3
<MEAN> 25
 -5.143816e+000 -7.920766e-001 9.721721e-001 3.978294e+000 6.508146e+000 6.304285e-001 -7.889284e-001 2.966295e+000 2.635569e-001 8.730708e-001 -6.913772e-001 4.997080e-001 -8.703150e-001 -1.036678e+000 -1.484436e+000 -8.104885e-001 6.368873e-001 7.008723e-001 -3.267549e-001 -3.388712e-001 8.417499e-001 3.992215e-001 -3.686752e-002 3.201988e-002 3.091000e-001
<VARIANCE> 25
 2.721186e+001 3.600743e+001 6.974732e+001 3.018428e+001 5.083406e+001 5.102258e+001 5.400442e+001 4.805614e+001 3.635622e+001 4.199398e+001 3.368758e+001 2.409922e+001 2.287212e+000 2.307490e+000 4.624703e+000 2.254243e+000 3.669715e+000 4.699861e+000 4.147078e+000 3.581526e+000 3.644395e+000 3.692555e+000 3.057974e+000 2.792654e+000 2.263680e+000
<GCONST> 1.053538e+002
<STATE> 4
<MEAN> 25
 -8.288594e+000 -2.597049e+000 1.046965e+000 -6.440222e-001 3.435583e+000 2.347737e+000 1.070604e+000 7.863616e-001 8.589608e-001 2.355380e+000 -1.000815e-001 1.001145e+000 5.946459e-001 9.350081e-002 6.854912e-002 -7.154287e-001 -1.011299e+000 -1.423726e-001 -9.280612e-002 -7.767352e-001 -3.247709e-001 -2.520400e-001 7.806932e-002 9.329724e-002 8.065421e-002
<VARIANCE> 25
 3.849622e+001 3.262624e+001 8.986496e+001 3.044451e+001 5.516943e+001 5.169505e+001 5.160428e+001 4.049223e+001 3.955619e+001 3.712161e+001 3.858672e+001 2.462491e+001 3.535517e+000 2.062064e+000 3.128941e+000 2.782129e+000 3.685355e+000 4.560392e+000 3.913591e+000 3.555012e+000 3.777257e+000 3.385097e+000 3.116997e+000 2.222879e+000 1.488681e+000
<GCONST> 1.052329e+002
<TRANSP> 5
 0.000000e+000 1.000000e+000 0.000000e+000 0.000000e+000 0.000000e+000
 0.000000e+000 3.523883e-001 6.476117e-001 0.000000e+000 0.000000e+000
 0.000000e+000 0.000000e+000 3.335720e-001 6.664280e-001 0.000000e+000
 0.000000e+000 0.000000e+000 0.000000e+000 6.741297e-001 3.258702e-001
 0.000000e+000 0.000000e+000 0.000000e+000 0.000000e+000 0.000000e+000
<ENDHMM>
~h "i"
<BEGINHMM>
<NUMSTATES> 5
<STATE> 2
<MEAN> 25
 -5.854082e-001 -7.399472e-002 1.034122e+001 5.865329e-001 -9.406853e+000 -4.421642e+000 -7.960979e-001 -2.497695e+000 -7.486940e+000 1.083585e+000 2.101095e+000 9.357889e-001 3.766361e-001 3.810703e-001 1.908758e+000 -5.090141e-001 -1.847825e+000 7.898814e-002 -1.129118e-001 -1.045968e+000 -1.615287e+000 1.048268e+000 -4.594184e-002 -1.096630e-001 8.438048e-001
<VARIANCE> 25
 1.439961e+001 2.020729e+001 2.420964e+001 3.040304e+001 2.711848e+001 4.566088e+001 3.565332e+001 5.011446e+001 3.496999e+001 4.265461e+001 3.102289e+001 2.085985e+001 3.493934e+000 2.087771e+000 2.712830e+000 3.059250e+000 3.482404e+000 4.512972e+000 4.485712e+000 4.305643e+000 3.854378e+000 3.779318e+000 4.042836e+000 2.376292e+000 1.899657e+000
<GCONST> 1.020130e+002
<STATE> 3
<MEAN> 25
 -6.970325e-001 2.707782e+000 1.337817e+001 -1.434784e+000 -1.047036e+001 -8.467226e-001 -1.191729e+000 -5.988522e+000 -7.584274e+000 3.498984e+000 -2.640198e-001 5.605409e-001 2.098392e-001 5.848644e-001 -8.572511e-002 5.044981e-001 4.468432e-001 5.795287e-002 2.036280e-001 5.086653e-003 3.173685e-001 -2.047151e-001 -1.211785e-001 -5.748696e-002 -6.011371e-001
<VARIANCE> 25
 8.205494e+000 2.152458e+001 2.165056e+001 3.883867e+001 2.366701e+001 5.496176e+001 3.574692e+001 4.530289e+001 3.813663e+001 4.744815e+001 3.824100e+001 2.428590e+001 1.041242e+000 1.585301e+000 1.489354e+000 1.927664e+000 2.000387e+000 2.492231e+000 2.272830e+000 2.405463e+000 2.066685e+000 2.095114e+000 2.042809e+000 1.439178e+000 1.210482e+000
<GCONST> 9.434664e+001
<STATE> 4
<MEAN> 25
 7.397943e-001 4.322465e+000 9.262396e+000 3.861114e+000 -5.102702e+000 -3.667041e+000 5.774710e-001 -2.554168e+000 -4.540674e+000 4.562484e-002 1.048115e+000 5.193050e-001 -6.783469e-002 6.314001e-001 -1.315977e+000 7.625040e-001 2.082176e+000 1.962913e-001 5.688908e-002 4.717841e-001 1.354485e+000 -6.312278e-001 -1.340628e-001 -1.302314e-001 -1.390830e+000
<VARIANCE> 25
 1.438585e+001 2.729923e+001 2.307997e+001 2.786648e+001 3.529483e+001 4.308832e+001 3.694059e+001 3.890083e+001 3.706298e+001 3.516712e+001 2.650067e+001 2.074144e+001 2.186193e+000 2.797374e+000 2.300305e+000 2.787343e+000 3.071254e+000 3.842723e+000 3.709935e+000 4.019797e+000 3.504110e+000 3.565490e+000 3.548729e+000 2.464768e+000 2.033703e+000
<GCONST> 1.007090e+002
<TRANSP> 5
 0.000000e+000 1.000000e+000 0.000000e+000 0.000000e+000 0.000000e+000
 0.000000e+000 5.329343e-001 4.670657e-001 0.000000e+000 0.000000e+000
 0.000000e+000 0.000000e+000 6.635348e-001 3.364652e-001 0.000000e+000
 0.000000e+000 0.000000e+000 0.000000e+000 6.005560e-001 3.994441e-001
 0.000000e+000 0.000000e+000 0.000000e+000 0.000000e+000 0.000000e+000
<ENDHMM>
~h "j"
<BEGINHMM>
<NUMSTATES> 5
<STATE> 2
<MEAN> 25
 -1.206877e+000 2.030012e+000 1.095667e+001 -8.795673e-001 -8.018731e+000 -1.636376e+000 -1.162269e+000 -2.489253e+000 -5.171662e+000 6.322637e-001 7.764770e-001 6.009293e-001 -5.115234e-002 -8.892602e-003 1.460125e+000 -7.296019e-001 -1.647073e+000 -1.022781e-001 -4.292151e-001 -4.320011e-001 -6.968344e-001 6.937427e-001 2.774832e-001 3.176410e-001 8.266628e-001
<VARIANCE> 25
 1.425164e+001 3.436060e+001 3.517745e+001 3.691362e+001 3.007686e+001 4.430967e+001 3.661995e+001 4.635377e+001 3.425463e+001 3.633889e+001 2.481081e+001 2.074328e+001 3.280066e+000 2.918310e+000 3.221586e+000 3.209265e+000 3.887605e+000 3.785469e+000 3.867023e+000 3.690876e+000 3.466588e+000 3.230598e+000 2.594853e+000 2.073170e+000 2.539052e+000
<GCONST> 1.022841e+002
<STATE> 3
<MEAN> 25
 -8.865443e-001 8.810605e-002 1.077899e+001 -2.323322e+000 -1.095657e+001 -2.804854e+000 -4.207245e-001 -2.838095e+000 -5.252937e+000 3.415039e+000 1.855601e+000 1.550856e+000 3.454378e-001 -9.160511e-001 -1.024451e+000 2.417402e-001 -2.571409e-001 -1.004226e+000 5.344251e-001 1.092409e+000 4.066873e-001 2.577111e-001 3.654211e-001 2.110048e-001 4.509920e-001
<VARIANCE> 25
 6.933339e+000 1.803132e+001 2.367469e+001 3.379383e+001 2.100525e+001 3.875159e+001 3.056971e+001 3.587110e+001 3.163906e+001 3.862857e+001 2.493994e+001 2.032015e+001 7.586538e-001 1.576040e+000 2.055720e+000 1.665448e+000 1.479956e+000 2.166666e+000 2.518068e+000 2.602996e+000 2.101127e+000 1.896810e+000 1.498809e+000 1.265460e+000 9.062738e-001
<GCONST> 9.087754e+001
<STATE> 4
<MEAN> 25
 8.219765e-001 -3.455290e+000 5.101566e+000 -2.062691e-001 -8.791383e+000 -6.418508e+000 1.288102e+000 3.070303e+000 -2.976386e+000 1.640602e+000 1.758578e+000 1.755877e+000 6.579865e-001 -7.435229e-001 -2.048492e+000 4.145835e-001 1.666579e+000 -2.208295e-001 -1.802106e-001 1.203616e+000 1.228448e+000 -6.212709e-001 -7.447870e-001 -1.496341e-001 -7.135508e-002
<VARIANCE> 25
 7.066008e+000 1.631680e+001 2.213277e+001 3.042960e+001 2.390686e+001 3.390454e+001 5.173372e+001 3.252382e+001 3.394402e+001 3.224029e+001 2.712338e+001 1.705836e+001 5.577121e-001 1.558938e+000 2.516064e+000 1.732350e+000 2.155262e+000 2.399487e+000 3.608604e+000 3.325100e+000 2.805705e+000 3.191948e+000 2.046755e+000 1.728683e+000 9.227896e-001
<GCONST> 9.330346e+001
<TRANSP> 5
 0.000000e+000 1.000000e+000 0.000000e+000 0.000000e+000 0.000000e+000
 0.000000e+000 5.575185e-001 4.424815e-001 0.000000e+000 0.000000e+000
 0.000000e+000 0.000000e+000 5.721760e-001 4.278240e-001 0.000000e+000
 0.000000e+000 0.000000e+000 0.000000e+000 5.066116e-001 4.933884e-001
 0.000000e+000 0.000000e+000 0.000000e+000 0.000000e+000 0.000000e+000
<ENDHMM>
~h "k"
<BEGINHMM>
<NUMSTATES> 5
<STATE> 2
<MEAN> 25
 -4.269169e+000 4.336902e-001 -2.838736e+000 3.795339e+000 5.932980e+000 8.648313e-001 9.815320e-001 2.856031e+000 2.736249e+000 2.741271e-001 -3.888049e-001 -2.897752e-001 -1.063209e+000 -2.639570e+000 -1.875619e+000 -7.947621e-001 3.692287e-001 2.601099e-001 -9.727147e-001 9.981598e-002 -6.617611e-001 6.592016e-001 3.575060e-001 8.764637e-001 1.912495e+000
<VARIANCE> 25
 2.606019e+001 4.110194e+001 4.174150e+001 3.568171e+001 4.465486e+001 4.167068e+001 4.358400e+001 4.269858e+001 4.041589e+001 3.339624e+001 3.403920e+001 2.447358e+001 3.798474e+000 3.939630e+000 5.596288e+000 4.683007e+000 5.842223e+000 7.168941e+000 4.884758e+000 4.671998e+000 4.701529e+000 4.279345e+000 3.365570e+000 3.334303e+000 4.202024e+000
<GCONST> 1.089093e+002
<STATE> 3
<MEAN> 25
 -6.687510e+000 -6.172538e+000 -9.188795e+000 -3.423355e-001 5.895317e+000 1.609697e+000 -1.813400e+000 2.215224e+000 8.107349e-001 2.764597e+000 1.286614e+000 2.019372e+000 5.337886e-001 -1.076092e+000 -7.008626e-001 -2.104053e+000 -1.494610e+000 -4.404926e-001 -8.655066e-001 -4.964551e-001 -1.130400e+000 6.581773e-001 4.819635e-001 1.652820e-001 2.122803e+000
<VARIANCE> 25
 1.764969e+001 3.032049e+001 6.266166e+001 4.559484e+001 5.413105e+001 7.656678e+001 4.754759e+001 4.430081e+001 4.434622e+001 3.419271e+001 3.618701e+001 2.766082e+001 4.184974e+000 2.955594e+000 5.278272e+000 3.732486e+000 4.547360e+000 5.592586e+000 4.317407e+000 4.146753e+000 4.689183e+000 3.889050e+000 3.881775e+000 2.980134e+000 2.469955e+000
<GCONST> 1.082748e+002
<STATE> 4
<MEAN> 25
 -3.593516e+000 -3.196458e+000 -5.829548e+000 -4.016861e+000 1.180358e+000 -3.620905e-001 -2.370732e+000 3.108439e-001 -1.431578e+000 2.527617e+000 1.685424e+000 6.486438e-001 2.367787e+000 9.626197e-001 1.667953e+000 -1.034915e+000 -1.861682e+000 -6.934090e-001 -3.142321e-001 -8.576785e-001 -1.189982e+000 -1.897497e-001 2.394547e-001 -7.784249e-001 1.309533e+000
<VARIANCE> 25
 3.997897e+001 2.184422e+001 7.099262e+001 3.884035e+001 4.063344e+001 7.522839e+001 4.209692e+001 4.212453e+001 4.254280e+001 3.569395e+001 4.123187e+001 2.675500e+001 2.527282e+000 3.075358e+000 3.475604e+000 3.613410e+000 3.689623e+000 4.365592e+000 4.416154e+000 4.628959e+000 4.975665e+000 4.251141e+000 5.474421e+000 2.965727e+000 2.379082e+000
<GCONST> 1.075619e+002
<TRANSP> 5
 0.000000e+000 1.000000e+000 0.000000e+000 0.000000e+000 0.000000e+000
 0.000000e+000 5.123703e-001 4.876296e-001 0.000000e+000 0.000000e+000
 0.000000e+000 0.000000e+000 3.486194e-001 6.513806e-001 0.000000e+000
 0.000000e+000 0.000000e+000 0.000000e+000 5.123905e-001 4.876095e-001
 0.000000e+000 0.000000e+000 0.000000e+000 0.000000e+000 0.000000e+000
<ENDHMM>
~h "l"
<BEGINHMM>
<NUMSTATES> 5
<STATE> 2
<MEAN> 25
 3.850232e+000 -3.578114e+000 -1.667885e+000 -2.219272e+000 -2.567705e+000 2.947547e+000 -2.347124e+000 -8.140534e+000 -8.951741e-001 3.233532e+000 3.910519e+000 -1.153940e-001 1.650507e+000 -4.083154e-003 4.265370e-001 -1.095229e+000 -4.116903e-001 3.978941e-001 -7.990741e-001 -1.808064e+000 -4.566711e-001 1.071519e+000 1.879033e-001 4.394551e-002 4.328363e-001
<VARIANCE> 25
 3.418280e+001 2.044034e+001 3.842226e+001 3.468562e+001 3.454997e+001 5.185754e+001 5.232742e+001 4.464996e+001 4.710637e+001 3.760979e+001 3.757260e+001 2.915612e+001 3.507221e+000 2.743564e+000 3.256865e+000 5.325952e+000 4.804482e+000 5.925836e+000 5.367640e+000 5.321871e+000 5.086398e+000 4.430873e+000 5.235402e+000 3.462343e+000 2.531376e+000
<GCONST> 1.081769e+002
<STATE> 3
<MEAN> 25
 5.892446e+000 -3.316209e+000 -9.650820e-001 -3.918060e+000 -2.201038e+000 3.845082e+000 -3.371803e+000 -9.200747e+000 -1.015285e+000 4.798229e+000 3.742405e+000 -5.809163e-002 4.365802e-001 -1.769471e-001 -1.369888e-001 -8.513275e-001 4.077579e-001 1.261263e-001 -4.703210e-001 7.977002e-001 4.079393e-001 1.218582e-001 -6.099344e-001 -1.602320e-001 6.341448e-001
<VARIANCE> 25
 2.012453e+001 1.801686e+001 3.760445e+001 3.975075e+001 3.691690e+001 4.834860e+001 5.950016e+001 4.320020e+001 4.883297e+001 4.071672e+001 4.253012e+001 2.704819e+001 2.076561e+000 1.714408e+000 3.170472e+000 3.452461e+000 3.932719e+000 4.977837e+000 4.091449e+000 5.363282e+000 5.008711e+000 3.658579e+000 3.953250e+000 3.618318e+000 1.374908e+000
<GCONST> 1.047445e+002
<STATE> 4
<MEAN> 25
 5.018557e+000 -4.262468e+000 -2.366210e+000 -5.062570e+000 -2.641664e-001 3.321024e+000 -4.000545e+000 -4.533799e+000 1.442605e+000 3.526031e+000 1.382292e+000 -1.154188e+000 -2.861037e-001 -3.412036e-001 -6.438197e-001 -6.856036e-002 4.935353e-001 -3.353828e-001 5.866337e-001 2.029879e+000 1.705323e-001 -7.750197e-001 -8.968179e-001 -2.898794e-001 6.047122e-001
<VARIANCE> 25
 1.595478e+001 1.782031e+001 4.567138e+001 4.226733e+001 3.940441e+001 5.792263e+001 5.430957e+001 4.298796e+001 4.433069e+001 3.813627e+001 4.185466e+001 3.309024e+001 1.106394e+000 1.726430e+000 2.733876e+000 3.296180e+000 3.995317e+000 5.370904e+000 4.522161e+000 4.843969e+000 4.249853e+000 3.496554e+000 3.712368e+000 3.099160e+000 7.081332e-001
<GCONST> 1.031122e+002
<TRANSP> 5
 0.000000e+000 1.000000e+000 0.000000e+000 0.000000e+000 0.000000e+000
 0.000000e+000 3.234273e-001 6.765727e-001 0.000000e+000 0.000000e+000
 0.000000e+000 0.000000e+000 2.802712e-001 7.197288e-001 0.000000e+000
 0.000000e+000 0.000000e+000 0.000000e+000 3.705167e-001 6.294832e-001
 0.000000e+000 0.000000e+000 0.000000e+000 0.000000e+000 0.000000e+000
<ENDHMM>
~h "m"
<BEGINHMM>
<NUMSTATES> 5
<STATE> 2
<MEAN> 25
 7.247082e+000 1.322440e+000 1.281630e+000 4.659355e+000 1.859980e+000 -1.086615e+000 1.468020e+000 -6.868091e+000 -5.248187e+000 8.688824e-001 3.371027e-001 -3.261350e+000 2.550392e-001 7.735834e-001 6.560605e-001 1.346311e+000 3.530171e-001 -4.854698e-001 2.909696e-001 -1.375065e+000 -8.003760e-001 2.105256e-001 8.830477e-002 -2.995443e-001 -5.693291e-001
<VARIANCE> 25
 7.236682e+000 1.820975e+001 1.393203e+001 2.337094e+001 2.874855e+001 3.244283e+001 3.548658e+001 4.129806e+001 3.779332e+001 3.452596e+001 3.175658e+001 2.602699e+001 7.741668e-001 1.687009e+000 1.589651e+000 2.050113e+000 2.199382e+000 2.634542e+000 2.501904e+000 3.291642e+000 3.122649e+000 2.431287e+000 2.386202e+000 2.115331e+000 1.534428e+000
<GCONST> 9.402074e+001
<STATE> 3
<MEAN> 25
 7.131274e+000 2.696425e+000 2.389168e+000 5.895131e+000 2.483885e+000 -1.205051e+000 1.674484e+000 -7.476281e+000 -5.513987e+000 3.834410e-001 7.252223e-003 -2.987949e+000 -3.621151e-001 -8.888460e-002 2.915047e-001 -3.553731e-001 -1.181373e-001 3.384756e-001 -2.638857e-001 9.720710e-001 3.909039e-001 -5.765616e-001 -2.001341e-001 3.119472e-001 1.744794e-001
<VARIANCE> 25
 6.981119e+000 2.017535e+001 1.403120e+001 2.371309e+001 2.691875e+001 3.520406e+001 3.365742e+001 4.276025e+001 4.185808e+001 3.700271e+001 3.626110e+001 2.672205e+001 5.939456e-001 1.783695e+000 1.530420e+000 1.708919e+000 1.908083e+000 2.058362e+000 2.267698e+000 2.828900e+000 2.652589e+000 2.141766e+000 2.165333e+000 1.829690e+000 1.575485e+000
<GCONST> 9.286348e+001
<STATE> 4
<MEAN> 25
 5.720194e+000 -9.894802e-003 1.916933e+000 3.004100e+000 1.712687e+000 1.253758e-001 -2.293800e-001 -2.357411e+000 -3.427526e+000 -1.743092e+000 -5.488352e-001 -2.172926e+000 -1.240993e+000 -1.056896e+000 3.284090e-001 -1.852106e+000 -1.107150e+000 9.355089e-001 -3.876760e-001 2.340084e+000 9.553266e-001 -5.155440e-001 -5.168269e-001 6.557139e-001 1.371502e+000
<VARIANCE> 25
 9.629998e+000 3.243055e+001 2.557621e+001 3.314958e+001 3.026200e+001 3.908969e+001 3.262392e+001 4.829556e+001 4.025903e+001 3.441581e+001 3.232955e+001 2.320778e+001 1.248677e+000 2.141499e+000 5.175290e+000 3.536803e+000 4.968997e+000 3.936794e+000 3.930063e+000 4.866138e+000 5.308660e+000 4.016080e+000 3.745584e+000 3.247073e+000 1.342273e+000
<GCONST> 1.023937e+002
<TRANSP> 5
 0.000000e+000 1.000000e+000 0.000000e+000 0.000000e+000 0.000000e+000
 0.000000e+000 5.883511e-001 4.116489e-001 0.000000e+000 0.000000e+000
 0.000000e+000 0.000000e+000 5.046088e-001 4.953912e-001 0.000000e+000
 0.000000e+000 0.000000e+000 0.000000e+000 4.547754e-001 5.452246e-001
 0.000000e+000 0.000000e+000 0.000000e+000 0.000000e+000 0.000000e+000
<ENDHMM>
~h "n"
<BEGINHMM>
<NUMSTATES> 5
<STATE> 2
<MEAN> 25
 5.956388e+000 1.617194e+000 2.657179e+000 4.493303e+000 -2.062218e-002 -2.912973e+000 1.531020e+000 -5.554737e+000 -2.072523e+000 6.155414e-001 -4.889391e+000 -5.745602e-001 4.861495e-001 4.895351e-001 5.249915e-001 6.399010e-001 6.304891e-002 -4.382729e-001 1.535666e-001 -1.091577e+000 -5.058386e-001 2.671198e-001 -6.548493e-001 1.411452e-001 7.637682e-002
<VARIANCE> 25
 1.010329e+001 1.775467e+001 1.681915e+001 2.132680e+001 2.869217e+001 3.265770e+001 3.195900e+001 4.521875e+001 3.773009e+001 3.796966e+001 3.460347e+001 2.998902e+001 1.297741e+000 2.492396e+000 2.176375e+000 1.951349e+000 2.667936e+000 3.229325e+000 2.991545e+000 4.050668e+000 3.262956e+000 2.797977e+000 2.916628e+000 2.381664e+000 2.782496e+000
<GCONST> 9.779103e+001
<STATE> 3
<MEAN> 25
 6.245135e+000 8.562526e-001 2.859298e+000 4.827332e+000 6.605870e-001 -2.232769e+000 1.053821e+000 -6.202998e+000 -2.100133e+000 1.085249e+000 -5.347603e+000 -1.602723e-001 -3.035207e-001 -1.218705e+000 -5.711279e-001 -9.047332e-001 4.723823e-001 1.183562e+000 -7.725589e-001 1.054981e+000 3.771626e-001 -4.668345e-001 1.385587e-001 6.295799e-002 1.224725e+000
<VARIANCE> 25
 7.291453e+000 1.931525e+001 1.714997e+001 2.249809e+001 2.939650e+001 3.499411e+001 3.155994e+001 4.738726e+001 3.799366e+001 3.920197e+001 3.396184e+001 3.046141e+001 8.010681e-001 2.659315e+000 2.400318e+000 2.037286e+000 2.388460e+000 3.396118e+000 3.014091e+000 4.043445e+000 3.482290e+000 2.739570e+000 2.497071e+000 2.238055e+000 1.665531e+000
<GCONST> 9.676761e+001
<STATE> 4
<MEAN> 25
 4.767574e+000 -3.589888e+000 2.985054e-001 7.642741e-001 2.039937e+000 1.623499e+000 -1.944467e+000 -9.695953e-001 -1.728867e-001 -1.451378e+000 -4.564178e+000 -4.031362e-001 -6.842239e-001 -1.351753e+000 -1.261794e+000 -1.730854e+000 3.150808e-001 1.611147e+000 -3.044607e-001 1.993115e+000 2.467897e-001 -8.024290e-001 6.196405e-001 -1.008263e-001 1.491160e+000
<VARIANCE> 25
 9.505416e+000 2.908686e+001 2.754353e+001 2.447016e+001 3.011657e+001 4.272226e+001 3.864274e+001 5.353333e+001 3.676581e+001 3.898907e+001 3.139102e+001 2.711244e+001 1.048185e+000 2.922795e+000 2.940269e+000 2.624183e+000 3.589984e+000 4.232292e+000 3.926400e+000 4.263964e+000 4.478031e+000 3.597395e+000 2.993585e+000 2.709680e+000 1.264732e+000
<GCONST> 1.007004e+002
<TRANSP> 5
 0.000000e+000 1.000000e+000 0.000000e+000 0.000000e+000 0.000000e+000
 0.000000e+000 4.839606e-001 5.160394e-001 0.000000e+000 0.000000e+000
 0.000000e+000 0.000000e+000 3.743492e-001 6.256508e-001 0.000000e+000
 0.000000e+000 0.000000e+000 0.000000e+000 3.982785e-001 6.017215e-001
 0.000000e+000 0.000000e+000 0.000000e+000 0.000000e+000 0.000000e+000
<ENDHMM>
~h "o"
<BEGINHMM>
<NUMSTATES> 5
<STATE> 2
<MEAN> 25
 6.043813e+000 -2.206738e+000 -7.151330e+000 -8.601055e+000 1.362757e-001 7.718587e+000 -2.930065e+000 -2.188860e+000 -1.354922e+000 1.724687e+000 2.869085e+000 -1.270637e+000 6.862129e-001 3.188491e-001 -3.936531e-001 -1.532425e+000 -6.939308e-002 1.272664e+000 3.257428e-001 -6.110367e-002 -5.137503e-001 1.542009e-001 8.174133e-001 7.898382e-003 3.376153e-001
<VARIANCE> 25
 9.268939e+000 2.148387e+001 1.785143e+001 4.498337e+001 4.065816e+001 4.174390e+001 4.428611e+001 3.464849e+001 4.135399e+001 4.631861e+001 4.157080e+001 2.692378e+001 1.322753e+000 1.444709e+000 1.945225e+000 3.231876e+000 2.799172e+000 2.885529e+000 2.964446e+000 3.353175e+000 3.201829e+000 3.123262e+000 2.728750e+000 2.199051e+000 1.635564e+000
<GCONST> 9.873822e+001
<STATE> 3
<MEAN> 25
 6.824660e+000 -8.143128e-001 -6.914329e+000 -1.099234e+001 1.274047e-001 9.769935e+000 -9.571486e-001 -2.605385e+000 -2.814337e+000 1.306612e+000 4.479935e+000 -1.240550e-001 7.902070e-003 5.212896e-001 4.639108e-001 7.351021e-001 4.130877e-001 -4.779420e-001 -2.215602e-002 -3.041426e-001 3.200663e-002 2.973453e-001 -2.074183e-003 -8.643400e-002 -5.656920e-001
<VARIANCE> 25
 7.434257e+000 1.867423e+001 1.744780e+001 4.269191e+001 4.148933e+001 3.717269e+001 4.414670e+001 3.406339e+001 3.723750e+001 4.690563e+001 4.051335e+001 2.814770e+001 4.903387e-001 1.606642e+000 1.054254e+000 2.422626e+000 2.117585e+000 2.164367e+000 2.825450e+000 2.298846e+000 2.760958e+000 2.671238e+000 2.193192e+000 1.906026e+000 1.150812e+000
<GCONST> 9.431631e+001
<STATE> 4
<MEAN> 25
 5.849751e+000 1.448228e+000 -3.841884e+000 -4.343387e+000 2.641228e+000 4.823512e+000 -2.471652e+000 -2.928569e+000 -2.475204e-001 3.082732e+000 2.223281e+000 -1.663242e+000 -7.492216e-001 1.192456e+000 1.409534e+000 2.046122e+000 2.573863e-001 -1.501902e+000 7.915727e-001 4.942274e-001 6.926076e-001 -5.814081e-001 -8.484181e-001 -2.059201e-002 -1.520757e+000
<VARIANCE> 25
 1.085304e+001 2.827422e+001 1.995428e+001 3.553761e+001 3.344651e+001 3.840549e+001 5.171746e+001 3.801500e+001 4.395877e+001 4.263657e+001 4.209673e+001 2.863117e+001 1.939180e+000 2.594918e+000 1.840303e+000 3.039720e+000 3.259144e+000 3.575902e+000 3.774139e+000 4.325076e+000 4.153187e+000 3.527429e+000 3.623501e+000 2.529148e+000 1.849333e+000
<GCONST> 1.017101e+002
<TRANSP> 5
 0.000000e+000 1.000000e+000 0.000000e+000 0.000000e+000 0.000000e+000
 0.000000e+000 5.530521e-001 4.469479e-001 0.000000e+000 0.000000e+000
 0.000000e+000 0.000000e+000 6.408261e-001 3.591739e-001 0.000000e+000
 0.000000e+000 0.000000e+000 0.000000e+000 5.499094e-001 4.500906e-001
 0.000000e+000 0.000000e+000 0.000000e+000 0.000000e+000 0.000000e+000
<ENDHMM>
~h "p"
<BEGINHMM>
<NUMSTATES> 5
<STATE> 2
<MEAN> 25
 4.094832e-001 4.813815e+000 5.405694e-001 1.278527e+000 1.765738e+000 7.328495e-001 2.169093e+000 2.314058e+000 3.757797e+000 -8.131211e-001 -2.838894e-002 -1.183238e+000 -1.663249e+000 -1.956926e+000 -7.473031e-001 -7.758532e-004 -1.569114e-001 1.520333e-001 -8.518267e-001 -1.576634e-001 -1.546433e-001 -4.035859e-002 5.343274e-001 4.442707e-001 1.310663e+000
<VARIANCE> 25
 1.760110e+001 1.677547e+001 1.783945e+001 1.945599e+001 2.026311e+001 2.616469e+001 2.377007e+001 2.873753e+001 2.669411e+001 2.429810e+001 3.083809e+001 2.251810e+001 1.627936e+000 2.921718e+000 2.343514e+000 2.119771e+000 2.412088e+000 2.967793e+000 3.048875e+000 2.887229e+000 2.733740e+000 2.500658e+000 2.638429e+000 2.125831e+000 4.161369e+000
<GCONST> 9.568037e+001
<STATE> 3
<MEAN> 25
 -5.082664e+000 -3.796214e+000 -2.932337e+000 1.346096e+000 1.332353e+000 1.326130e+000 -1.665022e+000 1.249872e+000 2.703111e+000 -7.799707e-001 1.786761e+000 2.667850e-001 3.049026e-001 -2.586178e+000 -1.660469e+000 -1.276601e+000 -1.092859e+000 -1.419898e-001 -1.720461e+000 -7.744429e-001 -1.071937e+000 2.986979e-001 6.675445e-001 3.889014e-001 3.911534e+000
<VARIANCE> 25
 1.339869e+001 2.449841e+001 2.220465e+001 1.988310e+001 2.500331e+001 3.056020e+001 3.178742e+001 3.291928e+001 2.455050e+001 2.388228e+001 3.187072e+001 2.007712e+001 2.740345e+000 2.351616e+000 3.411010e+000 4.423219e+000 3.673714e+000 5.374704e+000 3.527380e+000 4.112218e+000 3.731963e+000 3.523502e+000 3.966749e+000 2.813197e+000 2.744101e+000
<GCONST> 1.004904e+002
<STATE> 4
<MEAN> 25
 1.814059e-001 -4.274028e+000 -5.926858e+000 -3.039504e+000 -1.226074e+000 9.143077e-001 -3.330973e+000 -5.058333e-001 -2.440730e-001 -1.285406e-001 2.406811e+000 2.529881e-001 2.576230e+000 -1.254511e-001 -5.226018e-001 -2.009429e+000 -1.294596e+000 3.123132e-001 -3.803156e-001 -6.825624e-001 -1.201526e+000 4.011353e-001 8.699185e-002 -1.349042e-002 2.609099e+000
<VARIANCE> 25
 2.252171e+001 1.962844e+001 2.745947e+001 4.267075e+001 3.006038e+001 3.959381e+001 3.208187e+001 3.244846e+001 2.716112e+001 2.525024e+001 2.733740e+001 2.117145e+001 2.232229e+000 3.793274e+000 3.954913e+000 8.808845e+000 4.102201e+000 6.279070e+000 4.345323e+000 4.576502e+000 4.268044e+000 3.980404e+000 5.260323e+000 2.800295e+000 3.200541e+000
<GCONST> 1.046375e+002
<TRANSP> 5
 0.000000e+000 1.000000e+000 0.000000e+000 0.000000e+000 0.000000e+000
 0.000000e+000 5.700583e-001 4.299417e-001 0.000000e+000 0.000000e+000
 0.000000e+000 0.000000e+000 3.096140e-001 6.903859e-001 0.000000e+000
 0.000000e+000 0.000000e+000 0.000000e+000 3.110448e-001 6.889552e-001
 0.000000e+000 0.000000e+000 0.000000e+000 0.000000e+000 0.000000e+000
<ENDHMM>
~h "r"
<BEGINHMM>
<NUMSTATES> 5
<STATE> 2
<MEAN> 25
 2.466369e+000 -4.008259e+000 -3.739533e-001 1.710941e+000 -2.975927e+000 -2.979931e+000 -4.798153e+000 8.254935e-001 4.415485e+000 7.846114e-001 -2.584037e-001 1.494616e-003 9.792370e-001 -8.181291e-001 1.084411e+000 7.367203e-001 -9.458902e-001 2.810078e-001 -6.434293e-001 3.356548e-001 5.100713e-001 -1.180513e-001 -2.148784e-001 1.327282e-001 1.011594e-001
<VARIANCE> 25
 1.290444e+001 1.843521e+001 3.116594e+001 2.490566e+001 2.861333e+001 4.344243e+001 3.357735e+001 3.836888e+001 3.131284e+001 3.313615e+001 2.795717e+001 2.485742e+001 2.308968e+000 2.367650e+000 3.548209e+000 3.332950e+000 3.323953e+000 4.710379e+000 3.669814e+000 4.270345e+000 3.220272e+000 3.651039e+000 3.489378e+000 2.615464e+000 1.839124e+000
<GCONST> 1.008048e+002
<STATE> 3
<MEAN> 25
 3.684875e+000 -6.327616e+000 9.944761e-001 2.803109e+000 -4.741333e+000 -1.936931e+000 -5.140494e+000 1.828607e+000 4.548290e+000 6.526348e-001 -5.574902e-001 7.337425e-001 5.503209e-001 -9.885053e-001 3.187248e-002 -1.967602e-001 -4.946273e-001 -2.826166e-003 2.282549e-001 5.647884e-001 -4.705146e-001 1.144044e-001 -1.765767e-001 8.616351e-002 3.626139e-001
<VARIANCE> 25
 1.103296e+001 2.302729e+001 3.150327e+001 2.390249e+001 3.196247e+001 3.745816e+001 3.200663e+001 4.069056e+001 3.245968e+001 3.285792e+001 2.809068e+001 2.412523e+001 1.410720e+000 1.950568e+000 3.354666e+000 2.514751e+000 2.686478e+000 3.736529e+000 3.109810e+000 4.179483e+000 2.933310e+000 3.235643e+000 3.190856e+000 2.287948e+000 1.401994e+000
<GCONST> 9.845126e+001
<STATE> 4
<MEAN> 25
 4.381191e+000 -7.439112e+000 1.621447e-002 1.392579e+000 -4.675326e+000 -2.366825e+000 -3.748486e+000 2.985596e+000 2.803794e+000 1.001458e+000 -8.185618e-001 3.141695e-001 2.056358e-001 -9.069281e-002 -2.354323e-001 -6.981449e-001 3.999214e-001 8.309300e-003 8.612858e-001 1.655639e-001 -1.020677e+000 1.685471e-001 -9.420340e-002 -2.117528e-001 2.316988e-001
<VARIANCE> 25
 1.281190e+001 2.456088e+001 3.720228e+001 2.365488e+001 3.022816e+001 3.993518e+001 3.623859e+001 4.664931e+001 3.706364e+001 3.515258e+001 3.717274e+001 2.743399e+001 1.361344e+000 2.039392e+000 2.370530e+000 2.301101e+000 3.288907e+000 3.539034e+000 3.001369e+000 3.968110e+000 3.066832e+000 3.067344e+000 3.337871e+000 2.079372e+000 1.223644e+000
<GCONST> 9.913699e+001
<TRANSP> 5
 0.000000e+000 1.000000e+000 0.000000e+000 0.000000e+000 0.000000e+000
 0.000000e+000 3.993865e-001 6.006135e-001 0.000000e+000 0.000000e+000
 0.000000e+000 0.000000e+000 3.287690e-001 6.712310e-001 0.000000e+000
 0.000000e+000 0.000000e+000 0.000000e+000 2.890452e-001 7.109548e-001
 0.000000e+000 0.000000e+000 0.000000e+000 0.000000e+000 0.000000e+000
<ENDHMM>
~h "s"
<BEGINHMM>
<NUMSTATES> 5
<STATE> 2
<MEAN> 25
 -9.968747e+000 9.712345e+000 -5.699325e-002 4.013827e+000 5.446080e+000 -2.556458e+000 2.298878e+000 2.689234e+000 1.404652e+000 -1.243928e+000 4.782302e-001 1.193273e+000 -3.917656e+000 1.991554e+000 -1.450622e+000 8.388985e-001 1.463688e+000 5.009215e-001 8.445596e-001 1.074117e+000 7.542776e-001 -4.458332e-001 6.949003e-001 3.533416e-002 6.963299e-003
<VARIANCE> 25
 3.566751e+001 2.643797e+001 2.871422e+001 2.919264e+001 4.145193e+001 4.182298e+001 4.803927e+001 3.777470e+001 3.221664e+001 3.306326e+001 3.762832e+001 2.889583e+001 2.274098e+000 3.509577e+000 2.973238e+000 2.901449e+000 3.514094e+000 4.495225e+000 4.198008e+000 3.898326e+000 2.996500e+000 3.111637e+000 3.906732e+000 3.286541e+000 1.140659e+000
<GCONST> 1.031549e+002
<STATE> 3
<MEAN> 25
 -1.643937e+001 9.558927e+000 -6.702013e+000 5.279506e+000 5.580659e+000 2.784152e-001 2.373803e+000 2.911724e+000 2.410733e+000 -1.798931e+000 1.996032e+000 1.234557e+000 -1.633530e-001 -9.307964e-001 -5.377595e-001 -1.614457e-002 -2.579571e-001 2.012027e-001 -1.056324e-001 -1.615451e-001 4.846590e-002 5.193646e-002 4.587853e-002 6.692456e-003 -7.229990e-001
<VARIANCE> 25
 1.018536e+001 2.277069e+001 1.846538e+001 2.847610e+001 2.851124e+001 3.439665e+001 3.270826e+001 2.863929e+001 2.725207e+001 2.472403e+001 3.909492e+001 2.735756e+001 1.307263e+000 1.713533e+000 1.952464e+000 1.442796e+000 1.939836e+000 2.132212e+000 2.445515e+000 2.198935e+000 2.078578e+000 2.079346e+000 1.883425e+000 1.638391e+000 8.460374e-001
<GCONST> 9.224438e+001
<STATE> 4
<MEAN> 25
 -1.172404e+001 2.938420e+000 -5.575902e+000 3.002244e+000 2.310505e+000 -2.544963e+000 1.816505e+000 1.125180e+000 2.025818e+000 -3.542572e-001 1.277957e+000 1.748116e+000 3.149778e+000 -1.304077e+000 9.435409e-001 -7.617702e-001 -1.375130e+000 -9.211047e-001 -8.750936e-001 -1.147311e+000 -4.655476e-001 4.401883e-001 -3.653989e-001 -1.486484e-001 9.148102e-002
<VARIANCE> 25
 3.901265e+001 3.030287e+001 2.870242e+001 2.904978e+001 4.504593e+001 4.900500e+001 5.053422e+001 3.729178e+001 3.080006e+001 2.610125e+001 3.791554e+001 2.619547e+001 3.926979e+000 2.828416e+000 2.648744e+000 2.607744e+000 3.330908e+000 4.474842e+000 4.341635e+000 4.048131e+000 3.055898e+000 2.728084e+000 3.795630e+000 2.844958e+000 2.867099e+000
<GCONST> 1.040413e+002
<TRANSP> 5
 0.000000e+000 1.000000e+000 0.000000e+000 0.000000e+000 0.000000e+000
 0.000000e+000 6.496085e-001 3.503915e-001 0.000000e+000 0.000000e+000
 0.000000e+000 0.000000e+000 7.919090e-001 2.080910e-001 0.000000e+000
 0.000000e+000 0.000000e+000 0.000000e+000 6.369956e-001 3.630044e-001
 0.000000e+000 0.000000e+000 0.000000e+000 0.000000e+000 0.000000e+000
<ENDHMM>
~h "t"
<BEGINHMM>
<NUMSTATES> 5
<STATE> 2
<MEAN> 25
 -2.129181e+000 6.239935e+000 2.040692e+000 2.808827e+000 1.703300e+000 -8.741429e-001 1.516958e+000 2.026620e+000 3.541193e+000 -4.808280e-001 6.864532e-001 1.875441e-002 -1.511684e+000 -1.726701e+000 -6.926640e-001 -8.123924e-001 4.563022e-001 5.165828e-001 4.231149e-002 -9.211392e-002 -2.197345e-001 -2.411695e-001 5.294989e-001 2.834392e-001 6.392714e-001
<VARIANCE> 25
 3.269655e+001 1.747657e+001 2.506577e+001 2.259855e+001 2.629073e+001 3.342583e+001 2.790496e+001 3.097724e+001 2.921734e+001 2.626468e+001 3.246849e+001 2.145738e+001 3.545084e+000 3.306959e+000 2.582382e+000 2.462137e+000 2.804179e+000 3.202711e+000 3.257891e+000 3.109232e+000 2.746734e+000 2.552908e+000 2.750888e+000 2.243793e+000 4.652755e+000
<GCONST> 9.949147e+001
<STATE> 3
<MEAN> 25
 -7.805207e+000 -8.616489e-001 -8.383834e-001 -2.272691e-002 3.410803e+000 7.760829e-001 1.433648e+000 1.435367e+000 1.935637e+000 -1.416630e+000 2.270998e+000 1.358241e+000 -1.300758e+000 -2.290471e+000 -1.421983e+000 -1.186653e+000 -6.094953e-001 -8.390412e-001 -5.314310e-001 -4.211898e-001 -5.445120e-001 -9.015476e-002 3.880452e-001 6.875710e-001 2.916779e+000
<VARIANCE> 25
 2.249598e+001 3.783522e+001 3.037749e+001 2.596629e+001 2.711963e+001 3.184856e+001 3.203914e+001 3.051573e+001 2.595108e+001 2.369255e+001 3.853986e+001 2.273859e+001 4.682055e+000 2.637083e+000 3.021326e+000 2.875250e+000 3.619020e+000 4.204467e+000 4.334169e+000 3.911724e+000 3.351985e+000 3.095689e+000 3.621158e+000 2.883245e+000 3.544279e+000
<GCONST> 1.023863e+002
<STATE> 4
<MEAN> 25
 -6.399437e+000 -1.997328e+000 -3.297828e+000 -1.375785e+000 -6.700753e-001 -4.274868e+000 -2.865910e-001 6.787553e-001 1.643248e+000 -8.976106e-001 1.101326e+000 2.309597e+000 2.027114e+000 -2.971219e-001 2.006299e-001 -1.575185e-001 -1.393276e+000 -1.148479e+000 -1.125453e+000 -6.325703e-001 -4.945731e-001 6.803359e-001 -6.229916e-001 -4.084286e-001 1.697772e+000
<VARIANCE> 25
 2.821653e+001 2.574130e+001 2.442167e+001 2.391537e+001 3.128107e+001 3.872630e+001 4.658846e+001 3.159228e+001 2.753239e+001 2.648723e+001 4.120477e+001 2.627880e+001 4.484316e+000 3.279429e+000 4.845544e+000 2.981376e+000 4.235826e+000 5.262138e+000 4.496850e+000 5.186494e+000 4.474304e+000 3.595412e+000 5.572927e+000 3.602264e+000 3.291728e+000
<GCONST> 1.054592e+002
<TRANSP> 5
 0.000000e+000 1.000000e+000 0.000000e+000 0.000000e+000 0.000000e+000
 0.000000e+000 4.557621e-001 5.442379e-001 0.000000e+000 0.000000e+000
 0.000000e+000 0.000000e+000 3.554519e-001 6.445481e-001 0.000000e+000
 0.000000e+000 0.000000e+000 0.000000e+000 4.662174e-001 5.337826e-001
 0.000000e+000 0.000000e+000 0.000000e+000 0.000000e+000 0.000000e+000
<ENDHMM>
~h "u"
<BEGINHMM>
<NUMSTATES> 5
<STATE> 2
<MEAN> 25
 5.781673e+000 2.301484e+000 -4.658162e+000 -5.038856e+000 -1.070322e+000 3.837372e+000 -6.312825e+000 -5.448975e+000 -3.740001e+000 1.503323e+000 3.880332e+000 3.005566e-002 1.534528e+000 1.378770e+000 -7.134755e-001 -2.275594e+000 -5.678416e-001 1.443176e+000 5.034184e-001 -7.311984e-001 -1.495553e+000 -2.850973e-001 6.603847e-001 4.306965e-001 7.047074e-002
<VARIANCE> 25
 1.219547e+001 2.818010e+001 2.199446e+001 4.918463e+001 3.769605e+001 4.874969e+001 5.445658e+001 4.591681e+001 4.114168e+001 4.913910e+001 3.885102e+001 2.639062e+001 2.732837e+000 1.935626e+000 2.670043e+000 3.481349e+000 4.322172e+000 4.551796e+000 5.144724e+000 6.073313e+000 4.249294e+000 4.509921e+000 3.693509e+000 2.840181e+000 2.435272e+000
<GCONST> 1.051679e+002
<STATE> 3
<MEAN> 25
 8.171589e+000 6.166461e+000 -4.382339e+000 -9.904896e+000 -3.744438e+000 5.890888e+000 -1.368191e+000 -2.552834e+000 -5.603279e+000 -1.901786e+000 2.568798e+000 1.015203e+000 1.560845e-002 2.859428e-001 2.782614e-001 3.738677e-001 2.065529e-001 -6.915550e-002 2.522987e-001 -1.421165e-002 1.998433e-001 -5.770767e-002 -1.351884e-001 -4.977577e-002 -3.724914e-001
<VARIANCE> 25
 6.773792e+000 2.468052e+001 2.093529e+001 3.613173e+001 3.496098e+001 4.115955e+001 3.889090e+001 4.489708e+001 4.082828e+001 4.537282e+001 3.742698e+001 2.921282e+001 5.294345e-001 2.060760e+000 1.285139e+000 2.906071e+000 2.541221e+000 2.764835e+000 3.536670e+000 4.096028e+000 2.809727e+000 3.242040e+000 2.985337e+000 2.247909e+000 1.374073e+000
<GCONST> 9.741113e+001
<STATE> 4
<MEAN> 25
 5.975732e+000 4.812776e+000 -1.846791e+000 -2.718613e+000 6.397546e-001 3.620064e+000 -3.427080e+000 -4.751633e+000 -1.844815e+000 5.846738e-001 2.509091e+000 1.927235e-001 -1.127123e+000 -6.460171e-003 1.245439e+000 2.049948e+000 7.788839e-001 -1.343976e+000 3.246719e-001 7.204576e-001 1.268818e+000 1.647811e-002 -7.275029e-001 -3.930606e-001 -8.125377e-001
<VARIANCE> 25
 1.066837e+001 2.787922e+001 2.583778e+001 3.317864e+001 3.678769e+001 4.049293e+001 6.301424e+001 5.325898e+001 3.921313e+001 4.496937e+001 3.885144e+001 2.741844e+001 1.738511e+000 2.901670e+000 1.991286e+000 3.223255e+000 3.638605e+000 3.580974e+000 4.630746e+000 5.214682e+000 4.249068e+000 4.058568e+000 3.484812e+000 2.666069e+000 2.183154e+000
<GCONST> 1.033528e+002
<TRANSP> 5
 0.000000e+000 1.000000e+000 0.000000e+000 0.000000e+000 0.000000e+000
 0.000000e+000 5.604627e-001 4.395373e-001 0.000000e+000 0.000000e+000
 0.000000e+000 0.000000e+000 7.208504e-001 2.791496e-001 0.000000e+000
 0.000000e+000 0.000000e+000 0.000000e+000 6.021947e-001 3.978052e-001
 0.000000e+000 0.000000e+000 0.000000e+000 0.000000e+000 0.000000e+000
<ENDHMM>
~h "v"
<BEGINHMM>
<NUMSTATES> 5
<STATE> 2
<MEAN> 25
 3.919489e+000 1.020855e+000 -8.089657e-001 1.529573e+000 2.539605e+000 1.082320e+000 -3.888504e+000 -2.909182e+000 -1.334150e+000 1.657992e+000 1.806911e+000 -1.634969e+000 7.216632e-001 -2.501293e-001 -3.743287e-001 -1.560184e-001 4.622332e-002 9.349851e-002 -5.929344e-001 -4.159157e-001 -2.394344e-001 3.990675e-001 7.085148e-002 -4.405527e-001 6.668077e-001
<VARIANCE> 25
 2.247979e+001 2.451659e+001 2.431524e+001 2.921960e+001 2.359623e+001 3.912307e+001 3.056810e+001 3.062491e+001 3.019039e+001 2.870755e+001 2.800638e+001 2.230037e+001 2.950461e+000 4.112777e+000 3.150823e+000 4.461707e+000 2.792427e+000 4.177804e+000 3.346945e+000 3.817886e+000 3.560177e+000 3.527753e+000 3.266752e+000 2.604548e+000 4.211890e+000
<GCONST> 1.019493e+002
<STATE> 3
<MEAN> 25
 4.884953e+000 -8.879347e-001 -1.923067e+000 1.875100e-001 1.683972e+000 6.552370e-001 -4.342206e+000 -2.154889e+000 -8.639703e-001 2.418239e+000 1.780949e+000 -2.265132e+000 4.653421e-002 -1.341454e+000 -3.870740e-001 -8.300809e-001 -9.273903e-001 -5.993791e-001 9.654047e-002 8.616770e-001 2.097737e-001 1.709598e-001 -3.718615e-001 -7.477708e-002 1.689465e+000
<VARIANCE> 25
 1.628242e+001 2.511575e+001 3.176047e+001 3.908836e+001 2.244976e+001 3.905635e+001 3.120947e+001 2.911675e+001 3.067740e+001 3.167323e+001 3.155775e+001 2.265903e+001 2.033609e+000 3.189345e+000 3.368529e+000 3.824530e+000 2.495313e+000 3.874268e+000 2.895318e+000 3.767072e+000 3.853107e+000 3.082204e+000 3.042222e+000 2.854472e+000 2.757938e+000
<GCONST> 1.008584e+002
<STATE> 4
<MEAN> 25
 4.459583e+000 -3.306445e+000 -2.184840e+000 -8.337676e-001 -3.184751e-001 -1.234247e+000 -3.601806e+000 3.366007e-001 -1.618907e-001 2.170441e+000 7.243997e-001 -1.878300e+000 -2.548062e-001 -1.167211e+000 1.932539e-001 -6.412030e-001 -1.283092e+000 -6.207223e-001 7.100306e-001 9.266028e-001 -1.225465e-002 -1.282593e-001 -5.313593e-001 2.836641e-001 1.596724e+000
<VARIANCE> 25
 1.477119e+001 2.704187e+001 4.109723e+001 4.323278e+001 2.530323e+001 4.952161e+001 3.328777e+001 3.350765e+001 3.374974e+001 3.391655e+001 3.489937e+001 2.598990e+001 1.434546e+000 1.957300e+000 3.117261e+000 2.899588e+000 3.433053e+000 3.506514e+000 2.837694e+000 3.539684e+000 4.472200e+000 3.039126e+000 3.381810e+000 2.754280e+000 1.564703e+000
<GCONST> 1.007406e+002
<TRANSP> 5
 0.000000e+000 1.000000e+000 0.000000e+000 0.000000e+000 0.000000e+000
 0.000000e+000 3.344898e-001 6.655102e-001 0.000000e+000 0.000000e+000
 0.000000e+000 0.000000e+000 1.756917e-001 8.243082e-001 0.000000e+000
 0.000000e+000 0.000000e+000 0.000000e+000 1.472716e-001 8.527283e-001
 0.000000e+000 0.000000e+000 0.000000e+000 0.000000e+000 0.000000e+000
<ENDHMM>
~h "z"
<BEGINHMM>
<NUMSTATES> 5
<STATE> 2
<MEAN> 25
 -5.124374e+000 1.210212e+001 -3.008546e+000 2.372335e+000 5.672980e+000 -5.106995e+000 -3.191355e+000 -3.004279e+000 1.681791e+000 1.848937e+000 -4.368217e-001 2.976988e-001 -3.242233e+000 3.310544e+000 -3.991649e-001 1.472806e+000 8.383653e-001 -1.342115e-001 1.128999e+000 9.336852e-001 6.412762e-001 -1.099298e+000 2.889092e-001 1.772650e-001 -4.018323e-001
<VARIANCE> 25
 2.912584e+001 3.511812e+001 2.190209e+001 3.645109e+001 4.031300e+001 3.346325e+001 3.814534e+001 3.339690e+001 3.436907e+001 3.966548e+001 2.867566e+001 2.374212e+001 1.546706e+000 3.493418e+000 1.905315e+000 2.521324e+000 3.447530e+000 4.774300e+000 3.246331e+000 3.694659e+000 2.958565e+000 2.963240e+000 4.176887e+000 3.195766e+000 6.676115e-001
<GCONST> 1.005578e+002
<STATE> 3
<MEAN> 25
 -1.248495e+001 1.479154e+001 -3.586401e+000 6.108791e+000 5.799625e+000 -1.979370e+000 2.785400e-001 1.047621e+000 2.589742e+000 -1.417758e+000 1.079794e+000 8.399948e-001 -7.180936e-002 -1.265211e+000 -1.150483e-001 -7.717154e-002 -9.963807e-002 1.380488e-001 1.239237e-002 1.425055e-002 -4.567294e-002 -8.921392e-002 6.958311e-003 2.142425e-001 -3.034975e-001
<VARIANCE> 25
 1.298868e+001 1.955578e+001 2.064713e+001 3.018652e+001 3.478806e+001 3.704301e+001 3.498417e+001 3.130911e+001 3.050917e+001 2.707016e+001 3.270947e+001 2.163942e+001 2.865949e+000 2.102754e+000 1.530166e+000 1.610892e+000 2.044245e+000 2.790704e+000 2.243717e+000 2.641673e+000 2.033323e+000 1.966339e+000 1.908713e+000 1.643808e+000 7.714047e-001
<GCONST> 9.384698e+001
<STATE> 4
<MEAN> 25
 -4.385734e+000 5.494581e+000 -4.849434e+000 2.103497e+000 3.090448e+000 -5.974046e+000 -2.865968e+000 -2.218447e+000 3.085484e+000 1.838696e+000 -1.232638e+000 1.347917e+000 3.442638e+000 -3.438046e+000 -1.849817e-001 -1.371551e+000 -1.216516e+000 -5.890772e-001 -6.705343e-001 -1.638991e-001 4.271916e-001 1.075906e+000 -9.121071e-001 -3.122078e-001 1.184974e+000
<VARIANCE> 25
 3.915026e+001 3.551939e+001 1.942724e+001 2.680158e+001 2.873467e+001 2.914517e+001 3.275887e+001 3.338480e+001 2.889053e+001 3.868704e+001 2.699303e+001 2.460236e+001 1.835464e+000 2.593343e+000 1.773317e+000 2.390591e+000 2.481124e+000 4.184567e+000 3.525430e+000 4.098830e+000 2.835309e+000 2.658190e+000 4.370523e+000 3.445550e+000 1.172495e+000
<GCONST> 9.959101e+001
<TRANSP> 5
 0.000000e+000 1.000000e+000 0.000000e+000 0.000000e+000 0.000000e+000
 0.000000e+000 6.807705e-001 3.192295e-001 0.000000e+000 0.000000e+000
 0.000000e+000 0.000000e+000 6.825068e-001 3.174932e-001 0.000000e+000
 0.000000e+000 0.000000e+000 0.000000e+000 6.736851e-001 3.263149e-001
 0.000000e+000 0.000000e+000 0.000000e+000 0.000000e+000 0.000000e+000
<ENDHMM>
~h "Cc"
<BEGINHMM>
<NUMSTATES> 5
<STATE> 2
<MEAN> 25
 -1.014296e+001 7.566738e+000 6.161747e+000 -1.344902e+000 6.816945e-001 5.426931e+000 -4.137693e+000 3.792223e+000 2.302769e+000 -2.023160e+000 2.207033e+000 9.175035e-002 -3.889438e+000 -1.578889e-001 9.894048e-002 -7.119236e-001 -3.428332e-001 1.552238e+000 2.161500e-002 2.086897e-001 2.192766e-001 -8.930246e-001 8.703740e-001 -8.682376e-002 9.951248e-001
<VARIANCE> 25
 5.671292e+001 3.261048e+001 2.805503e+001 2.524215e+001 3.545372e+001 5.533664e+001 3.396638e+001 4.596631e+001 3.243747e+001 3.213381e+001 4.084687e+001 2.835289e+001 3.007242e+000 3.895936e+000 3.011000e+000 2.093842e+000 3.662506e+000 3.801942e+000 3.874769e+000 4.393803e+000 3.198986e+000 2.998269e+000 3.049191e+000 2.346454e+000 3.418139e+000
<GCONST> 1.041993e+002
<STATE> 3
<MEAN> 25
 -2.019621e+001 2.160753e+000 5.374262e+000 -8.098620e-001 -2.699371e+000 6.406230e+000 -1.239734e-001 2.751007e+000 2.589837e+000 -5.507241e+000 4.860578e+000 1.555947e+000 2.065195e-001 -1.848267e+000 -3.572781e-001 6.685352e-001 -9.555366e-001 -1.484563e+000 1.262696e+000 2.522492e-001 -1.887231e-001 -3.528640e-001 4.393257e-001 3.742660e-001 1.745401e-001
<VARIANCE> 25
 7.435829e+000 2.367726e+001 2.502498e+001 2.680969e+001 3.593136e+001 3.456763e+001 3.058761e+001 3.835417e+001 3.490463e+001 2.906717e+001 5.524868e+001 2.687161e+001 3.972925e+000 1.533664e+000 1.871538e+000 1.594086e+000 2.348096e+000 3.123155e+000 2.585891e+000 2.878226e+000 2.391791e+000 2.228825e+000 2.370198e+000 1.793611e+000 9.199320e-001
<GCONST> 9.598070e+001
<STATE> 4
<MEAN> 25
 -1.060542e+001 -2.399580e+000 4.098759e+000 1.302279e+000 -6.155843e+000 -2.493511e+000 -6.348360e-001 2.317397e+000 9.685484e-001 -5.208960e+000 3.607989e+000 1.896684e+000 4.648103e+000 -4.802665e-001 4.990092e-002 3.779157e-001 -9.185594e-001 -2.439200e+000 -1.359269e+000 -1.055042e+000 -9.847105e-001 7.911734e-001 -8.074098e-001 -1.065981e-001 5.486135e-001
<VARIANCE> 25
 5.481647e+001 1.768948e+001 1.979003e+001 2.424158e+001 2.899460e+001 3.615025e+001 3.625781e+001 3.186221e+001 4.333815e+001 2.611934e+001 3.790205e+001 1.975022e+001 1.927651e+000 2.297284e+000 2.460742e+000 2.062075e+000 3.491083e+000 3.645768e+000 3.013033e+000 3.864830e+000 3.367570e+000 2.789423e+000 4.393231e+000 2.438852e+000 1.375643e+000
<GCONST> 9.969527e+001
<TRANSP> 5
 0.000000e+000 1.000000e+000 0.000000e+000 0.000000e+000 0.000000e+000
 0.000000e+000 7.325314e-001 2.674686e-001 0.000000e+000 0.000000e+000
 0.000000e+000 0.000000e+000 7.015396e-001 2.984603e-001 0.000000e+000
 0.000000e+000 0.000000e+000 0.000000e+000 6.593238e-001 3.406762e-001
 0.000000e+000 0.000000e+000 0.000000e+000 0.000000e+000 0.000000e+000
<ENDHMM>
~h "dz"
<BEGINHMM>
<NUMSTATES> 5
<STATE> 2
<MEAN> 25
 -5.465302e+000 8.391561e+000 1.090452e+001 1.222408e+000 -3.757982e+000 6.007278e+000 -5.067423e+000 3.430346e+000 3.127195e+000 -5.150901e+000 1.995163e+000 1.075776e-001 -4.110932e+000 5.104979e-001 2.164708e-001 5.639579e-001 -2.055171e-001 2.474290e+000 -6.577085e-002 -7.071678e-001 1.550177e+000 -6.000133e-001 7.360071e-001 -6.376626e-001 6.864985e-001
<VARIANCE> 25
 4.359557e+001 2.191083e+001 1.578980e+001 1.809299e+001 3.420861e+001 3.922536e+001 3.143582e+001 3.405243e+001 3.111679e+001 2.298424e+001 3.325377e+001 2.305305e+001 2.000443e+000 4.724928e+000 2.387325e+000 2.320862e+000 2.692507e+000 3.821946e+000 5.414408e+000 4.034035e+000 3.452952e+000 3.262059e+000 3.262697e+000 3.065604e+000 2.548672e+000
<GCONST> 1.008893e+002
<STATE> 3
<MEAN> 25
 -1.476282e+001 3.913559e+000 8.675285e+000 4.650926e+000 -5.680860e+000 6.159468e+000 -1.764936e+000 5.446092e-001 3.209401e+000 -6.836230e+000 5.241211e+000 1.353671e+000 1.348102e+000 -1.907815e+000 -1.706244e+000 1.139545e+000 -4.819311e-001 -2.926271e+000 -4.266976e-001 -8.086756e-001 -3.358769e-001 -7.359471e-001 4.865067e-001 7.440853e-001 7.555493e-001
<VARIANCE> 25
 1.606286e+001 1.863943e+001 2.618039e+001 3.401194e+001 3.111794e+001 4.443652e+001 4.483393e+001 3.796989e+001 3.140132e+001 2.909773e+001 4.516660e+001 2.549042e+001 9.235797e+000 2.120210e+000 1.892393e+000 1.655027e+000 3.624614e+000 3.857265e+000 4.610449e+000 2.944935e+000 3.245101e+000 2.699830e+000 2.799667e+000 1.977727e+000 9.921763e-001
<GCONST> 1.002145e+002
<STATE> 4
<MEAN> 25
 -4.071066e-001 -7.568832e-001 1.866049e+000 5.652957e+000 -4.610028e+000 -2.458055e+000 -9.626109e+000 -4.435208e+000 4.857160e+000 -4.872344e+000 3.243811e+000 1.349427e+000 4.114357e+000 -6.979176e-001 -1.980812e+000 -1.197554e+000 1.174069e+000 -1.893682e-001 -2.165272e+000 -2.075248e+000 6.325927e-002 2.431090e+000 -3.011975e-001 -5.999709e-001 -6.984565e-002
<VARIANCE> 25
 2.986364e+001 9.429153e+000 1.577367e+001 2.268836e+001 2.361972e+001 2.354953e+001 3.654091e+001 3.971552e+001 3.424418e+001 3.616245e+001 2.500057e+001 2.080500e+001 2.790852e+000 1.895673e+000 2.047338e+000 2.838539e+000 3.027998e+000 6.245729e+000 3.629478e+000 3.509603e+000 3.505005e+000 3.551754e+000 4.531801e+000 2.389683e+000 4.516339e-001
<GCONST> 9.746373e+001
<TRANSP> 5
 0.000000e+000 1.000000e+000 0.000000e+000 0.000000e+000 0.000000e+000
 0.000000e+000 6.708016e-001 3.291984e-001 0.000000e+000 0.000000e+000
 0.000000e+000 0.000000e+000 6.336679e-001 3.663321e-001 0.000000e+000
 0.000000e+000 0.000000e+000 0.000000e+000 6.443947e-001 3.556053e-001
 0.000000e+000 0.000000e+000 0.000000e+000 0.000000e+000 0.000000e+000
<ENDHMM>
~h "sp"
<BEGINHMM>
<NUMSTATES> 3
<STATE> 2
~s "silst"
<TRANSP> 3
 0.000000e+000 1.808971e-001 8.191030e-001
 0.000000e+000 8.383552e-001 1.616449e-001
 0.000000e+000 0.000000e+000 0.000000e+000
<ENDHMM>
~h "uzdah"
<BEGINHMM>
<NUMSTATES> 5
<STATE> 2
<MEAN> 25
 -5.445692e+000 -5.203695e+000 1.256571e+000 1.810881e+000 4.302444e+000 7.830787e-001 3.511536e+000 4.107693e+000 1.592756e+000 -2.474386e+000 1.387074e+000 2.070439e+000 -6.016206e-001 -6.306443e-001 6.504356e-002 -2.202274e-001 -1.410289e-001 -3.130642e-001 -6.772047e-002 1.065029e-001 -8.158098e-002 1.103534e-001 3.367171e-001 2.120491e-001 4.485899e-001
<VARIANCE> 25
 1.112553e+001 1.565880e+001 1.655917e+001 1.308250e+001 2.013427e+001 1.944893e+001 2.260911e+001 2.314045e+001 2.643339e+001 2.393256e+001 3.140860e+001 1.860587e+001 4.246611e-001 7.133021e-001 7.137317e-001 8.510427e-001 1.234690e+000 1.360037e+000 1.477552e+000 1.607438e+000 1.633691e+000 1.621729e+000 1.500590e+000 1.398363e+000 3.266888e-001
<GCONST> 8.182325e+001
<STATE> 3
<MEAN> 25
 -8.892958e+000 -8.927828e+000 1.804238e+000 -4.572424e-001 2.376529e+000 -9.061871e-001 3.021505e+000 4.121513e+000 6.826506e-001 -1.912802e+000 2.512190e+000 2.561815e+000 5.296281e-002 -6.226496e-002 -5.259433e-002 1.375795e-002 -6.475479e-003 6.905148e-002 -4.601971e-002 2.020381e-003 -5.704137e-002 -5.444076e-002 -7.336668e-002 2.480807e-002 -5.208483e-002
<VARIANCE> 25
 6.706055e+000 7.613143e+000 1.389492e+001 1.322541e+001 1.749306e+001 1.871423e+001 2.350849e+001 2.043421e+001 2.886336e+001 2.377989e+001 3.127431e+001 1.812664e+001 1.907477e-001 2.874765e-001 5.057136e-001 6.962667e-001 9.413971e-001 1.148444e+000 1.227552e+000 1.339581e+000 1.463281e+000 1.451616e+000 1.341007e+000 1.250635e+000 1.445277e-001
<GCONST> 7.589505e+001
<STATE> 4
<MEAN> 25
 -4.880815e+000 -6.958077e+000 -1.339799e+000 1.342800e+000 4.531297e+000 2.813038e+000 2.649922e+000 3.664390e+000 1.034427e+000 -3.518124e+000 3.069749e-001 2.644035e+000 5.988060e-001 1.050187e+000 -3.481621e-001 2.546752e-001 2.722684e-001 5.624703e-001 1.836739e-001 -3.105004e-001 2.027922e-001 2.703153e-002 -1.910351e-001 -1.327987e-001 -1.020587e+000
<VARIANCE> 25
 9.121653e+000 2.340034e+001 2.339993e+001 1.561723e+001 2.724788e+001 2.625799e+001 2.913301e+001 2.622186e+001 3.104016e+001 2.768146e+001 3.470051e+001 2.317641e+001 5.653322e-001 1.490493e+000 1.509162e+000 1.227346e+000 1.565157e+000 1.944978e+000 2.079892e+000 2.074312e+000 2.434211e+000 2.373954e+000 1.915365e+000 1.863134e+000 6.685805e-001
<GCONST> 8.951289e+001
<TRANSP> 5
 0.000000e+000 1.000000e+000 0.000000e+000 0.000000e+000 0.000000e+000
 0.000000e+000 8.740319e-001 1.259681e-001 0.000000e+000 0.000000e+000
 0.000000e+000 0.000000e+000 9.387978e-001 6.120219e-002 0.000000e+000
 0.000000e+000 0.000000e+000 0.000000e+000 7.990018e-001 2.009982e-001
 0.000000e+000 0.000000e+000 0.000000e+000 0.000000e+000 0.000000e+000
<ENDHMM>
~h "sil"
<BEGINHMM>
<NUMSTATES> 5
<STATE> 2
<MEAN> 25
 -4.828887e+000 -1.606967e+000 -1.318990e-002 1.903973e+000 3.258528e+000 1.615620e+000 3.268214e+000 2.981970e+000 2.137625e+000 -1.272642e+000 1.121383e+000 1.879435e+000 -9.654444e-002 -4.341476e-002 -1.090830e-002 8.648340e-003 1.171104e-002 2.277291e-002 -1.233243e-002 8.113067e-003 2.421929e-003 4.676716e-002 6.689365e-002 5.230129e-002 -8.460765e-002
<VARIANCE> 25
 1.042335e+001 2.725504e+001 1.395373e+001 1.402836e+001 1.773597e+001 2.161019e+001 1.999497e+001 2.394545e+001 2.588407e+001 2.306869e+001 2.758405e+001 1.948606e+001 3.301742e-001 5.984607e-001 6.423689e-001 8.019472e-001 1.055736e+000 1.296922e+000 1.402826e+000 1.506866e+000 1.518269e+000 1.574805e+000 1.479029e+000 1.345081e+000 3.054034e-001
<GCONST> 8.082344e+001
<STATE> 3
~s "silst"
<STATE> 4
<MEAN> 25
 -4.219591e+000 -2.212039e-001 -5.899683e-001 1.691308e+000 3.105542e+000 1.302869e+000 2.172952e+000 1.392551e+000 1.544212e+000 -9.281291e-001 2.395264e-001 9.770468e-001 7.423466e-001 7.579060e-002 1.939497e-001 -3.574231e-001 -6.739489e-001 -8.030289e-001 -8.574644e-001 -8.775015e-001 -8.442193e-001 2.596441e-002 -3.605537e-001 -3.221738e-001 1.585143e+000
<VARIANCE> 25
 1.881252e+001 3.032160e+001 2.367585e+001 2.284192e+001 2.901736e+001 3.622770e+001 3.033354e+001 3.449553e+001 3.248451e+001 2.690014e+001 3.059639e+001 2.309282e+001 3.302934e+000 3.189798e+000 2.851151e+000 3.222718e+000 3.548349e+000 4.094289e+000 3.808562e+000 4.526031e+000 4.064216e+000 3.176798e+000 3.469224e+000 2.665841e+000 5.135118e+000
<GCONST> 1.023450e+002
<TRANSP> 5
 0.000000e+000 1.000000e+000 0.000000e+000 0.000000e+000 0.000000e+000
 0.000000e+000 8.707302e-001 4.226325e-002 8.700663e-002 0.000000e+000
 0.000000e+000 0.000000e+000 5.800579e-001 4.199420e-001 0.000000e+000
 0.000000e+000 9.324359e-002 0.000000e+000 4.124922e-001 4.942642e-001
 0.000000e+000 0.000000e+000 0.000000e+000 0.000000e+000 0.000000e+000
<ENDHMM>
~h "udarac"
<BEGINHMM>
<NUMSTATES> 5
<STATE> 2
<MEAN> 25
 -1.441565e+000 -3.215592e+000 -4.563860e+000 -5.706722e+000 -2.333325e+000 9.144415e-001 3.417666e+000 5.544394e-001 2.210935e+000 5.648498e-001 -2.044339e+000 8.863100e-001 5.795824e-002 -7.356951e-002 -3.347832e-001 -4.096606e-001 -2.237195e-001 -3.714391e-001 -3.381034e-001 -2.434803e-001 -2.064871e-003 1.142310e-001 2.585036e-001 -6.184058e-002 2.981367e-002
<VARIANCE> 25
 1.451355e+001 1.922057e+001 4.663704e+001 3.686135e+001 2.299261e+001 3.143488e+001 3.700309e+001 3.019327e+001 2.628231e+001 3.467123e+001 2.719292e+001 2.012398e+001 1.105701e+000 1.374489e+000 3.411669e+000 3.505709e+000 2.874107e+000 2.591795e+000 3.336098e+000 2.451537e+000 2.223290e+000 2.810394e+000 1.763449e+000 2.137910e+000 1.840772e+000
<GCONST> 9.652830e+001
<STATE> 3
<MEAN> 25
 -3.124907e+000 3.747272e-001 -1.507660e+000 -8.843196e-001 -1.777205e-001 -1.000654e+000 1.316501e+000 -2.364142e+000 1.779578e+000 1.840689e+000 2.353332e-002 1.939623e+000 -3.508491e-001 3.757841e-001 2.010198e-001 2.510539e-001 3.394736e-001 2.363629e-001 1.391879e-001 1.524653e-001 2.297083e-001 1.399347e-002 2.562292e-002 9.918638e-002 -4.461971e-001
<VARIANCE> 25
 1.176370e+001 2.966947e+001 1.636452e+001 2.357008e+001 2.180152e+001 2.640708e+001 3.708742e+001 2.249034e+001 2.043267e+001 1.259551e+001 2.412473e+001 1.498058e+001 5.445995e-001 6.995142e-001 1.413660e+000 1.048421e+000 1.409018e+000 1.772530e+000 1.866124e+000 1.848281e+000 1.292059e+000 1.370853e+000 1.799956e+000 1.746519e+000 5.838908e-001
<GCONST> 8.504043e+001
<STATE> 4
<MEAN> 25
 -6.484426e+000 1.837916e+000 -2.169993e-001 1.115571e+000 2.523686e+000 3.841600e+000 4.419988e+000 3.096219e+000 5.482176e+000 -1.403820e+000 -3.302937e+000 1.509468e+000 -7.285888e-002 -5.670637e-002 -1.449491e-002 5.051225e-002 -1.769975e-002 3.242899e-002 1.295392e-001 5.815411e-002 4.102203e-002 -2.719494e-002 -5.608039e-002 6.926582e-002 -4.906879e-002
<VARIANCE> 25
 2.007854e+001 3.532713e+001 3.241516e+001 3.032915e+001 2.694155e+001 2.632089e+001 2.684430e+001 1.906485e+001 2.095755e+001 1.780375e+001 1.799382e+001 1.448416e+001 1.106700e+000 1.783523e+000 2.051911e+000 1.850463e+000 1.806499e+000 1.360383e+000 2.050069e+000 1.638690e+000 1.422159e+000 1.498792e+000 1.395128e+000 1.559799e+000 1.478252e+000
<GCONST> 8.973923e+001
<TRANSP> 5
 0.000000e+000 1.000000e+000 0.000000e+000 0.000000e+000 0.000000e+000
 0.000000e+000 8.027413e-001 1.972587e-001 0.000000e+000 0.000000e+000
 0.000000e+000 0.000000e+000 7.160008e-001 2.839993e-001 0.000000e+000
 0.000000e+000 0.000000e+000 0.000000e+000 9.129072e-001 8.709273e-002
 0.000000e+000 0.000000e+000 0.000000e+000 0.000000e+000 0.000000e+000
<ENDHMM>
~h "greska"
<BEGINHMM>
<NUMSTATES> 5
<STATE> 2
<MEAN> 25
 1.473768e+000 5.890610e-002 2.155016e+000 -1.462729e+000 -2.112996e+000 -2.540243e+000 -4.453748e+000 -2.272519e-001 -1.406734e+000 -8.696550e-001 2.053436e-001 -3.277044e-001 7.225399e-002 -2.646028e-002 1.306830e-001 2.812148e-003 -9.425289e-002 -2.010953e-001 -8.133957e-002 1.691032e-002 -8.961602e-002 3.092148e-003 -6.639450e-002 8.974455e-002 2.703657e-001
<VARIANCE> 25
 2.830389e+001 4.165601e+001 5.583040e+001 5.397100e+001 4.367791e+001 6.015676e+001 4.998885e+001 4.374776e+001 4.605006e+001 4.233815e+001 4.151381e+001 3.251030e+001 2.832471e+000 3.218625e+000 3.410270e+000 3.946206e+000 4.350996e+000 3.770898e+000 4.543273e+000 4.257964e+000 3.593424e+000 3.311028e+000 3.107757e+000 2.623568e+000 3.621464e+000
<GCONST> 1.078087e+002
<STATE> 3
<MEAN> 25
 -5.414406e+000 2.873101e+000 -6.666200e-001 6.418877e-001 1.683557e+000 -3.380302e+000 -2.263192e+000 1.762647e+000 -7.193418e-001 -2.015289e+000 1.708945e-001 1.351354e+000 1.182684e-001 4.946038e-001 -7.752817e-002 2.060194e-001 2.301657e-001 3.316112e-002 1.729786e-002 -7.508560e-002 8.761685e-002 -7.658444e-002 3.569005e-002 -1.802497e-001 -5.981695e-001
<VARIANCE> 25
 8.963908e+001 4.287690e+001 5.592964e+001 3.195157e+001 4.735540e+001 5.204586e+001 5.308436e+001 4.128053e+001 5.042743e+001 3.500357e+001 3.789070e+001 3.266732e+001 5.201065e+000 2.616510e+000 2.520981e+000 2.339734e+000 3.050282e+000 3.072775e+000 3.669630e+000 3.642650e+000 3.308520e+000 2.424853e+000 2.564044e+000 2.338647e+000 2.226179e+000
<GCONST> 1.056782e+002
<STATE> 4
<MEAN> 25
 1.020107e+000 4.836303e+000 1.272216e+000 3.704805e+000 3.349146e+000 -9.500334e-001 2.478384e-001 -1.222649e+000 5.637601e-001 -1.677635e-002 -9.788170e-001 -2.208615e+000 -2.270243e-001 -1.857009e-001 -3.171207e-002 1.573616e-002 8.908977e-002 3.027644e-001 5.055989e-002 4.558225e-002 1.163606e-001 3.457819e-002 -3.461296e-002 -3.254285e-002 -2.825004e-001
<VARIANCE> 25
 4.801043e+001 3.445918e+001 2.583596e+001 3.021045e+001 2.532191e+001 3.836457e+001 4.107504e+001 3.928116e+001 2.882992e+001 3.202241e+001 3.189753e+001 2.428836e+001 2.151033e+000 2.657339e+000 1.773767e+000 2.119607e+000 2.139454e+000 2.643539e+000 2.614835e+000 2.588499e+000 2.354979e+000 2.291377e+000 2.466449e+000 1.730697e+000 2.827242e+000
<GCONST> 9.865225e+001
<TRANSP> 5
 0.000000e+000 1.000000e+000 0.000000e+000 0.000000e+000 0.000000e+000
 0.000000e+000 9.204761e-001 7.952386e-002 0.000000e+000 0.000000e+000
 0.000000e+000 0.000000e+000 8.760989e-001 1.239011e-001 0.000000e+000
 0.000000e+000 0.000000e+000 0.000000e+000 9.155637e-001 8.443627e-002
 0.000000e+000 0.000000e+000 0.000000e+000 0.000000e+000 0.000000e+000
<ENDHMM>
~h "papir"
<BEGINHMM>
<NUMSTATES> 5
<STATE> 2
<MEAN> 25
 -1.596059e+000 -1.858966e+000 3.868090e-001 2.182791e+000 2.565786e+000 3.705077e-001 2.059928e+000 1.991107e+000 1.842600e+000 -6.903926e-001 -2.580421e+000 -5.256733e-001 -3.009012e-001 3.503022e-001 3.320425e-001 2.195336e-001 2.509840e-001 1.312431e-001 2.555283e-001 3.752278e-001 3.767561e-001 -1.590949e-001 -3.113703e-001 6.594018e-002 -6.940263e-001
<VARIANCE> 25
 4.058362e+001 2.951404e+001 3.950395e+001 3.154537e+001 2.556201e+001 3.126219e+001 2.945396e+001 3.772712e+001 3.947047e+001 2.294752e+001 3.918714e+001 2.374916e+001 1.579774e+000 1.618679e+000 1.804080e+000 1.282006e+000 2.276618e+000 2.023221e+000 2.757340e+000 2.513931e+000 1.919926e+000 1.332945e+000 2.072732e+000 1.657124e+000 1.321790e+000
<GCONST> 9.519785e+001
<STATE> 3
<MEAN> 25
 -3.625683e+000 1.149540e+000 1.082548e+000 3.705419e+000 4.177339e+000 9.711013e-001 4.344695e+000 2.737121e+000 3.099416e+000 -1.612086e+000 -3.201494e+000 -1.988807e+000 -3.337501e-001 1.913423e-001 -5.464435e-002 -1.488070e-001 1.317178e-001 3.514841e-001 4.205466e-002 2.955828e-001 1.824926e-001 -7.536602e-002 4.109936e-001 7.508557e-001 -5.804846e-001
<VARIANCE> 25
 2.597064e+001 2.942766e+001 4.090927e+001 2.850513e+001 2.949480e+001 3.119045e+001 2.488379e+001 3.248897e+001 3.119342e+001 2.926476e+001 3.164395e+001 3.578450e+001 7.837757e-001 2.279736e+000 1.838532e+000 1.657995e+000 1.288217e+000 1.452896e+000 1.687726e+000 2.124186e+000 1.473110e+000 2.087085e+000 2.118928e+000 1.977751e+000 7.513291e-001
<GCONST> 9.288406e+001
<STATE> 4
<MEAN> 25
 -6.602968e+000 -4.672130e+000 -1.119698e-001 1.377820e+000 3.524143e+000 1.316225e+000 3.860994e+000 2.320909e+000 2.760815e+000 -1.850642e+000 -2.167566e-001 1.375022e+000 1.328291e-002 -5.439788e-002 -4.758514e-002 1.853743e-002 -4.994703e-002 4.780011e-002 -5.736249e-002 2.121632e-003 -7.177261e-003 -4.539074e-002 3.905050e-002 1.451533e-001 -1.294726e-001
<VARIANCE> 25
 2.001412e+001 4.525481e+001 2.547303e+001 1.886882e+001 2.276393e+001 2.693929e+001 1.671724e+001 2.122317e+001 3.267261e+001 1.728290e+001 2.548512e+001 2.235738e+001 1.199180e+000 2.134329e+000 1.324647e+000 1.210258e+000 1.424679e+000 1.864295e+000 1.391475e+000 1.520224e+000 1.932670e+000 1.313044e+000 1.648485e+000 1.551840e+000 1.518738e+000
<GCONST> 8.932886e+001
<TRANSP> 5
 0.000000e+000 1.000000e+000 0.000000e+000 0.000000e+000 0.000000e+000
 0.000000e+000 5.143979e-001 4.856021e-001 0.000000e+000 0.000000e+000
 0.000000e+000 0.000000e+000 5.614764e-001 4.385236e-001 0.000000e+000
 0.000000e+000 0.000000e+000 0.000000e+000 8.954208e-001 1.045791e-001
 0.000000e+000 0.000000e+000 0.000000e+000 0.000000e+000 0.000000e+000
<ENDHMM>
