BIGRAM: method Katz, cutoff 1
  coef[7]: 0.000000 0.563248 0.538797 0.712788 0.996212 0.690618 0.885008

\data\
ngram 1=1454
ngram 2=6259

\1-grams:
-1.1818	</s>	-0.3598
-4.9024	<bi>
-3.3461	<greska>	+0.0057
-4.9024	<jugozapadak>
-4.9024	<k>
-4.9024	<kred>
-3.2303	<papir>	-0.1070
-4.9024	<pljoskovi>
-4.9024	<raspolo`ene>
-99.9900	<s>	-1.0176
-2.3238	<sil>	-0.3123
-4.9024	<sjeveroistoke>
-4.9024	<sras>
-4.9024	<t>
-3.6014	<udarac>	-0.1314
-1.4276	<uzdah>	-0.9994
-2.0655	^e	-0.7504
-4.4253	`aliti	-0.3190
-1.8455	a	-1.1658
-4.6014	ako	-0.3570
-4.9024	alergije
-4.9024	alergi~ne
-3.2492	ali	-0.2434
-4.9024	alpa
-3.8610	ankica	-0.3597
-4.9024	ankice
-3.8610	anticiklona	-0.1176
-3.4400	anticiklonalni	-0.3595
-3.6472	anticiklonalno	-0.3592
-4.4253	anticiklonalnog	-0.3361
-3.4400	anticiklone	-0.2707
-4.3004	astmati~ara	-0.2235
-3.8610	astmati~are	-1.0488
-3.7263	astmati~ari	-0.4873
-4.6014	astmati~arima	-0.3395
-4.6014	atlantska	-0.3594
-4.6014	atmosferski	-0.3597
-3.6983	atmosferskog	-0.3595
-4.9024	badnju
-4.9024	bar
-4.4253	baranji	-0.1842
-4.3004	barem	-0.5409
-4.9024	bazge
-2.9993	bez	-1.5486
-2.7626	bi	-0.7976
-4.3004	bila	-0.1436
-4.4253	biokova	-0.2034
-4.6014	biokovu
-2.7819	biometeorolo{ka	-2.1155
-3.6237	biometeorolo{ke	-0.7620
-2.9940	biometeorolo{ki	-1.3741
-3.5407	biometeorolo{kih	-0.3451
-4.2035	biometeorolo{kog	-2.4215
-4.9024	bismo
-3.1390	bit	-0.3560
-2.5640	biti	-0.6146
-4.9024	blagdan
-4.4253	blizini	-0.2045
-4.9024	blizinu
-4.6014	blizu	-0.3597
-4.9024	bo`i^
-3.0159	bolesnici	-0.6620
-4.4253	bolesnicima	-0.1749
-3.4711	bolesnika	-0.4527
-3.7885	bolesnike	-0.3460
-4.6014	bolestima
-4.0573	bolje	-0.3831
-4.4253	bolji	-0.3360
-4.6014	bolova	-0.3426
-3.7885	bolove	-0.4509
-4.1243	bolovi	-0.4250
-4.6014	bolovima	-0.3584
-4.6014	boravak
-4.6014	borivoj	-0.3598
-3.6014	botovo	-0.2708
-4.9024	breze
-3.6014	brod	-0.1974
-4.0573	brzo	-0.8905
-4.9024	brzoj
-4.9024	bude
-3.6014	budimpe{ta	-0.5970
-4.9024	budimpe{te
-2.2248	bura	-0.8799
-3.1390	bure	-0.7367
-3.0636	burin	-0.8026
-3.7563	burom	-0.2320
-3.3973	buru	-0.4183
-4.9024	celzijev
-4.6014	centimetara	-0.3595
-2.5907	centra	-2.3106
-4.9024	cesti
-3.4253	cijeloj	-0.7921
-4.6014	cijelom	-0.3497
-3.9993	cijelu	-0.7561
-3.0699	ciklona	-0.6044
-3.7563	ciklonalno	-0.3592
-4.2035	ciklonalnog	-0.3453
-3.6014	ciklone	-0.4569
-4.6014	cjelodnevne	-0.3596
-4.6014	cjelodnevnom	-0.3597
-3.6237	crnac	-0.2185
-4.1243	da	-0.1326
-3.1782	dalje	-0.5940
-3.8610	dalmacije	-0.1118
-2.7689	dalmaciji	-0.3766
-4.9024	dalmaciju
-4.2035	dalmatinskome	-2.4216
-3.9024	dan	-0.1326
-2.3609	dana	-0.6208
-3.1864	danas	-0.4111
-4.6014	dana{njega	-0.3569
-3.6237	dana{nji	-1.0046
-4.3004	dane	-0.1141
-2.9530	danju	-0.4946
-4.3004	davor	-0.5418
-4.9024	de`urna
-4.4253	depresijsko	-0.3356
-2.2802	deset	-1.2431
-4.9024	desetak
-3.4253	devedeset	-0.3697
-2.5720	devet	-0.7347
-3.0699	devetnaest	-0.7564
-4.9024	devetoga
-3.8233	dijela	-0.6174
-4.9024	dijelom
-4.6014	dijelovima	-0.3579
-2.3534	dijelu	-1.1142
-4.6014	diljem
-3.6983	dio	-0.7336
-4.6014	divljeg	-0.3598
-4.9024	divlji
-2.6929	djelomice	-1.1738
-3.6472	djelomi~no	-0.7779
-3.9482	djelovati	-0.3426
-2.4759	dnevna	-1.4351
-3.9482	dnevne	-0.4849
-1.4143	do	-2.0525
-3.9482	doba	-0.3597
-4.4253	dobar	-0.3361
-4.9024	dobili
-4.4253	dobre	-0.3361
-3.3839	dobro	-0.3712
-4.0573	dobrog	-0.4415
-4.4253	dobroga	-0.3361
-4.4253	dobrom	-0.3361
-4.9024	dobru
-4.6014	dodatne	-0.3597
-4.9024	dodiru
-3.9993	dok	-0.6222
-4.9024	dokazanom
-2.9629	dolina	-0.8993
-4.6014	dolinu	-0.3591
-4.4253	donijeti	-0.2040
-3.6237	donji	-0.3597
-4.6014	donositi	-0.3395
-4.4253	dosta	-0.2043
-2.7952	dr`avnog	-0.3588
-3.2303	dr`avnoga	-1.6711
-4.4253	dragojlovi^	-0.3065
-4.4253	dragoslav	-0.3361
-3.1031	drava	-1.4979
-3.0764	drugdje	-0.3284
-3.4711	drugom	-0.3578
-4.6014	drugome	-0.3578
-3.9482	drvar	-0.3302
-4.3004	drve^a
-3.2690	du`	-1.2797
-4.9024	du`a
-4.3004	du`e	-0.5417
-4.9024	du`im
-4.1243	duboka	-0.3593
-4.9024	dubrova~kom
-4.6014	dubrova~kome	-0.3593
-4.6014	dugotrajna	-0.3591
-4.9024	dugotrajno
-4.4253	dugotrajnom	-0.3360
-4.3004	dugotrajnu	-0.5417
-4.6014	dulja	-0.3595
-4.0573	dulje	-0.9392
-4.6014	duljih	-0.3597
-3.1864	dunav	-1.4146
-3.6472	dunja	-0.3477
-2.0963	dva	-1.2077
-1.9424	dvadeset	-1.7144
-4.9024	dvadeseti
-4.9024	dvadesetoj
-2.1375	dvanaest	-1.5408
-4.6014	dvije
-3.1466	dvjesto	-0.5045
-4.9024	egejskim
-4.9024	egejskome
-4.0573	europe	-0.1214
-4.9024	europom
-4.9024	europska
-4.9024	europske
-4.6014	europskim	-0.3598
-4.1243	europskog	-0.5095
-4.9024	europskoga
-4.9024	formira
-4.9024	formiranje
-4.4253	fronta
-3.6014	frontalni	-0.9237
-3.2397	frontalnim	-0.3455
-3.9482	fronte	-0.4319
-3.9482	frontom	-0.2669
-3.2212	gdje	-0.7529
-4.3004	glasi	-0.1428
-4.6014	glavninom	-0.3598
-3.9482	glavobolja	-0.3395
-3.5045	glavobolje	-0.4191
-3.6237	glavobolju	-0.5033
-3.9482	godine	-0.2514
-4.9024	godinu
-3.0829	gorju	-0.4132
-4.6014	gorski	-0.3598
-3.3584	gorskim	-1.0449
-4.3004	gorskog	-0.5418
-3.7885	gorskoj	-0.3595
-2.8380	gorskom	-2.1219
-3.3584	gorskome	-1.6016
-3.6720	gotovo	-0.6420
-4.6014	govori
-4.3004	granici	-0.5413
-3.1621	greben	-0.7123
-4.4253	grebena	-0.3348
-2.7563	grmljavina	-0.8808
-3.4111	grmljavine	-0.5081
-2.7594	grmljavinom	-0.7820
-3.9482	grmljavinu	-0.2316
-2.6594	hidrometeorolo{kog	-0.3588
-4.9024	hidrometeorolo{koga
-4.1243	hladna	-0.2591
-4.0573	hladne	-0.9393
-3.6014	hladnije	-0.5245
-3.3227	hladno	-0.3196
-4.6014	hladno^a
-3.6983	hladno^e	-0.2725
-4.6014	hladno^u	-0.3596
-4.6014	hladnog	-0.3395
-4.6014	hladnoga	-0.3395
-3.9993	hladnom	-0.3597
-4.9024	hrast
-4.4253	hrasta	-0.1842
-3.6014	hrvatska	-0.3597
-4.9024	hrvatske
-3.2897	hrvatskoj	-0.4305
-4.4253	hrvatskom	-0.3361
-4.9024	hrvatskome
-4.0573	hrvatsku	-0.3415
-1.3404	i	-0.8016
-4.2035	iako	-2.4178
-4.4253	ih	-0.3361
-2.5332	ili	-0.7607
-3.6237	ilok	-0.3570
-4.9024	ima
-4.9024	imaju
-4.6014	imat	-0.3560
-3.0216	imati	-0.7266
-4.9024	inverzija
-4.2035	ipak	-0.3442
-4.6014	iskoristite	-0.3597
-4.6014	ispod	-0.3597
-4.4253	ista	-0.3348
-4.6014	iste	-0.3585
-3.6014	istok	-0.5569
-3.3710	istoku	-0.8478
-3.3839	isto~ni	-0.7246
-3.2897	isto~nim	-1.3189
-3.1621	isto~njak	-0.9855
-4.6014	isto~njaka
-4.4253	isto~njakom
-4.9024	isto~noeuropske
-4.6014	isto~nog	-0.3597
-3.2690	isto~noj	-1.6326
-4.9024	isto~nom
-4.0573	istre	-0.2163
-4.6014	istri	-0.3584
-4.6014	italije
-4.6014	italiji	-0.3302
-4.3004	italijom	-0.1435
-4.6014	iz	-0.3579
-4.4253	izbjegavaju	-0.2045
-4.9024	izbjegavanje
-3.8233	izbjegavati	-0.8062
-4.6014	izdi^i	-0.3493
-3.1390	izgledi	-0.3229
-4.6014	izgledima
-4.4253	izjedna~enog	-0.3358
-2.4415	izme}u	-1.2566
-4.9024	izmjerenih
-4.9024	izmjereno
-3.7263	iznad	-0.4052
-4.3004	iznadprosje~no	-0.5413
-3.7885	iznimno	-0.8527
-3.9993	izra`en	-0.7082
-3.9993	izra`ene	-0.7453
-4.3004	izuzetno	-0.5417
-3.1949	izvje{^e	-1.0077
-2.6448	izvje{taj	-1.4576
-2.5445	jadran	-1.3721
-2.3331	jadrana	-0.4313
-2.8731	jadranom	-0.6964
-1.6409	jadranu	-0.9383
-3.1466	jak	-0.6221
-2.6146	jaka	-1.3020
-4.6014	jaki
-4.4253	jakim	-0.2044
-2.8125	jako	-1.1311
-4.2035	jakom	-0.1695
-4.3004	jaku	-0.2077
-3.6237	jasenovac	-0.2628
-4.9024	javno
-3.0764	ja~a	-0.9593
-4.4253	ja~anje	-0.3361
-3.6014	ja~anju	-0.3426
-4.3004	ja~ati	-0.3125
-3.3227	ja~e	-1.2728
-4.4253	ja~i	-0.2044
-4.4253	ja~u	-0.3358
-2.8610	je	-0.3944
-2.2897	jedan	-0.9964
-2.8938	jedanaest	-1.4351
-4.9024	jedino
-4.4253	jedna	-0.1874
-3.7885	jednog	-1.1135
-4.4253	jednoga	-0.3353
-3.9993	jonskim	-0.3597
-4.4253	jonsko	-0.3335
-4.9024	jonskog
-3.9482	jonskom	-0.3588
-4.4253	jonskome	-0.3351
-2.6903	jo{	-0.4695
-4.4253	ju`ne	-0.2045
-3.1031	ju`ni	-0.8230
-3.7263	ju`nim	-0.5771
-4.4253	ju`no	-0.1979
-2.9068	ju`nog	-2.0319
-4.9024	ju`noga
-4.2035	ju`noj	-0.3445
-2.4679	ju`nom	-1.2104
-3.9482	ju`nome	-0.4078
-4.9024	jug
-3.1864	juga	-0.7006
-2.3026	jugo	-0.9396
-3.7263	jugoistok	-0.6307
-4.9024	jugoistoka
-3.5600	jugoisto~ni	-0.1697
-4.9024	jugoisto~njak
-4.4253	jugom	-0.1879
-4.4253	jugozapada	-0.2044
-2.6619	jugozapadni	-0.9422
-2.7986	jugozapadnjak	-1.0049
-3.9482	jugozapadnog	-0.4016
-3.6237	jugu	-0.5208
-4.9024	juri
-2.5823	jutarnja	-2.0153
-3.7885	jutarnje	-0.8127
-4.6014	jutarnjih
-4.3004	jutarnju	-0.5417
-3.3710	jutra	-0.2743
-3.7563	jutro	-0.1569
-4.9024	jutros
-4.4253	kada
-4.9024	kakvo
-4.6014	kalin	-0.3302
-2.8854	kanalu	-0.6059
-4.1243	kao	-0.4892
-3.6014	karlovac	-0.2728
-4.9024	karlova~koj
-4.9024	karlovcu
-4.3004	kasno	-0.3476
-4.9024	kesten
-4.6014	kestena	-0.3432
-4.9024	kidanja
-4.9024	kidanje
-2.5865	kilometara	-0.9986
-3.0216	kilometra	-0.9402
-2.4371	ki{a	-1.0045
-2.9024	ki{e	-0.9532
-2.6448	ki{om	-0.9743
-4.6014	ki{ovito	-0.3493
-3.8233	ki{u	-0.2189
-4.9024	klini~ki
-3.0895	kod	-0.8012
-3.2690	koja	-1.6269
-3.7563	koje	-1.1424
-4.9024	kojeg
-4.9024	kojega
-3.6720	koji	-0.6168
-4.1243	kojim	-0.7672
-4.6014	kojoj	-0.3570
-3.8233	koli~ina	-0.7781
-3.8610	koncentracija	-0.4591
-3.9024	koncentracije	-0.2860
-4.0573	koncentraciji	-0.3175
-3.9482	koncentracijom	-0.2873
-4.3004	koncentraciju	-0.1233
-4.0573	kopna	-0.2557
-3.9482	kopnenim	-0.7063
-3.2792	kopnenom	-1.6812
-4.2035	kopnenome	-2.4211
-4.6014	kopnom	-0.3395
-4.6014	kornata	-0.3590
-4.9024	kornati
-4.6014	korova
-3.6014	kostajnica	-0.4762
-4.6014	kotar	-0.3395
-4.3004	kotara	-0.1411
-2.7351	kotaru	-1.0024
-3.9993	kotlinama	-0.2783
-3.8233	kra^a	-0.3595
-4.9024	kra^ih
-4.9024	kra^im
-2.8981	kraja	-1.6697
-3.2792	krajem	-0.3579
-3.2897	krajeva	-0.3609
-2.9886	krajevima	-0.4278
-4.9024	krajnjeg
-4.4253	krajnjem	-0.3360
-3.5802	kraju	-1.3203
-4.9024	kratka
-4.9024	kratki
-3.5407	kratkotrajan	-1.3614
-3.3839	kratkotrajna	-1.5654
-4.0573	kratkotrajne	-0.3888
-3.3973	kratkotrajni	-1.2033
-4.1243	kratkotrajnih	-0.4721
-3.9993	kratkotrajnim	-0.6462
-3.5600	kratkotrajno	-0.3240
-4.4253	kratkotrajnog	-0.3360
-4.1243	kratkotrajnom	-0.5085
-4.4253	kratkotrajnu	-0.2044
-4.1243	kre^e	-0.3326
-4.4253	kre^u	-0.3354
-4.6014	kroni~ne	-0.3597
-3.0573	kroni~ni	-1.8737
-3.5222	kroni~nih	-1.4742
-4.6014	kroni~nim
-4.4253	kroz	-0.3361
-4.4253	kru`i	-0.3359
-4.6014	krvo`ilnim	-0.3598
-3.3584	kupa	-1.4008
-4.6014	kvarneru	-0.3302
-4.9024	lak{e
-4.4253	lebi^
-4.6014	ledi	-0.3426
-4.9024	lediti
-3.6237	levant	-0.1473
-4.4253	levanta	-0.3347
-2.7038	lici	-0.6077
-4.3004	ligurskim	-0.2247
-4.1243	ligurskog	-0.3158
-4.9024	ligurskoga
-4.9024	ligurskom
-4.9024	ligurskome
-4.6014	lijepo	-0.3395
-4.4253	like	-0.1842
-4.4253	liku
-4.9024	lipnja
-3.9993	ljude	-0.3937
-2.9340	ljudi	-0.6011
-4.2035	ljudima	-0.1696
-4.3004	lokalne	-0.5417
-3.6237	lokalni	-1.3364
-4.4253	lokalnih	-0.2043
-4.2035	lokalnim	-0.3663
-4.6014	lovro	-0.3598
-4.9024	lo{a
-4.1243	lo{e	-0.3360
-4.6014	lo{ije	-0.3597
-4.9024	lo{ijeg
-4.9024	lo{iju
-3.2690	maestral	-0.7794
-2.8269	magla	-0.6638
-3.4875	magle	-0.3665
-4.9024	magli
-3.6720	maglom	-0.2325
-4.6014	maglovita	-0.3395
-3.4553	maglovito	-0.3930
-4.3004	maglovitog	-0.5416
-3.9024	maglu	-0.3067
-4.2035	mahovi^	-2.3920
-4.9024	mahovli^
-4.9024	makarskog
-4.4253	makarskoj
-4.2035	mala	-0.1106
-2.2285	malo	-1.3342
-3.6237	malom	-0.3427
-3.6720	malu	-1.2134
-3.2397	manja	-1.2580
-3.2792	manje	-0.7444
-4.6014	manjom	-0.3598
-4.6014	manju	-0.3595
-3.7885	marija	-1.1139
-4.9024	meteorolo{ke
-2.6191	meteorolo{kog	-2.2822
-3.7885	meteorolo{koga	-0.3586
-3.7885	meteoropata	-0.2463
-4.6014	meteoropate	-0.3395
-3.6472	meteoropati	-0.5558
-3.6014	metkovi^	-0.2561
-3.9024	me}imurju	-0.1277
-3.6237	miholjac	-0.2060
-4.6014	mijenja	-0.3570
-4.2035	mijenjati	-0.3372
-4.6014	minimalna	-0.3566
-2.1450	minus	-1.3661
-4.9024	minuti
-4.4253	mirna	-0.3361
-4.2035	mirno	-2.4203
-4.9024	mirnog
-4.9024	mirnoga
-4.9024	mjesta
-4.1243	mjestima	-0.2800
-2.0367	mjestimice	-0.9490
-4.6014	mjestimi~na	-0.3590
-4.3004	mjestimi~ni	-0.2245
-4.9024	mjestimi~nim
-3.9482	mjestimi~nom	-0.7283
-4.6014	mjestimi~nu
-3.8233	mnogi	-0.3972
-3.2397	mo`e	-0.6694
-4.1243	mogla	-0.3342
-4.2035	mogle	-2.4204
-3.0103	mogli	-1.5120
-3.9482	moglo	-0.4212
-3.4253	mogu	-0.6628
-3.6014	mogu^	-0.4135
-2.9679	mogu^a	-1.0489
-3.2590	mogu^e	-0.7217
-3.0512	mogu^i	-1.0837
-3.1466	mogu^nost	-0.5766
-4.6014	mogu^no{^u	-0.3597
-4.9024	mohori^
-3.8233	mokori^	-0.7486
-3.9482	mora	-0.0657
-4.6014	moramo	-0.3597
-2.2285	more	-1.4217
-3.6014	morem	-0.3916
-2.6353	moru	-0.8176
-4.9024	mraz
-4.9024	mu
-4.4253	mu~iti	-0.3361
-1.4122	na	-1.4334
-2.7441	nad	-0.9201
-4.9024	nadalje
-4.9024	naime
-4.1243	najisto~nijim	-0.4715
-4.9024	najkasnije
-4.9024	najmanje
-2.7986	najni`a	-2.0995
-4.6014	najni`e	-0.3597
-4.3004	najni`u	-0.5418
-4.1243	najobla~nije	-0.1742
-4.9024	najosjetljiviji
-3.5802	najprije	-0.8450
-4.6014	najsjevernijim	-0.3593
-4.4253	najsun~anije	-0.1873
-4.6014	najve^a	-0.3592
-2.3839	najvi{a	-1.5680
-3.2212	najvi{e	-0.6605
-4.2035	najvi{em	-0.3664
-4.2035	najvi{om	-2.4215
-4.6014	najvi{u	-0.3597
-3.9993	najzapadnijim	-0.4404
-3.8233	nakon	-0.1959
-4.9024	nam
-2.7293	naoblaka	-0.7109
-3.2492	naoblake	-0.4241
-3.0512	naoblakom	-0.4682
-3.1949	naoblaku	-0.2918
-3.7563	naobla~enje	-0.2444
-4.9024	naobla~it
-4.3004	naobla~iti	-0.1265
-4.9024	napora
-3.8610	napore	-1.0118
-4.9024	nas
-4.4253	nastavku	-0.3357
-3.7563	nastavlja	-0.3570
-4.0573	nata{a	-0.3893
-2.9886	nave~er	-0.4512
-4.9024	na{e
-4.6014	na{ih	-0.3595
-3.5222	ne	-1.0258
-3.8610	ne^e	-0.3078
-4.4253	nedjelje	-0.1879
-3.4875	nedjelju	-0.2362
-3.6237	nego	-0.6366
-4.6014	neka	-0.3597
-4.3004	neki	-0.5410
-4.2035	nekim	-0.3453
-4.9024	nekoliko
-4.9024	nema
-4.9024	nepogodne
-4.9024	nepogodni
-4.9024	nepogodno
-3.3973	nepovoljan	-0.6828
-4.9024	nepovoljna
-3.9993	nepovoljne	-0.3251
-3.5407	nepovoljni	-0.2800
-4.4253	nepovoljnih	-0.3360
-4.6014	nepovoljniji	-0.3595
-4.9024	nepovoljnijih
-4.6014	nepovoljno
-4.6014	nepovoljnog	-0.3598
-3.6014	neretva	-0.3597
-4.1243	nervozu	-0.3093
-4.1243	nesanica	-0.2423
-4.6014	nesanice
-4.9024	nesre^e
-4.9024	nestabilan
-4.9024	nestabilna
-4.4253	nestabilni	-0.3361
-3.7263	nestabilno	-0.2875
-3.9024	nestabilnog	-0.3593
-4.9024	nestabilnosti
-4.4253	nevere	-0.1873
-3.9482	neverin	-0.2377
-3.9024	neverina	-0.2249
-3.1171	neverini	-0.6567
-4.9024	nevrijeme
-4.9024	neznatne
-4.9024	neznatno
-3.6472	ne{to	-0.2428
-3.5802	ni	-1.3218
-3.3004	ni`a	-0.7836
-4.6014	ni`e	-0.3302
-4.9024	ni`im
-4.1243	niska	-0.4549
-4.0573	niske	-0.3645
-3.7885	niski	-1.1726
-4.3004	niskih	-0.2217
-4.6014	niskim	-0.3598
-4.3004	nismo	-0.2248
-4.9024	nizinam
-3.5600	nizinama	-0.2607
-3.8233	ni{tice	-0.3855
-4.9024	ni{ticu
-4.6014	njegov	-0.3594
-4.3004	njegovom	-0.3582
-4.3004	njegovu	-0.1422
-4.2035	no	-0.2557
-4.9024	no^
-4.0573	no^as	-0.1930
-2.3437	no^i	-0.7495
-4.3004	no^na	-0.5215
-3.1031	no^u	-0.5978
-3.6983	nova	-0.4660
-4.6014	novo	-0.3597
-4.6014	novogodi{njoj	-0.3578
-3.9993	no{en	-0.6259
-2.8417	nula	-0.5363
-3.9482	nule	-0.2254
-3.0451	o	-1.9157
-4.9024	o`ujka
-3.3227	obale	-0.3316
-4.3004	obali	-0.3582
-4.4253	obalnom	-0.2040
-2.6448	obalu	-0.6868
-4.4253	obilnije	-0.2039
-4.4253	obilnijim
-3.8610	oblaci	-0.2477
-4.6014	oblacima
-3.2303	oblaka	-0.3596
-4.3004	oblake	-0.2083
-4.6014	obla~ni	-0.3598
-3.5222	obla~nije	-0.3712
-2.1932	obla~no	-1.2432
-3.5802	oborina	-0.2241
-4.4253	oborinama	-0.1749
-3.6983	oborine	-0.2124
-4.6014	oborinom
-4.9024	obrnuto
-1.8265	od	-2.0095
-4.6014	odakle	-0.3570
-4.4253	odgovaraju^a	-0.3361
-4.4253	odgovaraju^e	-0.2045
-4.6014	odgovaraju^u	-0.3597
-4.3004	odje^a	-0.5122
-4.6014	odjenuti
-4.4253	odmicanja	-0.3360
-4.4253	odmi~e	-0.1873
-4.4253	odnosu	-0.3190
-4.4253	oja~alo	-0.3356
-4.6014	oja~ao	-0.3596
-4.4253	oja~ati	-0.3065
-4.9024	oja~ava
-3.5407	oko	-0.6617
-3.6237	okrenut	-0.3560
-3.2303	okrenuti	-0.3426
-3.9482	okretanju	-0.3426
-4.3004	okretati	-0.5247
-4.4253	olujan
-3.4553	olujna	-0.8563
-4.6014	olujne
-3.4875	olujnim	-0.9399
-3.8610	olujno	-0.7186
-4.9024	olujnom
-4.4253	olujnu	-0.3359
-4.6014	one
-4.6014	oni	-0.3597
-4.4253	op^eg	-0.3361
-4.4253	oprostite	-0.1979
-4.9024	oraha
-4.9024	orkanska
-4.0573	orkanskim	-0.9392
-2.3261	osam	-0.8802
-3.3973	osamdeset	-0.3900
-2.9247	osamnaest	-0.7899
-3.6237	osijek	-0.2514
-4.3004	osijeku
-4.6014	osje^at
-3.1466	osje^ati	-0.8244
-4.3004	osjetiti	-0.2248
-4.1243	osjetljive	-0.4924
-3.5045	osjetljivi	-1.4382
-3.6014	osjetljivih	-1.1423
-4.4253	osjetljivije	-0.3360
-3.8610	osjetljiviji	-0.4211
-4.9024	osjetljivijim
-4.9024	osjetljivima
-4.6014	osjetljivosti	-0.3426
-3.7263	osjetno	-0.5965
-4.9024	oslabio
-3.6237	oslabit	-0.3560
-3.4553	oslabiti	-0.3639
-3.9024	oslabjet	-0.3560
-3.2897	oslabjeti	-0.5846
-4.4253	oslabljen	-0.3360
-4.4253	oslabljena	-0.3361
-4.9024	oslabljene
-4.4253	oslabljeni	-0.3360
-3.9024	oslabljenim	-0.3595
-4.6014	oslabljenom	-0.3597
-4.9024	osmi
-4.9024	osobama
-3.8610	osobe	-0.3220
-2.8269	osobito	-0.9134
-3.7885	ostalim	-0.4064
-4.4253	ostalog	-0.3360
-3.7563	ostalom	-0.3578
-3.9993	osvje`enje	-0.4197
-4.1243	otocima	-0.2572
-4.4253	otrantskim	-0.3361
-4.9024	otvorena
-2.3284	otvorenom	-1.1174
-2.9679	otvorenome	-0.8069
-4.9024	otvorenomu
-3.9482	ovo	-0.3597
-3.8233	ovog	-0.3593
-4.3004	ovoga	-0.5414
-4.4253	ozljeda	-0.1842
-4.4253	o~ekivati	-0.3158
-3.5045	o~ekuje	-0.5640
-3.7563	o~ekuju	-0.2802
-3.4111	pa	-0.7797
-4.3004	pada
-4.9024	padao
-4.1243	padati	-0.0871
-4.9024	padom
-4.3004	padu	-0.1953
-4.6014	pahulja
-4.9024	parkova
-4.9024	past
-3.6237	pasti	-0.3696
-3.5222	patiti	-0.3532
-3.1243	pedeset	-0.6772
-4.0573	pelud	-0.1140
-3.9993	peluda	-0.0876
-2.2140	pet	-1.0367
-3.4400	petak	-0.1791
-4.9024	peti
-4.0573	petka	-0.9190
-2.6545	petnaest	-1.2144
-4.9024	petnaesti
-3.9482	petsto	-0.2034
-3.9482	pla~ko	-0.3597
-3.3973	plitka	-1.5043
-4.1243	plitko	-0.4722
-3.1390	pljusak	-0.6823
-3.6983	pljuska	-0.3911
-4.3004	pljuskom	-0.1271
-3.5222	pljuskova	-0.4309
-3.9482	pljuskove	-0.2300
-2.7235	pljuskovi	-0.9607
-2.9629	pljuskovima	-0.9344
-4.1243	plu^nih	-0.3157
-3.4553	plus	-0.9760
-3.4553	po	-1.0191
-3.8610	pobolj{anje	-0.8999
-4.4253	pobolj{ati	-0.1879
-4.4253	pod	-0.3361
-4.9024	podataka
-3.3710	podne	-0.6656
-4.9024	podneva
-3.8610	podno	-0.3597
-4.9024	podno{ljivija
-4.3004	podr`ava	-0.1233
-4.9024	podr`avati
-3.7885	podravini	-0.3557
-4.9024	podru~ja
-4.3004	podru~je	-0.2228
-3.4400	podru~jima	-0.2699
-2.9834	podru~ju	-0.4717
-4.3004	podvelebitskom	-0.2244
-4.4253	pogodne	-0.1879
-4.0573	pogodni	-0.3597
-4.6014	pogodnih	-0.3596
-4.9024	pogodniji
-4.4253	pogor{anje	-0.2016
-4.0573	pogor{ati	-0.2106
-4.9024	pojasu
-4.9024	pojaviti
-4.9024	pojavljivati
-3.8610	poja~an	-0.2858
-3.6237	poja~ana	-0.4686
-4.3004	poja~ane	-0.3597
-3.9482	poja~anju	-0.3346
-3.5045	poja~ano	-0.4080
-4.9024	poja~anu
-3.7885	poja~at	-0.3560
-3.4553	poja~ati	-0.5620
-4.9024	pokoji
-4.6014	pokojim	-0.3597
-4.9024	pokre^e
-4.9024	pokretna
-4.6014	pokretno
-3.2303	polako	-0.7326
-4.9024	poledica
-4.6014	poledice	-0.3432
-2.8938	polje	-1.2207
-4.9024	pomicati
-3.8610	pomi~e	-0.4064
-4.9024	pomorske
-2.6694	pomorskog	-1.9592
-3.3710	pomorskoga	-0.3509
-3.3839	ponajprije	-0.9339
-4.9024	ponajvi{e
-3.4875	ponedjeljak	-0.3081
-4.9024	ponedjeljka
-1.9977	ponegdje	-0.9615
-4.9024	poneka
-3.5600	ponovno	-0.1966
-4.0573	ponovo	-0.2860
-3.4553	popunjava	-0.5945
-3.5802	porast	-1.3220
-4.1243	porasti	-0.7404
-3.6472	poreme^aj	-0.2716
-3.6237	poreme^ajem	-0.4604
-4.3004	posavini	-0.3221
-3.4400	posebice	-0.5228
-4.9024	posebno
-3.5045	poslije	-1.3978
-2.4083	poslijepodne	-0.6500
-4.9024	poslijepodneva
-4.1243	poslijepodnevna	-0.2556
-4.9024	postojane
-4.6014	postojano	-0.3597
-4.6014	postoji	-0.3597
-4.0573	postupan	-0.3646
-3.5407	postupna	-0.3590
-4.9024	postupni
-2.8812	postupno	-0.5191
-4.6014	postupnom	-0.3597
-3.5045	posvuda	-0.1816
-3.9024	pote{ko^a	-0.2761
-3.2212	pote{ko^e	-0.8145
-4.3004	poticajno	-0.5417
-2.9293	potkraj	-1.2486
-4.6014	potom	-0.3395
-3.9024	potrebna	-0.4065
-4.6014	pove^anom	-0.3594
-4.3004	pove^anu	-0.5415
-3.3114	povi{enog	-0.3453
-4.9024	povi{enoga
-4.0573	povla~i	-0.3613
-3.6472	povoljan	-0.3640
-3.7263	povoljne	-0.2755
-3.4711	povoljni	-0.6551
-3.6014	povoljnih	-1.1536
-4.1243	povoljniji	-0.1355
-4.3004	povoljno	-0.3560
-4.6014	povoljnog	-0.3597
-4.3004	povoljnoga	-0.2248
-2.7235	povremeno	-0.8453
-4.6014	po~eo
-4.0573	po~etkom	-0.9374
-2.9782	po~etku	-0.5044
-3.6983	po~inje	-0.3597
-4.4253	pred	-0.3360
-4.2035	predjela	-0.2524
-4.6014	predjele
-3.0963	predjelima	-0.4009
-4.6014	predve~er
-3.9024	preko	-0.4656
-2.7986	prema	-0.9048
-4.4253	premda
-4.9024	premjestila
-4.6014	premjestilo	-0.3569
-3.2397	premje{ta	-0.9091
-4.9024	premje{tanja
-4.9024	premje{tat
-4.6014	preosjetljive	-0.3426
-4.9024	preosjetljivo{^u
-4.9024	preostali
-4.1243	preostalom	-0.5076
-4.9024	preporuci
-4.2035	preporu~uje	-0.1695
-4.6014	preporu~ujemo
-3.7885	prestanak	-2.8359
-3.9482	prestati	-0.6530
-4.9024	pret`no
-2.5844	prete`ito	-2.0493
-2.9202	prete`no	-1.7277
-4.4253	prethodne	-0.3361
-4.9024	prethodnih
-4.9024	prevladava
-4.9024	prevladavala
-3.5045	prevladavat	-0.3560
-3.7563	prevladavati	-0.4022
-4.9024	pri
-3.5222	pribli`ava	-1.1204
-4.0573	pribli`avanja	-0.3493
-4.3004	pribli`ila	-0.5413
-4.6014	pribli`no	-0.3597
-4.4253	pridonijet	-0.3324
-4.9024	prija{njih
-3.9482	prije	-0.9541
-4.2035	prije^i	-2.4111
-4.3004	prijeloma	-0.5122
-3.0895	prijepodne	-0.2760
-4.3004	prijepodneva	-0.3300
-4.3004	prikladna	-0.5418
-4.4253	prikladnu	-0.3360
-3.9482	prilika	-0.3953
-3.5045	prilike	-0.4877
-4.4253	primili	-0.3351
-3.7563	primi~e	-0.5499
-4.4253	primjerena	-0.3361
-4.0573	primjerenu	-0.9393
-4.4253	primorja	-0.1749
-4.9024	primorju
-4.6014	priobalju
-4.9024	pripadni
-4.6014	prirodi	-0.3432
-4.9024	prirodu
-4.6014	pristi`e	-0.3597
-4.4253	pritjecanja	-0.3361
-4.4253	pritje~e	-0.3359
-4.6014	produbljava
-1.9316	prognoza	-2.3220
-4.9024	prognoze
-4.0573	prohladno	-0.2178
-4.6014	prolaza	-0.3590
-4.9024	prolazak
-4.4253	prolazan
-4.1243	prolazna	-0.7692
-3.7563	prolazno	-0.2048
-4.9024	proljetne
-4.9024	prometne
-4.9024	promijenjiva
-3.6983	promijenjivo	-1.0399
-4.9024	promijenjivom
-4.6014	promijenjivu	-0.3595
-4.9024	promijenjljivo
-2.9834	promjene	-1.1182
-4.2035	promjenjiva	-0.3445
-3.1543	promjenjivo	-3.1285
-3.7563	promjenjivom	-0.3594
-4.0573	promjenjivu	-0.9391
-4.1243	promjenjljiva	-0.4714
-3.4111	promjenjljivo	-0.8992
-4.1243	promjenjljivom	-0.5091
-4.3004	promjenjljivu	-0.5415
-4.0573	promjenljiva	-0.3629
-2.7753	promjenljivo	-1.2268
-3.6983	promjenljivom	-0.3594
-3.9482	promjenljivu	-0.3595
-4.9024	promjenom
-4.6014	prosinca
-3.8233	prostrana	-0.4693
-4.9024	prostrane
-4.1243	prostrano	-0.1841
-4.4253	prostranog	-0.3361
-4.0573	proteklih	-0.3623
-4.1243	pro{irit	-0.5058
-4.3004	pro{iriti	-0.5247
-3.7563	pru`a	-0.4027
-4.9024	prvi
-2.5782	prvih	-0.3566
-3.7263	prvo	-0.3426
-4.0573	prvom	-0.9374
-3.5407	puhat	-0.3560
-4.9024	pulenat
-3.6014	radenci	-0.2899
-4.4253	radni	-0.3361
-4.3004	ranijih	-0.3597
-4.6014	ranog	-0.3597
-3.9993	raspolo`ena	-0.2507
-4.3004	raspolo`ene	-0.2235
-3.9993	raspolo`eni	-0.2168
-3.9482	raspolo`enja	-0.6585
-3.9482	raspolo`enje	-0.1875
-4.6014	raspolo`enjem	-0.3595
-4.4253	raspolo`enju	-0.3360
-4.9024	rast
-4.9024	raste
-4.9024	rasti
-3.2122	razdoblja	-0.6793
-3.7563	razdoblje	-0.7607
-3.2897	razdobljima	-0.6100
-3.6720	razdra`ljivi	-0.3094
-3.6237	razdra`ljivost	-0.4582
-4.6014	razdra`ljivosti	-0.3302
-2.9530	razmjerno	-0.8183
-3.3227	razvedravanje	-0.4450
-4.9024	razvedravati
-4.6014	razvedrit	-0.3560
-3.6472	razvedriti	-0.2422
-3.8610	razvoj	-0.8999
-3.7885	reumati~ara	-0.2803
-3.8610	reumati~ari	-0.3212
-4.6014	reumati~arima
-4.4253	reumatskih	-0.3360
-4.9024	reumom
-3.4400	rijeka	-0.5916
-4.2035	rijeke	-0.1065
-3.9993	rijetki	-0.4660
-4.9024	rijetkih
-4.6014	rije~kome	-0.3593
-4.9024	rosulja
-4.6014	rosuljom	-0.3558
-2.1839	s	-1.0275
-2.5115	sa	-1.4906
-2.8306	samo	-1.1487
-4.3004	samo{^anec	-0.5122
-4.9024	san
-4.2035	sasvim	-0.2592
-2.2473	sati	-1.1608
-4.6014	satima	-0.3594
-3.0159	sava	-1.8236
-2.1940	se	-0.5146
-2.5045	sedam	-0.7952
-3.3227	sedamdeset	-0.6590
-3.0274	sedamnaest	-0.9363
-4.3004	sedamsto
-4.9024	sedmi
-4.3004	senja	-0.1387
-4.9024	sicilijom
-4.4253	sije~nja	-0.1749
-4.0573	sinopti~arka	-0.5394
-4.9024	situacija
-4.9024	sjever
-3.8233	sjevera	-0.2399
-3.9993	sjeverac	-0.2966
-2.9834	sjeverni	-1.2003
-4.6014	sjevernije	-0.3532
-3.7263	sjevernim	-0.3713
-3.8233	sjevernjak	-0.7432
-3.2212	sjevernog	-1.3578
-4.9024	sjevernoga
-4.6014	sjevernoj	-0.3590
-2.1164	sjevernom	-1.5504
-3.1782	sjevernome	-1.6914
-4.4253	sjeveroistok	-0.3065
-2.9886	sjeveroisto~ni	-1.3549
-4.9024	sjeveroisto~nim
-3.3973	sjeveroisto~njak	-0.7112
-4.9024	sjeveroisto~nog
-3.2590	sjeverozapada	-0.5844
-4.6014	sjeverozapadne	-0.3597
-2.5351	sjeverozapadni	-1.1922
-3.4553	sjeverozapadnim	-0.8116
-2.6376	sjeverozapadnjak	-0.8804
-4.6014	sjeverozapadnjaka	-0.3432
-4.9024	sjeverozapadno
-3.8610	sjeverozapadnog	-1.0797
-3.6014	sjeverozapadnom	-0.9030
-4.3004	sjeverozapadu	-0.1434
-3.8233	sjeveru	-0.4224
-4.3004	skrenut	-0.5380
-4.9024	skrenuti
-4.9024	skretanje
-4.4253	skretanju	-0.3190
-4.9024	skretati
-2.1331	slab	-1.1837
-2.7986	slaba	-1.0430
-3.8233	slabe	-1.1627
-3.9482	slabi	-0.2334
-4.4253	slabija	-0.3360
-3.4400	slabije	-0.3683
-4.9024	slabijeg
-3.9024	slabiji	-0.1904
-4.9024	slabiju
-3.6014	slabim	-0.8619
-4.6014	slabit	-0.3560
-3.5222	slabiti	-0.8124
-4.9024	slabjet
-3.5802	slabjeti	-0.4242
-4.9024	slabljenja
-3.7885	slabljenju	-0.4971
-3.0829	slabo	-0.7760
-3.6472	slabom	-1.2959
-3.8233	slabu	-0.7894
-2.8417	slavoniji	-0.5754
-3.3004	slavonski	-0.3476
-3.4711	slijede^eg	-0.3593
-4.3004	slijede^ega	-0.5414
-2.6619	slijede^ih	-0.3566
-4.6014	sljede^eg	-0.3593
-4.9024	sljede^ega
-3.3461	sljede^ih	-0.3566
-4.6014	sloj
-4.9024	slu`be
-3.5802	smanjena	-0.3426
-4.4253	smanjene	-0.3361
-4.3004	smanjenje	-0.5416
-4.4253	smanjiti
-4.9024	smanjuje
-4.0573	smetnje	-0.8802
-4.9024	smiriti
-4.9024	smirivanje
-3.9482	smirivanju	-0.3647
-3.8610	smjera	-0.4656
-3.9482	smrzava	-0.9371
-3.9024	smrzavati	-0.3426
-3.9993	sna	-0.6465
-4.6014	sna`na
-3.9993	sni`enog	-0.7356
-2.8690	snijeg	-0.6329
-3.2590	snijega	-0.5099
-3.2492	snijegom	-0.4584
-4.9024	snje`na
-3.7885	snom	-0.7304
-3.4400	sparno	-0.5494
-2.5865	split	-1.8340
-3.4553	sporo	-0.7130
-4.9024	spustila
-3.2303	sredine	-0.9401
-4.6014	sredini	-0.3579
-3.3839	sredinom	-0.3579
-4.6014	sredi{njem
-3.8610	sredi{njim	-0.4063
-4.0573	sredi{njoj	-0.4210
-4.6014	sredi{te	-0.3598
-3.9024	sredi{tem	-0.5713
-4.9024	srednje
-2.5949	srednjeg	-1.4375
-3.9024	srednjega	-0.4176
-2.6472	srednjem	-1.2333
-4.4253	srednji	-0.1842
-3.9993	srednjim	-0.3597
-4.2035	srednjoj	-2.4013
-4.4253	srednjom	-0.1842
-4.2035	sredozemlja	-0.3157
-3.6720	sredozemljem	-0.3233
-4.4253	sredozemlju	-0.1842
-4.0573	sredozemna	-0.9390
-4.6014	sredozemne	-0.3596
-3.5045	srijedu	-0.1950
-4.4253	srijemu
-3.8610	sr~ane	-0.3597
-3.7885	sr~ani	-0.3593
-3.9024	sr~anih	-0.3867
-4.1243	stabilne	-0.5093
-4.9024	stabilnije
-4.1243	stabilno	-0.2796
-4.9024	stalno
-4.4253	stanja	-0.3065
-2.5407	stanje	-1.0776
-4.6014	stanovnici	-0.3592
-4.9024	staru
-4.9024	stjepana
-3.1171	sto	-0.4756
-4.6014	stoga	-0.3590
-3.8233	stojanovi^	-1.0496
-4.9024	stotine
-4.3004	stotinu
-4.1243	strelec	-0.7700
-4.4253	strujanja	-0.1879
-3.5222	stupanj	-0.7563
-2.7501	stupnja	-1.3399
-2.2052	stupnjeva	-1.6182
-4.9024	stvaranje
-4.6014	stvarati	-0.3597
-3.0048	su	-0.5022
-4.4253	subote	-0.1842
-3.4400	subotu	-0.3512
-4.1243	suho	-0.1668
-3.1621	sumaglica	-0.5500
-3.2212	sumaglice	-0.7928
-3.9993	sumaglicom	-0.2512
-4.0573	sunca	-0.3638
-4.6014	sunce	-0.3426
-3.2397	sun~ana	-0.3506
-3.6237	sun~anih	-1.0021
-4.4253	sun~anije	-0.1842
-3.2897	sun~anim	-0.3595
-2.2444	sun~ano	-1.0830
-4.4253	sun~anog	-0.3356
-4.1243	susnje`ica	-0.1198
-4.3004	susnje`icom	-0.3329
-4.4253	susnje`icu	-0.2045
-4.4253	sustav	-0.2042
-4.4253	sustava	-0.3348
-3.4711	sustavom	-0.5284
-2.1915	sutra	-0.7394
-3.8233	sve	-0.4475
-4.9024	svetog
-4.9024	svetoga
-4.4253	svi	-0.2037
-4.2035	svje`e	-0.3465
-4.9024	svje`ija
-3.1466	svje`ije	-0.7369
-4.1243	tako	-0.3316
-4.0573	tako}er	-0.3885
-4.6014	tamo
-2.5115	te	-0.4843
-4.2035	tegoba	-0.1109
-3.0573	tegobe	-0.5831
-4.0573	tek	-0.3604
-2.1458	temperatura	-1.3803
-4.9024	temperaturama
-3.3973	temperature	-0.6366
-3.7263	temperaturom	-0.4215
-4.1243	temperaturu	-0.4633
-3.6237	terezino	-0.3592
-3.0963	tiho	-1.0422
-2.8610	tijekom	-1.5575
-4.9024	tim
-4.6014	time	-0.3597
-3.7563	tirenskim	-0.8571
-4.0573	tirenskog	-0.3476
-4.3004	tirenskom	-0.2045
-4.4253	tirenskome	-0.3351
-4.9024	tisu^e
-4.9024	ti~e
-3.0048	tjedna	-0.7794
-4.4253	tlak	-0.3361
-3.2212	tlaka	-0.7426
-4.9024	tlom
-3.5802	tlu	-0.6459
-4.6014	tmurna
-3.9482	tmurno	-0.2803
-3.6014	to	-0.6918
-4.1243	toga	-0.3349
-4.9024	tokova
-4.9024	tom
-2.9202	toplije	-0.8112
-4.4253	toplijeg	-0.3357
-2.9782	toplo	-0.6618
-4.9024	toplom
-3.5802	tramontana	-0.2613
-4.0573	tramontane	-0.3879
-4.6014	trava
-4.6014	trave
-4.9024	travnjaka
-4.9024	tre^e
-3.7563	treba	-0.7897
-4.9024	trebaju
-4.0573	trebala	-0.9390
-4.9024	trebale
-3.4400	trebali	-1.4616
-4.3004	trebalo	-0.3586
-2.1473	tri	-1.0250
-2.4925	trideset	-1.3604
-2.6850	trinaest	-1.7080
-3.4553	tristo	-0.2389
-4.9024	tu
-4.3004	tunisa	-0.5415
-4.9024	tunisom
-4.9024	tuti{
-1.6237	u	-1.4289
-3.6983	udare	-0.3670
-2.8343	udari	-1.2964
-3.4400	udarima	-0.6393
-4.9024	uglavno
-2.2580	uglavnom	-1.0090
-4.2035	ugodno	-2.4211
-2.4875	ujutro	-0.6487
-4.9024	umjerana
-2.2823	umjeren	-1.2087
-2.3852	umjerena	-1.2625
-3.7885	umjerene	-0.5621
-4.6014	umjereni
-2.2070	umjereno	-1.5071
-3.2690	umjerenom	-0.8740
-3.3461	umjerenu	-0.7584
-3.6237	una	-0.3597
-4.4253	unutra{njost	-0.2042
-2.3596	unutra{njosti	-0.7050
-4.9024	uobi~ajeno
-4.3004	upozorava	-0.5390
-4.4253	upozoravaju	-0.3360
-4.6014	upozoravamo	-0.3597
-2.8021	upozorenje	-0.9742
-3.6983	upozorenjem	-0.8735
-3.8610	upozoriti	-0.7344
-4.4253	usporeno	-0.3333
-4.4253	ustalilo	-0.3356
-4.9024	ustalio
-4.9024	uticati
-4.9024	uti~e
-3.1543	utjecaj	-0.5843
-3.6983	utjecaja	-0.3305
-4.4253	utjecajem	-0.3361
-3.9024	utjecati	-0.9829
-3.4875	utorak	-0.4062
-4.4253	utorka	-0.2041
-4.9024	uvijek
-3.7563	uvjeta	-0.3870
-4.4253	uvjete	-0.3065
-3.0963	uvjeti	-0.6857
-2.3449	uz	-0.8647
-4.4253	uzburkano
-3.5600	uzrokovane	-1.3423
-4.6014	uzrokovanih	-0.3596
-4.6014	uzrokovat	-0.3560
-4.1243	uzrokovati	-0.1363
-4.4253	uzrokuje	-0.3361
-4.4253	u~inak	-0.3196
-4.6014	vakula	-0.3302
-4.9024	valoviti
-2.3866	valovito	-0.9177
-3.6472	ve^	-0.5136
-4.3004	ve^a	-0.1428
-3.1390	ve^e	-1.8214
-4.6014	ve^eg	-0.3597
-3.2690	ve^em	-0.3578
-3.8610	ve^i	-0.3597
-4.4253	ve^ih	-0.2044
-3.4553	ve^ina	-1.1735
-3.2590	ve^ini	-3.3658
-2.6080	ve^inom	-1.0126
-4.3004	vedrije	-0.1953
-2.8197	vedro	-0.5663
-3.8610	velebita	-0.3090
-2.8854	velebitskom	-2.0549
-4.6014	velebitskome	-0.3592
-4.6014	veoma
-4.9024	ve~er
-4.6014	ve~eras
-4.6014	ve~ernjim	-0.3598
-2.5332	vidljivost	-1.3954
-4.9024	vijest
-4.1243	vikend	-0.1878
-4.9024	vikenda
-3.6472	visini	-0.4431
-4.4253	visoka	-0.2044
-3.8610	visokih	-1.0383
-4.9024	visokom
-3.3710	vi{a	-0.7531
-3.0391	vi{e	-0.7480
-4.6014	vi{em	-0.3594
-4.9024	vjerojatno
-4.9024	vjerojatnost
-2.0518	vjetar	-1.1999
-3.6237	vjetra	-0.4351
-3.9993	vjetrom	-0.2218
-4.2035	vjetrovito	-0.1591
-4.4253	vla`ni	-0.3158
-4.9024	vlasta
-3.8610	vodostaj	-0.3216
-3.6237	vodostaju	-0.3596
-4.4253	vratima	-0.3317
-4.9024	vrbe
-2.9387	vremena	-0.7105
-3.5407	vremenom	-0.4139
-2.0115	vremenska	-0.3547
-4.1243	vremenske	-0.5091
-3.4400	vremenski	-1.0156
-4.3004	vremensko	-0.5415
-4.6014	vremenskog	-0.3597
-3.1700	vremenu	-0.6856
-4.9024	vrhu
-3.0159	vrijeme	-0.5319
-2.7689	vrlo	-0.8433
-3.2122	vru^e	-0.7200
-3.9482	vr{nak	-0.3302
-3.5802	vukovar	-0.4119
-1.8298	za	-1.8497
-4.9024	zabjelili
-4.6014	zadr`at	-0.3560
-3.6237	zadr`ati	-0.2598
-2.9886	zadr`ava	-0.8775
-4.6014	zadr`e	-0.3597
-4.9024	zadru
-4.3004	zagorju	-0.5215
-3.6237	zagreb	-1.2756
-4.2035	zagrebu	-0.0906
-4.9024	zahladnjenje
-3.9993	zahla}enje	-0.6081
-4.1243	zahvatiti	-0.5091
-4.0573	zale}u	-0.3943
-4.6014	zamijeniti	-0.3592
-3.1466	zapada	-0.5114
-4.0573	zapadne	-0.8945
-2.7753	zapadni	-0.9710
-3.2492	zapadnim	-1.1338
-3.2792	zapadnjak	-0.9536
-4.9024	zapadnoeuropske
-3.9993	zapadnog	-0.2782
-4.3004	zapadnoj	-0.3578
-3.4875	zapadnom	-0.7505
-4.2035	zapadnu	-2.4206
-4.1243	zapadu	-0.2430
-3.6983	zapuhat	-0.3560
-3.9482	zapuhati	-0.2821
-4.6014	zasad
-4.9024	zastoja
-2.7918	zatim	-0.4346
-3.5407	zato	-0.9116
-4.4253	zatopljenje	-0.3360
-2.6545	zavoda	-1.7116
-4.1243	za{tita	-0.2735
-4.4253	za{tititi	-0.3296
-3.8233	za{titu	-0.6141
-2.7263	zbog	-0.6686
-4.9024	zdravstvo
-3.2035	zemlje	-0.4144
-3.4253	zemlji	-0.2161
-4.2035	zemlju	-0.3502
-4.1243	znatnije	-0.4718
-3.1782	znatno	-1.7215
-4.9024	zna~ajnije
-4.4253	zna~i	-0.3360
-4.6014	zoran	-0.3598
-4.3004	zrak	-0.5122
-3.0048	zraka	-0.5788
-4.4253	zraku
-3.6014	{amac	-0.2885
-2.7206	{esnaest	-0.9819
-2.4028	{est	-0.9143
-4.0573	{esto	-0.1630
-4.6014	{etnju	-0.3493
-3.4111	{ezdeset	-0.3643
-4.2035	{ire	-0.3419
-3.6472	{iri	-0.7960
-4.9024	{kifi^
-3.4400	{to	-0.6547
-4.9024	{tovi{e
-4.6014	~apka	-0.3302
-4.9024	~emu
-4.6014	~esto	-0.3598
-2.0942	~etiri	-1.2547
-3.7885	~etiristo	-0.2156
-2.8306	~etrdeset	-0.8956
-2.7411	~etrnaest	-1.0510
-4.4253	~etvrtak	-0.2043
-4.1243	~e{^e	-0.3591
-4.9024	~e{^i
-4.9024	~itavom
-3.1782	~vora	-0.9515
-2.3449	~vorova	-1.1597

\2-grams:
-0.2493	</s> <s>
-1.5046	<greska> </s>
-1.5046	<greska> na
-1.5046	<greska> osamnaest
-0.7179	<papir> </s>
-1.4636	<papir> <uzdah>
-1.6204	<papir> osjetno
-1.4636	<papir> vremenska
-1.6204	<papir> zbog
-3.6690	<s> <greska>
-3.0234	<s> <papir>
-3.5122	<s> <sil>
-1.3965	<s> <uzdah>
-3.6690	<s> ^e
-1.3298	<s> a
-2.7665	<s> ali
-3.5122	<s> anticiklonalni
-3.6690	<s> anticiklonalno
-3.6690	<s> astmati~ara
-3.6690	<s> barem
-1.6068	<s> biometeorolo{ka
-3.1033	<s> biometeorolo{ki
-3.5122	<s> bit
-3.6690	<s> biti
-3.6690	<s> botovo
-2.4197	<s> bura
-2.7207	<s> ciklona
-3.6690	<s> ciklonalno
-3.2657	<s> crnac
-2.6068	<s> dana{nji
-2.5446	<s> danju
-2.4420	<s> djelomice
-2.3985	<s> dnevna
-3.5122	<s> dnevne
-2.5746	<s> do
-2.9287	<s> dok
-2.5446	<s> dolina
-3.2657	<s> donji
-2.1297	<s> drava
-2.3228	<s> drugdje
-3.1033	<s> du`
-3.6690	<s> dulja
-2.4655	<s> dunav
-3.0234	<s> gdje
-3.6690	<s> gotovo
-2.6793	<s> greben
-2.9287	<s> hladno
-1.9354	<s> i
-3.2657	<s> iako
-3.0234	<s> ili
-3.5122	<s> ipak
-2.1893	<s> izgledi
-2.0486	<s> izvje{^e
-1.5059	<s> izvje{taj
-3.0234	<s> jadranu
-3.5122	<s> jasenovac
-3.5122	<s> ja~a
-2.7207	<s> jo{
-3.6690	<s> ju`no
-2.0580	<s> jugo
-3.6690	<s> jugozapadni
-1.6995	<s> jutarnja
-2.9287	<s> jutarnje
-3.5122	<s> jutra
-2.8176	<s> jutro
-3.6690	<s> karlovac
-3.2657	<s> ki{a
-2.6793	<s> kod
-3.6690	<s> koja
-3.6690	<s> koncentracija
-2.7207	<s> krajem
-3.6690	<s> kratkotrajna
-2.8176	<s> kroni~ni
-2.5166	<s> kupa
-3.6690	<s> ljudi
-2.3590	<s> malo
-2.6416	<s> manje
-2.7207	<s> meteoropati
-3.5122	<s> minus
-1.9883	<s> mjestimice
-3.6690	<s> mogli
-3.5122	<s> mogu^a
-3.1033	<s> mogu^i
-3.6690	<s> mogu^nost
-1.2736	<s> more
-1.0934	<s> na
-2.4197	<s> nad
-1.7713	<s> najni`a
-3.6690	<s> najni`e
-3.5122	<s> najobla~nije
-3.2657	<s> najprije
-1.5221	<s> najvi{a
-2.3405	<s> najvi{e
-3.5122	<s> nakon
-3.2657	<s> nastavlja
-3.1033	<s> nave~er
-3.6690	<s> ne{to
-3.6690	<s> no
-3.6690	<s> no^i
-3.6690	<s> no^na
-2.7207	<s> no^u
-3.6690	<s> nova
-2.0132	<s> o
-3.1033	<s> obla~nije
-3.1033	<s> obla~no
-3.1033	<s> od
-3.5122	<s> okrenut
-3.5122	<s> osjetljiviji
-3.6690	<s> oslabit
-3.5122	<s> oslabljen
-3.0234	<s> osobe
-3.5122	<s> osobito
-3.5122	<s> o~ekuje
-3.6690	<s> o~ekuju
-3.0234	<s> pa
-2.8176	<s> plitka
-3.2657	<s> po
-3.5122	<s> poja~ano
-2.4903	<s> polje
-2.1297	<s> ponegdje
-3.1033	<s> posebice
-2.2156	<s> poslijepodne
-3.6690	<s> poslijepodnevna
-3.5122	<s> postupna
-2.7665	<s> postupno
-3.6690	<s> posvuda
-2.9287	<s> pote{ko^e
-2.5446	<s> potkraj
-2.6416	<s> povremeno
-3.0234	<s> prema
-2.2022	<s> prete`ito
-2.7207	<s> prete`no
-3.1033	<s> prevladavat
-3.2657	<s> prijepodne
-3.1033	<s> prognoza
-3.6690	<s> prolazno
-3.2657	<s> promijenjivo
-2.5446	<s> promjenjivo
-2.6416	<s> promjenjljivo
-3.5122	<s> promjenljiva
-1.9283	<s> promjenljivo
-3.5122	<s> prostrana
-3.0234	<s> prostrano
-3.6690	<s> proteklih
-2.5166	<s> puhat
-3.6690	<s> razmjerno
-3.5122	<s> reumati~ari
-3.5122	<s> rijeka
-3.5122	<s> s
-2.7665	<s> sa
-2.4420	<s> samo
-2.0395	<s> sava
-3.1033	<s> sinopti~arka
-3.6690	<s> sjeverni
-3.0234	<s> sjeverozapadni
-2.6416	<s> slab
-2.8176	<s> slaba
-3.6690	<s> slabije
-2.6793	<s> slabo
-3.0234	<s> slavonski
-3.6690	<s> smetnje
-3.5122	<s> snijeg
-3.0234	<s> sredinom
-3.5122	<s> srednji
-3.5122	<s> sredozemna
-1.6995	<s> stanje
-3.6690	<s> sto
-3.6690	<s> stoga
-3.2657	<s> sun~anih
-2.3405	<s> sun~ano
-2.3783	<s> sutra
-2.6068	<s> te
-2.3405	<s> tegobe
-2.0218	<s> temperatura
-2.9287	<s> temperature
-2.6793	<s> tiho
-2.5446	<s> tijekom
-3.5122	<s> tmurno
-3.6690	<s> toplo
-3.0234	<s> treba
-3.0234	<s> trideset
-1.3965	<s> u
-3.5122	<s> udari
-2.3405	<s> uglavnom
-2.0873	<s> ujutro
-3.6690	<s> umjeren
-2.6068	<s> umjerena
-3.2657	<s> umjerene
-2.2022	<s> umjereno
-2.4903	<s> una
-3.6690	<s> unutra{njosti
-3.6690	<s> upozorava
-2.4655	<s> upozorenje
-3.2657	<s> utjecaj
-3.5122	<s> uvjeti
-2.1297	<s> uz
-3.2657	<s> ve^ina
-2.7665	<s> ve^inom
-3.1033	<s> vedro
-1.7121	<s> vidljivost
-2.5446	<s> vi{e
-1.2266	<s> vjetar
-3.5122	<s> vodostaj
-0.9072	<s> vremenska
-2.6793	<s> vremenski
-3.2657	<s> vremensko
-2.2736	<s> vrijeme
-2.8176	<s> vrlo
-3.6690	<s> vukovar
-3.6690	<s> za
-2.9287	<s> zapadni
-2.7207	<s> zapuhat
-2.3590	<s> zatim
-2.5446	<s> zato
-2.3783	<s> zbog
-3.6690	<s> ~e{^e
-1.6244	<sil> </s>
-2.1236	<sil> <uzdah>
-1.9612	<sil> a
-2.5269	<sil> biometeorolo{ki
-2.5269	<sil> bura
-2.5269	<sil> danju
-2.1236	<sil> djelomice
-1.6755	<sil> do
-2.1236	<sil> drava
-2.5269	<sil> drugdje
-2.3701	<sil> dva
-2.5269	<sil> hladnije
-1.6755	<sil> i
-2.5269	<sil> ilok
-2.1236	<sil> jedan
-2.5269	<sil> koji
-1.6244	<sil> malo
-1.4995	<sil> minus
-2.1236	<sil> mjestimice
-2.3701	<sil> mogu^a
-2.5269	<sil> mogu^i
-1.5372	<sil> more
-0.9876	<sil> na
-2.5269	<sil> najni`a
-1.8813	<sil> najvi{a
-1.8813	<sil> od
-2.5269	<sil> oprostite
-1.9612	<sil> pet
-2.5269	<sil> plitka
-2.3701	<sil> ponegdje
-2.3701	<sil> poslijepodne
-1.9612	<sil> prete`ito
-1.9612	<sil> prete`no
-2.3701	<sil> promjenljivo
-2.3701	<sil> radenci
-2.5269	<sil> samo
-2.5269	<sil> sava
-2.5269	<sil> sedamdeset
-2.5269	<sil> slavonski
-1.1473	<sil> stanje
-2.5269	<sil> sumaglica
-1.8813	<sil> sun~ano
-2.5269	<sil> svje`ije
-2.1236	<sil> te
-1.6244	<sil> temperatura
-2.5269	<sil> tiho
-2.3701	<sil> toplije
-2.5269	<sil> toplo
-1.4647	<sil> u
-2.3701	<sil> umjerena
-2.5269	<sil> umjereno
-1.8813	<sil> upozorenje
-2.3701	<sil> ve^inom
-1.8813	<sil> vedro
-1.7866	<sil> vidljivost
-1.5372	<sil> vjetar
-1.6755	<sil> vremenska
-2.3701	<sil> vrijeme
-2.1236	<sil> zagreb
-2.5269	<sil> zbog
-2.5269	<sil> {esnaest
-2.3701	<sil> {est
-2.1236	<sil> ~etiri
-0.5090	<udarac> </s>
-0.3210	<uzdah> </s>
-3.4231	<uzdah> <greska>
-1.2368	<uzdah> a
-2.6828	<uzdah> ali
-3.4231	<uzdah> anticiklonalno
-3.2663	<uzdah> biometeorolo{ki
-3.4231	<uzdah> brzo
-3.0198	<uzdah> bura
-2.7775	<uzdah> ciklona
-3.2663	<uzdah> ciklonalno
-2.4748	<uzdah> djelomice
-2.3609	<uzdah> dnevna
-2.3956	<uzdah> do
-2.3956	<uzdah> dolina
-2.5206	<uzdah> drava
-2.5717	<uzdah> drugdje
-3.0198	<uzdah> du`
-2.8574	<uzdah> dunav
-3.2663	<uzdah> gdje
-3.4231	<uzdah> greben
-2.2443	<uzdah> i
-3.4231	<uzdah> ilok
-2.4334	<uzdah> izgledi
-2.7775	<uzdah> izvje{taj
-3.4231	<uzdah> jadranu
-2.2707	<uzdah> jugo
-2.1131	<uzdah> jutarnja
-3.2663	<uzdah> jutra
-3.4231	<uzdah> karlovac
-3.4231	<uzdah> ki{e
-3.0198	<uzdah> koja
-3.2663	<uzdah> koji
-2.6828	<uzdah> kupa
-2.4334	<uzdah> malo
-3.0198	<uzdah> meteoropati
-3.0198	<uzdah> minus
-2.0946	<uzdah> mjestimice
-3.4231	<uzdah> mo`e
-3.2663	<uzdah> mogu^a
-3.4231	<uzdah> mogu^e
-1.6359	<uzdah> more
-1.2195	<uzdah> na
-2.2707	<uzdah> nad
-2.1324	<uzdah> najni`a
-1.9307	<uzdah> najvi{a
-2.6828	<uzdah> najvi{e
-3.4231	<uzdah> nakon
-3.2663	<uzdah> nastavlja
-2.7775	<uzdah> no^u
-3.2663	<uzdah> obla~no
-2.5717	<uzdah> od
-3.2663	<uzdah> osijek
-3.2663	<uzdah> oslabjet
-3.0198	<uzdah> osobito
-3.4231	<uzdah> o~ekuje
-3.0198	<uzdah> plitka
-3.4231	<uzdah> podno
-3.2663	<uzdah> polje
-3.2663	<uzdah> ponajprije
-2.2707	<uzdah> ponegdje
-2.5206	<uzdah> poslijepodne
-3.0198	<uzdah> postupno
-3.4231	<uzdah> pote{ko^e
-3.0198	<uzdah> potkraj
-2.0598	<uzdah> prete`ito
-2.2707	<uzdah> prete`no
-3.4231	<uzdah> prijepodne
-3.4231	<uzdah> promijenjivo
-2.8574	<uzdah> promjenjivo
-3.4231	<uzdah> promjenjljivo
-2.2987	<uzdah> promjenljivo
-3.4231	<uzdah> prostrana
-3.2663	<uzdah> puhat
-2.6828	<uzdah> s
-3.2663	<uzdah> sa
-3.4231	<uzdah> samo
-2.2987	<uzdah> sava
-3.2663	<uzdah> sjeverozapadni
-2.6828	<uzdah> slabo
-3.4231	<uzdah> slavonski
-3.4231	<uzdah> sporo
-3.4231	<uzdah> sredozemna
-2.2195	<uzdah> stanje
-2.1324	<uzdah> sun~ano
-3.2663	<uzdah> sutra
-3.4231	<uzdah> svje`e
-2.2987	<uzdah> te
-3.2663	<uzdah> tegobe
-1.9977	<uzdah> temperatura
-3.4231	<uzdah> terezino
-3.0198	<uzdah> tijekom
-3.4231	<uzdah> treba
-3.4231	<uzdah> trideset
-1.4836	<uzdah> u
-2.2443	<uzdah> uglavnom
-3.0198	<uzdah> ujutro
-3.0198	<uzdah> umjerena
-2.3609	<uzdah> umjereno
-3.4231	<uzdah> una
-2.3956	<uzdah> upozorenje
-2.1526	<uzdah> uz
-3.4231	<uzdah> ve^
-2.5717	<uzdah> ve^inom
-3.2663	<uzdah> vedro
-1.8950	<uzdah> vidljivost
-2.6828	<uzdah> vi{e
-1.5353	<uzdah> vjetar
-1.5717	<uzdah> vremenska
-3.4231	<uzdah> vrijeme
-3.2663	<uzdah> vrlo
-3.2663	<uzdah> zapuhat
-2.8574	<uzdah> zatim
-2.3287	<uzdah> zbog
-3.4231	<uzdah> {to
-1.9339	^e </s>
-2.2196	^e <uzdah>
-2.1396	^e biometeorolo{ke
-1.5817	^e biometeorolo{ki
-1.3318	^e biti
-2.7852	^e brzo
-2.6284	^e danju
-2.0449	^e do
-2.6284	^e dobrom
-2.6284	^e donijeti
-2.7852	^e duljih
-1.7956	^e i
-2.6284	^e imati
-2.0449	^e jadranu
-2.7852	^e ja~ati
-1.8827	^e jo{
-2.7852	^e jugo
-2.7852	^e jugozapadnjak
-2.3819	^e krajem
-2.7852	^e krajevima
-1.8827	^e ljudi
-2.3819	^e malo
-2.2196	^e mjestimice
-1.1742	^e na
-2.7852	^e nave~er
-2.7852	^e nepovoljni
-2.7852	^e nepovoljniji
-2.2196	^e obla~no
-1.8370	^e okrenuti
-2.7852	^e osjetno
-1.7956	^e oslabiti
-1.4220	^e oslabjeti
-2.6284	^e pasti
-2.2196	^e poja~ati
-2.0449	^e ponegdje
-2.7852	^e porasti
-2.7852	^e poslije
-1.7956	^e poslijepodne
-1.6609	^e postupno
-2.6284	^e pote{ko^e
-2.3819	^e poticajno
-2.0449	^e povremeno
-2.7852	^e prema
-1.7956	^e prevladavati
-2.7852	^e prilike
-2.7852	^e razdoblja
-1.6609	^e razmjerno
-2.7852	^e sasvim
-0.7725	^e se
-1.8827	^e slab
-2.2196	^e slabije
-1.6328	^e slabiti
-1.6328	^e slabjeti
-2.3819	^e sun~anih
-1.7578	^e sun~ano
-2.7852	^e sutra
-2.7852	^e svje`ije
-2.6284	^e temperatura
-1.8370	^e tijekom
-1.2459	^e u
-2.3819	^e uglavnom
-1.7578	^e umjeren
-2.3819	^e umjereno
-1.7230	^e utjecaj
-2.6284	^e utjecati
-1.4567	^e uvjeti
-2.3819	^e ve^
-2.3819	^e ve^inom
-2.7852	^e vjetrovito
-2.1396	^e zapuhati
-2.6284	^e zemlji
-0.2686	`aliti na
-2.8484	a astmati~are
-2.8484	a ciklona
-1.5798	a danju
-1.6590	a dnevna
-1.9108	a do
-2.1538	a drugdje
-1.9777	a du`
-2.3596	a frontalni
-3.0052	a kasno
-2.4395	a kod
-2.0155	a krajem
-2.4395	a kroni~ni
-1.9777	a mjestimice
-2.8484	a mogu^a
-3.0052	a mogu^e
-2.3596	a more
-0.4703	a na
-3.0052	a nad
-1.0746	a najvi{a
-2.8484	a najvi{e
-1.8808	a nave~er
-2.8484	a neki
-2.4395	a ni
-3.0052	a no^as
-2.0569	a no^u
-3.0052	a obla~no
-3.0052	a oslabljena
-3.0052	a oslabljeni
-2.8484	a osobito
-2.6019	a plitka
-2.0155	a po
-1.8016	a ponegdje
-2.3596	a poslije
-1.4658	a poslijepodne
-2.6019	a pote{ko^e
-1.7145	a potkraj
-2.8484	a povremeno
-2.8484	a prema
-3.0052	a prijepodne
-2.4395	a reumati~ari
-3.0052	a s
-2.2649	a sa
-1.8808	a samo
-2.1027	a sredinom
-2.3596	a sun~ana
-2.8484	a sun~anih
-2.2649	a sutra
-2.0155	a tegobe
-1.6590	a tijekom
-0.8214	a u
-2.4395	a uglavnom
-2.1027	a ujutro
-2.0569	a uz
-3.0052	a vidljivost
-3.0052	a vi{e
-3.0052	a vjetar
-1.5518	a zatim
-0.2493	ako se
-0.8612	ali ^e
-1.4447	ali do
-1.1982	ali i
-1.4447	ali jo{
-1.6015	ali o~ekuje
-1.6015	ali poslije
-1.6015	ali su
-1.4447	ali tijekom
-1.0358	ali u
-1.6015	ali uz
-0.2493	ankica stojanovi^
-0.8328	anticiklona </s>
-0.8328	anticiklona ^e
-0.2493	anticiklonalni greben
-0.2493	anticiklonalno polje
-0.2686	anticiklonalnog grebena
-1.0074	anticiklone nad
-1.2539	anticiklone nastavlja
-0.7651	anticiklone sa
-1.2539	anticiklone u
-1.0074	anticiklone zadr`ava
-0.3935	astmati~ara te
-0.9897	astmati~are </s>
-0.0872	astmati~are i
-0.3840	astmati~ari </s>
-0.7211	astmati~ari i
-0.9675	astmati~ari pa
-0.2493	astmati~arima i
-0.2493	atlantska ciklona
-0.2493	atmosferski poreme^aj
-0.2493	atmosferskog tlaka
-0.4254	baranji i
-0.1470	barem djelomice
-1.6945	bez oborina
-0.4559	bez promjene
-0.2310	bez ve^e
-1.8514	bez znatnije
-1.4426	bi biti
-1.9313	bi ih
-1.0259	bi imati
-1.9313	bi kod
-0.9358	bi ljudi
-2.0881	bi mnogi
-0.7419	bi mogli
-1.9313	bi moglo
-1.9313	bi nekim
-2.0881	bi oni
-2.0881	bi osje^ati
-1.9313	bi osjetiti
-1.9313	bi osjetljivije
-2.0881	bi osobe
-0.9358	bi se
-2.0881	bi slabije
-0.8177	bi trebali
-1.6849	bi trebalo
-1.9313	bi u
-2.0881	bi zbog
-0.5503	bila visoka
-0.4254	biokova jaka
-0.0033	biometeorolo{ka prognoza
-1.2270	biometeorolo{ke ^e
-0.1648	biometeorolo{ke prilike
-1.0702	biometeorolo{ke uvjete
-0.4033	biometeorolo{ki ^e
-1.6999	biometeorolo{ki je
-0.6297	biometeorolo{ki utjecaj
-0.5105	biometeorolo{ki uvjeti
-0.6568	biometeorolo{kih prilika
-0.4842	biometeorolo{kih uvjeta
-0.0016	biometeorolo{kog utjecaja
-0.2493	bit ^e
-2.1299	biti ^e
-2.1299	biti dobre
-1.3842	biti dobro
-2.1299	biti dobrog
-1.1624	biti i
-2.2867	biti iznimno
-2.1299	biti izra`en
-2.2867	biti jaki
-1.3842	biti ki{e
-1.8834	biti kratkotrajnih
-2.1299	biti lo{e
-2.2867	biti lo{ije
-2.1299	biti manje
-2.2867	biti mjestimice
-2.2867	biti na
-1.7211	biti nepovoljan
-1.2245	biti nepovoljni
-1.5464	biti ne{to
-2.1299	biti od
-2.1299	biti pogodni
-2.2867	biti poledice
-2.1299	biti potrebna
-2.1299	biti povoljan
-1.3385	biti povoljni
-1.8834	biti povoljniji
-2.2867	biti prete`ito
-1.1080	biti razdra`ljivi
-0.8761	biti razmjerno
-1.1624	biti slabije
-2.2867	biti slabiji
-2.2867	biti tegoba
-2.1299	biti u
-2.2867	biti umjerene
-1.2971	biti vrlo
-0.4254	blizini na{ih
-0.2493	blizu tunisa
-0.6560	bolesnici </s>
-1.0944	bolesnici <uzdah>
-1.8348	bolesnici bi
-1.8348	bolesnici imat
-1.4315	bolesnici manje
-0.9322	bolesnici mogli
-0.9322	bolesnici ne
-1.8348	bolesnici ne^e
-1.6779	bolesnici s
-1.2691	bolesnici tako}er
-0.9322	bolesnici te
-0.4254	bolesnicima </s>
-0.4314	bolesnika </s>
-0.8140	bolesnika <uzdah>
-1.2228	bolesnika bit
-1.3796	bolesnika mogu^e
-1.2228	bolesnika te
-0.4966	bolesnike </s>
-1.0622	bolesnike <uzdah>
-1.0622	bolesnike i
-0.9054	bolesnike treba
-0.2277	bolje a
-0.2686	bolji nego
-0.2493	bolova na
-0.3219	bolove </s>
-1.0622	bolove <uzdah>
-0.9054	bolove a
-0.3231	bolovi </s>
-0.7264	bolovi <uzdah>
-0.2493	bolovima te
-0.2493	borivoj ~apka
-0.8460	botovo jedan
-1.2493	botovo minus
-1.0925	botovo pet
-1.2493	botovo sto
-0.8460	botovo ~etiri
-1.2493	brod <sil>
-1.2493	brod dva
-1.2493	brod minus
-1.0925	brod sedam
-1.2493	brod tri
-1.0925	brod {est
-0.1478	brzo ^e
-0.7934	brzo oslabjeti
-1.0925	budimpe{ta dva
-0.6037	budimpe{ta jedan
-1.2493	budimpe{ta nismo
-0.5090	budimpe{ta tri
-1.2493	budimpe{ta tristo
-0.6820	bura </s>
-2.0602	bura <sil>
-0.7855	bura <uzdah>
-1.7234	bura ^e
-1.2152	bura a
-2.6259	bura brzo
-1.8856	bura danju
-2.2226	bura deset
-2.4691	bura do
-2.6259	bura drugdje
-2.6259	bura dvanaest
-0.8451	bura i
-1.7234	bura koja
-2.0602	bura mjestimice
-2.6259	bura mo`e
-2.6259	bura more
-1.3159	bura na
-2.4691	bura najvi{a
-2.2226	bura nave~er
-2.4691	bura od
-2.4691	bura osam
-2.6259	bura oslabit
-1.5015	bura pet
-1.7745	bura ponegdje
-2.6259	bura posebice
-2.6259	bura poslijepodne
-2.6259	bura postupno
-2.6259	bura potkraj
-1.8856	bura s
-1.9803	bura te
-2.6259	bura temperatura
-1.7745	bura tijekom
-2.4691	bura u
-2.4691	bura uz
-1.8856	bura zatim
-1.3352	bura {est
-1.8856	bura ~etiri
-2.0602	bura ~etrnaest
-1.3084	bure </s>
-0.9714	bure <uzdah>
-1.7117	bure drugdje
-1.7117	bure i
-1.0661	bure na
-1.7117	bure oko
-0.2583	bure trideset
-0.8846	burin </s>
-1.2215	burin <sil>
-1.1415	burin <uzdah>
-1.0468	burin a
-0.7975	burin danju
-0.9358	burin na
-1.7871	burin pet
-1.6303	burin zatim
-0.6927	burin ~etiri
-0.6911	burom </s>
-0.9376	burom <uzdah>
-0.9376	burom i
-1.0944	burom u
-0.4260	buru </s>
-0.7131	buru <uzdah>
-1.4534	buru koja
-1.4534	buru na
-1.4534	buru {est
-0.2493	centimetara snijega
-0.0021	centra split
-1.2686	cijeloj ^e
-1.2686	cijeloj se
-0.1347	cijeloj zemlji
-0.2493	cijelom jadranu
-0.6945	cijelu hrvatsku
-0.2058	cijelu zemlju
-1.7808	ciklona </s>
-1.7808	ciklona <uzdah>
-1.6240	ciklona iznad
-1.7808	ciklona jo{
-0.6564	ciklona nad
-1.6240	ciklona pa
-1.1352	ciklona polako
-1.7808	ciklona premje{ta
-1.7808	ciklona pru`a
-0.9294	ciklona s
-0.7533	ciklona sa
-1.6240	ciklona se
-1.7808	ciklona uzrokovat
-1.6240	ciklona uzrokuje
-0.2493	ciklonalno polje
-0.4904	ciklonalnog sustava
-0.6472	ciklonalnog utjecaja
-1.0925	ciklone ^e
-0.3468	ciklone biometeorolo{ki
-1.0925	ciklone na
-1.2493	ciklone uvjeti
-0.2493	cjelodnevne magle
-0.2493	cjelodnevnom maglom
-1.0702	crnac jedan
-0.5814	crnac minus
-1.2270	crnac pet
-0.5696	da ^e
-1.2693	dalje ^e
-0.4690	dalje biti
-1.5157	dalje hladno
-1.0270	dalje na
-1.5157	dalje ponegdje
-1.6725	dalje promjenljivo
-1.1069	dalje razmjerno
-1.6725	dalje sun~ano
-1.0270	dalje vru^e
-0.9897	dalmacije </s>
-0.9897	dalmacije <uzdah>
-0.9897	dalmacije mo`e
-1.3415	dalmaciji </s>
-1.1335	dalmaciji <uzdah>
-1.5161	dalmaciji a
-2.0818	dalmaciji bit
-1.9250	dalmaciji djelomice
-1.5161	dalmaciji do
-1.5161	dalmaciji gdje
-0.7186	dalmaciji i
-2.0818	dalmaciji isto~njak
-2.0818	dalmaciji izme}u
-2.0818	dalmaciji jugozapadnjak
-1.9250	dalmaciji ki{a
-1.5161	dalmaciji mjestimice
-1.1793	dalmaciji od
-1.5161	dalmaciji ponegdje
-1.4362	dalmaciji prete`ito
-2.0818	dalmaciji slab
-2.0818	dalmaciji slaba
-2.0818	dalmaciji sun~ano
-1.9250	dalmaciji te
-2.0818	dalmaciji umjereno
-2.0818	dalmaciji ve^i
-1.6785	dalmaciji ve^inom
-0.0016	dalmatinskome zale}u
-0.7915	dan srijedu
-0.9483	dan za
-1.3955	dana </s>
-2.4898	dana <sil>
-1.5002	dana <uzdah>
-1.6385	dana ^e
-2.4898	dana a
-2.0866	dana bura
-2.4898	dana djelomi~no
-2.4898	dana du`
-0.7492	dana i
-2.3330	dana iznimno
-2.4898	dana jako
-2.4898	dana ja~a
-2.4898	dana ja~ati
-1.8443	dana jo{
-2.4898	dana jugozapadnjak
-2.4898	dana ki{a
-2.0866	dana kra^a
-1.8443	dana malo
-1.3111	dana mjestimice
-2.4898	dana mo`e
-2.4898	dana mogu^i
-0.9395	dana na
-2.3330	dana obla~nije
-2.4898	dana okrenut
-2.4898	dana oslabiti
-2.4898	dana osobito
-2.4898	dana polako
-1.5416	dana ponegdje
-2.4898	dana porast
-1.6385	dana postupno
-2.3330	dana posvuda
-2.3330	dana prete`ito
-2.0866	dana pro{irit
-2.0866	dana sa
-2.4898	dana sjeverozapadni
-2.3330	dana sjeverozapadnjak
-1.3655	dana slab
-1.8443	dana slabo
-2.3330	dana te
-1.3111	dana u
-2.4898	dana udari
-1.8443	dana uglavnom
-2.0866	dana umjeren
-1.7495	dana umjerena
-1.9242	dana umjereno
-1.5873	dana uz
-1.9242	dana vjetar
-2.0866	dana zapadni
-2.4898	dana zato
-1.5075	danas </s>
-1.6643	danas <sil>
-1.2610	danas <uzdah>
-0.3181	danas i
-1.6643	danas osobito
-1.6643	danas poslije
-1.6643	danas poslijepodne
-1.6643	danas ujutro
-0.2493	dana{njega s
-0.6614	dana{nji dan
-0.5814	dana{nji izvje{taj
-0.3757	dana{nji vodostaj
-0.5503	dane </s>
-1.1573	danju ^e
-1.2521	danju i
-1.7408	danju na
-1.8977	danju oslabjeti
-1.1573	danju ponegdje
-1.7408	danju posvuda
-1.8977	danju povremeno
-1.8977	danju razmjerno
-1.2521	danju sjeverozapadnjak
-0.6070	danju slab
-1.7408	danju u
-1.8977	danju udari
-1.8977	danju uglavnom
-1.7408	danju umjeren
-1.4944	danju uz
-1.7408	danju ve^inom
-1.3320	danju zapadnjak
-0.1470	davor samo{^anec
-0.2686	depresijsko polje
-1.5083	deset </s>
-2.5705	deset <sil>
-2.0048	deset <uzdah>
-2.0048	deset a
-0.2023	deset do
-1.0907	deset i
-2.1672	deset kilometara
-1.6680	deset na
-2.5705	deset najvi{a
-1.1309	deset stupnjeva
-2.5705	deset uz
-1.9249	deset zbog
-1.1171	deset ~vorova
-1.4254	devedeset </s>
-1.2686	devedeset devet
-0.7798	devedeset dva
-1.0221	devedeset i
-1.2686	devedeset jedan
-1.2686	devedeset osam
-0.8597	devedeset tri
-1.4254	devedeset ~etiri
-0.8990	devet </s>
-1.8754	devet <sil>
-1.2512	devet <uzdah>
-2.2787	devet a
-1.8754	devet devet
-0.6061	devet do
-2.2787	devet drava
-1.6331	devet dva
-1.8754	devet dvjesto
-1.3762	devet i
-1.8754	devet jedan
-2.2787	devet kupa
-1.5384	devet minus
-1.2512	devet na
-1.8754	devet nula
-2.1219	devet osam
-2.2787	devet osamdeset
-2.2787	devet petsto
-0.8533	devet stupnjeva
-1.5384	devet tri
-2.1219	devet tristo
-1.8754	devet ~etiri
-1.1352	devetnaest </s>
-1.1352	devetnaest <uzdah>
-1.3775	devetnaest a
-0.4346	devetnaest do
-1.2151	devetnaest i
-1.7808	devetnaest jedan
-1.3775	devetnaest na
-0.9294	devetnaest sati
-1.2151	devetnaest stupnjeva
-1.7808	devetnaest ~vorova
-0.3819	dijela jadrana
-0.4618	dijela srednjeg
-0.2493	dijelovima unutra{njosti
-1.4029	dijelu </s>
-1.7570	dijelu <uzdah>
-2.4973	dijelu a
-1.5490	dijelu bura
-1.0866	dijelu dana
-2.0940	dijelu do
-1.8517	dijelu i
-0.8414	dijelu jadrana
-1.7570	dijelu ju`nog
-1.7570	dijelu mjestimice
-2.4973	dijelu na
-2.0940	dijelu no^i
-2.4973	dijelu okrenut
-2.4973	dijelu oslabjeti
-2.3405	dijelu petka
-1.5490	dijelu sjevernog
-0.3700	dijelu srednjeg
-1.6459	dijelu srednjega
-2.4973	dijelu umjerena
-1.8517	dijelu unutra{njosti
-1.2480	dijelu zemlje
-1.1524	dio </s>
-0.1627	dio dana
-1.1524	dio prijepodneva
-0.2493	divljeg kestena
-1.5122	djelomice ^e
-1.4175	djelomice a
-1.5921	djelomice ili
-1.4175	djelomice razvedravanje
-2.1578	djelomice razvedriti
-0.1091	djelomice sun~ano
-1.7545	djelomice vedrije
-0.0792	djelomi~no razvedravanje
-0.2493	djelovati na
-1.7292	dnevna <uzdah>
-0.9080	dnevna izme}u
-0.3402	dnevna od
-0.8033	dnevna temperatura
-1.2804	dnevna u
-0.8467	dnevna uglavnom
-1.8091	dnevna ve^inom
-0.9025	dnevne izme}u
-0.2569	dnevne od
-3.2796	do <greska>
-1.4587	do deset
-2.0257	do devet
-2.2840	do devetnaest
-1.4711	do dva
-0.7338	do dvadeset
-1.5638	do dvanaest
-2.1079	do jak
-1.7892	do jaka
-1.7979	do jako
-2.1871	do jedan
-2.0568	do jedanaest
-3.4364	do jugozapadni
-3.0331	do jutra
-1.4838	do kraja
-1.5059	do minus
-3.4364	do nave~er
-3.0331	do ni{tice
-2.4467	do nula
-3.0331	do nule
-3.4364	do olujne
-1.9566	do osam
-1.7173	do osamnaest
-2.0568	do pedeset
-1.5850	do pet
-1.5243	do petnaest
-2.2094	do plus
-3.4364	do poja~an
-2.8707	do poja~ana
-3.2796	do poja~ano
-3.4364	do ponegdje
-2.2094	do prete`ito
-2.4089	do prete`no
-3.4364	do ranog
-2.1659	do sedam
-1.9318	do sedamnaest
-1.8547	do sredine
-1.1915	do tri
-1.5850	do trideset
-1.5436	do trinaest
-1.2895	do umjeren
-1.6957	do umjerena
-1.2281	do umjereno
-2.0568	do umjerenom
-2.0902	do umjerenu
-3.0331	do vrlo
-1.9318	do znatno
-1.4628	do {esnaest
-2.1079	do {est
-3.4364	do {ezdeset
-1.3328	do ~etiri
-1.5850	do ~etrdeset
-1.5339	do ~etrnaest
-0.2493	doba godine
-0.2686	dobar radni
-0.2686	dobre koncentracije
-1.3100	dobro </s>
-1.3100	dobro <uzdah>
-0.7265	dobro a
-1.4668	dobro biti
-1.4668	dobro i
-0.6154	dobro raspolo`ena
-1.3100	dobro {to
-0.3901	dobrog raspolo`enja
-0.6366	dobrog sna
-0.2686	dobroga raspolo`enja
-0.2686	dobrom raspolo`enju
-0.2493	dodatne napore
-0.2058	dok ^e
-0.8514	dok po
-1.1475	dolina i
-1.0364	dolina nad
-1.8878	dolina polako
-1.8878	dolina premje{ta
-0.1836	dolina s
-1.7310	dolina sa
-1.7310	dolina zadr`ava
-0.2493	dolinu prema
-0.4254	donijeti biometeorolo{ki
-0.2493	donji miholjac
-0.2493	donositi i
-0.4254	dosta sporo
-0.2493	dr`avnog hidrometeorolo{kog
-0.0093	dr`avnoga hidrometeorolo{kog
-0.2686	dragojlovi^ </s>
-0.2686	dragoslav dragojlovi^
-0.5689	drava botovo
-0.6532	drava donji
-0.6232	drava osijek
-0.6232	drava terezino
-1.7743	drugdje bez
-1.7743	drugdje deset
-1.7743	drugdje djelomice
-1.7743	drugdje juga
-0.8718	drugdje jugo
-1.3711	drugdje jugozapadni
-1.7743	drugdje jugozapadnog
-1.7743	drugdje malo
-1.3711	drugdje obla~no
-1.7743	drugdje prete`ito
-1.6175	drugdje promjenjljivo
-1.7743	drugdje promjenljivo
-1.6175	drugdje sjeverozapadni
-1.7743	drugdje sun~ano
-1.2087	drugdje umjereno
-1.1288	drugdje uz
-0.2493	drugom dijelu
-0.2493	drugome dijelu
-0.2493	drvar </s>
-0.0537	du` obale
-1.4249	du` ostalog
-1.5817	du` ve^eg
-0.1470	du`e zadr`ati
-0.7264	duboka atlantska
-0.7264	duboka ciklona
-0.7264	duboka sredozemna
-0.2493	dubrova~kome podru~ju
-0.2493	dugotrajna magla
-0.2686	dugotrajnom maglom
-0.1470	dugotrajnu maglu
-0.2493	dulja sun~ana
-0.0531	dulje zadr`ati
-0.2493	duljih sun~anih
-0.4372	dunav budimpe{ta
-0.5699	dunav ilok
-0.4856	dunav vukovar
-0.5503	dunja drvar
-0.5696	dunja pla~ko
-1.2264	dva </s>
-1.6601	dva <sil>
-1.3438	dva <uzdah>
-2.0141	dva a
-1.8519	dva devet
-0.3829	dva do
-2.3512	dva dva
-2.5976	dva dvjesto
-1.5509	dva i
-2.1888	dva jedan
-2.7545	dva minus
-2.3512	dva mjestimice
-1.1434	dva na
-1.7270	dva nula
-1.8062	dva osam
-2.7545	dva osamdeset
-2.7545	dva pedeset
-1.9031	dva pet
-1.7648	dva ponegdje
-2.7545	dva poslije
-1.7270	dva sedam
-2.0141	dva sto
-1.2747	dva stupnja
-2.3512	dva tri
-2.5976	dva tristo
-1.7648	dva u
-1.6021	dva vidljivost
-1.7270	dva {est
-1.7648	dva ~etiri
-2.5976	dva ~etrdeset
-1.4260	dva ~vora
-1.6812	dvadeset </s>
-1.6378	dvadeset <uzdah>
-2.9083	dvadeset centimetara
-1.8139	dvadeset devet
-1.3579	dvadeset do
-1.1211	dvadeset dva
-1.0679	dvadeset i
-1.3165	dvadeset jedan
-0.6952	dvadeset kilometara
-1.9186	dvadeset kilometra
-1.9600	dvadeset mjestimice
-1.9186	dvadeset na
-2.9083	dvadeset od
-1.1966	dvadeset osam
-1.1211	dvadeset pet
-2.3426	dvadeset ponegdje
-2.9083	dvadeset samo
-1.3472	dvadeset sedam
-1.6812	dvadeset stupnjeva
-2.7514	dvadeset tijekom
-1.4037	dvadeset tri
-1.1891	dvadeset {est
-1.0569	dvadeset ~etiri
-1.5128	dvadeset ~vorova
-2.3099	dvanaest </s>
-2.7132	dvanaest <sil>
-2.1475	dvanaest <uzdah>
-2.3099	dvanaest a
-1.0246	dvanaest do
-2.0676	dvanaest i
-2.7132	dvanaest mjestimice
-1.7649	dvanaest na
-2.7132	dvanaest oslabit
-0.1396	dvanaest sati
-2.7132	dvanaest skrenut
-1.1967	dvanaest stupnjeva
-2.3099	dvanaest u
-1.3847	dvanaest ~vorova
-1.7041	dvjesto </s>
-0.9638	dvjesto devedeset
-1.7041	dvjesto dvadeset
-1.7041	dvjesto osam
-1.0586	dvjesto osamdeset
-1.1385	dvjesto pedeset
-0.9638	dvjesto sedamdeset
-1.7041	dvjesto tri
-1.5473	dvjesto trideset
-1.1385	dvjesto {ezdeset
-0.8528	dvjesto ~etrdeset
-1.7041	dvjesto ~etrnaest
-0.7934	europe </s>
-0.7934	europe <uzdah>
-0.2493	europskim kopnom
-0.1608	europskog kopna
-0.0969	frontalni poreme^aj
-1.0925	frontalni sustav
-0.6333	frontalnim poreme^ajem
-0.5000	frontalnim sustavom
-0.3369	fronte sa
-0.7457	fronte u
-0.4992	frontom </s>
-0.7457	frontom sa
-0.5673	gdje ^e
-0.7782	gdje je
-1.6295	gdje mjestimice
-1.6295	gdje mo`e
-1.6295	gdje polje
-1.2262	gdje ponegdje
-0.6398	gdje se
-1.4727	gdje su
-0.5503	glasi zbog
-0.2493	glavninom sjevernije
-0.2493	glavobolja i
-0.7806	glavobolje </s>
-1.1894	glavobolje <uzdah>
-1.3462	glavobolje a
-0.6059	glavobolje i
-1.3462	glavobolje smanjene
-0.9429	glavobolje te
-0.5814	glavobolju a
-1.2270	glavobolju biti
-0.4867	glavobolju i
-1.2270	glavobolju te
-0.3369	godine <uzdah>
-1.1222	gorju </s>
-1.3645	gorju <uzdah>
-1.7678	gorju do
-0.5408	gorju i
-1.7678	gorju ki{u
-1.6110	gorju malo
-1.7678	gorju mogu^i
-1.0275	gorju od
-1.6110	gorju povremeno
-1.7678	gorju prete`no
-1.6110	gorju snijegom
-1.7678	gorju te
-1.7678	gorju umjeren
-1.6110	gorju umjerena
-0.2493	gorski kotar
-1.0890	gorskim i
-0.6410	gorskim krajevima
-0.9267	gorskim podru~jima
-0.3136	gorskim predjelima
-0.1470	gorskog kotara
-0.2493	gorskoj hrvatskoj
-0.0076	gorskom kotaru
-2.0127	gorskom podru~ju
-0.0256	gorskome kotaru
-1.4923	gorskome podru~ju
-1.1787	gotovo svi
-0.1513	gotovo tiho
-0.1470	granici ki{e
-0.7861	greben </s>
-1.0430	greben <uzdah>
-1.6886	greben a
-0.4851	greben anticiklone
-1.0430	greben prema
-1.6886	greben s
-1.0430	greben sa
-1.5318	greben vremenska
-0.2686	grebena sa
-0.3680	grmljavina </s>
-2.0944	grmljavina <sil>
-0.6690	grmljavina <uzdah>
-1.9376	grmljavina a
-1.6911	grmljavina i
-1.9376	grmljavina na
-1.6911	grmljavina osobito
-2.0944	grmljavina poja~ano
-1.4488	grmljavina ponajprije
-2.0944	grmljavina poslijepodne
-2.0944	grmljavina prvo
-1.9376	grmljavina u
-0.9420	grmljavina uglavnom
-0.4914	grmljavine </s>
-1.4396	grmljavine <sil>
-0.6993	grmljavine <uzdah>
-1.0363	grmljavine i
-1.2828	grmljavine svje`ije
-1.4396	grmljavine uglavnom
-0.4354	grmljavinom </s>
-1.5256	grmljavinom <sil>
-0.5632	grmljavinom <uzdah>
-1.6880	grmljavinom a
-1.9345	grmljavinom i
-2.0913	grmljavinom koja
-2.0913	grmljavinom mjestimice
-1.6880	grmljavinom na
-1.3510	grmljavinom osobito
-2.0913	grmljavinom poslijepodne
-1.9345	grmljavinom te
-1.9345	grmljavinom u
-1.4457	grmljavinom uglavnom
-1.9345	grmljavinom vjetar
-2.0913	grmljavinom zatim
-2.0913	grmljavinom {to
-0.9025	grmljavinu </s>
-0.9025	grmljavinu <uzdah>
-0.9025	grmljavinu i
-0.9025	grmljavinu najve^a
-0.2493	hidrometeorolo{kog zavoda
-0.7264	hladna a
-0.5696	hladna fronta
-0.0531	hladne fronte
-0.3468	hladnije </s>
-1.2493	hladnije nego
-1.2493	hladnije od
-1.2493	hladnije ponegdje
-1.2493	hladnije s
-1.2493	hladnije uz
-0.8825	hladno </s>
-1.3712	hladno <sil>
-1.3712	hladno <uzdah>
-1.5281	hladno i
-1.5281	hladno na
-1.5281	hladno osobito
-1.5281	hladno posebice
-0.8825	hladno s
-1.5281	hladno slab
-1.5281	hladno u
-0.9624	hladno uz
-1.1524	hladno^e </s>
-1.1524	hladno^e <uzdah>
-0.9956	hladno^e a
-1.1524	hladno^e i
-0.9956	hladno^e osobito
-1.1524	hladno^e poja~ane
-1.1524	hladno^e treba
-0.2493	hladno^u posebice
-0.2493	hladnog i
-0.2493	hladnoga i
-0.2493	hladnom frontom
-0.4254	hrasta i
-0.2493	hrvatska kostajnica
-0.7097	hrvatskoj </s>
-0.8207	hrvatskoj <uzdah>
-1.5611	hrvatskoj gdje
-0.7097	hrvatskoj i
-1.5611	hrvatskoj ki{a
-1.5611	hrvatskoj od
-1.1578	hrvatskoj uglavnom
-0.2686	hrvatskom zagorju
-0.7934	hrvatsku <uzdah>
-0.3901	hrvatsku za
-3.3535	i </s>
-3.3535	i <greska>
-3.5103	i astmati~are
-3.5103	i baranji
-2.5621	i biti
-2.3579	i bura
-3.5103	i burin
-3.3535	i buru
-1.8808	i dalje
-2.1818	i dalmaciji
-2.8647	i dalmatinskome
-2.6078	i deset
-2.3068	i devet
-2.6590	i devetnaest
-2.9447	i dijela
-1.5664	i dijelu
-3.5103	i dio
-3.5103	i divljeg
-2.8647	i djelomice
-3.3535	i djelomi~no
-2.9447	i do
-3.3535	i dobroga
-3.5103	i du`e
-3.5103	i duboka
-2.7700	i dulje
-2.2196	i dva
-1.7767	i dvadeset
-2.5207	i dvanaest
-2.7700	i frontalni
-2.6590	i gorskim
-3.3535	i gorskog
-2.9447	i gorskoj
-2.2003	i gorskom
-3.3535	i gorskome
-2.7700	i gotovo
-1.5090	i grmljavina
-2.1641	i grmljavine
-1.7232	i grmljavinom
-2.9447	i grmljavinu
-3.5103	i hladnije
-2.4829	i hladno
-3.5103	i hladno^e
-3.5103	i ispod
-3.1070	i istoku
-2.4481	i isto~ni
-2.4159	i isto~nim
-2.2398	i isto~njak
-3.3535	i isto~njakom
-3.5103	i isto~nog
-2.5207	i isto~noj
-3.3535	i jadrana
-3.3535	i jadranu
-2.1818	i jak
-1.7559	i jaka
-1.9823	i jako
-2.8647	i jakom
-3.5103	i jaku
-2.3579	i ja~e
-2.3860	i jedan
-2.4481	i jedanaest
-2.8647	i jonskim
-2.8647	i jonskom
-2.3860	i jo{
-2.5621	i ju`ni
-2.6590	i ju`nim
-1.9823	i ju`nog
-3.5103	i ju`noj
-1.6928	i ju`nom
-1.9939	i jugo
-2.3860	i jugoisto~ni
-1.7232	i jugozapadni
-1.8719	i jugozapadnjak
-3.1070	i jugozapadnog
-3.1070	i jutarnja
-3.5103	i jutarnju
-2.6590	i jutra
-2.6078	i ki{a
-3.5103	i ki{om
-3.5103	i ki{ovito
-2.3579	i kod
-2.6078	i koncentracijom
-3.3535	i kra^a
-3.5103	i kratkotrajni
-3.5103	i kroni~ne
-2.0435	i kroni~ni
-2.3068	i levant
-3.5103	i levanta
-1.5936	i lici
-3.3535	i ligurskim
-3.5103	i liku
-3.5103	i lokalnim
-2.2398	i magla
-2.7700	i magle
-2.4481	i maglovito
-3.1070	i maglovitog
-1.7627	i malo
-3.5103	i manje
-2.9447	i me}imurju
-2.1471	i minus
-2.5621	i mjestimice
-3.5103	i mjestimi~na
-3.3535	i mogla
-3.5103	i mogu^nost
-2.3860	i more
-1.4159	i na
-3.3535	i nad
-3.1070	i najisto~nijim
-3.3535	i najobla~nije
-2.2196	i nave~er
-2.8647	i nedjelju
-2.3068	i neretva
-3.3535	i nervozu
-3.3535	i nesanica
-3.3535	i nestabilni
-2.5207	i nestabilno
-3.5103	i niska
-3.5103	i niski
-3.5103	i niskim
-3.5103	i no^i
-3.1070	i no^u
-3.5103	i obilnije
-3.5103	i obilnijim
-3.3535	i od
-3.5103	i odmi~e
-2.4481	i okrenuti
-3.5103	i okretati
-3.5103	i olujan
-2.2610	i olujna
-2.6590	i olujno
-3.3535	i olujnu
-3.1070	i orkanskim
-2.4159	i osam
-3.3535	i osamnaest
-2.7700	i osjetno
-2.4829	i osobito
-3.3535	i otocima
-3.5103	i otvorenome
-2.7700	i patiti
-2.1471	i pet
-2.3860	i petnaest
-2.8647	i pljuskova
-2.6078	i pljuskovi
-2.5207	i pljuskovima
-3.3535	i plu^nih
-2.8647	i plus
-3.5103	i podno
-2.6078	i podravini
-3.5103	i poja~an
-2.9447	i poja~ana
-3.5103	i poja~ane
-2.8647	i poja~ano
-3.5103	i poja~at
-3.1070	i pomi~e
-2.0707	i ponegdje
-3.1070	i ponovno
-3.5103	i posavini
-3.1070	i posebice
-2.5207	i poslijepodne
-3.5103	i postojano
-2.9447	i postupno
-3.3535	i pote{ko^e
-3.3535	i potkraj
-3.5103	i pove^anom
-3.5103	i pred
-3.5103	i prema
-3.1070	i premje{ta
-2.8647	i prestati
-3.3535	i prete`ito
-3.3535	i prete`no
-3.5103	i pribli`no
-3.1070	i prije
-3.5103	i prijeloma
-2.1471	i prijepodne
-2.2610	i prognoza
-3.1070	i prohladno
-3.5103	i prolazno
-2.5621	i razdra`ljivost
-3.5103	i razdra`ljivosti
-2.9447	i razmjerno
-3.5103	i razvedrit
-3.3535	i reumati~ara
-3.3535	i reumatskih
-3.3535	i rijetki
-3.5103	i s
-3.5103	i sa
-3.5103	i samo
-2.5621	i sedam
-2.5207	i sedamnaest
-2.3860	i sjeverni
-3.1070	i sjevernjak
-2.5621	i sjevernog
-1.8993	i sjeveroisto~ni
-2.6078	i sjeveroisto~njak
-1.7047	i sjeverozapadni
-2.8647	i sjeverozapadnim
-1.8139	i sjeverozapadnjak
-3.3535	i sjeverozapadnog
-2.4481	i sjeverozapadnom
-3.5103	i sjeverozapadu
-2.6590	i slab
-3.5103	i slabe
-3.5103	i slabom
-2.7700	i slavoniji
-3.5103	i smanjenje
-3.5103	i smrzavati
-3.5103	i sna`na
-2.4829	i snijeg
-2.8647	i snijega
-2.6590	i snijegom
-2.1818	i sparno
-3.3535	i sredi{njim
-2.4481	i srednjeg
-1.7360	i srednjem
-2.8647	i srednjim
-3.5103	i sredozemljem
-2.5207	i srijedu
-2.6078	i sr~ane
-2.6590	i sr~ani
-3.5103	i sumaglica
-2.8647	i sun~ana
-3.3535	i sun~anih
-2.8647	i sun~ano
-3.5103	i susnje`ica
-1.8900	i sutra
-2.8647	i svje`ije
-3.5103	i tamo
-3.3535	i temperatura
-3.5103	i tijekom
-3.5103	i tirenskim
-3.3535	i tirenskog
-3.5103	i tmurna
-2.9447	i tmurno
-2.2610	i to
-2.3068	i toplije
-2.0997	i toplo
-3.3535	i tramontana
-2.3860	i tri
-2.0849	i trideset
-2.4829	i trinaest
-1.3831	i u
-2.8647	i uglavnom
-2.8647	i ugodno
-1.5246	i ujutro
-2.0058	i umjeren
-2.3068	i umjerena
-3.5103	i umjerene
-2.5621	i umjereno
-3.3535	i unutra{njosti
-2.8647	i utorak
-2.6590	i uz
-3.3535	i uzburkano
-1.9493	i valovito
-3.3535	i ve^em
-3.3535	i vidljivost
-3.5103	i vi{e
-3.5103	i vjetrovito
-3.3535	i vodostaju
-2.5621	i vremenska
-2.0435	i vrlo
-2.1471	i vru^e
-3.5103	i zapadne
-1.7912	i zapadni
-2.4829	i zapadnjak
-3.3535	i zapadnog
-2.7700	i zapadnom
-3.5103	i zapadu
-2.3579	i znatno
-2.5621	i {esnaest
-2.5207	i {est
-3.5103	i {iri
-2.1307	i ~etiri
-2.7700	i ~etrnaest
-0.0016	iako ^e
-0.2686	ih mu~iti
-2.1607	ili bura
-0.8921	ili burin
-2.3175	ili izdi^i
-2.3175	ili jo{
-2.1607	ili ki{a
-2.3175	ili ki{om
-1.3278	ili kratkotrajan
-1.5772	ili kratkotrajni
-1.9142	ili kratkotrajnim
-1.4661	ili lokalni
-2.3175	ili maestral
-0.8779	ili malo
-2.3175	ili niska
-1.4150	ili niski
-2.1607	ili obla~no
-1.3278	ili pljusak
-2.3175	ili pljuska
-1.9142	ili pljuskova
-2.3175	ili pljuskove
-1.0470	ili pljuskovi
-1.1651	ili pljuskovima
-1.3692	ili prete`ito
-1.9142	ili prete`no
-2.3175	ili prije^i
-2.3175	ili rosuljom
-2.1607	ili sjeverozapadni
-1.7518	ili slab
-2.3175	ili slaba
-1.6719	ili snijega
-1.7518	ili sumaglica
-2.1607	ili sumaglice
-2.3175	ili vru^e
-1.2270	ilok <sil>
-0.6614	ilok dva
-1.2270	ilok dvjesto
-1.0702	ilok jedan
-0.8237	ilok tri
-0.2493	imat ^e
-1.6723	imati bolove
-1.8291	imati glavobolje
-1.1835	imati glavobolju
-0.6021	imati i
-1.6723	imati kroni~ni
-1.6723	imati ni
-0.9777	imati pote{ko^a
-1.2634	imati pote{ko^e
-1.8291	imati samo
-1.1835	imati smetnje
-1.8291	imati stanovnici
-1.8291	imati tegoba
-0.8016	imati tegobe
-0.4904	ipak kod
-0.6472	ipak zbog
-0.2493	iskoristite dan
-0.2493	ispod biokova
-0.2686	ista ili
-0.2493	iste ili
-0.3010	istok </s>
-0.8460	istok <uzdah>
-1.2493	istok a
-1.2493	istok glavninom
-0.4523	istoku </s>
-1.4797	istoku <uzdah>
-1.3229	istoku a
-0.3554	istoku zemlje
-1.4668	isto~ni <uzdah>
-1.0635	isto~ni a
-0.2632	isto~ni i
-1.0635	isto~ni na
-1.0635	isto~ni vjetar
-0.6128	isto~nim i
-1.5611	isto~nim kopnenim
-0.3823	isto~nim krajevima
-0.5714	isto~nim predjelima
-0.7404	isto~njak </s>
-0.7861	isto~njak <uzdah>
-1.6886	isto~njak a
-0.2780	isto~njak i
-1.6886	isto~njak petnaest
-0.2493	isto~nog vjetra
-0.2910	isto~noj hrvatskoj
-0.3324	isto~noj slavoniji
-0.7934	istre </s>
-0.7934	istre <uzdah>
-0.7934	istre i
-0.2493	istri te
-0.2493	italiji </s>
-0.5503	italijom sporo
-0.2493	iz unutra{njosti
-0.4254	izbjegavaju boravak
-1.0275	izbjegavati dodatne
-0.1249	izbjegavati ve^e
-0.2493	izdi^i u
-0.9713	izgledi do
-0.3599	izgledi vremena
-0.2686	izjedna~enog tlaka
-0.9424	izme}u deset
-1.7636	izme}u devet
-1.7636	izme}u devetnaest
-2.2524	izme}u dva
-0.8274	izme}u dvadeset
-1.7636	izme}u dvanaest
-1.7636	izme}u jedan
-1.4195	izme}u jedanaest
-0.6685	izme}u minus
-2.0059	izme}u nula
-1.3470	izme}u osam
-1.8435	izme}u pet
-1.8435	izme}u petnaest
-1.3817	izme}u sedam
-2.0059	izme}u sedamnaest
-1.3817	izme}u tri
-1.3470	izme}u trideset
-1.8435	izme}u trinaest
-2.0059	izme}u {esnaest
-1.4609	izme}u {est
-1.3470	izme}u ~etiri
-1.4609	izme}u ~etrnaest
-0.2730	iznad jadrana
-1.1244	iznad tunisa
-0.1470	iznadprosje~no toplo
-0.3219	iznimno osjetljivi
-0.4166	iznimno osjetljivih
-0.2058	izra`en </s>
-0.6945	izra`en na
-0.6945	izra`ene tegobe
-0.2058	izra`ene u
-0.1470	izuzetno osjetljivih
-0.0448	izvje{^e pomorskog
-2.2059	izvje{taj </s>
-1.0816	izvje{taj o
-0.1608	izvje{taj pomorskog
-0.7262	izvje{taj pomorskoga
-2.1494	jadran </s>
-2.3062	jadran <uzdah>
-2.3062	jadran gorski
-2.3062	jadran i
-2.3062	jadran jugo
-1.9029	jadran slijede^ih
-0.0337	jadran za
-1.2270	jadrana </s>
-2.3608	jadrana <sil>
-1.1544	jadrana <uzdah>
-2.5176	jadrana a
-1.4554	jadrana bura
-1.9520	jadrana djelomice
-2.5176	jadrana djelomi~no
-2.1144	jadrana do
-1.3933	jadrana i
-2.5176	jadrana isto~ni
-2.3608	jadrana isto~njak
-2.5176	jadrana iznad
-1.7773	jadrana jaka
-2.5176	jadrana jako
-2.5176	jadrana je
-2.1144	jadrana jo{
-2.5176	jadrana jugo
-2.5176	jadrana jugozapadni
-2.5176	jadrana ki{a
-2.5176	jadrana kratkotrajno
-2.5176	jadrana kre^e
-2.5176	jadrana magla
-1.2683	jadrana mjestimice
-2.5176	jadrana mogu^a
-2.1144	jadrana mogu^i
-2.5176	jadrana mogu^nost
-1.4232	jadrana na
-2.5176	jadrana neverini
-2.3608	jadrana od
-2.5176	jadrana okrenuti
-2.5176	jadrana osam
-2.5176	jadrana plitka
-2.5176	jadrana poja~ano
-2.3608	jadrana polako
-0.9162	jadrana ponegdje
-2.5176	jadrana poslijepodne
-2.5176	jadrana povla~i
-2.5176	jadrana povremeno
-2.1144	jadrana premje{ta
-2.5176	jadrana prete`no
-2.1144	jadrana promjenljivo
-2.1144	jadrana sjeverozapadni
-1.7773	jadrana slaba
-2.5176	jadrana slabo
-2.5176	jadrana stanje
-2.5176	jadrana sun~ano
-1.9520	jadrana te
-2.5176	jadrana tijekom
-1.6151	jadrana tri
-1.3653	jadrana u
-1.7773	jadrana udari
-2.5176	jadrana umjeren
-1.4902	jadrana umjerena
-1.6663	jadrana umjereno
-1.9520	jadrana valovito
-2.3608	jadrana vidljivost
-2.5176	jadrana zadr`ava
-2.5176	jadrana ~etiri
-1.0751	jadranom </s>
-1.2373	jadranom <uzdah>
-1.3321	jadranom a
-1.3321	jadranom i
-1.9777	jadranom ja~a
-1.9777	jadranom je
-1.9777	jadranom ne
-0.9880	jadranom polako
-1.8208	jadranom postupno
-1.5744	jadranom sa
-0.5523	jadranom se
-1.9777	jadranom slabi
-1.4120	jadranom sporo
-1.9777	jadranom stabilno
-1.3321	jadranom vremenska
-1.4120	jadranom zadr`ava
-1.2403	jadranu </s>
-2.6441	jadranu <sil>
-1.4290	jadranu <uzdah>
-1.8465	jadranu ^e
-2.3073	jadranu a
-3.2098	jadranu ali
-2.6441	jadranu biometeorolo{ki
-1.8143	jadranu bura
-2.8065	jadranu danju
-3.2098	jadranu devet
-1.8143	jadranu djelomice
-2.0574	jadranu do
-2.8065	jadranu dvadeset
-2.2201	jadranu gdje
-3.0530	jadranu gotovo
-1.3584	jadranu i
-3.2098	jadranu isto~njak
-1.4622	jadranu izme}u
-2.2201	jadranu jaka
-2.6441	jadranu jako
-2.4695	jadranu ja~a
-2.8065	jadranu ja~e
-2.1476	jadranu jo{
-3.0530	jadranu ju`ni
-1.8636	jadranu jugo
-1.8465	jadranu ki{a
-3.2098	jadranu kratkotrajna
-3.2098	jadranu kratkotrajni
-3.0530	jadranu kratkotrajno
-2.3584	jadranu malo
-3.2098	jadranu manja
-1.3982	jadranu mjestimice
-2.3584	jadranu mogu^a
-2.5642	jadranu mogu^i
-2.3584	jadranu na
-2.5642	jadranu nad
-3.2098	jadranu najni`a
-3.2098	jadranu nave~er
-3.2098	jadranu ne
-2.3584	jadranu nepovoljan
-3.2098	jadranu ni`a
-2.8065	jadranu no^u
-3.0530	jadranu obla~no
-0.6301	jadranu od
-3.2098	jadranu oja~ao
-3.0530	jadranu oko
-3.2098	jadranu okrenuti
-3.0530	jadranu osam
-3.2098	jadranu oslabiti
-2.5642	jadranu osobito
-3.2098	jadranu o~ekuju
-3.2098	jadranu pogor{anje
-3.2098	jadranu polako
-1.4833	jadranu ponegdje
-2.6441	jadranu poslijepodne
-3.2098	jadranu postoji
-2.5642	jadranu postupna
-2.3584	jadranu postupno
-2.6441	jadranu potkraj
-2.3584	jadranu povremeno
-3.2098	jadranu prema
-1.9393	jadranu prete`ito
-2.1154	jadranu prete`no
-3.0530	jadranu pribli`ava
-3.2098	jadranu prijepodne
-2.4695	jadranu primi~e
-3.2098	jadranu prolazna
-3.0530	jadranu promjenjivo
-2.8065	jadranu promjenjljivo
-2.1154	jadranu promjenljivo
-2.4695	jadranu s
-3.2098	jadranu samo
-2.3073	jadranu se
-2.8065	jadranu sjeverozapadni
-3.0530	jadranu sjeverozapadnjak
-3.2098	jadranu skrenut
-2.2615	jadranu slab
-1.8636	jadranu slaba
-2.4695	jadranu slabo
-3.2098	jadranu sredinom
-1.9827	jadranu sun~ano
-1.6487	jadranu te
-3.2098	jadranu tijekom
-2.5642	jadranu tri
-1.3530	jadranu u
-2.8065	jadranu udari
-2.1823	jadranu uglavnom
-2.1154	jadranu ujutro
-2.2201	jadranu umjeren
-1.3584	jadranu umjerena
-1.5211	jadranu umjereno
-2.4695	jadranu uz
-3.2098	jadranu valovito
-2.8065	jadranu ve^
-3.2098	jadranu ve^i
-1.6817	jadranu ve^inom
-3.2098	jadranu vedro
-2.6441	jadranu vjetar
-3.0530	jadranu vremenska
-3.0530	jadranu vremenski
-2.3584	jadranu vrlo
-3.2098	jadranu zatim
-3.2098	jadranu {iri
-1.5473	jak isto~njak
-1.1385	jak jugozapadni
-1.0586	jak jugozapadnjak
-1.7041	jak ponegdje
-1.7041	jak razvoj
-1.0586	jak sjeverni
-1.0586	jak sjeveroisto~ni
-1.7041	jak sjeveroisto~njak
-0.8528	jak sjeverozapadni
-0.8016	jak sjeverozapadnjak
-1.7041	jak vjetar
-1.5473	jak zapadnjak
-1.4958	jaka </s>
-1.3847	jaka <uzdah>
-2.0793	jaka a
-0.1386	jaka bura
-1.2878	jaka i
-2.0793	jaka mjestimice
-1.4958	jaka na
-1.2464	jaka ponegdje
-2.2361	jaka u
-0.4254	jakim sjevernim
-1.3926	jako a
-1.3926	jako i
-0.0856	jako jugo
-2.0382	jako na
-1.6349	jako ponegdje
-0.4904	jakom burom
-0.3935	jaku na
-1.2270	jasenovac dva
-1.2270	jasenovac minus
-0.8237	jasenovac sedam
-1.0702	jasenovac tri
-1.2270	jasenovac {esto
-1.2270	jasenovac ~etiri
-0.7847	ja~a anticiklonalni
-1.7743	ja~a anticiklonalno
-1.6175	ja~a greben
-1.7743	ja~a i
-0.2133	ja~a naoblaka
-1.2087	ja~a prema
-0.2686	ja~anje anticiklonalnog
-0.2493	ja~anju na
-0.5503	ja~ati </s>
-0.5503	ja~ati <uzdah>
-0.8825	ja~e naobla~enje
-0.0884	ja~e valovito
-0.4254	ja~i razvoj
-0.2686	ja~u naoblaku
-1.9897	je ako
-1.9897	je dana
-1.3441	je dunja
-1.3441	je i
-1.1383	je jo{
-1.8328	je magla
-1.9897	je mjestimice
-1.8328	je mogu^
-0.7861	je mogu^a
-1.8328	je oja~alo
-1.9897	je pljusak
-1.8328	je pod
-1.9897	je pokretno
-1.3441	je ponegdje
-1.8328	je potrebna
-1.9897	je prema
-1.8328	je primjerena
-1.4240	je razdra`ljivost
-1.9897	je snijeg
-1.3441	je u
-1.9897	je umjerena
-1.8328	je utjecaj
-1.3340	jedan </s>
-2.4042	jedan <sil>
-1.3823	jedan <uzdah>
-2.1578	jedan a
-1.5714	jedan devet
-0.4033	jedan do
-1.6128	jedan dva
-2.5611	jedan dvjesto
-1.2704	jedan i
-1.4087	jedan jedan
-1.7097	jedan minus
-1.1978	jedan na
-1.4087	jedan nula
-1.5714	jedan osam
-1.9954	jedan pet
-2.4042	jedan petsto
-2.5611	jedan ponegdje
-2.5611	jedan sava
-1.9954	jedan sedam
-2.5611	jedan sedamdeset
-2.4042	jedan sto
-1.2511	jedan stupanj
-1.9954	jedan tri
-2.4042	jedan tristo
-2.4042	jedan u
-2.1578	jedan {est
-1.5714	jedan ~etiri
-0.8947	jedanaest </s>
-1.3912	jedanaest <uzdah>
-0.4175	jedanaest do
-0.9294	jedanaest i
-1.3113	jedanaest na
-0.5936	jedanaest stupnjeva
-0.4254	jedna do
-0.0348	jednog kilometra
-0.2686	jednoga stupnja
-0.2493	jonskim morem
-0.2686	jonsko more
-0.2493	jonskom moru
-0.2686	jonskome moru
-2.0036	jo{ ^e
-2.1605	jo{ biti
-1.7572	jo{ danas
-2.1605	jo{ do
-2.1605	jo{ hladnije
-1.7572	jo{ je
-2.1605	jo{ ki{a
-2.0036	jo{ kru`i
-1.1330	jo{ malo
-2.1605	jo{ manja
-1.1708	jo{ mjestimice
-2.1605	jo{ mo`e
-2.1605	jo{ mogu^a
-1.4201	jo{ na
-2.0036	jo{ no^as
-2.1605	jo{ o
-0.7650	jo{ ponegdje
-2.1605	jo{ poslijepodne
-1.4201	jo{ povremeno
-1.7572	jo{ prijepodne
-2.0036	jo{ s
-2.1605	jo{ sa
-2.0036	jo{ samo
-1.5948	jo{ se
-1.7572	jo{ su
-2.1605	jo{ sun~ano
-1.4201	jo{ toplije
-1.5149	jo{ u
-2.0036	jo{ udari
-1.7572	jo{ ujutro
-1.7572	jo{ zadr`ava
-0.4254	ju`ne italije
-1.3443	ju`ni a
-1.7476	ju`ni dio
-0.1272	ju`ni i
-1.5908	ju`ni jadran
-1.5908	ju`ni vjetar
-1.1244	ju`nim </s>
-0.3840	ju`nim jadranom
-0.7211	ju`nim podru~jima
-1.1244	ju`nim predjelima
-0.4254	ju`no od
-0.8817	ju`nog i
-0.0714	ju`nog jadrana
-1.9439	ju`nog primorja
-0.4904	ju`noj dalmaciji
-0.6472	ju`noj hrvatskoj
-1.2585	ju`nom </s>
-1.9795	ju`nom <uzdah>
-2.2260	ju`nom ^e
-1.1123	ju`nom dijelu
-0.9874	ju`nom i
-2.3828	ju`nom isto~njak
-2.2260	ju`nom italijom
-0.2041	ju`nom jadranu
-1.6425	ju`nom jugo
-2.3828	ju`nom mjestimice
-2.3828	ju`nom no^as
-1.7372	ju`nom umjeren
-1.8172	ju`nom umjereno
-0.4992	ju`nome dijelu
-0.7457	ju`nome jadranu
-0.9025	ju`nome jugo
-1.6643	juga </s>
-1.6643	juga <uzdah>
-1.0187	juga i
-1.6643	juga mjestimice
-1.0986	juga od
-1.6643	juga oko
-0.2846	juga trideset
-1.2610	juga ~etrdeset
-0.6131	jugo </s>
-1.9026	jugo <sil>
-0.8146	jugo <uzdah>
-1.3694	jugo ^e
-1.4859	jugo a
-1.9026	jugo deset
-2.5482	jugo dvanaest
-0.8365	jugo i
-1.5207	jugo koje
-1.9825	jugo more
-1.4238	jugo na
-1.4859	jugo od
-1.5585	jugo osam
-2.1449	jugo pet
-2.1449	jugo petnaest
-2.3913	jugo ponegdje
-1.9026	jugo poslijepodne
-2.1449	jugo postupno
-2.5482	jugo potkraj
-2.5482	jugo prije
-1.9026	jugo prvo
-2.5482	jugo slabo
-2.3913	jugo te
-2.3913	jugo temperatura
-2.3913	jugo tijekom
-1.5585	jugo u
-2.3913	jugo uz
-2.5482	jugo zatim
-1.5999	jugo {est
-2.3913	jugo ~etiri
-2.3913	jugo ~etrnaest
-0.2218	jugoistok </s>
-0.7211	jugoistok <uzdah>
-1.1339	jugoisto~ni </s>
-0.7250	jugoisto~ni <uzdah>
-1.2907	jugoisto~ni a
-1.1339	jugoisto~ni i
-1.1339	jugoisto~ni na
-0.4254	jugom <uzdah>
-0.4254	jugozapada preko
-1.5432	jugozapadni </s>
-2.0320	jugozapadni <sil>
-1.2405	jugozapadni <uzdah>
-0.8603	jugozapadni a
-0.6385	jugozapadni i
-0.9853	jugozapadni na
-1.7855	jugozapadni osam
-1.7855	jugozapadni potkraj
-2.0320	jugozapadni u
-0.5593	jugozapadni vjetar
-2.1888	jugozapadni zatim
-1.6232	jugozapadni ~etiri
-0.5597	jugozapadnjak </s>
-0.6566	jugozapadnjak <uzdah>
-0.8251	jugozapadnjak a
-1.0246	jugozapadnjak i
-1.4864	jugozapadnjak more
-1.1038	jugozapadnjak na
-1.8953	jugozapadnjak nave~er
-2.0521	jugozapadnjak u
-1.8953	jugozapadnjak zatim
-1.4065	jugozapadnjak ~etiri
-0.9025	jugozapadnog i
-0.7457	jugozapadnog strujanja
-0.4992	jugozapadnog vjetra
-1.2270	jugu <uzdah>
-1.0702	jugu dalmacije
-1.2270	jugu do
-1.2270	jugu i
-0.3245	jugu jadrana
-1.4171	jutarnja magla
-0.0213	jutarnja temperatura
-0.0726	jutarnje temperature
-0.1470	jutarnju maglu
-1.4797	jutra <uzdah>
-1.3229	jutra ^e
-1.4797	jutra i
-1.4797	jutra iznadprosje~no
-0.6284	jutra na
-1.4797	jutra obla~no
-1.3229	jutra ponegdje
-1.4797	jutra u
-1.4797	jutra uz
-1.4797	jutra vrlo
-1.0944	jutro i
-0.9376	jutro malo
-1.0944	jutro u
-1.0944	jutro vrlo
-0.2493	kalin </s>
-1.8085	kanalu </s>
-1.8085	kanalu <uzdah>
-1.0628	kanalu bura
-1.0170	kanalu do
-1.5620	kanalu dva
-1.5620	kanalu dvadeset
-0.7383	kanalu i
-1.9653	kanalu isto~njak
-1.8085	kanalu jaka
-1.1139	kanalu mjestimice
-1.9653	kanalu mogu^
-0.8709	kanalu ponegdje
-1.9653	kanalu se
-1.8085	kanalu slaba
-1.9653	kanalu tri
-1.3197	kanalu u
-1.8085	kanalu ujutro
-1.9653	kanalu umjerena
-1.9653	kanalu ~etrdeset
-0.1608	kao i
-1.0925	karlovac <sil>
-1.2493	karlovac jedan
-0.6836	karlovac minus
-1.2493	karlovac sedam
-1.0925	karlovac ~etiri
-0.5503	kasno poslijepodne
-0.5503	kasno u
-0.2493	kestena <uzdah>
-0.6532	kilometara </s>
-1.8610	kilometara <sil>
-0.6170	kilometara <uzdah>
-1.4129	kilometara malo
-0.9735	kilometara mjestimice
-1.6986	kilometara na
-2.2642	kilometara naoblaka
-1.6186	kilometara obla~no
-1.1119	kilometara ponegdje
-2.2642	kilometara postupno
-1.2020	kilometara prete`ito
-1.6186	kilometara prete`no
-2.2642	kilometara prolaza
-1.5239	kilometara promjenjivo
-1.8610	kilometara promjenljivo
-2.2642	kilometara sun~ano
-2.2642	kilometara u
-1.6986	kilometara zbog
-0.7347	kilometra </s>
-0.8808	kilometra <uzdah>
-1.6723	kilometra ponegdje
-1.6723	kilometra prete`ito
-1.8291	kilometra umjereno
-0.2788	kilometra zbog
-1.0340	ki{a </s>
-1.8480	ki{a <sil>
-1.0340	ki{a <uzdah>
-2.4137	ki{a ^e
-1.1230	ki{a a
-0.7411	ki{a i
-0.7411	ki{a ili
-1.2893	ki{a koja
-2.4137	ki{a malo
-1.6733	ki{a mjestimice
-1.5623	ki{a mogu^a
-2.0104	ki{a mogu^i
-2.2568	ki{a na
-2.2568	ki{a najprije
-1.2349	ki{a pljuskovi
-2.4137	ki{a ponegdje
-1.7681	ki{a te
-1.6733	ki{a u
-1.2893	ki{a uglavnom
-2.4137	ki{a uz
-2.4137	ki{a vi{e
-2.4137	ki{a ~e{^e
-0.5376	ki{e </s>
-1.0458	ki{e <uzdah>
-1.9483	ki{e ^e
-1.9483	ki{e bit
-0.7959	ki{e i
-0.7212	ki{e ili
-1.3027	ki{e na
-1.9483	ki{e osobito
-1.9483	ki{e pljuska
-1.9483	ki{e potkraj
-1.3027	ki{e u
-1.5450	ki{e uglavnom
-1.0536	ki{om </s>
-1.1116	ki{om <uzdah>
-1.1437	ki{om a
-0.7262	ki{om i
-0.9566	ki{om ili
-1.2577	ki{om mjestimice
-2.2059	ki{om mogu^i
-2.2059	ki{om na
-1.5604	ki{om osobito
-0.7663	ki{om pljuskovima
-2.2059	ki{om povremeno
-1.6403	ki{om te
-1.4656	ki{om u
-1.5604	ki{om uglavnom
-1.5604	ki{om zatim
-0.2493	ki{ovito u
-1.0275	ki{u i
-0.6242	ki{u ili
-1.0275	ki{u zamijeniti
-1.7612	kod </s>
-1.3579	kod iznimno
-1.3579	kod izuzetno
-0.5342	kod kroni~nih
-1.6044	kod ljudi
-0.6990	kod meteoropata
-1.1955	kod reumati~ara
-1.3579	kod senja
-0.9098	kod vrlo
-0.2717	koja ^e
-0.3547	koja se
-0.0322	koje ^e
-0.2762	koji ^e
-1.1787	koji bura
-0.7754	koji se
-0.0808	kojim se
-0.2493	kojoj se
-0.0792	koli~ina nestabilnog
-0.9897	koncentracija <uzdah>
-0.2493	koncentracija peluda
-0.9483	koncentracije </s>
-0.5450	koncentracije <uzdah>
-0.7915	koncentracije i
-0.7934	koncentraciji </s>
-0.3901	koncentraciji <uzdah>
-0.7457	koncentracijom </s>
-0.7457	koncentracijom <uzdah>
-0.7457	koncentracijom te
-0.5503	koncentraciju i
-0.7934	kopna </s>
-0.7934	kopna ja~a
-0.7934	kopna je
-0.9025	kopnenim krajevima
-0.9025	kopnenim podru~jima
-0.2569	kopnenim predjelima
-0.0212	kopnenom podru~ju
-1.5715	kopnenom predjelima
-0.0016	kopnenome podru~ju
-0.2493	kopnom i
-0.2493	kornata zapadni
-1.0925	kostajnica dva
-0.3979	kostajnica jedan
-1.0925	kostajnica sto
-1.2493	kostajnica tri
-1.2493	kostajnica {est
-0.2493	kotar i
-0.5503	kotara malo
-1.1259	kotaru </s>
-1.1673	kotaru <uzdah>
-1.9588	kotaru gdje
-0.2379	kotaru i
-2.1156	kotaru ja~a
-0.9369	kotaru lici
-2.1156	kotaru me}imurju
-2.1156	kotaru ponegdje
-1.4700	kotaru te
-2.1156	kotaru u
-2.1156	kotaru uglavnom
-0.4481	kotlinama i
-0.8514	kotlinama like
-0.2493	kra^a sun~ana
-0.2335	kraja dana
-0.9251	kraja ovog
-1.5493	kraja ovoga
-0.6064	kraja tjedna
-0.2493	krajem dana
-0.7097	krajeva biti
-1.5611	krajeva i
-1.5611	krajeva manje
-1.1578	krajeva od
-1.5611	krajeva oslabiti
-1.5611	krajeva prevladavat
-0.9954	krajeva umjereno
-0.9155	krajeva unutra{njosti
-1.0107	krajevima </s>
-1.0107	krajevima <uzdah>
-1.4588	krajevima a
-1.8621	krajevima do
-1.8621	krajevima gdje
-0.7677	krajevima i
-1.7053	krajevima malo
-1.8621	krajevima mjestimice
-1.8621	krajevima nepovoljan
-1.8621	krajevima postupna
-1.8621	krajevima povremeno
-1.8621	krajevima prestanak
-1.7053	krajevima s
-1.8621	krajevima te
-1.8621	krajevima u
-0.8346	krajevima unutra{njosti
-1.8621	krajevima ve^inom
-0.2686	krajnjem jugu
-0.0212	kraju dana
-0.0193	kratkotrajan pljusak
-0.1035	kratkotrajna ki{a
-0.8212	kratkotrajna magla
-1.4668	kratkotrajna sumaglica
-0.2277	kratkotrajne ki{e
-0.0280	kratkotrajni pljuskovi
-0.7264	kratkotrajnih lokalnih
-0.3231	kratkotrajnih pljuskova
-0.1110	kratkotrajnim pljuskovima
-0.6451	kratkotrajno do
-1.2907	kratkotrajno i
-1.2907	kratkotrajno jugozapadni
-1.2907	kratkotrajno okrenuti
-1.2907	kratkotrajno poja~ana
-1.2907	kratkotrajno slab
-1.2907	kratkotrajno u
-1.2907	kratkotrajno umjereno
-0.2686	kratkotrajnog pljuska
-0.1608	kratkotrajnom ki{om
-0.4254	kratkotrajnu ki{u
-0.5696	kre^e prema
-0.5696	kre^e se
-0.2686	kre^u prema
-0.2493	kroni~ne bolesnike
-0.0458	kroni~ni bolesnici
-1.7934	kroni~ni i
-1.1478	kroni~ni sr~ani
-0.1498	kroni~nih bolesnika
-0.5882	kroni~nih sr~anih
-0.2686	kroz unutra{njost
-0.2686	kru`i manja
-0.2493	krvo`ilnim bolestima
-1.3355	kupa <sil>
-0.3680	kupa karlovac
-0.3136	kupa radenci
-0.2493	kvarneru </s>
-0.2493	ledi na
-1.2270	levant </s>
-1.2270	levant <uzdah>
-1.2270	levant a
-1.2270	levant dvanaest
-1.2270	levant sedam
-1.0702	levant {est
-0.2686	levanta trideset
-0.9199	lici </s>
-1.0525	lici <uzdah>
-1.9901	lici a
-2.1469	lici do
-1.7436	lici gdje
-0.4911	lici i
-2.1469	lici lokalni
-1.5813	lici malo
-2.1469	lici najprije
-1.9901	lici obla~no
-1.7436	lici od
-1.1573	lici ponegdje
-1.9901	lici povremeno
-2.1469	lici slab
-2.1469	lici slavoniji
-1.1987	lici snijeg
-1.7436	lici te
-2.1469	lici vjetar
-0.3935	ligurskim morem
-0.5696	ligurskog i
-0.5696	ligurskog mora
-0.2493	lijepo i
-0.4254	like i
-0.2058	ljude </s>
-1.3511	ljudi </s>
-1.3511	ljudi biti
-1.1764	ljudi i
-1.2712	ljudi kao
-1.7599	ljudi mogla
-0.7644	ljudi mogli
-1.7599	ljudi mogu
-1.9168	ljudi osje^at
-0.9685	ljudi osje^ati
-1.0654	ljudi osjetljivi
-1.7599	ljudi osjetljivih
-1.9168	ljudi tako
-1.7599	ljudi te
-1.1764	ljudi trebala
-1.7599	ljudi u
-1.7599	ljudi uglavnom
-1.7599	ljudi zbog
-0.4904	ljudima lo{e
-0.1470	lokalne pljuskove
-1.2270	lokalni pljusak
-0.0483	lokalni pljuskovi
-0.4254	lokalnih pljuskova
-0.2439	lokalnim pljuskovima
-0.2493	lovro kalin
-0.5696	lo{e djelovati
-0.5696	lo{e raspolo`eni
-0.2493	lo{ije raspolo`eni
-0.5195	maestral </s>
-1.5817	maestral <sil>
-0.4574	maestral <uzdah>
-0.9361	maestral na
-1.1784	maestral ~etiri
-0.7331	magla </s>
-1.4582	magla <sil>
-0.8995	magla <uzdah>
-1.3782	magla a
-1.0342	magla i
-0.8451	magla ili
-1.6205	magla mjestimice
-2.0238	magla mo`e
-2.0238	magla na
-1.6205	magla najvi{e
-2.0238	magla osobito
-2.0238	magla ponajprije
-1.8670	magla posebice
-2.0238	magla poslijepodne
-2.0238	magla potkraj
-1.4582	magla te
-1.3782	magla uglavnom
-2.0238	magla vidljivost
-2.0238	magla vjetar
-0.4607	magle </s>
-0.9600	magle <uzdah>
-1.2064	magle i
-1.3632	magle u
-1.3632	magle uglavnom
-1.3632	magle ujutro
-1.1787	maglom </s>
-1.0219	maglom biti
-0.7754	maglom i
-1.1787	maglom ni`a
-1.0219	maglom od
-0.2493	maglovita i
-0.8298	maglovito </s>
-0.6551	maglovito <uzdah>
-1.2386	maglovito a
-0.7498	maglovito i
-1.2386	maglovito ili
-0.1470	maglovitog jutra
-0.9483	maglu koja
-0.5450	maglu malo
-0.9483	maglu zatim
-0.0016	mahovi^ </s>
-0.6472	mala mogu^nost
-2.6222	malo ^e
-0.5126	malo do
-2.2189	malo hladnije
-2.6222	malo jo{
-1.0612	malo ki{e
-2.6222	malo manje
-1.5600	malo na
-1.1688	malo ni`a
-2.6222	malo ni`e
-2.6222	malo oslabiti
-2.6222	malo pasti
-2.2189	malo ponegdje
-2.6222	malo porasti
-1.5278	malo povi{enog
-2.6222	malo samo
-1.7709	malo sni`enog
-1.2426	malo snijega
-2.4654	malo sredinom
-2.6222	malo sun~ana
-1.1968	malo svje`ije
-0.9415	malo toplije
-2.6222	malo ujutro
-1.1554	malo valovito
-1.1826	malo vi{a
-1.9766	malo vi{e
-2.6222	malo zatim
-0.2493	malom do
-0.0263	malu do
-1.4542	manja i
-0.6214	manja koli~ina
-0.5488	manja mogu^nost
-0.4075	manja od
-1.5715	manje hladno
-1.4147	manje izra`en
-1.1682	manje osvje`enje
-0.4771	manje pote{ko^e
-1.4147	manje su
-0.5819	manje tegobe
-1.5715	manje vru^e
-1.5715	manje zahla}enje
-0.2493	manjom mogu^no{^u
-0.2493	manju mogu^nost
-0.0348	marija mokori^
-0.0023	meteorolo{kog centra
-0.2493	meteorolo{koga centra
-0.9054	meteoropata i
-0.9054	meteoropata je
-0.9054	meteoropata moglo
-1.0622	meteoropata ponovo
-0.2493	meteoropate i
-0.2553	meteoropati bi
-1.0467	meteoropati i
-1.0467	meteoropati ni
-1.2493	metkovi^ devet
-1.2493	metkovi^ osam
-1.2493	metkovi^ pet
-1.0925	metkovi^ sedam
-0.6836	metkovi^ {est
-0.9483	me}imurju </s>
-0.9483	me}imurju i
-0.9483	me}imurju rijetki
-1.2270	miholjac jedan
-0.4867	miholjac minus
-0.2493	mijenja se
-0.2439	mijenjati </s>
-0.2493	minimalna temperatura
-2.7057	minus <sil>
-1.5021	minus deset
-2.7057	minus devedeset
-1.5533	minus devet
-0.8032	minus dva
-2.5488	minus dvadeset
-2.1400	minus dvanaest
-1.4352	minus dvjesto
-0.8489	minus jedan
-1.6113	minus jedanaest
-2.7057	minus jedna
-1.1341	minus osam
-2.7057	minus osamdeset
-2.5488	minus pedeset
-1.2522	minus pet
-2.1400	minus petnaest
-1.2259	minus sedam
-2.1400	minus sedamdeset
-2.3024	minus sedamnaest
-1.4352	minus sto
-0.9123	minus tri
-2.7057	minus trideset
-1.8543	minus trinaest
-2.5488	minus tristo
-2.7057	minus {esnaest
-1.5269	minus {est
-2.5488	minus {ezdeset
-1.0170	minus ~etiri
-2.7057	minus ~etrdeset
-2.7057	minus ~etrnaest
-0.2686	mirna sna
-0.0016	mirno ili
-0.3231	mjestima ranijih
-1.7518	mjestimice </s>
-2.8140	mjestimice <sil>
-2.8140	mjestimice <uzdah>
-2.2483	mjestimice ^e
-2.1684	mjestimice a
-2.0737	mjestimice biti
-1.7196	mjestimice do
-2.6571	mjestimice dva
-1.6896	mjestimice dvadeset
-2.1684	mjestimice grmljavina
-2.8140	mjestimice grmljavinom
-1.2222	mjestimice i
-2.6571	mjestimice jaka
-2.1684	mjestimice jako
-2.8140	mjestimice je
-2.4107	mjestimice jo{
-2.1684	mjestimice jutarnja
-0.8880	mjestimice ki{a
-2.8140	mjestimice ki{e
-1.7865	mjestimice kratkotrajna
-2.6571	mjestimice kratkotrajni
-2.4107	mjestimice kratkotrajno
-1.3472	mjestimice magla
-2.4107	mjestimice manja
-2.2483	mjestimice mo`e
-2.2483	mjestimice mogu^a
-1.7518	mjestimice na
-2.6571	mjestimice nevere
-1.6104	mjestimice neverini
-2.8140	mjestimice oja~ati
-2.8140	mjestimice oko
-2.8140	mjestimice olujna
-2.6571	mjestimice padati
-2.1684	mjestimice pljusak
-1.7196	mjestimice pljuskovi
-1.9626	mjestimice pljuskovima
-0.9262	mjestimice s
-1.6896	mjestimice sa
-2.2483	mjestimice slab
-1.9626	mjestimice slaba
-1.8243	mjestimice smanjena
-2.6571	mjestimice snijeg
-2.6571	mjestimice su
-1.4343	mjestimice sumaglica
-2.4107	mjestimice trideset
-1.7518	mjestimice u
-1.0144	mjestimice udari
-2.8140	mjestimice uglavnom
-1.3886	mjestimice umjeren
-1.3342	mjestimice umjerena
-1.9626	mjestimice umjereno
-1.9626	mjestimice uz
-2.6571	mjestimice valovito
-2.4107	mjestimice zbog
-1.9626	mjestimice ~etiri
-0.2493	mjestimi~na grmljavina
-0.3935	mjestimi~ni neverini
-0.1622	mjestimi~nom ki{om
-0.9025	mjestimi~nom sumaglicom
-0.6242	mnogi bi
-1.0275	mnogi ljudi
-0.8706	mnogi osje^ati
-0.8706	mnogi trebali
-0.6628	mo`e biti
-1.6110	mo`e donositi
-1.6110	mo`e du`e
-1.4542	mo`e i
-0.5488	mo`e pasti
-1.4542	mo`e se
-0.9654	mo`e smrzavati
-1.4542	mo`e utjecati
-1.4542	mo`e zadr`ati
-0.5696	mogla bi
-0.5696	mogla biti
-0.0016	mogle biti
-1.6835	mogli `aliti
-0.5119	mogli bi
-0.8921	mogli biti
-0.5497	mogli imati
-0.9890	mogli osje^ati
-0.8921	mogli patiti
-0.7457	moglo bi
-0.9025	moglo utjecati
-0.4992	moglo uzrokovati
-1.0221	mogu i
-0.3979	mogu imati
-0.6851	mogu osje^ati
-1.2686	mogu o~ekivati
-1.4254	mogu patiti
-1.2493	mogu^ i
-0.6037	mogu^ je
-1.2493	mogu^ kratkotrajan
-1.2493	mogu^ neverin
-1.0925	mogu^ pljusak
-1.0925	mogu^ slab
-1.2493	mogu^ snijeg
-1.7260	mogu^a glavobolja
-0.7584	mogu^a grmljavina
-0.7304	mogu^a i
-0.8553	mogu^a je
-0.6792	mogu^a ki{a
-0.7584	mogu^a magla
-1.8828	mogu^a slaba
-1.4349	mogu^e glavobolja
-0.5295	mogu^e i
-1.4349	mogu^e je
-1.0261	mogu^e kod
-1.5917	mogu^e magle
-0.5295	mogu^e su
-1.4349	mogu^e tri
-1.0592	mogu^i i
-1.7995	mogu^i kratkotrajna
-1.2339	mogu^i kratkotrajni
-0.5502	mogu^i neverini
-0.8099	mogu^i pljuskovi
-0.5960	mogu^i su
-1.1539	mogu^i udari
-1.1385	mogu^nost grmljavine
-1.1385	mogu^nost ki{e
-1.3009	mogu^nost kratkotrajne
-1.7041	mogu^nost kratkotrajnih
-1.7041	mogu^nost kratkotrajnog
-0.7559	mogu^nost neverina
-0.9638	mogu^nost pljuska
-0.9638	mogu^nost pljuskova
-1.7041	mogu^nost slabe
-1.7041	mogu^nost vrlo
-1.1385	mogu^nost za
-0.2493	mogu^no{^u pljuska
-0.0792	mokori^ </s>
-0.7457	mora i
-0.2493	moramo upozoriti
-2.4654	more <sil>
-2.6222	more ^e
-0.5600	more dva
-0.8816	more jedan
-0.5309	more malo
-1.9766	more mirno
-1.0612	more na
-2.2189	more nula
-2.6222	more sutra
-1.4979	more tri
-1.4979	more u
-2.4654	more uglavnom
-1.0719	more umjereno
-2.6222	more ~etiri
-1.2493	morem </s>
-0.8460	morem i
-1.2493	morem popunjava
-0.6037	morem premje{ta
-1.0925	morem te
-1.2493	morem zadr`ava
-1.5698	moru </s>
-1.5698	moru <uzdah>
-1.2672	moru do
-1.8122	moru gdje
-1.2258	moru i
-1.3641	moru ju`nog
-2.2154	moru jugo
-1.5698	moru mjestimice
-2.2154	moru mogu^i
-1.8122	moru okrenuti
-2.0586	moru poja~an
-1.8122	moru ponegdje
-2.0586	moru sjeverni
-2.0586	moru sjevernog
-0.9247	moru sjeverozapadni
-0.8048	moru sjeverozapadnjak
-1.1532	moru slab
-1.0119	moru srednjeg
-1.6498	moru uglavnom
-1.2672	moru umjeren
-1.3641	moru ve^inom
-0.2686	mu~iti nesanica
-3.4385	na biokovu
-3.4385	na biometeorolo{ke
-3.4385	na bolove
-3.0352	na burin
-2.3141	na buru
-3.4385	na cijelom
-2.5871	na cijelu
-2.5360	na deset
-2.0431	na dijelu
-3.2817	na dobar
-3.4385	na dubrova~kome
-2.5360	na dva
-2.4111	na dvanaest
-3.2817	na glavobolju
-3.0352	na granici
-3.4385	na hladno^u
-2.1892	na istok
-2.3141	na istoku
-3.4385	na isto~ni
-3.2817	na isto~njak
-0.4528	na jadranu
-3.2817	na jedan
-3.4385	na jonsko
-1.2138	na ju`nom
-2.5871	na ju`nome
-2.5871	na jugo
-2.3441	na jugoistok
-2.8729	na jugozapadni
-2.2598	na jugozapadnjak
-2.3763	na jugu
-3.2817	na krajnjem
-3.4385	na kvarneru
-2.5871	na ljude
-3.4385	na malo
-3.4385	na meteoropate
-2.7929	na mjestima
-3.0352	na nedjelju
-3.4385	na njegov
-3.0352	na njegovom
-3.0352	na njegovu
-3.4385	na obali
-3.4385	na odgovaraju^u
-3.4385	na osam
-2.4488	na ostalom
-3.2817	na otocima
-0.9197	na otvorenom
-1.5712	na otvorenome
-3.0352	na pelud
-3.0352	na pet
-3.2817	na petak
-3.4385	na petnaest
-3.0352	na podru~jima
-3.4385	na podru~ju
-2.1100	na po~etku
-2.8729	na preostalom
-3.2817	na prethodne
-3.2817	na prikladnu
-2.8729	na primjerenu
-2.7929	na raspolo`enje
-3.4385	na rije~kome
-3.4385	na sjeverni
-0.7099	na sjevernom
-1.7660	na sjevernome
-3.2817	na sjeveroistok
-3.4385	na sjeveroisto~njak
-2.4902	na sjeverozapadni
-2.6982	na sjeverozapadnjak
-3.4385	na sjeverozapadu
-2.6982	na sjeveru
-2.8729	na slab
-2.8729	na slabo
-2.8729	na slabu
-1.4410	na srednjem
-3.0352	na subotu
-2.1680	na tlu
-2.2861	na tri
-3.2817	na trideset
-2.3141	na udare
-2.5360	na umjereno
-3.2817	na utorak
-2.2350	na ve^em
-2.8729	na vremenske
-2.2598	na vrijeme
-2.7929	na zapadni
-3.4385	na zapadnoj
-3.2817	na zapadu
-2.6982	na {est
-2.7929	na {to
-2.0431	na ~etiri
-3.4385	na ~etrnaest
-3.4385	na ~etvrtak
-2.1066	nad europskim
-0.1946	nad jadranom
-1.9498	nad jonskim
-1.9498	nad ju`nim
-1.5410	nad kojim
-1.9498	nad srednjim
-1.9498	nad srednjom
-1.0792	nad tirenskim
-1.1170	nad zapadnim
-0.3231	najisto~nijim krajevima
-0.7264	najisto~nijim predjelima
-0.3185	najni`a jutarnja
-0.2909	najni`a temperatura
-0.2493	najni`e jutarnje
-0.1470	najni`u temperaturu
-0.7264	najobla~nije </s>
-0.7264	najobla~nije prema
-1.2705	najprije ki{a
-0.0918	najprije na
-0.2493	najsjevernijim krajevima
-0.4254	najsun~anije na
-0.2493	najve^a je
-0.2330	najvi{a dnevna
-2.4668	najvi{a na
-1.4046	najvi{a od
-2.0635	najvi{a poslijepodnevna
-0.4811	najvi{a temperatura
-2.4668	najvi{a uglavnom
-2.3100	najvi{a ve^inom
-1.2262	najvi{e dnevne
-0.9839	najvi{e ki{e
-1.6295	najvi{e na
-1.6295	najvi{e oborina
-0.9839	najvi{e sunca
-0.5673	najvi{e sun~ana
-1.6295	najvi{e sun~anih
-0.7270	najvi{e u
-0.2439	najvi{em gorju
-0.0016	najvi{om temperaturom
-0.2493	najvi{u temperaturu
-0.8514	najzapadnijim krajevima
-0.8514	najzapadnijim podru~jima
-0.4481	najzapadnijim predjelima
-0.8706	nakon dobrog
-0.8706	nakon mirna
-1.0275	nakon povoljnih
-0.8722	naoblaka </s>
-2.1215	naoblaka <sil>
-0.7418	naoblaka <uzdah>
-1.2189	naoblaka a
-1.9646	naoblaka i
-2.1215	naoblaka koja
-1.0940	naoblaka mjestimice
-1.9646	naoblaka na
-2.1215	naoblaka osobito
-1.4759	naoblaka ponegdje
-1.7182	naoblaka povremeno
-0.8510	naoblaka s
-1.4759	naoblaka sa
-2.1215	naoblaka smanjiti
-1.7182	naoblaka u
-2.1215	naoblaka uglavnom
-1.2189	naoblaka uz
-1.7182	naoblaka vjetar
-1.7182	naoblaka zatim
-0.6118	naoblake </s>
-0.8612	naoblake <uzdah>
-1.6015	naoblake i
-0.7501	naoblake na
-1.6015	naoblake osobito
-1.6015	naoblake o~ekuje
-1.4447	naoblake prvo
-1.6015	naoblake te
-0.8513	naoblakom </s>
-1.6427	naoblakom <sil>
-0.8099	naoblakom <uzdah>
-1.6427	naoblakom a
-1.0592	naoblakom i
-1.6427	naoblakom mjestimice
-1.7995	naoblakom najvi{e
-1.1539	naoblakom ponegdje
-1.7995	naoblakom promjenljivo
-1.6427	naoblakom samo
-1.6427	naoblakom te
-1.6427	naoblakom u
-1.7995	naoblakom uz
-1.1539	naoblakom vi{e
-1.7995	naoblakom vjetar
-1.7995	naoblakom vrlo
-0.8045	naoblaku </s>
-0.9155	naoblaku <uzdah>
-1.2526	naoblaku a
-1.6558	naoblaku do
-1.6558	naoblaku i
-1.6558	naoblaku manja
-1.0902	naoblaku mjestimice
-1.4990	naoblaku mogu^
-1.6558	naoblaku pljusak
-1.6558	naoblaku te
-1.6558	naoblaku ujutro
-1.6558	naoblaku zatim
-0.6911	naobla~enje </s>
-1.0944	naobla~enje <uzdah>
-1.0944	naobla~enje a
-1.0944	naobla~enje i
-1.0944	naobla~enje poslijepodne
-0.5503	naobla~iti na
-0.0414	napore </s>
-0.2686	nastavku o
-0.2493	nastavlja se
-0.2277	nata{a strelec
-1.7053	nave~er <uzdah>
-1.8621	nave~er djelomi~no
-0.7377	nave~er i
-1.8621	nave~er isto~njak
-1.2165	nave~er jugo
-1.8621	nave~er mjestimice
-0.9596	nave~er na
-1.2165	nave~er ponegdje
-1.7053	nave~er ponovno
-1.8621	nave~er postupna
-1.4588	nave~er se
-1.8621	nave~er slabo
-0.8724	nave~er u
-1.7053	nave~er uz
-0.2493	na{ih krajeva
-0.1015	ne bi
-1.3285	ne mijenja
-1.1717	ne o~ekuju
-0.9897	ne^e imati
-0.8328	ne^e osje^ati
-0.5864	ne^e znatnije
-0.4254	nedjelje <uzdah>
-1.3632	nedjelju djelomice
-1.3632	nedjelju jugozapadni
-1.3632	nedjelju ki{a
-1.3632	nedjelju na
-1.3632	nedjelju novo
-1.3632	nedjelju prete`no
-1.3632	nedjelju prolazna
-1.3632	nedjelju prolazno
-1.3632	nedjelju sun~ano
-1.2064	nedjelju ve^inom
-0.1648	nego danas
-1.0702	nego proteklih
-0.2493	neka izbjegavaju
-0.1470	neki bi
-0.4904	nekim ljudima
-0.6472	nekim nizinama
-1.0501	nepovoljan </s>
-1.4534	nepovoljan <uzdah>
-0.6021	nepovoljan biometeorolo{ki
-1.2966	nepovoljan tako
-1.2966	nepovoljan u
-0.4638	nepovoljan vremenski
-0.8514	nepovoljne <uzdah>
-0.6945	nepovoljne biometeorolo{ke
-0.6945	nepovoljne prilike
-0.9067	nepovoljni </s>
-0.7443	nepovoljni <uzdah>
-1.3100	nepovoljni biometeorolo{ki
-1.1532	nepovoljni osjetljiviji
-1.1532	nepovoljni u
-1.3100	nepovoljni vremenski
-0.2686	nepovoljnih biometeorolo{kih
-0.2493	nepovoljniji utjecaj
-0.2493	nepovoljnog vremenskog
-0.2493	neretva metkovi^
-0.5696	nervozu a
-0.5696	nervozu i
-0.5696	nesanica <uzdah>
-0.7264	nesanica a
-0.2686	nestabilni zrak
-0.5587	nestabilno mjestimice
-0.9675	nestabilno uz
-0.9675	nestabilno vrijeme
-0.2493	nestabilnog zraka
-0.4254	nevere na
-0.7457	neverin </s>
-0.9025	neverin <uzdah>
-0.7457	neverin uglavnom
-0.5450	neverina </s>
-0.7915	neverina uglavnom
-0.3540	neverini </s>
-1.7336	neverini <sil>
-1.5768	neverini <uzdah>
-0.9933	neverini a
-0.7061	neverini stanje
-1.5768	neverini u
-1.2035	ne{to bi
-1.0467	ne{to bolji
-1.2035	ne{to ni`a
-1.2035	ne{to povoljniji
-1.0467	ne{to slabiji
-1.2035	ne{to vi{a
-0.0212	ni kroni~ni
-0.2798	ni`a </s>
-1.5503	ni`a <sil>
-0.6990	ni`a <uzdah>
-1.3935	ni`a a
-1.3935	ni`a na
-1.5503	ni`a osobito
-0.2493	ni`e </s>
-0.7264	niska <uzdah>
-0.3231	niska naoblaka
-0.7934	niske naoblake
-0.3901	niske oblake
-0.0726	niski oblaci
-1.0622	niski obla~ni
-0.3935	niskih temperatura
-0.2493	niskim oblacima
-0.3935	nismo primili
-0.8874	nizinama </s>
-1.1339	nizinama magla
-1.2907	nizinama ujutro
-0.7250	nizinama unutra{njosti
-1.2907	nizinama ve^inom
-1.0275	ni{tice a
-0.2871	ni{tice do
-0.2493	njegov ju`ni
-0.5503	njegovom ju`nom
-0.5503	njegovom ostalom
-0.5503	njegovu ju`nom
-0.6472	no moramo
