BIGRAM: method Katz, cutoff 1
  coef[7]: 0.000000 0.564574 0.535152 0.715451 0.996212 0.690618 0.885008

TRIGRAM: method Katz, cutoff 1
  coef[7]: 0.000000 0.453122 0.613242 0.730127 0.900194 0.616930 0.990000

\data\
ngram 1=1454
ngram 2=6259
ngram 3=11333

\1-grams:
-1.1817	</s>	-0.9971
-4.9024	<bi>
-3.3461	<greska>	-0.0268
-4.9024	<jugozapadak>
-4.9024	<k>
-4.9024	<kred>
-3.2303	<papir>	-0.1252
-4.9024	<pljoskovi>
-4.9024	<raspolo`ene>
-99.9900	<s>	-0.3315
-2.3238	<sil>	-0.3272
-4.9024	<sjeveroistoke>
-4.9024	<sras>
-4.9024	<t>
-3.6014	<udarac>
-1.4276	<uzdah>	-0.8162
-2.0655	^e	-0.8034
-4.4253	`aliti	-0.3323
-1.8455	a	-0.7337
-4.6014	ako	-0.3605
-4.9024	alergije
-4.9024	alergi~ne
-3.2492	ali	-0.5443
-4.9024	alpa
-3.8611	ankica	-0.5390
-4.9024	ankice
-3.8611	anticiklona	-0.1554
-3.4400	anticiklonalni	-0.5366
-3.6472	anticiklonalno	-0.3235
-4.4253	anticiklonalnog	-0.3327
-3.4400	anticiklone	-0.7041
-4.3004	astmati~ara	-0.1440
-3.8611	astmati~are	-0.2716
-3.7264	astmati~ari	-0.4428
-4.6014	astmati~arima
-4.6014	atlantska	-0.3611
-4.6014	atmosferski
-3.6983	atmosferskog	-0.3609
-4.9024	badnju
-4.9024	bar
-4.4253	baranji	-0.1848
-4.3004	barem	-0.3610
-4.9024	bazge
-2.9994	bez	-1.1021
-2.7626	bi	-0.6918
-4.3004	bila
-4.4253	biokova	-0.2051
-4.6014	biokovu	-0.3439
-2.7819	biometeorolo{ka	-1.8195
-3.6237	biometeorolo{ke	-0.3227
-2.9940	biometeorolo{ki	-0.6937
-3.5407	biometeorolo{kih	-0.8477
-4.2035	biometeorolo{kog	-0.3438
-4.9024	bismo
-3.1390	bit	-0.3862
-2.5640	biti	-0.7516
-4.9024	blagdan
-4.4253	blizini	-0.3222
-4.9024	blizinu
-4.6014	blizu	-0.3610
-4.9024	bo`i^
-3.0160	bolesnici	-1.8860
-4.4253	bolesnicima
-3.4711	bolesnika	-0.8370
-3.7885	bolesnike	-1.1739
-4.6014	bolestima	-0.3611
-4.0573	bolje	-0.9390
-4.4253	bolji	-0.3326
-4.6014	bolova	-0.3597
-3.7885	bolove	-0.3094
-4.1243	bolovi	-0.5094
-4.6014	bolovima	-0.3582
-4.6014	boravak	-0.3611
-4.6014	borivoj
-3.6014	botovo	-1.0286
-4.9024	breze
-3.6014	brod	-0.3609
-4.0573	brzo	-0.2641
-4.9024	brzoj
-4.9024	bude
-3.6014	budimpe{ta	-1.3007
-4.9024	budimpe{te
-2.2248	bura	-1.1952
-3.1390	bure	-1.4618
-3.0636	burin	-0.8679
-3.7563	burom	-0.4728
-3.3973	buru	-0.7358
-4.9024	celzijev
-4.6014	centimetara	-0.3561
-2.5907	centra	-2.3106
-4.9024	cesti
-3.4253	cijeloj	-1.4667
-4.6014	cijelom	-0.3439
-3.9994	cijelu	-0.3439
-3.0699	ciklona	-0.8326
-3.7563	ciklonalno	-0.2943
-4.2035	ciklonalnog	-0.3430
-3.6014	ciklone	-0.4766
-4.6014	cjelodnevne	-0.3603
-4.6014	cjelodnevnom	-0.3582
-3.6237	crnac	-0.9483
-4.1243	da	-0.0905
-3.1782	dalje	-1.2630
-3.8611	dalmacije	-0.5343
-2.7689	dalmaciji	-1.5883
-4.9024	dalmaciju
-4.2035	dalmatinskome	-2.4013
-3.9024	dan	-0.3253
-2.3609	dana	-1.7101
-3.1864	danas	-0.8635
-4.6014	dana{njega	-0.3546
-3.6237	dana{nji	-1.0036
-4.3004	dane	-0.2228
-2.9531	danju	-0.7262
-4.3004	davor	-0.5430
-4.9024	de`urna
-4.4253	depresijsko	-0.2050
-2.2802	deset	-1.4956
-4.9024	desetak
-3.4253	devedeset	-0.3582
-2.5720	devet	-0.8326
-3.0699	devetnaest	-1.0848
-4.9024	devetoga
-3.8233	dijela	-0.3494
-4.9024	dijelom
-4.6014	dijelovima
-2.3534	dijelu	-1.5211
-4.6014	diljem
-3.6983	dio	-0.7454
-4.6014	divljeg	-0.3408
-4.9024	divlji
-2.6929	djelomice	-0.6778
-3.6472	djelomi~no	-0.1555
-3.9482	djelovati	-0.4222
-2.4759	dnevna	-1.4540
-3.9482	dnevne	-0.2976
-1.4143	do	-1.5751
-3.9482	doba	-0.3610
-4.4253	dobar	-0.3155
-4.9024	dobili
-4.4253	dobre	-0.3315
-3.3839	dobro	-1.0399
-4.0573	dobrog	-0.2653
-4.4253	dobroga	-0.3124
-4.4253	dobrom	-0.3289
-4.9024	dobru
-4.6014	dodatne	-0.3610
-4.9024	dodiru
-3.9994	dok	-0.6466
-4.9024	dokazanom
-2.9629	dolina	-1.2610
-4.6014	dolinu	-0.3610
-4.4253	donijeti	-0.3289
-3.6237	donji	-0.9484
-4.6014	donositi	-0.3608
-4.4253	dosta
-2.7952	dr`avnog	-0.3600
-3.2303	dr`avnoga	-0.3600
-4.4253	dragojlovi^	-0.3327
-4.4253	dragoslav	-0.2048
-3.1031	drava	-0.7825
-3.0764	drugdje	-0.5630
-3.4711	drugom	-0.3506
-4.6014	drugome	-0.3506
-3.9482	drvar	-0.3610
-4.3004	drve^a	-0.2228
-3.2690	du`	-0.4946
-4.9024	du`a
-4.3004	du`e	-0.3405
-4.9024	du`im
-4.1243	duboka	-0.1835
-4.9024	dubrova~kom
-4.6014	dubrova~kome	-0.3439
-4.6014	dugotrajna
-4.9024	dugotrajno
-4.4253	dugotrajnom	-0.3298
-4.3004	dugotrajnu	-0.5439
-4.6014	dulja	-0.3611
-4.0573	dulje	-0.9190
-4.6014	duljih	-0.3573
-3.1864	dunav	-0.5180
-3.6472	dunja	-0.5340
-2.0963	dva	-1.1120
-1.9424	dvadeset	-1.5966
-4.9024	dvadeseti
-4.9024	dvadesetoj
-2.1375	dvanaest	-1.6722
-4.6014	dvije
-3.1466	dvjesto	-0.5810
-4.9024	egejskim
-4.9024	egejskome
-4.0573	europe	-0.8958
-4.9024	europom
-4.9024	europska
-4.9024	europske
-4.6014	europskim	-0.3603
-4.1243	europskog	-0.5067
-4.9024	europskoga
-4.9024	formira
-4.9024	formiranje
-4.4253	fronta	-0.3327
-3.6014	frontalni	-0.5250
-3.2397	frontalnim	-0.3358
-3.9482	fronte	-0.7299
-3.9482	frontom	-0.9542
-3.2212	gdje	-0.4577
-4.3004	glasi	-0.5430
-4.6014	glavninom	-0.3610
-3.9482	glavobolja	-0.3306
-3.5045	glavobolje	-1.4511
-3.6237	glavobolju	-0.7277
-3.9482	godine	-0.3610
-4.9024	godinu
-3.0829	gorju	-1.5061
-4.6014	gorski	-0.3598
-3.3584	gorskim	-0.3078
-4.3004	gorskog	-0.2025
-3.7885	gorskoj	-0.4094
-2.8380	gorskom	-1.7322
-3.3584	gorskome	-1.3684
-3.6720	gotovo	-0.3561
-4.6014	govori
-4.3004	granici	-0.5287
-3.1621	greben	-0.8299
-4.4253	grebena	-0.3327
-2.7563	grmljavina	-1.5587
-3.4111	grmljavine	-1.2021
-2.7594	grmljavinom	-1.8435
-3.9482	grmljavinu	-0.3605
-2.6594	hidrometeorolo{kog	-2.2421
-4.9024	hidrometeorolo{koga
-4.1243	hladna	-0.2637
-4.0573	hladne	-0.2664
-3.6014	hladnije	-0.3368
-3.3227	hladno	-0.6488
-4.6014	hladno^a
-3.6983	hladno^e	-0.9049
-4.6014	hladno^u	-0.3439
-4.6014	hladnog	-0.3603
-4.6014	hladnoga	-0.3603
-3.9994	hladnom	-0.4645
-4.9024	hrast
-4.4253	hrasta
-3.6014	hrvatska	-1.3009
-4.9024	hrvatske
-3.2897	hrvatskoj	-1.3094
-4.4253	hrvatskom	-0.1946
-4.9024	hrvatskome
-4.0573	hrvatsku	-0.4350
-1.3404	i	-0.9580
-4.2035	iako	-0.3689
-4.4253	ih	-0.3319
-2.5332	ili	-1.0403
-3.6237	ilok	-0.8218
-4.9024	ima
-4.9024	imaju
-4.6014	imat	-0.3607
-3.0216	imati	-1.0772
-4.9024	inverzija
-4.2035	ipak	-0.1682
-4.6014	iskoristite
-4.6014	ispod	-0.3408
-4.4253	ista	-0.3296
-4.6014	iste	-0.3609
-3.6014	istok	-0.3439
-3.3710	istoku	-1.4362
-3.3839	isto~ni	-0.8952
-3.2897	isto~nim	-1.5815
-3.1621	isto~njak	-0.4778
-4.6014	isto~njaka
-4.4253	isto~njakom	-0.3124
-4.9024	isto~noeuropske
-4.6014	isto~nog	-0.3408
-3.2690	isto~noj	-1.6022
-4.9024	isto~nom
-4.0573	istre	-0.8948
-4.6014	istri	-0.3506
-4.6014	italije	-0.3611
-4.6014	italiji	-0.3604
-4.3004	italijom	-0.2214
-4.6014	iz	-0.3610
-4.4253	izbjegavaju	-0.2051
-4.9024	izbjegavanje
-3.8233	izbjegavati	-0.6998
-4.6014	izdi^i	-0.3598
-3.1390	izgledi	-1.4457
-4.6014	izgledima	-0.3607
-4.4253	izjedna~enog	-0.2051
-2.4415	izme}u	-1.1587
-4.9024	izmjerenih
-4.9024	izmjereno
-3.7264	iznad	-0.2519
-4.3004	iznadprosje~no	-0.1439
-3.7885	iznimno	-0.3123
-3.9994	izra`en	-0.3380
-3.9994	izra`ene	-0.4669
-4.3004	izuzetno	-0.5455
-3.1949	izvje{^e	-1.6513
-2.6448	izvje{taj	-1.5060
-2.5445	jadran	-1.9714
-2.3331	jadrana	-1.4540
-2.8731	jadranom	-1.2532
-1.6409	jadranu	-2.0870
-3.1466	jak	-0.9627
-2.6146	jaka	-1.1201
-4.6014	jaki	-0.3599
-4.4253	jakim	-0.2022
-2.8125	jako	-1.0632
-4.2035	jakom	-2.4013
-4.3004	jaku	-0.1237
-3.6237	jasenovac	-0.7476
-4.9024	javno
-3.0764	ja~a	-0.4537
-4.4253	ja~anje	-0.2023
-3.6014	ja~anju	-0.3506
-4.3004	ja~ati	-0.3554
-3.3227	ja~e	-0.7562
-4.4253	ja~i
-4.4253	ja~u	-0.3307
-2.8611	je	-0.4114
-2.2897	jedan	-0.8307
-2.8938	jedanaest	-1.3702
-4.9024	jedino
-4.4253	jedna	-0.2020
-3.7885	jednog	-1.1074
-4.4253	jednoga
-3.9994	jonskim	-0.7317
-4.4253	jonsko	-0.1879
-4.9024	jonskog
-3.9482	jonskom	-0.5506
-4.4253	jonskome	-0.3320
-2.6903	jo{	-0.5558
-4.4253	ju`ne	-0.2022
-3.1031	ju`ni	-0.8573
-3.7264	ju`nim	-0.7404
-4.4253	ju`no	-0.2051
-2.9068	ju`nog	-1.0797
-4.9024	ju`noga
-4.2035	ju`noj	-0.3126
-2.4679	ju`nom	-1.7438
-3.9482	ju`nome	-0.9371
-4.9024	jug
-3.1864	juga	-1.7751
-2.3026	jugo	-1.2840
-3.7264	jugoistok	-1.1589
-4.9024	jugoistoka
-3.5600	jugoisto~ni	-0.8188
-4.9024	jugoisto~njak
-4.4253	jugom	-0.2050
-4.4253	jugozapada
-2.6619	jugozapadni	-0.8969
-2.7986	jugozapadnjak	-0.8816
-3.9482	jugozapadnog	-0.3446
-3.6237	jugu	-0.7469
-4.9024	juri
-2.5823	jutarnja	-1.3613
-3.7885	jutarnje	-0.4543
-4.6014	jutarnjih
-4.3004	jutarnju	-0.3387
-3.3710	jutra	-0.5672
-3.7563	jutro	-0.5032
-4.9024	jutros
-4.4253	kada
-4.9024	kakvo
-4.6014	kalin	-0.3611
-2.8854	kanalu	-2.0765
-4.1243	kao	-0.7695
-3.6014	karlovac	-0.8463
-4.9024	karlova~koj
-4.9024	karlovcu
-4.3004	kasno	-0.1378
-4.9024	kesten
-4.6014	kestena	-0.3611
-4.9024	kidanja
-4.9024	kidanje
-2.5865	kilometara	-1.7994
-3.0216	kilometra	-1.8655
-2.4371	ki{a	-1.0436
-2.9024	ki{e	-0.8411
-2.6448	ki{om	-1.4265
-4.6014	ki{ovito	-0.3408
-3.8233	ki{u	-0.4266
-4.9024	klini~ki
-3.0895	kod	-0.6223
-3.2690	koja	-0.6939
-3.7563	koje	-0.8429
-4.9024	kojeg
-4.9024	kojega
-3.6720	koji	-0.2488
-4.1243	kojim	-0.5087
-4.6014	kojoj
-3.8233	koli~ina	-1.0789
-3.8611	koncentracija	-0.1879
-3.9024	koncentracije	-0.2852
-4.0573	koncentraciji	-0.9289
-3.9482	koncentracijom	-0.3408
-4.3004	koncentraciju
-4.0573	kopna	-0.3893
-3.9482	kopnenim	-0.6977
-3.2792	kopnenom	-1.1357
-4.2035	kopnenome	-2.4111
-4.6014	kopnom	-0.3611
-4.6014	kornata	-0.3606
-4.9024	kornati
-4.6014	korova
-3.6014	kostajnica	-0.3610
-4.6014	kotar	-0.3611
-4.3004	kotara	-0.5458
-2.7351	kotaru	-0.3537
-3.9994	kotlinama	-0.6465
-3.8233	kra^a	-0.1799
-4.9024	kra^ih
-4.9024	kra^im
-2.8981	kraja	-0.3440
-3.2792	krajem	-0.4738
-3.2897	krajeva	-1.6726
-2.9886	krajevima	-0.9058
-4.9024	krajnjeg
-4.4253	krajnjem	-0.3155
-3.5802	kraju	-1.3215
-4.9024	kratka
-4.9024	kratki
-3.5407	kratkotrajan	-0.5118
-3.3839	kratkotrajna	-0.6247
-4.0573	kratkotrajne	-0.2280
-3.3973	kratkotrajni	-0.3596
-4.1243	kratkotrajnih	-0.4737
-3.9994	kratkotrajnim	-0.5417
-3.5600	kratkotrajno	-0.3209
-4.4253	kratkotrajnog	-0.2048
-4.1243	kratkotrajnom	-0.7671
-4.4253	kratkotrajnu
-4.1243	kre^e	-0.2594
-4.4253	kre^u	-0.3299
-4.6014	kroni~ne	-0.3408
-3.0573	kroni~ni	-1.3057
-3.5222	kroni~nih	-0.8477
-4.6014	kroni~nim
-4.4253	kroz	-0.2023
-4.4253	kru`i	-0.3318
-4.6014	krvo`ilnim
-3.3584	kupa	-0.5699
-4.6014	kvarneru	-0.3439
-4.9024	lak{e
-4.4253	lebi^	-0.2012
-4.6014	ledi	-0.3583
-4.9024	lediti
-3.6237	levant	-1.2585
-4.4253	levanta	-0.1848
-2.7038	lici	-1.7079
-4.3004	ligurskim	-0.2025
-4.1243	ligurskog	-0.7671
-4.9024	ligurskoga
-4.9024	ligurskom
-4.9024	ligurskome
-4.6014	lijepo
-4.4253	like	-0.2050
-4.4253	liku	-0.1848
-4.9024	lipnja
-3.9994	ljude	-0.3439
-2.9340	ljudi	-1.1827
-4.2035	ljudima	-0.1682
-4.3004	lokalne	-0.3546
-3.6237	lokalni	-0.4626
-4.4253	lokalnih	-0.2050
-4.2035	lokalnim	-0.2377
-4.6014	lovro
-4.9024	lo{a
-4.1243	lo{e	-0.3315
-4.6014	lo{ije	-0.3599
-4.9024	lo{ijeg
-4.9024	lo{iju
-3.2690	maestral	-0.8850
-2.8269	magla	-0.9714
-3.4875	magle	-0.5775
-4.9024	magli
-3.6720	maglom	-0.7136
-4.6014	maglovita	-0.3611
-3.4553	maglovito	-0.5021
-4.3004	maglovitog	-0.5255
-3.9024	maglu	-0.5001
-4.2035	mahovi^	-2.4216
-4.9024	mahovli^
-4.9024	makarskog
-4.4253	makarskoj	-0.3222
-4.2035	mala	-0.1112
-2.2285	malo	-1.0031
-3.6237	malom	-0.3582
-3.6720	malu	-0.3591
-3.2397	manja	-0.4481
-3.2792	manje	-0.5572
-4.6014	manjom	-0.3582
-4.6014	manju	-0.3591
-3.7885	marija	-0.7808
-4.9024	meteorolo{ke
-2.6191	meteorolo{kog	-2.2822
-3.7885	meteorolo{koga	-1.1729
-3.7885	meteoropata	-0.3607
-4.6014	meteoropate	-0.3439
-3.6472	meteoropati	-0.5279
-3.6014	metkovi^	-0.3610
-3.9024	me}imurju	-0.4118
-3.6237	miholjac	-0.3610
-4.6014	mijenja	-0.3610
-4.2035	mijenjati	-0.3689
-4.6014	minimalna
-2.1450	minus	-1.4545
-4.9024	minuti
-4.4253	mirna	-0.3326
-4.2035	mirno	-2.4190
-4.9024	mirnog
-4.9024	mirnoga
-4.9024	mjesta
-4.1243	mjestima	-0.7529
-2.0367	mjestimice	-0.7672
-4.6014	mjestimi~na	-0.3408
-4.3004	mjestimi~ni	-0.1434
-4.9024	mjestimi~nim
-3.9482	mjestimi~nom	-0.3582
-4.6014	mjestimi~nu	-0.3546
-3.8233	mnogi	-0.3662
-3.2397	mo`e	-0.3674
-4.1243	mogla	-0.3119
-4.2035	mogle	-0.3433
-3.0103	mogli	-0.8171
-3.9482	moglo	-0.3314
-3.4253	mogu	-0.4734
-3.6014	mogu^	-0.3739
-2.9679	mogu^a	-0.5547
-3.2590	mogu^e	-0.4007
-3.0512	mogu^i	-0.4702
-3.1466	mogu^nost	-0.7651
-4.6014	mogu^no{^u	-0.3611
-4.9024	mohori^
-3.8233	mokori^	-0.3610
-3.9482	mora	-0.2978
-4.6014	moramo	-0.3611
-2.2285	more	-1.1819
-3.6014	morem	-0.9217
-2.6353	moru	-1.4328
-4.9024	mraz
-4.9024	mu
-4.4253	mu~iti	-0.3327
-1.4122	na	-0.9959
-2.7441	nad	-0.9107
-4.9024	nadalje
-4.9024	naime
-4.1243	najisto~nijim	-0.4439
-4.9024	najkasnije
-4.9024	najmanje
-2.7986	najni`a	-1.0548
-4.6014	najni`e	-0.3611
-4.3004	najni`u	-0.5439
-4.1243	najobla~nije	-0.3124
-4.9024	najosjetljiviji
-3.5802	najprije	-0.1780
-4.6014	najsjevernijim	-0.3506
-4.4253	najsun~anije
-4.6014	najve^a	-0.3610
-2.3839	najvi{a	-1.1750
-3.2212	najvi{e	-0.6096
-4.2035	najvi{em	-0.3585
-4.2035	najvi{om	-2.4187
-4.6014	najvi{u	-0.3591
-3.9994	najzapadnijim	-0.3506
-3.8233	nakon	-0.2473
-4.9024	nam
-2.7293	naoblaka	-0.9377
-3.2492	naoblake	-0.8448
-3.0512	naoblakom	-1.2794
-3.1949	naoblaku	-0.9047
-3.7563	naobla~enje	-0.5374
-4.9024	naobla~it
-4.3004	naobla~iti	-0.1413
-4.9024	napora
-3.8611	napore	-1.1011
-4.9024	nas
-4.4253	nastavku	-0.3222
-3.7563	nastavlja	-0.3257
-4.0573	nata{a	-0.2635
-2.9886	nave~er	-0.5634
-4.9024	na{e
-4.6014	na{ih	-0.3611
-3.5222	ne	-0.5114
-3.8611	ne^e	-0.5213
-4.4253	nedjelje	-0.3322
-3.4875	nedjelju	-1.0314
-3.6237	nego	-0.2835
-4.6014	neka
-4.3004	neki	-0.2166
-4.2035	nekim	-0.3429
-4.9024	nekoliko
-4.9024	nema
-4.9024	nepogodne
-4.9024	nepogodni
-4.9024	nepogodno
-3.3973	nepovoljan	-0.7143
-4.9024	nepovoljna
-3.9994	nepovoljne	-0.3545
-3.5407	nepovoljni	-0.6565
-4.4253	nepovoljnih	-0.2043
-4.6014	nepovoljniji	-0.3573
-4.9024	nepovoljnijih
-4.6014	nepovoljno
-4.6014	nepovoljnog	-0.3603
-3.6014	neretva	-0.9797
-4.1243	nervozu	-0.3124
-4.1243	nesanica	-0.3124
-4.6014	nesanice
-4.9024	nesre^e
-4.9024	nestabilan
-4.9024	nestabilna
-4.4253	nestabilni	-0.3124
-3.7264	nestabilno	-0.5537
-3.9024	nestabilnog	-0.3610
-4.9024	nestabilnosti
-4.4253	nevere	-0.3287
-3.9482	neverin	-0.3589
-3.9024	neverina	-0.3608
-3.1171	neverini	-0.9045
-4.9024	nevrijeme
-4.9024	neznatne
-4.9024	neznatno
-3.6472	ne{to	-0.3511
-3.5802	ni	-0.4380
-3.3004	ni`a	-0.9252
-4.6014	ni`e	-0.3585
-4.9024	ni`im
-4.1243	niska	-0.1834
-4.0573	niske	-0.3554
-3.7885	niski	-0.6343
-4.3004	niskih	-0.1427
-4.6014	niskim	-0.3408
-4.3004	nismo	-0.1439
-4.9024	nizinam
-3.5600	nizinama	-1.0599
-3.8233	ni{tice	-0.9991
-4.9024	ni{ticu
-4.6014	njegov	-0.3439
-4.3004	njegovom	-0.5287
-4.3004	njegovu	-0.5287
-4.2035	no	-0.2585
-4.9024	no^
-4.0573	no^as	-0.3400
-2.3437	no^i	-1.8352
-4.3004	no^na	-0.3593
-3.1031	no^u	-0.6060
-3.6983	nova	-0.3962
-4.6014	novo	-0.3609
-4.6014	novogodi{njoj	-0.3506
-3.9994	no{en	-0.3605
-2.8417	nula	-1.0147
-3.9482	nule	-0.8670
-3.0451	o	-1.3415
-4.9024	o`ujka
-3.3227	obale	-0.3609
-4.3004	obali	-0.3439
-4.4253	obalnom	-0.3222
-2.6448	obalu	-3.9783
-4.4253	obilnije	-0.1848
-4.4253	obilnijim	-0.1848
-3.8611	oblaci	-0.3610
-4.6014	oblacima	-0.3611
-3.2303	oblaka	-1.3706
-4.3004	oblake	-0.5458
-4.6014	obla~ni	-0.3610
-3.5222	obla~nije	-0.3352
-2.1932	obla~no	-1.1994
-3.5802	oborina	-0.5342
-4.4253	oborinama	-0.2022
-3.6983	oborine	-0.3178
-4.6014	oborinom	-0.3610
-4.9024	obrnuto
-1.8265	od	-1.2318
-4.6014	odakle
-4.4253	odgovaraju^a	-0.3326
-4.4253	odgovaraju^e	-0.2050
-4.6014	odgovaraju^u	-0.3439
-4.3004	odje^a	-0.5458
-4.6014	odjenuti	-0.3611
-4.4253	odmicanja	-0.3319
-4.4253	odmi~e	-0.1848
-4.4253	odnosu	-0.3222
-4.4253	oja~alo	-0.3321
-4.6014	oja~ao	-0.3510
-4.4253	oja~ati	-0.2011
-4.9024	oja~ava
-3.5407	oko	-0.5010
-3.6237	okrenut	-0.2439
-3.2303	okrenuti	-0.5568
-3.9482	okretanju	-0.3506
-4.3004	okretati	-0.3402
-4.4253	olujan	-0.1848
-3.4553	olujna	-0.6632
-4.6014	olujne	-0.3440
-3.4875	olujnim	-1.4121
-3.8611	olujno	-0.7490
-4.9024	olujnom
-4.4253	olujnu	-0.3124
-4.6014	one
-4.6014	oni	-0.3603
-4.4253	op^eg	-0.3326
-4.4253	oprostite	-0.2030
-4.9024	oraha
-4.9024	orkanska
-4.0573	orkanskim	-0.4182
-2.3261	osam	-0.8506
-3.3973	osamdeset	-0.2602
-2.9247	osamnaest	-1.1064
-3.6237	osijek	-0.8826
-4.3004	osijeku	-0.2124
-4.6014	osje^at	-0.3606
-3.1466	osje^ati	-0.7739
-4.3004	osjetiti	-0.2221
-4.1243	osjetljive	-0.5094
-3.5045	osjetljivi	-0.9487
-3.6014	osjetljivih	-0.8929
-4.4253	osjetljivije	-0.3319
-3.8611	osjetljiviji	-0.2178
-4.9024	osjetljivijim
-4.9024	osjetljivima
-4.6014	osjetljivosti	-0.3611
-3.7264	osjetno	-0.4157
-4.9024	oslabio
-3.6237	oslabit	-0.3536
-3.4553	oslabiti	-0.4902
-3.9024	oslabjet	-0.4482
-3.2897	oslabjeti	-0.6345
-4.4253	oslabljen	-0.3327
-4.4253	oslabljena	-0.1988
-4.9024	oslabljene
-4.4253	oslabljeni	-0.1988
-3.9024	oslabljenim	-0.3582
-4.6014	oslabljenom	-0.3582
-4.9024	osmi
-4.9024	osobama
-3.8611	osobe	-0.5242
-2.8269	osobito	-0.4013
-3.7885	ostalim	-0.3506
-4.4253	ostalog	-0.3325
-3.7563	ostalom	-0.8569
-3.9994	osvje`enje	-0.5436
-4.1243	otocima	-0.2944
-4.4253	otrantskim	-0.3222
-4.9024	otvorena
-2.3284	otvorenom	-2.0798
-2.9679	otvorenome	-1.6242
-4.9024	otvorenomu
-3.9482	ovo	-0.3546
-3.8233	ovog	-0.3605
-4.3004	ovoga	-0.5453
-4.4253	ozljeda	-0.2051
-4.4253	o~ekivati	-0.3325
-3.5045	o~ekuje	-0.3059
-3.7563	o~ekuju	-0.2925
-3.4111	pa	-0.4654
-4.3004	pada	-0.2228
-4.9024	padao
-4.1243	padati	-0.1312
-4.9024	padom
-4.3004	padu	-0.5354
-4.6014	pahulja
-4.9024	parkova
-4.9024	past
-3.6237	pasti	-0.7582
-3.5222	patiti	-1.1288
-3.1243	pedeset	-0.5047
-4.0573	pelud	-0.2111
-3.9994	peluda	-0.6466
-2.2140	pet	-0.9605
-3.4400	petak	-1.0551
-4.9024	peti
-4.0573	petka	-0.4391
-2.6545	petnaest	-1.0741
-4.9024	petnaesti
-3.9482	petsto	-0.2396
-3.9482	pla~ko	-0.3610
-3.3973	plitka	-0.6308
-4.1243	plitko	-0.1348
-3.1390	pljusak	-0.7512
-3.6983	pljuska	-0.5196
-4.3004	pljuskom	-0.1440
-3.5222	pljuskova	-0.5821
-3.9482	pljuskove	-0.3622
-2.7235	pljuskovi	-1.0658
-2.9629	pljuskovima	-1.4407
-4.1243	plu^nih	-0.3123
-3.4553	plus	-1.0192
-3.4553	po	-0.5662
-3.8611	pobolj{anje	-0.4256
-4.4253	pobolj{ati	-0.2045
-4.4253	pod	-0.3321
-4.9024	podataka
-3.3710	podne	-1.5912
-4.9024	podneva
-3.8611	podno	-0.1203
-4.9024	podno{ljivija
-4.3004	podr`ava	-0.1440
-4.9024	podr`avati
-3.7885	podravini	-0.8410
-4.9024	podru~ja
-4.3004	podru~je	-0.1428
-3.4400	podru~jima	-0.3510
-2.9834	podru~ju	-0.9631
-4.3004	podvelebitskom	-0.5354
-4.4253	pogodne	-0.2046
-4.0573	pogodni	-0.2649
-4.6014	pogodnih
-4.9024	pogodniji
-4.4253	pogor{anje	-0.1950
-4.0573	pogor{ati	-0.2148
-4.9024	pojasu
-4.9024	pojaviti
-4.9024	pojavljivati
-3.8611	poja~an	-0.2186
-3.6237	poja~ana	-0.3978
-4.3004	poja~ane	-0.3407
-3.9482	poja~anju	-0.3506
-3.5045	poja~ano	-0.5357
-4.9024	poja~anu
-3.7885	poja~at	-0.0617
-3.4553	poja~ati	-0.6131
-4.9024	pokoji
-4.6014	pokojim	-0.3610
-4.9024	pokre^e
-4.9024	pokretna
-4.6014	pokretno	-0.3605
-3.2303	polako	-0.3703
-4.9024	poledica
-4.6014	poledice	-0.3599
-2.8938	polje	-0.9162
-4.9024	pomicati
-3.8611	pomi~e	-0.5189
-4.9024	pomorske
-2.6694	pomorskog	-0.3389
-3.3710	pomorskoga	-0.3601
-3.3839	ponajprije	-0.3909
-4.9024	ponajvi{e
-3.4875	ponedjeljak	-1.4045
-4.9024	ponedjeljka
-1.9977	ponegdje	-0.7600
-4.9024	poneka
-3.5600	ponovno	-0.2201
-4.0573	ponovo	-0.3457
-3.4553	popunjava	-0.7694
-3.5802	porast	-0.2738
-4.1243	porasti	-0.3542
-3.6472	poreme^aj	-1.3152
-3.6237	poreme^ajem	-0.3608
-4.3004	posavini	-0.3298
-3.4400	posebice	-0.2840
-4.9024	posebno
-3.5045	poslije	-0.3090
-2.4083	poslijepodne	-0.8166
-4.9024	poslijepodneva
-4.1243	poslijepodnevna	-0.4734
-4.9024	postojane
-4.6014	postojano	-0.3408
-4.6014	postoji	-0.3510
-4.0573	postupan	-0.2130
-3.5407	postupna	-0.2721
-4.9024	postupni
-2.8813	postupno	-0.5455
-4.6014	postupnom	-0.3506
-3.5045	posvuda	-0.2958
-3.9024	pote{ko^a	-1.0596
-3.2212	pote{ko^e	-0.5461
-4.3004	poticajno	-0.5421
-2.9293	potkraj	-0.4032
-4.6014	potom	-0.3611
-3.9024	potrebna	-0.1664
-4.6014	pove^anom	-0.3408
-4.3004	pove^anu	-0.3583
-3.3114	povi{enog	-0.3395
-4.9024	povi{enoga
-4.0573	povla~i	-0.1669
-3.6472	povoljan	-0.5965
-3.7264	povoljne	-0.4666
-3.4711	povoljni	-1.5232
-3.6014	povoljnih	-0.7493
-4.1243	povoljniji	-0.4739
-4.3004	povoljno	-0.1436
-4.6014	povoljnog	-0.3603
-4.3004	povoljnoga	-0.2220
-2.7235	povremeno	-0.7500
-4.6014	po~eo
-4.0573	po~etkom	-0.2637
-2.9782	po~etku	-0.3126
-3.6983	po~inje	-1.2607
-4.4253	pred	-0.1848
-4.2035	predjela	-2.4214
-4.6014	predjele	-0.3610
-3.0963	predjelima	-1.0535
-4.6014	predve~er
-3.9024	preko	-0.2092
-2.7986	prema	-0.5709
-4.4253	premda
-4.9024	premjestila
-4.6014	premjestilo	-0.3611
-3.2397	premje{ta	-0.4504
-4.9024	premje{tanja
-4.9024	premje{tat
-4.6014	preosjetljive
-4.9024	preosjetljivo{^u
-4.9024	preostali
-4.1243	preostalom	-0.4924
-4.9024	preporuci
-4.2035	preporu~uje	-0.1654
-4.6014	preporu~ujemo	-0.3609
-3.7885	prestanak	-0.2155
-3.9482	prestati	-0.4706
-4.9024	pret`no
-2.5844	prete`ito	-0.8550
-2.9202	prete`no	-0.7425
-4.4253	prethodne	-0.3155
-4.9024	prethodnih
-4.9024	prevladava
-4.9024	prevladavala
-3.5045	prevladavat	-0.4390
-3.7563	prevladavati	-0.6653
-4.9024	pri
-3.5222	pribli`ava	-0.4490
-4.0573	pribli`avanja	-0.9385
-4.3004	pribli`ila	-0.3605
-4.6014	pribli`no	-0.3408
-4.4253	pridonijet	-0.3323
-4.9024	prija{njih
-3.9482	prije	-0.3427
-4.2035	prije^i	-0.2578
-4.3004	prijeloma	-0.3408
-3.0895	prijepodne	-0.4894
-4.3004	prijepodneva	-0.3610
-4.3004	prikladna	-0.5458
-4.4253	prikladnu	-0.3155
-3.9482	prilika	-0.3610
-3.5045	prilike	-0.6715
-4.4253	primili	-0.3327
-3.7563	primi~e	-0.6095
-4.4253	primjerena	-0.3321
-4.0573	primjerenu	-0.3722
-4.4253	primorja	-0.2045
-4.9024	primorju
-4.6014	priobalju	-0.3506
-4.9024	pripadni
-4.6014	prirodi	-0.3506
-4.9024	prirodu
-4.6014	pristi`e	-0.3610
-4.4253	pritjecanja	-0.3319
-4.4253	pritje~e	-0.2048
-4.6014	produbljava	-0.3583
-1.9316	prognoza	-2.6767
-4.9024	prognoze
-4.0573	prohladno	-0.3449
-4.6014	prolaza	-0.3600
-4.9024	prolazak
-4.4253	prolazan	-0.2007
-4.1243	prolazna	-0.1949
-3.7563	prolazno	-0.2018
-4.9024	proljetne
-4.9024	prometne
-4.9024	promijenjiva
-3.6983	promijenjivo	-0.2745
-4.9024	promijenjivom
-4.6014	promijenjivu	-0.3591
-4.9024	promijenjljivo
-2.9834	promjene	-1.4826
-4.2035	promjenjiva
-3.1543	promjenjivo	-0.5035
-3.7563	promjenjivom	-1.1433
-4.0573	promjenjivu	-0.9374
-4.1243	promjenjljiva	-0.2776
-3.4111	promjenjljivo	-0.4780
-4.1243	promjenjljivom	-0.5067
-4.3004	promjenjljivu	-0.2209
-4.0573	promjenljiva	-0.4376
-2.7753	promjenljivo	-0.9098
-3.6983	promjenljivom	-1.2013
-3.9482	promjenljivu	-0.9523
-4.9024	promjenom
-4.6014	prosinca
-3.8233	prostrana	-0.2129
-4.9024	prostrane
-4.1243	prostrano	-0.7700
-4.4253	prostranog	-0.3327
-4.0573	proteklih	-0.2150
-4.1243	pro{irit	-0.2796
-4.3004	pro{iriti	-0.2200
-3.7563	pru`a	-0.2912
-4.9024	prvi
-2.5782	prvih	-0.3546
-3.7264	prvo	-0.3105
-4.0573	prvom	-0.9289
-3.5407	puhat	-0.6132
-4.9024	pulenat
-3.6014	radenci	-1.1543
-4.4253	radni	-0.3327
-4.3004	ranijih	-0.5458
-4.6014	ranog	-0.3440
-3.9994	raspolo`ena	-0.3609
-4.3004	raspolo`ene	-0.5457
-3.9994	raspolo`eni	-0.3394
-3.9482	raspolo`enja	-0.2978
-3.9482	raspolo`enje	-0.5543
-4.6014	raspolo`enjem	-0.3582
-4.4253	raspolo`enju	-0.3327
-4.9024	rast
-4.9024	raste
-4.9024	rasti
-3.2122	razdoblja	-1.4140
-3.7563	razdoblje	-0.3583
-3.2897	razdobljima	-0.3609
-3.6720	razdra`ljivi	-0.3599
-3.6237	razdra`ljivost	-0.7455
-4.6014	razdra`ljivosti	-0.3408
-2.9531	razmjerno	-0.7249
-3.3227	razvedravanje	-0.8933
-4.9024	razvedravati
-4.6014	razvedrit	-0.3408
-3.6472	razvedriti	-0.6211
-3.8611	razvoj	-0.6328
-3.7885	reumati~ara	-0.3402
-3.8611	reumati~ari	-0.3149
-4.6014	reumati~arima
-4.4253	reumatskih	-0.3124
-4.9024	reumom
-3.4400	rijeka	-0.8338
-4.2035	rijeke	-0.3670
-3.9994	rijetki	-0.1613
-4.9024	rijetkih
-4.6014	rije~kome	-0.3439
-4.9024	rosulja
-4.6014	rosuljom	-0.3598
-2.1839	s	-0.8955
-2.5115	sa	-0.7207
-2.8306	samo	-0.3571
-4.3004	samo{^anec	-0.5458
-4.9024	san
-4.2035	sasvim	-0.1074
-2.2473	sati	-2.7000
-4.6014	satima	-0.3611
-3.0160	sava	-0.8831
-2.1940	se	-0.9490
-2.5045	sedam	-0.8884
-3.3227	sedamdeset	-0.4634
-3.0274	sedamnaest	-1.1022
-4.3004	sedamsto	-0.1405
-4.9024	sedmi
-4.3004	senja	-0.5455
-4.9024	sicilijom
-4.4253	sije~nja
-4.0573	sinopti~arka	-0.3893
-4.9024	situacija
-4.9024	sjever
-3.8233	sjevera	-0.3597
-3.9994	sjeverac	-0.6243
-2.9834	sjeverni	-0.9185
-4.6014	sjevernije	-0.3611
-3.7264	sjevernim	-0.7076
-3.8233	sjevernjak	-0.5877
-3.2212	sjevernog	-0.9330
-4.9024	sjevernoga
-4.6014	sjevernoj	-0.3506
-2.1164	sjevernom	-2.1542
-3.1782	sjevernome	-0.3439
-4.4253	sjeveroistok	-0.3155
-2.9886	sjeveroisto~ni	-1.4076
-4.9024	sjeveroisto~nim
-3.3973	sjeveroisto~njak	-0.8041
-4.9024	sjeveroisto~nog
-3.2590	sjeverozapada	-0.3597
-4.6014	sjeverozapadne	-0.3597
-2.5351	sjeverozapadni	-1.0009
-3.4553	sjeverozapadnim	-1.4077
-2.6376	sjeverozapadnjak	-1.0589
-4.6014	sjeverozapadnjaka	-0.3604
-4.9024	sjeverozapadno
-3.8611	sjeverozapadnog	-0.2874
-3.6014	sjeverozapadnom	-1.3640
-4.3004	sjeverozapadu	-0.3228
-3.8233	sjeveru	-1.1455
-4.3004	skrenut	-0.3478
-4.9024	skrenuti
-4.9024	skretanje
-4.4253	skretanju	-0.3222
-4.9024	skretati
-2.1331	slab	-1.1145
-2.7986	slaba	-0.6960
-3.8233	slabe	-0.2934
-3.9482	slabi	-0.2422
-4.4253	slabija	-0.3313
-3.4400	slabije	-0.6788
-4.9024	slabijeg
-3.9024	slabiji	-0.2069
-4.9024	slabiju
-3.6014	slabim	-1.0556
-4.6014	slabit
-3.5222	slabiti	-0.7897
-4.9024	slabjet
-3.5802	slabjeti	-0.9878
-4.9024	slabljenja
-3.7885	slabljenju	-1.1635
-3.0829	slabo	-0.4529
-3.6472	slabom	-1.2936
-3.8233	slabu	-0.3615
-2.8417	slavoniji	-1.4629
-3.3004	slavonski	-1.1419
-3.4711	slijede^eg	-0.3608
-4.3004	slijede^ega	-0.5456
-2.6619	slijede^ih	-2.1766
-4.6014	sljede^eg	-0.3608
-4.9024	sljede^ega
-3.3461	sljede^ih	-0.3546
-4.6014	sloj	-0.3611
-4.9024	slu`be
-3.5802	smanjena	-0.3389
-4.4253	smanjene	-0.2049
-4.3004	smanjenje	-0.1237
-4.4253	smanjiti	-0.2043
-4.9024	smanjuje
-4.0573	smetnje	-0.8954
-4.9024	smiriti
-4.9024	smirivanje
-3.9482	smirivanju	-0.3506
-3.8611	smjera	-0.4235
-3.9482	smrzava	-0.3583
-3.9024	smrzavati	-0.5338
-3.9994	sna	-0.2228
-4.6014	sna`na	-0.3408
-3.9994	sni`enog	-0.3585
-2.8690	snijeg	-0.7050
-3.2590	snijega	-0.8476
-3.2492	snijegom	-1.2518
-4.9024	snje`na
-3.7885	snom	-0.3597
-3.4400	sparno	-1.1113
-2.5865	split	-1.8377
-3.4553	sporo	-0.2321
-4.9024	spustila
-3.2303	sredine	-1.5920
-4.6014	sredini	-0.3604
-3.3839	sredinom	-0.3818
-4.6014	sredi{njem
-3.8611	sredi{njim	-0.5051
-4.0573	sredi{njoj	-0.9289
-4.6014	sredi{te	-0.3583
-3.9024	sredi{tem	-0.3597
-4.9024	srednje
-2.5949	srednjeg	-1.5824
-3.9024	srednjega	-0.6970
-2.6472	srednjem	-2.2170
-4.4253	srednji	-0.3327
-3.9994	srednjim	-0.7317
-4.2035	srednjoj	-2.4111
-4.4253	srednjom	-0.3319
-4.2035	sredozemlja	-0.3678
-3.6720	sredozemljem	-0.6778
-4.4253	sredozemlju	-0.2041
-4.0573	sredozemna	-0.3321
-4.6014	sredozemne
-3.5045	srijedu	-1.2222
-4.4253	srijemu	-0.3325
-3.8611	sr~ane	-1.0805
-3.7885	sr~ani	-2.8159
-3.9024	sr~anih	-0.6562
-4.1243	stabilne	-0.5087
-4.9024	stabilnije
-4.1243	stabilno	-0.0900
-4.9024	stalno
-4.4253	stanja	-0.3327
-2.5407	stanje	-1.3295
-4.6014	stanovnici	-0.3607
-4.9024	staru
-4.9024	stjepana
-3.1171	sto	-0.5578
-4.6014	stoga	-0.3611
-3.8233	stojanovi^	-1.0791
-4.9024	stotine
-4.3004	stotinu
-4.1243	strelec	-0.5095
-4.4253	strujanja	-0.3326
-3.5222	stupanj	-1.3780
-2.7502	stupnja	-1.7629
-2.2052	stupnjeva	-2.2145
-4.9024	stvaranje
-4.6014	stvarati	-0.3611
-3.0048	su	-0.5301
-4.4253	subote	-0.2046
-3.4400	subotu	-1.1043
-4.1243	suho	-0.4722
-3.1621	sumaglica	-1.0572
-3.2212	sumaglice	-1.2999
-3.9994	sumaglicom	-0.6253
-4.0573	sunca	-0.8952
-4.6014	sunce
-3.2397	sun~ana	-0.8585
-3.6237	sun~anih	-0.3551
-4.4253	sun~anije	-0.2050
-3.2897	sun~anim	-1.1343
-2.2444	sun~ano	-1.3554
-4.4253	sun~anog	-0.2047
-4.1243	susnje`ica	-0.0702
-4.3004	susnje`icom	-0.5445
-4.4253	susnje`icu	-0.3222
-4.4253	sustav	-0.3326
-4.4253	sustava	-0.3327
-3.4711	sustavom	-0.3608
-2.1915	sutra	-1.3585
-3.8233	sve	-0.1917
-4.9024	svetog
-4.9024	svetoga
-4.4253	svi	-0.2050
-4.2035	svje`e	-0.0946
-4.9024	svje`ija
-3.1466	svje`ije	-0.6773
-4.1243	tako	-0.2635
-4.0573	tako}er	-0.3889
-4.6014	tamo	-0.3408
-2.5115	te	-0.5195
-4.2035	tegoba	-0.2593
-3.0512	tegobe	-0.9869
-4.0573	tek	-0.0735
-2.1458	temperatura	-1.2663
-4.9024	temperaturama
-3.3973	temperature	-0.4686
-3.7264	temperaturom	-1.1651
-4.1243	temperaturu	-0.4751
-3.6237	terezino	-0.8039
-3.0963	tiho	-0.8370
-2.8611	tijekom	-0.6156
-4.9024	tim
-4.6014	time	-0.3582
-3.7563	tirenskim	-1.1851
-4.0573	tirenskog	-0.1918
-4.3004	tirenskom	-0.2215
-4.4253	tirenskome	-0.2044
-4.9024	tisu^e
-4.9024	ti~e
-3.0048	tjedna	-1.1735
-4.4253	tlak	-0.3325
-3.2212	tlaka	-1.2982
-4.9024	tlom
-3.5802	tlu	-0.3439
-4.6014	tmurna	-0.3408
-3.9482	tmurno	-0.4219
-3.6014	to	-0.3408
-4.1243	toga	-0.5087
-4.9024	tokova
-4.9024	tom
-2.9202	toplije	-1.1265
-4.4253	toplijeg	-0.3327
-2.9782	toplo	-1.0357
-4.9024	toplom
-3.5802	tramontana	-0.5782
-4.0573	tramontane	-0.5379
-4.6014	trava
-4.6014	trave
-4.9024	travnjaka
-4.9024	tre^e
-3.7563	treba	-0.4172
-4.9024	trebaju
-4.0573	trebala	-0.9388
-4.9024	trebale
-3.4400	trebali	-0.8421
-4.3004	trebalo	-0.5451
-2.1473	tri	-1.0222
-2.4925	trideset	-0.9666
-2.6850	trinaest	-1.3993
-3.4553	tristo	-0.2306
-4.9024	tu
-4.3004	tunisa	-0.3610
-4.9024	tunisom
-4.9024	tuti{
-1.6237	u	-0.8198
-3.6983	udare	-1.1870
-2.8343	udari	-0.8296
-3.4400	udarima	-1.5565
-4.9024	uglavno
-2.2580	uglavnom	-0.6685
-4.2035	ugodno	-2.4013
-2.4875	ujutro	-0.8153
-4.9024	umjerana
-2.2823	umjeren	-1.2508
-2.3852	umjerena	-0.9853
-3.7885	umjerene	-0.2626
-4.6014	umjereni
-2.2070	umjereno	-1.0508
-3.2690	umjerenom	-1.6134
-3.3461	umjerenu	-0.6907
-3.6237	una	-1.3223
-4.4253	unutra{njost	-0.3327
-2.3596	unutra{njosti	-1.4067
-4.9024	uobi~ajeno
-4.3004	upozorava	-0.1440
-4.4253	upozoravaju	-0.3299
-4.6014	upozoravamo	-0.3604
-2.8021	upozorenje	-1.8159
-3.6983	upozorenjem	-0.3610
-3.8611	upozoriti	-1.1014
-4.4253	usporeno	-0.2048
-4.4253	ustalilo	-0.3299
-4.9024	ustalio
-4.9024	uticati
-4.9024	uti~e
-3.1621	utjecaj	-0.9898
-3.6983	utjecaja	-0.5389
-4.4253	utjecajem	-0.3327
-3.9024	utjecati	-0.2431
-3.4875	utorak	-1.2150
-4.4253	utorka	-0.2046
-4.9024	uvijek
-3.7563	uvjeta	-0.3610
-4.4253	uvjete	-0.3326
-3.0963	uvjeti	-0.8744
-2.3449	uz	-0.7213
-4.4253	uzburkano	-0.3124
-3.5600	uzrokovane	-0.8650
-4.6014	uzrokovanih	-0.3611
-4.6014	uzrokovat	-0.3607
-4.1243	uzrokovati	-0.2814
-4.4253	uzrokuje	-0.3323
-4.4253	u~inak	-0.3327
-4.6014	vakula	-0.3611
-4.9024	valoviti
-2.3866	valovito	-1.4430
-3.6472	ve^	-0.2991
-4.3004	ve^a
-3.1390	ve^e	-1.8229
-4.6014	ve^eg	-0.3609
-3.2690	ve^em	-1.4393
-3.8611	ve^i	-0.1491
-4.4253	ve^ih	-0.2051
-3.4553	ve^ina	-0.4735
-3.2590	ve^ini	-0.3506
-2.6080	ve^inom	-0.6940
-4.3004	vedrije	-0.5450
-2.8197	vedro	-0.9218
-3.8611	velebita	-0.3610
-2.8854	velebitskom	-0.3506
-4.6014	velebitskome	-0.3506
-4.6014	veoma
-4.9024	ve~er
-4.6014	ve~eras
-4.6014	ve~ernjim	-0.3506
-2.5332	vidljivost	-1.3969
-4.9024	vijest
-4.1243	vikend	-0.5030
-4.9024	vikenda
-3.6472	visini	-0.3609
-4.4253	visoka	-0.2051
-3.8611	visokih	-1.1001
-4.9024	visokom
-3.3710	vi{a	-1.2568
-3.0391	vi{e	-0.5626
-4.6014	vi{em	-0.3506
-4.9024	vjerojatno
-4.9024	vjerojatnost
-2.0518	vjetar	-1.0919
-3.6237	vjetra	-0.5902
-3.9994	vjetrom	-0.2390
-4.2035	vjetrovito	-0.2367
-4.4253	vla`ni	-0.2051
-4.9024	vlasta
-3.8611	vodostaj	-0.8969
-3.6237	vodostaju	-1.1136
-4.4253	vratima	-0.3327
-4.9024	vrbe
-2.9387	vremena	-0.9791
-3.5407	vremenom	-1.4217
-2.0115	vremenska	-1.5932
-4.1243	vremenske	-0.4924
-3.4400	vremenski	-0.8221
-4.3004	vremensko	-0.5458
-4.6014	vremenskog	-0.3611
-3.1700	vremenu	-0.3607
-4.9024	vrhu
-3.0160	vrijeme	-0.7321
-2.7689	vrlo	-0.6480
-3.2122	vru^e	-0.9224
-3.9482	vr{nak	-0.3610
-3.5802	vukovar	-0.8639
-1.8298	za	-1.8756
-4.9024	zabjelili
-4.6014	zadr`at
-3.6237	zadr`ati	-0.4178
-2.9886	zadr`ava	-0.7627
-4.6014	zadr`e
-4.9024	zadru
-4.3004	zagorju	-0.2228
-3.6237	zagreb	-1.2201
-4.2035	zagrebu	-2.4111
-4.9024	zahladnjenje
-3.9994	zahla}enje	-0.3568
-4.1243	zahvatiti	-0.4734
-4.0573	zale}u	-0.5399
-4.6014	zamijeniti	-0.3610
-3.1466	zapada	-1.6918
-4.0573	zapadne	-0.8741
-2.7753	zapadni	-1.1444
-3.2492	zapadnim	-1.7006
-3.2792	zapadnjak	-0.6389
-4.9024	zapadnoeuropske
-3.9994	zapadnog	-0.2011
-4.3004	zapadnoj	-0.3331
-3.4875	zapadnom	-0.9555
-4.2035	zapadnu	-2.4196
-4.1243	zapadu	-0.2259
-3.6983	zapuhat	-0.5447
-3.9482	zapuhati	-0.4879
-4.6014	zasad
-4.9024	zastoja
-2.7919	zatim	-0.5909
-3.5407	zato	-0.6356
-4.4253	zatopljenje	-0.3321
-2.6545	zavoda	-1.9460
-4.1243	za{tita	-0.3327
-4.4253	za{tititi	-0.2023
-3.8233	za{titu	-0.5919
-2.7264	zbog	-0.7390
-4.9024	zdravstvo
-3.2035	zemlje	-1.0162
-3.4253	zemlji	-0.7901
-4.2035	zemlju	-2.4215
-4.1243	znatnije	-0.4747
-3.1782	znatno	-1.6861
-4.9024	zna~ajnije
-4.4253	zna~i	-0.3325
-4.6014	zoran
-4.3004	zrak	-0.2228
-3.0048	zraka	-1.1027
-4.4253	zraku	-0.3222
-3.6014	{amac	-0.3609
-2.7206	{esnaest	-1.3596
-2.4028	{est	-0.8107
-4.0573	{esto	-0.1670
-4.6014	{etnju	-0.3546
-3.4111	{ezdeset	-0.2259
-4.2035	{ire	-0.2579
-3.6472	{iri	-0.3212
-4.9024	{kifi^
-3.4400	{to	-0.3728
-4.9024	{tovi{e
-4.6014	~apka	-0.3611
-4.9024	~emu
-4.6014	~esto	-0.3592
-2.0942	~etiri	-1.0718
-3.7885	~etiristo	-0.0807
-2.8306	~etrdeset	-0.8700
-2.7411	~etrnaest	-1.1002
-4.4253	~etvrtak	-0.1879
-4.1243	~e{^e	-0.3594
-4.9024	~e{^i
-4.9024	~itavom
-3.1782	~vora	-1.6579
-2.3449	~vorova	-1.7448

\2-grams:
-3.6680	</s> <greska>
-2.7665	</s> <papir>
-2.7665	</s> <sil>
-2.9287	</s> <udarac>
-0.5669	</s> <uzdah>	-0.0692
-2.8176	</s> ^e	-0.3470
-3.5151	</s> anticiklona	-0.1092
-3.6680	</s> astmati~are	-0.2151
-2.9287	</s> astmati~ari	-0.1163
-2.4903	</s> bolesnici	-0.4903
-3.6680	</s> bolesnicima
-2.7207	</s> bolesnika	+0.1566
-3.1033	</s> bolesnike	+0.7323
-2.9287	</s> bolove	-0.2807
-3.2641	</s> bolovi	-0.0594
-1.7251	</s> bura	-0.2934
-3.2641	</s> bure	+0.8947
-2.7665	</s> burin	-0.2029
-3.2641	</s> burom	+0.0794
-2.6416	</s> buru	+0.2066
-3.6680	</s> ciklona	-0.1855
-3.6680	</s> dalmacije	-0.1936
-2.9287	</s> dalmaciji	-1.3435
-2.5746	</s> dana	+0.0328
-3.5151	</s> danas	-0.0313
-3.6680	</s> dane	-0.0393
-2.6068	</s> deset	-0.5088
-3.6680	</s> devedeset
-2.2894	</s> devet	-0.0552
-3.0234	</s> devetnaest	-0.0065
-2.5746	</s> dijelu	-0.4161
-3.6680	</s> dio	-0.2303
-3.5151	</s> dobro	+0.0268
-3.5151	</s> dragojlovi^	-0.0798
-2.7665	</s> drvar	+0.0989
-2.1410	</s> dva	-0.0780
-2.4420	</s> dvadeset	-0.3781
-3.2641	</s> dvanaest	-0.1999
-3.6680	</s> dvjesto	-0.0626
-3.6680	</s> europe	-0.1857
-3.2641	</s> frontom	+0.3850
-3.1033	</s> glavobolje	+0.6803
-3.0234	</s> gorju	+0.6603
-2.7665	</s> greben	+0.0632
-1.9426	</s> grmljavina	+0.0438
-2.7207	</s> grmljavine	+0.7516
-2.0132	</s> grmljavinom	+1.3218
-3.6680	</s> grmljavinu	+0.0058
-2.7665	</s> hladnije	-0.1419
-3.0234	</s> hladno	-0.1619
-3.6680	</s> hladno^e
-2.8176	</s> hrvatskoj	+0.5553
-3.5151	</s> i
-2.7207	</s> istok	+0.0989
-2.6416	</s> istoku	-0.7166
-2.7207	</s> isto~njak	-0.7911
-3.6680	</s> istre	+0.2778
-3.6680	</s> italiji	+0.0989
-3.0234	</s> izra`en	-0.1643
-3.6680	</s> izvje{taj	-0.2582
-3.5151	</s> jadran	-0.1387
-2.3783	</s> jadrana	+0.1627
-2.7665	</s> jadranom	-0.1010
-1.6995	</s> jadranu	+0.7239
-2.9287	</s> jaka	+0.1030
-3.6680	</s> ja~ati
-2.4420	</s> jedan	+0.0456
-2.6068	</s> jedanaest	+0.0095
-3.6680	</s> ju`nim	+0.0689
-2.5446	</s> ju`nom	-0.6157
-3.6680	</s> juga	+1.1537
-1.7340	</s> jugo	-0.4584
-2.7665	</s> jugoistok	+0.2213
-3.5151	</s> jugoisto~ni	+0.0848
-3.0234	</s> jugozapadni	+0.0201
-2.1767	</s> jugozapadnjak	+0.0378
-3.6680	</s> kalin	+0.0989
-3.5151	</s> kanalu	+1.3051
-2.0580	</s> kilometara	+0.2803
-2.5746	</s> kilometra	+0.2565
-2.2894	</s> ki{a	-0.1293
-2.2583	</s> ki{e	-0.2058
-2.5166	</s> ki{om	+0.3847
-3.6680	</s> kod
-3.6680	</s> koncentracije
-3.6680	</s> koncentraciji	+0.6769
-3.5151	</s> koncentracijom	-0.0515
-3.6680	</s> kopna
-2.6793	</s> kotaru	-0.6479
-2.8176	</s> krajevima	+0.0089
-3.6680	</s> kvarneru	+0.0989
-3.6680	</s> levant	+1.0163
-2.4420	</s> lici	-0.8930
-3.0234	</s> ljude	-0.6398
-3.1033	</s> ljudi	-0.2579
-2.6068	</s> maestral	-0.3255
-2.3783	</s> magla	-0.0531
-2.7665	</s> magle	+0.1433
-3.6680	</s> maglom
-3.1033	</s> maglovito	-0.1456
-3.0234	</s> mahovi^	+1.4336
-3.6680	</s> me}imurju	-0.0297
-3.2641	</s> mijenjati	+0.1014
-2.6068	</s> mjestimice	-0.3409
-2.7207	</s> mokori^	+0.0989
-3.6680	</s> morem	-0.0402
-3.0234	</s> moru	+0.1084
-3.6680	</s> najobla~nije	-0.1269
-2.4197	</s> naoblaka	-0.5384
-2.6793	</s> naoblake	-0.1765
-2.7207	</s> naoblakom	-0.4388
-2.8176	</s> naoblaku	-0.1585
-3.2641	</s> naobla~enje	+0.0794
-2.7207	</s> napore	-0.2599
-3.2641	</s> nepovoljan	-0.2073
-3.2641	</s> nepovoljni	-0.0801
-3.5151	</s> neverin	-0.2464
-3.2641	</s> neverina	-0.2078
-2.2894	</s> neverini	+0.1501
-2.3985	</s> ni`a	-0.0666
-3.6680	</s> ni`e	+0.0989
-3.2641	</s> nizinama	+0.2963
-3.5151	</s> no^i	-0.0874
-3.5151	</s> nula	-0.1125
-3.2641	</s> obale	-0.2078
-3.2641	</s> obalu	+0.9887
-2.1410	</s> obla~no	-0.4710
-3.6680	</s> oborina
-3.6680	</s> oborinama
-3.2641	</s> odje^a	-0.0229
-3.5151	</s> oja~ati	+0.0489
-3.2641	</s> olujno	-0.0645
-2.2583	</s> osam	-0.0196
-2.7207	</s> osamnaest	-0.0915
-2.9287	</s> oslabiti	-0.0838
-2.8176	</s> oslabjeti	+0.1669
-3.1033	</s> osvje`enje	+0.1049
-3.6680	</s> otvorenom	+1.8334
-3.6680	</s> otvorenome	+1.1958
-3.5151	</s> padu	+0.1333
-3.6680	</s> pasti	-0.2355
-3.6680	</s> pedeset	-0.2503
-2.0873	</s> pet	-0.2250
-2.7665	</s> petnaest	-0.6357
-2.4420	</s> pljusak	-0.0634
-3.6680	</s> pljuska
-3.6680	</s> pljuskova
-2.5446	</s> pljuskovi	+0.0005
-2.9287	</s> pljuskovima	-0.2157
-3.6680	</s> podravini	+0.2498
-3.1033	</s> podru~jima	-0.0539
-3.0234	</s> podru~ju	+0.0864
-3.1033	</s> pogodni	+0.0008
-3.6680	</s> poja~ana
-3.6680	</s> poja~anju	+0.0989
-3.6680	</s> poja~ano
-3.6680	</s> poja~ati	+0.0090
-2.6793	</s> polje	-0.4409
-2.8176	</s> popunjava	+0.2869
-3.0234	</s> porasti	+0.0096
-2.8176	</s> poreme^ajem	+0.0989
-2.4420	</s> poslijepodne	-0.4976
-3.6680	</s> pote{ko^a	-0.2101
-3.1033	</s> povoljan	-0.0323
-2.6793	</s> povoljni	-0.1069
-2.8176	</s> predjelima	-0.0562
-3.0234	</s> prestati	+0.1509
-3.2641	</s> prijeloma	+0.0990
-3.0234	</s> prijepodne	+0.0446
-3.6680	</s> prijepodneva	-0.1181
-3.2641	</s> prilika	-0.2078
-3.6680	</s> prilike
-3.6680	</s> primorja	-0.0570
-3.5151	</s> prohladno	-0.1843
-1.9573	</s> promjene	-0.6425
-3.6680	</s> raspolo`ena	+0.0989
-3.0234	</s> raspolo`enja	-0.0481
-2.5746	</s> razdoblja	+0.1055
-2.6416	</s> razdobljima	+0.0989
-3.1033	</s> razdra`ljivi	-0.0557
-3.6680	</s> razdra`ljivost	+0.0623
-3.6680	</s> razdra`ljivosti	+0.0989
-2.4903	</s> razvedravanje	-0.0662
-3.2641	</s> razvedriti	+0.2986
-3.5151	</s> reumati~ara	-0.3553
-3.0234	</s> rijeka	-0.5384
-3.2641	</s> samo{^anec	-0.0229
-1.5276	</s> sati	-0.2693
-3.5151	</s> se	-0.1552
-2.4420	</s> sedam	-0.1187
-3.5151	</s> sedamdeset
-2.6793	</s> sedamnaest	+0.0277
-3.6680	</s> sije~nja
-3.6680	</s> sjeverni	-0.1755
-3.5151	</s> sjeveroistok	-0.0798
-2.6793	</s> sjeveroisto~ni	+0.3321
-3.6680	</s> sjeverozapada	+0.0989
-2.4903	</s> sjeverozapadni	-0.1690
-1.8756	</s> sjeverozapadnjak	-0.0178
-2.4655	</s> slab	-0.1090
-3.6680	</s> slaba
-3.5151	</s> slabi	-0.0980
-3.2641	</s> slabije	-0.2006
-3.2641	</s> slabiji	-0.1915
-2.6068	</s> slabiti	-0.0020
-2.9287	</s> slabjeti	+0.3492
-3.2641	</s> slabljenju	+0.5451
-2.6068	</s> slavoniji	+0.9221
-2.2156	</s> snijeg	+0.0294
-2.6793	</s> snijega	+0.3278
-2.6068	</s> snijegom	+0.7531
-3.2641	</s> snom	-0.2078
-3.0234	</s> sparno	-0.2375
-3.5151	</s> sredozemlja	-0.0436
-3.5151	</s> stanja	-0.0798
-1.8695	</s> stanje	+0.3281
-2.6793	</s> stojanovi^	+0.0377
-2.8176	</s> stupanj	+0.5061
-1.9426	</s> stupnja	+1.1361
-1.2926	</s> stupnjeva	-0.5472
-2.7665	</s> sumaglica	+0.3343
-2.5166	</s> sumaglice	+0.1760
-3.6680	</s> sumaglicom	+0.1611
-2.2736	</s> sun~ano	-0.1036
-3.2641	</s> sustavom	-0.2078
-2.0975	</s> sutra	-0.9341
-2.1767	</s> svje`ije	-0.2314
-2.6416	</s> tegobe	-0.3124
-3.5151	</s> temperatura
-3.5151	</s> tiho	-0.0660
-2.4197	</s> tjedna	+0.4924
-2.7665	</s> tlaka	+0.2874
-2.9287	</s> tlu	-1.6389
-1.9883	</s> toplije	+0.1245
-2.4420	</s> toplo	+0.3888
-3.1033	</s> tramontana	-0.0471
-1.9883	</s> tri	-0.2542
-2.7207	</s> trinaest	-0.5565
-2.6068	</s> udarima	+0.5062
-2.8176	</s> ujutro	-0.3207
-3.5151	</s> umjeren
-3.6680	</s> umjerena
-3.5151	</s> umjerenu	+0.1023
-2.9287	</s> unutra{njosti	+0.5472
-2.0047	</s> upozorenje	+0.8702
-2.5746	</s> upozorenjem	+0.0989
-3.5151	</s> utjecaj	-0.2285
-3.6680	</s> uvjeta	+0.0989
-3.5151	</s> uvjete	-0.0798
-3.5151	</s> uvjeti	-0.1974
-3.6680	</s> vakula	+0.0989
-1.8123	</s> valovito	+0.4225
-3.5151	</s> vedrije	+0.1333
-2.3590	</s> vedro	-0.2993
-2.2894	</s> vi{a	-0.1327
-3.5151	</s> vi{e	-0.3819
-2.1410	</s> vjetar	-1.4090
-3.6680	</s> vjetra
-3.6680	</s> vremena
-3.0234	</s> vremenom	+1.0759
-3.2641	</s> vrijeme	-0.2511
-2.6793	</s> vru^e	+0.0664
-2.7665	</s> vr{nak	+0.0989
-3.6680	</s> zadr`ati	-0.1912
-3.5151	</s> zale}u	+0.3837
-3.0234	</s> zapadni	-0.7488
-3.0234	</s> zapadnjak	-0.8547
-2.6068	</s> zavoda	+1.6879
-2.5746	</s> zemlje	-0.3490
-3.2641	</s> zemlji	+0.0052
-3.2641	</s> zrak	-0.0447
-2.6068	</s> zraka	-0.6357
-2.6793	</s> {esnaest	-0.5222
-2.3590	</s> {est	-0.0575
-3.6680	</s> {ezdeset
-3.6680	</s> ~apka	+0.0989
-1.9283	</s> ~etiri	-0.5423
-3.2641	</s> ~etrdeset	+0.3805
-2.6416	</s> ~etrnaest	-0.1586
-2.2436	</s> ~vora	+0.2556
-1.6954	</s> ~vorova	+0.4405
-1.5036	<greska> <s>	+0.0989
-1.5036	<greska> <uzdah>
-1.3507	<greska> do
-1.3507	<greska> i
-1.3507	<greska> u
-0.9748	<papir> <s>	-0.6398
-1.6193	<papir> slabiji	-0.2101
-1.6193	<papir> stupnjeva
-0.9748	<papir> sutra	-0.4005
-0.2483	<s> </s>	+0.0167
-2.3730	<sil> <s>	-0.0515
-2.5259	<sil> brod	+0.0989
-1.9612	<sil> bura	+0.0814
-1.9612	<sil> burin	+0.2114
-2.5259	<sil> dana	-0.1814
-2.5259	<sil> danas	-0.2260
-2.5259	<sil> deset
-2.1220	<sil> devet
-1.4325	<sil> dva	-0.0165
-2.5259	<sil> dvanaest
-2.5259	<sil> grmljavina
-2.5259	<sil> grmljavine
-1.9612	<sil> grmljavinom	+1.2250
-2.3730	<sil> hladno	-0.2477
-2.5259	<sil> ilok	-0.2355
-2.3730	<sil> jadrana	+0.0553
-1.9612	<sil> jadranu	+0.3991
-2.3730	<sil> jedan
-1.8813	<sil> jugo	-0.1072
-2.3730	<sil> jugozapadni	+0.0632
-2.3730	<sil> karlovac	-0.1310
-2.1220	<sil> kilometara	+0.6863
-1.9612	<sil> ki{a	+0.0119
-2.3730	<sil> kupa	-0.0716
-2.5259	<sil> maestral
-1.9612	<sil> magla	-0.1035
-2.5259	<sil> minus	-0.2123
-2.5259	<sil> mjestimice
-2.3730	<sil> more
-2.5259	<sil> naoblaka
-2.3730	<sil> naoblakom	+0.1040
-2.5259	<sil> neverini
-2.5259	<sil> ni`a
-2.5259	<sil> nula
-2.3730	<sil> obla~no
-2.1220	<sil> osam	-0.0390
-1.4647	<sil> pet	+0.0346
-2.5259	<sil> petnaest
-1.9612	<sil> poslijepodne	-0.2126
-2.5259	<sil> radenci
-1.2362	<sil> sati	+0.3132
-2.1220	<sil> sava	+0.3126
-2.5259	<sil> sedam
-2.5259	<sil> sjevernom	+1.6226
-2.5259	<sil> sjeveroisto~ni
-2.3730	<sil> sjeverozapadnjak	-0.1369
-1.6755	<sil> slab	+0.0940
-2.5259	<sil> slabiti	+0.2150
-2.5259	<sil> slavoniji	+0.3073
-2.1220	<sil> split	+1.2728
-2.1220	<sil> stanje	+0.1533
-1.9612	<sil> stupnjeva	-0.0385
-2.5259	<sil> sun~ano	-0.1699
-1.4647	<sil> sutra	+0.3383
-1.9612	<sil> tjedna	+0.0087
-2.5259	<sil> toplije
-1.5372	<sil> tri	-0.3785
-2.5259	<sil> umjeren
-2.3730	<sil> upozorenje	-0.3456
-1.2169	<sil> valovito	-0.0348
-2.1220	<sil> vedro	-0.2524
-2.5259	<sil> vidljivost	-0.0135
-2.1220	<sil> vjetar	-0.1863
-1.6755	<sil> zavoda	+1.6879
-2.5259	<sil> {amac	+0.0989
-2.3730	<sil> {est
-1.8813	<sil> ~etiri	-0.0900
-1.5372	<sil> ~vorova	-0.1224
-3.2692	<uzdah> <papir>
-1.1505	<uzdah> <s>	+0.0989
-3.0182	<uzdah> <sil>
-2.8574	<uzdah> ^e	-0.4223
-2.6828	<uzdah> bolesnici	+1.2410
-2.8574	<uzdah> bolesnika	+0.1368
-3.4220	<uzdah> bolesnike	+0.5505
-3.4220	<uzdah> bolove
-3.4220	<uzdah> bolovi	+0.2473
-1.5827	<uzdah> bura	-0.2834
-2.6828	<uzdah> bure	+1.1367
-2.7775	<uzdah> burin	-0.0685
-3.2692	<uzdah> burom	-0.1033
-2.6828	<uzdah> buru	+0.2210
-3.4220	<uzdah> ciklona
-3.4220	<uzdah> dalmacije	+0.0977
-2.4748	<uzdah> dalmaciji	+0.4461
-2.4334	<uzdah> dana	-0.0622
-3.0182	<uzdah> danas	-0.4439
-2.8574	<uzdah> deset	-0.4743
-2.3956	<uzdah> devet	-0.1267
-2.7775	<uzdah> devetnaest	-0.8843
-2.6828	<uzdah> dijelu	-0.3002
-2.7775	<uzdah> dnevna	-0.1134
-3.2692	<uzdah> dobro	+0.0268
-2.0124	<uzdah> dva	-0.3313
-2.1526	<uzdah> dvadeset	-0.5977
-2.8574	<uzdah> dvanaest	-0.1944
-3.4220	<uzdah> europe	+0.2778
-3.2692	<uzdah> glavobolje	+0.6845
-2.8574	<uzdah> godine	-0.0557
-3.0182	<uzdah> gorju	+0.4725
-2.7775	<uzdah> greben	-0.6755
-1.9977	<uzdah> grmljavina	+0.1102
-2.6828	<uzdah> grmljavine	-1.2867
-1.8950	<uzdah> grmljavinom	+0.6123
-3.4220	<uzdah> grmljavinu	+0.0058
-3.2692	<uzdah> hladno	+0.0086
-3.4220	<uzdah> hladno^e	+0.4648
-2.6828	<uzdah> hrvatskoj	+0.3397
-3.4220	<uzdah> hrvatsku	-0.1490
-3.0182	<uzdah> istok	-0.2078
-3.4220	<uzdah> istoku	-0.0094
-3.4220	<uzdah> isto~ni	-0.0446
-2.5206	<uzdah> isto~njak	-0.6648
-3.4220	<uzdah> istre	-0.1857
-3.4220	<uzdah> jadran
-2.0598	<uzdah> jadrana	-0.0588
-2.6828	<uzdah> jadranom	+0.5265
-1.6423	<uzdah> jadranu	+0.4647
-2.5717	<uzdah> jaka	+0.0367
-3.4220	<uzdah> ja~ati
-2.2443	<uzdah> jedan	-0.0257
-2.8574	<uzdah> jedanaest	-0.1561
-3.0182	<uzdah> ju`nom	-0.0533
-3.4220	<uzdah> juga
-1.6895	<uzdah> jugo	-0.3437
-3.0182	<uzdah> jugoistok	+0.6067
-2.8574	<uzdah> jugoisto~ni	-0.1049
-3.4220	<uzdah> jugom	-0.0570
-2.4748	<uzdah> jugozapadni	+0.1528
-2.0276	<uzdah> jugozapadnjak	-0.2655
-3.4220	<uzdah> jugu	+0.2385
-3.4220	<uzdah> jutra
-3.2692	<uzdah> kanalu	+1.5615
-3.4220	<uzdah> kestena	+0.0989
-1.7758	<uzdah> kilometara	-0.4441
-2.4748	<uzdah> kilometra	+0.4384
-2.0434	<uzdah> ki{a	-0.0704
-2.5206	<uzdah> ki{e	-0.4091
-2.3287	<uzdah> ki{om	-0.0190
-3.4220	<uzdah> koncentracija	-0.1936
-3.0182	<uzdah> koncentracije	-0.0939
-3.0182	<uzdah> koncentraciji	+0.3701
-3.2692	<uzdah> koncentracijom	-0.0515
-2.4748	<uzdah> kotaru	-0.5555
-2.5717	<uzdah> krajevima	-0.0794
-3.4220	<uzdah> levant	+1.0163
-2.3287	<uzdah> lici	+0.1236
-2.2987	<uzdah> maestral	-0.0645
-2.2987	<uzdah> magla	+0.0931
-3.0182	<uzdah> magle
-2.6828	<uzdah> maglovito	-0.1762
-3.4220	<uzdah> mjestimice
-2.7775	<uzdah> moru	-0.1776
-2.0434	<uzdah> naoblaka	-0.1041
-2.6828	<uzdah> naoblake	-0.0158
-2.4334	<uzdah> naoblakom	+0.0064
-2.6828	<uzdah> naoblaku	+0.0308
-3.4220	<uzdah> naobla~enje
-3.2692	<uzdah> nave~er	-0.0205
-3.4220	<uzdah> nedjelje	+0.0706
-3.4220	<uzdah> nepovoljan	-0.0994
-3.4220	<uzdah> nepovoljne
-2.8574	<uzdah> nepovoljni	-0.2406
-3.2692	<uzdah> nesanica	-0.0210
-3.4220	<uzdah> neverin
-3.2692	<uzdah> neverini
-2.5717	<uzdah> ni`a	+0.4292
-3.4220	<uzdah> niska
-3.4220	<uzdah> no^i	+0.4705
-2.7775	<uzdah> nula	-0.1252
-3.4220	<uzdah> oblaci	+0.0989
-3.2692	<uzdah> oblake	+0.1333
-2.0598	<uzdah> obla~no	+0.0499
-3.4220	<uzdah> olujnim	+1.1537
-2.0598	<uzdah> osam	-0.1765
-2.4334	<uzdah> osamnaest	-0.6200
-3.2692	<uzdah> oslabiti
-2.5206	<uzdah> oslabjeti	+0.1591
-3.4220	<uzdah> osvje`enje	-0.0698
-1.8313	<uzdah> pet	-0.3950
-2.6828	<uzdah> petnaest	-0.0083
-3.0182	<uzdah> pljusak	+0.0956
-3.4220	<uzdah> pljuskom
-2.6828	<uzdah> pljuskovi	-0.3511
-3.4220	<uzdah> pljuskovima
-3.4220	<uzdah> pobolj{ati	-0.0570
-2.8574	<uzdah> podravini	+0.0952
-3.2692	<uzdah> podru~jima
-2.2195	<uzdah> podru~ju	-0.0179
-3.4220	<uzdah> pogodne	-0.0570
-3.0182	<uzdah> pogor{ati	-0.0470
-3.4220	<uzdah> poledice	+0.0989
-3.2692	<uzdah> polje	-0.3282
-3.4220	<uzdah> ponegdje
-3.0182	<uzdah> popunjava	-0.1217
-3.4220	<uzdah> poreme^ajem	+0.0989
-3.4220	<uzdah> posavini	-0.1181
-1.9185	<uzdah> poslijepodne	-1.3522
-3.4220	<uzdah> povoljne
-2.5206	<uzdah> predjelima	+0.0598
-3.4220	<uzdah> prestati	+0.0880
-3.4220	<uzdah> prijepodne	-0.0402
-3.2692	<uzdah> prilike
-3.4220	<uzdah> prirodi	+0.0989
-3.4220	<uzdah> promjene
-3.4220	<uzdah> raspolo`enja
-3.4220	<uzdah> raspolo`enje	+0.0880
-2.7775	<uzdah> razdoblja	+0.8667
-2.6828	<uzdah> razdobljima	-1.6389
-3.2692	<uzdah> razdra`ljivi	-0.0515
-2.7775	<uzdah> razdra`ljivost	-0.6764
-2.8574	<uzdah> razvedravanje	+0.1469
-2.8574	<uzdah> razvedriti	-0.1922
-3.4220	<uzdah> reumati~ara	-0.2049
-1.2393	<uzdah> sati	+0.0974
-3.4220	<uzdah> se	-0.1503
-2.0769	<uzdah> sedam	-0.3916
-3.0182	<uzdah> sjeverni	-0.4823
-3.4220	<uzdah> sjevernom	+1.6226
-2.1960	<uzdah> sjeveroisto~ni	-0.3192
-2.7775	<uzdah> sjeveroisto~njak	-0.0558
-3.4220	<uzdah> sjeverozapada	+0.0989
-2.4748	<uzdah> sjeverozapadni	-0.0387
-1.8515	<uzdah> sjeverozapadnjak	+0.2526
-3.4220	<uzdah> sjeverozapadnjaka	+0.0989
-2.6828	<uzdah> slab	+0.2015
-3.4220	<uzdah> slabi	-0.1768
-2.7775	<uzdah> slabiti	+0.2779
-2.8574	<uzdah> slabjeti	+0.0209
-3.2692	<uzdah> slabljenju	+0.4001
-2.8574	<uzdah> slavoniji	+0.8632
-2.1526	<uzdah> snijeg	-0.1178
-2.6828	<uzdah> snijega	+0.2397
-2.6828	<uzdah> snijegom	-0.0328
-2.5717	<uzdah> sparno	+0.5013
-1.5158	<uzdah> stanje	+0.3950
-3.4220	<uzdah> strujanja	+0.0706
-2.6828	<uzdah> stupanj	-0.6202
-1.8950	<uzdah> stupnja	+0.2717
-1.4662	<uzdah> stupnjeva	+0.5216
-3.4220	<uzdah> suho	+0.0194
-2.4748	<uzdah> sumaglica	+0.4821
-2.1960	<uzdah> sumaglice	+0.0620
-1.8727	<uzdah> sun~ano	-0.2008
-3.2692	<uzdah> susnje`ica	-0.0656
-3.2692	<uzdah> sustavom	-0.0515
-1.4141	<uzdah> sutra	-1.4603
-2.8574	<uzdah> svje`ije	-0.2779
-3.0182	<uzdah> tegobe	-0.1871
-2.6828	<uzdah> temperatura	+0.0318
-2.7775	<uzdah> tiho	-0.1091
-2.0434	<uzdah> tjedna	+0.1505
-3.2692	<uzdah> tlaka	+0.1271
-2.5206	<uzdah> tlu	+0.0989
-2.3956	<uzdah> toplije	+0.1423
-2.3287	<uzdah> toplo	+0.1751
-3.4220	<uzdah> tramontana	-0.2276
-1.7424	<uzdah> tri	-0.3628
-3.2692	<uzdah> trinaest	+0.1748
-2.5206	<uzdah> udarima	+1.1403
-2.7775	<uzdah> ujutro	-0.0850
-3.0182	<uzdah> umjerena
-3.2692	<uzdah> umjereno
-2.6828	<uzdah> unutra{njosti	+0.6676
-1.8216	<uzdah> upozorenje	-0.3185
-3.4220	<uzdah> upozoriti	+0.4780
-3.0182	<uzdah> utjecaj	-0.3848
-2.7775	<uzdah> uvjeta	-0.6398
-3.4220	<uzdah> uvjeti	-0.0470
-3.2692	<uzdah> u~inak	-0.0798
-1.7758	<uzdah> valovito	+0.6092
-2.6828	<uzdah> vedro	+0.3175
-3.2692	<uzdah> velebita	-0.0515
-3.4220	<uzdah> vikend	+0.2473
-3.2692	<uzdah> vi{a	+0.6420
-1.8027	<uzdah> vjetar	-0.7237
-3.2692	<uzdah> vjetra
-3.4220	<uzdah> vjetrom
-3.2692	<uzdah> vremena	-0.1167
-2.8574	<uzdah> vremenom	+0.6441
-3.2692	<uzdah> vrijeme	-0.1470
-2.5206	<uzdah> vru^e	+0.0388
-2.8574	<uzdah> zadr`ati	-0.4310
-2.7775	<uzdah> zahla}enje	-0.0515
-3.0182	<uzdah> zale}u	+0.2724
-2.8574	<uzdah> zapadni	-0.3503
-2.7775	<uzdah> zapadnjak	-0.2349
-2.2443	<uzdah> zavoda	+1.6879
-3.2692	<uzdah> zemlje
-3.0182	<uzdah> zemlji	+0.0052
-3.0182	<uzdah> zemlju	+1.8656
-3.0182	<uzdah> {esnaest	+0.2516
-2.3609	<uzdah> {est	-0.2351
-1.6359	<uzdah> ~etiri	-0.4570
-3.4220	<uzdah> ~etrdeset
-2.8574	<uzdah> ~etrnaest	+0.0043
-2.3287	<uzdah> ~vora	+0.2941
-1.4880	<uzdah> ~vorova	+0.8025
-2.7842	^e <s>	+0.0989
-2.0449	^e ali	-0.0374
-2.6314	^e anticiklona
-2.7842	^e biometeorolo{ke
-1.3318	^e biometeorolo{ki	-0.3188
-1.0735	^e bit	+0.0350
-2.6314	^e biti
-2.1396	^e brzo	-0.0263
-1.8827	^e bura	-0.0063
-2.6314	^e cijeloj	+1.0652
-2.6314	^e ciklone	-0.1529
-2.6314	^e da	-0.0656
-2.3803	^e dalje	+0.4568
-1.9339	^e dana	+0.0781
-2.0449	^e danju	+0.1583
-2.1396	^e djelomice	-0.1880
-2.1396	^e dok	+0.2658
-1.7230	^e gdje	+0.0521
-2.1396	^e iako	-0.0120
-2.7842	^e imat	+0.0989
-1.4220	^e jadranu	-1.0204
-2.6314	^e jo{	-0.3991
-2.6314	^e ju`nom	+0.1029
-1.6065	^e jugo	-0.4063
-2.6314	^e jutra	-0.3744
-2.7842	^e ki{a
-2.7842	^e ki{e	-0.2572
-1.4752	^e koja	+0.0323
-1.7230	^e koje	-0.2686
-1.8827	^e koji	-0.0819
-2.7842	^e malo
-2.2196	^e mjestimice	-0.1937
-2.7842	^e more
-2.1396	^e no^i	+1.0664
-2.3803	^e no^u	-0.0758
-2.6314	^e oborine	-0.1244
-1.5582	^e okrenut	+0.0429
-1.5582	^e oslabit	+0.0864
-1.8370	^e oslabjet	+0.0302
-2.7842	^e osobito	-0.2562
-2.7842	^e ostalim	+0.0989
-2.3803	^e otvorenom	+1.5266
-2.0449	^e pa	-0.1209
-2.7842	^e petak	+0.5980
-1.7230	^e poja~at	+0.0177
-2.0449	^e polako	-0.0005
-2.7842	^e ponajprije
-2.7842	^e ponegdje	-0.2561
-1.5582	^e poslijepodne	-0.2938
-1.3456	^e postupno	-0.2831
-2.7842	^e povoljno	-0.1181
-2.6314	^e povremeno	-0.1529
-1.4390	^e prevladavat	+0.0608
-2.6314	^e pridonijet	-0.0798
-2.7842	^e prijepodne
-2.1396	^e prilike	+0.1662
-2.2196	^e pro{irit	-0.0082
-1.4752	^e puhat	-0.0192
-2.7842	^e razvedrit	+0.0989
-2.1396	^e samo	-0.1230
-2.3803	^e sjevernom	+1.3159
-2.3803	^e skrenut	+0.0990
-2.7842	^e slabit
-2.7842	^e smetnje	-0.1857
-2.7842	^e snijeg
-2.7842	^e sun~anih
-1.8370	^e sutra	-0.4105
-2.6314	^e tako	-0.2773
-2.6314	^e tegobe	-0.2334
-2.3803	^e temperatura	-0.0718
-2.6314	^e ujutro	-0.3340
-1.7578	^e unutra{njosti	+0.6178
-1.7578	^e uvjeti	-0.0053
-2.7842	^e uzrokovat	+0.0989
-1.7230	^e ve^ina	-0.4255
-2.0449	^e vjetar	-0.0627
-2.6314	^e vremenski	-0.3878
-2.7842	^e zadr`at
-2.7842	^e zadr`ati
-1.6328	^e zapuhat	-0.0237
-1.8827	^e zatim	+0.0009
-2.1396	^e zato	+0.2595
-2.6314	^e zraka	-0.0590
-2.0449	^e {to	-0.0888
-2.1396	^e ~vorova	-0.2509
-0.2715	`aliti mogli	-0.4035
-0.6660	a <s>	+0.0989
-2.4395	a <sil>
-0.8189	a <uzdah>	-0.1291
-2.4395	a bolje	+0.5222
-2.8513	a bolove	-0.3553
-1.5945	a bura	-0.4737
-2.2649	a burin	-0.0364
-2.4395	a dalmaciji	+0.9150
-3.0042	a dana	-0.2243
-2.4395	a deset	-0.2887
-3.0042	a devet	-0.1989
-2.6003	a devetnaest	-0.1510
-3.0042	a dijelu	-0.1988
-2.2649	a djelomice	-0.2413
-2.2649	a dobro	-1.5607
-2.2649	a dva	-0.2498
-2.6003	a dvanaest	-0.1847
-3.0042	a glavobolje
-2.3596	a glavobolju	+0.2322
-3.0042	a greben	+0.0632
-2.8513	a grmljavina	+0.3024
-2.6003	a grmljavinom	-0.2710
-3.0042	a hladna	-0.1716
-2.8513	a hladno^e	+0.3143
-3.0042	a istok	+0.0989
-2.8513	a istoku	-0.1598
-2.6003	a isto~ni	-0.0501
-3.0042	a isto~njak	-0.0532
-3.0042	a jadrana
-2.3596	a jadranom	+0.4723
-2.1027	a jadranu	+0.3380
-2.8513	a jaka
-2.3596	a jako	-0.0828
-2.6003	a jedan	-0.0623
-2.6003	a ju`ni	-0.4938
-1.9430	a jugo	-0.4390
-3.0042	a jugoisto~ni	+0.2353
-1.6767	a jugozapadni	-0.0486
-1.7782	a jugozapadnjak	-0.4920
-1.7145	a ki{a	+0.0897
-1.9430	a ki{om	+0.0516
-2.6003	a krajevima	-0.0015
-3.0042	a levant	+1.0163
-2.8513	a lici	-0.0269
-2.3596	a magla	-0.0582
-2.8513	a maglovito	-0.1306
-2.3596	a mjestimice	-0.1914
-2.1027	a naoblaka	+0.2692
-2.8513	a naoblakom	-0.0453
-2.6003	a naoblaku	-0.2113
-3.0042	a naobla~enje
-2.8513	a nervozu	-0.2773
-3.0042	a nesanica	-0.1269
-2.2649	a neverini	-0.1618
-2.8513	a ni`a	+0.2864
-3.0042	a ni{tice	-0.1438
-3.0042	a nula	-0.2184
-3.0042	a oblaci	+0.0989
-2.8513	a obla~nije	-0.1353
-1.5254	a obla~no	+0.0960
-2.8513	a oborina	-0.2043
-2.3596	a osam	-0.2245
-2.8513	a osamnaest	+0.0088
-2.8513	a oslabiti	-0.1383
-3.0042	a oslabjeti
-3.0042	a otvorenom	+1.8334
-2.0155	a pet	-0.5622
-3.0042	a petnaest	+0.0564
-3.0042	a pljusak	-0.2231
-2.8513	a popunjava	+0.0346
-3.0042	a poslijepodne	-0.2605
-2.8513	a povoljnih	-0.2516
-3.0042	a prestati	-0.2039
-2.2649	a prete`ito	-0.2856
-3.0042	a prete`no
-2.8513	a raspolo`ena	-0.0515
-2.8513	a razdra`ljivost	-0.0881
-2.8513	a razvedravanje	+0.0619
-2.6003	a sedam	-0.5307
-2.3596	a sjevernjak	-0.2627
-2.0569	a sjevernom	+1.6226
-1.8528	a sjeveroisto~ni	-0.3844
-2.0155	a sjeveroisto~njak	-0.0930
-2.8513	a sjeverozapadni
-1.9777	a sjeverozapadnjak	-0.4019
-2.8513	a sjeveru	-0.1797
-1.3579	a slab	-0.7042
-2.8513	a slabi	-0.0980
-2.2649	a snijeg	+0.0746
-2.1538	a snijega	+0.0743
-2.8513	a snijegom	+0.0657
-3.0042	a srednjem	+0.1606
-1.9430	a stupnja	+1.0637
-1.9430	a stupnjeva	+0.0289
-2.4395	a sumaglica	-0.1235
-1.7559	a sun~ano	-0.1873
-3.0042	a susnje`icom	+0.2838
-2.8513	a tlaka	-0.1086
-2.8513	a tlu	-0.0515
-2.8513	a tmurno	-0.1447
-2.3596	a trinaest	-0.6699
-3.0042	a udarima
-2.6003	a ujutro	+0.1245
-2.1538	a umjerena	-0.0246
-3.0042	a umjereno
-3.0042	a umjerenom	-0.0758
-3.0042	a unutra{njosti	-0.2469
-3.0042	a valovito
-3.0042	a vedro	-0.1336
-2.2649	a vjetar	-0.0981
-3.0042	a vremena	-0.2226
-3.0042	a zapadnjak	-0.1160
-3.0042	a zraka	-0.1774
-2.1538	a ~etiri	-0.1605
-2.6003	a ~vorova	-0.0817
-0.2483	ako je	-0.2557
-0.6990	ali <s>	+0.0989
-0.8612	ali <uzdah>
-1.6005	ali jadranu
-0.9559	ali razdoblja	-0.2093
-0.6990	ali sun~ano	+0.0947
-1.6005	ali toplije	-0.1719
-1.4476	ali vedro	+0.1272
-0.5848	ankica sutra	-0.5272
-0.3441	ankica vremenu	-0.6398
-0.9886	anticiklona se	-0.2202
-0.9886	anticiklona stanje	+0.0027
-0.9886	anticiklona zadr`ava	-0.0643
-1.2568	anticiklonalni <s>	-0.0515
-0.4210	anticiklonalni ja~a	-0.3006
-1.4096	anticiklonalni oja~ao	+0.0989
-0.8450	anticiklonalni pru`a	-0.2128
-1.4096	anticiklonalni stanje	+0.0027
-1.2568	anticiklonalni zadr`ava	-0.2148
-1.2025	anticiklonalno <s>	+0.0989
-1.2025	anticiklonalno <uzdah>	-0.2487
-1.2025	anticiklonalno ja~a	-0.2547
-1.2025	anticiklonalno postojano	+0.0989
-1.2025	anticiklonalno prostrano
-0.6379	anticiklonalno zadr`ava	-0.4045
-0.2715	anticiklonalnog ja~anje	+0.0489
-0.2071	anticiklone greben	-0.4624
-1.4096	anticiklone sredozemne
-0.8450	anticiklone stabilne	+0.0927
-0.5493	astmati~ara <s>	+0.0989
-0.8358	astmati~are a	-0.0506
-0.9886	astmati~are i	-0.2620
-0.8358	astmati~are posebice	-0.1389
-0.9886	astmati~are upozoravamo	+0.0989
-0.2730	astmati~ari te	-0.2459
-0.9705	astmati~ari upozoravaju	-0.0798
-0.2483	atlantska duboka
-0.2483	atmosferskog povi{enog	-2.0163
-0.4244	baranji i	-0.2571
-0.5493	barem <s>	+0.0989
-0.5493	barem posvuda	-0.2333
-1.8503	bez drugdje
-0.1107	bez temperatura	-0.5926
-0.9488	bez temperature	-0.2649
-1.6975	bez zraka	+0.1973
-2.0871	bi bolesnici	+0.4780
-1.1399	bi meteoropati	+0.1078
-1.6832	bi mnogi	-0.2052
-1.9343	bi mogla	-0.2773
-0.7597	bi mogli	-0.1574
-1.9343	bi moglo	-0.3272
-0.8611	bi ne	-0.1718
-1.6832	bi neki	-0.0447
-2.0871	bi ne{to
-2.0871	bi osjetljivi
-1.1856	bi pa	-0.0232
-2.0871	bi pote{ko^e	-0.2021
-1.9343	bi reumati~ari	-0.3440
-1.9343	bi samo	-0.4066
-2.0871	bi stoga	+0.0989
-2.0871	bi svi	-0.0570
-1.9343	bi tako	-0.0656
-1.5225	bi tako}er	-0.0274
-1.9343	bi tegobe	-0.2334
-1.9343	bi toga	+0.0969
-1.5225	bi ve^ina	-0.1902
-1.0607	bi zato	-0.6205
-1.5225	bi {to	-0.1210
-0.4244	biokova ispod	+0.0989
-0.2483	biokovu na
-0.0066	biometeorolo{ka <s>	+0.0989
-0.5814	biometeorolo{ke ^e	-0.9977
-1.2260	biometeorolo{ke na	-0.2420
-1.0732	biometeorolo{ke nepovoljne	-0.3153
-1.2260	biometeorolo{ke povoljne	-0.1217
-1.0732	biometeorolo{ke sutra	+0.1878
-1.2911	biometeorolo{ki <s>	-0.0557
-1.8557	biometeorolo{ki <sil>
-1.7029	biometeorolo{ki <uzdah>	-0.1391
-0.6532	biometeorolo{ki ^e	-0.6906
-0.9542	biometeorolo{ki ciklone	-0.0872
-1.8557	biometeorolo{ki donijeti	+0.0706
-1.2911	biometeorolo{ki jadranu	+0.0961
-1.0054	biometeorolo{ki nepovoljan	-0.1870
-1.8557	biometeorolo{ki nepovoljni	-0.2402
-1.4518	biometeorolo{ki povoljni	-0.4556
-1.2911	biometeorolo{ki sutra	+0.1837
-1.7029	biometeorolo{ki unutra{njosti	+0.4674
-1.8557	biometeorolo{ki utjecaja	-0.2303
-1.0054	biometeorolo{ki zemlje	-0.3266
-1.1561	biometeorolo{kih nepovoljnih	+0.0489
-1.3090	biometeorolo{kih pogodnih
-0.1313	biometeorolo{kih povoljnih	+0.2167
-0.6462	biometeorolo{kog povoljnog	+0.0989
-0.4934	biometeorolo{kog povoljnoga	+0.0666
-1.5578	bit <s>	-0.0515
-1.5578	bit bolesnika	+0.0188
-1.7107	bit dalmaciji	-0.2570
-1.7107	bit ki{e
-1.7107	bit oborina
-1.7107	bit oslabjeti	+0.1746
-1.7107	bit poslijepodne	-0.0580
-1.0661	bit razdoblja	-0.2093
-1.3068	bit sunca	-0.0289
-1.7107	bit sutra	+0.3383
-1.7107	bit temperatura	-0.2289
-1.7107	bit ujutro	-0.0261
-1.5578	bit uvjeti	-0.1974
-0.8092	bit vremena	-0.4079
-1.1460	bit zemlje	-0.1948
-2.2857	biti <s>	+0.0989
-0.8333	biti ^e	-0.4727
-1.6411	biti bi	-0.9179
-1.0832	biti dalje	+0.7635
-2.2857	biti dobro	+0.1772
-2.2857	biti glavobolju	-0.1301
-1.3385	biti i	-0.3621
-2.2857	biti jo{	-0.2374
-1.4354	biti krajeva	+1.0500
-1.7211	biti ljudi	-0.3725
-2.1329	biti maglom	+0.0397
-1.5464	biti mjestimice	-0.2017
-1.3385	biti mo`e	+0.0181
-2.1329	biti mogla	-0.2773
-1.6411	biti mogle	-0.0022
-1.3385	biti mogli	-0.2229
-1.5464	biti ponegdje	-0.3234
-2.1329	biti poslijepodne	-0.3970
-2.2857	biti povremeno	-0.2439
-2.2857	biti razdoblja	-0.2520
-2.1329	biti slabije	-0.3878
-2.2857	biti sutra	-0.2612
-2.1329	biti te	-0.1542
-2.2857	biti trebalo	+0.2838
-2.2857	biti unutra{njosti	+0.6178
-0.9582	biti utjecaj	-0.6480
-1.0162	biti uvjeti	+0.3098
-2.1329	biti vremenom	+0.6482
-1.7211	biti zemlji	+0.1573
-0.2715	blizini u	-0.1559
-0.2483	blizu sredi{tem	+0.0989
-0.0872	bolesnici kroni~ni	-0.1225
-0.7725	bolesnici sr~ani	+1.4069
-0.2009	bolesnika kroni~nih	+0.1185
-1.2258	bolesnika plu^nih	-0.2773
-1.2258	bolesnika reumatskih	-0.0798
-0.9747	bolesnika sr~anih	-0.1915
-1.0612	bolesnike kroni~ne	+0.0989
-0.0726	bolesnike sr~ane	+0.0985
-0.2483	bolestima krvo`ilnim
-0.0531	bolje osje^ati	-0.2437
-0.2715	bolji ne{to	-0.3720
-0.2483	bolova te
-0.9083	bolove imati	-0.2641
-1.0612	bolove na	-0.2620
-0.4966	bolove reumati~ari	-0.2114
-0.1608	bolovi reumati~ara	-0.2501
-0.2483	bolovima s	-0.2612
-0.2483	boravak izbjegavaju
-1.2483	botovo <s>	+0.0989
-0.0706	botovo drava	+0.0033
-0.2483	brod slavonski	-0.0814
-0.7923	brzo <uzdah>
-0.7923	brzo ^e	-0.2564
-0.7923	brzo bura
-0.0223	budimpe{ta dunav	-0.2575
-1.3766	bura <s>	+0.0989
-2.6249	bura <sil>	-0.2361
-2.2210	bura <uzdah>	-0.2418
-2.2210	bura dana	-0.4522
-1.6776	bura dijelu	-0.9367
-1.4735	bura i	-0.5489
-2.4720	bura ili	-0.3129
-1.5637	bura jadrana	-0.4716
-1.2304	bura jadranu	-0.2771
-0.5284	bura jaka	+0.1295
-1.7234	bura kanalu	+1.4556
-2.6249	bura koji	-0.2323
-2.6249	bura no^as	-0.1857
-1.4735	bura no^i	-0.4252
-2.2210	bura obale	-0.2078
-1.4223	bura obalu	+1.2954
-1.3159	bura olujna	+0.0414
-1.6362	bura poja~ana	-0.4920
-2.4720	bura ponovno	-0.3797
-2.6249	bura sati	+0.9163
-2.2210	bura slaba	-0.2620
-2.6249	bura ujutro	-0.0261
-0.5807	bura umjerena	-0.7224
-0.0152	bure udari	+0.1011
-1.7861	burin i	-0.2586
-0.3617	burin ili	-0.1624
-1.3822	burin na	-0.1103
-0.6347	burin obalu	+1.2954
-1.3822	burin ponegdje	-0.2376
-1.3822	burin slab	-0.2645
-1.1415	burin umjeren	-0.3078
-0.9405	burom jakom	+2.0219
-0.4488	burom no{en	-0.6398
-1.0934	burom s	-0.2569
-0.9405	burom umjerenom	+0.2732
-1.2996	buru i	-0.1559
-0.3291	buru na	-0.3906
-1.2996	buru olujnu	-0.0798
-1.4524	buru te	-0.2593
-0.7131	buru umjerenu	+0.0675
-1.4524	buru uz	-0.2607
-0.2483	centimetara dvadeset	-0.1789
-0.0307	centra meteorolo{kog	+0.0003
-1.1978	centra meteorolo{koga	+0.0983
-0.0147	cijeloj u	-0.2199
-0.2483	cijelom na	-0.2583
-0.2483	cijelu na	-0.6780
-0.8325	ciklona <s>	+0.0989
-1.1352	ciklona <uzdah>	-0.1492
-1.6269	ciklona a
-1.7798	ciklona atlantska	+0.0989
-1.7798	ciklona duboka	-0.1716
-1.0405	ciklona nova	+0.0495
-0.7911	ciklona plitka	+0.1108
-1.2151	ciklona prostrana	-0.0967
-1.1352	ciklona se	-0.9914
-1.0405	ciklona sredozemna	+0.0284
-1.0405	ciklona stanje	-0.0112
-1.7798	ciklona sutra	+0.3383
-1.0934	ciklonalno <s>	+0.0989
-0.9405	ciklonalno <uzdah>	-0.1427
-0.6895	ciklonalno plitko	+0.0236
-0.9405	ciklonalno se	-0.1143
-0.4934	ciklonalnog prostranog	-0.0798
-0.6462	ciklonalnog zbog	-0.2196
-1.0954	ciklone odmicanja	-0.0798
-1.2483	ciklone pribli`avanja	+0.6769
-1.0954	ciklone utjecaja	-0.2824
-0.3468	ciklone zbog	-0.2077
-0.2483	cjelodnevne zbog	-0.2588
-0.2483	cjelodnevnom s	-0.2608
-0.8221	crnac <s>	-0.2078
-0.1326	crnac sava	+0.2668
-0.7254	da time	+0.0989
-0.0430	dalje i	-0.5111
-1.6715	dalje se	-0.2340
-1.6715	dalje unutra{njost	+0.0706
-0.8358	dalmacije jugu	+0.0881
-0.2493	dalmacije unutra{njosti	+0.4005
-0.7533	dalmaciji i	-0.7357
-1.9279	dalmaciji ju`noj	-0.0450
-2.0808	dalmaciji sjevernoj	+0.0989
-0.1082	dalmaciji u	-0.2345
-0.0016	dalmatinskome i	-0.9947
-0.3826	dan dana{nji	-0.3099
-0.9472	dan iskoristite
-1.0792	dana dijelu	-1.2159
-1.5002	dana dio	+0.2431
-2.4888	dana je	-0.2576
-0.7707	dana kraja	+0.0989
-0.9183	dana krajem	-0.0113
-1.2405	dana kraju	+1.0599
-0.6278	dana potkraj	+0.0308
-1.7495	dana po~etkom	-0.0573
-2.0849	dana proteklih	-0.1544
-1.8443	dana sredine	+0.0695
-2.4888	dana sredini	+0.0989
-1.0231	dana sredinom	+0.0367
-0.8514	dana tijekom	-0.3925
-1.2594	danas jo{	-0.1039
-0.6021	danas nego	-0.0765
-0.3181	danas vremenu	+0.0989
-1.0986	danas za	+0.2528
-0.2483	dana{njega od	-0.2617
-0.1648	dana{nji <s>	+0.0989
-0.6614	dana{nji za	-0.4144
-0.3965	dane prethodne	-0.0798
-0.7733	danju <s>	+0.0989
-1.8966	danju <sil>
-1.7438	danju ^e	-0.1479
-0.4723	danju a	-0.2444
-1.1573	danju bura	+0.2252
-0.9080	danju burin	-0.0143
-1.4927	danju jadranu	-0.1743
-1.4927	danju sutra	-0.2486
-1.8966	danju tiho	-0.2544
-1.7438	danju zatim	-0.0324
-0.1454	davor sutra	-0.5272
-0.4244	depresijsko plitko
-2.1656	deset bura
-0.5928	deset do	-1.6483
-2.5695	deset drugdje	-0.2547
-1.6680	deset i	-0.3080
-1.1037	deset izme}u	-0.2819
-1.9249	deset jugo	-0.3277
-1.3669	deset minus	-0.8615
-1.6680	deset na	-0.3192
-2.5695	deset nula	-0.1971
-0.8898	deset od	-0.2186
-2.5695	deset sjeverozapadnjak
-2.4166	deset sto	-0.3917
-0.4154	deset vidljivost	-0.7476
-2.0048	deset vjetar	-0.5211
-0.6851	devedeset dvjesto	+0.0671
-1.4244	devedeset minus
-1.4244	devedeset radenci	+0.5617
-0.8597	devedeset sto	-0.0094
-1.2715	devedeset tri	-0.4078
-1.0205	devedeset ~etiristo	-0.0721
-2.1248	devet devedeset
-1.8738	devet devet
-0.8680	devet do	-0.6826
-1.3762	devet dva	-0.1707
-1.1843	devet dvadeset	+0.2592
-1.0751	devet i	-0.5267
-1.6331	devet izme}u	-0.0187
-2.2777	devet jadranu	+0.1325
-1.2890	devet jedan	-0.0886
-2.2777	devet metkovi^	+0.0989
-1.1263	devet minus	-0.0498
-2.1248	devet nula
-0.7506	devet od	-0.5870
-1.6331	devet osam
-1.8738	devet osamdeset	-0.0960
-2.1248	devet pedeset
-1.8738	devet pet	-0.1044
-2.1248	devet radenci	+0.6676
-2.2777	devet sedam
-2.2777	devet sedamdeset
-1.5384	devet tri	-0.0517
-1.7130	devet trideset	-0.0663
-2.1248	devet {est
-2.1248	devet {ezdeset
-1.4273	devet ~etiri
-1.8738	devet ~etrdeset
-0.6284	devetnaest do	-0.6238
-0.9294	devetnaest i	-0.4871
-1.1352	devetnaest izme}u	-0.2275
-0.3010	devetnaest od	-0.0553
-0.4618	dijela i	-0.4379
-0.8736	dijela ostalog	-0.0798
-1.0264	dijela ve^eg	+0.0989
-1.1176	dijelu drugom	+0.0989
-2.4963	dijelu drugome	+0.0989
-0.5534	dijelu i	-1.1318
-1.2268	dijelu ju`nom	-0.4548
-2.0924	dijelu ju`nome	+0.3850
-1.1018	dijelu na	-0.9293
-1.4029	dijelu ostalom	+0.0491
-0.9469	dijelu otvorenom	+1.8334
-1.9316	dijelu preostalom	+0.0927
-1.7570	dijelu prvom	-1.0610
-0.8678	dijelu sjevernom	+0.2035
-1.5948	dijelu sjevernome	+0.0989
-2.4963	dijelu te	-0.2601
-0.9155	dijelu ve^em	-0.0792
-1.1514	dio i	-0.2425
-1.1514	dio ju`ni	-0.2543
-0.1627	dio ve^i	+0.0366
-0.2483	divljeg i	-0.2620
-0.9308	djelomice <s>	+0.0989
-1.7529	djelomice <sil>	-0.0964
-1.2095	djelomice <uzdah>	-0.3282
-1.7529	djelomice barem	+0.0990
-2.0039	djelomice dalmaciji	+0.5003
-2.1568	djelomice drugdje
-1.5122	djelomice i	-0.1935
-1.5921	djelomice jadrana	-0.0782
-0.7624	djelomice jadranu	-0.0474
-2.1568	djelomice nedjelju	-0.1698
-2.1568	djelomice petak	+0.5980
-2.1568	djelomice podru~ju	+0.0235
-2.1568	djelomice ponedjeljak	+1.1537
-1.2553	djelomice poslijepodne	-0.1049
-2.1568	djelomice posvuda	-0.1656
-2.1568	djelomice predjelima	-0.2544
-2.1568	djelomice prijepodne	-0.2545
-2.1568	djelomice srijedu	-0.0103
-1.1681	djelomice sutra	-0.3522
-2.1568	djelomice tjedna
-0.8478	djelomice unutra{njosti	-0.3675
-1.5122	djelomice zatim	-0.0488
-1.2025	djelomi~no dana
-1.0497	djelomi~no i	-0.1488
-1.2025	djelomi~no jadrana	-0.0506
-1.2025	djelomi~no nave~er	-0.2561
-1.2025	djelomi~no podru~jima	-0.2170
-0.7486	djelovati lo{e	-0.2773
-0.4976	djelovati poticajno	-0.0229
-0.9015	djelovati povoljno
-1.1043	dnevna <s>	+0.0989
-1.3126	dnevna <uzdah>	-0.1287
-1.0286	dnevna a	-0.2409
-0.1410	dnevna najvi{a	-0.1163
-1.6345	dnevna stupnjeva	-0.0664
-0.7486	dnevne <s>	-0.0515
-0.4976	dnevne najvi{e	+0.0335
-2.3420	do <s>	+0.0989
-2.5850	do <sil>	-0.0509
-2.4089	do <uzdah>	-0.0648
-2.6961	do ^e	-0.2929
-2.3420	do a	+0.0292
-3.2825	do ali
-3.2825	do bura	-0.0239
-2.8707	do dalmaciji	+0.2398
-1.0682	do deset	-0.9459
-1.7639	do devet	-1.0533
-2.0902	do devetnaest	+0.0390
-3.0315	do dijelu	-0.5056
-1.0649	do dva	-1.0505
-1.8861	do dvadeset	-0.8829
-1.7478	do dvanaest	-0.8153
-3.4354	do gorju	+0.7792
-2.8707	do i	-0.4261
-2.4467	do izgledi	-0.1708
-3.0315	do jadrana	-0.0976
-2.2840	do jadranu	-0.5217
-1.2786	do jedan	-0.7628
-1.8971	do jedanaest	-2.4856
-3.4354	do jedna	-0.0570
-3.4354	do jo{	-0.2591
-3.4354	do jugu	-0.2238
-2.4881	do kanalu	+1.4556
-3.4354	do krajevima	-0.1407
-2.7908	do kratkotrajno	-0.3205
-3.4354	do lici	+0.1236
-1.3268	do malo	-0.7232
-2.2094	do malom	+0.0989
-2.2840	do malu	+0.0989
-2.3420	do mjestimice	-0.2968
-2.4881	do moru	-0.0122
-3.4354	do naoblaku	-0.0317
-2.6961	do ni{tice	-1.5229
-3.0315	do no^i	+0.1637
-1.9696	do nula	-1.3444
-3.0315	do nule	-0.2187
-3.4354	do obalu	+1.2954
-1.3742	do osam	-0.6214
-2.1871	do osamnaest	-0.1295
-3.4354	do otvorenom	+1.8334
-1.2786	do pet	-0.6168
-1.7323	do petnaest	-0.5605
-3.4354	do poja~ana	-0.2355
-3.0315	do poja~ano	-0.0827
-2.0568	do ponegdje	-0.2323
-3.0315	do poslijepodne	-0.2492
-2.7908	do promjenjivo	-0.1792
-3.4354	do promjenljivo
-1.6369	do sedam	-0.8598
-2.1264	do sedamnaest	-0.7396
-2.0257	do sjevernom	+1.6226
-3.4354	do sjeveru	+0.0533
-1.2950	do slab	-0.6050
-1.6957	do slaba	-0.3247
-1.9566	do slabo	-0.2146
-2.5850	do slabom	+0.6918
-2.5339	do slabu	-0.1488
-3.4354	do slavoniji
-3.4354	do sparno	+0.5013
-3.2825	do sutra	-0.1552
-1.3268	do tri	-1.0170
-1.6131	do trideset	-0.8708
-1.8861	do trinaest	-0.8820
-2.0732	do umjeren	-0.1333
-1.7399	do umjerena	-0.3611
-1.4350	do umjereno	-0.5877
-3.4354	do valovito
-1.8069	do vremena	-1.3707
-2.2329	do vrijeme	-0.5583
-3.0315	do zapadni	-0.0035
-2.0902	do {esnaest	-1.0189
-1.3742	do {est	-0.6040
-1.1340	do ~etiri	-0.7436
-2.8707	do ~etrdeset	+0.2604
-1.9696	do ~etrnaest	-0.6735
-0.2483	doba ovo	+0.0989
-0.2715	dobar na	-0.4113
-0.2715	dobre biti	-0.1539
-0.5643	dobro biti	-0.2824
-0.1963	dobro osje^ati	-0.4023
-0.6395	dobrog biti	-0.1530
-0.6395	dobrog nakon	-0.1133
-0.2715	dobroga i	-0.4124
-0.2715	dobrom ^e	-0.4115
-0.2483	dodatne izbjegavati	+0.2150
-0.1110	dok <s>	-1.6389
-0.7634	dolina <s>	+0.0989
-0.8603	dolina <uzdah>	-1.0657
-1.7339	dolina nova	-0.1999
-0.6385	dolina plitka	+0.1525
-1.0364	dolina pribli`ava	-0.0314
-1.4829	dolina pribli`ila	+0.0990
-1.4829	dolina primi~e	-0.3151
-1.8868	dolina prostrana
-1.0364	dolina se	-0.2474
-0.8981	dolina stanje	-0.3607
-0.2483	dolinu pru`a	-0.2256
-0.2715	donijeti ^e	-0.4115
-0.8221	donji <s>	-0.2078
-0.1326	donji drava	-0.2499
-0.2483	donositi mo`e	-0.2513
-0.2483	dr`avnog split	+0.0354
-0.2483	dr`avnoga split	+1.5795
-0.2715	dragojlovi^ dragoslav	+0.0489
-0.4244	dragoslav vremenu	+0.0989
-0.2083	drava <s>	+0.0989
-1.3427	drava <sil>	-0.2512
-0.8451	drava <uzdah>	-0.1786
-1.7466	drava devet
-1.7466	drava osam
-0.4281	drugdje <s>	+0.0989
-1.7733	drugdje <sil>
-0.9230	drugdje <uzdah>	-0.1268
-0.9230	drugdje a	-0.1763
-1.7733	drugdje bura	-0.1096
-1.7733	drugdje bure	+1.2014
-1.7733	drugdje sjeverozapadnjak	-0.2583
-1.7733	drugdje tiho	-0.1719
-1.7733	drugdje vedro
-1.7733	drugdje {esnaest	+0.2571
-1.7733	drugdje ~vorova	-0.2322
-0.2483	drugom u	-0.1522
-0.2483	drugome u	-0.2505
-0.2483	drvar dunja	-0.2828
-0.3965	drve^a pelud	-0.1843
-1.0161	du` <s>	-0.0557
-1.1768	du` <uzdah>
-0.5543	du` a	-0.1469
-1.5807	du` dana	-0.2364
-1.5807	du` no^i	+0.4705
-1.5807	du` no^u
-1.5807	du` ponegdje	-0.2612
-1.5807	du` sjeverozapadni	-0.1016
-1.1768	du` uglavnom	-0.1006
-1.1768	du` ujutro	-0.3328
-0.5493	du`e i	-0.2568
-0.5493	du`e mo`e	-0.2211
-0.7254	duboka i	-0.2618
-0.7254	duboka stanje
-0.2483	dubrova~kome na	-0.1981
-0.2715	dugotrajnom s
-0.1454	dugotrajnu uz	-0.2415
-0.2483	dulja <s>	+0.0989
-0.0531	dulje i	-0.4944
-0.2483	duljih ^e	-0.2238
-0.4607	dunav <s>	+0.0989
-1.0986	dunav <uzdah>
-1.6633	dunav osam
-0.6746	dunav rijeka	-0.0459
-1.6633	dunav tri
-1.5104	dunav vodostaj	+0.1517
-0.5580	dunja je	-0.9807
-1.0497	dunja sutra	-0.3709
-0.4632	dunja vremenu	-1.6389
-2.6006	dva <sil>
-2.7534	dva brod	+0.0989
-2.6006	dva budimpe{ta	+0.8880
-2.1089	dva devedeset	-0.0223
-2.1089	dva devet	-0.1763
-0.7891	dva do	-1.4096
-2.3495	dva dva
-0.9673	dva dvadeset	-0.1658
-1.4638	dva i	-0.5017
-2.1888	dva ilok	+0.2500
-2.6006	dva izme}u	+0.0058
-2.7534	dva jasenovac	+0.3177
-1.8062	dva jedan	+0.0194
-2.3495	dva kanalu	+1.1489
-2.6006	dva kostajnica	-0.0515
-0.8519	dva minus	-0.5216
-2.6006	dva mjestimice
-0.6922	dva more	-0.3752
-1.8519	dva na	-0.2369
-2.1089	dva nula	-0.1597
-1.3590	dva od	-0.2309
-2.1089	dva osam	-0.0855
-2.6006	dva osamdeset	-0.1406
-1.9031	dva otvorenom	+1.8334
-2.1089	dva pedeset	-0.0786
-2.3495	dva pet
-2.1888	dva plus	+0.4021
-1.4445	dva ponegdje	-0.5274
-2.7534	dva po~etku	-0.0530
-2.1888	dva sedam	-0.1377
-2.1089	dva sedamdeset	-0.1219
-2.3495	dva tri	-0.1068
-1.7270	dva trideset	-0.7976
-2.6006	dva tristo	-0.1306
-1.8519	dva vukovar	-0.2342
-2.6006	dva {amac	-0.0515
-2.1888	dva {est
-2.7534	dva {ezdeset
-1.8519	dva ~etiri	-0.0918
-2.1089	dva ~etrdeset	-0.1706
-0.2056	dvadeset do	-1.0823
-2.9072	dvadeset dvjesto
-1.1747	dvadeset i	-0.7720
-1.3265	dvadeset izme}u	-0.0424
-2.5034	dvadeset jadranu	-0.2251
-2.5034	dvadeset kanalu	+1.1489
-2.7544	dvadeset minus	-0.1064
-1.7839	dvadeset mjestimice	-0.3041
-0.7586	dvadeset od	-0.4218
-2.9072	dvadeset oko	-0.2402
-2.5034	dvadeset ponegdje	-0.1110
-2.9072	dvadeset senja	+0.2838
-2.0569	dvadeset sto	+0.0584
-2.5034	dvadeset tristo
-1.6378	dvadeset vidljivost	+0.2185
-2.9072	dvadeset {esto	-0.1857
-2.7122	dvanaest bura	-0.2538
-0.8406	dvanaest do	-1.0693
-1.7235	dvanaest i	-0.9757
-2.0676	dvanaest izme}u	-0.2190
-2.7122	dvanaest jugo
-2.7122	dvanaest levant	+1.0163
-2.1475	dvanaest minus	-0.0529
-1.6857	dvanaest na	-0.3121
-2.5593	dvanaest no^i	+0.3200
-1.3178	dvanaest od	-0.1007
-0.4406	dvanaest prvih	+0.0989
-0.5244	dvanaest slijede^ih	-0.0229
-1.2086	dvanaest sljede^ih	+0.0989
-2.5593	dvanaest tramontana	+0.0065
-1.2992	dvjesto devet
-1.5503	dvjesto dva	-0.1534
-1.7031	dvjesto ilok	+0.3177
-1.7031	dvjesto jedan
-0.4337	dvjesto minus	-0.2744
-1.7031	dvjesto nula
-1.5503	dvjesto osam
-1.2992	dvjesto tri
-1.2992	dvjesto vukovar	+0.1512
-1.5503	dvjesto {est	-0.1505
-1.0586	dvjesto ~etiri	-0.0794
-0.7923	europe sjeverozapadne	+0.0989
-0.1478	europe zapadne	-0.4609
-0.2483	europskim nad	-0.2210
-0.1608	europskog s	-0.0659
-0.2715	fronta hladna	-0.2773
-0.6037	frontalni a	-0.1930
-0.5090	frontalni i	-0.3261
-1.0954	frontalni oslabljen	-0.0798
-1.0954	frontalni oslabljeni	+0.0489
-0.9110	frontalnim oslabljenim	+0.0989
-0.3780	frontalnim s	-1.5062
-0.1622	fronte hladne	-0.0573
-0.9015	fronte pribli`avanja	+0.6769
-0.0512	frontom hladnom	+0.0948
-0.9839	gdje <s>	-0.6398
-1.4756	gdje <uzdah>
-1.0639	gdje dalmaciji	+0.9150
-1.6285	gdje hrvatskoj	-0.0965
-0.6398	gdje jadranu	-0.5249
-1.4756	gdje kotaru	+0.0939
-1.6285	gdje krajevima	-0.1407
-1.2246	gdje lici	-0.1831
-1.2246	gdje moru	-0.5472
-1.6285	gdje predjelima
-0.1454	glasi sutra	+0.0315
-0.2483	glavninom istok	+0.0989
-0.7486	glavobolja mogu^a	-0.3106
-0.7486	glavobolja mogu^e	-0.1449
-0.7486	glavobolja te	-0.4052
-1.3452	glavobolje imati	-0.1137
-0.0362	glavobolje od	-0.2533
-0.5814	glavobolju imati	-0.0780
-1.0732	glavobolju na	-0.4123
-0.3245	glavobolju osje^ati	-0.4493
-0.2483	godine doba	+0.0989
-1.3629	gorju najvi{em	-0.1999
-0.0414	gorju u	-0.2562
-1.7668	gorju vi{em	+0.0989
-0.2483	gorski jadran	-0.2446
-0.8893	gorskim i	-0.1764
-0.3842	gorskim u	-0.2026
-0.3965	gorskog i	-0.1561
-0.4966	gorskoj i	-0.2601
-0.4966	gorskoj u	-0.2401
-0.7027	gorskom i	-1.3556
-0.1054	gorskom u	-0.3348
-1.3385	gorskome i	-0.1501
-0.0389	gorskome u	-0.2412
-1.1777	gotovo <s>	+0.0989
-0.4384	gotovo i	-0.3340
-1.0249	gotovo jadranu	-0.1478
-1.1777	gotovo no^i	-0.1934
-0.1454	granici na	-0.5683
-0.6990	greben <s>	+0.0989
-1.6876	greben <uzdah>	-0.2487
-0.2780	greben anticiklonalni	+0.0212
-1.5348	greben ja~a	-0.0544
-1.5348	greben pru`a
-1.2837	greben stanje	-0.3040
-0.2715	grebena anticiklonalnog	-0.0798
-0.0930	grmljavina i	-1.2915
-1.4488	grmljavina mjestimice	-0.1933
-2.0934	grmljavina mjestimi~na	+0.0989
-0.9700	grmljavina mogu^a	-0.3425
-2.0934	grmljavina pljuskovi	-0.2439
-2.0934	grmljavina te	-0.2593
-0.0934	grmljavine i	-0.8238
-0.8740	grmljavine mogu^nost	-0.1232
-0.3042	grmljavinom i	-1.7800
-2.0903	grmljavinom mjestimice	-0.2562
-0.3169	grmljavinom s	-0.9655
-0.3369	grmljavinu i	-0.2636
-0.9015	grmljavinu uz	-0.2587
-0.1358	hidrometeorolo{kog dr`avnog	+0.0989
-0.5803	hidrometeorolo{kog dr`avnoga	+0.0989
-0.5726	hladna oslabljena	+0.0489
-0.7254	hladna razmjerno	-0.2414
-0.6395	hladne pribli`avanja	+0.5264
-0.6395	hladne utjecaja	-0.2824
-1.2483	hladnije <sil>	-0.2573
-1.2483	hladnije i	-0.2547
-1.2483	hladnije jo{	-0.2346
-0.8444	hladnije malo	-0.0494
-1.2483	hladnije osjetno	-0.2281
-1.2483	hladnije postupno	-0.2574
-0.8444	hladnije te	-0.2542
-0.7877	hladno <s>	-1.6389
-1.3742	hladno dalje	+0.6131
-0.5006	hladno i	-0.3094
-1.5270	hladno manje	-0.2503
-1.1231	hladno razmjerno	-0.0909
-1.5270	hladno tjedna	-0.0805
-0.8825	hladno vrlo	-0.0700
-1.1514	hladno^e i	-0.2619
-0.0902	hladno^e od	-0.7564
-0.2483	hladno^u na	-0.2610
-0.2483	hladnog zbog	-0.1932
-0.2483	hladnoga zbog	-0.2588
-0.8503	hladnom oslabljenom	+0.0989
-0.2857	hladnom s	-0.3666
-0.0223	hrvatska una	+0.0991
-0.4988	hrvatskoj gorskoj	+0.0746
-0.2704	hrvatskoj isto~noj	-0.0109
-1.5600	hrvatskoj ju`noj	-0.0939
-1.1561	hrvatskoj sredi{njoj	+0.3701
-0.4244	hrvatskom u
-0.6395	hrvatsku cijelu	-0.0515
-0.3885	hrvatsku za	+0.1007
-1.7767	i <s>	+0.0989
-2.6590	i <sil>	-0.1418
-2.3316	i <uzdah>	-0.1461
-2.5207	i ^e	-0.1983
-3.1054	i ali
-2.6078	i astmati~are	-0.0915
-3.1054	i astmati~ari	-0.2184
-3.5093	i astmati~arima
-3.5093	i baranji
-2.3860	i biti	-0.6423
-3.5093	i bolesnike	+0.5505
-1.7295	i bura	-0.4808
-3.5093	i bure	+1.2014
-3.3565	i burom	-0.1197
-2.1471	i dalmaciji	-0.7029
-1.7697	i dana	-0.4817
-2.1641	i danas	+0.0225
-2.8647	i danju	+0.0917
-2.0306	i deset	-1.1406
-3.1054	i devedeset	-0.0470
-2.6078	i devet	-0.4891
-2.9447	i devetnaest	-0.5693
-2.8647	i dijelu	-0.3177
-3.5093	i dobro	+0.1772
-2.7700	i dolina	-0.2102
-3.5093	i donositi	+0.0989
-2.3068	i dva	-0.6174
-1.6700	i dvadeset	+0.0992
-2.8647	i dvanaest	-0.9971
-2.6078	i glavobolja	-0.0798
-2.7700	i glavobolje	-0.9030
-2.7700	i glavobolju	-0.0480
-2.2833	i gorju	+0.0829
-3.1054	i gorskim	-0.3376
-3.1054	i grmljavina	-0.1081
-3.1054	i grmljavine	+0.1445
-3.3565	i grmljavinom	-0.1268
-3.5093	i grmljavinu	-0.2039
-3.5093	i hladno
-3.5093	i hladno^e	+0.4648
-3.5093	i hladnog	+0.0989
-3.5093	i hladnoga	+0.0989
-3.5093	i hrasta
-2.6590	i hrvatskoj	+0.0123
-2.2833	i imati	-0.1784
-2.3068	i isto~ni	-0.3590
-2.5621	i isto~nim	+0.1746
-2.0997	i isto~njak	-0.1696
-3.5093	i istre	+0.2778
-3.5093	i jadran	-0.2446
-2.3860	i jadrana	+0.1068
-2.8647	i jadranom	-0.1733
-1.6590	i jadranu	-0.4233
-2.5621	i jaka	-0.2059
-2.8647	i jako	-0.0828
-3.5093	i ja~a	-0.2432
-2.8647	i je	-0.1491
-2.2196	i jedan	-0.5929
-2.4829	i jedanaest	-1.0296
-1.8900	i ju`ni	-0.4323
-2.4481	i ju`nog	-0.2440
-2.1149	i ju`nom	+0.2534
-2.8647	i juga	+1.0348
-1.7986	i jugo	-0.3957
-3.3565	i jugoisto~ni	-0.3797
-1.9600	i jugozapadni	-0.3880
-2.4829	i jugozapadnjak	-0.0698
-3.5093	i jugozapadnog	-0.2039
-3.5093	i jugu	+0.2385
-3.5093	i jutra
-3.5093	i jutro	+0.1059
-2.2833	i kanalu	+1.4556
-2.9447	i kao	+0.1678
-1.8378	i ki{a	+0.0058
-2.3579	i ki{e	-0.0684
-2.0306	i ki{om	-0.2743
-3.5093	i ki{u
-3.3565	i koncentracije	-0.3366
-3.5093	i koncentraciju
-3.5093	i kopnom	+0.0989
-3.5093	i kotar	+0.0989
-1.6326	i kotaru	+0.0710
-3.1054	i kotlinama	+0.0779
-3.5093	i krajeva	+1.0500
-2.4159	i krajevima	-0.0999
-3.5093	i kratkotrajno	-0.2292
-3.5093	i kroni~ni
-1.8545	i lici	-1.1697
-3.3565	i ligurskog	+0.6140
-3.5093	i lijepo
-3.5093	i like	-0.0570
-2.7700	i ljudi	-0.2504
-2.5207	i magla	-0.4867
-3.3565	i magle	-0.1369
-3.1054	i maglom	-0.1166
-3.5093	i maglovita	+0.0989
-2.8647	i maglovito	-0.2792
-3.3565	i manja	-0.3497
-3.3565	i meteoropata	-0.0515
-3.5093	i meteoropate	+0.0989
-3.3565	i meteoropati	+0.1960
-3.5093	i me}imurju	-0.2101
-1.9186	i mjestimice	-0.2165
-3.3565	i mo`e	-0.1152
-3.1054	i mogu	-0.2281
-3.5093	i mogu^	-0.2369
-2.3579	i mogu^a	-0.1990
-2.4481	i mogu^e	-0.6248
-2.7700	i mogu^i	-0.5616
-3.3565	i mora	-0.3272
-3.1054	i morem	-0.3470
-2.5207	i moru	+0.0471
-3.3565	i naoblaka	-0.2728
-3.5093	i naoblake	-0.2511
-2.7700	i naoblakom	+0.2117
-3.5093	i naoblaku	-0.2370
-3.5093	i naobla~enje
-2.3860	i nave~er	-0.3489
-3.3565	i nervozu	-0.2773
-3.3565	i no^as	-0.0798
-1.3552	i no^i	-0.3088
-3.1054	i no^na	+0.0990
-2.2196	i no^u	+0.0270
-3.1054	i nula	-0.5579
-3.3565	i obalu	+1.1449
-2.9447	i oblaka	+0.9300
-1.7697	i obla~no	-0.2871
-3.3565	i oborina	-0.2043
-2.1471	i osam	-0.6633
-3.3565	i osamdeset
-3.5093	i osamnaest
-3.3565	i osje^ati	-0.3626
-3.5093	i oslabiti	-0.0454
-2.6590	i oslabjeti	+0.0981
-2.2610	i otvorenom	+1.8334
-3.5093	i ozljeda	-0.0570
-3.3565	i o~ekivati	-0.0798
-2.6590	i pasti	+0.2632
-3.1054	i pedeset	+0.0558
-2.4159	i pet	-0.3124
-2.7700	i petka	-0.0534
-2.7700	i petnaest	-0.6221
-2.3860	i pljusak	+0.0158
-2.6590	i pljuska	-0.0626
-2.6078	i pljuskova	-0.1931
-3.1054	i pljuskove	-0.4026
-1.7986	i pljuskovi	-0.1540
-1.8545	i pljuskovima	-0.2602
-3.3565	i plu^nih	-0.2773
-2.5207	i podne	-0.4190
-3.5093	i podr`ava	-0.1181
-3.1054	i podravini	-0.1792
-2.5621	i podru~ju	-0.1243
-3.5093	i poja~an	-0.1936
-3.3565	i poja~ano	-0.1361
-2.7700	i ponedjeljak	-0.5842
-1.6644	i ponegdje	-0.1143
-2.6590	i popunjava	-0.0037
-3.5093	i posavini	-0.1181
-1.9286	i poslijepodne	-0.1847
-3.5093	i potom	+0.0989
-2.8647	i povremeno	-0.1825
-2.6590	i predjelima	-0.1879
-3.1054	i prijepodne	-0.1040
-3.3565	i prohladno	-0.0798
-3.3565	i promijenjivo	-0.1103
-2.8647	i promjenjivo	-0.1453
-2.8647	i promjenljivo	+0.1757
-3.1054	i prostrana	-0.0687
-3.5093	i prostrano	+0.5080
-3.5093	i raspolo`eni	-0.1648
-3.5093	i razdobljima	+0.0989
-2.9447	i razdra`ljivi	-0.0557
-3.3565	i razdra`ljivost	-0.3742
-3.1054	i se	-0.2662
-2.3316	i sedam	-0.8242
-3.1054	i sedamnaest	-0.5519
-2.9447	i sjeverac	+0.3609
-1.7986	i sjeverni	-0.5511
-3.3565	i sjevernim	+0.4178
-2.8647	i sjevernjak	-0.0656
-2.4481	i sjevernog	-0.3793
-1.3802	i sjevernom	-0.1918
-2.6590	i sjevernome	+0.0989
-2.3579	i sjeveroisto~ni	-0.5044
-3.1054	i sjeveroisto~njak	-0.0968
-1.9710	i sjeverozapadni	-0.3179
-2.9447	i sjeverozapadnim	+0.2524
-2.4159	i sjeverozapadnjak	-0.6678
-3.5093	i sjeverozapadnog
-3.3565	i sjeverozapadnom	-0.2516
-2.1471	i slab	-0.4819
-2.4829	i slaba	-0.6244
-3.1054	i slabjeti	+0.3557
-3.1054	i slabo	-0.5260
-1.9388	i slavoniji	-0.0263
-3.3565	i sni`enog	-0.0515
-3.1054	i snijeg	-0.2597
-3.5093	i snijega	+0.1509
-2.9447	i snijegom	+0.1331
-2.6590	i snom	+0.0989
-2.8647	i sparno	-0.3359
-2.9447	i sredi{njim	-0.0570
-3.3565	i sredi{njoj	+0.5264
-1.8719	i srednjeg	-0.4795
-1.6928	i srednjem	+0.1606
-3.5093	i srednji	+0.0706
-2.8647	i srednjoj	+1.4336
-3.5093	i srednjom	+0.0706
-3.5093	i sredozemlju	-0.0570
-3.3565	i sr~anih	+0.0070
-3.1054	i su	-0.1290
-3.5093	i subote	-0.0570
-2.8647	i subotu	-0.2375
-3.5093	i suho	-0.1716
-2.4481	i sumaglica	-0.4353
-3.5093	i sun~anije	-0.0570
-1.6127	i sun~ano	+0.1770
-3.5093	i susnje`icom	+0.2838
-3.5093	i sutra	-0.2205
-3.1054	i svje`e	-0.0004
-2.8647	i te	-0.3319
-2.9447	i tirenskim	+0.4287
-3.3565	i tirenskom	-0.1897
-3.5093	i tjedna	-0.0805
-2.4481	i toplo	-0.3638
-2.1641	i tri	-0.6567
-2.2833	i trideset	-0.2766
-2.6078	i trinaest	-0.3821
-3.5093	i udare	+0.9424
-2.5621	i ujutro	+0.0608
-2.6590	i umjeren	-0.2429
-1.8378	i umjerena	-0.6025
-1.9088	i umjereno	-0.3443
-3.3565	i umjerenu	-0.3766
-2.2003	i unutra{njosti	+0.1801
-2.7700	i utjecaj	-0.1162
-2.5207	i utorak	+0.2498
-2.6078	i uvjeti	+0.2148
-1.8993	i valovito	-0.3609
-2.3068	i vedro	+0.1018
-3.3565	i velebita	-0.0515
-3.5093	i velebitskom	+0.0989
-2.9447	i vjetar	-0.2592
-3.3565	i vla`ni	+0.0489
-3.5093	i vremena	-0.2226
-3.3565	i vremenu	-0.0515
-3.5093	i vrijeme	-0.1538
-2.3579	i vru^e	-0.3196
-3.1054	i zagorju	-0.0447
-3.5093	i zagrebu	+2.1724
-3.3565	i zapada	+0.7412
-1.7108	i zapadni	-0.6810
-2.5621	i zapadnim	+0.6869
-2.1307	i zapadnjak	-0.3164
-3.1054	i zapadnog	-0.1703
-2.3860	i zapadnom	-0.6702
-3.3565	i zapadu	-0.2773
-2.4159	i zatim	-0.3756
-3.5093	i zemlje	-0.0402
-2.5621	i {esnaest	-0.2645
-2.3579	i {est	-0.5537
-2.2833	i ~etiri	-1.0544
-2.6078	i ~etrdeset	+0.3217
-2.6078	i ~etrnaest	-0.2311
-2.6590	i ~vorova	+0.0015
-0.2423	iako <s>	-0.2078
-0.2715	ih bi	-0.4075
-1.6719	ili <s>	-0.6398
-1.7518	ili djelomice	-0.2922
-2.1636	ili ista	-0.0798
-2.3165	ili iste	+0.0989
-0.6449	ili ki{a	-0.5994
-1.0905	ili ki{e	-0.1708
-1.0682	ili ki{om	+0.1242
-1.9126	ili ki{u	+0.0724
-1.1388	ili magla	-0.1574
-2.1636	ili maglovito	-0.1383
-1.6719	ili mirno	+1.4336
-1.1931	ili promjene	-0.0834
-2.3165	ili promjenjljivo
-1.7518	ili promjenljivo	-0.0199
-2.3165	ili snijeg	-0.2199
-2.3165	ili snijegom	-0.0402
-0.6880	ili tiho	-0.3066
-2.3165	ili toplo	-0.1440
-1.3692	ili vedro	-0.2489
-2.3165	ili zadr`ati
-1.2260	ilok <sil>
-1.2260	ilok <uzdah>
-0.1326	ilok dunav	-0.4054
-0.2483	imat bolesnici	+0.4780
-1.6752	imati ^e	-0.4115
-0.7669	imati bi	-0.1791
-0.5384	imati mogli	-0.2840
-0.8016	imati mogu	-0.0478
-1.8281	imati ne^e	-0.2151
-0.9777	imati te	-0.2596
-0.8016	imati trebali	+0.2971
-0.4934	ipak <s>	-0.0515
-0.2483	ispod i	-0.2598
-0.2715	ista temperatura	-0.1493
-0.2483	iste temperature	-0.1687
-0.2483	istok na	-0.4800
-1.0748	istoku i	-0.2523
-0.3554	istoku na	-0.1695
-0.3554	istoku prema	-0.1993
-0.4046	isto~ni i	-0.7507
-1.4658	isto~ni jadrana	-0.1506
-1.4658	isto~ni na	-0.2555
-1.0619	isto~ni slab	+0.0955
-1.4658	isto~ni uglavnom
-0.5185	isto~ni umjeren	-0.1831
-0.4667	isto~nim i	-0.4635
-0.1978	isto~nim u	-0.0950
-1.6876	isto~njak dalmaciji	+0.3944
-0.4181	isto~njak i	-0.3191
-1.5348	isto~njak jadrana	-0.4067
-1.6876	isto~njak jadranu	-0.2197
-1.5348	isto~njak jak	-0.1752
-1.6876	isto~njak ju`nom	+0.2534
-1.6876	isto~njak kanalu	+1.4556
-1.5348	isto~njak na	-0.4059
-1.6876	isto~njak nave~er	-0.2467
-1.0430	isto~njak slab	-0.1887
-1.6876	isto~njak te	-0.2532
-1.5348	isto~njak umjeren	-0.1170
-0.2715	isto~njakom i	-0.4124
-0.2483	isto~nog i	-0.2615
-0.5921	isto~noj i	-0.4631
-0.1421	isto~noj u	+0.0497
-0.7923	istre obali	-0.1181
-0.1478	istre obalu	-0.9887
-0.2483	istri u
-0.2483	italije ju`ne	-0.0570
-0.2483	italiji prema	-0.2566
-0.3965	italijom ju`nom	-0.0183
-0.2483	iz vjetrom	-0.1960
-0.4244	izbjegavaju neka
-0.8736	izbjegavati preporu~uje	-0.2444
-0.1761	izbjegavati trebali	+0.2527
-0.2483	izdi^i ili
-0.2319	izgledi <s>	+0.0989
-0.7220	izgledi <uzdah>	-0.9287
-0.7220	izgledi vremenski	-0.8343
-0.2483	izgledima o	-0.2552
-0.4244	izjedna~enog pribli`no	+0.0989
-2.4081	izme}u dalmaciji	-0.1778
-0.9424	izme}u dnevna	-0.4644
-2.4081	izme}u dnevne
-0.6616	izme}u jadranu	+0.1325
-2.4081	izme}u obale	+0.0989
-2.4081	izme}u obali	-0.1181
-2.4081	izme}u otocima	-0.1269
-2.4081	izme}u podru~ju	+0.0235
-2.0043	izme}u poslijepodne	-0.0536
-2.2553	izme}u sutra	-0.1552
-0.5067	izme}u temperatura	-0.7195
-2.0043	izme}u temperature	-0.0846
-2.2553	izme}u temperaturom	+0.2418
-0.9046	izme}u uglavnom	-0.7222
-1.6689	izme}u unutra{njosti	-1.1200
-2.4081	izme}u ve^inom	-0.2529
-1.1821	izme}u vidljivost	-0.1471
-1.6689	izme}u zraka	-1.6465
-0.9705	iznad ciklona	-0.1147
-1.1233	iznad jadrana	-0.2587
-0.7195	iznad se	-0.5269
-1.1233	iznad stanje
-0.5493	iznadprosje~no jutra	-0.2057
-1.0612	iznimno biti	-0.2417
-0.9083	iznimno dana	-0.2959
-0.6573	iznimno kod	-0.0545
-1.0612	iznimno samo	-0.2579
-0.6975	izra`en biti	-0.4094
-0.6975	izra`en manje	-0.3956
-0.8503	izra`en slabije	+0.0542
-0.2857	izra`ene slabije	+0.0561
-0.8503	izra`ene slabo	-0.2546
-0.1454	izuzetno kod	-0.1724
-0.0355	izvje{^e <s>	+0.0989
-1.2509	izvje{^e vremensko	-0.0229
-0.0428	izvje{taj <s>	+0.0989
-1.5604	izvje{taj <uzdah>	-0.9690
-1.5604	izvje{taj dana{nji	-0.5002
-2.0521	izvje{taj primili	-0.0798
-2.1523	jadran ju`ni	-0.0811
-1.4037	jadran sjeverni	-0.2831
-0.0255	jadran za	-1.6629
-1.8721	jadrana dijela	-0.2337
-0.8618	jadrana dijelu	-0.7383
-2.3638	jadrana i	-0.4124
-1.6663	jadrana iznad	-0.0483
-0.6451	jadrana ju`nog	+0.0206
-1.6151	jadrana jugu	+0.2796
-2.1127	jadrana od	-0.2613
-2.3638	jadrana podru~je	-0.0121
-2.5166	jadrana podru~ju	-0.2562
-1.8721	jadrana preko	-0.0108
-2.5166	jadrana s
-1.0509	jadrana sjevernog	+0.0161
-2.3638	jadrana sjevernom	+1.7286
-1.8721	jadrana sjeveru	-0.6854
-0.4140	jadrana srednjeg	-0.3962
-1.7773	jadrana srednjega	-1.3010
-1.2373	jadranom ju`nim	-0.0508
-0.0656	jadranom nad	-0.2083
-1.5727	jadranom te	-0.2573
-2.5642	jadranu <s>	-0.6398
-3.2087	jadranu <uzdah>	-0.2487
-2.4695	jadranu ^e	-0.4921
-3.2087	jadranu cijelom	+0.0989
-3.0559	jadranu i	-0.1561
-1.0311	jadranu ju`nom	-0.6525
-3.0559	jadranu ju`nome	+0.7977
-0.2241	jadranu na	-0.6904
-1.4833	jadranu prema	-0.4498
-3.2087	jadranu primi~e	-0.2092
-2.3584	jadranu se	-0.3803
-0.7287	jadranu sjevernom	-0.4215
-1.7174	jadranu sjevernome	+0.0989
-1.3073	jadranu srednjem	+1.9465
-3.0559	jadranu stanje	-0.1329
-0.3757	jak do	-0.2584
-0.3757	jak i	-0.6964
-1.7031	jak ponegdje	-0.2615
-1.7031	jak povremeno	-0.2588
-1.7031	jak prolazno	-0.2256
-2.2351	jaka biokova	-0.0570
-0.5888	jaka do	-1.3470
-0.4816	jaka i	-1.0170
-1.4958	jaka jadrana	-0.3215
-1.2464	jaka jadranu	-0.3160
-2.0822	jaka kanalu	+1.3051
-2.0822	jaka mjestimice	-0.1337
-1.5905	jaka ponegdje
-2.2351	jaka srednjeg	+0.3294
-2.2351	jaka ujutro	-0.0261
-2.0822	jaka ve^inom	-0.3195
-0.7196	jaka vrlo	-0.6512
-0.2483	jaki biti	-0.2496
-0.4244	jakim s
-2.0372	jako dana
-0.3997	jako do	-1.6346
-0.5101	jako i	-0.7589
-2.0372	jako jadrana	-0.1979
-1.4725	jako jadranu	-0.0221
-1.3926	jako mjestimice	-0.0773
-2.0372	jako po~etku	-0.0530
-2.0372	jako ve^inom	-0.1690
-1.0107	jako vrlo	-0.3972
-2.0372	jako zatim
-0.0016	jakom i	-0.1897
-0.5493	jaku i	-0.2619
-1.0732	jasenovac <s>	-0.0515
-0.1326	jasenovac sava	+0.0941
-1.6205	ja~a <s>	-0.0515
-1.7733	ja~a dana	-0.1454
-1.7733	ja~a jadranom	+0.5912
-1.0340	ja~a jadranu	-0.3872
-1.7733	ja~a kopna	+0.1272
-1.7733	ja~a kotaru	-0.0120
-1.6205	ja~a nova	-0.1244
-1.6205	ja~a o~ekuje	-0.0597
-1.3694	ja~a polako	+0.0042
-1.2087	ja~a postupno	-0.1201
-1.6205	ja~a prolazno	-0.1197
-1.7733	ja~a sjevera	+0.0989
-1.3694	ja~a subotu	+0.8700
-1.7733	ja~a sutra	+0.3383
-1.7733	ja~a utorka	-0.0570
-0.6799	ja~a zapada	+0.8917
-0.4244	ja~anje sutra	-0.2431
-0.2483	ja~anju u	-0.2268
-0.5493	ja~ati ^e	-0.2512
-0.5493	ja~ati dana	-0.2062
-0.3757	ja~e i	-0.5376
-1.1231	ja~e jadranu	-0.1620
-0.4658	ja~e ponegdje	-0.2502
-0.2715	ja~u uz	-0.1543
-1.8358	je biometeorolo{ki	-0.3614
-1.1383	je gdje	+0.0239
-1.9886	je jadrana	-0.2602
-1.9886	je jadranom	+0.5912
-1.5848	je jo{
-1.9886	je kopna	+0.1272
-1.8358	je meteoropata	-0.0515
-1.9886	je mjestimice
-1.3441	je mogu^	-0.0505
-0.9622	je mogu^a	-0.1841
-1.8358	je mogu^e	-0.1449
-1.9886	je najve^a	+0.0989
-1.8358	je no^i	+0.3200
-1.4240	je ponegdje	-0.0684
-1.8358	je potrebna
-1.5848	je po~etku	-0.3597
-1.9886	je proteklih
-1.5848	je samo	-0.4926
-1.3441	je sinopti~arka	-0.6115
-1.8358	je slabo	-0.1487
-1.0872	je ujutro	-0.2105
-1.9886	je zatim
-2.1561	jedan <sil>
-2.1561	jedan botovo	+0.5563
-1.9155	jedan budimpe{ta	+0.2997
-2.4072	jedan crnac	+0.1673
-2.4072	jedan devedeset
-2.1561	jedan devet	-0.2446
-2.5600	jedan devetnaest
-1.3118	jedan do	-0.7568
-1.9954	jedan dva	-0.0053
-0.9693	jedan dvadeset	+0.0303
-1.4367	jedan i	-0.3378
-2.4072	jedan ilok	+0.1673
-1.9155	jedan izme}u	-0.0774
-1.4087	jedan jedan	-0.0448
-2.5600	jedan karlovac	+0.3401
-1.7097	jedan kostajnica	+0.0989
-2.5600	jedan miholjac	+0.0989
-0.7043	jedan minus	+0.0586
-0.8204	jedan more	-0.5521
-2.4072	jedan na	-0.1497
-2.4072	jedan no^i	+0.3200
-2.5600	jedan no^u	-0.2419
-2.4072	jedan nula
-2.5600	jedan obalu	+1.2954
-1.1504	jedan od	-0.2703
-2.4072	jedan osam
-2.4072	jedan osamdeset
-2.5600	jedan osijek	+0.4144
-2.4072	jedan pedeset
-2.1561	jedan pet
-1.9155	jedan plus	+0.2937
-2.5600	jedan ponegdje
-2.1561	jedan radenci	+0.2550
-2.5600	jedan sedam	-0.2601
-2.5600	jedan sedamdeset	-0.2490
-1.8207	jedan tri	-0.0717
-1.5336	jedan trideset	+0.0053
-2.5600	jedan vukovar
-1.9155	jedan {est	-0.0782
-2.5600	jedan {ezdeset
-1.9155	jedan ~etiri
-2.5600	jedan ~etrdeset
-0.5772	jedanaest do	-0.7135
-0.8947	jedanaest i	-0.7920
-0.9672	jedanaest izme}u	-0.5783
-0.8625	jedanaest minus	-0.1958
-0.5035	jedanaest od	-0.4522
-1.9558	jedanaest petsto	-0.1768
-0.4244	jedna minus	-0.0232
-0.0348	jednog od	-0.7715
-0.2058	jonskim i	-0.3449
-0.6975	jonskim nad	-0.1151
-0.4244	jonsko na	-0.2620
-0.2569	jonskom i	-0.3362
-0.7486	jonskom prema	-0.3000
-0.2715	jonskome prema
-1.2122	jo{ <s>	+0.0989
-1.2579	jo{ ^e	-0.3887
-2.0066	jo{ ali	-0.0593
-2.1594	jo{ ciklona
-1.5149	jo{ dana	-0.2997
-1.0361	jo{ i	-0.4507
-2.1594	jo{ ili	-0.2333
-1.7555	jo{ jadrana	+0.0999
-1.0982	jo{ jadranu	+0.1462
-1.3091	jo{ je	-0.2375
-2.1594	jo{ malo	-0.1106
-1.7555	jo{ mjestimice	-0.0534
-2.1594	jo{ obale	+0.0989
-1.7555	jo{ obla~no	-0.0022
-1.7555	jo{ otvorenom	+1.5266
-1.0661	jo{ ponegdje	-0.0679
-1.3091	jo{ po~etku	-0.0530
-2.1594	jo{ predjelima	-0.1280
-1.7555	jo{ prijepodne	-0.1007
-2.1594	jo{ samo
-1.5149	jo{ se	-0.1847
-2.1594	jo{ slaba	-0.2522
-2.1594	jo{ snijeg	+0.0470
-2.1594	jo{ su
-2.0066	jo{ tegobe	-0.3947
-2.1594	jo{ toplije	-0.1719
-2.0066	jo{ ujutro
-2.1594	jo{ unutra{njosti	+0.6178
-1.5149	jo{ visini	-0.6398
-2.1594	jo{ zadr`ati	-0.2238
-0.4244	ju`ne s
-0.7993	ju`ni i	-0.9562
-1.5937	ju`ni jadranu	-0.1478
-1.7466	ju`ni njegov	+0.0989
-0.7993	ju`ni slab	-0.2828
-0.4014	ju`ni umjeren	-0.4134
-1.7466	ju`ni ve^inom	-0.1350
-1.0073	ju`ni vjetar	-0.0749
-0.2730	ju`nim i	-0.5673
-0.9705	ju`nim nad	-0.1084
-0.7195	ju`nim u	-0.5665
-0.4244	ju`no <s>	+0.0989
-1.2036	ju`nog dijelu	-0.2747
-0.4159	ju`nog i	-0.2562
-1.0925	ju`nog moru	-0.5410
-1.9429	ju`nog obalu	+1.2954
-0.4771	ju`nog otvorenom	+1.8334
-1.7900	ju`nog preko
-1.9429	ju`nog s	-0.2120
-1.9429	ju`nog stanovnici	+0.0989
-1.9429	ju`nog udari	+0.1434
-0.6462	ju`noj i	-0.2571
-0.4934	ju`noj u	-0.1514
-0.5653	ju`nom i	-1.3554
-0.1581	ju`nom na	-0.3724
-2.3818	ju`nom njegovom	+0.2838
-2.3818	ju`nom njegovu	+0.2838
-2.3818	ju`nom osobito	-0.2435
-2.3818	ju`nom posebice	-0.2170
-0.0512	ju`nome na	-0.0421
-1.6633	juga drugdje	-0.2547
-0.0170	juga udari	-0.1585
-0.9371	jugo <s>	+0.0989
-1.3958	jugo <uzdah>	-0.8235
-2.5471	jugo ^e	-0.2589
-1.6456	jugo drugdje	+0.0832
-1.0317	jugo i	-0.6980
-2.5471	jugo jadran	-0.2590
-2.5471	jugo jadrana	-0.1979
-1.2019	jugo jadranu	-0.3710
-0.5956	jugo jako	-0.2072
-1.8078	jugo ju`nom	+0.1887
-2.5471	jugo ju`nome	+0.6918
-2.5471	jugo moru	-0.0668
-1.6968	jugo na	-0.2517
-1.9026	jugo nave~er	-0.2477
-2.1432	jugo no^i	+0.1637
-2.5471	jugo no^u	-0.2543
-1.8078	jugo olujno	-1.4357
-1.6456	jugo poja~ano	+0.0368
-2.5471	jugo po~etku
-1.6968	jugo sati	+0.9163
-2.5471	jugo se	-0.2492
-1.4238	jugo slabo	-0.2287
-2.5471	jugo sutra	-0.2608
-0.7191	jugo umjereno	-0.2953
-2.5471	jugo zatim
-0.0300	jugoistok na	-0.2086
-0.1663	jugoisto~ni i	-2.3232
-1.2897	jugoisto~ni slab	-0.2609
-1.1368	jugoisto~ni umjeren	+0.0506
-1.2897	jugoisto~ni ve^inom	-0.2558
-0.4244	jugom slabim	-0.2369
-2.1878	jugozapadni <s>	+0.0989
-2.1878	jugozapadni do
-1.7839	jugozapadni drugdje	-0.3660
-0.4017	jugozapadni i	-1.4964
-2.1878	jugozapadni jadrana
-1.6232	jugozapadni jak	-0.3650
-2.1878	jugozapadni kratkotrajno	-0.2392
-1.6232	jugozapadni na	-0.2541
-2.1878	jugozapadni nedjelju	+0.1528
-1.7839	jugozapadni obalu	+0.9887
-1.7839	jugozapadni ponegdje	-0.2610
-2.1878	jugozapadni po~etku
-2.1878	jugozapadni sati	+0.9163
-1.1614	jugozapadni slab	-0.1241
-2.1878	jugozapadni uglavnom
-0.6495	jugozapadni umjeren	-0.2712
-1.5432	jugozapadni ve^inom	-0.1866
-1.5432	jugozapadni vjetar	-0.1292
-2.0511	jugozapadnjak ^e	-0.2519
-2.0511	jugozapadnjak dalmaciji	+0.3944
-2.0511	jugozapadnjak dana	-0.1962
-0.4136	jugozapadnjak i	-0.2955
-1.4065	jugozapadnjak jak	-0.0936
-0.8734	jugozapadnjak na	-0.5608
-2.0511	jugozapadnjak ponegdje	-0.2556
-1.6472	jugozapadnjak slab	-0.0697
-0.5723	jugozapadnjak umjeren	-0.1007
-0.9015	jugozapadnog drugdje	-0.2069
-0.4976	jugozapadnog i	-0.1100
-0.9015	jugozapadnog visini	+0.0989
-1.0732	jugu krajnjem	-0.0798
-0.1648	jugu na	-0.1313
-1.2260	jugu prema	-0.2477
-0.2990	jutarnja <s>	+0.0989
-0.9584	jutarnja <uzdah>	-0.2664
-1.8635	jutarnja i	-0.5685
-1.6228	jutarnja mjestimice	-0.3623
-0.5348	jutarnja najni`a	-0.3633
-1.8635	jutarnja unutra{njosti	+0.6588
-2.2674	jutarnja valovito	+0.0607
-0.3219	jutarnje <s>	-1.6389
-1.0612	jutarnje najni`e	+0.0989
-1.0612	jutarnje uz	-0.2607
-0.5493	jutarnju i	-0.2620
-0.5493	jutarnju uz	-0.2043
-1.3259	jutra <s>	-0.0515
-1.3259	jutra <uzdah>
-1.0748	jutra do	-0.1113
-0.6284	jutra i	-0.2425
-1.0748	jutra maglovitog	-0.0229
-0.9141	jutra od	-0.4152
-0.8342	jutra tijekom	-0.1492
-0.2430	jutro <s>	+0.0989
-0.9405	jutro pred	+0.0489
-0.2483	kalin lovro
-0.0084	kanalu velebitskom	+0.0989
-1.9643	kanalu velebitskome	+0.0989
-0.0808	kao ljudi	-0.9132
-1.2483	karlovac <s>	+0.0989
-1.2483	karlovac <uzdah>
-0.1249	karlovac kupa	+0.1661
-0.5493	kasno a	-0.2587
-0.2483	kestena divljeg	+0.0989
-1.8593	kilometara deset	-0.4408
-0.0512	kilometara dvadeset	-1.4002
-1.6186	kilometara pet	-0.9346
-1.4129	kilometara petnaest	+0.0564
-2.2632	kilometara trideset	-0.1001
-1.8593	kilometara ~etiri	-0.0922
-0.8394	kilometra dvadeset	+0.1614
-0.8016	kilometra jednog	+0.8514
-0.8808	kilometra od	-0.9539
-0.2576	kilometra ~etiri	-1.4092
-2.0087	ki{a <s>	-0.2078
-2.2598	ki{a dalmaciji	+0.2440
-2.4126	ki{a dana	-0.2243
-2.4126	ki{a hrvatskoj	+0.0719
-1.5111	ki{a i	-0.2239
-2.2598	ki{a ili	-0.1541
-2.4126	ki{a jadrana	-0.0506
-1.0504	ki{a jadranu	-0.1878
-2.4126	ki{a jo{	-0.2231
-1.0504	ki{a kratkotrajna	+0.1596
-0.4877	ki{a mjestimice	-0.2466
-1.2101	ki{a mogu^a	-0.1180
-2.4126	ki{a najprije	-0.2381
-2.4126	ki{a nedjelju	-0.2115
-1.5623	ki{a obla~no	-0.1520
-2.4126	ki{a pasti	+0.2385
-1.1866	ki{a ponegdje	-0.2521
-1.2613	ki{a povremeno	-0.3751
-2.4126	ki{a po~etku	-0.0530
-2.4126	ki{a se	-0.2492
-0.9602	ki{a slaba	-0.3671
-2.4126	ki{a ujutro	-0.0261
-2.4126	ki{a unutra{njosti
-2.2598	ki{a zatim	-0.1465
-1.9472	ki{e <uzdah>	-0.2619
-1.0458	ki{e biti	-0.4780
-1.5434	ki{e granici	-0.0229
-1.3826	ki{e kratkotrajne	-0.0614
-0.3872	ki{e malo	-0.5349
-1.9472	ki{e mjestimice
-1.3826	ki{e mogu^nost	+0.3215
-1.3027	ki{e najvi{e	-0.0800
-1.9472	ki{e obilnije	-0.0570
-1.3027	ki{e prestanak	-0.0474
-1.2080	ki{e slabe	-0.0695
-1.7944	ki{e vi{e	-0.3127
-1.3826	ki{e zbog	-0.4676
-2.2049	ki{om i	-0.2616
-2.2049	ki{om ili	-0.2600
-1.6403	ki{om kratkotrajnom	+0.1678
-1.4656	ki{om mjestimi~nom	-1.6389
-0.0702	ki{om s	-0.9153
-1.3546	ki{om slabom	+0.6918
-0.2483	ki{ovito i	-0.2547
-1.0264	ki{u gorju	+0.7792
-1.0264	ki{u kratkotrajnu
-1.0264	ki{u slabu
-0.4618	ki{u uz	-0.3669
-0.7715	kod <s>	+0.0989
-1.1955	kod a	-0.2647
-1.6073	kod bi	-0.1430
-0.6088	kod i	-1.0263
-1.6073	kod ipak	+0.0120
-1.1955	kod mogu^e	-0.1844
-1.7602	kod povoljne	-0.1217
-0.9098	kod su	-0.5944
-1.3563	kod tegobe	-0.1945
-1.5807	koja <s>	+0.0989
-1.1768	koja <uzdah>	-0.2636
-0.6792	koja bura	-0.0138
-1.5807	koja buru	-0.2465
-1.5807	koja grmljavinom	+0.0358
-0.4574	koja ki{a	-0.2071
-1.5807	koja maglu	-0.1157
-1.5807	koja naoblaka	-0.1223
-1.5807	koja povremeno	-0.2588
-1.5807	koja sumaglica	-0.2281
-0.0669	koje jugo	-0.2380
-1.1777	koji <sil>
-1.0249	koji <uzdah>	-0.1418
-0.7738	koji oblaci	-0.2078
-1.1777	koji sjeverozapadnjak	-0.1340
-1.1777	koji snijeg	-0.2199
-0.1608	kojim nad	-0.5871
-0.0378	koli~ina manja	-0.3209
-0.9886	koncentracija <s>	+0.0989
-0.8358	koncentracija slabija	-0.0798
-0.9886	koncentracija visoka	-0.0570
-0.7944	koncentracije dobre	-0.0798
-0.7944	koncentracije slabije	-0.0963
-0.7944	koncentracije smanjene	+0.0489
-0.0531	koncentraciji u	-0.4462
-0.2483	koncentracijom i	-0.9533
-0.2277	kopna europskog	+0.0927
-0.9015	kopnenim isto~nim
-0.9015	kopnenim sjeverozapadnim	-0.1770
-0.2569	kopnenim u	-0.1747
-0.0322	kopnenom u	-0.0468
-0.0016	kopnenome u	-0.1481
-0.2483	kopnom europskim	+0.0989
-0.2483	kornata podru~ju	-0.2562
-0.2483	kostajnica hrvatska	-0.0004
-0.2483	kotar gorski	+0.0989
-0.1454	kotara gorskog	-0.0447
-0.3587	kotaru gorskom	+0.0087
-0.9203	kotaru gorskome	-0.0539
-0.1110	kotlinama po	-0.0916
-0.6225	kra^a dana	-0.5256
-0.8736	kra^a i	-0.1467
-0.2483	kraja do	-0.6402
-0.6232	krajem <s>	+0.0989
-1.1666	krajem ^e	-0.2387
-0.5819	krajem a	-0.1258
-1.4177	krajem obla~no	-0.1059
-1.1666	krajem zatim	-0.2544
-1.5600	krajeva na{ih	+0.0989
-0.0217	krajeva ve^ini	+0.0989
