\data\
ngram 1=1454
ngram 2=6259


\1-grams:
-1.18170 </s>  -0.3598
-4.90240 <bi>  0.0000
-3.34610 <greska>  0.0057
-4.90240 <jugozapadak>  0.0000
-4.90240 <k>  0.0000
-4.90240 <kred>  0.0000
-3.23030 <papir>  -0.1070
-4.90240 <pljoskovi>  0.0000
-4.90240 <raspolo`ene>  0.0000
-99.99000 <s>  -1.0176
-2.32380 <sil>  -0.3123
-4.90240 <sjeveroistoke>  0.0000
-4.90240 <sras>  0.0000
-4.90240 <t>  0.0000
-3.60140 <udarac>  -0.1314
-1.42760 <uzdah>  -0.9994
-2.06550 ^e  -0.7504
-4.42530 `aliti  -0.3190
-1.84550 a  -1.1658
-4.60140 ako  -0.3570
-4.90240 alergije  0.0000
-4.90240 alergi~ne  0.0000
-3.24920 ali  -0.2434
-4.90240 alpa  0.0000
-3.86110 ankica  -0.3597
-4.90240 ankice  0.0000
-3.86110 anticiklona  -0.1176
-3.44000 anticiklonalni  -0.3595
-3.64720 anticiklonalno  -0.3592
-4.42530 anticiklonalnog  -0.3361
-3.44000 anticiklone  -0.2707
-4.30040 astmati~ara  -0.2235
-3.86110 astmati~are  -1.0488
-3.72640 astmati~ari  -0.4873
-4.60140 astmati~arima  -0.3395
-4.60140 atlantska  -0.3594
-4.60140 atmosferski  -0.3597
-3.69830 atmosferskog  -0.3595
-4.90240 badnju  0.0000
-4.90240 bar  0.0000
-4.42530 baranji  -0.1842
-4.30040 barem  -0.5409
-4.90240 bazge  0.0000
-2.99940 bez  -1.5486
-2.76260 bi  -0.7976
-4.30040 bila  -0.1436
-4.42530 biokova  -0.2034
-4.60140 biokovu  0.0000
-2.78190 biometeorolo{ka  -2.1155
-3.62370 biometeorolo{ke  -0.7620
-2.99400 biometeorolo{ki  -1.3741
-3.54070 biometeorolo{kih  -0.3451
-4.20350 biometeorolo{kog  -2.4215
-4.90240 bismo  0.0000
-3.13900 bit  -0.3560
-2.56400 biti  -0.6146
-4.90240 blagdan  0.0000
-4.42530 blizini  -0.2045
-4.90240 blizinu  0.0000
-4.60140 blizu  -0.3597
-4.90240 bo`i^  0.0000
-3.01600 bolesnici  -0.6620
-4.42530 bolesnicima  -0.1749
-3.47110 bolesnika  -0.4527
-3.78850 bolesnike  -0.3460
-4.60140 bolestima  0.0000
-4.05730 bolje  -0.3831
-4.42530 bolji  -0.3360
-4.60140 bolova  -0.3426
-3.78850 bolove  -0.4509
-4.12430 bolovi  -0.4250
-4.60140 bolovima  -0.3584
-4.60140 boravak  0.0000
-4.60140 borivoj  -0.3598
-3.60140 botovo  -0.2708
-4.90240 breze  0.0000
-3.60140 brod  -0.1974
-4.05730 brzo  -0.8905
-4.90240 brzoj  0.0000
-4.90240 bude  0.0000
-3.60140 budimpe{ta  -0.5970
-4.90240 budimpe{te  0.0000
-2.22480 bura  -0.8799
-3.13900 bure  -0.7367
-3.06360 burin  -0.8026
-3.75630 burom  -0.2320
-3.39730 buru  -0.4183
-4.90240 celzijev  0.0000
-4.60140 centimetara  -0.3595
-2.59070 centra  -2.3106
-4.90240 cesti  0.0000
-3.42530 cijeloj  -0.7921
-4.60140 cijelom  -0.3497
-3.99940 cijelu  -0.7561
-3.06990 ciklona  -0.6044
-3.75630 ciklonalno  -0.3592
-4.20350 ciklonalnog  -0.3453
-3.60140 ciklone  -0.4569
-4.60140 cjelodnevne  -0.3596
-4.60140 cjelodnevnom  -0.3597
-3.62370 crnac  -0.2185
-4.12430 da  -0.1326
-3.17820 dalje  -0.5940
-3.86110 dalmacije  -0.1118
-2.76890 dalmaciji  -0.3766
-4.90240 dalmaciju  0.0000
-4.20350 dalmatinskome  -2.4216
-3.90240 dan  -0.1326
-2.36090 dana  -0.6208
-3.18640 danas  -0.4111
-4.60140 dana{njega  -0.3569
-3.62370 dana{nji  -1.0046
-4.30040 dane  -0.1141
-2.95310 danju  -0.4946
-4.30040 davor  -0.5418
-4.90240 de`urna  0.0000
-4.42530 depresijsko  -0.3356
-2.28020 deset  -1.2431
-4.90240 desetak  0.0000
-3.42530 devedeset  -0.3697
-2.57200 devet  -0.7347
-3.06990 devetnaest  -0.7564
-4.90240 devetoga  0.0000
-3.82330 dijela  -0.6174
-4.90240 dijelom  0.0000
-4.60140 dijelovima  -0.3579
-2.35340 dijelu  -1.1142
-4.60140 diljem  0.0000
-3.69830 dio  -0.7336
-4.60140 divljeg  -0.3598
-4.90240 divlji  0.0000
-2.69290 djelomice  -1.1738
-3.64720 djelomi~no  -0.7779
-3.94820 djelovati  -0.3426
-2.47590 dnevna  -1.4351
-3.94820 dnevne  -0.4849
-1.41430 do  -2.0525
-3.94820 doba  -0.3597
-4.42530 dobar  -0.3361
-4.90240 dobili  0.0000
-4.42530 dobre  -0.3361
-3.38390 dobro  -0.3712
-4.05730 dobrog  -0.4415
-4.42530 dobroga  -0.3361
-4.42530 dobrom  -0.3361
-4.90240 dobru  0.0000
-4.60140 dodatne  -0.3597
-4.90240 dodiru  0.0000
-3.99940 dok  -0.6222
-4.90240 dokazanom  0.0000
-2.96290 dolina  -0.8993
-4.60140 dolinu  -0.3591
-4.42530 donijeti  -0.2040
-3.62370 donji  -0.3597
-4.60140 donositi  -0.3395
-4.42530 dosta  -0.2043
-2.79520 dr`avnog  -0.3588
-3.23030 dr`avnoga  -1.6711
-4.42530 dragojlovi^  -0.3065
-4.42530 dragoslav  -0.3361
-3.10310 drava  -1.4979
-3.07640 drugdje  -0.3284
-3.47110 drugom  -0.3578
-4.60140 drugome  -0.3578
-3.94820 drvar  -0.3302
-4.30040 drve^a  0.0000
-3.26900 du`  -1.2797
-4.90240 du`a  0.0000
-4.30040 du`e  -0.5417
-4.90240 du`im  0.0000
-4.12430 duboka  -0.3593
-4.90240 dubrova~kom  0.0000
-4.60140 dubrova~kome  -0.3593
-4.60140 dugotrajna  -0.3591
-4.90240 dugotrajno  0.0000
-4.42530 dugotrajnom  -0.3360
-4.30040 dugotrajnu  -0.5417
-4.60140 dulja  -0.3595
-4.05730 dulje  -0.9392
-4.60140 duljih  -0.3597
-3.18640 dunav  -1.4146
-3.64720 dunja  -0.3477
-2.09630 dva  -1.2077
-1.94240 dvadeset  -1.7144
-4.90240 dvadeseti  0.0000
-4.90240 dvadesetoj  0.0000
-2.13750 dvanaest  -1.5408
-4.60140 dvije  0.0000
-3.14660 dvjesto  -0.5045
-4.90240 egejskim  0.0000
-4.90240 egejskome  0.0000
-4.05730 europe  -0.1214
-4.90240 europom  0.0000
-4.90240 europska  0.0000
-4.90240 europske  0.0000
-4.60140 europskim  -0.3598
-4.12430 europskog  -0.5095
-4.90240 europskoga  0.0000
-4.90240 formira  0.0000
-4.90240 formiranje  0.0000
-4.42530 fronta  0.0000
-3.60140 frontalni  -0.9237
-3.23970 frontalnim  -0.3455
-3.94820 fronte  -0.4319
-3.94820 frontom  -0.2669
-3.22120 gdje  -0.7529
-4.30040 glasi  -0.1428
-4.60140 glavninom  -0.3598
-3.94820 glavobolja  -0.3395
-3.50450 glavobolje  -0.4191
-3.62370 glavobolju  -0.5033
-3.94820 godine  -0.2514
-4.90240 godinu  0.0000
-3.08290 gorju  -0.4132
-4.60140 gorski  -0.3598
-3.35840 gorskim  -1.0449
-4.30040 gorskog  -0.5418
-3.78850 gorskoj  -0.3595
-2.83800 gorskom  -2.1219
-3.35840 gorskome  -1.6016
-3.67200 gotovo  -0.6420
-4.60140 govori  0.0000
-4.30040 granici  -0.5413
-3.16210 greben  -0.7123
-4.42530 grebena  -0.3348
-2.75630 grmljavina  -0.8808
-3.41110 grmljavine  -0.5081
-2.75940 grmljavinom  -0.7820
-3.94820 grmljavinu  -0.2316
-2.65940 hidrometeorolo{kog  -0.3588
-4.90240 hidrometeorolo{koga  0.0000
-4.12430 hladna  -0.2591
-4.05730 hladne  -0.9393
-3.60140 hladnije  -0.5245
-3.32270 hladno  -0.3196
-4.60140 hladno^a  0.0000
-3.69830 hladno^e  -0.2725
-4.60140 hladno^u  -0.3596
-4.60140 hladnog  -0.3395
-4.60140 hladnoga  -0.3395
-3.99940 hladnom  -0.3597
-4.90240 hrast  0.0000
-4.42530 hrasta  -0.1842
-3.60140 hrvatska  -0.3597
-4.90240 hrvatske  0.0000
-3.28970 hrvatskoj  -0.4305
-4.42530 hrvatskom  -0.3361
-4.90240 hrvatskome  0.0000
-4.05730 hrvatsku  -0.3415
-1.34040 i  -0.8016
-4.20350 iako  -2.4178
-4.42530 ih  -0.3361
-2.53320 ili  -0.7607
-3.62370 ilok  -0.3570
-4.90240 ima  0.0000
-4.90240 imaju  0.0000
-4.60140 imat  -0.3560
-3.02160 imati  -0.7266
-4.90240 inverzija  0.0000
-4.20350 ipak  -0.3442
-4.60140 iskoristite  -0.3597
-4.60140 ispod  -0.3597
-4.42530 ista  -0.3348
-4.60140 iste  -0.3585
-3.60140 istok  -0.5569
-3.37100 istoku  -0.8478
-3.38390 isto~ni  -0.7246
-3.28970 isto~nim  -1.3189
-3.16210 isto~njak  -0.9855
-4.60140 isto~njaka  0.0000
-4.42530 isto~njakom  0.0000
-4.90240 isto~noeuropske  0.0000
-4.60140 isto~nog  -0.3597
-3.26900 isto~noj  -1.6326
-4.90240 isto~nom  0.0000
-4.05730 istre  -0.2163
-4.60140 istri  -0.3584
-4.60140 italije  0.0000
-4.60140 italiji  -0.3302
-4.30040 italijom  -0.1435
-4.60140 iz  -0.3579
-4.42530 izbjegavaju  -0.2045
-4.90240 izbjegavanje  0.0000
-3.82330 izbjegavati  -0.8062
-4.60140 izdi^i  -0.3493
-3.13900 izgledi  -0.3229
-4.60140 izgledima  0.0000
-4.42530 izjedna~enog  -0.3358
-2.44150 izme}u  -1.2566
-4.90240 izmjerenih  0.0000
-4.90240 izmjereno  0.0000
-3.72640 iznad  -0.4052
-4.30040 iznadprosje~no  -0.5413
-3.78850 iznimno  -0.8527
-3.99940 izra`en  -0.7082
-3.99940 izra`ene  -0.7453
-4.30040 izuzetno  -0.5417
-3.19490 izvje{^e  -1.0077
-2.64480 izvje{taj  -1.4576
-2.54450 jadran  -1.3721
-2.33310 jadrana  -0.4313
-2.87310 jadranom  -0.6964
-1.64090 jadranu  -0.9383
-3.14660 jak  -0.6221
-2.61460 jaka  -1.3020
-4.60140 jaki  0.0000
-4.42530 jakim  -0.2044
-2.81250 jako  -1.1311
-4.20350 jakom  -0.1695
-4.30040 jaku  -0.2077
-3.62370 jasenovac  -0.2628
-4.90240 javno  0.0000
-3.07640 ja~a  -0.9593
-4.42530 ja~anje  -0.3361
-3.60140 ja~anju  -0.3426
-4.30040 ja~ati  -0.3125
-3.32270 ja~e  -1.2728
-4.42530 ja~i  -0.2044
-4.42530 ja~u  -0.3358
-2.86110 je  -0.3944
-2.28970 jedan  -0.9964
-2.89380 jedanaest  -1.4351
-4.90240 jedino  0.0000
-4.42530 jedna  -0.1874
-3.78850 jednog  -1.1135
-4.42530 jednoga  -0.3353
-3.99940 jonskim  -0.3597
-4.42530 jonsko  -0.3335
-4.90240 jonskog  0.0000
-3.94820 jonskom  -0.3588
-4.42530 jonskome  -0.3351
-2.69030 jo{  -0.4695
-4.42530 ju`ne  -0.2045
-3.10310 ju`ni  -0.8230
-3.72640 ju`nim  -0.5771
-4.42530 ju`no  -0.1979
-2.90680 ju`nog  -2.0319
-4.90240 ju`noga  0.0000
-4.20350 ju`noj  -0.3445
-2.46790 ju`nom  -1.2104
-3.94820 ju`nome  -0.4078
-4.90240 jug  0.0000
-3.18640 juga  -0.7006
-2.30260 jugo  -0.9396
-3.72640 jugoistok  -0.6307
-4.90240 jugoistoka  0.0000
-3.56000 jugoisto~ni  -0.1697
-4.90240 jugoisto~njak  0.0000
-4.42530 jugom  -0.1879
-4.42530 jugozapada  -0.2044
-2.66190 jugozapadni  -0.9422
-2.79860 jugozapadnjak  -1.0049
-3.94820 jugozapadnog  -0.4016
-3.62370 jugu  -0.5208
-4.90240 juri  0.0000
-2.58230 jutarnja  -2.0153
-3.78850 jutarnje  -0.8127
-4.60140 jutarnjih  0.0000
-4.30040 jutarnju  -0.5417
-3.37100 jutra  -0.2743
-3.75630 jutro  -0.1569
-4.90240 jutros  0.0000
-4.42530 kada  0.0000
-4.90240 kakvo  0.0000
-4.60140 kalin  -0.3302
-2.88540 kanalu  -0.6059
-4.12430 kao  -0.4892
-3.60140 karlovac  -0.2728
-4.90240 karlova~koj  0.0000
-4.90240 karlovcu  0.0000
-4.30040 kasno  -0.3476
-4.90240 kesten  0.0000
-4.60140 kestena  -0.3432
-4.90240 kidanja  0.0000
-4.90240 kidanje  0.0000
-2.58650 kilometara  -0.9986
-3.02160 kilometra  -0.9402
-2.43710 ki{a  -1.0045
-2.90240 ki{e  -0.9532
-2.64480 ki{om  -0.9743
-4.60140 ki{ovito  -0.3493
-3.82330 ki{u  -0.2189
-4.90240 klini~ki  0.0000
-3.08950 kod  -0.8012
-3.26900 koja  -1.6269
-3.75630 koje  -1.1424
-4.90240 kojeg  0.0000
-4.90240 kojega  0.0000
-3.67200 koji  -0.6168
-4.12430 kojim  -0.7672
-4.60140 kojoj  -0.3570
-3.82330 koli~ina  -0.7781
-3.86110 koncentracija  -0.4591
-3.90240 koncentracije  -0.2860
-4.05730 koncentraciji  -0.3175
-3.94820 koncentracijom  -0.2873
-4.30040 koncentraciju  -0.1233
-4.05730 kopna  -0.2557
-3.94820 kopnenim  -0.7063
-3.27920 kopnenom  -1.6812
-4.20350 kopnenome  -2.4211
-4.60140 kopnom  -0.3395
-4.60140 kornata  -0.3590
-4.90240 kornati  0.0000
-4.60140 korova  0.0000
-3.60140 kostajnica  -0.4762
-4.60140 kotar  -0.3395
-4.30040 kotara  -0.1411
-2.73510 kotaru  -1.0024
-3.99940 kotlinama  -0.2783
-3.82330 kra^a  -0.3595
-4.90240 kra^ih  0.0000
-4.90240 kra^im  0.0000
-2.89810 kraja  -1.6697
-3.27920 krajem  -0.3579
-3.28970 krajeva  -0.3609
-2.98860 krajevima  -0.4278
-4.90240 krajnjeg  0.0000
-4.42530 krajnjem  -0.3360
-3.58020 kraju  -1.3203
-4.90240 kratka  0.0000
-4.90240 kratki  0.0000
-3.54070 kratkotrajan  -1.3614
-3.38390 kratkotrajna  -1.5654
-4.05730 kratkotrajne  -0.3888
-3.39730 kratkotrajni  -1.2033
-4.12430 kratkotrajnih  -0.4721
-3.99940 kratkotrajnim  -0.6462
-3.56000 kratkotrajno  -0.3240
-4.42530 kratkotrajnog  -0.3360
-4.12430 kratkotrajnom  -0.5085
-4.42530 kratkotrajnu  -0.2044
-4.12430 kre^e  -0.3326
-4.42530 kre^u  -0.3354
-4.60140 kroni~ne  -0.3597
-3.05730 kroni~ni  -1.8737
-3.52220 kroni~nih  -1.4742
-4.60140 kroni~nim  0.0000
-4.42530 kroz  -0.3361
-4.42530 kru`i  -0.3359
-4.60140 krvo`ilnim  -0.3598
-3.35840 kupa  -1.4008
-4.60140 kvarneru  -0.3302
-4.90240 lak{e  0.0000
-4.42530 lebi^  0.0000
-4.60140 ledi  -0.3426
-4.90240 lediti  0.0000
-3.62370 levant  -0.1473
-4.42530 levanta  -0.3347
-2.70380 lici  -0.6077
-4.30040 ligurskim  -0.2247
-4.12430 ligurskog  -0.3158
-4.90240 ligurskoga  0.0000
-4.90240 ligurskom  0.0000
-4.90240 ligurskome  0.0000
-4.60140 lijepo  -0.3395
-4.42530 like  -0.1842
-4.42530 liku  0.0000
-4.90240 lipnja  0.0000
-3.99940 ljude  -0.3937
-2.93400 ljudi  -0.6011
-4.20350 ljudima  -0.1696
-4.30040 lokalne  -0.5417
-3.62370 lokalni  -1.3364
-4.42530 lokalnih  -0.2043
-4.20350 lokalnim  -0.3663
-4.60140 lovro  -0.3598
-4.90240 lo{a  0.0000
-4.12430 lo{e  -0.3360
-4.60140 lo{ije  -0.3597
-4.90240 lo{ijeg  0.0000
-4.90240 lo{iju  0.0000
-3.26900 maestral  -0.7794
-2.82690 magla  -0.6638
-3.48750 magle  -0.3665
-4.90240 magli  0.0000
-3.67200 maglom  -0.2325
-4.60140 maglovita  -0.3395
-3.45530 maglovito  -0.3930
-4.30040 maglovitog  -0.5416
-3.90240 maglu  -0.3067
-4.20350 mahovi^  -2.3920
-4.90240 mahovli^  0.0000
-4.90240 makarskog  0.0000
-4.42530 makarskoj  0.0000
-4.20350 mala  -0.1106
-2.22850 malo  -1.3342
-3.62370 malom  -0.3427
-3.67200 malu  -1.2134
-3.23970 manja  -1.2580
-3.27920 manje  -0.7444
-4.60140 manjom  -0.3598
-4.60140 manju  -0.3595
-3.78850 marija  -1.1139
-4.90240 meteorolo{ke  0.0000
-2.61910 meteorolo{kog  -2.2822
-3.78850 meteorolo{koga  -0.3586
-3.78850 meteoropata  -0.2463
-4.60140 meteoropate  -0.3395
-3.64720 meteoropati  -0.5558
-3.60140 metkovi^  -0.2561
-3.90240 me}imurju  -0.1277
-3.62370 miholjac  -0.2060
-4.60140 mijenja  -0.3570
-4.20350 mijenjati  -0.3372
-4.60140 minimalna  -0.3566
-2.14500 minus  -1.3661
-4.90240 minuti  0.0000
-4.42530 mirna  -0.3361
-4.20350 mirno  -2.4203
-4.90240 mirnog  0.0000
-4.90240 mirnoga  0.0000
-4.90240 mjesta  0.0000
-4.12430 mjestima  -0.2800
-2.03670 mjestimice  -0.9490
-4.60140 mjestimi~na  -0.3590
-4.30040 mjestimi~ni  -0.2245
-4.90240 mjestimi~nim  0.0000
-3.94820 mjestimi~nom  -0.7283
-4.60140 mjestimi~nu  0.0000
-3.82330 mnogi  -0.3972
-3.23970 mo`e  -0.6694
-4.12430 mogla  -0.3342
-4.20350 mogle  -2.4204
-3.01030 mogli  -1.5120
-3.94820 moglo  -0.4212
-3.42530 mogu  -0.6628
-3.60140 mogu^  -0.4135
-2.96790 mogu^a  -1.0489
-3.25900 mogu^e  -0.7217
-3.05120 mogu^i  -1.0837
-3.14660 mogu^nost  -0.5766
-4.60140 mogu^no{^u  -0.3597
-4.90240 mohori^  0.0000
-3.82330 mokori^  -0.7486
-3.94820 mora  -0.0657
-4.60140 moramo  -0.3597
-2.22850 more  -1.4217
-3.60140 morem  -0.3916
-2.63530 moru  -0.8176
-4.90240 mraz  0.0000
-4.90240 mu  0.0000
-4.42530 mu~iti  -0.3361
-1.41220 na  -1.4334
-2.74410 nad  -0.9201
-4.90240 nadalje  0.0000
-4.90240 naime  0.0000
-4.12430 najisto~nijim  -0.4715
-4.90240 najkasnije  0.0000
-4.90240 najmanje  0.0000
-2.79860 najni`a  -2.0995
-4.60140 najni`e  -0.3597
-4.30040 najni`u  -0.5418
-4.12430 najobla~nije  -0.1742
-4.90240 najosjetljiviji  0.0000
-3.58020 najprije  -0.8450
-4.60140 najsjevernijim  -0.3593
-4.42530 najsun~anije  -0.1873
-4.60140 najve^a  -0.3592
-2.38390 najvi{a  -1.5680
-3.22120 najvi{e  -0.6605
-4.20350 najvi{em  -0.3664
-4.20350 najvi{om  -2.4215
-4.60140 najvi{u  -0.3597
-3.99940 najzapadnijim  -0.4404
-3.82330 nakon  -0.1959
-4.90240 nam  0.0000
-2.72930 naoblaka  -0.7109
-3.24920 naoblake  -0.4241
-3.05120 naoblakom  -0.4682
-3.19490 naoblaku  -0.2918
-3.75630 naobla~enje  -0.2444
-4.90240 naobla~it  0.0000
-4.30040 naobla~iti  -0.1265
-4.90240 napora  0.0000
-3.86110 napore  -1.0118
-4.90240 nas  0.0000
-4.42530 nastavku  -0.3357
-3.75630 nastavlja  -0.3570
-4.05730 nata{a  -0.3893
-2.98860 nave~er  -0.4512
-4.90240 na{e  0.0000
-4.60140 na{ih  -0.3595
-3.52220 ne  -1.0258
-3.86110 ne^e  -0.3078
-4.42530 nedjelje  -0.1879
-3.48750 nedjelju  -0.2362
-3.62370 nego  -0.6366
-4.60140 neka  -0.3597
-4.30040 neki  -0.5410
-4.20350 nekim  -0.3453
-4.90240 nekoliko  0.0000
-4.90240 nema  0.0000
-4.90240 nepogodne  0.0000
-4.90240 nepogodni  0.0000
-4.90240 nepogodno  0.0000
-3.39730 nepovoljan  -0.6828
-4.90240 nepovoljna  0.0000
-3.99940 nepovoljne  -0.3251
-3.54070 nepovoljni  -0.2800
-4.42530 nepovoljnih  -0.3360
-4.60140 nepovoljniji  -0.3595
-4.90240 nepovoljnijih  0.0000
-4.60140 nepovoljno  0.0000
-4.60140 nepovoljnog  -0.3598
-3.60140 neretva  -0.3597
-4.12430 nervozu  -0.3093
-4.12430 nesanica  -0.2423
-4.60140 nesanice  0.0000
-4.90240 nesre^e  0.0000
-4.90240 nestabilan  0.0000
-4.90240 nestabilna  0.0000
-4.42530 nestabilni  -0.3361
-3.72640 nestabilno  -0.2875
-3.90240 nestabilnog  -0.3593
-4.90240 nestabilnosti  0.0000
-4.42530 nevere  -0.1873
-3.94820 neverin  -0.2377
-3.90240 neverina  -0.2249
-3.11710 neverini  -0.6567
-4.90240 nevrijeme  0.0000
-4.90240 neznatne  0.0000
-4.90240 neznatno  0.0000
-3.64720 ne{to  -0.2428
-3.58020 ni  -1.3218
-3.30040 ni`a  -0.7836
-4.60140 ni`e  -0.3302
-4.90240 ni`im  0.0000
-4.12430 niska  -0.4549
-4.05730 niske  -0.3645
-3.78850 niski  -1.1726
-4.30040 niskih  -0.2217
-4.60140 niskim  -0.3598
-4.30040 nismo  -0.2248
-4.90240 nizinam  0.0000
-3.56000 nizinama  -0.2607
-3.82330 ni{tice  -0.3855
-4.90240 ni{ticu  0.0000
-4.60140 njegov  -0.3594
-4.30040 njegovom  -0.3582
-4.30040 njegovu  -0.1422
-4.20350 no  -0.2557
-4.90240 no^  0.0000
-4.05730 no^as  -0.1930
-2.34370 no^i  -0.7495
-4.30040 no^na  -0.5215
-3.10310 no^u  -0.5978
-3.69830 nova  -0.4660
-4.60140 novo  -0.3597
-4.60140 novogodi{njoj  -0.3578
-3.99940 no{en  -0.6259
-2.84170 nula  -0.5363
-3.94820 nule  -0.2254
-3.04510 o  -1.9157
-4.90240 o`ujka  0.0000
-3.32270 obale  -0.3316
-4.30040 obali  -0.3582
-4.42530 obalnom  -0.2040
-2.64480 obalu  -0.6868
-4.42530 obilnije  -0.2039
-4.42530 obilnijim  0.0000
-3.86110 oblaci  -0.2477
-4.60140 oblacima  0.0000
-3.23030 oblaka  -0.3596
-4.30040 oblake  -0.2083
-4.60140 obla~ni  -0.3598
-3.52220 obla~nije  -0.3712
-2.19320 obla~no  -1.2432
-3.58020 oborina  -0.2241
-4.42530 oborinama  -0.1749
-3.69830 oborine  -0.2124
-4.60140 oborinom  0.0000
-4.90240 obrnuto  0.0000
-1.82650 od  -2.0095
-4.60140 odakle  -0.3570
-4.42530 odgovaraju^a  -0.3361
-4.42530 odgovaraju^e  -0.2045
-4.60140 odgovaraju^u  -0.3597
-4.30040 odje^a  -0.5122
-4.60140 odjenuti  0.0000
-4.42530 odmicanja  -0.3360
-4.42530 odmi~e  -0.1873
-4.42530 odnosu  -0.3190
-4.42530 oja~alo  -0.3356
-4.60140 oja~ao  -0.3596
-4.42530 oja~ati  -0.3065
-4.90240 oja~ava  0.0000
-3.54070 oko  -0.6617
-3.62370 okrenut  -0.3560
-3.23030 okrenuti  -0.3426
-3.94820 okretanju  -0.3426
-4.30040 okretati  -0.5247
-4.42530 olujan  0.0000
-3.45530 olujna  -0.8563
-4.60140 olujne  0.0000
-3.48750 olujnim  -0.9399
-3.86110 olujno  -0.7186
-4.90240 olujnom  0.0000
-4.42530 olujnu  -0.3359
-4.60140 one  0.0000
-4.60140 oni  -0.3597
-4.42530 op^eg  -0.3361
-4.42530 oprostite  -0.1979
-4.90240 oraha  0.0000
-4.90240 orkanska  0.0000
-4.05730 orkanskim  -0.9392
-2.32610 osam  -0.8802
-3.39730 osamdeset  -0.3900
-2.92470 osamnaest  -0.7899
-3.62370 osijek  -0.2514
-4.30040 osijeku  0.0000
-4.60140 osje^at  0.0000
-3.14660 osje^ati  -0.8244
-4.30040 osjetiti  -0.2248
-4.12430 osjetljive  -0.4924
-3.50450 osjetljivi  -1.4382
-3.60140 osjetljivih  -1.1423
-4.42530 osjetljivije  -0.3360
-3.86110 osjetljiviji  -0.4211
-4.90240 osjetljivijim  0.0000
-4.90240 osjetljivima  0.0000
-4.60140 osjetljivosti  -0.3426
-3.72640 osjetno  -0.5965
-4.90240 oslabio  0.0000
-3.62370 oslabit  -0.3560
-3.45530 oslabiti  -0.3639
-3.90240 oslabjet  -0.3560
-3.28970 oslabjeti  -0.5846
-4.42530 oslabljen  -0.3360
-4.42530 oslabljena  -0.3361
-4.90240 oslabljene  0.0000
-4.42530 oslabljeni  -0.3360
-3.90240 oslabljenim  -0.3595
-4.60140 oslabljenom  -0.3597
-4.90240 osmi  0.0000
-4.90240 osobama  0.0000
-3.86110 osobe  -0.3220
-2.82690 osobito  -0.9134
-3.78850 ostalim  -0.4064
-4.42530 ostalog  -0.3360
-3.75630 ostalom  -0.3578
-3.99940 osvje`enje  -0.4197
-4.12430 otocima  -0.2572
-4.42530 otrantskim  -0.3361
-4.90240 otvorena  0.0000
-2.32840 otvorenom  -1.1174
-2.96790 otvorenome  -0.8069
-4.90240 otvorenomu  0.0000
-3.94820 ovo  -0.3597
-3.82330 ovog  -0.3593
-4.30040 ovoga  -0.5414
-4.42530 ozljeda  -0.1842
-4.42530 o~ekivati  -0.3158
-3.50450 o~ekuje  -0.5640
-3.75630 o~ekuju  -0.2802
-3.41110 pa  -0.7797
-4.30040 pada  0.0000
-4.90240 padao  0.0000
-4.12430 padati  -0.0871
-4.90240 padom  0.0000
-4.30040 padu  -0.1953
-4.60140 pahulja  0.0000
-4.90240 parkova  0.0000
-4.90240 past  0.0000
-3.62370 pasti  -0.3696
-3.52220 patiti  -0.3532
-3.12430 pedeset  -0.6772
-4.05730 pelud  -0.1140
-3.99940 peluda  -0.0876
-2.21400 pet  -1.0367
-3.44000 petak  -0.1791
-4.90240 peti  0.0000
-4.05730 petka  -0.9190
-2.65450 petnaest  -1.2144
-4.90240 petnaesti  0.0000
-3.94820 petsto  -0.2034
-3.94820 pla~ko  -0.3597
-3.39730 plitka  -1.5043
-4.12430 plitko  -0.4722
-3.13900 pljusak  -0.6823
-3.69830 pljuska  -0.3911
-4.30040 pljuskom  -0.1271
-3.52220 pljuskova  -0.4309
-3.94820 pljuskove  -0.2300
-2.72350 pljuskovi  -0.9607
-2.96290 pljuskovima  -0.9344
-4.12430 plu^nih  -0.3157
-3.45530 plus  -0.9760
-3.45530 po  -1.0191
-3.86110 pobolj{anje  -0.8999
-4.42530 pobolj{ati  -0.1879
-4.42530 pod  -0.3361
-4.90240 podataka  0.0000
-3.37100 podne  -0.6656
-4.90240 podneva  0.0000
-3.86110 podno  -0.3597
-4.90240 podno{ljivija  0.0000
-4.30040 podr`ava  -0.1233
-4.90240 podr`avati  0.0000
-3.78850 podravini  -0.3557
-4.90240 podru~ja  0.0000
-4.30040 podru~je  -0.2228
-3.44000 podru~jima  -0.2699
-2.98340 podru~ju  -0.4717
-4.30040 podvelebitskom  -0.2244
-4.42530 pogodne  -0.1879
-4.05730 pogodni  -0.3597
-4.60140 pogodnih  -0.3596
-4.90240 pogodniji  0.0000
-4.42530 pogor{anje  -0.2016
-4.05730 pogor{ati  -0.2106
-4.90240 pojasu  0.0000
-4.90240 pojaviti  0.0000
-4.90240 pojavljivati  0.0000
-3.86110 poja~an  -0.2858
-3.62370 poja~ana  -0.4686
-4.30040 poja~ane  -0.3597
-3.94820 poja~anju  -0.3346
-3.50450 poja~ano  -0.4080
-4.90240 poja~anu  0.0000
-3.78850 poja~at  -0.3560
-3.45530 poja~ati  -0.5620
-4.90240 pokoji  0.0000
-4.60140 pokojim  -0.3597
-4.90240 pokre^e  0.0000
-4.90240 pokretna  0.0000
-4.60140 pokretno  0.0000
-3.23030 polako  -0.7326
-4.90240 poledica  0.0000
-4.60140 poledice  -0.3432
-2.89380 polje  -1.2207
-4.90240 pomicati  0.0000
-3.86110 pomi~e  -0.4064
-4.90240 pomorske  0.0000
-2.66940 pomorskog  -1.9592
-3.37100 pomorskoga  -0.3509
-3.38390 ponajprije  -0.9339
-4.90240 ponajvi{e  0.0000
-3.48750 ponedjeljak  -0.3081
-4.90240 ponedjeljka  0.0000
-1.99770 ponegdje  -0.9615
-4.90240 poneka  0.0000
-3.56000 ponovno  -0.1966
-4.05730 ponovo  -0.2860
-3.45530 popunjava  -0.5945
-3.58020 porast  -1.3220
-4.12430 porasti  -0.7404
-3.64720 poreme^aj  -0.2716
-3.62370 poreme^ajem  -0.4604
-4.30040 posavini  -0.3221
-3.44000 posebice  -0.5228
-4.90240 posebno  0.0000
-3.50450 poslije  -1.3978
-2.40830 poslijepodne  -0.6500
-4.90240 poslijepodneva  0.0000
-4.12430 poslijepodnevna  -0.2556
-4.90240 postojane  0.0000
-4.60140 postojano  -0.3597
-4.60140 postoji  -0.3597
-4.05730 postupan  -0.3646
-3.54070 postupna  -0.3590
-4.90240 postupni  0.0000
-2.88130 postupno  -0.5191
-4.60140 postupnom  -0.3597
-3.50450 posvuda  -0.1816
-3.90240 pote{ko^a  -0.2761
-3.22120 pote{ko^e  -0.8145
-4.30040 poticajno  -0.5417
-2.92930 potkraj  -1.2486
-4.60140 potom  -0.3395
-3.90240 potrebna  -0.4065
-4.60140 pove^anom  -0.3594
-4.30040 pove^anu  -0.5415
-3.31140 povi{enog  -0.3453
-4.90240 povi{enoga  0.0000
-4.05730 povla~i  -0.3613
-3.64720 povoljan  -0.3640
-3.72640 povoljne  -0.2755
-3.47110 povoljni  -0.6551
-3.60140 povoljnih  -1.1536
-4.12430 povoljniji  -0.1355
-4.30040 povoljno  -0.3560
-4.60140 povoljnog  -0.3597
-4.30040 povoljnoga  -0.2248
-2.72350 povremeno  -0.8453
-4.60140 po~eo  0.0000
-4.05730 po~etkom  -0.9374
-2.97820 po~etku  -0.5044
-3.69830 po~inje  -0.3597
-4.42530 pred  -0.3360
-4.20350 predjela  -0.2524
-4.60140 predjele  0.0000
-3.09630 predjelima  -0.4009
-4.60140 predve~er  0.0000
-3.90240 preko  -0.4656
-2.79860 prema  -0.9048
-4.42530 premda  0.0000
-4.90240 premjestila  0.0000
-4.60140 premjestilo  -0.3569
-3.23970 premje{ta  -0.9091
-4.90240 premje{tanja  0.0000
-4.90240 premje{tat  0.0000
-4.60140 preosjetljive  -0.3426
-4.90240 preosjetljivo{^u  0.0000
-4.90240 preostali  0.0000
-4.12430 preostalom  -0.5076
-4.90240 preporuci  0.0000
-4.20350 preporu~uje  -0.1695
-4.60140 preporu~ujemo  0.0000
-3.78850 prestanak  -2.8359
-3.94820 prestati  -0.6530
-4.90240 pret`no  0.0000
-2.58440 prete`ito  -2.0493
-2.92020 prete`no  -1.7277
-4.42530 prethodne  -0.3361
-4.90240 prethodnih  0.0000
-4.90240 prevladava  0.0000
-4.90240 prevladavala  0.0000
-3.50450 prevladavat  -0.3560
-3.75630 prevladavati  -0.4022
-4.90240 pri  0.0000
-3.52220 pribli`ava  -1.1204
-4.05730 pribli`avanja  -0.3493
-4.30040 pribli`ila  -0.5413
-4.60140 pribli`no  -0.3597
-4.42530 pridonijet  -0.3324
-4.90240 prija{njih  0.0000
-3.94820 prije  -0.9541
-4.20350 prije^i  -2.4111
-4.30040 prijeloma  -0.5122
-3.08950 prijepodne  -0.2760
-4.30040 prijepodneva  -0.3300
-4.30040 prikladna  -0.5418
-4.42530 prikladnu  -0.3360
-3.94820 prilika  -0.3953
-3.50450 prilike  -0.4877
-4.42530 primili  -0.3351
-3.75630 primi~e  -0.5499
-4.42530 primjerena  -0.3361
-4.05730 primjerenu  -0.9393
-4.42530 primorja  -0.1749
-4.90240 primorju  0.0000
-4.60140 priobalju  0.0000
-4.90240 pripadni  0.0000
-4.60140 prirodi  -0.3432
-4.90240 prirodu  0.0000
-4.60140 pristi`e  -0.3597
-4.42530 pritjecanja  -0.3361
-4.42530 pritje~e  -0.3359
-4.60140 produbljava  0.0000
-1.93160 prognoza  -2.3220
-4.90240 prognoze  0.0000
-4.05730 prohladno  -0.2178
-4.60140 prolaza  -0.3590
-4.90240 prolazak  0.0000
-4.42530 prolazan  0.0000
-4.12430 prolazna  -0.7692
-3.75630 prolazno  -0.2048
-4.90240 proljetne  0.0000
-4.90240 prometne  0.0000
-4.90240 promijenjiva  0.0000
-3.69830 promijenjivo  -1.0399
-4.90240 promijenjivom  0.0000
-4.60140 promijenjivu  -0.3595
-4.90240 promijenjljivo  0.0000
-2.98340 promjene  -1.1182
-4.20350 promjenjiva  -0.3445
-3.15430 promjenjivo  -3.1285
-3.75630 promjenjivom  -0.3594
-4.05730 promjenjivu  -0.9391
-4.12430 promjenjljiva  -0.4714
-3.41110 promjenjljivo  -0.8992
-4.12430 promjenjljivom  -0.5091
-4.30040 promjenjljivu  -0.5415
-4.05730 promjenljiva  -0.3629
-2.77530 promjenljivo  -1.2268
-3.69830 promjenljivom  -0.3594
-3.94820 promjenljivu  -0.3595
-4.90240 promjenom  0.0000
-4.60140 prosinca  0.0000
-3.82330 prostrana  -0.4693
-4.90240 prostrane  0.0000
-4.12430 prostrano  -0.1841
-4.42530 prostranog  -0.3361
-4.05730 proteklih  -0.3623
-4.12430 pro{irit  -0.5058
-4.30040 pro{iriti  -0.5247
-3.75630 pru`a  -0.4027
-4.90240 prvi  0.0000
-2.57820 prvih  -0.3566
-3.72640 prvo  -0.3426
-4.05730 prvom  -0.9374
-3.54070 puhat  -0.3560
-4.90240 pulenat  0.0000
-3.60140 radenci  -0.2899
-4.42530 radni  -0.3361
-4.30040 ranijih  -0.3597
-4.60140 ranog  -0.3597
-3.99940 raspolo`ena  -0.2507
-4.30040 raspolo`ene  -0.2235
-3.99940 raspolo`eni  -0.2168
-3.94820 raspolo`enja  -0.6585
-3.94820 raspolo`enje  -0.1875
-4.60140 raspolo`enjem  -0.3595
-4.42530 raspolo`enju  -0.3360
-4.90240 rast  0.0000
-4.90240 raste  0.0000
-4.90240 rasti  0.0000
-3.21220 razdoblja  -0.6793
-3.75630 razdoblje  -0.7607
-3.28970 razdobljima  -0.6100
-3.67200 razdra`ljivi  -0.3094
-3.62370 razdra`ljivost  -0.4582
-4.60140 razdra`ljivosti  -0.3302
-2.95310 razmjerno  -0.8183
-3.32270 razvedravanje  -0.4450
-4.90240 razvedravati  0.0000
-4.60140 razvedrit  -0.3560
-3.64720 razvedriti  -0.2422
-3.86110 razvoj  -0.8999
-3.78850 reumati~ara  -0.2803
-3.86110 reumati~ari  -0.3212
-4.60140 reumati~arima  0.0000
-4.42530 reumatskih  -0.3360
-4.90240 reumom  0.0000
-3.44000 rijeka  -0.5916
-4.20350 rijeke  -0.1065
-3.99940 rijetki  -0.4660
-4.90240 rijetkih  0.0000
-4.60140 rije~kome  -0.3593
-4.90240 rosulja  0.0000
-4.60140 rosuljom  -0.3558
-2.18390 s  -1.0275
-2.51150 sa  -1.4906
-2.83060 samo  -1.1487
-4.30040 samo{^anec  -0.5122
-4.90240 san  0.0000
-4.20350 sasvim  -0.2592
-2.24730 sati  -1.1608
-4.60140 satima  -0.3594
-3.01600 sava  -1.8236
-2.19400 se  -0.5146
-2.50450 sedam  -0.7952
-3.32270 sedamdeset  -0.6590
-3.02740 sedamnaest  -0.9363
-4.30040 sedamsto  0.0000
-4.90240 sedmi  0.0000
-4.30040 senja  -0.1387
-4.90240 sicilijom  0.0000
-4.42530 sije~nja  -0.1749
-4.05730 sinopti~arka  -0.5394
-4.90240 situacija  0.0000
-4.90240 sjever  0.0000
-3.82330 sjevera  -0.2399
-3.99940 sjeverac  -0.2966
-2.98340 sjeverni  -1.2003
-4.60140 sjevernije  -0.3532
-3.72640 sjevernim  -0.3713
-3.82330 sjevernjak  -0.7432
-3.22120 sjevernog  -1.3578
-4.90240 sjevernoga  0.0000
-4.60140 sjevernoj  -0.3590
-2.11640 sjevernom  -1.5504
-3.17820 sjevernome  -1.6914
-4.42530 sjeveroistok  -0.3065
-2.98860 sjeveroisto~ni  -1.3549
-4.90240 sjeveroisto~nim  0.0000
-3.39730 sjeveroisto~njak  -0.7112
-4.90240 sjeveroisto~nog  0.0000
-3.25900 sjeverozapada  -0.5844
-4.60140 sjeverozapadne  -0.3597
-2.53510 sjeverozapadni  -1.1922
-3.45530 sjeverozapadnim  -0.8116
-2.63760 sjeverozapadnjak  -0.8804
-4.60140 sjeverozapadnjaka  -0.3432
-4.90240 sjeverozapadno  0.0000
-3.86110 sjeverozapadnog  -1.0797
-3.60140 sjeverozapadnom  -0.9030
-4.30040 sjeverozapadu  -0.1434
-3.82330 sjeveru  -0.4224
-4.30040 skrenut  -0.5380
-4.90240 skrenuti  0.0000
-4.90240 skretanje  0.0000
-4.42530 skretanju  -0.3190
-4.90240 skretati  0.0000
-2.13310 slab  -1.1837
-2.79860 slaba  -1.0430
-3.82330 slabe  -1.1627
-3.94820 slabi  -0.2334
-4.42530 slabija  -0.3360
-3.44000 slabije  -0.3683
-4.90240 slabijeg  0.0000
-3.90240 slabiji  -0.1904
-4.90240 slabiju  0.0000
-3.60140 slabim  -0.8619
-4.60140 slabit  -0.3560
-3.52220 slabiti  -0.8124
-4.90240 slabjet  0.0000
-3.58020 slabjeti  -0.4242
-4.90240 slabljenja  0.0000
-3.78850 slabljenju  -0.4971
-3.08290 slabo  -0.7760
-3.64720 slabom  -1.2959
-3.82330 slabu  -0.7894
-2.84170 slavoniji  -0.5754
-3.30040 slavonski  -0.3476
-3.47110 slijede^eg  -0.3593
-4.30040 slijede^ega  -0.5414
-2.66190 slijede^ih  -0.3566
-4.60140 sljede^eg  -0.3593
-4.90240 sljede^ega  0.0000
-3.34610 sljede^ih  -0.3566
-4.60140 sloj  0.0000
-4.90240 slu`be  0.0000
-3.58020 smanjena  -0.3426
-4.42530 smanjene  -0.3361
-4.30040 smanjenje  -0.5416
-4.42530 smanjiti  0.0000
-4.90240 smanjuje  0.0000
-4.05730 smetnje  -0.8802
-4.90240 smiriti  0.0000
-4.90240 smirivanje  0.0000
-3.94820 smirivanju  -0.3647
-3.86110 smjera  -0.4656
-3.94820 smrzava  -0.9371
-3.90240 smrzavati  -0.3426
-3.99940 sna  -0.6465
-4.60140 sna`na  0.0000
-3.99940 sni`enog  -0.7356
-2.86900 snijeg  -0.6329
-3.25900 snijega  -0.5099
-3.24920 snijegom  -0.4584
-4.90240 snje`na  0.0000
-3.78850 snom  -0.7304
-3.44000 sparno  -0.5494
-2.58650 split  -1.8340
-3.45530 sporo  -0.7130
-4.90240 spustila  0.0000
-3.23030 sredine  -0.9401
-4.60140 sredini  -0.3579
-3.38390 sredinom  -0.3579
-4.60140 sredi{njem  0.0000
-3.86110 sredi{njim  -0.4063
-4.05730 sredi{njoj  -0.4210
-4.60140 sredi{te  -0.3598
-3.90240 sredi{tem  -0.5713
-4.90240 srednje  0.0000
-2.59490 srednjeg  -1.4375
-3.90240 srednjega  -0.4176
-2.64720 srednjem  -1.2333
-4.42530 srednji  -0.1842
-3.99940 srednjim  -0.3597
-4.20350 srednjoj  -2.4013
-4.42530 srednjom  -0.1842
-4.20350 sredozemlja  -0.3157
-3.67200 sredozemljem  -0.3233
-4.42530 sredozemlju  -0.1842
-4.05730 sredozemna  -0.9390
-4.60140 sredozemne  -0.3596
-3.50450 srijedu  -0.1950
-4.42530 srijemu  0.0000
-3.86110 sr~ane  -0.3597
-3.78850 sr~ani  -0.3593
-3.90240 sr~anih  -0.3867
-4.12430 stabilne  -0.5093
-4.90240 stabilnije  0.0000
-4.12430 stabilno  -0.2796
-4.90240 stalno  0.0000
-4.42530 stanja  -0.3065
-2.54070 stanje  -1.0776
-4.60140 stanovnici  -0.3592
-4.90240 staru  0.0000
-4.90240 stjepana  0.0000
-3.11710 sto  -0.4756
-4.60140 stoga  -0.3590
-3.82330 stojanovi^  -1.0496
-4.90240 stotine  0.0000
-4.30040 stotinu  0.0000
-4.12430 strelec  -0.7700
-4.42530 strujanja  -0.1879
-3.52220 stupanj  -0.7563
-2.75020 stupnja  -1.3399
-2.20520 stupnjeva  -1.6182
-4.90240 stvaranje  0.0000
-4.60140 stvarati  -0.3597
-3.00480 su  -0.5022
-4.42530 subote  -0.1842
-3.44000 subotu  -0.3512
-4.12430 suho  -0.1668
-3.16210 sumaglica  -0.5500
-3.22120 sumaglice  -0.7928
-3.99940 sumaglicom  -0.2512
-4.05730 sunca  -0.3638
-4.60140 sunce  -0.3426
-3.23970 sun~ana  -0.3506
-3.62370 sun~anih  -1.0021
-4.42530 sun~anije  -0.1842
-3.28970 sun~anim  -0.3595
-2.24440 sun~ano  -1.0830
-4.42530 sun~anog  -0.3356
-4.12430 susnje`ica  -0.1198
-4.30040 susnje`icom  -0.3329
-4.42530 susnje`icu  -0.2045
-4.42530 sustav  -0.2042
-4.42530 sustava  -0.3348
-3.47110 sustavom  -0.5284
-2.19150 sutra  -0.7394
-3.82330 sve  -0.4475
-4.90240 svetog  0.0000
-4.90240 svetoga  0.0000
-4.42530 svi  -0.2037
-4.20350 svje`e  -0.3465
-4.90240 svje`ija  0.0000
-3.14660 svje`ije  -0.7369
-4.12430 tako  -0.3316
-4.05730 tako}er  -0.3885
-4.60140 tamo  0.0000
-2.51150 te  -0.4843
-4.20350 tegoba  -0.1109
-3.05120 tegobe  -0.5831
-4.05730 tek  -0.3604
-2.14580 temperatura  -1.3803
-4.90240 temperaturama  0.0000
-3.39730 temperature  -0.6366
-3.72640 temperaturom  -0.4215
-4.12430 temperaturu  -0.4633
-3.62370 terezino  -0.3592
-3.09630 tiho  -1.0422
-2.86110 tijekom  -1.5575
-4.90240 tim  0.0000
-4.60140 time  -0.3597
-3.75630 tirenskim  -0.8571
-4.05730 tirenskog  -0.3476
-4.30040 tirenskom  -0.2045
-4.42530 tirenskome  -0.3351
-4.90240 tisu^e  0.0000
-4.90240 ti~e  0.0000
-3.00480 tjedna  -0.7794
-4.42530 tlak  -0.3361
-3.22120 tlaka  -0.7426
-4.90240 tlom  0.0000
-3.58020 tlu  -0.6459
-4.60140 tmurna  0.0000
-3.94820 tmurno  -0.2803
-3.60140 to  -0.6918
-4.12430 toga  -0.3349
-4.90240 tokova  0.0000
-4.90240 tom  0.0000
-2.92020 toplije  -0.8112
-4.42530 toplijeg  -0.3357
-2.97820 toplo  -0.6618
-4.90240 toplom  0.0000
-3.58020 tramontana  -0.2613
-4.05730 tramontane  -0.3879
-4.60140 trava  0.0000
-4.60140 trave  0.0000
-4.90240 travnjaka  0.0000
-4.90240 tre^e  0.0000
-3.75630 treba  -0.7897
-4.90240 trebaju  0.0000
-4.05730 trebala  -0.9390
-4.90240 trebale  0.0000
-3.44000 trebali  -1.4616
-4.30040 trebalo  -0.3586
-2.14730 tri  -1.0250
-2.49250 trideset  -1.3604
-2.68500 trinaest  -1.7080
-3.45530 tristo  -0.2389
-4.90240 tu  0.0000
-4.30040 tunisa  -0.5415
-4.90240 tunisom  0.0000
-4.90240 tuti{  0.0000
-1.62370 u  -1.4289
-3.69830 udare  -0.3670
-2.83430 udari  -1.2964
-3.44000 udarima  -0.6393
-4.90240 uglavno  0.0000
-2.25800 uglavnom  -1.0090
-4.20350 ugodno  -2.4211
-2.48750 ujutro  -0.6487
-4.90240 umjerana  0.0000
-2.28230 umjeren  -1.2087
-2.38520 umjerena  -1.2625
-3.78850 umjerene  -0.5621
-4.60140 umjereni  0.0000
-2.20700 umjereno  -1.5071
-3.26900 umjerenom  -0.8740
-3.34610 umjerenu  -0.7584
-3.62370 una  -0.3597
-4.42530 unutra{njost  -0.2042
-2.35960 unutra{njosti  -0.7050
-4.90240 uobi~ajeno  0.0000
-4.30040 upozorava  -0.5390
-4.42530 upozoravaju  -0.3360
-4.60140 upozoravamo  -0.3597
-2.80210 upozorenje  -0.9742
-3.69830 upozorenjem  -0.8735
-3.86110 upozoriti  -0.7344
-4.42530 usporeno  -0.3333
-4.42530 ustalilo  -0.3356
-4.90240 ustalio  0.0000
-4.90240 uticati  0.0000
-4.90240 uti~e  0.0000
-3.16210 utjecaj  -0.5843
-3.69830 utjecaja  -0.3305
-4.42530 utjecajem  -0.3361
-3.90240 utjecati  -0.9829
-3.48750 utorak  -0.4062
-4.42530 utorka  -0.2041
-4.90240 uvijek  0.0000
-3.75630 uvjeta  -0.3870
-4.42530 uvjete  -0.3065
-3.09630 uvjeti  -0.6857
-2.34490 uz  -0.8647
-4.42530 uzburkano  0.0000
-3.56000 uzrokovane  -1.3423
-4.60140 uzrokovanih  -0.3596
-4.60140 uzrokovat  -0.3560
-4.12430 uzrokovati  -0.1363
-4.42530 uzrokuje  -0.3361
-4.42530 u~inak  -0.3196
-4.60140 vakula  -0.3302
-4.90240 valoviti  0.0000
-2.38660 valovito  -0.9177
-3.64720 ve^  -0.5136
-4.30040 ve^a  -0.1428
-3.13900 ve^e  -1.8214
-4.60140 ve^eg  -0.3597
-3.26900 ve^em  -0.3578
-3.86110 ve^i  -0.3597
-4.42530 ve^ih  -0.2044
-3.45530 ve^ina  -1.1735
-3.25900 ve^ini  -3.3658
-2.60800 ve^inom  -1.0126
-4.30040 vedrije  -0.1953
-2.81970 vedro  -0.5663
-3.86110 velebita  -0.3090
-2.88540 velebitskom  -2.0549
-4.60140 velebitskome  -0.3592
-4.60140 veoma  0.0000
-4.90240 ve~er  0.0000
-4.60140 ve~eras  0.0000
-4.60140 ve~ernjim  -0.3598
-2.53320 vidljivost  -1.3954
-4.90240 vijest  0.0000
-4.12430 vikend  -0.1878
-4.90240 vikenda  0.0000
-3.64720 visini  -0.4431
-4.42530 visoka  -0.2044
-3.86110 visokih  -1.0383
-4.90240 visokom  0.0000
-3.37100 vi{a  -0.7531
-3.03910 vi{e  -0.7480
-4.60140 vi{em  -0.3594
-4.90240 vjerojatno  0.0000
-4.90240 vjerojatnost  0.0000
-2.05180 vjetar  -1.1999
-3.62370 vjetra  -0.4351
-3.99940 vjetrom  -0.2218
-4.20350 vjetrovito  -0.1591
-4.42530 vla`ni  -0.3158
-4.90240 vlasta  0.0000
-3.86110 vodostaj  -0.3216
-3.62370 vodostaju  -0.3596
-4.42530 vratima  -0.3317
-4.90240 vrbe  0.0000
-2.93870 vremena  -0.7105
-3.54070 vremenom  -0.4139
-2.01150 vremenska  -0.3547
-4.12430 vremenske  -0.5091
-3.44000 vremenski  -1.0156
-4.30040 vremensko  -0.5415
-4.60140 vremenskog  -0.3597
-3.17000 vremenu  -0.6856
-4.90240 vrhu  0.0000
-3.01600 vrijeme  -0.5319
-2.76890 vrlo  -0.8433
-3.21220 vru^e  -0.7200
-3.94820 vr{nak  -0.3302
-3.58020 vukovar  -0.4119
-1.82980 za  -1.8497
-4.90240 zabjelili  0.0000
-4.60140 zadr`at  -0.3560
-3.62370 zadr`ati  -0.2598
-2.98860 zadr`ava  -0.8775
-4.60140 zadr`e  -0.3597
-4.90240 zadru  0.0000
-4.30040 zagorju  -0.5215
-3.62370 zagreb  -1.2756
-4.20350 zagrebu  -0.0906
-4.90240 zahladnjenje  0.0000
-3.99940 zahla}enje  -0.6081
-4.12430 zahvatiti  -0.5091
-4.05730 zale}u  -0.3943
-4.60140 zamijeniti  -0.3592
-3.14660 zapada  -0.5114
-4.05730 zapadne  -0.8945
-2.77530 zapadni  -0.9710
-3.24920 zapadnim  -1.1338
-3.27920 zapadnjak  -0.9536
-4.90240 zapadnoeuropske  0.0000
-3.99940 zapadnog  -0.2782
-4.30040 zapadnoj  -0.3578
-3.48750 zapadnom  -0.7505
-4.20350 zapadnu  -2.4206
-4.12430 zapadu  -0.2430
-3.69830 zapuhat  -0.3560
-3.94820 zapuhati  -0.2821
-4.60140 zasad  0.0000
-4.90240 zastoja  0.0000
-2.79190 zatim  -0.4346
-3.54070 zato  -0.9116
-4.42530 zatopljenje  -0.3360
-2.65450 zavoda  -1.7116
-4.12430 za{tita  -0.2735
-4.42530 za{tititi  -0.3296
-3.82330 za{titu  -0.6141
-2.72640 zbog  -0.6686
-4.90240 zdravstvo  0.0000
-3.20350 zemlje  -0.4144
-3.42530 zemlji  -0.2161
-4.20350 zemlju  -0.3502
-4.12430 znatnije  -0.4718
-3.17820 znatno  -1.7215
-4.90240 zna~ajnije  0.0000
-4.42530 zna~i  -0.3360
-4.60140 zoran  -0.3598
-4.30040 zrak  -0.5122
-3.00480 zraka  -0.5788
-4.42530 zraku  0.0000
-3.60140 {amac  -0.2885
-2.72060 {esnaest  -0.9819
-2.40280 {est  -0.9143
-4.05730 {esto  -0.1630
-4.60140 {etnju  -0.3493
-3.41110 {ezdeset  -0.3643
-4.20350 {ire  -0.3419
-3.64720 {iri  -0.7960
-4.90240 {kifi^  0.0000
-3.44000 {to  -0.6547
-4.90240 {tovi{e  0.0000
-4.60140 ~apka  -0.3302
-4.90240 ~emu  0.0000
-4.60140 ~esto  -0.3598
-2.09420 ~etiri  -1.2547
-3.78850 ~etiristo  -0.2156
-2.83060 ~etrdeset  -0.8956
-2.74110 ~etrnaest  -1.0510
-4.42530 ~etvrtak  -0.2043
-4.12430 ~e{^e  -0.3591
-4.90240 ~e{^i  0.0000
-4.90240 ~itavom  0.0000
-3.17820 ~vora  -0.9515
-2.34490 ~vorova  -1.1597

\2-grams:
-0.24930 </s> <s> 
-1.50460 <greska> </s> 
-1.50460 <greska> na 
-1.50460 <greska> osamnaest 
-0.71790 <papir> </s> 
-1.46360 <papir> <uzdah> 
-1.62040 <papir> osjetno 
-1.46360 <papir> vremenska 
-1.62040 <papir> zbog 
-3.66900 <s> <greska> 
-3.02340 <s> <papir> 
-3.51220 <s> <sil> 
-1.39650 <s> <uzdah> 
-3.66900 <s> ^e 
-1.32980 <s> a 
-2.76650 <s> ali 
-3.51220 <s> anticiklonalni 
-3.66900 <s> anticiklonalno 
-3.66900 <s> astmati~ara 
-3.66900 <s> barem 
-1.60680 <s> biometeorolo{ka 
-3.10330 <s> biometeorolo{ki 
-3.51220 <s> bit 
-3.66900 <s> biti 
-3.66900 <s> botovo 
-2.41970 <s> bura 
-2.72070 <s> ciklona 
-3.66900 <s> ciklonalno 
-3.26570 <s> crnac 
-2.60680 <s> dana{nji 
-2.54460 <s> danju 
-2.44200 <s> djelomice 
-2.39850 <s> dnevna 
-3.51220 <s> dnevne 
-2.57460 <s> do 
-2.92870 <s> dok 
-2.54460 <s> dolina 
-3.26570 <s> donji 
-2.12970 <s> drava 
-2.32280 <s> drugdje 
-3.10330 <s> du` 
-3.66900 <s> dulja 
-2.46550 <s> dunav 
-3.02340 <s> gdje 
-3.66900 <s> gotovo 
-2.67930 <s> greben 
-2.92870 <s> hladno 
-1.93540 <s> i 
-3.26570 <s> iako 
-3.02340 <s> ili 
-3.51220 <s> ipak 
-2.18930 <s> izgledi 
-2.04860 <s> izvje{^e 
-1.50590 <s> izvje{taj 
-3.02340 <s> jadranu 
-3.51220 <s> jasenovac 
-3.51220 <s> ja~a 
-2.72070 <s> jo{ 
-3.66900 <s> ju`no 
-2.05800 <s> jugo 
-3.66900 <s> jugozapadni 
-1.69950 <s> jutarnja 
-2.92870 <s> jutarnje 
-3.51220 <s> jutra 
-2.81760 <s> jutro 
-3.66900 <s> karlovac 
-3.26570 <s> ki{a 
-2.67930 <s> kod 
-3.66900 <s> koja 
-3.66900 <s> koncentracija 
-2.72070 <s> krajem 
-3.66900 <s> kratkotrajna 
-2.81760 <s> kroni~ni 
-2.51660 <s> kupa 
-3.66900 <s> ljudi 
-2.35900 <s> malo 
-2.64160 <s> manje 
-2.72070 <s> meteoropati 
-3.51220 <s> minus 
-1.98830 <s> mjestimice 
-3.66900 <s> mogli 
-3.51220 <s> mogu^a 
-3.10330 <s> mogu^i 
-3.66900 <s> mogu^nost 
-1.27360 <s> more 
-1.09340 <s> na 
-2.41970 <s> nad 
-1.77130 <s> najni`a 
-3.66900 <s> najni`e 
-3.51220 <s> najobla~nije 
-3.26570 <s> najprije 
-1.52210 <s> najvi{a 
-2.34050 <s> najvi{e 
-3.51220 <s> nakon 
-3.26570 <s> nastavlja 
-3.10330 <s> nave~er 
-3.66900 <s> ne{to 
-3.66900 <s> no 
-3.66900 <s> no^i 
-3.66900 <s> no^na 
-2.72070 <s> no^u 
-3.66900 <s> nova 
-2.01320 <s> o 
-3.10330 <s> obla~nije 
-3.10330 <s> obla~no 
-3.10330 <s> od 
-3.51220 <s> okrenut 
-3.51220 <s> osjetljiviji 
-3.66900 <s> oslabit 
-3.51220 <s> oslabljen 
-3.02340 <s> osobe 
-3.51220 <s> osobito 
-3.51220 <s> o~ekuje 
-3.66900 <s> o~ekuju 
-3.02340 <s> pa 
-2.81760 <s> plitka 
-3.26570 <s> po 
-3.51220 <s> poja~ano 
-2.49030 <s> polje 
-2.12970 <s> ponegdje 
-3.10330 <s> posebice 
-2.21560 <s> poslijepodne 
-3.66900 <s> poslijepodnevna 
-3.51220 <s> postupna 
-2.76650 <s> postupno 
-3.66900 <s> posvuda 
-2.92870 <s> pote{ko^e 
-2.54460 <s> potkraj 
-2.64160 <s> povremeno 
-3.02340 <s> prema 
-2.20220 <s> prete`ito 
-2.72070 <s> prete`no 
-3.10330 <s> prevladavat 
-3.26570 <s> prijepodne 
-3.10330 <s> prognoza 
-3.66900 <s> prolazno 
-3.26570 <s> promijenjivo 
-2.54460 <s> promjenjivo 
-2.64160 <s> promjenjljivo 
-3.51220 <s> promjenljiva 
-1.92830 <s> promjenljivo 
-3.51220 <s> prostrana 
-3.02340 <s> prostrano 
-3.66900 <s> proteklih 
-2.51660 <s> puhat 
-3.66900 <s> razmjerno 
-3.51220 <s> reumati~ari 
-3.51220 <s> rijeka 
-3.51220 <s> s 
-2.76650 <s> sa 
-2.44200 <s> samo 
-2.03950 <s> sava 
-3.10330 <s> sinopti~arka 
-3.66900 <s> sjeverni 
-3.02340 <s> sjeverozapadni 
-2.64160 <s> slab 
-2.81760 <s> slaba 
-3.66900 <s> slabije 
-2.67930 <s> slabo 
-3.02340 <s> slavonski 
-3.66900 <s> smetnje 
-3.51220 <s> snijeg 
-3.02340 <s> sredinom 
-3.51220 <s> srednji 
-3.51220 <s> sredozemna 
-1.69950 <s> stanje 
-3.66900 <s> sto 
-3.66900 <s> stoga 
-3.26570 <s> sun~anih 
-2.34050 <s> sun~ano 
-2.37830 <s> sutra 
-2.60680 <s> te 
-2.34050 <s> tegobe 
-2.02180 <s> temperatura 
-2.92870 <s> temperature 
-2.67930 <s> tiho 
-2.54460 <s> tijekom 
-3.51220 <s> tmurno 
-3.66900 <s> toplo 
-3.02340 <s> treba 
-3.02340 <s> trideset 
-1.39650 <s> u 
-3.51220 <s> udari 
-2.34050 <s> uglavnom 
-2.08730 <s> ujutro 
-3.66900 <s> umjeren 
-2.60680 <s> umjerena 
-3.26570 <s> umjerene 
-2.20220 <s> umjereno 
-2.49030 <s> una 
-3.66900 <s> unutra{njosti 
-3.66900 <s> upozorava 
-2.46550 <s> upozorenje 
-3.26570 <s> utjecaj 
-3.51220 <s> uvjeti 
-2.12970 <s> uz 
-3.26570 <s> ve^ina 
-2.76650 <s> ve^inom 
-3.10330 <s> vedro 
-1.71210 <s> vidljivost 
-2.54460 <s> vi{e 
-1.22660 <s> vjetar 
-3.51220 <s> vodostaj 
-0.90720 <s> vremenska 
-2.67930 <s> vremenski 
-3.26570 <s> vremensko 
-2.27360 <s> vrijeme 
-2.81760 <s> vrlo 
-3.66900 <s> vukovar 
-3.66900 <s> za 
-2.92870 <s> zapadni 
-2.72070 <s> zapuhat 
-2.35900 <s> zatim 
-2.54460 <s> zato 
-2.37830 <s> zbog 
-3.66900 <s> ~e{^e 
-1.62440 <sil> </s> 
-2.12360 <sil> <uzdah> 
-1.96120 <sil> a 
-2.52690 <sil> biometeorolo{ki 
-2.52690 <sil> bura 
-2.52690 <sil> danju 
-2.12360 <sil> djelomice 
-1.67550 <sil> do 
-2.12360 <sil> drava 
-2.52690 <sil> drugdje 
-2.37010 <sil> dva 
-2.52690 <sil> hladnije 
-1.67550 <sil> i 
-2.52690 <sil> ilok 
-2.12360 <sil> jedan 
-2.52690 <sil> koji 
-1.62440 <sil> malo 
-1.49950 <sil> minus 
-2.12360 <sil> mjestimice 
-2.37010 <sil> mogu^a 
-2.52690 <sil> mogu^i 
-1.53720 <sil> more 
-0.98760 <sil> na 
-2.52690 <sil> najni`a 
-1.88130 <sil> najvi{a 
-1.88130 <sil> od 
-2.52690 <sil> oprostite 
-1.96120 <sil> pet 
-2.52690 <sil> plitka 
-2.37010 <sil> ponegdje 
-2.37010 <sil> poslijepodne 
-1.96120 <sil> prete`ito 
-1.96120 <sil> prete`no 
-2.37010 <sil> promjenljivo 
-2.37010 <sil> radenci 
-2.52690 <sil> samo 
-2.52690 <sil> sava 
-2.52690 <sil> sedamdeset 
-2.52690 <sil> slavonski 
-1.14730 <sil> stanje 
-2.52690 <sil> sumaglica 
-1.88130 <sil> sun~ano 
-2.52690 <sil> svje`ije 
-2.12360 <sil> te 
-1.62440 <sil> temperatura 
-2.52690 <sil> tiho 
-2.37010 <sil> toplije 
-2.52690 <sil> toplo 
-1.46470 <sil> u 
-2.37010 <sil> umjerena 
-2.52690 <sil> umjereno 
-1.88130 <sil> upozorenje 
-2.37010 <sil> ve^inom 
-1.88130 <sil> vedro 
-1.78660 <sil> vidljivost 
-1.53720 <sil> vjetar 
-1.67550 <sil> vremenska 
-2.37010 <sil> vrijeme 
-2.12360 <sil> zagreb 
-2.52690 <sil> zbog 
-2.52690 <sil> {esnaest 
-2.37010 <sil> {est 
-2.12360 <sil> ~etiri 
-0.50900 <udarac> </s> 
-0.32100 <uzdah> </s> 
-3.42310 <uzdah> <greska> 
-1.23680 <uzdah> a 
-2.68280 <uzdah> ali 
-3.42310 <uzdah> anticiklonalno 
-3.26630 <uzdah> biometeorolo{ki 
-3.42310 <uzdah> brzo 
-3.01980 <uzdah> bura 
-2.77750 <uzdah> ciklona 
-3.26630 <uzdah> ciklonalno 
-2.47480 <uzdah> djelomice 
-2.36090 <uzdah> dnevna 
-2.39560 <uzdah> do 
-2.39560 <uzdah> dolina 
-2.52060 <uzdah> drava 
-2.57170 <uzdah> drugdje 
-3.01980 <uzdah> du` 
-2.85740 <uzdah> dunav 
-3.26630 <uzdah> gdje 
-3.42310 <uzdah> greben 
-2.24430 <uzdah> i 
-3.42310 <uzdah> ilok 
-2.43340 <uzdah> izgledi 
-2.77750 <uzdah> izvje{taj 
-3.42310 <uzdah> jadranu 
-2.27070 <uzdah> jugo 
-2.11310 <uzdah> jutarnja 
-3.26630 <uzdah> jutra 
-3.42310 <uzdah> karlovac 
-3.42310 <uzdah> ki{e 
-3.01980 <uzdah> koja 
-3.26630 <uzdah> koji 
-2.68280 <uzdah> kupa 
-2.43340 <uzdah> malo 
-3.01980 <uzdah> meteoropati 
-3.01980 <uzdah> minus 
-2.09460 <uzdah> mjestimice 
-3.42310 <uzdah> mo`e 
-3.26630 <uzdah> mogu^a 
-3.42310 <uzdah> mogu^e 
-1.63590 <uzdah> more 
-1.21950 <uzdah> na 
-2.27070 <uzdah> nad 
-2.13240 <uzdah> najni`a 
-1.93070 <uzdah> najvi{a 
-2.68280 <uzdah> najvi{e 
-3.42310 <uzdah> nakon 
-3.26630 <uzdah> nastavlja 
-2.77750 <uzdah> no^u 
-3.26630 <uzdah> obla~no 
-2.57170 <uzdah> od 
-3.26630 <uzdah> osijek 
-3.26630 <uzdah> oslabjet 
-3.01980 <uzdah> osobito 
-3.42310 <uzdah> o~ekuje 
-3.01980 <uzdah> plitka 
-3.42310 <uzdah> podno 
-3.26630 <uzdah> polje 
-3.26630 <uzdah> ponajprije 
-2.27070 <uzdah> ponegdje 
-2.52060 <uzdah> poslijepodne 
-3.01980 <uzdah> postupno 
-3.42310 <uzdah> pote{ko^e 
-3.01980 <uzdah> potkraj 
-2.05980 <uzdah> prete`ito 
-2.27070 <uzdah> prete`no 
-3.42310 <uzdah> prijepodne 
-3.42310 <uzdah> promijenjivo 
-2.85740 <uzdah> promjenjivo 
-3.42310 <uzdah> promjenjljivo 
-2.29870 <uzdah> promjenljivo 
-3.42310 <uzdah> prostrana 
-3.26630 <uzdah> puhat 
-2.68280 <uzdah> s 
-3.26630 <uzdah> sa 
-3.42310 <uzdah> samo 
-2.29870 <uzdah> sava 
-3.26630 <uzdah> sjeverozapadni 
-2.68280 <uzdah> slabo 
-3.42310 <uzdah> slavonski 
-3.42310 <uzdah> sporo 
-3.42310 <uzdah> sredozemna 
-2.21950 <uzdah> stanje 
-2.13240 <uzdah> sun~ano 
-3.26630 <uzdah> sutra 
-3.42310 <uzdah> svje`e 
-2.29870 <uzdah> te 
-3.26630 <uzdah> tegobe 
-1.99770 <uzdah> temperatura 
-3.42310 <uzdah> terezino 
-3.01980 <uzdah> tijekom 
-3.42310 <uzdah> treba 
-3.42310 <uzdah> trideset 
-1.48360 <uzdah> u 
-2.24430 <uzdah> uglavnom 
-3.01980 <uzdah> ujutro 
-3.01980 <uzdah> umjerena 
-2.36090 <uzdah> umjereno 
-3.42310 <uzdah> una 
-2.39560 <uzdah> upozorenje 
-2.15260 <uzdah> uz 
-3.42310 <uzdah> ve^ 
-2.57170 <uzdah> ve^inom 
-3.26630 <uzdah> vedro 
-1.89500 <uzdah> vidljivost 
-2.68280 <uzdah> vi{e 
-1.53530 <uzdah> vjetar 
-1.57170 <uzdah> vremenska 
-3.42310 <uzdah> vrijeme 
-3.26630 <uzdah> vrlo 
-3.26630 <uzdah> zapuhat 
-2.85740 <uzdah> zatim 
-2.32870 <uzdah> zbog 
-3.42310 <uzdah> {to 
-1.93390 ^e </s> 
-2.21960 ^e <uzdah> 
-2.13960 ^e biometeorolo{ke 
-1.58170 ^e biometeorolo{ki 
-1.33180 ^e biti 
-2.78520 ^e brzo 
-2.62840 ^e danju 
-2.04490 ^e do 
-2.62840 ^e dobrom 
-2.62840 ^e donijeti 
-2.78520 ^e duljih 
-1.79560 ^e i 
-2.62840 ^e imati 
-2.04490 ^e jadranu 
-2.78520 ^e ja~ati 
-1.88270 ^e jo{ 
-2.78520 ^e jugo 
-2.78520 ^e jugozapadnjak 
-2.38190 ^e krajem 
-2.78520 ^e krajevima 
-1.88270 ^e ljudi 
-2.38190 ^e malo 
-2.21960 ^e mjestimice 
-1.17420 ^e na 
-2.78520 ^e nave~er 
-2.78520 ^e nepovoljni 
-2.78520 ^e nepovoljniji 
-2.21960 ^e obla~no 
-1.83700 ^e okrenuti 
-2.78520 ^e osjetno 
-1.79560 ^e oslabiti 
-1.42200 ^e oslabjeti 
-2.62840 ^e pasti 
-2.21960 ^e poja~ati 
-2.04490 ^e ponegdje 
-2.78520 ^e porasti 
-2.78520 ^e poslije 
-1.79560 ^e poslijepodne 
-1.66090 ^e postupno 
-2.62840 ^e pote{ko^e 
-2.38190 ^e poticajno 
-2.04490 ^e povremeno 
-2.78520 ^e prema 
-1.79560 ^e prevladavati 
-2.78520 ^e prilike 
-2.78520 ^e razdoblja 
-1.66090 ^e razmjerno 
-2.78520 ^e sasvim 
-0.77250 ^e se 
-1.88270 ^e slab 
-2.21960 ^e slabije 
-1.63280 ^e slabiti 
-1.63280 ^e slabjeti 
-2.38190 ^e sun~anih 
-1.75780 ^e sun~ano 
-2.78520 ^e sutra 
-2.78520 ^e svje`ije 
-2.62840 ^e temperatura 
-1.83700 ^e tijekom 
-1.24590 ^e u 
-2.38190 ^e uglavnom 
-1.75780 ^e umjeren 
-2.38190 ^e umjereno 
-1.72300 ^e utjecaj 
-2.62840 ^e utjecati 
-1.45670 ^e uvjeti 
-2.38190 ^e ve^ 
-2.38190 ^e ve^inom 
-2.78520 ^e vjetrovito 
-2.13960 ^e zapuhati 
-2.62840 ^e zemlji 
-0.26860 `aliti na 
-2.84840 a astmati~are 
-2.84840 a ciklona 
-1.57980 a danju 
-1.65900 a dnevna 
-1.91080 a do 
-2.15380 a drugdje 
-1.97770 a du` 
-2.35960 a frontalni 
-3.00520 a kasno 
-2.43950 a kod 
-2.01550 a krajem 
-2.43950 a kroni~ni 
-1.97770 a mjestimice 
-2.84840 a mogu^a 
-3.00520 a mogu^e 
-2.35960 a more 
-0.47030 a na 
-3.00520 a nad 
-1.07460 a najvi{a 
-2.84840 a najvi{e 
-1.88080 a nave~er 
-2.84840 a neki 
-2.43950 a ni 
-3.00520 a no^as 
-2.05690 a no^u 
-3.00520 a obla~no 
-3.00520 a oslabljena 
-3.00520 a oslabljeni 
-2.84840 a osobito 
-2.60190 a plitka 
-2.01550 a po 
-1.80160 a ponegdje 
-2.35960 a poslije 
-1.46580 a poslijepodne 
-2.60190 a pote{ko^e 
-1.71450 a potkraj 
-2.84840 a povremeno 
-2.84840 a prema 
-3.00520 a prijepodne 
-2.43950 a reumati~ari 
-3.00520 a s 
-2.26490 a sa 
-1.88080 a samo 
-2.10270 a sredinom 
-2.35960 a sun~ana 
-2.84840 a sun~anih 
-2.26490 a sutra 
-2.01550 a tegobe 
-1.65900 a tijekom 
-0.82140 a u 
-2.43950 a uglavnom 
-2.10270 a ujutro 
-2.05690 a uz 
-3.00520 a vidljivost 
-3.00520 a vi{e 
-3.00520 a vjetar 
-1.55180 a zatim 
-0.24930 ako se 
-0.86120 ali ^e 
-1.44470 ali do 
-1.19820 ali i 
-1.44470 ali jo{ 
-1.60150 ali o~ekuje 
-1.60150 ali poslije 
-1.60150 ali su 
-1.44470 ali tijekom 
-1.03580 ali u 
-1.60150 ali uz 
-0.24930 ankica stojanovi^ 
-0.83280 anticiklona </s> 
-0.83280 anticiklona ^e 
-0.24930 anticiklonalni greben 
-0.24930 anticiklonalno polje 
-0.26860 anticiklonalnog grebena 
-1.00740 anticiklone nad 
-1.25390 anticiklone nastavlja 
-0.76510 anticiklone sa 
-1.25390 anticiklone u 
-1.00740 anticiklone zadr`ava 
-0.39350 astmati~ara te 
-0.98970 astmati~are </s> 
-0.08720 astmati~are i 
-0.38400 astmati~ari </s> 
-0.72110 astmati~ari i 
-0.96750 astmati~ari pa 
-0.24930 astmati~arima i 
-0.24930 atlantska ciklona 
-0.24930 atmosferski poreme^aj 
-0.24930 atmosferskog tlaka 
-0.42540 baranji i 
-0.14700 barem djelomice 
-1.69450 bez oborina 
-0.45590 bez promjene 
-0.23100 bez ve^e 
-1.85140 bez znatnije 
-1.44260 bi biti 
-1.93130 bi ih 
-1.02590 bi imati 
-1.93130 bi kod 
-0.93580 bi ljudi 
-2.08810 bi mnogi 
-0.74190 bi mogli 
-1.93130 bi moglo 
-1.93130 bi nekim 
-2.08810 bi oni 
-2.08810 bi osje^ati 
-1.93130 bi osjetiti 
-1.93130 bi osjetljivije 
-2.08810 bi osobe 
-0.93580 bi se 
-2.08810 bi slabije 
-0.81770 bi trebali 
-1.68490 bi trebalo 
-1.93130 bi u 
-2.08810 bi zbog 
-0.55030 bila visoka 
-0.42540 biokova jaka 
-0.00330 biometeorolo{ka prognoza 
-1.22700 biometeorolo{ke ^e 
-0.16480 biometeorolo{ke prilike 
-1.07020 biometeorolo{ke uvjete 
-0.40330 biometeorolo{ki ^e 
-1.69990 biometeorolo{ki je 
-0.62970 biometeorolo{ki utjecaj 
-0.51050 biometeorolo{ki uvjeti 
-0.65680 biometeorolo{kih prilika 
-0.48420 biometeorolo{kih uvjeta 
-0.00160 biometeorolo{kog utjecaja 
-0.24930 bit ^e 
-2.12990 biti ^e 
-2.12990 biti dobre 
-1.38420 biti dobro 
-2.12990 biti dobrog 
-1.16240 biti i 
-2.28670 biti iznimno 
-2.12990 biti izra`en 
-2.28670 biti jaki 
-1.38420 biti ki{e 
-1.88340 biti kratkotrajnih 
-2.12990 biti lo{e 
-2.28670 biti lo{ije 
-2.12990 biti manje 
-2.28670 biti mjestimice 
-2.28670 biti na 
-1.72110 biti nepovoljan 
-1.22450 biti nepovoljni 
-1.54640 biti ne{to 
-2.12990 biti od 
-2.12990 biti pogodni 
-2.28670 biti poledice 
-2.12990 biti potrebna 
-2.12990 biti povoljan 
-1.33850 biti povoljni 
-1.88340 biti povoljniji 
-2.28670 biti prete`ito 
-1.10800 biti razdra`ljivi 
-0.87610 biti razmjerno 
-1.16240 biti slabije 
-2.28670 biti slabiji 
-2.28670 biti tegoba 
-2.12990 biti u 
-2.28670 biti umjerene 
-1.29710 biti vrlo 
-0.42540 blizini na{ih 
-0.24930 blizu tunisa 
-0.65600 bolesnici </s> 
-1.09440 bolesnici <uzdah> 
-1.83480 bolesnici bi 
-1.83480 bolesnici imat 
-1.43150 bolesnici manje 
-0.93220 bolesnici mogli 
-0.93220 bolesnici ne 
-1.83480 bolesnici ne^e 
-1.67790 bolesnici s 
-1.26910 bolesnici tako}er 
-0.93220 bolesnici te 
-0.42540 bolesnicima </s> 
-0.43140 bolesnika </s> 
-0.81400 bolesnika <uzdah> 
-1.22280 bolesnika bit 
-1.37960 bolesnika mogu^e 
-1.22280 bolesnika te 
-0.49660 bolesnike </s> 
-1.06220 bolesnike <uzdah> 
-1.06220 bolesnike i 
-0.90540 bolesnike treba 
-0.22770 bolje a 
-0.26860 bolji nego 
-0.24930 bolova na 
-0.32190 bolove </s> 
-1.06220 bolove <uzdah> 
-0.90540 bolove a 
-0.32310 bolovi </s> 
-0.72640 bolovi <uzdah> 
-0.24930 bolovima te 
-0.24930 borivoj ~apka 
-0.84600 botovo jedan 
-1.24930 botovo minus 
-1.09250 botovo pet 
-1.24930 botovo sto 
-0.84600 botovo ~etiri 
-1.24930 brod <sil> 
-1.24930 brod dva 
-1.24930 brod minus 
-1.09250 brod sedam 
-1.24930 brod tri 
-1.09250 brod {est 
-0.14780 brzo ^e 
-0.79340 brzo oslabjeti 
-1.09250 budimpe{ta dva 
-0.60370 budimpe{ta jedan 
-1.24930 budimpe{ta nismo 
-0.50900 budimpe{ta tri 
-1.24930 budimpe{ta tristo 
-0.68200 bura </s> 
-2.06020 bura <sil> 
-0.78550 bura <uzdah> 
-1.72340 bura ^e 
-1.21520 bura a 
-2.62590 bura brzo 
-1.88560 bura danju 
-2.22260 bura deset 
-2.46910 bura do 
-2.62590 bura drugdje 
-2.62590 bura dvanaest 
-0.84510 bura i 
-1.72340 bura koja 
-2.06020 bura mjestimice 
-2.62590 bura mo`e 
-2.62590 bura more 
-1.31590 bura na 
-2.46910 bura najvi{a 
-2.22260 bura nave~er 
-2.46910 bura od 
-2.46910 bura osam 
-2.62590 bura oslabit 
-1.50150 bura pet 
-1.77450 bura ponegdje 
-2.62590 bura posebice 
-2.62590 bura poslijepodne 
-2.62590 bura postupno 
-2.62590 bura potkraj 
-1.88560 bura s 
-1.98030 bura te 
-2.62590 bura temperatura 
-1.77450 bura tijekom 
-2.46910 bura u 
-2.46910 bura uz 
-1.88560 bura zatim 
-1.33520 bura {est 
-1.88560 bura ~etiri 
-2.06020 bura ~etrnaest 
-1.30840 bure </s> 
-0.97140 bure <uzdah> 
-1.71170 bure drugdje 
-1.71170 bure i 
-1.06610 bure na 
-1.71170 bure oko 
-0.25830 bure trideset 
-0.88460 burin </s> 
-1.22150 burin <sil> 
-1.14150 burin <uzdah> 
-1.04680 burin a 
-0.79750 burin danju 
-0.93580 burin na 
-1.78710 burin pet 
-1.63030 burin zatim 
-0.69270 burin ~etiri 
-0.69110 burom </s> 
-0.93760 burom <uzdah> 
-0.93760 burom i 
-1.09440 burom u 
-0.42600 buru </s> 
-0.71310 buru <uzdah> 
-1.45340 buru koja 
-1.45340 buru na 
-1.45340 buru {est 
-0.24930 centimetara snijega 
-0.00210 centra split 
-1.26860 cijeloj ^e 
-1.26860 cijeloj se 
-0.13470 cijeloj zemlji 
-0.24930 cijelom jadranu 
-0.69450 cijelu hrvatsku 
-0.20580 cijelu zemlju 
-1.78080 ciklona </s> 
-1.78080 ciklona <uzdah> 
-1.62400 ciklona iznad 
-1.78080 ciklona jo{ 
-0.65640 ciklona nad 
-1.62400 ciklona pa 
-1.13520 ciklona polako 
-1.78080 ciklona premje{ta 
-1.78080 ciklona pru`a 
-0.92940 ciklona s 
-0.75330 ciklona sa 
-1.62400 ciklona se 
-1.78080 ciklona uzrokovat 
-1.62400 ciklona uzrokuje 
-0.24930 ciklonalno polje 
-0.49040 ciklonalnog sustava 
-0.64720 ciklonalnog utjecaja 
-1.09250 ciklone ^e 
-0.34680 ciklone biometeorolo{ki 
-1.09250 ciklone na 
-1.24930 ciklone uvjeti 
-0.24930 cjelodnevne magle 
-0.24930 cjelodnevnom maglom 
-1.07020 crnac jedan 
-0.58140 crnac minus 
-1.22700 crnac pet 
-0.56960 da ^e 
-1.26930 dalje ^e 
-0.46900 dalje biti 
-1.51570 dalje hladno 
-1.02700 dalje na 
-1.51570 dalje ponegdje 
-1.67250 dalje promjenljivo 
-1.10690 dalje razmjerno 
-1.67250 dalje sun~ano 
-1.02700 dalje vru^e 
-0.98970 dalmacije </s> 
-0.98970 dalmacije <uzdah> 
-0.98970 dalmacije mo`e 
-1.34150 dalmaciji </s> 
-1.13350 dalmaciji <uzdah> 
-1.51610 dalmaciji a 
-2.08180 dalmaciji bit 
-1.92500 dalmaciji djelomice 
-1.51610 dalmaciji do 
-1.51610 dalmaciji gdje 
-0.71860 dalmaciji i 
-2.08180 dalmaciji isto~njak 
-2.08180 dalmaciji izme}u 
-2.08180 dalmaciji jugozapadnjak 
-1.92500 dalmaciji ki{a 
-1.51610 dalmaciji mjestimice 
-1.17930 dalmaciji od 
-1.51610 dalmaciji ponegdje 
-1.43620 dalmaciji prete`ito 
-2.08180 dalmaciji slab 
-2.08180 dalmaciji slaba 
-2.08180 dalmaciji sun~ano 
-1.92500 dalmaciji te 
-2.08180 dalmaciji umjereno 
-2.08180 dalmaciji ve^i 
-1.67850 dalmaciji ve^inom 
-0.00160 dalmatinskome zale}u 
-0.79150 dan srijedu 
-0.94830 dan za 
-1.39550 dana </s> 
-2.48980 dana <sil> 
-1.50020 dana <uzdah> 
-1.63850 dana ^e 
-2.48980 dana a 
-2.08660 dana bura 
-2.48980 dana djelomi~no 
-2.48980 dana du` 
-0.74920 dana i 
-2.33300 dana iznimno 
-2.48980 dana jako 
-2.48980 dana ja~a 
-2.48980 dana ja~ati 
-1.84430 dana jo{ 
-2.48980 dana jugozapadnjak 
-2.48980 dana ki{a 
-2.08660 dana kra^a 
-1.84430 dana malo 
-1.31110 dana mjestimice 
-2.48980 dana mo`e 
-2.48980 dana mogu^i 
-0.93950 dana na 
-2.33300 dana obla~nije 
-2.48980 dana okrenut 
-2.48980 dana oslabiti 
-2.48980 dana osobito 
-2.48980 dana polako 
-1.54160 dana ponegdje 
-2.48980 dana porast 
-1.63850 dana postupno 
-2.33300 dana posvuda 
-2.33300 dana prete`ito 
-2.08660 dana pro{irit 
-2.08660 dana sa 
-2.48980 dana sjeverozapadni 
-2.33300 dana sjeverozapadnjak 
-1.36550 dana slab 
-1.84430 dana slabo 
-2.33300 dana te 
-1.31110 dana u 
-2.48980 dana udari 
-1.84430 dana uglavnom 
-2.08660 dana umjeren 
-1.74950 dana umjerena 
-1.92420 dana umjereno 
-1.58730 dana uz 
-1.92420 dana vjetar 
-2.08660 dana zapadni 
-2.48980 dana zato 
-1.50750 danas </s> 
-1.66430 danas <sil> 
-1.26100 danas <uzdah> 
-0.31810 danas i 
-1.66430 danas osobito 
-1.66430 danas poslije 
-1.66430 danas poslijepodne 
-1.66430 danas ujutro 
-0.24930 dana{njega s 
-0.66140 dana{nji dan 
-0.58140 dana{nji izvje{taj 
-0.37570 dana{nji vodostaj 
-0.55030 dane </s> 
-1.15730 danju ^e 
-1.25210 danju i 
-1.74080 danju na 
-1.89770 danju oslabjeti 
-1.15730 danju ponegdje 
-1.74080 danju posvuda 
-1.89770 danju povremeno 
-1.89770 danju razmjerno 
-1.25210 danju sjeverozapadnjak 
-0.60700 danju slab 
-1.74080 danju u 
-1.89770 danju udari 
-1.89770 danju uglavnom 
-1.74080 danju umjeren 
-1.49440 danju uz 
-1.74080 danju ve^inom 
-1.33200 danju zapadnjak 
-0.14700 davor samo{^anec 
-0.26860 depresijsko polje 
-1.50830 deset </s> 
-2.57050 deset <sil> 
-2.00480 deset <uzdah> 
-2.00480 deset a 
-0.20230 deset do 
-1.09070 deset i 
-2.16720 deset kilometara 
-1.66800 deset na 
-2.57050 deset najvi{a 
-1.13090 deset stupnjeva 
-2.57050 deset uz 
-1.92490 deset zbog 
-1.11710 deset ~vorova 
-1.42540 devedeset </s> 
-1.26860 devedeset devet 
-0.77980 devedeset dva 
-1.02210 devedeset i 
-1.26860 devedeset jedan 
-1.26860 devedeset osam 
-0.85970 devedeset tri 
-1.42540 devedeset ~etiri 
-0.89900 devet </s> 
-1.87540 devet <sil> 
-1.25120 devet <uzdah> 
-2.27870 devet a 
-1.87540 devet devet 
-0.60610 devet do 
-2.27870 devet drava 
-1.63310 devet dva 
-1.87540 devet dvjesto 
-1.37620 devet i 
-1.87540 devet jedan 
-2.27870 devet kupa 
-1.53840 devet minus 
-1.25120 devet na 
-1.87540 devet nula 
-2.12190 devet osam 
-2.27870 devet osamdeset 
-2.27870 devet petsto 
-0.85330 devet stupnjeva 
-1.53840 devet tri 
-2.12190 devet tristo 
-1.87540 devet ~etiri 
-1.13520 devetnaest </s> 
-1.13520 devetnaest <uzdah> 
-1.37750 devetnaest a 
-0.43460 devetnaest do 
-1.21510 devetnaest i 
-1.78080 devetnaest jedan 
-1.37750 devetnaest na 
-0.92940 devetnaest sati 
-1.21510 devetnaest stupnjeva 
-1.78080 devetnaest ~vorova 
-0.38190 dijela jadrana 
-0.46180 dijela srednjeg 
-0.24930 dijelovima unutra{njosti 
-1.40290 dijelu </s> 
-1.75700 dijelu <uzdah> 
-2.49730 dijelu a 
-1.54900 dijelu bura 
-1.08660 dijelu dana 
-2.09400 dijelu do 
-1.85170 dijelu i 
-0.84140 dijelu jadrana 
-1.75700 dijelu ju`nog 
-1.75700 dijelu mjestimice 
-2.49730 dijelu na 
-2.09400 dijelu no^i 
-2.49730 dijelu okrenut 
-2.49730 dijelu oslabjeti 
-2.34050 dijelu petka 
-1.54900 dijelu sjevernog 
-0.37000 dijelu srednjeg 
-1.64590 dijelu srednjega 
-2.49730 dijelu umjerena 
-1.85170 dijelu unutra{njosti 
-1.24800 dijelu zemlje 
-1.15240 dio </s> 
-0.16270 dio dana 
-1.15240 dio prijepodneva 
-0.24930 divljeg kestena 
-1.51220 djelomice ^e 
-1.41750 djelomice a 
-1.59210 djelomice ili 
-1.41750 djelomice razvedravanje 
-2.15780 djelomice razvedriti 
-0.10910 djelomice sun~ano 
-1.75450 djelomice vedrije 
-0.07920 djelomi~no razvedravanje 
-0.24930 djelovati na 
-1.72920 dnevna <uzdah> 
-0.90800 dnevna izme}u 
-0.34020 dnevna od 
-0.80330 dnevna temperatura 
-1.28040 dnevna u 
-0.84670 dnevna uglavnom 
-1.80910 dnevna ve^inom 
-0.90250 dnevne izme}u 
-0.25690 dnevne od 
-3.27960 do <greska> 
-1.45870 do deset 
-2.02570 do devet 
-2.28400 do devetnaest 
-1.47110 do dva 
-0.73380 do dvadeset 
-1.56380 do dvanaest 
-2.10790 do jak 
-1.78920 do jaka 
-1.79790 do jako 
-2.18710 do jedan 
-2.05680 do jedanaest 
-3.43640 do jugozapadni 
-3.03310 do jutra 
-1.48380 do kraja 
-1.50590 do minus 
-3.43640 do nave~er 
-3.03310 do ni{tice 
-2.44670 do nula 
-3.03310 do nule 
-3.43640 do olujne 
-1.95660 do osam 
-1.71730 do osamnaest 
-2.05680 do pedeset 
-1.58500 do pet 
-1.52430 do petnaest 
-2.20940 do plus 
-3.43640 do poja~an 
-2.87070 do poja~ana 
-3.27960 do poja~ano 
-3.43640 do ponegdje 
-2.20940 do prete`ito 
-2.40890 do prete`no 
-3.43640 do ranog 
-2.16590 do sedam 
-1.93180 do sedamnaest 
-1.85470 do sredine 
-1.19150 do tri 
-1.58500 do trideset 
-1.54360 do trinaest 
-1.28950 do umjeren 
-1.69570 do umjerena 
-1.22810 do umjereno 
-2.05680 do umjerenom 
-2.09020 do umjerenu 
-3.03310 do vrlo 
-1.93180 do znatno 
-1.46280 do {esnaest 
-2.10790 do {est 
-3.43640 do {ezdeset 
-1.33280 do ~etiri 
-1.58500 do ~etrdeset 
-1.53390 do ~etrnaest 
-0.24930 doba godine 
-0.26860 dobar radni 
-0.26860 dobre koncentracije 
-1.31000 dobro </s> 
-1.31000 dobro <uzdah> 
-0.72650 dobro a 
-1.46680 dobro biti 
-1.46680 dobro i 
-0.61540 dobro raspolo`ena 
-1.31000 dobro {to 
-0.39010 dobrog raspolo`enja 
-0.63660 dobrog sna 
-0.26860 dobroga raspolo`enja 
-0.26860 dobrom raspolo`enju 
-0.24930 dodatne napore 
-0.20580 dok ^e 
-0.85140 dok po 
-1.14750 dolina i 
-1.03640 dolina nad 
-1.88780 dolina polako 
-1.88780 dolina premje{ta 
-0.18360 dolina s 
-1.73100 dolina sa 
-1.73100 dolina zadr`ava 
-0.24930 dolinu prema 
-0.42540 donijeti biometeorolo{ki 
-0.24930 donji miholjac 
-0.24930 donositi i 
-0.42540 dosta sporo 
-0.24930 dr`avnog hidrometeorolo{kog 
-0.00930 dr`avnoga hidrometeorolo{kog 
-0.26860 dragojlovi^ </s> 
-0.26860 dragoslav dragojlovi^ 
-0.56890 drava botovo 
-0.65320 drava donji 
-0.62320 drava osijek 
-0.62320 drava terezino 
-1.77430 drugdje bez 
-1.77430 drugdje deset 
-1.77430 drugdje djelomice 
-1.77430 drugdje juga 
-0.87180 drugdje jugo 
-1.37110 drugdje jugozapadni 
-1.77430 drugdje jugozapadnog 
-1.77430 drugdje malo 
-1.37110 drugdje obla~no 
-1.77430 drugdje prete`ito 
-1.61750 drugdje promjenjljivo 
-1.77430 drugdje promjenljivo 
-1.61750 drugdje sjeverozapadni 
-1.77430 drugdje sun~ano 
-1.20870 drugdje umjereno 
-1.12880 drugdje uz 
-0.24930 drugom dijelu 
-0.24930 drugome dijelu 
-0.24930 drvar </s> 
-0.05370 du` obale 
-1.42490 du` ostalog 
-1.58170 du` ve^eg 
-0.14700 du`e zadr`ati 
-0.72640 duboka atlantska 
-0.72640 duboka ciklona 
-0.72640 duboka sredozemna 
-0.24930 dubrova~kome podru~ju 
-0.24930 dugotrajna magla 
-0.26860 dugotrajnom maglom 
-0.14700 dugotrajnu maglu 
-0.24930 dulja sun~ana 
-0.05310 dulje zadr`ati 
-0.24930 duljih sun~anih 
-0.43720 dunav budimpe{ta 
-0.56990 dunav ilok 
-0.48560 dunav vukovar 
-0.55030 dunja drvar 
-0.56960 dunja pla~ko 
-1.22640 dva </s> 
-1.66010 dva <sil> 
-1.34380 dva <uzdah> 
-2.01410 dva a 
-1.85190 dva devet 
-0.38290 dva do 
-2.35120 dva dva 
-2.59760 dva dvjesto 
-1.55090 dva i 
-2.18880 dva jedan 
-2.75450 dva minus 
-2.35120 dva mjestimice 
-1.14340 dva na 
-1.72700 dva nula 
-1.80620 dva osam 
-2.75450 dva osamdeset 
-2.75450 dva pedeset 
-1.90310 dva pet 
-1.76480 dva ponegdje 
-2.75450 dva poslije 
-1.72700 dva sedam 
-2.01410 dva sto 
-1.27470 dva stupnja 
-2.35120 dva tri 
-2.59760 dva tristo 
-1.76480 dva u 
-1.60210 dva vidljivost 
-1.72700 dva {est 
-1.76480 dva ~etiri 
-2.59760 dva ~etrdeset 
-1.42600 dva ~vora 
-1.68120 dvadeset </s> 
-1.63780 dvadeset <uzdah> 
-2.90830 dvadeset centimetara 
-1.81390 dvadeset devet 
-1.35790 dvadeset do 
-1.12110 dvadeset dva 
-1.06790 dvadeset i 
-1.31650 dvadeset jedan 
-0.69520 dvadeset kilometara 
-1.91860 dvadeset kilometra 
-1.96000 dvadeset mjestimice 
-1.91860 dvadeset na 
-2.90830 dvadeset od 
-1.19660 dvadeset osam 
-1.12110 dvadeset pet 
-2.34260 dvadeset ponegdje 
-2.90830 dvadeset samo 
-1.34720 dvadeset sedam 
-1.68120 dvadeset stupnjeva 
-2.75140 dvadeset tijekom 
-1.40370 dvadeset tri 
-1.18910 dvadeset {est 
-1.05690 dvadeset ~etiri 
-1.51280 dvadeset ~vorova 
-2.30990 dvanaest </s> 
-2.71320 dvanaest <sil> 
-2.14750 dvanaest <uzdah> 
-2.30990 dvanaest a 
-1.02460 dvanaest do 
-2.06760 dvanaest i 
-2.71320 dvanaest mjestimice 
-1.76490 dvanaest na 
-2.71320 dvanaest oslabit 
-0.13960 dvanaest sati 
-2.71320 dvanaest skrenut 
-1.19670 dvanaest stupnjeva 
-2.30990 dvanaest u 
-1.38470 dvanaest ~vorova 
-1.70410 dvjesto </s> 
-0.96380 dvjesto devedeset 
-1.70410 dvjesto dvadeset 
-1.70410 dvjesto osam 
-1.05860 dvjesto osamdeset 
-1.13850 dvjesto pedeset 
-0.96380 dvjesto sedamdeset 
-1.70410 dvjesto tri 
-1.54730 dvjesto trideset 
-1.13850 dvjesto {ezdeset 
-0.85280 dvjesto ~etrdeset 
-1.70410 dvjesto ~etrnaest 
-0.79340 europe </s> 
-0.79340 europe <uzdah> 
-0.24930 europskim kopnom 
-0.16080 europskog kopna 
-0.09690 frontalni poreme^aj 
-1.09250 frontalni sustav 
-0.63330 frontalnim poreme^ajem 
-0.50000 frontalnim sustavom 
-0.33690 fronte sa 
-0.74570 fronte u 
-0.49920 frontom </s> 
-0.74570 frontom sa 
-0.56730 gdje ^e 
-0.77820 gdje je 
-1.62950 gdje mjestimice 
-1.62950 gdje mo`e 
-1.62950 gdje polje 
-1.22620 gdje ponegdje 
-0.63980 gdje se 
-1.47270 gdje su 
-0.55030 glasi zbog 
-0.24930 glavninom sjevernije 
-0.24930 glavobolja i 
-0.78060 glavobolje </s> 
-1.18940 glavobolje <uzdah> 
-1.34620 glavobolje a 
-0.60590 glavobolje i 
-1.34620 glavobolje smanjene 
-0.94290 glavobolje te 
-0.58140 glavobolju a 
-1.22700 glavobolju biti 
-0.48670 glavobolju i 
-1.22700 glavobolju te 
-0.33690 godine <uzdah> 
-1.12220 gorju </s> 
-1.36450 gorju <uzdah> 
-1.76780 gorju do 
-0.54080 gorju i 
-1.76780 gorju ki{u 
-1.61100 gorju malo 
-1.76780 gorju mogu^i 
-1.02750 gorju od 
-1.61100 gorju povremeno 
-1.76780 gorju prete`no 
-1.61100 gorju snijegom 
-1.76780 gorju te 
-1.76780 gorju umjeren 
-1.61100 gorju umjerena 
-0.24930 gorski kotar 
-1.08900 gorskim i 
-0.64100 gorskim krajevima 
-0.92670 gorskim podru~jima 
-0.31360 gorskim predjelima 
-0.14700 gorskog kotara 
-0.24930 gorskoj hrvatskoj 
-0.00760 gorskom kotaru 
-2.01270 gorskom podru~ju 
-0.02560 gorskome kotaru 
-1.49230 gorskome podru~ju 
-1.17870 gotovo svi 
-0.15130 gotovo tiho 
-0.14700 granici ki{e 
-0.78610 greben </s> 
-1.04300 greben <uzdah> 
-1.68860 greben a 
-0.48510 greben anticiklone 
-1.04300 greben prema 
-1.68860 greben s 
-1.04300 greben sa 
-1.53180 greben vremenska 
-0.26860 grebena sa 
-0.36800 grmljavina </s> 
-2.09440 grmljavina <sil> 
-0.66900 grmljavina <uzdah> 
-1.93760 grmljavina a 
-1.69110 grmljavina i 
-1.93760 grmljavina na 
-1.69110 grmljavina osobito 
-2.09440 grmljavina poja~ano 
-1.44880 grmljavina ponajprije 
-2.09440 grmljavina poslijepodne 
-2.09440 grmljavina prvo 
-1.93760 grmljavina u 
-0.94200 grmljavina uglavnom 
-0.49140 grmljavine </s> 
-1.43960 grmljavine <sil> 
-0.69930 grmljavine <uzdah> 
-1.03630 grmljavine i 
-1.28280 grmljavine svje`ije 
-1.43960 grmljavine uglavnom 
-0.43540 grmljavinom </s> 
-1.52560 grmljavinom <sil> 
-0.56320 grmljavinom <uzdah> 
-1.68800 grmljavinom a 
-1.93450 grmljavinom i 
-2.09130 grmljavinom koja 
-2.09130 grmljavinom mjestimice 
-1.68800 grmljavinom na 
-1.35100 grmljavinom osobito 
-2.09130 grmljavinom poslijepodne 
-1.93450 grmljavinom te 
-1.93450 grmljavinom u 
-1.44570 grmljavinom uglavnom 
-1.93450 grmljavinom vjetar 
-2.09130 grmljavinom zatim 
-2.09130 grmljavinom {to 
-0.90250 grmljavinu </s> 
-0.90250 grmljavinu <uzdah> 
-0.90250 grmljavinu i 
-0.90250 grmljavinu najve^a 
-0.24930 hidrometeorolo{kog zavoda 
-0.72640 hladna a 
-0.56960 hladna fronta 
-0.05310 hladne fronte 
-0.34680 hladnije </s> 
-1.24930 hladnije nego 
-1.24930 hladnije od 
-1.24930 hladnije ponegdje 
-1.24930 hladnije s 
-1.24930 hladnije uz 
-0.88250 hladno </s> 
-1.37120 hladno <sil> 
-1.37120 hladno <uzdah> 
-1.52810 hladno i 
-1.52810 hladno na 
-1.52810 hladno osobito 
-1.52810 hladno posebice 
-0.88250 hladno s 
-1.52810 hladno slab 
-1.52810 hladno u 
-0.96240 hladno uz 
-1.15240 hladno^e </s> 
-1.15240 hladno^e <uzdah> 
-0.99560 hladno^e a 
-1.15240 hladno^e i 
-0.99560 hladno^e osobito 
-1.15240 hladno^e poja~ane 
-1.15240 hladno^e treba 
-0.24930 hladno^u posebice 
-0.24930 hladnog i 
-0.24930 hladnoga i 
-0.24930 hladnom frontom 
-0.42540 hrasta i 
-0.24930 hrvatska kostajnica 
-0.70970 hrvatskoj </s> 
-0.82070 hrvatskoj <uzdah> 
-1.56110 hrvatskoj gdje 
-0.70970 hrvatskoj i 
-1.56110 hrvatskoj ki{a 
-1.56110 hrvatskoj od 
-1.15780 hrvatskoj uglavnom 
-0.26860 hrvatskom zagorju 
-0.79340 hrvatsku <uzdah> 
-0.39010 hrvatsku za 
-3.35350 i </s> 
-3.35350 i <greska> 
-3.51030 i astmati~are 
-3.51030 i baranji 
-2.56210 i biti 
-2.35790 i bura 
-3.51030 i burin 
-3.35350 i buru 
-1.88080 i dalje 
-2.18180 i dalmaciji 
-2.86470 i dalmatinskome 
-2.60780 i deset 
-2.30680 i devet 
-2.65900 i devetnaest 
-2.94470 i dijela 
-1.56640 i dijelu 
-3.51030 i dio 
-3.51030 i divljeg 
-2.86470 i djelomice 
-3.35350 i djelomi~no 
-2.94470 i do 
-3.35350 i dobroga 
-3.51030 i du`e 
-3.51030 i duboka 
-2.77000 i dulje 
-2.21960 i dva 
-1.77670 i dvadeset 
-2.52070 i dvanaest 
-2.77000 i frontalni 
-2.65900 i gorskim 
-3.35350 i gorskog 
-2.94470 i gorskoj 
-2.20030 i gorskom 
-3.35350 i gorskome 
-2.77000 i gotovo 
-1.50900 i grmljavina 
-2.16410 i grmljavine 
-1.72320 i grmljavinom 
-2.94470 i grmljavinu 
-3.51030 i hladnije 
-2.48290 i hladno 
-3.51030 i hladno^e 
-3.51030 i ispod 
-3.10700 i istoku 
-2.44810 i isto~ni 
-2.41590 i isto~nim 
-2.23980 i isto~njak 
-3.35350 i isto~njakom 
-3.51030 i isto~nog 
-2.52070 i isto~noj 
-3.35350 i jadrana 
-3.35350 i jadranu 
-2.18180 i jak 
-1.75590 i jaka 
-1.98230 i jako 
-2.86470 i jakom 
-3.51030 i jaku 
-2.35790 i ja~e 
-2.38600 i jedan 
-2.44810 i jedanaest 
-2.86470 i jonskim 
-2.86470 i jonskom 
-2.38600 i jo{ 
-2.56210 i ju`ni 
-2.65900 i ju`nim 
-1.98230 i ju`nog 
-3.51030 i ju`noj 
-1.69280 i ju`nom 
-1.99390 i jugo 
-2.38600 i jugoisto~ni 
-1.72320 i jugozapadni 
-1.87190 i jugozapadnjak 
-3.10700 i jugozapadnog 
-3.10700 i jutarnja 
-3.51030 i jutarnju 
-2.65900 i jutra 
-2.60780 i ki{a 
-3.51030 i ki{om 
-3.51030 i ki{ovito 
-2.35790 i kod 
-2.60780 i koncentracijom 
-3.35350 i kra^a 
-3.51030 i kratkotrajni 
-3.51030 i kroni~ne 
-2.04350 i kroni~ni 
-2.30680 i levant 
-3.51030 i levanta 
-1.59360 i lici 
-3.35350 i ligurskim 
-3.51030 i liku 
-3.51030 i lokalnim 
-2.23980 i magla 
-2.77000 i magle 
-2.44810 i maglovito 
-3.10700 i maglovitog 
-1.76270 i malo 
-3.51030 i manje 
-2.94470 i me}imurju 
-2.14710 i minus 
-2.56210 i mjestimice 
-3.51030 i mjestimi~na 
-3.35350 i mogla 
-3.51030 i mogu^nost 
-2.38600 i more 
-1.41590 i na 
-3.35350 i nad 
-3.10700 i najisto~nijim 
-3.35350 i najobla~nije 
-2.21960 i nave~er 
-2.86470 i nedjelju 
-2.30680 i neretva 
-3.35350 i nervozu 
-3.35350 i nesanica 
-3.35350 i nestabilni 
-2.52070 i nestabilno 
-3.51030 i niska 
-3.51030 i niski 
-3.51030 i niskim 
-3.51030 i no^i 
-3.10700 i no^u 
-3.51030 i obilnije 
-3.51030 i obilnijim 
-3.35350 i od 
-3.51030 i odmi~e 
-2.44810 i okrenuti 
-3.51030 i okretati 
-3.51030 i olujan 
-2.26100 i olujna 
-2.65900 i olujno 
-3.35350 i olujnu 
-3.10700 i orkanskim 
-2.41590 i osam 
-3.35350 i osamnaest 
-2.77000 i osjetno 
-2.48290 i osobito 
-3.35350 i otocima 
-3.51030 i otvorenome 
-2.77000 i patiti 
-2.14710 i pet 
-2.38600 i petnaest 
-2.86470 i pljuskova 
-2.60780 i pljuskovi 
-2.52070 i pljuskovima 
-3.35350 i plu^nih 
-2.86470 i plus 
-3.51030 i podno 
-2.60780 i podravini 
-3.51030 i poja~an 
-2.94470 i poja~ana 
-3.51030 i poja~ane 
-2.86470 i poja~ano 
-3.51030 i poja~at 
-3.10700 i pomi~e 
-2.07070 i ponegdje 
-3.10700 i ponovno 
-3.51030 i posavini 
-3.10700 i posebice 
-2.52070 i poslijepodne 
-3.51030 i postojano 
-2.94470 i postupno 
-3.35350 i pote{ko^e 
-3.35350 i potkraj 
-3.51030 i pove^anom 
-3.51030 i pred 
-3.51030 i prema 
-3.10700 i premje{ta 
-2.86470 i prestati 
-3.35350 i prete`ito 
-3.35350 i prete`no 
-3.51030 i pribli`no 
-3.10700 i prije 
-3.51030 i prijeloma 
-2.14710 i prijepodne 
-2.26100 i prognoza 
-3.10700 i prohladno 
-3.51030 i prolazno 
-2.56210 i razdra`ljivost 
-3.51030 i razdra`ljivosti 
-2.94470 i razmjerno 
-3.51030 i razvedrit 
-3.35350 i reumati~ara 
-3.35350 i reumatskih 
-3.35350 i rijetki 
-3.51030 i s 
-3.51030 i sa 
-3.51030 i samo 
-2.56210 i sedam 
-2.52070 i sedamnaest 
-2.38600 i sjeverni 
-3.10700 i sjevernjak 
-2.56210 i sjevernog 
-1.89930 i sjeveroisto~ni 
-2.60780 i sjeveroisto~njak 
-1.70470 i sjeverozapadni 
-2.86470 i sjeverozapadnim 
-1.81390 i sjeverozapadnjak 
-3.35350 i sjeverozapadnog 
-2.44810 i sjeverozapadnom 
-3.51030 i sjeverozapadu 
-2.65900 i slab 
-3.51030 i slabe 
-3.51030 i slabom 
-2.77000 i slavoniji 
-3.51030 i smanjenje 
-3.51030 i smrzavati 
-3.51030 i sna`na 
-2.48290 i snijeg 
-2.86470 i snijega 
-2.65900 i snijegom 
-2.18180 i sparno 
-3.35350 i sredi{njim 
-2.44810 i srednjeg 
-1.73600 i srednjem 
-2.86470 i srednjim 
-3.51030 i sredozemljem 
-2.52070 i srijedu 
-2.60780 i sr~ane 
-2.65900 i sr~ani 
-3.51030 i sumaglica 
-2.86470 i sun~ana 
-3.35350 i sun~anih 
-2.86470 i sun~ano 
-3.51030 i susnje`ica 
-1.89000 i sutra 
-2.86470 i svje`ije 
-3.51030 i tamo 
-3.35350 i temperatura 
-3.51030 i tijekom 
-3.51030 i tirenskim 
-3.35350 i tirenskog 
-3.51030 i tmurna 
-2.94470 i tmurno 
-2.26100 i to 
-2.30680 i toplije 
-2.09970 i toplo 
-3.35350 i tramontana 
-2.38600 i tri 
-2.08490 i trideset 
-2.48290 i trinaest 
-1.38310 i u 
-2.86470 i uglavnom 
-2.86470 i ugodno 
-1.52460 i ujutro 
-2.00580 i umjeren 
-2.30680 i umjerena 
-3.51030 i umjerene 
-2.56210 i umjereno 
-3.35350 i unutra{njosti 
-2.86470 i utorak 
-2.65900 i uz 
-3.35350 i uzburkano 
-1.94930 i valovito 
-3.35350 i ve^em 
-3.35350 i vidljivost 
-3.51030 i vi{e 
-3.51030 i vjetrovito 
-3.35350 i vodostaju 
-2.56210 i vremenska 
-2.04350 i vrlo 
-2.14710 i vru^e 
-3.51030 i zapadne 
-1.79120 i zapadni 
-2.48290 i zapadnjak 
-3.35350 i zapadnog 
-2.77000 i zapadnom 
-3.51030 i zapadu 
-2.35790 i znatno 
-2.56210 i {esnaest 
-2.52070 i {est 
-3.51030 i {iri 
-2.13070 i ~etiri 
-2.77000 i ~etrnaest 
-0.00160 iako ^e 
-0.26860 ih mu~iti 
-2.16070 ili bura 
-0.89210 ili burin 
-2.31750 ili izdi^i 
-2.31750 ili jo{ 
-2.16070 ili ki{a 
-2.31750 ili ki{om 
-1.32780 ili kratkotrajan 
-1.57720 ili kratkotrajni 
-1.91420 ili kratkotrajnim 
-1.46610 ili lokalni 
-2.31750 ili maestral 
-0.87790 ili malo 
-2.31750 ili niska 
-1.41500 ili niski 
-2.16070 ili obla~no 
-1.32780 ili pljusak 
-2.31750 ili pljuska 
-1.91420 ili pljuskova 
-2.31750 ili pljuskove 
-1.04700 ili pljuskovi 
-1.16510 ili pljuskovima 
-1.36920 ili prete`ito 
-1.91420 ili prete`no 
-2.31750 ili prije^i 
-2.31750 ili rosuljom 
-2.16070 ili sjeverozapadni 
-1.75180 ili slab 
-2.31750 ili slaba 
-1.67190 ili snijega 
-1.75180 ili sumaglica 
-2.16070 ili sumaglice 
-2.31750 ili vru^e 
-1.22700 ilok <sil> 
-0.66140 ilok dva 
-1.22700 ilok dvjesto 
-1.07020 ilok jedan 
-0.82370 ilok tri 
-0.24930 imat ^e 
-1.67230 imati bolove 
-1.82910 imati glavobolje 
-1.18350 imati glavobolju 
-0.60210 imati i 
-1.67230 imati kroni~ni 
-1.67230 imati ni 
-0.97770 imati pote{ko^a 
-1.26340 imati pote{ko^e 
-1.82910 imati samo 
-1.18350 imati smetnje 
-1.82910 imati stanovnici 
-1.82910 imati tegoba 
-0.80160 imati tegobe 
-0.49040 ipak kod 
-0.64720 ipak zbog 
-0.24930 iskoristite dan 
-0.24930 ispod biokova 
-0.26860 ista ili 
-0.24930 iste ili 
-0.30100 istok </s> 
-0.84600 istok <uzdah> 
-1.24930 istok a 
-1.24930 istok glavninom 
-0.45230 istoku </s> 
-1.47970 istoku <uzdah> 
-1.32290 istoku a 
-0.35540 istoku zemlje 
-1.46680 isto~ni <uzdah> 
-1.06350 isto~ni a 
-0.26320 isto~ni i 
-1.06350 isto~ni na 
-1.06350 isto~ni vjetar 
-0.61280 isto~nim i 
-1.56110 isto~nim kopnenim 
-0.38230 isto~nim krajevima 
-0.57140 isto~nim predjelima 
-0.74040 isto~njak </s> 
-0.78610 isto~njak <uzdah> 
-1.68860 isto~njak a 
-0.27800 isto~njak i 
-1.68860 isto~njak petnaest 
-0.24930 isto~nog vjetra 
-0.29100 isto~noj hrvatskoj 
-0.33240 isto~noj slavoniji 
-0.79340 istre </s> 
-0.79340 istre <uzdah> 
-0.79340 istre i 
-0.24930 istri te 
-0.24930 italiji </s> 
-0.55030 italijom sporo 
-0.24930 iz unutra{njosti 
-0.42540 izbjegavaju boravak 
-1.02750 izbjegavati dodatne 
-0.12490 izbjegavati ve^e 
-0.24930 izdi^i u 
-0.97130 izgledi do 
-0.35990 izgledi vremena 
-0.26860 izjedna~enog tlaka 
-0.94240 izme}u deset 
-1.76360 izme}u devet 
-1.76360 izme}u devetnaest 
-2.25240 izme}u dva 
-0.82740 izme}u dvadeset 
-1.76360 izme}u dvanaest 
-1.76360 izme}u jedan 
-1.41950 izme}u jedanaest 
-0.66850 izme}u minus 
-2.00590 izme}u nula 
-1.34700 izme}u osam 
-1.84350 izme}u pet 
-1.84350 izme}u petnaest 
-1.38170 izme}u sedam 
-2.00590 izme}u sedamnaest 
-1.38170 izme}u tri 
-1.34700 izme}u trideset 
-1.84350 izme}u trinaest 
-2.00590 izme}u {esnaest 
-1.46090 izme}u {est 
-1.34700 izme}u ~etiri 
-1.46090 izme}u ~etrnaest 
-0.27300 iznad jadrana 
-1.12440 iznad tunisa 
-0.14700 iznadprosje~no toplo 
-0.32190 iznimno osjetljivi 
-0.41660 iznimno osjetljivih 
-0.20580 izra`en </s> 
-0.69450 izra`en na 
-0.69450 izra`ene tegobe 
-0.20580 izra`ene u 
-0.14700 izuzetno osjetljivih 
-0.04480 izvje{^e pomorskog 
-2.20590 izvje{taj </s> 
-1.08160 izvje{taj o 
-0.16080 izvje{taj pomorskog 
-0.72620 izvje{taj pomorskoga 
-2.14940 jadran </s> 
-2.30620 jadran <uzdah> 
-2.30620 jadran gorski 
-2.30620 jadran i 
-2.30620 jadran jugo 
-1.90290 jadran slijede^ih 
-0.03370 jadran za 
-1.22700 jadrana </s> 
-2.36080 jadrana <sil> 
-1.15440 jadrana <uzdah> 
-2.51760 jadrana a 
-1.45540 jadrana bura 
-1.95200 jadrana djelomice 
-2.51760 jadrana djelomi~no 
-2.11440 jadrana do 
-1.39330 jadrana i 
-2.51760 jadrana isto~ni 
-2.36080 jadrana isto~njak 
-2.51760 jadrana iznad 
-1.77730 jadrana jaka 
-2.51760 jadrana jako 
-2.51760 jadrana je 
-2.11440 jadrana jo{ 
-2.51760 jadrana jugo 
-2.51760 jadrana jugozapadni 
-2.51760 jadrana ki{a 
-2.51760 jadrana kratkotrajno 
-2.51760 jadrana kre^e 
-2.51760 jadrana magla 
-1.26830 jadrana mjestimice 
-2.51760 jadrana mogu^a 
-2.11440 jadrana mogu^i 
-2.51760 jadrana mogu^nost 
-1.42320 jadrana na 
-2.51760 jadrana neverini 
-2.36080 jadrana od 
-2.51760 jadrana okrenuti 
-2.51760 jadrana osam 
-2.51760 jadrana plitka 
-2.51760 jadrana poja~ano 
-2.36080 jadrana polako 
-0.91620 jadrana ponegdje 
-2.51760 jadrana poslijepodne 
-2.51760 jadrana povla~i 
-2.51760 jadrana povremeno 
-2.11440 jadrana premje{ta 
-2.51760 jadrana prete`no 
-2.11440 jadrana promjenljivo 
-2.11440 jadrana sjeverozapadni 
-1.77730 jadrana slaba 
-2.51760 jadrana slabo 
-2.51760 jadrana stanje 
-2.51760 jadrana sun~ano 
-1.95200 jadrana te 
-2.51760 jadrana tijekom 
-1.61510 jadrana tri 
-1.36530 jadrana u 
-1.77730 jadrana udari 
-2.51760 jadrana umjeren 
-1.49020 jadrana umjerena 
-1.66630 jadrana umjereno 
-1.95200 jadrana valovito 
-2.36080 jadrana vidljivost 
-2.51760 jadrana zadr`ava 
-2.51760 jadrana ~etiri 
-1.07510 jadranom </s> 
-1.23730 jadranom <uzdah> 
-1.33210 jadranom a 
-1.33210 jadranom i 
-1.97770 jadranom ja~a 
-1.97770 jadranom je 
-1.97770 jadranom ne 
-0.98800 jadranom polako 
-1.82080 jadranom postupno 
-1.57440 jadranom sa 
-0.55230 jadranom se 
-1.97770 jadranom slabi 
-1.41200 jadranom sporo 
-1.97770 jadranom stabilno 
-1.33210 jadranom vremenska 
-1.41200 jadranom zadr`ava 
-1.24030 jadranu </s> 
-2.64410 jadranu <sil> 
-1.42900 jadranu <uzdah> 
-1.84650 jadranu ^e 
-2.30730 jadranu a 
-3.20980 jadranu ali 
-2.64410 jadranu biometeorolo{ki 
-1.81430 jadranu bura 
-2.80650 jadranu danju 
-3.20980 jadranu devet 
-1.81430 jadranu djelomice 
-2.05740 jadranu do 
-2.80650 jadranu dvadeset 
-2.22010 jadranu gdje 
-3.05300 jadranu gotovo 
-1.35840 jadranu i 
-3.20980 jadranu isto~njak 
-1.46220 jadranu izme}u 
-2.22010 jadranu jaka 
-2.64410 jadranu jako 
-2.46950 jadranu ja~a 
-2.80650 jadranu ja~e 
-2.14760 jadranu jo{ 
-3.05300 jadranu ju`ni 
-1.86360 jadranu jugo 
-1.84650 jadranu ki{a 
-3.20980 jadranu kratkotrajna 
-3.20980 jadranu kratkotrajni 
-3.05300 jadranu kratkotrajno 
-2.35840 jadranu malo 
-3.20980 jadranu manja 
-1.39820 jadranu mjestimice 
-2.35840 jadranu mogu^a 
-2.56420 jadranu mogu^i 
-2.35840 jadranu na 
-2.56420 jadranu nad 
-3.20980 jadranu najni`a 
-3.20980 jadranu nave~er 
-3.20980 jadranu ne 
-2.35840 jadranu nepovoljan 
-3.20980 jadranu ni`a 
-2.80650 jadranu no^u 
-3.05300 jadranu obla~no 
-0.63010 jadranu od 
-3.20980 jadranu oja~ao 
-3.05300 jadranu oko 
-3.20980 jadranu okrenuti 
-3.05300 jadranu osam 
-3.20980 jadranu oslabiti 
-2.56420 jadranu osobito 
-3.20980 jadranu o~ekuju 
-3.20980 jadranu pogor{anje 
-3.20980 jadranu polako 
-1.48330 jadranu ponegdje 
-2.64410 jadranu poslijepodne 
-3.20980 jadranu postoji 
-2.56420 jadranu postupna 
-2.35840 jadranu postupno 
-2.64410 jadranu potkraj 
-2.35840 jadranu povremeno 
-3.20980 jadranu prema 
-1.93930 jadranu prete`ito 
-2.11540 jadranu prete`no 
-3.05300 jadranu pribli`ava 
-3.20980 jadranu prijepodne 
-2.46950 jadranu primi~e 
-3.20980 jadranu prolazna 
-3.05300 jadranu promjenjivo 
-2.80650 jadranu promjenjljivo 
-2.11540 jadranu promjenljivo 
-2.46950 jadranu s 
-3.20980 jadranu samo 
-2.30730 jadranu se 
-2.80650 jadranu sjeverozapadni 
-3.05300 jadranu sjeverozapadnjak 
-3.20980 jadranu skrenut 
-2.26150 jadranu slab 
-1.86360 jadranu slaba 
-2.46950 jadranu slabo 
-3.20980 jadranu sredinom 
-1.98270 jadranu sun~ano 
-1.64870 jadranu te 
-3.20980 jadranu tijekom 
-2.56420 jadranu tri 
-1.35300 jadranu u 
-2.80650 jadranu udari 
-2.18230 jadranu uglavnom 
-2.11540 jadranu ujutro 
-2.22010 jadranu umjeren 
-1.35840 jadranu umjerena 
-1.52110 jadranu umjereno 
-2.46950 jadranu uz 
-3.20980 jadranu valovito 
-2.80650 jadranu ve^ 
-3.20980 jadranu ve^i 
-1.68170 jadranu ve^inom 
-3.20980 jadranu vedro 
-2.64410 jadranu vjetar 
-3.05300 jadranu vremenska 
-3.05300 jadranu vremenski 
-2.35840 jadranu vrlo 
-3.20980 jadranu zatim 
-3.20980 jadranu {iri 
-1.54730 jak isto~njak 
-1.13850 jak jugozapadni 
-1.05860 jak jugozapadnjak 
-1.70410 jak ponegdje 
-1.70410 jak razvoj 
-1.05860 jak sjeverni 
-1.05860 jak sjeveroisto~ni 
-1.70410 jak sjeveroisto~njak 
-0.85280 jak sjeverozapadni 
-0.80160 jak sjeverozapadnjak 
-1.70410 jak vjetar 
-1.54730 jak zapadnjak 
-1.49580 jaka </s> 
-1.38470 jaka <uzdah> 
-2.07930 jaka a 
-0.13860 jaka bura 
-1.28780 jaka i 
-2.07930 jaka mjestimice 
-1.49580 jaka na 
-1.24640 jaka ponegdje 
-2.23610 jaka u 
-0.42540 jakim sjevernim 
-1.39260 jako a 
-1.39260 jako i 
-0.08560 jako jugo 
-2.03820 jako na 
-1.63490 jako ponegdje 
-0.49040 jakom burom 
-0.39350 jaku na 
-1.22700 jasenovac dva 
-1.22700 jasenovac minus 
-0.82370 jasenovac sedam 
-1.07020 jasenovac tri 
-1.22700 jasenovac {esto 
-1.22700 jasenovac ~etiri 
-0.78470 ja~a anticiklonalni 
-1.77430 ja~a anticiklonalno 
-1.61750 ja~a greben 
-1.77430 ja~a i 
-0.21330 ja~a naoblaka 
-1.20870 ja~a prema 
-0.26860 ja~anje anticiklonalnog 
-0.24930 ja~anju na 
-0.55030 ja~ati </s> 
-0.55030 ja~ati <uzdah> 
-0.88250 ja~e naobla~enje 
-0.08840 ja~e valovito 
-0.42540 ja~i razvoj 
-0.26860 ja~u naoblaku 
-1.98970 je ako 
-1.98970 je dana 
-1.34410 je dunja 
-1.34410 je i 
-1.13830 je jo{ 
-1.83280 je magla 
-1.98970 je mjestimice 
-1.83280 je mogu^ 
-0.78610 je mogu^a 
-1.83280 je oja~alo 
-1.98970 je pljusak 
-1.83280 je pod 
-1.98970 je pokretno 
-1.34410 je ponegdje 
-1.83280 je potrebna 
-1.98970 je prema 
-1.83280 je primjerena 
-1.42400 je razdra`ljivost 
-1.98970 je snijeg 
-1.34410 je u 
-1.98970 je umjerena 
-1.83280 je utjecaj 
-1.33400 jedan </s> 
-2.40420 jedan <sil> 
-1.38230 jedan <uzdah> 
-2.15780 jedan a 
-1.57140 jedan devet 
-0.40330 jedan do 
-1.61280 jedan dva 
-2.56110 jedan dvjesto 
-1.27040 jedan i 
-1.40870 jedan jedan 
-1.70970 jedan minus 
-1.19780 jedan na 
-1.40870 jedan nula 
-1.57140 jedan osam 
-1.99540 jedan pet 
-2.40420 jedan petsto 
-2.56110 jedan ponegdje 
-2.56110 jedan sava 
-1.99540 jedan sedam 
-2.56110 jedan sedamdeset 
-2.40420 jedan sto 
-1.25110 jedan stupanj 
-1.99540 jedan tri 
-2.40420 jedan tristo 
-2.40420 jedan u 
-2.15780 jedan {est 
-1.57140 jedan ~etiri 
-0.89470 jedanaest </s> 
-1.39120 jedanaest <uzdah> 
-0.41750 jedanaest do 
-0.92940 jedanaest i 
-1.31130 jedanaest na 
-0.59360 jedanaest stupnjeva 
-0.42540 jedna do 
-0.03480 jednog kilometra 
-0.26860 jednoga stupnja 
-0.24930 jonskim morem 
-0.26860 jonsko more 
-0.24930 jonskom moru 
-0.26860 jonskome moru 
-2.00360 jo{ ^e 
-2.16050 jo{ biti 
-1.75720 jo{ danas 
-2.16050 jo{ do 
-2.16050 jo{ hladnije 
-1.75720 jo{ je 
-2.16050 jo{ ki{a 
-2.00360 jo{ kru`i 
-1.13300 jo{ malo 
-2.16050 jo{ manja 
-1.17080 jo{ mjestimice 
-2.16050 jo{ mo`e 
-2.16050 jo{ mogu^a 
-1.42010 jo{ na 
-2.00360 jo{ no^as 
-2.16050 jo{ o 
-0.76500 jo{ ponegdje 
-2.16050 jo{ poslijepodne 
-1.42010 jo{ povremeno 
-1.75720 jo{ prijepodne 
-2.00360 jo{ s 
-2.16050 jo{ sa 
-2.00360 jo{ samo 
-1.59480 jo{ se 
-1.75720 jo{ su 
-2.16050 jo{ sun~ano 
-1.42010 jo{ toplije 
-1.51490 jo{ u 
-2.00360 jo{ udari 
-1.75720 jo{ ujutro 
-1.75720 jo{ zadr`ava 
-0.42540 ju`ne italije 
-1.34430 ju`ni a 
-1.74760 ju`ni dio 
-0.12720 ju`ni i 
-1.59080 ju`ni jadran 
-1.59080 ju`ni vjetar 
-1.12440 ju`nim </s> 
-0.38400 ju`nim jadranom 
-0.72110 ju`nim podru~jima 
-1.12440 ju`nim predjelima 
-0.42540 ju`no od 
-0.88170 ju`nog i 
-0.07140 ju`nog jadrana 
-1.94390 ju`nog primorja 
-0.49040 ju`noj dalmaciji 
-0.64720 ju`noj hrvatskoj 
-1.25850 ju`nom </s> 
-1.97950 ju`nom <uzdah> 
-2.22600 ju`nom ^e 
-1.11230 ju`nom dijelu 
-0.98740 ju`nom i 
-2.38280 ju`nom isto~njak 
-2.22600 ju`nom italijom 
-0.20410 ju`nom jadranu 
-1.64250 ju`nom jugo 
-2.38280 ju`nom mjestimice 
-2.38280 ju`nom no^as 
-1.73720 ju`nom umjeren 
-1.81720 ju`nom umjereno 
-0.49920 ju`nome dijelu 
-0.74570 ju`nome jadranu 
-0.90250 ju`nome jugo 
-1.66430 juga </s> 
-1.66430 juga <uzdah> 
-1.01870 juga i 
-1.66430 juga mjestimice 
-1.09860 juga od 
-1.66430 juga oko 
-0.28460 juga trideset 
-1.26100 juga ~etrdeset 
-0.61310 jugo </s> 
-1.90260 jugo <sil> 
-0.81460 jugo <uzdah> 
-1.36940 jugo ^e 
-1.48590 jugo a 
-1.90260 jugo deset 
-2.54820 jugo dvanaest 
-0.83650 jugo i 
-1.52070 jugo koje 
-1.98250 jugo more 
-1.42380 jugo na 
-1.48590 jugo od 
-1.55850 jugo osam 
-2.14490 jugo pet 
-2.14490 jugo petnaest 
-2.39130 jugo ponegdje 
-1.90260 jugo poslijepodne 
-2.14490 jugo postupno 
-2.54820 jugo potkraj 
-2.54820 jugo prije 
-1.90260 jugo prvo 
-2.54820 jugo slabo 
-2.39130 jugo te 
-2.39130 jugo temperatura 
-2.39130 jugo tijekom 
-1.55850 jugo u 
-2.39130 jugo uz 
-2.54820 jugo zatim 
-1.59990 jugo {est 
-2.39130 jugo ~etiri 
-2.39130 jugo ~etrnaest 
-0.22180 jugoistok </s> 
-0.72110 jugoistok <uzdah> 
-1.13390 jugoisto~ni </s> 
-0.72500 jugoisto~ni <uzdah> 
-1.29070 jugoisto~ni a 
-1.13390 jugoisto~ni i 
-1.13390 jugoisto~ni na 
-0.42540 jugom <uzdah> 
-0.42540 jugozapada preko 
-1.54320 jugozapadni </s> 
-2.03200 jugozapadni <sil> 
-1.24050 jugozapadni <uzdah> 
-0.86030 jugozapadni a 
-0.63850 jugozapadni i 
-0.98530 jugozapadni na 
-1.78550 jugozapadni osam 
-1.78550 jugozapadni potkraj 
-2.03200 jugozapadni u 
-0.55930 jugozapadni vjetar 
-2.18880 jugozapadni zatim 
-1.62320 jugozapadni ~etiri 
-0.55970 jugozapadnjak </s> 
-0.65660 jugozapadnjak <uzdah> 
-0.82510 jugozapadnjak a 
-1.02460 jugozapadnjak i 
-1.48640 jugozapadnjak more 
-1.10380 jugozapadnjak na 
-1.89530 jugozapadnjak nave~er 
-2.05210 jugozapadnjak u 
-1.89530 jugozapadnjak zatim 
-1.40650 jugozapadnjak ~etiri 
-0.90250 jugozapadnog i 
-0.74570 jugozapadnog strujanja 
-0.49920 jugozapadnog vjetra 
-1.22700 jugu <uzdah> 
-1.07020 jugu dalmacije 
-1.22700 jugu do 
-1.22700 jugu i 
-0.32450 jugu jadrana 
-1.41710 jutarnja magla 
-0.02130 jutarnja temperatura 
-0.07260 jutarnje temperature 
-0.14700 jutarnju maglu 
-1.47970 jutra <uzdah> 
-1.32290 jutra ^e 
-1.47970 jutra i 
-1.47970 jutra iznadprosje~no 
-0.62840 jutra na 
-1.47970 jutra obla~no 
-1.32290 jutra ponegdje 
-1.47970 jutra u 
-1.47970 jutra uz 
-1.47970 jutra vrlo 
-1.09440 jutro i 
-0.93760 jutro malo 
-1.09440 jutro u 
-1.09440 jutro vrlo 
-0.24930 kalin </s> 
-1.80850 kanalu </s> 
-1.80850 kanalu <uzdah> 
-1.06280 kanalu bura 
-1.01700 kanalu do 
-1.56200 kanalu dva 
-1.56200 kanalu dvadeset 
-0.73830 kanalu i 
-1.96530 kanalu isto~njak 
-1.80850 kanalu jaka 
-1.11390 kanalu mjestimice 
-1.96530 kanalu mogu^ 
-0.87090 kanalu ponegdje 
-1.96530 kanalu se 
-1.80850 kanalu slaba 
-1.96530 kanalu tri 
-1.31970 kanalu u 
-1.80850 kanalu ujutro 
-1.96530 kanalu umjerena 
-1.96530 kanalu ~etrdeset 
-0.16080 kao i 
-1.09250 karlovac <sil> 
-1.24930 karlovac jedan 
-0.68360 karlovac minus 
-1.24930 karlovac sedam 
-1.09250 karlovac ~etiri 
-0.55030 kasno poslijepodne 
-0.55030 kasno u 
-0.24930 kestena <uzdah> 
-0.65320 kilometara </s> 
-1.86100 kilometara <sil> 
-0.61700 kilometara <uzdah> 
-1.41290 kilometara malo 
-0.97350 kilometara mjestimice 
-1.69860 kilometara na 
-2.26420 kilometara naoblaka 
-1.61860 kilometara obla~no 
-1.11190 kilometara ponegdje 
-2.26420 kilometara postupno 
-1.20200 kilometara prete`ito 
-1.61860 kilometara prete`no 
-2.26420 kilometara prolaza 
-1.52390 kilometara promjenjivo 
-1.86100 kilometara promjenljivo 
-2.26420 kilometara sun~ano 
-2.26420 kilometara u 
-1.69860 kilometara zbog 
-0.73470 kilometra </s> 
-0.88080 kilometra <uzdah> 
-1.67230 kilometra ponegdje 
-1.67230 kilometra prete`ito 
-1.82910 kilometra umjereno 
-0.27880 kilometra zbog 
-1.03400 ki{a </s> 
-1.84800 ki{a <sil> 
-1.03400 ki{a <uzdah> 
-2.41370 ki{a ^e 
-1.12300 ki{a a 
-0.74110 ki{a i 
-0.74110 ki{a ili 
-1.28930 ki{a koja 
-2.41370 ki{a malo 
-1.67330 ki{a mjestimice 
-1.56230 ki{a mogu^a 
-2.01040 ki{a mogu^i 
-2.25680 ki{a na 
-2.25680 ki{a najprije 
-1.23490 ki{a pljuskovi 
-2.41370 ki{a ponegdje 
-1.76810 ki{a te 
-1.67330 ki{a u 
-1.28930 ki{a uglavnom 
-2.41370 ki{a uz 
-2.41370 ki{a vi{e 
-2.41370 ki{a ~e{^e 
-0.53760 ki{e </s> 
-1.04580 ki{e <uzdah> 
-1.94830 ki{e ^e 
-1.94830 ki{e bit 
-0.79590 ki{e i 
-0.72120 ki{e ili 
-1.30270 ki{e na 
-1.94830 ki{e osobito 
-1.94830 ki{e pljuska 
-1.94830 ki{e potkraj 
-1.30270 ki{e u 
-1.54500 ki{e uglavnom 
-1.05360 ki{om </s> 
-1.11160 ki{om <uzdah> 
-1.14370 ki{om a 
-0.72620 ki{om i 
-0.95660 ki{om ili 
-1.25770 ki{om mjestimice 
-2.20590 ki{om mogu^i 
-2.20590 ki{om na 
-1.56040 ki{om osobito 
-0.76630 ki{om pljuskovima 
-2.20590 ki{om povremeno 
-1.64030 ki{om te 
-1.46560 ki{om u 
-1.56040 ki{om uglavnom 
-1.56040 ki{om zatim 
-0.24930 ki{ovito u 
-1.02750 ki{u i 
-0.62420 ki{u ili 
-1.02750 ki{u zamijeniti 
-1.76120 kod </s> 
-1.35790 kod iznimno 
-1.35790 kod izuzetno 
-0.53420 kod kroni~nih 
-1.60440 kod ljudi 
-0.69900 kod meteoropata 
-1.19550 kod reumati~ara 
-1.35790 kod senja 
-0.90980 kod vrlo 
-0.27170 koja ^e 
-0.35470 koja se 
-0.03220 koje ^e 
-0.27620 koji ^e 
-1.17870 koji bura 
-0.77540 koji se 
-0.08080 kojim se 
-0.24930 kojoj se 
-0.07920 koli~ina nestabilnog 
-0.98970 koncentracija <uzdah> 
-0.24930 koncentracija peluda 
-0.94830 koncentracije </s> 
-0.54500 koncentracije <uzdah> 
-0.79150 koncentracije i 
-0.79340 koncentraciji </s> 
-0.39010 koncentraciji <uzdah> 
-0.74570 koncentracijom </s> 
-0.74570 koncentracijom <uzdah> 
-0.74570 koncentracijom te 
-0.55030 koncentraciju i 
-0.79340 kopna </s> 
-0.79340 kopna ja~a 
-0.79340 kopna je 
-0.90250 kopnenim krajevima 
-0.90250 kopnenim podru~jima 
-0.25690 kopnenim predjelima 
-0.02120 kopnenom podru~ju 
-1.57150 kopnenom predjelima 
-0.00160 kopnenome podru~ju 
-0.24930 kopnom i 
-0.24930 kornata zapadni 
-1.09250 kostajnica dva 
-0.39790 kostajnica jedan 
-1.09250 kostajnica sto 
-1.24930 kostajnica tri 
-1.24930 kostajnica {est 
-0.24930 kotar i 
-0.55030 kotara malo 
-1.12590 kotaru </s> 
-1.16730 kotaru <uzdah> 
-1.95880 kotaru gdje 
-0.23790 kotaru i 
-2.11560 kotaru ja~a 
-0.93690 kotaru lici 
-2.11560 kotaru me}imurju 
-2.11560 kotaru ponegdje 
-1.47000 kotaru te 
-2.11560 kotaru u 
-2.11560 kotaru uglavnom 
-0.44810 kotlinama i 
-0.85140 kotlinama like 
-0.24930 kra^a sun~ana 
-0.23350 kraja dana 
-0.92510 kraja ovog 
-1.54930 kraja ovoga 
-0.60640 kraja tjedna 
-0.24930 krajem dana 
-0.70970 krajeva biti 
-1.56110 krajeva i 
-1.56110 krajeva manje 
-1.15780 krajeva od 
-1.56110 krajeva oslabiti 
-1.56110 krajeva prevladavat 
-0.99540 krajeva umjereno 
-0.91550 krajeva unutra{njosti 
-1.01070 krajevima </s> 
-1.01070 krajevima <uzdah> 
-1.45880 krajevima a 
-1.86210 krajevima do 
-1.86210 krajevima gdje 
-0.76770 krajevima i 
-1.70530 krajevima malo 
-1.86210 krajevima mjestimice 
-1.86210 krajevima nepovoljan 
-1.86210 krajevima postupna 
-1.86210 krajevima povremeno 
-1.86210 krajevima prestanak 
-1.70530 krajevima s 
-1.86210 krajevima te 
-1.86210 krajevima u 
-0.83460 krajevima unutra{njosti 
-1.86210 krajevima ve^inom 
-0.26860 krajnjem jugu 
-0.02120 kraju dana 
-0.01930 kratkotrajan pljusak 
-0.10350 kratkotrajna ki{a 
-0.82120 kratkotrajna magla 
-1.46680 kratkotrajna sumaglica 
-0.22770 kratkotrajne ki{e 
-0.02800 kratkotrajni pljuskovi 
-0.72640 kratkotrajnih lokalnih 
-0.32310 kratkotrajnih pljuskova 
-0.11100 kratkotrajnim pljuskovima 
-0.64510 kratkotrajno do 
-1.29070 kratkotrajno i 
-1.29070 kratkotrajno jugozapadni 
-1.29070 kratkotrajno okrenuti 
-1.29070 kratkotrajno poja~ana 
-1.29070 kratkotrajno slab 
-1.29070 kratkotrajno u 
-1.29070 kratkotrajno umjereno 
-0.26860 kratkotrajnog pljuska 
-0.16080 kratkotrajnom ki{om 
-0.42540 kratkotrajnu ki{u 
-0.56960 kre^e prema 
-0.56960 kre^e se 
-0.26860 kre^u prema 
-0.24930 kroni~ne bolesnike 
-0.04580 kroni~ni bolesnici 
-1.79340 kroni~ni i 
-1.14780 kroni~ni sr~ani 
-0.14980 kroni~nih bolesnika 
-0.58820 kroni~nih sr~anih 
-0.26860 kroz unutra{njost 
-0.26860 kru`i manja 
-0.24930 krvo`ilnim bolestima 
-1.33550 kupa <sil> 
-0.36800 kupa karlovac 
-0.31360 kupa radenci 
-0.24930 kvarneru </s> 
-0.24930 ledi na 
-1.22700 levant </s> 
-1.22700 levant <uzdah> 
-1.22700 levant a 
-1.22700 levant dvanaest 
-1.22700 levant sedam 
-1.07020 levant {est 
-0.26860 levanta trideset 
-0.91990 lici </s> 
-1.05250 lici <uzdah> 
-1.99010 lici a 
-2.14690 lici do 
-1.74360 lici gdje 
-0.49110 lici i 
-2.14690 lici lokalni 
-1.58130 lici malo 
-2.14690 lici najprije 
-1.99010 lici obla~no 
-1.74360 lici od 
-1.15730 lici ponegdje 
-1.99010 lici povremeno 
-2.14690 lici slab 
-2.14690 lici slavoniji 
-1.19870 lici snijeg 
-1.74360 lici te 
-2.14690 lici vjetar 
-0.39350 ligurskim morem 
-0.56960 ligurskog i 
-0.56960 ligurskog mora 
-0.24930 lijepo i 
-0.42540 like i 
-0.20580 ljude </s> 
-1.35110 ljudi </s> 
-1.35110 ljudi biti 
-1.17640 ljudi i 
-1.27120 ljudi kao 
-1.75990 ljudi mogla 
-0.76440 ljudi mogli 
-1.75990 ljudi mogu 
-1.91680 ljudi osje^at 
-0.96850 ljudi osje^ati 
-1.06540 ljudi osjetljivi 
-1.75990 ljudi osjetljivih 
-1.91680 ljudi tako 
-1.75990 ljudi te 
-1.17640 ljudi trebala 
-1.75990 ljudi u 
-1.75990 ljudi uglavnom 
-1.75990 ljudi zbog 
-0.49040 ljudima lo{e 
-0.14700 lokalne pljuskove 
-1.22700 lokalni pljusak 
-0.04830 lokalni pljuskovi 
-0.42540 lokalnih pljuskova 
-0.24390 lokalnim pljuskovima 
-0.24930 lovro kalin 
-0.56960 lo{e djelovati 
-0.56960 lo{e raspolo`eni 
-0.24930 lo{ije raspolo`eni 
-0.51950 maestral </s> 
-1.58170 maestral <sil> 
-0.45740 maestral <uzdah> 
-0.93610 maestral na 
-1.17840 maestral ~etiri 
-0.73310 magla </s> 
-1.45820 magla <sil> 
-0.89950 magla <uzdah> 
-1.37820 magla a 
-1.03420 magla i 
-0.84510 magla ili 
-1.62050 magla mjestimice 
-2.02380 magla mo`e 
-2.02380 magla na 
-1.62050 magla najvi{e 
-2.02380 magla osobito 
-2.02380 magla ponajprije 
-1.86700 magla posebice 
-2.02380 magla poslijepodne 
-2.02380 magla potkraj 
-1.45820 magla te 
-1.37820 magla uglavnom 
-2.02380 magla vidljivost 
-2.02380 magla vjetar 
-0.46070 magle </s> 
-0.96000 magle <uzdah> 
-1.20640 magle i 
-1.36320 magle u 
-1.36320 magle uglavnom 
-1.36320 magle ujutro 
-1.17870 maglom </s> 
-1.02190 maglom biti 
-0.77540 maglom i 
-1.17870 maglom ni`a 
-1.02190 maglom od 
-0.24930 maglovita i 
-0.82980 maglovito </s> 
-0.65510 maglovito <uzdah> 
-1.23860 maglovito a 
-0.74980 maglovito i 
-1.23860 maglovito ili 
-0.14700 maglovitog jutra 
-0.94830 maglu koja 
-0.54500 maglu malo 
-0.94830 maglu zatim 
-0.00160 mahovi^ </s> 
-0.64720 mala mogu^nost 
-2.62220 malo ^e 
-0.51260 malo do 
-2.21890 malo hladnije 
-2.62220 malo jo{ 
-1.06120 malo ki{e 
-2.62220 malo manje 
-1.56000 malo na 
-1.16880 malo ni`a 
-2.62220 malo ni`e 
-2.62220 malo oslabiti 
-2.62220 malo pasti 
-2.21890 malo ponegdje 
-2.62220 malo porasti 
-1.52780 malo povi{enog 
-2.62220 malo samo 
-1.77090 malo sni`enog 
-1.24260 malo snijega 
-2.46540 malo sredinom 
-2.62220 malo sun~ana 
-1.19680 malo svje`ije 
-0.94150 malo toplije 
-2.62220 malo ujutro 
-1.15540 malo valovito 
-1.18260 malo vi{a 
-1.97660 malo vi{e 
-2.62220 malo zatim 
-0.24930 malom do 
-0.02630 malu do 
-1.45420 manja i 
-0.62140 manja koli~ina 
-0.54880 manja mogu^nost 
-0.40750 manja od 
-1.57150 manje hladno 
-1.41470 manje izra`en 
-1.16820 manje osvje`enje 
-0.47710 manje pote{ko^e 
-1.41470 manje su 
-0.58190 manje tegobe 
-1.57150 manje vru^e 
-1.57150 manje zahla}enje 
-0.24930 manjom mogu^no{^u 
-0.24930 manju mogu^nost 
-0.03480 marija mokori^ 
-0.00230 meteorolo{kog centra 
-0.24930 meteorolo{koga centra 
-0.90540 meteoropata i 
-0.90540 meteoropata je 
-0.90540 meteoropata moglo 
-1.06220 meteoropata ponovo 
-0.24930 meteoropate i 
-0.25530 meteoropati bi 
-1.04670 meteoropati i 
-1.04670 meteoropati ni 
-1.24930 metkovi^ devet 
-1.24930 metkovi^ osam 
-1.24930 metkovi^ pet 
-1.09250 metkovi^ sedam 
-0.68360 metkovi^ {est 
-0.94830 me}imurju </s> 
-0.94830 me}imurju i 
-0.94830 me}imurju rijetki 
-1.22700 miholjac jedan 
-0.48670 miholjac minus 
-0.24930 mijenja se 
-0.24390 mijenjati </s> 
-0.24930 minimalna temperatura 
-2.70570 minus <sil> 
-1.50210 minus deset 
-2.70570 minus devedeset 
-1.55330 minus devet 
-0.80320 minus dva 
-2.54880 minus dvadeset 
-2.14000 minus dvanaest 
-1.43520 minus dvjesto 
-0.84890 minus jedan 
-1.61130 minus jedanaest 
-2.70570 minus jedna 
-1.13410 minus osam 
-2.70570 minus osamdeset 
-2.54880 minus pedeset 
-1.25220 minus pet 
-2.14000 minus petnaest 
-1.22590 minus sedam 
-2.14000 minus sedamdeset 
-2.30240 minus sedamnaest 
-1.43520 minus sto 
-0.91230 minus tri 
-2.70570 minus trideset 
-1.85430 minus trinaest 
-2.54880 minus tristo 
-2.70570 minus {esnaest 
-1.52690 minus {est 
-2.54880 minus {ezdeset 
-1.01700 minus ~etiri 
-2.70570 minus ~etrdeset 
-2.70570 minus ~etrnaest 
-0.26860 mirna sna 
-0.00160 mirno ili 
-0.32310 mjestima ranijih 
-1.75180 mjestimice </s> 
-2.81400 mjestimice <sil> 
-2.81400 mjestimice <uzdah> 
-2.24830 mjestimice ^e 
-2.16840 mjestimice a 
-2.07370 mjestimice biti 
-1.71960 mjestimice do 
-2.65710 mjestimice dva 
-1.68960 mjestimice dvadeset 
-2.16840 mjestimice grmljavina 
-2.81400 mjestimice grmljavinom 
-1.22220 mjestimice i 
-2.65710 mjestimice jaka 
