\data\
ngram 1=1454
ngram 2=6259
ngram 3=11333


\1-grams:
-1.18170 </s>  -0.9971
-4.90240 <bi>  0.0000
-3.34610 <greska>  -0.0268
-4.90240 <jugozapadak>  0.0000
-4.90240 <k>  0.0000
-4.90240 <kred>  0.0000
-3.23030 <papir>  -0.1252
-4.90240 <pljoskovi>  0.0000
-4.90240 <raspolo`ene>  0.0000
-99.99000 <s>  -0.3315
-2.32380 <sil>  -0.3272
-4.90240 <sjeveroistoke>  0.0000
-4.90240 <sras>  0.0000
-4.90240 <t>  0.0000
-3.60140 <udarac>  0.0000
-1.42760 <uzdah>  -0.8162
-2.06550 ^e  -0.8034
-4.42530 `aliti  -0.3323
-1.84550 a  -0.7337
-4.60140 ako  -0.3605
-4.90240 alergije  0.0000
-4.90240 alergi~ne  0.0000
-3.24920 ali  -0.5443
-4.90240 alpa  0.0000
-3.86110 ankica  -0.5390
-4.90240 ankice  0.0000
-3.86110 anticiklona  -0.1554
-3.44000 anticiklonalni  -0.5366
-3.64720 anticiklonalno  -0.3235
-4.42530 anticiklonalnog  -0.3327
-3.44000 anticiklone  -0.7041
-4.30040 astmati~ara  -0.1440
-3.86110 astmati~are  -0.2716
-3.72640 astmati~ari  -0.4428
-4.60140 astmati~arima  0.0000
-4.60140 atlantska  -0.3611
-4.60140 atmosferski  0.0000
-3.69830 atmosferskog  -0.3609
-4.90240 badnju  0.0000
-4.90240 bar  0.0000
-4.42530 baranji  -0.1848
-4.30040 barem  -0.3610
-4.90240 bazge  0.0000
-2.99940 bez  -1.1021
-2.76260 bi  -0.6918
-4.30040 bila  0.0000
-4.42530 biokova  -0.2051
-4.60140 biokovu  -0.3439
-2.78190 biometeorolo{ka  -1.8195
-3.62370 biometeorolo{ke  -0.3227
-2.99400 biometeorolo{ki  -0.6937
-3.54070 biometeorolo{kih  -0.8477
-4.20350 biometeorolo{kog  -0.3438
-4.90240 bismo  0.0000
-3.13900 bit  -0.3862
-2.56400 biti  -0.7516
-4.90240 blagdan  0.0000
-4.42530 blizini  -0.3222
-4.90240 blizinu  0.0000
-4.60140 blizu  -0.3610
-4.90240 bo`i^  0.0000
-3.01600 bolesnici  -1.8860
-4.42530 bolesnicima  0.0000
-3.47110 bolesnika  -0.8370
-3.78850 bolesnike  -1.1739
-4.60140 bolestima  -0.3611
-4.05730 bolje  -0.9390
-4.42530 bolji  -0.3326
-4.60140 bolova  -0.3597
-3.78850 bolove  -0.3094
-4.12430 bolovi  -0.5094
-4.60140 bolovima  -0.3582
-4.60140 boravak  -0.3611
-4.60140 borivoj  0.0000
-3.60140 botovo  -1.0286
-4.90240 breze  0.0000
-3.60140 brod  -0.3609
-4.05730 brzo  -0.2641
-4.90240 brzoj  0.0000
-4.90240 bude  0.0000
-3.60140 budimpe{ta  -1.3007
-4.90240 budimpe{te  0.0000
-2.22480 bura  -1.1952
-3.13900 bure  -1.4618
-3.06360 burin  -0.8679
-3.75630 burom  -0.4728
-3.39730 buru  -0.7358
-4.90240 celzijev  0.0000
-4.60140 centimetara  -0.3561
-2.59070 centra  -2.3106
-4.90240 cesti  0.0000
-3.42530 cijeloj  -1.4667
-4.60140 cijelom  -0.3439
-3.99940 cijelu  -0.3439
-3.06990 ciklona  -0.8326
-3.75630 ciklonalno  -0.2943
-4.20350 ciklonalnog  -0.3430
-3.60140 ciklone  -0.4766
-4.60140 cjelodnevne  -0.3603
-4.60140 cjelodnevnom  -0.3582
-3.62370 crnac  -0.9483
-4.12430 da  -0.0905
-3.17820 dalje  -1.2630
-3.86110 dalmacije  -0.5343
-2.76890 dalmaciji  -1.5883
-4.90240 dalmaciju  0.0000
-4.20350 dalmatinskome  -2.4013
-3.90240 dan  -0.3253
-2.36090 dana  -1.7101
-3.18640 danas  -0.8635
-4.60140 dana{njega  -0.3546
-3.62370 dana{nji  -1.0036
-4.30040 dane  -0.2228
-2.95310 danju  -0.7262
-4.30040 davor  -0.5430
-4.90240 de`urna  0.0000
-4.42530 depresijsko  -0.2050
-2.28020 deset  -1.4956
-4.90240 desetak  0.0000
-3.42530 devedeset  -0.3582
-2.57200 devet  -0.8326
-3.06990 devetnaest  -1.0848
-4.90240 devetoga  0.0000
-3.82330 dijela  -0.3494
-4.90240 dijelom  0.0000
-4.60140 dijelovima  0.0000
-2.35340 dijelu  -1.5211
-4.60140 diljem  0.0000
-3.69830 dio  -0.7454
-4.60140 divljeg  -0.3408
-4.90240 divlji  0.0000
-2.69290 djelomice  -0.6778
-3.64720 djelomi~no  -0.1555
-3.94820 djelovati  -0.4222
-2.47590 dnevna  -1.4540
-3.94820 dnevne  -0.2976
-1.41430 do  -1.5751
-3.94820 doba  -0.3610
-4.42530 dobar  -0.3155
-4.90240 dobili  0.0000
-4.42530 dobre  -0.3315
-3.38390 dobro  -1.0399
-4.05730 dobrog  -0.2653
-4.42530 dobroga  -0.3124
-4.42530 dobrom  -0.3289
-4.90240 dobru  0.0000
-4.60140 dodatne  -0.3610
-4.90240 dodiru  0.0000
-3.99940 dok  -0.6466
-4.90240 dokazanom  0.0000
-2.96290 dolina  -1.2610
-4.60140 dolinu  -0.3610
-4.42530 donijeti  -0.3289
-3.62370 donji  -0.9484
-4.60140 donositi  -0.3608
-4.42530 dosta  0.0000
-2.79520 dr`avnog  -0.3600
-3.23030 dr`avnoga  -0.3600
-4.42530 dragojlovi^  -0.3327
-4.42530 dragoslav  -0.2048
-3.10310 drava  -0.7825
-3.07640 drugdje  -0.5630
-3.47110 drugom  -0.3506
-4.60140 drugome  -0.3506
-3.94820 drvar  -0.3610
-4.30040 drve^a  -0.2228
-3.26900 du`  -0.4946
-4.90240 du`a  0.0000
-4.30040 du`e  -0.3405
-4.90240 du`im  0.0000
-4.12430 duboka  -0.1835
-4.90240 dubrova~kom  0.0000
-4.60140 dubrova~kome  -0.3439
-4.60140 dugotrajna  0.0000
-4.90240 dugotrajno  0.0000
-4.42530 dugotrajnom  -0.3298
-4.30040 dugotrajnu  -0.5439
-4.60140 dulja  -0.3611
-4.05730 dulje  -0.9190
-4.60140 duljih  -0.3573
-3.18640 dunav  -0.5180
-3.64720 dunja  -0.5340
-2.09630 dva  -1.1120
-1.94240 dvadeset  -1.5966
-4.90240 dvadeseti  0.0000
-4.90240 dvadesetoj  0.0000
-2.13750 dvanaest  -1.6722
-4.60140 dvije  0.0000
-3.14660 dvjesto  -0.5810
-4.90240 egejskim  0.0000
-4.90240 egejskome  0.0000
-4.05730 europe  -0.8958
-4.90240 europom  0.0000
-4.90240 europska  0.0000
-4.90240 europske  0.0000
-4.60140 europskim  -0.3603
-4.12430 europskog  -0.5067
-4.90240 europskoga  0.0000
-4.90240 formira  0.0000
-4.90240 formiranje  0.0000
-4.42530 fronta  -0.3327
-3.60140 frontalni  -0.5250
-3.23970 frontalnim  -0.3358
-3.94820 fronte  -0.7299
-3.94820 frontom  -0.9542
-3.22120 gdje  -0.4577
-4.30040 glasi  -0.5430
-4.60140 glavninom  -0.3610
-3.94820 glavobolja  -0.3306
-3.50450 glavobolje  -1.4511
-3.62370 glavobolju  -0.7277
-3.94820 godine  -0.3610
-4.90240 godinu  0.0000
-3.08290 gorju  -1.5061
-4.60140 gorski  -0.3598
-3.35840 gorskim  -0.3078
-4.30040 gorskog  -0.2025
-3.78850 gorskoj  -0.4094
-2.83800 gorskom  -1.7322
-3.35840 gorskome  -1.3684
-3.67200 gotovo  -0.3561
-4.60140 govori  0.0000
-4.30040 granici  -0.5287
-3.16210 greben  -0.8299
-4.42530 grebena  -0.3327
-2.75630 grmljavina  -1.5587
-3.41110 grmljavine  -1.2021
-2.75940 grmljavinom  -1.8435
-3.94820 grmljavinu  -0.3605
-2.65940 hidrometeorolo{kog  -2.2421
-4.90240 hidrometeorolo{koga  0.0000
-4.12430 hladna  -0.2637
-4.05730 hladne  -0.2664
-3.60140 hladnije  -0.3368
-3.32270 hladno  -0.6488
-4.60140 hladno^a  0.0000
-3.69830 hladno^e  -0.9049
-4.60140 hladno^u  -0.3439
-4.60140 hladnog  -0.3603
-4.60140 hladnoga  -0.3603
-3.99940 hladnom  -0.4645
-4.90240 hrast  0.0000
-4.42530 hrasta  0.0000
-3.60140 hrvatska  -1.3009
-4.90240 hrvatske  0.0000
-3.28970 hrvatskoj  -1.3094
-4.42530 hrvatskom  -0.1946
-4.90240 hrvatskome  0.0000
-4.05730 hrvatsku  -0.4350
-1.34040 i  -0.9580
-4.20350 iako  -0.3689
-4.42530 ih  -0.3319
-2.53320 ili  -1.0403
-3.62370 ilok  -0.8218
-4.90240 ima  0.0000
-4.90240 imaju  0.0000
-4.60140 imat  -0.3607
-3.02160 imati  -1.0772
-4.90240 inverzija  0.0000
-4.20350 ipak  -0.1682
-4.60140 iskoristite  0.0000
-4.60140 ispod  -0.3408
-4.42530 ista  -0.3296
-4.60140 iste  -0.3609
-3.60140 istok  -0.3439
-3.37100 istoku  -1.4362
-3.38390 isto~ni  -0.8952
-3.28970 isto~nim  -1.5815
-3.16210 isto~njak  -0.4778
-4.60140 isto~njaka  0.0000
-4.42530 isto~njakom  -0.3124
-4.90240 isto~noeuropske  0.0000
-4.60140 isto~nog  -0.3408
-3.26900 isto~noj  -1.6022
-4.90240 isto~nom  0.0000
-4.05730 istre  -0.8948
-4.60140 istri  -0.3506
-4.60140 italije  -0.3611
-4.60140 italiji  -0.3604
-4.30040 italijom  -0.2214
-4.60140 iz  -0.3610
-4.42530 izbjegavaju  -0.2051
-4.90240 izbjegavanje  0.0000
-3.82330 izbjegavati  -0.6998
-4.60140 izdi^i  -0.3598
-3.13900 izgledi  -1.4457
-4.60140 izgledima  -0.3607
-4.42530 izjedna~enog  -0.2051
-2.44150 izme}u  -1.1587
-4.90240 izmjerenih  0.0000
-4.90240 izmjereno  0.0000
-3.72640 iznad  -0.2519
-4.30040 iznadprosje~no  -0.1439
-3.78850 iznimno  -0.3123
-3.99940 izra`en  -0.3380
-3.99940 izra`ene  -0.4669
-4.30040 izuzetno  -0.5455
-3.19490 izvje{^e  -1.6513
-2.64480 izvje{taj  -1.5060
-2.54450 jadran  -1.9714
-2.33310 jadrana  -1.4540
-2.87310 jadranom  -1.2532
-1.64090 jadranu  -2.0870
-3.14660 jak  -0.9627
-2.61460 jaka  -1.1201
-4.60140 jaki  -0.3599
-4.42530 jakim  -0.2022
-2.81250 jako  -1.0632
-4.20350 jakom  -2.4013
-4.30040 jaku  -0.1237
-3.62370 jasenovac  -0.7476
-4.90240 javno  0.0000
-3.07640 ja~a  -0.4537
-4.42530 ja~anje  -0.2023
-3.60140 ja~anju  -0.3506
-4.30040 ja~ati  -0.3554
-3.32270 ja~e  -0.7562
-4.42530 ja~i  0.0000
-4.42530 ja~u  -0.3307
-2.86110 je  -0.4114
-2.28970 jedan  -0.8307
-2.89380 jedanaest  -1.3702
-4.90240 jedino  0.0000
-4.42530 jedna  -0.2020
-3.78850 jednog  -1.1074
-4.42530 jednoga  0.0000
-3.99940 jonskim  -0.7317
-4.42530 jonsko  -0.1879
-4.90240 jonskog  0.0000
-3.94820 jonskom  -0.5506
-4.42530 jonskome  -0.3320
-2.69030 jo{  -0.5558
-4.42530 ju`ne  -0.2022
-3.10310 ju`ni  -0.8573
-3.72640 ju`nim  -0.7404
-4.42530 ju`no  -0.2051
-2.90680 ju`nog  -1.0797
-4.90240 ju`noga  0.0000
-4.20350 ju`noj  -0.3126
-2.46790 ju`nom  -1.7438
-3.94820 ju`nome  -0.9371
-4.90240 jug  0.0000
-3.18640 juga  -1.7751
-2.30260 jugo  -1.2840
-3.72640 jugoistok  -1.1589
-4.90240 jugoistoka  0.0000
-3.56000 jugoisto~ni  -0.8188
-4.90240 jugoisto~njak  0.0000
-4.42530 jugom  -0.2050
-4.42530 jugozapada  0.0000
-2.66190 jugozapadni  -0.8969
-2.79860 jugozapadnjak  -0.8816
-3.94820 jugozapadnog  -0.3446
-3.62370 jugu  -0.7469
-4.90240 juri  0.0000
-2.58230 jutarnja  -1.3613
-3.78850 jutarnje  -0.4543
-4.60140 jutarnjih  0.0000
-4.30040 jutarnju  -0.3387
-3.37100 jutra  -0.5672
-3.75630 jutro  -0.5032
-4.90240 jutros  0.0000
-4.42530 kada  0.0000
-4.90240 kakvo  0.0000
-4.60140 kalin  -0.3611
-2.88540 kanalu  -2.0765
-4.12430 kao  -0.7695
-3.60140 karlovac  -0.8463
-4.90240 karlova~koj  0.0000
-4.90240 karlovcu  0.0000
-4.30040 kasno  -0.1378
-4.90240 kesten  0.0000
-4.60140 kestena  -0.3611
-4.90240 kidanja  0.0000
-4.90240 kidanje  0.0000
-2.58650 kilometara  -1.7994
-3.02160 kilometra  -1.8655
-2.43710 ki{a  -1.0436
-2.90240 ki{e  -0.8411
-2.64480 ki{om  -1.4265
-4.60140 ki{ovito  -0.3408
-3.82330 ki{u  -0.4266
-4.90240 klini~ki  0.0000
-3.08950 kod  -0.6223
-3.26900 koja  -0.6939
-3.75630 koje  -0.8429
-4.90240 kojeg  0.0000
-4.90240 kojega  0.0000
-3.67200 koji  -0.2488
-4.12430 kojim  -0.5087
-4.60140 kojoj  0.0000
-3.82330 koli~ina  -1.0789
-3.86110 koncentracija  -0.1879
-3.90240 koncentracije  -0.2852
-4.05730 koncentraciji  -0.9289
-3.94820 koncentracijom  -0.3408
-4.30040 koncentraciju  0.0000
-4.05730 kopna  -0.3893
-3.94820 kopnenim  -0.6977
-3.27920 kopnenom  -1.1357
-4.20350 kopnenome  -2.4111
-4.60140 kopnom  -0.3611
-4.60140 kornata  -0.3606
-4.90240 kornati  0.0000
-4.60140 korova  0.0000
-3.60140 kostajnica  -0.3610
-4.60140 kotar  -0.3611
-4.30040 kotara  -0.5458
-2.73510 kotaru  -0.3537
-3.99940 kotlinama  -0.6465
-3.82330 kra^a  -0.1799
-4.90240 kra^ih  0.0000
-4.90240 kra^im  0.0000
-2.89810 kraja  -0.3440
-3.27920 krajem  -0.4738
-3.28970 krajeva  -1.6726
-2.98860 krajevima  -0.9058
-4.90240 krajnjeg  0.0000
-4.42530 krajnjem  -0.3155
-3.58020 kraju  -1.3215
-4.90240 kratka  0.0000
-4.90240 kratki  0.0000
-3.54070 kratkotrajan  -0.5118
-3.38390 kratkotrajna  -0.6247
-4.05730 kratkotrajne  -0.2280
-3.39730 kratkotrajni  -0.3596
-4.12430 kratkotrajnih  -0.4737
-3.99940 kratkotrajnim  -0.5417
-3.56000 kratkotrajno  -0.3209
-4.42530 kratkotrajnog  -0.2048
-4.12430 kratkotrajnom  -0.7671
-4.42530 kratkotrajnu  0.0000
-4.12430 kre^e  -0.2594
-4.42530 kre^u  -0.3299
-4.60140 kroni~ne  -0.3408
-3.05730 kroni~ni  -1.3057
-3.52220 kroni~nih  -0.8477
-4.60140 kroni~nim  0.0000
-4.42530 kroz  -0.2023
-4.42530 kru`i  -0.3318
-4.60140 krvo`ilnim  0.0000
-3.35840 kupa  -0.5699
-4.60140 kvarneru  -0.3439
-4.90240 lak{e  0.0000
-4.42530 lebi^  -0.2012
-4.60140 ledi  -0.3583
-4.90240 lediti  0.0000
-3.62370 levant  -1.2585
-4.42530 levanta  -0.1848
-2.70380 lici  -1.7079
-4.30040 ligurskim  -0.2025
-4.12430 ligurskog  -0.7671
-4.90240 ligurskoga  0.0000
-4.90240 ligurskom  0.0000
-4.90240 ligurskome  0.0000
-4.60140 lijepo  0.0000
-4.42530 like  -0.2050
-4.42530 liku  -0.1848
-4.90240 lipnja  0.0000
-3.99940 ljude  -0.3439
-2.93400 ljudi  -1.1827
-4.20350 ljudima  -0.1682
-4.30040 lokalne  -0.3546
-3.62370 lokalni  -0.4626
-4.42530 lokalnih  -0.2050
-4.20350 lokalnim  -0.2377
-4.60140 lovro  0.0000
-4.90240 lo{a  0.0000
-4.12430 lo{e  -0.3315
-4.60140 lo{ije  -0.3599
-4.90240 lo{ijeg  0.0000
-4.90240 lo{iju  0.0000
-3.26900 maestral  -0.8850
-2.82690 magla  -0.9714
-3.48750 magle  -0.5775
-4.90240 magli  0.0000
-3.67200 maglom  -0.7136
-4.60140 maglovita  -0.3611
-3.45530 maglovito  -0.5021
-4.30040 maglovitog  -0.5255
-3.90240 maglu  -0.5001
-4.20350 mahovi^  -2.4216
-4.90240 mahovli^  0.0000
-4.90240 makarskog  0.0000
-4.42530 makarskoj  -0.3222
-4.20350 mala  -0.1112
-2.22850 malo  -1.0031
-3.62370 malom  -0.3582
-3.67200 malu  -0.3591
-3.23970 manja  -0.4481
-3.27920 manje  -0.5572
-4.60140 manjom  -0.3582
-4.60140 manju  -0.3591
-3.78850 marija  -0.7808
-4.90240 meteorolo{ke  0.0000
-2.61910 meteorolo{kog  -2.2822
-3.78850 meteorolo{koga  -1.1729
-3.78850 meteoropata  -0.3607
-4.60140 meteoropate  -0.3439
-3.64720 meteoropati  -0.5279
-3.60140 metkovi^  -0.3610
-3.90240 me}imurju  -0.4118
-3.62370 miholjac  -0.3610
-4.60140 mijenja  -0.3610
-4.20350 mijenjati  -0.3689
-4.60140 minimalna  0.0000
-2.14500 minus  -1.4545
-4.90240 minuti  0.0000
-4.42530 mirna  -0.3326
-4.20350 mirno  -2.4190
-4.90240 mirnog  0.0000
-4.90240 mirnoga  0.0000
-4.90240 mjesta  0.0000
-4.12430 mjestima  -0.7529
-2.03670 mjestimice  -0.7672
-4.60140 mjestimi~na  -0.3408
-4.30040 mjestimi~ni  -0.1434
-4.90240 mjestimi~nim  0.0000
-3.94820 mjestimi~nom  -0.3582
-4.60140 mjestimi~nu  -0.3546
-3.82330 mnogi  -0.3662
-3.23970 mo`e  -0.3674
-4.12430 mogla  -0.3119
-4.20350 mogle  -0.3433
-3.01030 mogli  -0.8171
-3.94820 moglo  -0.3314
-3.42530 mogu  -0.4734
-3.60140 mogu^  -0.3739
-2.96790 mogu^a  -0.5547
-3.25900 mogu^e  -0.4007
-3.05120 mogu^i  -0.4702
-3.14660 mogu^nost  -0.7651
-4.60140 mogu^no{^u  -0.3611
-4.90240 mohori^  0.0000
-3.82330 mokori^  -0.3610
-3.94820 mora  -0.2978
-4.60140 moramo  -0.3611
-2.22850 more  -1.1819
-3.60140 morem  -0.9217
-2.63530 moru  -1.4328
-4.90240 mraz  0.0000
-4.90240 mu  0.0000
-4.42530 mu~iti  -0.3327
-1.41220 na  -0.9959
-2.74410 nad  -0.9107
-4.90240 nadalje  0.0000
-4.90240 naime  0.0000
-4.12430 najisto~nijim  -0.4439
-4.90240 najkasnije  0.0000
-4.90240 najmanje  0.0000
-2.79860 najni`a  -1.0548
-4.60140 najni`e  -0.3611
-4.30040 najni`u  -0.5439
-4.12430 najobla~nije  -0.3124
-4.90240 najosjetljiviji  0.0000
-3.58020 najprije  -0.1780
-4.60140 najsjevernijim  -0.3506
-4.42530 najsun~anije  0.0000
-4.60140 najve^a  -0.3610
-2.38390 najvi{a  -1.1750
-3.22120 najvi{e  -0.6096
-4.20350 najvi{em  -0.3585
-4.20350 najvi{om  -2.4187
-4.60140 najvi{u  -0.3591
-3.99940 najzapadnijim  -0.3506
-3.82330 nakon  -0.2473
-4.90240 nam  0.0000
-2.72930 naoblaka  -0.9377
-3.24920 naoblake  -0.8448
-3.05120 naoblakom  -1.2794
-3.19490 naoblaku  -0.9047
-3.75630 naobla~enje  -0.5374
-4.90240 naobla~it  0.0000
-4.30040 naobla~iti  -0.1413
-4.90240 napora  0.0000
-3.86110 napore  -1.1011
-4.90240 nas  0.0000
-4.42530 nastavku  -0.3222
-3.75630 nastavlja  -0.3257
-4.05730 nata{a  -0.2635
-2.98860 nave~er  -0.5634
-4.90240 na{e  0.0000
-4.60140 na{ih  -0.3611
-3.52220 ne  -0.5114
-3.86110 ne^e  -0.5213
-4.42530 nedjelje  -0.3322
-3.48750 nedjelju  -1.0314
-3.62370 nego  -0.2835
-4.60140 neka  0.0000
-4.30040 neki  -0.2166
-4.20350 nekim  -0.3429
-4.90240 nekoliko  0.0000
-4.90240 nema  0.0000
-4.90240 nepogodne  0.0000
-4.90240 nepogodni  0.0000
-4.90240 nepogodno  0.0000
-3.39730 nepovoljan  -0.7143
-4.90240 nepovoljna  0.0000
-3.99940 nepovoljne  -0.3545
-3.54070 nepovoljni  -0.6565
-4.42530 nepovoljnih  -0.2043
-4.60140 nepovoljniji  -0.3573
-4.90240 nepovoljnijih  0.0000
-4.60140 nepovoljno  0.0000
-4.60140 nepovoljnog  -0.3603
-3.60140 neretva  -0.9797
-4.12430 nervozu  -0.3124
-4.12430 nesanica  -0.3124
-4.60140 nesanice  0.0000
-4.90240 nesre^e  0.0000
-4.90240 nestabilan  0.0000
-4.90240 nestabilna  0.0000
-4.42530 nestabilni  -0.3124
-3.72640 nestabilno  -0.5537
-3.90240 nestabilnog  -0.3610
-4.90240 nestabilnosti  0.0000
-4.42530 nevere  -0.3287
-3.94820 neverin  -0.3589
-3.90240 neverina  -0.3608
-3.11710 neverini  -0.9045
-4.90240 nevrijeme  0.0000
-4.90240 neznatne  0.0000
-4.90240 neznatno  0.0000
-3.64720 ne{to  -0.3511
-3.58020 ni  -0.4380
-3.30040 ni`a  -0.9252
-4.60140 ni`e  -0.3585
-4.90240 ni`im  0.0000
-4.12430 niska  -0.1834
-4.05730 niske  -0.3554
-3.78850 niski  -0.6343
-4.30040 niskih  -0.1427
-4.60140 niskim  -0.3408
-4.30040 nismo  -0.1439
-4.90240 nizinam  0.0000
-3.56000 nizinama  -1.0599
-3.82330 ni{tice  -0.9991
-4.90240 ni{ticu  0.0000
-4.60140 njegov  -0.3439
-4.30040 njegovom  -0.5287
-4.30040 njegovu  -0.5287
-4.20350 no  -0.2585
-4.90240 no^  0.0000
-4.05730 no^as  -0.3400
-2.34370 no^i  -1.8352
-4.30040 no^na  -0.3593
-3.10310 no^u  -0.6060
-3.69830 nova  -0.3962
-4.60140 novo  -0.3609
-4.60140 novogodi{njoj  -0.3506
-3.99940 no{en  -0.3605
-2.84170 nula  -1.0147
-3.94820 nule  -0.8670
-3.04510 o  -1.3415
-4.90240 o`ujka  0.0000
-3.32270 obale  -0.3609
-4.30040 obali  -0.3439
-4.42530 obalnom  -0.3222
-2.64480 obalu  -3.9783
-4.42530 obilnije  -0.1848
-4.42530 obilnijim  -0.1848
-3.86110 oblaci  -0.3610
-4.60140 oblacima  -0.3611
-3.23030 oblaka  -1.3706
-4.30040 oblake  -0.5458
-4.60140 obla~ni  -0.3610
-3.52220 obla~nije  -0.3352
-2.19320 obla~no  -1.1994
-3.58020 oborina  -0.5342
-4.42530 oborinama  -0.2022
-3.69830 oborine  -0.3178
-4.60140 oborinom  -0.3610
-4.90240 obrnuto  0.0000
-1.82650 od  -1.2318
-4.60140 odakle  0.0000
-4.42530 odgovaraju^a  -0.3326
-4.42530 odgovaraju^e  -0.2050
-4.60140 odgovaraju^u  -0.3439
-4.30040 odje^a  -0.5458
-4.60140 odjenuti  -0.3611
-4.42530 odmicanja  -0.3319
-4.42530 odmi~e  -0.1848
-4.42530 odnosu  -0.3222
-4.42530 oja~alo  -0.3321
-4.60140 oja~ao  -0.3510
-4.42530 oja~ati  -0.2011
-4.90240 oja~ava  0.0000
-3.54070 oko  -0.5010
-3.62370 okrenut  -0.2439
-3.23030 okrenuti  -0.5568
-3.94820 okretanju  -0.3506
-4.30040 okretati  -0.3402
-4.42530 olujan  -0.1848
-3.45530 olujna  -0.6632
-4.60140 olujne  -0.3440
-3.48750 olujnim  -1.4121
-3.86110 olujno  -0.7490
-4.90240 olujnom  0.0000
-4.42530 olujnu  -0.3124
-4.60140 one  0.0000
-4.60140 oni  -0.3603
-4.42530 op^eg  -0.3326
-4.42530 oprostite  -0.2030
-4.90240 oraha  0.0000
-4.90240 orkanska  0.0000
-4.05730 orkanskim  -0.4182
-2.32610 osam  -0.8506
-3.39730 osamdeset  -0.2602
-2.92470 osamnaest  -1.1064
-3.62370 osijek  -0.8826
-4.30040 osijeku  -0.2124
-4.60140 osje^at  -0.3606
-3.14660 osje^ati  -0.7739
-4.30040 osjetiti  -0.2221
-4.12430 osjetljive  -0.5094
-3.50450 osjetljivi  -0.9487
-3.60140 osjetljivih  -0.8929
-4.42530 osjetljivije  -0.3319
-3.86110 osjetljiviji  -0.2178
-4.90240 osjetljivijim  0.0000
-4.90240 osjetljivima  0.0000
-4.60140 osjetljivosti  -0.3611
-3.72640 osjetno  -0.4157
-4.90240 oslabio  0.0000
-3.62370 oslabit  -0.3536
-3.45530 oslabiti  -0.4902
-3.90240 oslabjet  -0.4482
-3.28970 oslabjeti  -0.6345
-4.42530 oslabljen  -0.3327
-4.42530 oslabljena  -0.1988
-4.90240 oslabljene  0.0000
-4.42530 oslabljeni  -0.1988
-3.90240 oslabljenim  -0.3582
-4.60140 oslabljenom  -0.3582
-4.90240 osmi  0.0000
-4.90240 osobama  0.0000
-3.86110 osobe  -0.5242
-2.82690 osobito  -0.4013
-3.78850 ostalim  -0.3506
-4.42530 ostalog  -0.3325
-3.75630 ostalom  -0.8569
-3.99940 osvje`enje  -0.5436
-4.12430 otocima  -0.2944
-4.42530 otrantskim  -0.3222
-4.90240 otvorena  0.0000
-2.32840 otvorenom  -2.0798
-2.96790 otvorenome  -1.6242
-4.90240 otvorenomu  0.0000
-3.94820 ovo  -0.3546
-3.82330 ovog  -0.3605
-4.30040 ovoga  -0.5453
-4.42530 ozljeda  -0.2051
-4.42530 o~ekivati  -0.3325
-3.50450 o~ekuje  -0.3059
-3.75630 o~ekuju  -0.2925
-3.41110 pa  -0.4654
-4.30040 pada  -0.2228
-4.90240 padao  0.0000
-4.12430 padati  -0.1312
-4.90240 padom  0.0000
-4.30040 padu  -0.5354
-4.60140 pahulja  0.0000
-4.90240 parkova  0.0000
-4.90240 past  0.0000
-3.62370 pasti  -0.7582
-3.52220 patiti  -1.1288
-3.12430 pedeset  -0.5047
-4.05730 pelud  -0.2111
-3.99940 peluda  -0.6466
-2.21400 pet  -0.9605
-3.44000 petak  -1.0551
-4.90240 peti  0.0000
-4.05730 petka  -0.4391
-2.65450 petnaest  -1.0741
-4.90240 petnaesti  0.0000
-3.94820 petsto  -0.2396
-3.94820 pla~ko  -0.3610
-3.39730 plitka  -0.6308
-4.12430 plitko  -0.1348
-3.13900 pljusak  -0.7512
-3.69830 pljuska  -0.5196
-4.30040 pljuskom  -0.1440
-3.52220 pljuskova  -0.5821
-3.94820 pljuskove  -0.3622
-2.72350 pljuskovi  -1.0658
-2.96290 pljuskovima  -1.4407
-4.12430 plu^nih  -0.3123
-3.45530 plus  -1.0192
-3.45530 po  -0.5662
-3.86110 pobolj{anje  -0.4256
-4.42530 pobolj{ati  -0.2045
-4.42530 pod  -0.3321
-4.90240 podataka  0.0000
-3.37100 podne  -1.5912
-4.90240 podneva  0.0000
-3.86110 podno  -0.1203
-4.90240 podno{ljivija  0.0000
-4.30040 podr`ava  -0.1440
-4.90240 podr`avati  0.0000
-3.78850 podravini  -0.8410
-4.90240 podru~ja  0.0000
-4.30040 podru~je  -0.1428
-3.44000 podru~jima  -0.3510
-2.98340 podru~ju  -0.9631
-4.30040 podvelebitskom  -0.5354
-4.42530 pogodne  -0.2046
-4.05730 pogodni  -0.2649
-4.60140 pogodnih  0.0000
-4.90240 pogodniji  0.0000
-4.42530 pogor{anje  -0.1950
-4.05730 pogor{ati  -0.2148
-4.90240 pojasu  0.0000
-4.90240 pojaviti  0.0000
-4.90240 pojavljivati  0.0000
-3.86110 poja~an  -0.2186
-3.62370 poja~ana  -0.3978
-4.30040 poja~ane  -0.3407
-3.94820 poja~anju  -0.3506
-3.50450 poja~ano  -0.5357
-4.90240 poja~anu  0.0000
-3.78850 poja~at  -0.0617
-3.45530 poja~ati  -0.6131
-4.90240 pokoji  0.0000
-4.60140 pokojim  -0.3610
-4.90240 pokre^e  0.0000
-4.90240 pokretna  0.0000
-4.60140 pokretno  -0.3605
-3.23030 polako  -0.3703
-4.90240 poledica  0.0000
-4.60140 poledice  -0.3599
-2.89380 polje  -0.9162
-4.90240 pomicati  0.0000
-3.86110 pomi~e  -0.5189
-4.90240 pomorske  0.0000
-2.66940 pomorskog  -0.3389
-3.37100 pomorskoga  -0.3601
-3.38390 ponajprije  -0.3909
-4.90240 ponajvi{e  0.0000
-3.48750 ponedjeljak  -1.4045
-4.90240 ponedjeljka  0.0000
-1.99770 ponegdje  -0.7600
-4.90240 poneka  0.0000
-3.56000 ponovno  -0.2201
-4.05730 ponovo  -0.3457
-3.45530 popunjava  -0.7694
-3.58020 porast  -0.2738
-4.12430 porasti  -0.3542
-3.64720 poreme^aj  -1.3152
-3.62370 poreme^ajem  -0.3608
-4.30040 posavini  -0.3298
-3.44000 posebice  -0.2840
-4.90240 posebno  0.0000
-3.50450 poslije  -0.3090
-2.40830 poslijepodne  -0.8166
-4.90240 poslijepodneva  0.0000
-4.12430 poslijepodnevna  -0.4734
-4.90240 postojane  0.0000
-4.60140 postojano  -0.3408
-4.60140 postoji  -0.3510
-4.05730 postupan  -0.2130
-3.54070 postupna  -0.2721
-4.90240 postupni  0.0000
-2.88130 postupno  -0.5455
-4.60140 postupnom  -0.3506
-3.50450 posvuda  -0.2958
-3.90240 pote{ko^a  -1.0596
-3.22120 pote{ko^e  -0.5461
-4.30040 poticajno  -0.5421
-2.92930 potkraj  -0.4032
-4.60140 potom  -0.3611
-3.90240 potrebna  -0.1664
-4.60140 pove^anom  -0.3408
-4.30040 pove^anu  -0.3583
-3.31140 povi{enog  -0.3395
-4.90240 povi{enoga  0.0000
-4.05730 povla~i  -0.1669
-3.64720 povoljan  -0.5965
-3.72640 povoljne  -0.4666
-3.47110 povoljni  -1.5232
-3.60140 povoljnih  -0.7493
-4.12430 povoljniji  -0.4739
-4.30040 povoljno  -0.1436
-4.60140 povoljnog  -0.3603
-4.30040 povoljnoga  -0.2220
-2.72350 povremeno  -0.7500
-4.60140 po~eo  0.0000
-4.05730 po~etkom  -0.2637
-2.97820 po~etku  -0.3126
-3.69830 po~inje  -1.2607
-4.42530 pred  -0.1848
-4.20350 predjela  -2.4214
-4.60140 predjele  -0.3610
-3.09630 predjelima  -1.0535
-4.60140 predve~er  0.0000
-3.90240 preko  -0.2092
-2.79860 prema  -0.5709
-4.42530 premda  0.0000
-4.90240 premjestila  0.0000
-4.60140 premjestilo  -0.3611
-3.23970 premje{ta  -0.4504
-4.90240 premje{tanja  0.0000
-4.90240 premje{tat  0.0000
-4.60140 preosjetljive  0.0000
-4.90240 preosjetljivo{^u  0.0000
-4.90240 preostali  0.0000
-4.12430 preostalom  -0.4924
-4.90240 preporuci  0.0000
-4.20350 preporu~uje  -0.1654
-4.60140 preporu~ujemo  -0.3609
-3.78850 prestanak  -0.2155
-3.94820 prestati  -0.4706
-4.90240 pret`no  0.0000
-2.58440 prete`ito  -0.8550
-2.92020 prete`no  -0.7425
-4.42530 prethodne  -0.3155
-4.90240 prethodnih  0.0000
-4.90240 prevladava  0.0000
-4.90240 prevladavala  0.0000
-3.50450 prevladavat  -0.4390
-3.75630 prevladavati  -0.6653
-4.90240 pri  0.0000
-3.52220 pribli`ava  -0.4490
-4.05730 pribli`avanja  -0.9385
-4.30040 pribli`ila  -0.3605
-4.60140 pribli`no  -0.3408
-4.42530 pridonijet  -0.3323
-4.90240 prija{njih  0.0000
-3.94820 prije  -0.3427
-4.20350 prije^i  -0.2578
-4.30040 prijeloma  -0.3408
-3.08950 prijepodne  -0.4894
-4.30040 prijepodneva  -0.3610
-4.30040 prikladna  -0.5458
-4.42530 prikladnu  -0.3155
-3.94820 prilika  -0.3610
-3.50450 prilike  -0.6715
-4.42530 primili  -0.3327
-3.75630 primi~e  -0.6095
-4.42530 primjerena  -0.3321
-4.05730 primjerenu  -0.3722
-4.42530 primorja  -0.2045
-4.90240 primorju  0.0000
-4.60140 priobalju  -0.3506
-4.90240 pripadni  0.0000
-4.60140 prirodi  -0.3506
-4.90240 prirodu  0.0000
-4.60140 pristi`e  -0.3610
-4.42530 pritjecanja  -0.3319
-4.42530 pritje~e  -0.2048
-4.60140 produbljava  -0.3583
-1.93160 prognoza  -2.6767
-4.90240 prognoze  0.0000
-4.05730 prohladno  -0.3449
-4.60140 prolaza  -0.3600
-4.90240 prolazak  0.0000
-4.42530 prolazan  -0.2007
-4.12430 prolazna  -0.1949
-3.75630 prolazno  -0.2018
-4.90240 proljetne  0.0000
-4.90240 prometne  0.0000
-4.90240 promijenjiva  0.0000
-3.69830 promijenjivo  -0.2745
-4.90240 promijenjivom  0.0000
-4.60140 promijenjivu  -0.3591
-4.90240 promijenjljivo  0.0000
-2.98340 promjene  -1.4826
-4.20350 promjenjiva  0.0000
-3.15430 promjenjivo  -0.5035
-3.75630 promjenjivom  -1.1433
-4.05730 promjenjivu  -0.9374
-4.12430 promjenjljiva  -0.2776
-3.41110 promjenjljivo  -0.4780
-4.12430 promjenjljivom  -0.5067
-4.30040 promjenjljivu  -0.2209
-4.05730 promjenljiva  -0.4376
-2.77530 promjenljivo  -0.9098
-3.69830 promjenljivom  -1.2013
-3.94820 promjenljivu  -0.9523
-4.90240 promjenom  0.0000
-4.60140 prosinca  0.0000
-3.82330 prostrana  -0.2129
-4.90240 prostrane  0.0000
-4.12430 prostrano  -0.7700
-4.42530 prostranog  -0.3327
-4.05730 proteklih  -0.2150
-4.12430 pro{irit  -0.2796
-4.30040 pro{iriti  -0.2200
-3.75630 pru`a  -0.2912
-4.90240 prvi  0.0000
-2.57820 prvih  -0.3546
-3.72640 prvo  -0.3105
-4.05730 prvom  -0.9289
-3.54070 puhat  -0.6132
-4.90240 pulenat  0.0000
-3.60140 radenci  -1.1543
-4.42530 radni  -0.3327
-4.30040 ranijih  -0.5458
-4.60140 ranog  -0.3440
-3.99940 raspolo`ena  -0.3609
-4.30040 raspolo`ene  -0.5457
-3.99940 raspolo`eni  -0.3394
-3.94820 raspolo`enja  -0.2978
-3.94820 raspolo`enje  -0.5543
-4.60140 raspolo`enjem  -0.3582
-4.42530 raspolo`enju  -0.3327
-4.90240 rast  0.0000
-4.90240 raste  0.0000
-4.90240 rasti  0.0000
-3.21220 razdoblja  -1.4140
-3.75630 razdoblje  -0.3583
-3.28970 razdobljima  -0.3609
-3.67200 razdra`ljivi  -0.3599
-3.62370 razdra`ljivost  -0.7455
-4.60140 razdra`ljivosti  -0.3408
-2.95310 razmjerno  -0.7249
-3.32270 razvedravanje  -0.8933
-4.90240 razvedravati  0.0000
-4.60140 razvedrit  -0.3408
-3.64720 razvedriti  -0.6211
-3.86110 razvoj  -0.6328
-3.78850 reumati~ara  -0.3402
-3.86110 reumati~ari  -0.3149
-4.60140 reumati~arima  0.0000
-4.42530 reumatskih  -0.3124
-4.90240 reumom  0.0000
-3.44000 rijeka  -0.8338
-4.20350 rijeke  -0.3670
-3.99940 rijetki  -0.1613
-4.90240 rijetkih  0.0000
-4.60140 rije~kome  -0.3439
-4.90240 rosulja  0.0000
-4.60140 rosuljom  -0.3598
-2.18390 s  -0.8955
-2.51150 sa  -0.7207
-2.83060 samo  -0.3571
-4.30040 samo{^anec  -0.5458
-4.90240 san  0.0000
-4.20350 sasvim  -0.1074
-2.24730 sati  -2.7000
-4.60140 satima  -0.3611
-3.01600 sava  -0.8831
-2.19400 se  -0.9490
-2.50450 sedam  -0.8884
-3.32270 sedamdeset  -0.4634
-3.02740 sedamnaest  -1.1022
-4.30040 sedamsto  -0.1405
-4.90240 sedmi  0.0000
-4.30040 senja  -0.5455
-4.90240 sicilijom  0.0000
-4.42530 sije~nja  0.0000
-4.05730 sinopti~arka  -0.3893
-4.90240 situacija  0.0000
-4.90240 sjever  0.0000
-3.82330 sjevera  -0.3597
-3.99940 sjeverac  -0.6243
-2.98340 sjeverni  -0.9185
-4.60140 sjevernije  -0.3611
-3.72640 sjevernim  -0.7076
-3.82330 sjevernjak  -0.5877
-3.22120 sjevernog  -0.9330
-4.90240 sjevernoga  0.0000
-4.60140 sjevernoj  -0.3506
-2.11640 sjevernom  -2.1542
-3.17820 sjevernome  -0.3439
-4.42530 sjeveroistok  -0.3155
-2.98860 sjeveroisto~ni  -1.4076
-4.90240 sjeveroisto~nim  0.0000
-3.39730 sjeveroisto~njak  -0.8041
-4.90240 sjeveroisto~nog  0.0000
-3.25900 sjeverozapada  -0.3597
-4.60140 sjeverozapadne  -0.3597
-2.53510 sjeverozapadni  -1.0009
-3.45530 sjeverozapadnim  -1.4077
-2.63760 sjeverozapadnjak  -1.0589
-4.60140 sjeverozapadnjaka  -0.3604
-4.90240 sjeverozapadno  0.0000
-3.86110 sjeverozapadnog  -0.2874
-3.60140 sjeverozapadnom  -1.3640
-4.30040 sjeverozapadu  -0.3228
-3.82330 sjeveru  -1.1455
-4.30040 skrenut  -0.3478
-4.90240 skrenuti  0.0000
-4.90240 skretanje  0.0000
-4.42530 skretanju  -0.3222
-4.90240 skretati  0.0000
-2.13310 slab  -1.1145
-2.79860 slaba  -0.6960
-3.82330 slabe  -0.2934
-3.94820 slabi  -0.2422
-4.42530 slabija  -0.3313
-3.44000 slabije  -0.6788
-4.90240 slabijeg  0.0000
-3.90240 slabiji  -0.2069
-4.90240 slabiju  0.0000
-3.60140 slabim  -1.0556
-4.60140 slabit  0.0000
-3.52220 slabiti  -0.7897
-4.90240 slabjet  0.0000
-3.58020 slabjeti  -0.9878
-4.90240 slabljenja  0.0000
-3.78850 slabljenju  -1.1635
-3.08290 slabo  -0.4529
-3.64720 slabom  -1.2936
-3.82330 slabu  -0.3615
-2.84170 slavoniji  -1.4629
-3.30040 slavonski  -1.1419
-3.47110 slijede^eg  -0.3608
-4.30040 slijede^ega  -0.5456
-2.66190 slijede^ih  -2.1766
-4.60140 sljede^eg  -0.3608
-4.90240 sljede^ega  0.0000
-3.34610 sljede^ih  -0.3546
-4.60140 sloj  -0.3611
-4.90240 slu`be  0.0000
-3.58020 smanjena  -0.3389
-4.42530 smanjene  -0.2049
-4.30040 smanjenje  -0.1237
-4.42530 smanjiti  -0.2043
-4.90240 smanjuje  0.0000
-4.05730 smetnje  -0.8954
-4.90240 smiriti  0.0000
-4.90240 smirivanje  0.0000
-3.94820 smirivanju  -0.3506
-3.86110 smjera  -0.4235
-3.94820 smrzava  -0.3583
-3.90240 smrzavati  -0.5338
-3.99940 sna  -0.2228
-4.60140 sna`na  -0.3408
-3.99940 sni`enog  -0.3585
-2.86900 snijeg  -0.7050
-3.25900 snijega  -0.8476
-3.24920 snijegom  -1.2518
-4.90240 snje`na  0.0000
-3.78850 snom  -0.3597
-3.44000 sparno  -1.1113
-2.58650 split  -1.8377
-3.45530 sporo  -0.2321
-4.90240 spustila  0.0000
-3.23030 sredine  -1.5920
-4.60140 sredini  -0.3604
-3.38390 sredinom  -0.3818
-4.60140 sredi{njem  0.0000
-3.86110 sredi{njim  -0.5051
-4.05730 sredi{njoj  -0.9289
-4.60140 sredi{te  -0.3583
-3.90240 sredi{tem  -0.3597
-4.90240 srednje  0.0000
-2.59490 srednjeg  -1.5824
-3.90240 srednjega  -0.6970
-2.64720 srednjem  -2.2170
-4.42530 srednji  -0.3327
-3.99940 srednjim  -0.7317
-4.20350 srednjoj  -2.4111
-4.42530 srednjom  -0.3319
-4.20350 sredozemlja  -0.3678
-3.67200 sredozemljem  -0.6778
-4.42530 sredozemlju  -0.2041
-4.05730 sredozemna  -0.3321
-4.60140 sredozemne  0.0000
-3.50450 srijedu  -1.2222
-4.42530 srijemu  -0.3325
-3.86110 sr~ane  -1.0805
-3.78850 sr~ani  -2.8159
-3.90240 sr~anih  -0.6562
-4.12430 stabilne  -0.5087
-4.90240 stabilnije  0.0000
-4.12430 stabilno  -0.0900
-4.90240 stalno  0.0000
-4.42530 stanja  -0.3327
-2.54070 stanje  -1.3295
-4.60140 stanovnici  -0.3607
-4.90240 staru  0.0000
-4.90240 stjepana  0.0000
-3.11710 sto  -0.5578
-4.60140 stoga  -0.3611
-3.82330 stojanovi^  -1.0791
-4.90240 stotine  0.0000
-4.30040 stotinu  0.0000
-4.12430 strelec  -0.5095
-4.42530 strujanja  -0.3326
-3.52220 stupanj  -1.3780
-2.75020 stupnja  -1.7629
-2.20520 stupnjeva  -2.2145
-4.90240 stvaranje  0.0000
-4.60140 stvarati  -0.3611
-3.00480 su  -0.5301
-4.42530 subote  -0.2046
-3.44000 subotu  -1.1043
-4.12430 suho  -0.4722
-3.16210 sumaglica  -1.0572
-3.22120 sumaglice  -1.2999
-3.99940 sumaglicom  -0.6253
-4.05730 sunca  -0.8952
-4.60140 sunce  0.0000
-3.23970 sun~ana  -0.8585
-3.62370 sun~anih  -0.3551
-4.42530 sun~anije  -0.2050
-3.28970 sun~anim  -1.1343
-2.24440 sun~ano  -1.3554
-4.42530 sun~anog  -0.2047
-4.12430 susnje`ica  -0.0702
-4.30040 susnje`icom  -0.5445
-4.42530 susnje`icu  -0.3222
-4.42530 sustav  -0.3326
-4.42530 sustava  -0.3327
-3.47110 sustavom  -0.3608
-2.19150 sutra  -1.3585
-3.82330 sve  -0.1917
-4.90240 svetog  0.0000
-4.90240 svetoga  0.0000
-4.42530 svi  -0.2050
-4.20350 svje`e  -0.0946
-4.90240 svje`ija  0.0000
-3.14660 svje`ije  -0.6773
-4.12430 tako  -0.2635
-4.05730 tako}er  -0.3889
-4.60140 tamo  -0.3408
-2.51150 te  -0.5195
-4.20350 tegoba  -0.2593
-3.05120 tegobe  -0.9869
-4.05730 tek  -0.0735
-2.14580 temperatura  -1.2663
-4.90240 temperaturama  0.0000
-3.39730 temperature  -0.4686
-3.72640 temperaturom  -1.1651
-4.12430 temperaturu  -0.4751
-3.62370 terezino  -0.8039
-3.09630 tiho  -0.8370
-2.86110 tijekom  -0.6156
-4.90240 tim  0.0000
-4.60140 time  -0.3582
-3.75630 tirenskim  -1.1851
-4.05730 tirenskog  -0.1918
-4.30040 tirenskom  -0.2215
-4.42530 tirenskome  -0.2044
-4.90240 tisu^e  0.0000
-4.90240 ti~e  0.0000
-3.00480 tjedna  -1.1735
-4.42530 tlak  -0.3325
-3.22120 tlaka  -1.2982
-4.90240 tlom  0.0000
-3.58020 tlu  -0.3439
-4.60140 tmurna  -0.3408
-3.94820 tmurno  -0.4219
-3.60140 to  -0.3408
-4.12430 toga  -0.5087
-4.90240 tokova  0.0000
-4.90240 tom  0.0000
-2.92020 toplije  -1.1265
-4.42530 toplijeg  -0.3327
-2.97820 toplo  -1.0357
-4.90240 toplom  0.0000
-3.58020 tramontana  -0.5782
-4.05730 tramontane  -0.5379
-4.60140 trava  0.0000
-4.60140 trave  0.0000
-4.90240 travnjaka  0.0000
-4.90240 tre^e  0.0000
-3.75630 treba  -0.4172
-4.90240 trebaju  0.0000
-4.05730 trebala  -0.9388
-4.90240 trebale  0.0000
-3.44000 trebali  -0.8421
-4.30040 trebalo  -0.5451
-2.14730 tri  -1.0222
-2.49250 trideset  -0.9666
-2.68500 trinaest  -1.3993
-3.45530 tristo  -0.2306
-4.90240 tu  0.0000
-4.30040 tunisa  -0.3610
-4.90240 tunisom  0.0000
-4.90240 tuti{  0.0000
-1.62370 u  -0.8198
-3.69830 udare  -1.1870
-2.83430 udari  -0.8296
-3.44000 udarima  -1.5565
-4.90240 uglavno  0.0000
-2.25800 uglavnom  -0.6685
-4.20350 ugodno  -2.4013
-2.48750 ujutro  -0.8153
-4.90240 umjerana  0.0000
-2.28230 umjeren  -1.2508
-2.38520 umjerena  -0.9853
-3.78850 umjerene  -0.2626
-4.60140 umjereni  0.0000
-2.20700 umjereno  -1.0508
-3.26900 umjerenom  -1.6134
-3.34610 umjerenu  -0.6907
-3.62370 una  -1.3223
-4.42530 unutra{njost  -0.3327
-2.35960 unutra{njosti  -1.4067
-4.90240 uobi~ajeno  0.0000
-4.30040 upozorava  -0.1440
-4.42530 upozoravaju  -0.3299
-4.60140 upozoravamo  -0.3604
-2.80210 upozorenje  -1.8159
-3.69830 upozorenjem  -0.3610
-3.86110 upozoriti  -1.1014
-4.42530 usporeno  -0.2048
-4.42530 ustalilo  -0.3299
-4.90240 ustalio  0.0000
-4.90240 uticati  0.0000
-4.90240 uti~e  0.0000
-3.16210 utjecaj  -0.9898
-3.69830 utjecaja  -0.5389
-4.42530 utjecajem  -0.3327
-3.90240 utjecati  -0.2431
-3.48750 utorak  -1.2150
-4.42530 utorka  -0.2046
-4.90240 uvijek  0.0000
-3.75630 uvjeta  -0.3610
-4.42530 uvjete  -0.3326
-3.09630 uvjeti  -0.8744
-2.34490 uz  -0.7213
-4.42530 uzburkano  -0.3124
-3.56000 uzrokovane  -0.8650
-4.60140 uzrokovanih  -0.3611
-4.60140 uzrokovat  -0.3607
-4.12430 uzrokovati  -0.2814
-4.42530 uzrokuje  -0.3323
-4.42530 u~inak  -0.3327
-4.60140 vakula  -0.3611
-4.90240 valoviti  0.0000
-2.38660 valovito  -1.4430
-3.64720 ve^  -0.2991
-4.30040 ve^a  0.0000
-3.13900 ve^e  -1.8229
-4.60140 ve^eg  -0.3609
-3.26900 ve^em  -1.4393
-3.86110 ve^i  -0.1491
-4.42530 ve^ih  -0.2051
-3.45530 ve^ina  -0.4735
-3.25900 ve^ini  -0.3506
-2.60800 ve^inom  -0.6940
-4.30040 vedrije  -0.5450
-2.81970 vedro  -0.9218
-3.86110 velebita  -0.3610
-2.88540 velebitskom  -0.3506
-4.60140 velebitskome  -0.3506
-4.60140 veoma  0.0000
-4.90240 ve~er  0.0000
-4.60140 ve~eras  0.0000
-4.60140 ve~ernjim  -0.3506
-2.53320 vidljivost  -1.3969
-4.90240 vijest  0.0000
-4.12430 vikend  -0.5030
-4.90240 vikenda  0.0000
-3.64720 visini  -0.3609
-4.42530 visoka  -0.2051
-3.86110 visokih  -1.1001
-4.90240 visokom  0.0000
-3.37100 vi{a  -1.2568
-3.03910 vi{e  -0.5626
-4.60140 vi{em  -0.3506
-4.90240 vjerojatno  0.0000
-4.90240 vjerojatnost  0.0000
-2.05180 vjetar  -1.0919
-3.62370 vjetra  -0.5902
-3.99940 vjetrom  -0.2390
-4.20350 vjetrovito  -0.2367
-4.42530 vla`ni  -0.2051
-4.90240 vlasta  0.0000
-3.86110 vodostaj  -0.8969
-3.62370 vodostaju  -1.1136
-4.42530 vratima  -0.3327
-4.90240 vrbe  0.0000
-2.93870 vremena  -0.9791
-3.54070 vremenom  -1.4217
-2.01150 vremenska  -1.5932
-4.12430 vremenske  -0.4924
-3.44000 vremenski  -0.8221
-4.30040 vremensko  -0.5458
-4.60140 vremenskog  -0.3611
-3.17000 vremenu  -0.3607
-4.90240 vrhu  0.0000
-3.01600 vrijeme  -0.7321
-2.76890 vrlo  -0.6480
-3.21220 vru^e  -0.9224
-3.94820 vr{nak  -0.3610
-3.58020 vukovar  -0.8639
-1.82980 za  -1.8756
-4.90240 zabjelili  0.0000
-4.60140 zadr`at  0.0000
-3.62370 zadr`ati  -0.4178
-2.98860 zadr`ava  -0.7627
-4.60140 zadr`e  0.0000
-4.90240 zadru  0.0000
-4.30040 zagorju  -0.2228
-3.62370 zagreb  -1.2201
-4.20350 zagrebu  -2.4111
-4.90240 zahladnjenje  0.0000
-3.99940 zahla}enje  -0.3568
-4.12430 zahvatiti  -0.4734
-4.05730 zale}u  -0.5399
-4.60140 zamijeniti  -0.3610
-3.14660 zapada  -1.6918
-4.05730 zapadne  -0.8741
-2.77530 zapadni  -1.1444
-3.24920 zapadnim  -1.7006
-3.27920 zapadnjak  -0.6389
-4.90240 zapadnoeuropske  0.0000
-3.99940 zapadnog  -0.2011
-4.30040 zapadnoj  -0.3331
-3.48750 zapadnom  -0.9555
-4.20350 zapadnu  -2.4196
-4.12430 zapadu  -0.2259
-3.69830 zapuhat  -0.5447
-3.94820 zapuhati  -0.4879
-4.60140 zasad  0.0000
-4.90240 zastoja  0.0000
-2.79190 zatim  -0.5909
-3.54070 zato  -0.6356
-4.42530 zatopljenje  -0.3321
-2.65450 zavoda  -1.9460
-4.12430 za{tita  -0.3327
-4.42530 za{tititi  -0.2023
-3.82330 za{titu  -0.5919
-2.72640 zbog  -0.7390
-4.90240 zdravstvo  0.0000
-3.20350 zemlje  -1.0162
-3.42530 zemlji  -0.7901
-4.20350 zemlju  -2.4215
-4.12430 znatnije  -0.4747
-3.17820 znatno  -1.6861
-4.90240 zna~ajnije  0.0000
-4.42530 zna~i  -0.3325
-4.60140 zoran  0.0000
-4.30040 zrak  -0.2228
-3.00480 zraka  -1.1027
-4.42530 zraku  -0.3222
-3.60140 {amac  -0.3609
-2.72060 {esnaest  -1.3596
-2.40280 {est  -0.8107
-4.05730 {esto  -0.1670
-4.60140 {etnju  -0.3546
-3.41110 {ezdeset  -0.2259
-4.20350 {ire  -0.2579
-3.64720 {iri  -0.3212
-4.90240 {kifi^  0.0000
-3.44000 {to  -0.3728
-4.90240 {tovi{e  0.0000
-4.60140 ~apka  -0.3611
-4.90240 ~emu  0.0000
-4.60140 ~esto  -0.3592
-2.09420 ~etiri  -1.0718
-3.78850 ~etiristo  -0.0807
-2.83060 ~etrdeset  -0.8700
-2.74110 ~etrnaest  -1.1002
-4.42530 ~etvrtak  -0.1879
-4.12430 ~e{^e  -0.3594
-4.90240 ~e{^i  0.0000
-4.90240 ~itavom  0.0000
-3.17820 ~vora  -1.6579
-2.34490 ~vorova  -1.7448

\2-grams:
-3.66800 </s> <greska>  0.0000
-2.76650 </s> <papir>  0.0000
-2.76650 </s> <sil>  0.0000
-2.92870 </s> <udarac>  0.0000
-0.56690 </s> <uzdah>  -0.0692
-2.81760 </s> ^e  -0.3470
-3.51510 </s> anticiklona  -0.1092
-3.66800 </s> astmati~are  -0.2151
-2.92870 </s> astmati~ari  -0.1163
-2.49030 </s> bolesnici  -0.4903
-3.66800 </s> bolesnicima  0.0000
-2.72070 </s> bolesnika  0.1566
-3.10330 </s> bolesnike  0.7323
-2.92870 </s> bolove  -0.2807
-3.26410 </s> bolovi  -0.0594
-1.72510 </s> bura  -0.2934
-3.26410 </s> bure  0.8947
-2.76650 </s> burin  -0.2029
-3.26410 </s> burom  0.0794
-2.64160 </s> buru  0.2066
-3.66800 </s> ciklona  -0.1855
-3.66800 </s> dalmacije  -0.1936
-2.92870 </s> dalmaciji  -1.3435
-2.57460 </s> dana  0.0328
-3.51510 </s> danas  -0.0313
-3.66800 </s> dane  -0.0393
-2.60680 </s> deset  -0.5088
-3.66800 </s> devedeset  0.0000
-2.28940 </s> devet  -0.0552
-3.02340 </s> devetnaest  -0.0065
-2.57460 </s> dijelu  -0.4161
-3.66800 </s> dio  -0.2303
-3.51510 </s> dobro  0.0268
-3.51510 </s> dragojlovi^  -0.0798
-2.76650 </s> drvar  0.0989
-2.14100 </s> dva  -0.0780
-2.44200 </s> dvadeset  -0.3781
-3.26410 </s> dvanaest  -0.1999
-3.66800 </s> dvjesto  -0.0626
-3.66800 </s> europe  -0.1857
-3.26410 </s> frontom  0.3850
-3.10330 </s> glavobolje  0.6803
-3.02340 </s> gorju  0.6603
-2.76650 </s> greben  0.0632
-1.94260 </s> grmljavina  0.0438
-2.72070 </s> grmljavine  0.7516
-2.01320 </s> grmljavinom  1.3218
-3.66800 </s> grmljavinu  0.0058
-2.76650 </s> hladnije  -0.1419
-3.02340 </s> hladno  -0.1619
-3.66800 </s> hladno^e  0.0000
-2.81760 </s> hrvatskoj  0.5553
-3.51510 </s> i  0.0000
-2.72070 </s> istok  0.0989
-2.64160 </s> istoku  -0.7166
-2.72070 </s> isto~njak  -0.7911
-3.66800 </s> istre  0.2778
-3.66800 </s> italiji  0.0989
-3.02340 </s> izra`en  -0.1643
-3.66800 </s> izvje{taj  -0.2582
-3.51510 </s> jadran  -0.1387
-2.37830 </s> jadrana  0.1627
-2.76650 </s> jadranom  -0.1010
-1.69950 </s> jadranu  0.7239
-2.92870 </s> jaka  0.1030
-3.66800 </s> ja~ati  0.0000
-2.44200 </s> jedan  0.0456
-2.60680 </s> jedanaest  0.0095
-3.66800 </s> ju`nim  0.0689
-2.54460 </s> ju`nom  -0.6157
-3.66800 </s> juga  1.1537
-1.73400 </s> jugo  -0.4584
-2.76650 </s> jugoistok  0.2213
-3.51510 </s> jugoisto~ni  0.0848
-3.02340 </s> jugozapadni  0.0201
-2.17670 </s> jugozapadnjak  0.0378
-3.66800 </s> kalin  0.0989
-3.51510 </s> kanalu  1.3051
-2.05800 </s> kilometara  0.2803
-2.57460 </s> kilometra  0.2565
-2.28940 </s> ki{a  -0.1293
-2.25830 </s> ki{e  -0.2058
-2.51660 </s> ki{om  0.3847
-3.66800 </s> kod  0.0000
-3.66800 </s> koncentracije  0.0000
-3.66800 </s> koncentraciji  0.6769
-3.51510 </s> koncentracijom  -0.0515
-3.66800 </s> kopna  0.0000
-2.67930 </s> kotaru  -0.6479
-2.81760 </s> krajevima  0.0089
-3.66800 </s> kvarneru  0.0989
-3.66800 </s> levant  1.0163
-2.44200 </s> lici  -0.8930
-3.02340 </s> ljude  -0.6398
-3.10330 </s> ljudi  -0.2579
-2.60680 </s> maestral  -0.3255
-2.37830 </s> magla  -0.0531
-2.76650 </s> magle  0.1433
-3.66800 </s> maglom  0.0000
-3.10330 </s> maglovito  -0.1456
-3.02340 </s> mahovi^  1.4336
-3.66800 </s> me}imurju  -0.0297
-3.26410 </s> mijenjati  0.1014
-2.60680 </s> mjestimice  -0.3409
-2.72070 </s> mokori^  0.0989
-3.66800 </s> morem  -0.0402
-3.02340 </s> moru  0.1084
-3.66800 </s> najobla~nije  -0.1269
-2.41970 </s> naoblaka  -0.5384
-2.67930 </s> naoblake  -0.1765
-2.72070 </s> naoblakom  -0.4388
-2.81760 </s> naoblaku  -0.1585
-3.26410 </s> naobla~enje  0.0794
-2.72070 </s> napore  -0.2599
-3.26410 </s> nepovoljan  -0.2073
-3.26410 </s> nepovoljni  -0.0801
-3.51510 </s> neverin  -0.2464
-3.26410 </s> neverina  -0.2078
-2.28940 </s> neverini  0.1501
-2.39850 </s> ni`a  -0.0666
-3.66800 </s> ni`e  0.0989
-3.26410 </s> nizinama  0.2963
-3.51510 </s> no^i  -0.0874
-3.51510 </s> nula  -0.1125
-3.26410 </s> obale  -0.2078
-3.26410 </s> obalu  0.9887
-2.14100 </s> obla~no  -0.4710
-3.66800 </s> oborina  0.0000
-3.66800 </s> oborinama  0.0000
-3.26410 </s> odje^a  -0.0229
-3.51510 </s> oja~ati  0.0489
-3.26410 </s> olujno  -0.0645
-2.25830 </s> osam  -0.0196
-2.72070 </s> osamnaest  -0.0915
-2.92870 </s> oslabiti  -0.0838
-2.81760 </s> oslabjeti  0.1669
-3.10330 </s> osvje`enje  0.1049
-3.66800 </s> otvorenom  1.8334
-3.66800 </s> otvorenome  1.1958
-3.51510 </s> padu  0.1333
-3.66800 </s> pasti  -0.2355
-3.66800 </s> pedeset  -0.2503
-2.08730 </s> pet  -0.2250
-2.76650 </s> petnaest  -0.6357
-2.44200 </s> pljusak  -0.0634
-3.66800 </s> pljuska  0.0000
-3.66800 </s> pljuskova  0.0000
-2.54460 </s> pljuskovi  0.0005
-2.92870 </s> pljuskovima  -0.2157
-3.66800 </s> podravini  0.2498
-3.10330 </s> podru~jima  -0.0539
-3.02340 </s> podru~ju  0.0864
-3.10330 </s> pogodni  0.0008
-3.66800 </s> poja~ana  0.0000
-3.66800 </s> poja~anju  0.0989
-3.66800 </s> poja~ano  0.0000
-3.66800 </s> poja~ati  0.0090
-2.67930 </s> polje  -0.4409
-2.81760 </s> popunjava  0.2869
-3.02340 </s> porasti  0.0096
-2.81760 </s> poreme^ajem  0.0989
-2.44200 </s> poslijepodne  -0.4976
-3.66800 </s> pote{ko^a  -0.2101
-3.10330 </s> povoljan  -0.0323
-2.67930 </s> povoljni  -0.1069
-2.81760 </s> predjelima  -0.0562
-3.02340 </s> prestati  0.1509
-3.26410 </s> prijeloma  0.0990
-3.02340 </s> prijepodne  0.0446
-3.66800 </s> prijepodneva  -0.1181
-3.26410 </s> prilika  -0.2078
-3.66800 </s> prilike  0.0000
-3.66800 </s> primorja  -0.0570
-3.51510 </s> prohladno  -0.1843
-1.95730 </s> promjene  -0.6425
-3.66800 </s> raspolo`ena  0.0989
-3.02340 </s> raspolo`enja  -0.0481
-2.57460 </s> razdoblja  0.1055
-2.64160 </s> razdobljima  0.0989
-3.10330 </s> razdra`ljivi  -0.0557
-3.66800 </s> razdra`ljivost  0.0623
-3.66800 </s> razdra`ljivosti  0.0989
-2.49030 </s> razvedravanje  -0.0662
-3.26410 </s> razvedriti  0.2986
-3.51510 </s> reumati~ara  -0.3553
-3.02340 </s> rijeka  -0.5384
-3.26410 </s> samo{^anec  -0.0229
-1.52760 </s> sati  -0.2693
-3.51510 </s> se  -0.1552
-2.44200 </s> sedam  -0.1187
-3.51510 </s> sedamdeset  0.0000
-2.67930 </s> sedamnaest  0.0277
-3.66800 </s> sije~nja  0.0000
-3.66800 </s> sjeverni  -0.1755
-3.51510 </s> sjeveroistok  -0.0798
-2.67930 </s> sjeveroisto~ni  0.3321
-3.66800 </s> sjeverozapada  0.0989
-2.49030 </s> sjeverozapadni  -0.1690
-1.87560 </s> sjeverozapadnjak  -0.0178
-2.46550 </s> slab  -0.1090
-3.66800 </s> slaba  0.0000
-3.51510 </s> slabi  -0.0980
-3.26410 </s> slabije  -0.2006
-3.26410 </s> slabiji  -0.1915
-2.60680 </s> slabiti  -0.0020
-2.92870 </s> slabjeti  0.3492
-3.26410 </s> slabljenju  0.5451
-2.60680 </s> slavoniji  0.9221
-2.21560 </s> snijeg  0.0294
-2.67930 </s> snijega  0.3278
-2.60680 </s> snijegom  0.7531
-3.26410 </s> snom  -0.2078
-3.02340 </s> sparno  -0.2375
-3.51510 </s> sredozemlja  -0.0436
-3.51510 </s> stanja  -0.0798
-1.86950 </s> stanje  0.3281
-2.67930 </s> stojanovi^  0.0377
-2.81760 </s> stupanj  0.5061
-1.94260 </s> stupnja  1.1361
-1.29260 </s> stupnjeva  -0.5472
-2.76650 </s> sumaglica  0.3343
-2.51660 </s> sumaglice  0.1760
-3.66800 </s> sumaglicom  0.1611
-2.27360 </s> sun~ano  -0.1036
-3.26410 </s> sustavom  -0.2078
-2.09750 </s> sutra  -0.9341
-2.17670 </s> svje`ije  -0.2314
-2.64160 </s> tegobe  -0.3124
-3.51510 </s> temperatura  0.0000
-3.51510 </s> tiho  -0.0660
-2.41970 </s> tjedna  0.4924
-2.76650 </s> tlaka  0.2874
-2.92870 </s> tlu  -1.6389
-1.98830 </s> toplije  0.1245
-2.44200 </s> toplo  0.3888
-3.10330 </s> tramontana  -0.0471
-1.98830 </s> tri  -0.2542
-2.72070 </s> trinaest  -0.5565
-2.60680 </s> udarima  0.5062
-2.81760 </s> ujutro  -0.3207
-3.51510 </s> umjeren  0.0000
-3.66800 </s> umjerena  0.0000
-3.51510 </s> umjerenu  0.1023
-2.92870 </s> unutra{njosti  0.5472
-2.00470 </s> upozorenje  0.8702
-2.57460 </s> upozorenjem  0.0989
-3.51510 </s> utjecaj  -0.2285
-3.66800 </s> uvjeta  0.0989
-3.51510 </s> uvjete  -0.0798
-3.51510 </s> uvjeti  -0.1974
-3.66800 </s> vakula  0.0989
-1.81230 </s> valovito  0.4225
-3.51510 </s> vedrije  0.1333
-2.35900 </s> vedro  -0.2993
-2.28940 </s> vi{a  -0.1327
-3.51510 </s> vi{e  -0.3819
-2.14100 </s> vjetar  -1.4090
-3.66800 </s> vjetra  0.0000
-3.66800 </s> vremena  0.0000
-3.02340 </s> vremenom  1.0759
-3.26410 </s> vrijeme  -0.2511
-2.67930 </s> vru^e  0.0664
-2.76650 </s> vr{nak  0.0989
-3.66800 </s> zadr`ati  -0.1912
-3.51510 </s> zale}u  0.3837
-3.02340 </s> zapadni  -0.7488
-3.02340 </s> zapadnjak  -0.8547
-2.60680 </s> zavoda  1.6879
-2.57460 </s> zemlje  -0.3490
-3.26410 </s> zemlji  0.0052
-3.26410 </s> zrak  -0.0447
-2.60680 </s> zraka  -0.6357
-2.67930 </s> {esnaest  -0.5222
-2.35900 </s> {est  -0.0575
-3.66800 </s> {ezdeset  0.0000
-3.66800 </s> ~apka  0.0989
-1.92830 </s> ~etiri  -0.5423
-3.26410 </s> ~etrdeset  0.3805
-2.64160 </s> ~etrnaest  -0.1586
-2.24360 </s> ~vora  0.2556
-1.69540 </s> ~vorova  0.4405
-1.50360 <greska> <s>  0.0989
-1.50360 <greska> <uzdah>  0.0000
-1.35070 <greska> do  0.0000
-1.35070 <greska> i  0.0000
-1.35070 <greska> u  0.0000
-0.97480 <papir> <s>  -0.6398
-1.61930 <papir> slabiji  -0.2101
-1.61930 <papir> stupnjeva  0.0000
-0.97480 <papir> sutra  -0.4005
-0.24830 <s> </s>  0.0167
-2.37300 <sil> <s>  -0.0515
-2.52590 <sil> brod  0.0989
-1.96120 <sil> bura  0.0814
-1.96120 <sil> burin  0.2114
-2.52590 <sil> dana  -0.1814
-2.52590 <sil> danas  -0.2260
-2.52590 <sil> deset  0.0000
-2.12200 <sil> devet  0.0000
-1.43250 <sil> dva  -0.0165
-2.52590 <sil> dvanaest  0.0000
-2.52590 <sil> grmljavina  0.0000
-2.52590 <sil> grmljavine  0.0000
-1.96120 <sil> grmljavinom  1.2250
-2.37300 <sil> hladno  -0.2477
-2.52590 <sil> ilok  -0.2355
-2.37300 <sil> jadrana  0.0553
-1.96120 <sil> jadranu  0.3991
-2.37300 <sil> jedan  0.0000
-1.88130 <sil> jugo  -0.1072
-2.37300 <sil> jugozapadni  0.0632
-2.37300 <sil> karlovac  -0.1310
-2.12200 <sil> kilometara  0.6863
-1.96120 <sil> ki{a  0.0119
-2.37300 <sil> kupa  -0.0716
-2.52590 <sil> maestral  0.0000
-1.96120 <sil> magla  -0.1035
-2.52590 <sil> minus  -0.2123
-2.52590 <sil> mjestimice  0.0000
-2.37300 <sil> more  0.0000
-2.52590 <sil> naoblaka  0.0000
-2.37300 <sil> naoblakom  0.1040
-2.52590 <sil> neverini  0.0000
-2.52590 <sil> ni`a  0.0000
-2.52590 <sil> nula  0.0000
-2.37300 <sil> obla~no  0.0000
-2.12200 <sil> osam  -0.0390
-1.46470 <sil> pet  0.0346
-2.52590 <sil> petnaest  0.0000
-1.96120 <sil> poslijepodne  -0.2126
-2.52590 <sil> radenci  0.0000
-1.23620 <sil> sati  0.3132
-2.12200 <sil> sava  0.3126
-2.52590 <sil> sedam  0.0000
-2.52590 <sil> sjevernom  1.6226
-2.52590 <sil> sjeveroisto~ni  0.0000
-2.37300 <sil> sjeverozapadnjak  -0.1369
-1.67550 <sil> slab  0.0940
-2.52590 <sil> slabiti  0.2150
-2.52590 <sil> slavoniji  0.3073
-2.12200 <sil> split  1.2728
-2.12200 <sil> stanje  0.1533
-1.96120 <sil> stupnjeva  -0.0385
-2.52590 <sil> sun~ano  -0.1699
-1.46470 <sil> sutra  0.3383
-1.96120 <sil> tjedna  0.0087
-2.52590 <sil> toplije  0.0000
-1.53720 <sil> tri  -0.3785
-2.52590 <sil> umjeren  0.0000
-2.37300 <sil> upozorenje  -0.3456
-1.21690 <sil> valovito  -0.0348
-2.12200 <sil> vedro  -0.2524
-2.52590 <sil> vidljivost  -0.0135
-2.12200 <sil> vjetar  -0.1863
-1.67550 <sil> zavoda  1.6879
-2.52590 <sil> {amac  0.0989
-2.37300 <sil> {est  0.0000
-1.88130 <sil> ~etiri  -0.0900
-1.53720 <sil> ~vorova  -0.1224
-3.26920 <uzdah> <papir>  0.0000
-1.15050 <uzdah> <s>  0.0989
-3.01820 <uzdah> <sil>  0.0000
-2.85740 <uzdah> ^e  -0.4223
-2.68280 <uzdah> bolesnici  1.2410
-2.85740 <uzdah> bolesnika  0.1368
-3.42200 <uzdah> bolesnike  0.5505
-3.42200 <uzdah> bolove  0.0000
-3.42200 <uzdah> bolovi  0.2473
-1.58270 <uzdah> bura  -0.2834
-2.68280 <uzdah> bure  1.1367
-2.77750 <uzdah> burin  -0.0685
-3.26920 <uzdah> burom  -0.1033
-2.68280 <uzdah> buru  0.2210
-3.42200 <uzdah> ciklona  0.0000
-3.42200 <uzdah> dalmacije  0.0977
-2.47480 <uzdah> dalmaciji  0.4461
-2.43340 <uzdah> dana  -0.0622
-3.01820 <uzdah> danas  -0.4439
-2.85740 <uzdah> deset  -0.4743
-2.39560 <uzdah> devet  -0.1267
-2.77750 <uzdah> devetnaest  -0.8843
-2.68280 <uzdah> dijelu  -0.3002
-2.77750 <uzdah> dnevna  -0.1134
-3.26920 <uzdah> dobro  0.0268
-2.01240 <uzdah> dva  -0.3313
-2.15260 <uzdah> dvadeset  -0.5977
-2.85740 <uzdah> dvanaest  -0.1944
-3.42200 <uzdah> europe  0.2778
-3.26920 <uzdah> glavobolje  0.6845
-2.85740 <uzdah> godine  -0.0557
-3.01820 <uzdah> gorju  0.4725
-2.77750 <uzdah> greben  -0.6755
-1.99770 <uzdah> grmljavina  0.1102
-2.68280 <uzdah> grmljavine  -1.2867
-1.89500 <uzdah> grmljavinom  0.6123
-3.42200 <uzdah> grmljavinu  0.0058
-3.26920 <uzdah> hladno  0.0086
-3.42200 <uzdah> hladno^e  0.4648
-2.68280 <uzdah> hrvatskoj  0.3397
-3.42200 <uzdah> hrvatsku  -0.1490
-3.01820 <uzdah> istok  -0.2078
-3.42200 <uzdah> istoku  -0.0094
-3.42200 <uzdah> isto~ni  -0.0446
-2.52060 <uzdah> isto~njak  -0.6648
-3.42200 <uzdah> istre  -0.1857
-3.42200 <uzdah> jadran  0.0000
-2.05980 <uzdah> jadrana  -0.0588
-2.68280 <uzdah> jadranom  0.5265
-1.64230 <uzdah> jadranu  0.4647
-2.57170 <uzdah> jaka  0.0367
-3.42200 <uzdah> ja~ati  0.0000
-2.24430 <uzdah> jedan  -0.0257
-2.85740 <uzdah> jedanaest  -0.1561
-3.01820 <uzdah> ju`nom  -0.0533
-3.42200 <uzdah> juga  0.0000
-1.68950 <uzdah> jugo  -0.3437
-3.01820 <uzdah> jugoistok  0.6067
-2.85740 <uzdah> jugoisto~ni  -0.1049
-3.42200 <uzdah> jugom  -0.0570
-2.47480 <uzdah> jugozapadni  0.1528
-2.02760 <uzdah> jugozapadnjak  -0.2655
-3.42200 <uzdah> jugu  0.2385
-3.42200 <uzdah> jutra  0.0000
-3.26920 <uzdah> kanalu  1.5615
-3.42200 <uzdah> kestena  0.0989
-1.77580 <uzdah> kilometara  -0.4441
-2.47480 <uzdah> kilometra  0.4384
-2.04340 <uzdah> ki{a  -0.0704
-2.52060 <uzdah> ki{e  -0.4091
-2.32870 <uzdah> ki{om  -0.0190
-3.42200 <uzdah> koncentracija  -0.1936
-3.01820 <uzdah> koncentracije  -0.0939
-3.01820 <uzdah> koncentraciji  0.3701
-3.26920 <uzdah> koncentracijom  -0.0515
-2.47480 <uzdah> kotaru  -0.5555
-2.57170 <uzdah> krajevima  -0.0794
-3.42200 <uzdah> levant  1.0163
-2.32870 <uzdah> lici  0.1236
-2.29870 <uzdah> maestral  -0.0645
-2.29870 <uzdah> magla  0.0931
-3.01820 <uzdah> magle  0.0000
-2.68280 <uzdah> maglovito  -0.1762
-3.42200 <uzdah> mjestimice  0.0000
-2.77750 <uzdah> moru  -0.1776
-2.04340 <uzdah> naoblaka  -0.1041
-2.68280 <uzdah> naoblake  -0.0158
-2.43340 <uzdah> naoblakom  0.0064
-2.68280 <uzdah> naoblaku  0.0308
-3.42200 <uzdah> naobla~enje  0.0000
-3.26920 <uzdah> nave~er  -0.0205
-3.42200 <uzdah> nedjelje  0.0706
-3.42200 <uzdah> nepovoljan  -0.0994
-3.42200 <uzdah> nepovoljne  0.0000
-2.85740 <uzdah> nepovoljni  -0.2406
-3.26920 <uzdah> nesanica  -0.0210
-3.42200 <uzdah> neverin  0.0000
-3.26920 <uzdah> neverini  0.0000
-2.57170 <uzdah> ni`a  0.4292
-3.42200 <uzdah> niska  0.0000
-3.42200 <uzdah> no^i  0.4705
-2.77750 <uzdah> nula  -0.1252
-3.42200 <uzdah> oblaci  0.0989
-3.26920 <uzdah> oblake  0.1333
-2.05980 <uzdah> obla~no  0.0499
-3.42200 <uzdah> olujnim  1.1537
-2.05980 <uzdah> osam  -0.1765
-2.43340 <uzdah> osamnaest  -0.6200
-3.26920 <uzdah> oslabiti  0.0000
-2.52060 <uzdah> oslabjeti  0.1591
-3.42200 <uzdah> osvje`enje  -0.0698
-1.83130 <uzdah> pet  -0.3950
-2.68280 <uzdah> petnaest  -0.0083
-3.01820 <uzdah> pljusak  0.0956
-3.42200 <uzdah> pljuskom  0.0000
-2.68280 <uzdah> pljuskovi  -0.3511
-3.42200 <uzdah> pljuskovima  0.0000
-3.42200 <uzdah> pobolj{ati  -0.0570
-2.85740 <uzdah> podravini  0.0952
-3.26920 <uzdah> podru~jima  0.0000
-2.21950 <uzdah> podru~ju  -0.0179
-3.42200 <uzdah> pogodne  -0.0570
-3.01820 <uzdah> pogor{ati  -0.0470
-3.42200 <uzdah> poledice  0.0989
-3.26920 <uzdah> polje  -0.3282
-3.42200 <uzdah> ponegdje  0.0000
-3.01820 <uzdah> popunjava  -0.1217
-3.42200 <uzdah> poreme^ajem  0.0989
-3.42200 <uzdah> posavini  -0.1181
-1.91850 <uzdah> poslijepodne  -1.3522
-3.42200 <uzdah> povoljne  0.0000
-2.52060 <uzdah> predjelima  0.0598
-3.42200 <uzdah> prestati  0.0880
-3.42200 <uzdah> prijepodne  -0.0402
-3.26920 <uzdah> prilike  0.0000
-3.42200 <uzdah> prirodi  0.0989
-3.42200 <uzdah> promjene  0.0000
-3.42200 <uzdah> raspolo`enja  0.0000
-3.42200 <uzdah> raspolo`enje  0.0880
-2.77750 <uzdah> razdoblja  0.8667
-2.68280 <uzdah> razdobljima  -1.6389
-3.26920 <uzdah> razdra`ljivi  -0.0515
-2.77750 <uzdah> razdra`ljivost  -0.6764
-2.85740 <uzdah> razvedravanje  0.1469
-2.85740 <uzdah> razvedriti  -0.1922
-3.42200 <uzdah> reumati~ara  -0.2049
-1.23930 <uzdah> sati  0.0974
-3.42200 <uzdah> se  -0.1503
-2.07690 <uzdah> sedam  -0.3916
-3.01820 <uzdah> sjeverni  -0.4823
-3.42200 <uzdah> sjevernom  1.6226
-2.19600 <uzdah> sjeveroisto~ni  -0.3192
-2.77750 <uzdah> sjeveroisto~njak  -0.0558
-3.42200 <uzdah> sjeverozapada  0.0989
-2.47480 <uzdah> sjeverozapadni  -0.0387
-1.85150 <uzdah> sjeverozapadnjak  0.2526
-3.42200 <uzdah> sjeverozapadnjaka  0.0989
-2.68280 <uzdah> slab  0.2015
-3.42200 <uzdah> slabi  -0.1768
-2.77750 <uzdah> slabiti  0.2779
-2.85740 <uzdah> slabjeti  0.0209
-3.26920 <uzdah> slabljenju  0.4001
-2.85740 <uzdah> slavoniji  0.8632
-2.15260 <uzdah> snijeg  -0.1178
-2.68280 <uzdah> snijega  0.2397
-2.68280 <uzdah> snijegom  -0.0328
-2.57170 <uzdah> sparno  0.5013
-1.51580 <uzdah> stanje  0.3950
-3.42200 <uzdah> strujanja  0.0706
-2.68280 <uzdah> stupanj  -0.6202
-1.89500 <uzdah> stupnja  0.2717
-1.46620 <uzdah> stupnjeva  0.5216
-3.42200 <uzdah> suho  0.0194
-2.47480 <uzdah> sumaglica  0.4821
-2.19600 <uzdah> sumaglice  0.0620
-1.87270 <uzdah> sun~ano  -0.2008
-3.26920 <uzdah> susnje`ica  -0.0656
-3.26920 <uzdah> sustavom  -0.0515
-1.41410 <uzdah> sutra  -1.4603
-2.85740 <uzdah> svje`ije  -0.2779
-3.01820 <uzdah> tegobe  -0.1871
-2.68280 <uzdah> temperatura  0.0318
-2.77750 <uzdah> tiho  -0.1091
-2.04340 <uzdah> tjedna  0.1505
-3.26920 <uzdah> tlaka  0.1271
-2.52060 <uzdah> tlu  0.0989
-2.39560 <uzdah> toplije  0.1423
-2.32870 <uzdah> toplo  0.1751
-3.42200 <uzdah> tramontana  -0.2276
-1.74240 <uzdah> tri  -0.3628
-3.26920 <uzdah> trinaest  0.1748
-2.52060 <uzdah> udarima  1.1403
-2.77750 <uzdah> ujutro  -0.0850
-3.01820 <uzdah> umjerena  0.0000
-3.26920 <uzdah> umjereno  0.0000
-2.68280 <uzdah> unutra{njosti  0.6676
-1.82160 <uzdah> upozorenje  -0.3185
-3.42200 <uzdah> upozoriti  0.4780
-3.01820 <uzdah> utjecaj  -0.3848
-2.77750 <uzdah> uvjeta  -0.6398
-3.42200 <uzdah> uvjeti  -0.0470
-3.26920 <uzdah> u~inak  -0.0798
-1.77580 <uzdah> valovito  0.6092
-2.68280 <uzdah> vedro  0.3175
-3.26920 <uzdah> velebita  -0.0515
-3.42200 <uzdah> vikend  0.2473
-3.26920 <uzdah> vi{a  0.6420
-1.80270 <uzdah> vjetar  -0.7237
-3.26920 <uzdah> vjetra  0.0000
-3.42200 <uzdah> vjetrom  0.0000
-3.26920 <uzdah> vremena  -0.1167
-2.85740 <uzdah> vremenom  0.6441
-3.26920 <uzdah> vrijeme  -0.1470
-2.52060 <uzdah> vru^e  0.0388
-2.85740 <uzdah> zadr`ati  -0.4310
-2.77750 <uzdah> zahla}enje  -0.0515
-3.01820 <uzdah> zale}u  0.2724
-2.85740 <uzdah> zapadni  -0.3503
-2.77750 <uzdah> zapadnjak  -0.2349
-2.24430 <uzdah> zavoda  1.6879
-3.26920 <uzdah> zemlje  0.0000
-3.01820 <uzdah> zemlji  0.0052
-3.01820 <uzdah> zemlju  1.8656
-3.01820 <uzdah> {esnaest  0.2516
-2.36090 <uzdah> {est  -0.2351
-1.63590 <uzdah> ~etiri  -0.4570
-3.42200 <uzdah> ~etrdeset  0.0000
-2.85740 <uzdah> ~etrnaest  0.0043
-2.32870 <uzdah> ~vora  0.2941
-1.48800 <uzdah> ~vorova  0.8025
-2.78420 ^e <s>  0.0989
-2.04490 ^e ali  -0.0374
-2.63140 ^e anticiklona  0.0000
-2.78420 ^e biometeorolo{ke  0.0000
-1.33180 ^e biometeorolo{ki  -0.3188
-1.07350 ^e bit  0.0350
-2.63140 ^e biti  0.0000
-2.13960 ^e brzo  -0.0263
-1.88270 ^e bura  -0.0063
-2.63140 ^e cijeloj  1.0652
-2.63140 ^e ciklone  -0.1529
-2.63140 ^e da  -0.0656
-2.38030 ^e dalje  0.4568
-1.93390 ^e dana  0.0781
-2.04490 ^e danju  0.1583
-2.13960 ^e djelomice  -0.1880
-2.13960 ^e dok  0.2658
-1.72300 ^e gdje  0.0521
-2.13960 ^e iako  -0.0120
-2.78420 ^e imat  0.0989
-1.42200 ^e jadranu  -1.0204
-2.63140 ^e jo{  -0.3991
-2.63140 ^e ju`nom  0.1029
-1.60650 ^e jugo  -0.4063
-2.63140 ^e jutra  -0.3744
-2.78420 ^e ki{a  0.0000
-2.78420 ^e ki{e  -0.2572
-1.47520 ^e koja  0.0323
-1.72300 ^e koje  -0.2686
-1.88270 ^e koji  -0.0819
-2.78420 ^e malo  0.0000
-2.21960 ^e mjestimice  -0.1937
-2.78420 ^e more  0.0000
-2.13960 ^e no^i  1.0664
-2.38030 ^e no^u  -0.0758
-2.63140 ^e oborine  -0.1244
-1.55820 ^e okrenut  0.0429
-1.55820 ^e oslabit  0.0864
-1.83700 ^e oslabjet  0.0302
-2.78420 ^e osobito  -0.2562
-2.78420 ^e ostalim  0.0989
-2.38030 ^e otvorenom  1.5266
-2.04490 ^e pa  -0.1209
-2.78420 ^e petak  0.5980
-1.72300 ^e poja~at  0.0177
-2.04490 ^e polako  -0.0005
-2.78420 ^e ponajprije  0.0000
-2.78420 ^e ponegdje  -0.2561
-1.55820 ^e poslijepodne  -0.2938
-1.34560 ^e postupno  -0.2831
-2.78420 ^e povoljno  -0.1181
-2.63140 ^e povremeno  -0.1529
-1.43900 ^e prevladavat  0.0608
-2.63140 ^e pridonijet  -0.0798
-2.78420 ^e prijepodne  0.0000
-2.13960 ^e prilike  0.1662
-2.21960 ^e pro{irit  -0.0082
-1.47520 ^e puhat  -0.0192
-2.78420 ^e razvedrit  0.0989
-2.13960 ^e samo  -0.1230
-2.38030 ^e sjevernom  1.3159
-2.38030 ^e skrenut  0.0990
-2.78420 ^e slabit  0.0000
-2.78420 ^e smetnje  -0.1857
-2.78420 ^e snijeg  0.0000
-2.78420 ^e sun~anih  0.0000
-1.83700 ^e sutra  -0.4105
-2.63140 ^e tako  -0.2773
-2.63140 ^e tegobe  -0.2334
-2.38030 ^e temperatura  -0.0718
-2.63140 ^e ujutro  -0.3340
-1.75780 ^e unutra{njosti  0.6178
-1.75780 ^e uvjeti  -0.0053
-2.78420 ^e uzrokovat  0.0989
-1.72300 ^e ve^ina  -0.4255
-2.04490 ^e vjetar  -0.0627
-2.63140 ^e vremenski  -0.3878
-2.78420 ^e zadr`at  0.0000
-2.78420 ^e zadr`ati  0.0000
-1.63280 ^e zapuhat  -0.0237
-1.88270 ^e zatim  0.0009
-2.13960 ^e zato  0.2595
-2.63140 ^e zraka  -0.0590
-2.04490 ^e {to  -0.0888
-2.13960 ^e ~vorova  -0.2509
-0.27150 `aliti mogli  -0.4035
-0.66600 a <s>  0.0989
-2.43950 a <sil>  0.0000
-0.81890 a <uzdah>  -0.1291
-2.43950 a bolje  0.5222
-2.85130 a bolove  -0.3553
-1.59450 a bura  -0.4737
-2.26490 a burin  -0.0364
-2.43950 a dalmaciji  0.9150
-3.00420 a dana  -0.2243
-2.43950 a deset  -0.2887
-3.00420 a devet  -0.1989
-2.60030 a devetnaest  -0.1510
-3.00420 a dijelu  -0.1988
-2.26490 a djelomice  -0.2413
-2.26490 a dobro  -1.5607
-2.26490 a dva  -0.2498
-2.60030 a dvanaest  -0.1847
-3.00420 a glavobolje  0.0000
-2.35960 a glavobolju  0.2322
-3.00420 a greben  0.0632
-2.85130 a grmljavina  0.3024
-2.60030 a grmljavinom  -0.2710
-3.00420 a hladna  -0.1716
-2.85130 a hladno^e  0.3143
-3.00420 a istok  0.0989
-2.85130 a istoku  -0.1598
-2.60030 a isto~ni  -0.0501
-3.00420 a isto~njak  -0.0532
-3.00420 a jadrana  0.0000
-2.35960 a jadranom  0.4723
-2.10270 a jadranu  0.3380
-2.85130 a jaka  0.0000
-2.35960 a jako  -0.0828
-2.60030 a jedan  -0.0623
-2.60030 a ju`ni  -0.4938
-1.94300 a jugo  -0.4390
-3.00420 a jugoisto~ni  0.2353
-1.67670 a jugozapadni  -0.0486
-1.77820 a jugozapadnjak  -0.4920
-1.71450 a ki{a  0.0897
-1.94300 a ki{om  0.0516
-2.60030 a krajevima  -0.0015
-3.00420 a levant  1.0163
-2.85130 a lici  -0.0269
-2.35960 a magla  -0.0582
-2.85130 a maglovito  -0.1306
-2.35960 a mjestimice  -0.1914
-2.10270 a naoblaka  0.2692
-2.85130 a naoblakom  -0.0453
-2.60030 a naoblaku  -0.2113
-3.00420 a naobla~enje  0.0000
-2.85130 a nervozu  -0.2773
-3.00420 a nesanica  -0.1269
-2.26490 a neverini  -0.1618
-2.85130 a ni`a  0.2864
-3.00420 a ni{tice  -0.1438
-3.00420 a nula  -0.2184
-3.00420 a oblaci  0.0989
-2.85130 a obla~nije  -0.1353
-1.52540 a obla~no  0.0960
-2.85130 a oborina  -0.2043
-2.35960 a osam  -0.2245
-2.85130 a osamnaest  0.0088
-2.85130 a oslabiti  -0.1383
-3.00420 a oslabjeti  0.0000
-3.00420 a otvorenom  1.8334
-2.01550 a pet  -0.5622
-3.00420 a petnaest  0.0564
-3.00420 a pljusak  -0.2231
-2.85130 a popunjava  0.0346
-3.00420 a poslijepodne  -0.2605
-2.85130 a povoljnih  -0.2516
-3.00420 a prestati  -0.2039
-2.26490 a prete`ito  -0.2856
-3.00420 a prete`no  0.0000
-2.85130 a raspolo`ena  -0.0515
-2.85130 a razdra`ljivost  -0.0881
-2.85130 a razvedravanje  0.0619
-2.60030 a sedam  -0.5307
-2.35960 a sjevernjak  -0.2627
-2.05690 a sjevernom  1.6226
-1.85280 a sjeveroisto~ni  -0.3844
-2.01550 a sjeveroisto~njak  -0.0930
-2.85130 a sjeverozapadni  0.0000
-1.97770 a sjeverozapadnjak  -0.4019
-2.85130 a sjeveru  -0.1797
-1.35790 a slab  -0.7042
-2.85130 a slabi  -0.0980
-2.26490 a snijeg  0.0746
-2.15380 a snijega  0.0743
-2.85130 a snijegom  0.0657
-3.00420 a srednjem  0.1606
-1.94300 a stupnja  1.0637
-1.94300 a stupnjeva  0.0289
-2.43950 a sumaglica  -0.1235
-1.75590 a sun~ano  -0.1873
-3.00420 a susnje`icom  0.2838
-2.85130 a tlaka  -0.1086
-2.85130 a tlu  -0.0515
-2.85130 a tmurno  -0.1447
-2.35960 a trinaest  -0.6699
-3.00420 a udarima  0.0000
-2.60030 a ujutro  0.1245
-2.15380 a umjerena  -0.0246
-3.00420 a umjereno  0.0000
-3.00420 a umjerenom  -0.0758
-3.00420 a unutra{njosti  -0.2469
-3.00420 a valovito  0.0000
-3.00420 a vedro  -0.1336
-2.26490 a vjetar  -0.0981
-3.00420 a vremena  -0.2226
-3.00420 a zapadnjak  -0.1160
-3.00420 a zraka  -0.1774
-2.15380 a ~etiri  -0.1605
-2.60030 a ~vorova  -0.0817
-0.24830 ako je  -0.2557
-0.69900 ali <s>  0.0989
-0.86120 ali <uzdah>  0.0000
-1.60050 ali jadranu  0.0000
-0.95590 ali razdoblja  -0.2093
-0.69900 ali sun~ano  0.0947
-1.60050 ali toplije  -0.1719
-1.44760 ali vedro  0.1272
-0.58480 ankica sutra  -0.5272
-0.34410 ankica vremenu  -0.6398
-0.98860 anticiklona se  -0.2202
-0.98860 anticiklona stanje  0.0027
-0.98860 anticiklona zadr`ava  -0.0643
-1.25680 anticiklonalni <s>  -0.0515
-0.42100 anticiklonalni ja~a  -0.3006
-1.40960 anticiklonalni oja~ao  0.0989
-0.84500 anticiklonalni pru`a  -0.2128
-1.40960 anticiklonalni stanje  0.0027
-1.25680 anticiklonalni zadr`ava  -0.2148
-1.20250 anticiklonalno <s>  0.0989
-1.20250 anticiklonalno <uzdah>  -0.2487
-1.20250 anticiklonalno ja~a  -0.2547
-1.20250 anticiklonalno postojano  0.0989
-1.20250 anticiklonalno prostrano  0.0000
-0.63790 anticiklonalno zadr`ava  -0.4045
-0.27150 anticiklonalnog ja~anje  0.0489
-0.20710 anticiklone greben  -0.4624
-1.40960 anticiklone sredozemne  0.0000
-0.84500 anticiklone stabilne  0.0927
-0.54930 astmati~ara <s>  0.0989
-0.83580 astmati~are a  -0.0506
-0.98860 astmati~are i  -0.2620
-0.83580 astmati~are posebice  -0.1389
-0.98860 astmati~are upozoravamo  0.0989
-0.27300 astmati~ari te  -0.2459
-0.97050 astmati~ari upozoravaju  -0.0798
-0.24830 atlantska duboka  0.0000
-0.24830 atmosferskog povi{enog  -2.0163
-0.42440 baranji i  -0.2571
-0.54930 barem <s>  0.0989
-0.54930 barem posvuda  -0.2333
-1.85030 bez drugdje  0.0000
-0.11070 bez temperatura  -0.5926
-0.94880 bez temperature  -0.2649
-1.69750 bez zraka  0.1973
-2.08710 bi bolesnici  0.4780
-1.13990 bi meteoropati  0.1078
-1.68320 bi mnogi  -0.2052
-1.93430 bi mogla  -0.2773
-0.75970 bi mogli  -0.1574
-1.93430 bi moglo  -0.3272
-0.86110 bi ne  -0.1718
-1.68320 bi neki  -0.0447
-2.08710 bi ne{to  0.0000
-2.08710 bi osjetljivi  0.0000
-1.18560 bi pa  -0.0232
-2.08710 bi pote{ko^e  -0.2021
-1.93430 bi reumati~ari  -0.3440
-1.93430 bi samo  -0.4066
-2.08710 bi stoga  0.0989
-2.08710 bi svi  -0.0570
-1.93430 bi tako  -0.0656
-1.52250 bi tako}er  -0.0274
-1.93430 bi tegobe  -0.2334
-1.93430 bi toga  0.0969
-1.52250 bi ve^ina  -0.1902
-1.06070 bi zato  -0.6205
-1.52250 bi {to  -0.1210
-0.42440 biokova ispod  0.0989
-0.24830 biokovu na  0.0000
-0.00660 biometeorolo{ka <s>  0.0989
-0.58140 biometeorolo{ke ^e  -0.9977
-1.22600 biometeorolo{ke na  -0.2420
-1.07320 biometeorolo{ke nepovoljne  -0.3153
-1.22600 biometeorolo{ke povoljne  -0.1217
-1.07320 biometeorolo{ke sutra  0.1878
-1.29110 biometeorolo{ki <s>  -0.0557
-1.85570 biometeorolo{ki <sil>  0.0000
-1.70290 biometeorolo{ki <uzdah>  -0.1391
-0.65320 biometeorolo{ki ^e  -0.6906
-0.95420 biometeorolo{ki ciklone  -0.0872
-1.85570 biometeorolo{ki donijeti  0.0706
-1.29110 biometeorolo{ki jadranu  0.0961
-1.00540 biometeorolo{ki nepovoljan  -0.1870
-1.85570 biometeorolo{ki nepovoljni  -0.2402
-1.45180 biometeorolo{ki povoljni  -0.4556
-1.29110 biometeorolo{ki sutra  0.1837
-1.70290 biometeorolo{ki unutra{njosti  0.4674
-1.85570 biometeorolo{ki utjecaja  -0.2303
-1.00540 biometeorolo{ki zemlje  -0.3266
-1.15610 biometeorolo{kih nepovoljnih  0.0489
-1.30900 biometeorolo{kih pogodnih  0.0000
-0.13130 biometeorolo{kih povoljnih  0.2167
-0.64620 biometeorolo{kog povoljnog  0.0989
-0.49340 biometeorolo{kog povoljnoga  0.0666
-1.55780 bit <s>  -0.0515
-1.55780 bit bolesnika  0.0188
-1.71070 bit dalmaciji  -0.2570
-1.71070 bit ki{e  0.0000
-1.71070 bit oborina  0.0000
-1.71070 bit oslabjeti  0.1746
-1.71070 bit poslijepodne  -0.0580
-1.06610 bit razdoblja  -0.2093
-1.30680 bit sunca  -0.0289
-1.71070 bit sutra  0.3383
-1.71070 bit temperatura  -0.2289
-1.71070 bit ujutro  -0.0261
-1.55780 bit uvjeti  -0.1974
-0.80920 bit vremena  -0.4079
-1.14600 bit zemlje  -0.1948
-2.28570 biti <s>  0.0989
-0.83330 biti ^e  -0.4727
-1.64110 biti bi  -0.9179
-1.08320 biti dalje  0.7635
-2.28570 biti dobro  0.1772
-2.28570 biti glavobolju  -0.1301
-1.33850 biti i  -0.3621
-2.28570 biti jo{  -0.2374
-1.43540 biti krajeva  1.0500
-1.72110 biti ljudi  -0.3725
-2.13290 biti maglom  0.0397
-1.54640 biti mjestimice  -0.2017
-1.33850 biti mo`e  0.0181
-2.13290 biti mogla  -0.2773
-1.64110 biti mogle  -0.0022
-1.33850 biti mogli  -0.2229
-1.54640 biti ponegdje  -0.3234
-2.13290 biti poslijepodne  -0.3970
-2.28570 biti povremeno  -0.2439
-2.28570 biti razdoblja  -0.2520
-2.13290 biti slabije  -0.3878
-2.28570 biti sutra  -0.2612
-2.13290 biti te  -0.1542
-2.28570 biti trebalo  0.2838
-2.28570 biti unutra{njosti  0.6178
-0.95820 biti utjecaj  -0.6480
-1.01620 biti uvjeti  0.3098
-2.13290 biti vremenom  0.6482
-1.72110 biti zemlji  0.1573
-0.27150 blizini u  -0.1559
-0.24830 blizu sredi{tem  0.0989
-0.08720 bolesnici kroni~ni  -0.1225
-0.77250 bolesnici sr~ani  1.4069
-0.20090 bolesnika kroni~nih  0.1185
-1.22580 bolesnika plu^nih  -0.2773
-1.22580 bolesnika reumatskih  -0.0798
-0.97470 bolesnika sr~anih  -0.1915
-1.06120 bolesnike kroni~ne  0.0989
-0.07260 bolesnike sr~ane  0.0985
-0.24830 bolestima krvo`ilnim  0.0000
-0.05310 bolje osje^ati  -0.2437
-0.27150 bolji ne{to  -0.3720
-0.24830 bolova te  0.0000
-0.90830 bolove imati  -0.2641
-1.06120 bolove na  -0.2620
-0.49660 bolove reumati~ari  -0.2114
-0.16080 bolovi reumati~ara  -0.2501
-0.24830 bolovima s  -0.2612
-0.24830 boravak izbjegavaju  0.0000
-1.24830 botovo <s>  0.0989
-0.07060 botovo drava  0.0033
-0.24830 brod slavonski  -0.0814
-0.79230 brzo <uzdah>  0.0000
-0.79230 brzo ^e  -0.2564
-0.79230 brzo bura  0.0000
-0.02230 budimpe{ta dunav  -0.2575
-1.37660 bura <s>  0.0989
-2.62490 bura <sil>  -0.2361
-2.22100 bura <uzdah>  -0.2418
-2.22100 bura dana  -0.4522
-1.67760 bura dijelu  -0.9367
-1.47350 bura i  -0.5489
-2.47200 bura ili  -0.3129
-1.56370 bura jadrana  -0.4716
-1.23040 bura jadranu  -0.2771
-0.52840 bura jaka  0.1295
-1.72340 bura kanalu  1.4556
-2.62490 bura koji  -0.2323
-2.62490 bura no^as  -0.1857
-1.47350 bura no^i  -0.4252
-2.22100 bura obale  -0.2078
-1.42230 bura obalu  1.2954
-1.31590 bura olujna  0.0414
-1.63620 bura poja~ana  -0.4920
-2.47200 bura ponovno  -0.3797
-2.62490 bura sati  0.9163
-2.22100 bura slaba  -0.2620
-2.62490 bura ujutro  -0.0261
-0.58070 bura umjerena  -0.7224
-0.01520 bure udari  0.1011
-1.78610 burin i  -0.2586
-0.36170 burin ili  -0.1624
-1.38220 burin na  -0.1103
-0.63470 burin obalu  1.2954
-1.38220 burin ponegdje  -0.2376
-1.38220 burin slab  -0.2645
-1.14150 burin umjeren  -0.3078
-0.94050 burom jakom  2.0219
-0.44880 burom no{en  -0.6398
-1.09340 burom s  -0.2569
-0.94050 burom umjerenom  0.2732
-1.29960 buru i  -0.1559
-0.32910 buru na  -0.3906
-1.29960 buru olujnu  -0.0798
-1.45240 buru te  -0.2593
-0.71310 buru umjerenu  0.0675
-1.45240 buru uz  -0.2607
-0.24830 centimetara dvadeset  -0.1789
-0.03070 centra meteorolo{kog  0.0003
-1.19780 centra meteorolo{koga  0.0983
-0.01470 cijeloj u  -0.2199
-0.24830 cijelom na  -0.2583
-0.24830 cijelu na  -0.6780
-0.83250 ciklona <s>  0.0989
-1.13520 ciklona <uzdah>  -0.1492
-1.62690 ciklona a  0.0000
-1.77980 ciklona atlantska  0.0989
-1.77980 ciklona duboka  -0.1716
-1.04050 ciklona nova  0.0495
-0.79110 ciklona plitka  0.1108
-1.21510 ciklona prostrana  -0.0967
-1.13520 ciklona se  -0.9914
-1.04050 ciklona sredozemna  0.0284
-1.04050 ciklona stanje  -0.0112
-1.77980 ciklona sutra  0.3383
-1.09340 ciklonalno <s>  0.0989
-0.94050 ciklonalno <uzdah>  -0.1427
-0.68950 ciklonalno plitko  0.0236
-0.94050 ciklonalno se  -0.1143
-0.49340 ciklonalnog prostranog  -0.0798
-0.64620 ciklonalnog zbog  -0.2196
-1.09540 ciklone odmicanja  -0.0798
-1.24830 ciklone pribli`avanja  0.6769
-1.09540 ciklone utjecaja  -0.2824
-0.34680 ciklone zbog  -0.2077
-0.24830 cjelodnevne zbog  -0.2588
-0.24830 cjelodnevnom s  -0.2608
-0.82210 crnac <s>  -0.2078
-0.13260 crnac sava  0.2668
-0.72540 da time  0.0989
-0.04300 dalje i  -0.5111
-1.67150 dalje se  -0.2340
-1.67150 dalje unutra{njost  0.0706
-0.83580 dalmacije jugu  0.0881
-0.24930 dalmacije unutra{njosti  0.4005
-0.75330 dalmaciji i  -0.7357
-1.92790 dalmaciji ju`noj  -0.0450
-2.08080 dalmaciji sjevernoj  0.0989
-0.10820 dalmaciji u  -0.2345
-0.00160 dalmatinskome i  -0.9947
-0.38260 dan dana{nji  -0.3099
-0.94720 dan iskoristite  0.0000
-1.07920 dana dijelu  -1.2159
-1.50020 dana dio  0.2431
-2.48880 dana je  -0.2576
-0.77070 dana kraja  0.0989
-0.91830 dana krajem  -0.0113
-1.24050 dana kraju  1.0599
-0.62780 dana potkraj  0.0308
-1.74950 dana po~etkom  -0.0573
-2.08490 dana proteklih  -0.1544
-1.84430 dana sredine  0.0695
-2.48880 dana sredini  0.0989
-1.02310 dana sredinom  0.0367
-0.85140 dana tijekom  -0.3925
-1.25940 danas jo{  -0.1039
-0.60210 danas nego  -0.0765
-0.31810 danas vremenu  0.0989
-1.09860 danas za  0.2528
-0.24830 dana{njega od  -0.2617
-0.16480 dana{nji <s>  0.0989
-0.66140 dana{nji za  -0.4144
-0.39650 dane prethodne  -0.0798
-0.77330 danju <s>  0.0989
-1.89660 danju <sil>  0.0000
-1.74380 danju ^e  -0.1479
-0.47230 danju a  -0.2444
-1.15730 danju bura  0.2252
-0.90800 danju burin  -0.0143
-1.49270 danju jadranu  -0.1743
-1.49270 danju sutra  -0.2486
-1.89660 danju tiho  -0.2544
-1.74380 danju zatim  -0.0324
-0.14540 davor sutra  -0.5272
-0.42440 depresijsko plitko  0.0000
-2.16560 deset bura  0.0000
-0.59280 deset do  -1.6483
-2.56950 deset drugdje  -0.2547
-1.66800 deset i  -0.3080
-1.10370 deset izme}u  -0.2819
-1.92490 deset jugo  -0.3277
-1.36690 deset minus  -0.8615
-1.66800 deset na  -0.3192
-2.56950 deset nula  -0.1971
-0.88980 deset od  -0.2186
-2.56950 deset sjeverozapadnjak  0.0000
-2.41660 deset sto  -0.3917
-0.41540 deset vidljivost  -0.7476
-2.00480 deset vjetar  -0.5211
-0.68510 devedeset dvjesto  0.0671
-1.42440 devedeset minus  0.0000
-1.42440 devedeset radenci  0.5617
-0.85970 devedeset sto  -0.0094
-1.27150 devedeset tri  -0.4078
-1.02050 devedeset ~etiristo  -0.0721
-2.12480 devet devedeset  0.0000
-1.87380 devet devet  0.0000
-0.86800 devet do  -0.6826
-1.37620 devet dva  -0.1707
-1.18430 devet dvadeset  0.2592
-1.07510 devet i  -0.5267
-1.63310 devet izme}u  -0.0187
-2.27770 devet jadranu  0.1325
-1.28900 devet jedan  -0.0886
-2.27770 devet metkovi^  0.0989
-1.12630 devet minus  -0.0498
-2.12480 devet nula  0.0000
-0.75060 devet od  -0.5870
-1.63310 devet osam  0.0000
-1.87380 devet osamdeset  -0.0960
-2.12480 devet pedeset  0.0000
-1.87380 devet pet  -0.1044
-2.12480 devet radenci  0.6676
-2.27770 devet sedam  0.0000
-2.27770 devet sedamdeset  0.0000
-1.53840 devet tri  -0.0517
-1.71300 devet trideset  -0.0663
-2.12480 devet {est  0.0000
-2.12480 devet {ezdeset  0.0000
-1.42730 devet ~etiri  0.0000
-1.87380 devet ~etrdeset  0.0000
-0.62840 devetnaest do  -0.6238
-0.92940 devetnaest i  -0.4871
-1.13520 devetnaest izme}u  -0.2275
-0.30100 devetnaest od  -0.0553
-0.46180 dijela i  -0.4379
-0.87360 dijela ostalog  -0.0798
-1.02640 dijela ve^eg  0.0989
-1.11760 dijelu drugom  0.0989
-2.49630 dijelu drugome  0.0989
-0.55340 dijelu i  -1.1318
-1.22680 dijelu ju`nom  -0.4548
-2.09240 dijelu ju`nome  0.3850
-1.10180 dijelu na  -0.9293
-1.40290 dijelu ostalom  0.0491
-0.94690 dijelu otvorenom  1.8334
-1.93160 dijelu preostalom  0.0927
-1.75700 dijelu prvom  -1.0610
-0.86780 dijelu sjevernom  0.2035
-1.59480 dijelu sjevernome  0.0989
-2.49630 dijelu te  -0.2601
-0.91550 dijelu ve^em  -0.0792
-1.15140 dio i  -0.2425
-1.15140 dio ju`ni  -0.2543
-0.16270 dio ve^i  0.0366
-0.24830 divljeg i  -0.2620
-0.93080 djelomice <s>  0.0989
-1.75290 djelomice <sil>  -0.0964
-1.20950 djelomice <uzdah>  -0.3282
-1.75290 djelomice barem  0.0990
-2.00390 djelomice dalmaciji  0.5003
-2.15680 djelomice drugdje  0.0000
-1.51220 djelomice i  -0.1935
-1.59210 djelomice jadrana  -0.0782
-0.76240 djelomice jadranu  -0.0474
-2.15680 djelomice nedjelju  -0.1698
-2.15680 djelomice petak  0.5980
-2.15680 djelomice podru~ju  0.0235
-2.15680 djelomice ponedjeljak  1.1537
-1.25530 djelomice poslijepodne  -0.1049
-2.15680 djelomice posvuda  -0.1656
-2.15680 djelomice predjelima  -0.2544
-2.15680 djelomice prijepodne  -0.2545
-2.15680 djelomice srijedu  -0.0103
-1.16810 djelomice sutra  -0.3522
-2.15680 djelomice tjedna  0.0000
-0.84780 djelomice unutra{njosti  -0.3675
-1.51220 djelomice zatim  -0.0488
-1.20250 djelomi~no dana  0.0000
-1.04970 djelomi~no i  -0.1488
-1.20250 djelomi~no jadrana  -0.0506
-1.20250 djelomi~no nave~er  -0.2561
-1.20250 djelomi~no podru~jima  -0.2170
-0.74860 djelovati lo{e  -0.2773
-0.49760 djelovati poticajno  -0.0229
-0.90150 djelovati povoljno  0.0000
-1.10430 dnevna <s>  0.0989
-1.31260 dnevna <uzdah>  -0.1287
-1.02860 dnevna a  -0.2409
-0.14100 dnevna najvi{a  -0.1163
-1.63450 dnevna stupnjeva  -0.0664
-0.74860 dnevne <s>  -0.0515
-0.49760 dnevne najvi{e  0.0335
-2.34200 do <s>  0.0989
-2.58500 do <sil>  -0.0509
-2.40890 do <uzdah>  -0.0648
-2.69610 do ^e  -0.2929
-2.34200 do a  0.0292
-3.28250 do ali  0.0000
-3.28250 do bura  -0.0239
-2.87070 do dalmaciji  0.2398
-1.06820 do deset  -0.9459
-1.76390 do devet  -1.0533
-2.09020 do devetnaest  0.0390
-3.03150 do dijelu  -0.5056
-1.06490 do dva  -1.0505
-1.88610 do dvadeset  -0.8829
-1.74780 do dvanaest  -0.8153
-3.43540 do gorju  0.7792
-2.87070 do i  -0.4261
-2.44670 do izgledi  -0.1708
-3.03150 do jadrana  -0.0976
-2.28400 do jadranu  -0.5217
-1.27860 do jedan  -0.7628
-1.89710 do jedanaest  -2.4856
-3.43540 do jedna  -0.0570
-3.43540 do jo{  -0.2591
-3.43540 do jugu  -0.2238
-2.48810 do kanalu  1.4556
-3.43540 do krajevima  -0.1407
-2.79080 do kratkotrajno  -0.3205
-3.43540 do lici  0.1236
-1.32680 do malo  -0.7232
-2.20940 do malom  0.0989
-2.28400 do malu  0.0989
-2.34200 do mjestimice  -0.2968
-2.48810 do moru  -0.0122
-3.43540 do naoblaku  -0.0317
-2.69610 do ni{tice  -1.5229
-3.03150 do no^i  0.1637
-1.96960 do nula  -1.3444
-3.03150 do nule  -0.2187
-3.43540 do obalu  1.2954
-1.37420 do osam  -0.6214
-2.18710 do osamnaest  -0.1295
-3.43540 do otvorenom  1.8334
-1.27860 do pet  -0.6168
-1.73230 do petnaest  -0.5605
-3.43540 do poja~ana  -0.2355
-3.03150 do poja~ano  -0.0827
-2.05680 do ponegdje  -0.2323
-3.03150 do poslijepodne  -0.2492
-2.79080 do promjenjivo  -0.1792
-3.43540 do promjenljivo  0.0000
-1.63690 do sedam  -0.8598
-2.12640 do sedamnaest  -0.7396
-2.02570 do sjevernom  1.6226
-3.43540 do sjeveru  0.0533
-1.29500 do slab  -0.6050
-1.69570 do slaba  -0.3247
-1.95660 do slabo  -0.2146
-2.58500 do slabom  0.6918
-2.53390 do slabu  -0.1488
-3.43540 do slavoniji  0.0000
-3.43540 do sparno  0.5013
-3.28250 do sutra  -0.1552
-1.32680 do tri  -1.0170
-1.61310 do trideset  -0.8708
-1.88610 do trinaest  -0.8820
-2.07320 do umjeren  -0.1333
-1.73990 do umjerena  -0.3611
-1.43500 do umjereno  -0.5877
-3.43540 do valovito  0.0000
-1.80690 do vremena  -1.3707
-2.23290 do vrijeme  -0.5583
-3.03150 do zapadni  -0.0035
-2.09020 do {esnaest  -1.0189
-1.37420 do {est  -0.6040
-1.13400 do ~etiri  -0.7436
-2.87070 do ~etrdeset  0.2604
-1.96960 do ~etrnaest  -0.6735
-0.24830 doba ovo  0.0989
-0.27150 dobar na  -0.4113
-0.27150 dobre biti  -0.1539
-0.56430 dobro biti  -0.2824
-0.19630 dobro osje^ati  -0.4023
-0.63950 dobrog biti  -0.1530
-0.63950 dobrog nakon  -0.1133
-0.27150 dobroga i  -0.4124
-0.27150 dobrom ^e  -0.4115
-0.24830 dodatne izbjegavati  0.2150
-0.11100 dok <s>  -1.6389
-0.76340 dolina <s>  0.0989
-0.86030 dolina <uzdah>  -1.0657
-1.73390 dolina nova  -0.1999
-0.63850 dolina plitka  0.1525
-1.03640 dolina pribli`ava  -0.0314
-1.48290 dolina pribli`ila  0.0990
-1.48290 dolina primi~e  -0.3151
-1.88680 dolina prostrana  0.0000
-1.03640 dolina se  -0.2474
-0.89810 dolina stanje  -0.3607
-0.24830 dolinu pru`a  -0.2256
-0.27150 donijeti ^e  -0.4115
-0.82210 donji <s>  -0.2078
-0.13260 donji drava  -0.2499
-0.24830 donositi mo`e  -0.2513
-0.24830 dr`avnog split  0.0354
-0.24830 dr`avnoga split  1.5795
-0.27150 dragojlovi^ dragoslav  0.0489
-0.42440 dragoslav vremenu  0.0989
-0.20830 drava <s>  0.0989
-1.34270 drava <sil>  -0.2512
-0.84510 drava <uzdah>  -0.1786
-1.74660 drava devet  0.0000
-1.74660 drava osam  0.0000
-0.42810 drugdje <s>  0.0989
-1.77330 drugdje <sil>  0.0000
-0.92300 drugdje <uzdah>  -0.1268
-0.92300 drugdje a  -0.1763
-1.77330 drugdje bura  -0.1096
-1.77330 drugdje bure  1.2014
-1.77330 drugdje sjeverozapadnjak  -0.2583
-1.77330 drugdje tiho  -0.1719
-1.77330 drugdje vedro  0.0000
-1.77330 drugdje {esnaest  0.2571
-1.77330 drugdje ~vorova  -0.2322
-0.24830 drugom u  -0.1522
-0.24830 drugome u  -0.2505
-0.24830 drvar dunja  -0.2828
-0.39650 drve^a pelud  -0.1843
-1.01610 du` <s>  -0.0557
-1.17680 du` <uzdah>  0.0000
-0.55430 du` a  -0.1469
-1.58070 du` dana  -0.2364
-1.58070 du` no^i  0.4705
-1.58070 du` no^u  0.0000
-1.58070 du` ponegdje  -0.2612
-1.58070 du` sjeverozapadni  -0.1016
-1.17680 du` uglavnom  -0.1006
-1.17680 du` ujutro  -0.3328
-0.54930 du`e i  -0.2568
-0.54930 du`e mo`e  -0.2211
-0.72540 duboka i  -0.2618
-0.72540 duboka stanje  0.0000
-0.24830 dubrova~kome na  -0.1981
-0.27150 dugotrajnom s  0.0000
-0.14540 dugotrajnu uz  -0.2415
-0.24830 dulja <s>  0.0989
-0.05310 dulje i  -0.4944
-0.24830 duljih ^e  -0.2238
-0.46070 dunav <s>  0.0989
-1.09860 dunav <uzdah>  0.0000
-1.66330 dunav osam  0.0000
-0.67460 dunav rijeka  -0.0459
-1.66330 dunav tri  0.0000
-1.51040 dunav vodostaj  0.1517
-0.55800 dunja je  -0.9807
-1.04970 dunja sutra  -0.3709
-0.46320 dunja vremenu  -1.6389
-2.60060 dva <sil>  0.0000
-2.75340 dva brod  0.0989
-2.60060 dva budimpe{ta  0.8880
-2.10890 dva devedeset  -0.0223
-2.10890 dva devet  -0.1763
-0.78910 dva do  -1.4096
-2.34950 dva dva  0.0000
-0.96730 dva dvadeset  -0.1658
-1.46380 dva i  -0.5017
-2.18880 dva ilok  0.2500
-2.60060 dva izme}u  0.0058
-2.75340 dva jasenovac  0.3177
-1.80620 dva jedan  0.0194
-2.34950 dva kanalu  1.1489
-2.60060 dva kostajnica  -0.0515
-0.85190 dva minus  -0.5216
-2.60060 dva mjestimice  0.0000
-0.69220 dva more  -0.3752
-1.85190 dva na  -0.2369
-2.10890 dva nula  -0.1597
-1.35900 dva od  -0.2309
-2.10890 dva osam  -0.0855
-2.60060 dva osamdeset  -0.1406
-1.90310 dva otvorenom  1.8334
-2.10890 dva pedeset  -0.0786
-2.34950 dva pet  0.0000
-2.18880 dva plus  0.4021
-1.44450 dva ponegdje  -0.5274
-2.75340 dva po~etku  -0.0530
-2.18880 dva sedam  -0.1377
-2.10890 dva sedamdeset  -0.1219
-2.34950 dva tri  -0.1068
-1.72700 dva trideset  -0.7976
-2.60060 dva tristo  -0.1306
-1.85190 dva vukovar  -0.2342
-2.60060 dva {amac  -0.0515
-2.18880 dva {est  0.0000
-2.75340 dva {ezdeset  0.0000
-1.85190 dva ~etiri  -0.0918
-2.10890 dva ~etrdeset  -0.1706
-0.20560 dvadeset do  -1.0823
-2.90720 dvadeset dvjesto  0.0000
-1.17470 dvadeset i  -0.7720
-1.32650 dvadeset izme}u  -0.0424
-2.50340 dvadeset jadranu  -0.2251
-2.50340 dvadeset kanalu  1.1489
-2.75440 dvadeset minus  -0.1064
-1.78390 dvadeset mjestimice  -0.3041
-0.75860 dvadeset od  -0.4218
-2.90720 dvadeset oko  -0.2402
-2.50340 dvadeset ponegdje  -0.1110
-2.90720 dvadeset senja  0.2838
-2.05690 dvadeset sto  0.0584
-2.50340 dvadeset tristo  0.0000
-1.63780 dvadeset vidljivost  0.2185
-2.90720 dvadeset {esto  -0.1857
-2.71220 dvanaest bura  -0.2538
-0.84060 dvanaest do  -1.0693
-1.72350 dvanaest i  -0.9757
-2.06760 dvanaest izme}u  -0.2190
-2.71220 dvanaest jugo  0.0000
-2.71220 dvanaest levant  1.0163
-2.14750 dvanaest minus  -0.0529
-1.68570 dvanaest na  -0.3121
-2.55930 dvanaest no^i  0.3200
-1.31780 dvanaest od  -0.1007
-0.44060 dvanaest prvih  0.0989
-0.52440 dvanaest slijede^ih  -0.0229
-1.20860 dvanaest sljede^ih  0.0989
-2.55930 dvanaest tramontana  0.0065
-1.29920 dvjesto devet  0.0000
-1.55030 dvjesto dva  -0.1534
-1.70310 dvjesto ilok  0.3177
-1.70310 dvjesto jedan  0.0000
-0.43370 dvjesto minus  -0.2744
-1.70310 dvjesto nula  0.0000
-1.55030 dvjesto osam  0.0000
-1.29920 dvjesto tri  0.0000
-1.29920 dvjesto vukovar  0.1512
-1.55030 dvjesto {est  -0.1505
-1.05860 dvjesto ~etiri  -0.0794
-0.79230 europe sjeverozapadne  0.0989
-0.14780 europe zapadne  -0.4609
-0.24830 europskim nad  -0.2210
-0.16080 europskog s  -0.0659
-0.27150 fronta hladna  -0.2773
-0.60370 frontalni a  -0.1930
-0.50900 frontalni i  -0.3261
-1.09540 frontalni oslabljen  -0.0798
-1.09540 frontalni oslabljeni  0.0489
-0.91100 frontalnim oslabljenim  0.0989
-0.37800 frontalnim s  -1.5062
-0.16220 fronte hladne  -0.0573
-0.90150 fronte pribli`avanja  0.6769
-0.05120 frontom hladnom  0.0948
-0.98390 gdje <s>  -0.6398
-1.47560 gdje <uzdah>  0.0000
-1.06390 gdje dalmaciji  0.9150
-1.62850 gdje hrvatskoj  -0.0965
-0.63980 gdje jadranu  -0.5249
-1.47560 gdje kotaru  0.0939
-1.62850 gdje krajevima  -0.1407
-1.22460 gdje lici  -0.1831
-1.22460 gdje moru  -0.5472
-1.62850 gdje predjelima  0.0000
-0.14540 glasi sutra  0.0315
-0.24830 glavninom istok  0.0989
-0.74860 glavobolja mogu^a  -0.3106
-0.74860 glavobolja mogu^e  -0.1449
-0.74860 glavobolja te  -0.4052
-1.34520 glavobolje imati  -0.1137
-0.03620 glavobolje od  -0.2533
-0.58140 glavobolju imati  -0.0780
-1.07320 glavobolju na  -0.4123
-0.32450 glavobolju osje^ati  -0.4493
-0.24830 godine doba  0.0989
-1.36290 gorju najvi{em  -0.1999
-0.04140 gorju u  -0.2562
-1.76680 gorju vi{em  0.0989
-0.24830 gorski jadran  -0.2446
-0.88930 gorskim i  -0.1764
-0.38420 gorskim u  -0.2026
-0.39650 gorskog i  -0.1561
-0.49660 gorskoj i  -0.2601
-0.49660 gorskoj u  -0.2401
-0.70270 gorskom i  -1.3556
-0.10540 gorskom u  -0.3348
-1.33850 gorskome i  -0.1501
-0.03890 gorskome u  -0.2412
-1.17770 gotovo <s>  0.0989
-0.43840 gotovo i  -0.3340
-1.02490 gotovo jadranu  -0.1478
-1.17770 gotovo no^i  -0.1934
-0.14540 granici na  -0.5683
-0.69900 greben <s>  0.0989
-1.68760 greben <uzdah>  -0.2487
-0.27800 greben anticiklonalni  0.0212
-1.53480 greben ja~a  -0.0544
-1.53480 greben pru`a  0.0000
-1.28370 greben stanje  -0.3040
-0.27150 grebena anticiklonalnog  -0.0798
-0.09300 grmljavina i  -1.2915
-1.44880 grmljavina mjestimice  -0.1933
-2.09340 grmljavina mjestimi~na  0.0989
-0.97000 grmljavina mogu^a  -0.3425
-2.09340 grmljavina pljuskovi  -0.2439
-2.09340 grmljavina te  -0.2593
-0.09340 grmljavine i  -0.8238
-0.87400 grmljavine mogu^nost  -0.1232
-0.30420 grmljavinom i  -1.7800
-2.09030 grmljavinom mjestimice  -0.2562
-0.31690 grmljavinom s  -0.9655
-0.33690 grmljavinu i  -0.2636
-0.90150 grmljavinu uz  -0.2587
-0.13580 hidrometeorolo{kog dr`avnog  0.0989
-0.58030 hidrometeorolo{kog dr`avnoga  0.0989
-0.57260 hladna oslabljena  0.0489
-0.72540 hladna razmjerno  -0.2414
-0.63950 hladne pribli`avanja  0.5264
-0.63950 hladne utjecaja  -0.2824
-1.24830 hladnije <sil>  -0.2573
-1.24830 hladnije i  -0.2547
-1.24830 hladnije jo{  -0.2346
-0.84440 hladnije malo  -0.0494
-1.24830 hladnije osjetno  -0.2281
-1.24830 hladnije postupno  -0.2574
-0.84440 hladnije te  -0.2542
-0.78770 hladno <s>  -1.6389
-1.37420 hladno dalje  0.6131
-0.50060 hladno i  -0.3094
-1.52700 hladno manje  -0.2503
-1.12310 hladno razmjerno  -0.0909
-1.52700 hladno tjedna  -0.0805
-0.88250 hladno vrlo  -0.0700
-1.15140 hladno^e i  -0.2619
-0.09020 hladno^e od  -0.7564
-0.24830 hladno^u na  -0.2610
-0.24830 hladnog zbog  -0.1932
-0.24830 hladnoga zbog  -0.2588
-0.85030 hladnom oslabljenom  0.0989
-0.28570 hladnom s  -0.3666
-0.02230 hrvatska una  0.0991
-0.49880 hrvatskoj gorskoj  0.0746
-0.27040 hrvatskoj isto~noj  -0.0109
-1.56000 hrvatskoj ju`noj  -0.0939
-1.15610 hrvatskoj sredi{njoj  0.3701
-0.42440 hrvatskom u  0.0000
-0.63950 hrvatsku cijelu  -0.0515
-0.38850 hrvatsku za  0.1007
-1.77670 i <s>  0.0989
-2.65900 i <sil>  -0.1418
-2.33160 i <uzdah>  -0.1461
-2.52070 i ^e  -0.1983
-3.10540 i ali  0.0000
-2.60780 i astmati~are  -0.0915
-3.10540 i astmati~ari  -0.2184
-3.50930 i astmati~arima  0.0000
-3.50930 i baranji  0.0000
-2.38600 i biti  -0.6423
-3.50930 i bolesnike  0.5505
-1.72950 i bura  -0.4808
-3.50930 i bure  1.2014
-3.35650 i burom  -0.1197
-2.14710 i dalmaciji  -0.7029
-1.76970 i dana  -0.4817
-2.16410 i danas  0.0225
-2.86470 i danju  0.0917
-2.03060 i deset  -1.1406
-3.10540 i devedeset  -0.0470
-2.60780 i devet  -0.4891
-2.94470 i devetnaest  -0.5693
-2.86470 i dijelu  -0.3177
-3.50930 i dobro  0.1772
-2.77000 i dolina  -0.2102
-3.50930 i donositi  0.0989
-2.30680 i dva  -0.6174
-1.67000 i dvadeset  0.0992
-2.86470 i dvanaest  -0.9971
-2.60780 i glavobolja  -0.0798
-2.77000 i glavobolje  -0.9030
-2.77000 i glavobolju  -0.0480
-2.28330 i gorju  0.0829
-3.10540 i gorskim  -0.3376
-3.10540 i grmljavina  -0.1081
-3.10540 i grmljavine  0.1445
-3.35650 i grmljavinom  -0.1268
-3.50930 i grmljavinu  -0.2039
-3.50930 i hladno  0.0000
-3.50930 i hladno^e  0.4648
-3.50930 i hladnog  0.0989
-3.50930 i hladnoga  0.0989
-3.50930 i hrasta  0.0000
-2.65900 i hrvatskoj  0.0123
-2.28330 i imati  -0.1784
-2.30680 i isto~ni  -0.3590
-2.56210 i isto~nim  0.1746
-2.09970 i isto~njak  -0.1696
-3.50930 i istre  0.2778
-3.50930 i jadran  -0.2446
-2.38600 i jadrana  0.1068
-2.86470 i jadranom  -0.1733
-1.65900 i jadranu  -0.4233
-2.56210 i jaka  -0.2059
-2.86470 i jako  -0.0828
-3.50930 i ja~a  -0.2432
-2.86470 i je  -0.1491
-2.21960 i jedan  -0.5929
-2.48290 i jedanaest  -1.0296
-1.89000 i ju`ni  -0.4323
-2.44810 i ju`nog  -0.2440
-2.11490 i ju`nom  0.2534
-2.86470 i juga  1.0348
-1.79860 i jugo  -0.3957
-3.35650 i jugoisto~ni  -0.3797
-1.96000 i jugozapadni  -0.3880
-2.48290 i jugozapadnjak  -0.0698
-3.50930 i jugozapadnog  -0.2039
-3.50930 i jugu  0.2385
-3.50930 i jutra  0.0000
-3.50930 i jutro  0.1059
-2.28330 i kanalu  1.4556
-2.94470 i kao  0.1678
-1.83780 i ki{a  0.0058
-2.35790 i ki{e  -0.0684
-2.03060 i ki{om  -0.2743
-3.50930 i ki{u  0.0000
-3.35650 i koncentracije  -0.3366
-3.50930 i koncentraciju  0.0000
-3.50930 i kopnom  0.0989
-3.50930 i kotar  0.0989
-1.63260 i kotaru  0.0710
-3.10540 i kotlinama  0.0779
-3.50930 i krajeva  1.0500
-2.41590 i krajevima  -0.0999
-3.50930 i kratkotrajno  -0.2292
-3.50930 i kroni~ni  0.0000
-1.85450 i lici  -1.1697
-3.35650 i ligurskog  0.6140
-3.50930 i lijepo  0.0000
-3.50930 i like  -0.0570
-2.77000 i ljudi  -0.2504
-2.52070 i magla  -0.4867
-3.35650 i magle  -0.1369
-3.10540 i maglom  -0.1166
-3.50930 i maglovita  0.0989
-2.86470 i maglovito  -0.2792
-3.35650 i manja  -0.3497
-3.35650 i meteoropata  -0.0515
-3.50930 i meteoropate  0.0989
-3.35650 i meteoropati  0.1960
-3.50930 i me}imurju  -0.2101
-1.91860 i mjestimice  -0.2165
-3.35650 i mo`e  -0.1152
-3.10540 i mogu  -0.2281
-3.50930 i mogu^  -0.2369
-2.35790 i mogu^a  -0.1990
-2.44810 i mogu^e  -0.6248
-2.77000 i mogu^i  -0.5616
-3.35650 i mora  -0.3272
-3.10540 i morem  -0.3470
-2.52070 i moru  0.0471
-3.35650 i naoblaka  -0.2728
-3.50930 i naoblake  -0.2511
-2.77000 i naoblakom  0.2117
-3.50930 i naoblaku  -0.2370
-3.50930 i naobla~enje  0.0000
-2.38600 i nave~er  -0.3489
-3.35650 i nervozu  -0.2773
-3.35650 i no^as  -0.0798
-1.35520 i no^i  -0.3088
-3.10540 i no^na  0.0990
-2.21960 i no^u  0.0270
-3.10540 i nula  -0.5579
-3.35650 i obalu  1.1449
-2.94470 i oblaka  0.9300
-1.76970 i obla~no  -0.2871
-3.35650 i oborina  -0.2043
-2.14710 i osam  -0.6633
-3.35650 i osamdeset  0.0000
-3.50930 i osamnaest  0.0000
-3.35650 i osje^ati  -0.3626
-3.50930 i oslabiti  -0.0454
-2.65900 i oslabjeti  0.0981
-2.26100 i otvorenom  1.8334
-3.50930 i ozljeda  -0.0570
-3.35650 i o~ekivati  -0.0798
-2.65900 i pasti  0.2632
-3.10540 i pedeset  0.0558
-2.41590 i pet  -0.3124
-2.77000 i petka  -0.0534
-2.77000 i petnaest  -0.6221
-2.38600 i pljusak  0.0158
-2.65900 i pljuska  -0.0626
-2.60780 i pljuskova  -0.1931
-3.10540 i pljuskove  -0.4026
-1.79860 i pljuskovi  -0.1540
-1.85450 i pljuskovima  -0.2602
-3.35650 i plu^nih  -0.2773
-2.52070 i podne  -0.4190
-3.50930 i podr`ava  -0.1181
-3.10540 i podravini  -0.1792
-2.56210 i podru~ju  -0.1243
-3.50930 i poja~an  -0.1936
-3.35650 i poja~ano  -0.1361
-2.77000 i ponedjeljak  -0.5842
-1.66440 i ponegdje  -0.1143
-2.65900 i popunjava  -0.0037
-3.50930 i posavini  -0.1181
-1.92860 i poslijepodne  -0.1847
-3.50930 i potom  0.0989
-2.86470 i povremeno  -0.1825
-2.65900 i predjelima  -0.1879
-3.10540 i prijepodne  -0.1040
-3.35650 i prohladno  -0.0798
-3.35650 i promijenjivo  -0.1103
-2.86470 i promjenjivo  -0.1453
-2.86470 i promjenljivo  0.1757
-3.10540 i prostrana  -0.0687
-3.50930 i prostrano  0.5080
-3.50930 i raspolo`eni  -0.1648
-3.50930 i razdobljima  0.0989
-2.94470 i razdra`ljivi  -0.0557
-3.35650 i razdra`ljivost  -0.3742
-3.10540 i se  -0.2662
-2.33160 i sedam  -0.8242
-3.10540 i sedamnaest  -0.5519
-2.94470 i sjeverac  0.3609
-1.79860 i sjeverni  -0.5511
-3.35650 i sjevernim  0.4178
-2.86470 i sjevernjak  -0.0656
-2.44810 i sjevernog  -0.3793
-1.38020 i sjevernom  -0.1918
-2.65900 i sjevernome  0.0989
-2.35790 i sjeveroisto~ni  -0.5044
-3.10540 i sjeveroisto~njak  -0.0968
-1.97100 i sjeverozapadni  -0.3179
-2.94470 i sjeverozapadnim  0.2524
-2.41590 i sjeverozapadnjak  -0.6678
-3.50930 i sjeverozapadnog  0.0000
-3.35650 i sjeverozapadnom  -0.2516
-2.14710 i slab  -0.4819
-2.48290 i slaba  -0.6244
-3.10540 i slabjeti  0.3557
-3.10540 i slabo  -0.5260
-1.93880 i slavoniji  -0.0263
-3.35650 i sni`enog  -0.0515
-3.10540 i snijeg  -0.2597
-3.50930 i snijega  0.1509
-2.94470 i snijegom  0.1331
-2.65900 i snom  0.0989
-2.86470 i sparno  -0.3359
-2.94470 i sredi{njim  -0.0570
-3.35650 i sredi{njoj  0.5264
-1.87190 i srednjeg  -0.4795
-1.69280 i srednjem  0.1606
-3.50930 i srednji  0.0706
-2.86470 i srednjoj  1.4336
-3.50930 i srednjom  0.0706
-3.50930 i sredozemlju  -0.0570
-3.35650 i sr~anih  0.0070
-3.10540 i su  -0.1290
-3.50930 i subote  -0.0570
-2.86470 i subotu  -0.2375
-3.50930 i suho  -0.1716
-2.44810 i sumaglica  -0.4353
-3.50930 i sun~anije  -0.0570
-1.61270 i sun~ano  0.1770
-3.50930 i susnje`icom  0.2838
-3.50930 i sutra  -0.2205
-3.10540 i svje`e  -0.0004
-2.86470 i te  -0.3319
-2.94470 i tirenskim  0.4287
-3.35650 i tirenskom  -0.1897
-3.50930 i tjedna  -0.0805
-2.44810 i toplo  -0.3638
-2.16410 i tri  -0.6567
-2.28330 i trideset  -0.2766
-2.60780 i trinaest  -0.3821
-3.50930 i udare  0.9424
-2.56210 i ujutro  0.0608
-2.65900 i umjeren  -0.2429
-1.83780 i umjerena  -0.6025
-1.90880 i umjereno  -0.3443
-3.35650 i umjerenu  -0.3766
-2.20030 i unutra{njosti  0.1801
-2.77000 i utjecaj  -0.1162
-2.52070 i utorak  0.2498
-2.60780 i uvjeti  0.2148
-1.89930 i valovito  -0.3609
-2.30680 i vedro  0.1018
-3.35650 i velebita  -0.0515
-3.50930 i velebitskom  0.0989
-2.94470 i vjetar  -0.2592
-3.35650 i vla`ni  0.0489
-3.50930 i vremena  -0.2226
-3.35650 i vremenu  -0.0515
-3.50930 i vrijeme  -0.1538
-2.35790 i vru^e  -0.3196
-3.10540 i zagorju  -0.0447
-3.50930 i zagrebu  2.1724
-3.35650 i zapada  0.7412
-1.71080 i zapadni  -0.6810
-2.56210 i zapadnim  0.6869
-2.13070 i zapadnjak  -0.3164
-3.10540 i zapadnog  -0.1703
-2.38600 i zapadnom  -0.6702
-3.35650 i zapadu  -0.2773
-2.41590 i zatim  -0.3756
-3.50930 i zemlje  -0.0402
-2.56210 i {esnaest  -0.2645
-2.35790 i {est  -0.5537
-2.28330 i ~etiri  -1.0544
-2.60780 i ~etrdeset  0.3217
-2.60780 i ~etrnaest  -0.2311
-2.65900 i ~vorova  0.0015
-0.24230 iako <s>  -0.2078
-0.27150 ih bi  -0.4075
-1.67190 ili <s>  -0.6398
-1.75180 ili djelomice  -0.2922
-2.16360 ili ista  -0.0798
-2.31650 ili iste  0.0989
-0.64490 ili ki{a  -0.5994
-1.09050 ili ki{e  -0.1708
-1.06820 ili ki{om  0.1242
-1.91260 ili ki{u  0.0724
-1.13880 ili magla  -0.1574
-2.16360 ili maglovito  -0.1383
-1.67190 ili mirno  1.4336
-1.19310 ili promjene  -0.0834
-2.31650 ili promjenjljivo  0.0000
-1.75180 ili promjenljivo  -0.0199
-2.31650 ili snijeg  -0.2199
-2.31650 ili snijegom  -0.0402
-0.68800 ili tiho  -0.3066
-2.31650 ili toplo  -0.1440
-1.36920 ili vedro  -0.2489
-2.31650 ili zadr`ati  0.0000
-1.22600 ilok <sil>  0.0000
-1.22600 ilok <uzdah>  0.0000
-0.13260 ilok dunav  -0.4054
-0.24830 imat bolesnici  0.4780
-1.67520 imati ^e  -0.4115
-0.76690 imati bi  -0.1791
-0.53840 imati mogli  -0.2840
-0.80160 imati mogu  -0.0478
-1.82810 imati ne^e  -0.2151
-0.97770 imati te  -0.2596
-0.80160 imati trebali  0.2971
-0.49340 ipak <s>  -0.0515
-0.24830 ispod i  -0.2598
-0.27150 ista temperatura  -0.1493
-0.24830 iste temperature  -0.1687
-0.24830 istok na  -0.4800
-1.07480 istoku i  -0.2523
-0.35540 istoku na  -0.1695
-0.35540 istoku prema  -0.1993
-0.40460 isto~ni i  -0.7507
-1.46580 isto~ni jadrana  -0.1506
-1.46580 isto~ni na  -0.2555
-1.06190 isto~ni slab  0.0955
-1.46580 isto~ni uglavnom  0.0000
-0.51850 isto~ni umjeren  -0.1831
-0.46670 isto~nim i  -0.4635
-0.19780 isto~nim u  -0.0950
-1.68760 isto~njak dalmaciji  0.3944
-0.41810 isto~njak i  -0.3191
-1.53480 isto~njak jadrana  -0.4067
-1.68760 isto~njak jadranu  -0.2197
-1.53480 isto~njak jak  -0.1752
-1.68760 isto~njak ju`nom  0.2534
-1.68760 isto~njak kanalu  1.4556
-1.53480 isto~njak na  -0.4059
-1.68760 isto~njak nave~er  -0.2467
-1.04300 isto~njak slab  -0.1887
-1.68760 isto~njak te  -0.2532
-1.53480 isto~njak umjeren  -0.1170
-0.27150 isto~njakom i  -0.4124
-0.24830 isto~nog i  -0.2615
-0.59210 isto~noj i  -0.4631
-0.14210 isto~noj u  0.0497
-0.79230 istre obali  -0.1181
-0.14780 istre obalu  -0.9887
-0.24830 istri u  0.0000
-0.24830 italije ju`ne  -0.0570
-0.24830 italiji prema  -0.2566
-0.39650 italijom ju`nom  -0.0183
-0.24830 iz vjetrom  -0.1960
-0.42440 izbjegavaju neka  0.0000
-0.87360 izbjegavati preporu~uje  -0.2444
-0.17610 izbjegavati trebali  0.2527
-0.24830 izdi^i ili  0.0000
-0.23190 izgledi <s>  0.0989
-0.72200 izgledi <uzdah>  -0.9287
-0.72200 izgledi vremenski  -0.8343
-0.24830 izgledima o  -0.2552
-0.42440 izjedna~enog pribli`no  0.0989
-2.40810 izme}u dalmaciji  -0.1778
-0.94240 izme}u dnevna  -0.4644
-2.40810 izme}u dnevne  0.0000
-0.66160 izme}u jadranu  0.1325
-2.40810 izme}u obale  0.0989
-2.40810 izme}u obali  -0.1181
-2.40810 izme}u otocima  -0.1269
-2.40810 izme}u podru~ju  0.0235
-2.00430 izme}u poslijepodne  -0.0536
-2.25530 izme}u sutra  -0.1552
-0.50670 izme}u temperatura  -0.7195
-2.00430 izme}u temperature  -0.0846
-2.25530 izme}u temperaturom  0.2418
-0.90460 izme}u uglavnom  -0.7222
-1.66890 izme}u unutra{njosti  -1.1200
-2.40810 izme}u ve^inom  -0.2529
-1.18210 izme}u vidljivost  -0.1471
-1.66890 izme}u zraka  -1.6465
-0.97050 iznad ciklona  -0.1147
-1.12330 iznad jadrana  -0.2587
-0.71950 iznad se  -0.5269
-1.12330 iznad stanje  0.0000
-0.54930 iznadprosje~no jutra  -0.2057
-1.06120 iznimno biti  -0.2417
-0.90830 iznimno dana  -0.2959
-0.65730 iznimno kod  -0.0545
-1.06120 iznimno samo  -0.2579
-0.69750 izra`en biti  -0.4094
-0.69750 izra`en manje  -0.3956
-0.85030 izra`en slabije  0.0542
-0.28570 izra`ene slabije  0.0561
-0.85030 izra`ene slabo  -0.2546
-0.14540 izuzetno kod  -0.1724
-0.03550 izvje{^e <s>  0.0989
-1.25090 izvje{^e vremensko  -0.0229
-0.04280 izvje{taj <s>  0.0989
-1.56040 izvje{taj <uzdah>  -0.9690
-1.56040 izvje{taj dana{nji  -0.5002
-2.05210 izvje{taj primili  -0.0798
-2.15230 jadran ju`ni  -0.0811
-1.40370 jadran sjeverni  -0.2831
-0.02550 jadran za  -1.6629
-1.87210 jadrana dijela  -0.2337
-0.86180 jadrana dijelu  -0.7383
-2.36380 jadrana i  -0.4124
-1.66630 jadrana iznad  -0.0483
-0.64510 jadrana ju`nog  0.0206
-1.61510 jadrana jugu  0.2796
-2.11270 jadrana od  -0.2613
-2.36380 jadrana podru~je  -0.0121
-2.51660 jadrana podru~ju  -0.2562
-1.87210 jadrana preko  -0.0108
-2.51660 jadrana s  0.0000
-1.05090 jadrana sjevernog  0.0161
-2.36380 jadrana sjevernom  1.7286
-1.87210 jadrana sjeveru  -0.6854
-0.41400 jadrana srednjeg  -0.3962
-1.77730 jadrana srednjega  -1.3010
-1.23730 jadranom ju`nim  -0.0508
-0.06560 jadranom nad  -0.2083
-1.57270 jadranom te  -0.2573
-2.56420 jadranu <s>  -0.6398
-3.20870 jadranu <uzdah>  -0.2487
-2.46950 jadranu ^e  -0.4921
-3.20870 jadranu cijelom  0.0989
-3.05590 jadranu i  -0.1561
-1.03110 jadranu ju`nom  -0.6525
-3.05590 jadranu ju`nome  0.7977
-0.22410 jadranu na  -0.6904
-1.48330 jadranu prema  -0.4498
-3.20870 jadranu primi~e  -0.2092
-2.35840 jadranu se  -0.3803
-0.72870 jadranu sjevernom  -0.4215
-1.71740 jadranu sjevernome  0.0989
-1.30730 jadranu srednjem  1.9465
-3.05590 jadranu stanje  -0.1329
-0.37570 jak do  -0.2584
-0.37570 jak i  -0.6964
-1.70310 jak ponegdje  -0.2615
-1.70310 jak povremeno  -0.2588
-1.70310 jak prolazno  -0.2256
-2.23510 jaka biokova  -0.0570
-0.58880 jaka do  -1.3470
-0.48160 jaka i  -1.0170
-1.49580 jaka jadrana  -0.3215
-1.24640 jaka jadranu  -0.3160
-2.08220 jaka kanalu  1.3051
-2.08220 jaka mjestimice  -0.1337
-1.59050 jaka ponegdje  0.0000
-2.23510 jaka srednjeg  0.3294
-2.23510 jaka ujutro  -0.0261
-2.08220 jaka ve^inom  -0.3195
-0.71960 jaka vrlo  -0.6512
-0.24830 jaki biti  -0.2496
-0.42440 jakim s  0.0000
-2.03720 jako dana  0.0000
-0.39970 jako do  -1.6346
-0.51010 jako i  -0.7589
-2.03720 jako jadrana  -0.1979
-1.47250 jako jadranu  -0.0221
-1.39260 jako mjestimice  -0.0773
-2.03720 jako po~etku  -0.0530
-2.03720 jako ve^inom  -0.1690
-1.01070 jako vrlo  -0.3972
-2.03720 jako zatim  0.0000
-0.00160 jakom i  -0.1897
-0.54930 jaku i  -0.2619
-1.07320 jasenovac <s>  -0.0515
-0.13260 jasenovac sava  0.0941
-1.62050 ja~a <s>  -0.0515
-1.77330 ja~a dana  -0.1454
-1.77330 ja~a jadranom  0.5912
-1.03400 ja~a jadranu  -0.3872
-1.77330 ja~a kopna  0.1272
-1.77330 ja~a kotaru  -0.0120
-1.62050 ja~a nova  -0.1244
-1.62050 ja~a o~ekuje  -0.0597
-1.36940 ja~a polako  0.0042
-1.20870 ja~a postupno  -0.1201
-1.62050 ja~a prolazno  -0.1197
-1.77330 ja~a sjevera  0.0989
-1.36940 ja~a subotu  0.8700
-1.77330 ja~a sutra  0.3383
-1.77330 ja~a utorka  -0.0570
-0.67990 ja~a zapada  0.8917
-0.42440 ja~anje sutra  -0.2431
-0.24830 ja~anju u  -0.2268
-0.54930 ja~ati ^e  -0.2512
-0.54930 ja~ati dana  -0.2062
