~o
<STREAMINFO> 1 25
<VECSIZE> 25<NULLD><MFCC_D_N_Z_0><DIAGC>
~s "silst"
<MEAN> 25
 -3.225228e+000 -1.111463e-001 -4.064344e-001 2.222179e+000 4.162322e+000 2.034126e+000 3.571717e+000 3.166419e+000 2.560900e+000 -1.957009e+000 -3.645055e-001 6.487846e-001 -2.296245e-001 9.622113e-002 9.682813e-002 5.107728e-002 2.794853e-002 -5.354103e-002 -1.029773e-001 -8.927329e-002 -3.178351e-003 8.391687e-002 1.342239e-001 6.068525e-003 -4.194307e-001
<VARIANCE> 25
 1.569593e+001 3.121919e+001 2.078707e+001 1.849824e+001 2.604843e+001 2.989692e+001 2.892114e+001 3.049258e+001 2.844174e+001 2.813989e+001 3.353578e+001 2.397741e+001 1.288693e+000 2.350792e+000 1.512738e+000 1.571470e+000 1.994985e+000 2.379591e+000 2.453851e+000 2.446473e+000 2.392932e+000 2.234623e+000 2.155003e+000 1.968779e+000 2.267050e+000
<GCONST> 9.417237e+001
~h "C"
<BEGINHMM>
<NUMSTATES> 5
<STATE> 2
<MEAN> 25
 -7.609562e+000 -1.483512e+000 3.023010e+000 3.509035e+000 -1.345788e+000 2.621730e+000 2.364239e+000 -6.923552e-001 4.948670e+000 -2.402415e+000 2.451320e+000 -1.017199e+000 -4.220549e+000 -1.415040e+000 -1.013739e-001 -3.892373e-001 -5.520802e-001 4.867891e-001 3.648405e-001 -7.272419e-001 6.732543e-001 -9.985953e-001 1.057127e+000 3.817923e-001 2.577494e+000
<VARIANCE> 25
 5.976868e+001 5.432970e+001 3.151047e+001 3.667553e+001 3.338101e+001 4.317831e+001 4.841514e+001 5.200921e+001 3.545836e+001 2.819434e+001 4.400899e+001 2.420741e+001 3.313889e+000 4.700322e+000 3.064967e+000 2.868757e+000 3.328809e+000 4.370670e+000 4.829063e+000 5.258637e+000 4.781443e+000 3.794679e+000 4.536783e+000 2.961187e+000 4.863421e+000
<GCONST> 1.079776e+002
<STATE> 3
<MEAN> 25
 -1.885375e+001 -1.666272e+000 3.278509e+000 2.012497e+000 -5.272818e-001 3.082985e+000 1.652729e+000 -6.150218e-001 9.475908e+000 -5.619590e+000 2.210094e+000 3.974603e-001 8.697642e-001 8.735778e-002 -2.765603e-001 -3.081925e-001 2.835879e-001 -4.510243e-001 -5.620605e-001 4.329077e-001 2.814709e-001 -4.728858e-001 -4.329664e-001 1.611494e-001 -6.132510e-001
<VARIANCE> 25
 1.286306e+001 2.641653e+001 2.554656e+001 3.535455e+001 2.817945e+001 3.811769e+001 4.506936e+001 6.540929e+001 4.781916e+001 4.501763e+001 5.841970e+001 2.888229e+001 5.843952e+000 2.393832e+000 2.394482e+000 2.189927e+000 2.374533e+000 3.494902e+000 3.716278e+000 4.132158e+000 4.606252e+000 3.337246e+000 2.862348e+000 2.636401e+000 1.281977e+000
<GCONST> 1.027997e+002
<STATE> 4
<MEAN> 25
 -5.480931e+000 -3.040370e+000 6.342087e-001 9.897569e-002 -1.866164e+000 -1.308502e+000 -1.281840e+000 -1.133635e+000 5.440866e+000 -5.689122e+000 1.276517e+000 3.275945e-001 4.984444e+000 -4.432899e-002 -5.088832e-001 -3.482283e-001 -7.408677e-001 -1.481601e+000 -7.728509e-001 -4.639423e-001 -2.062437e+000 1.351586e+000 -5.640666e-001 -2.948440e-001 7.821905e-001
<VARIANCE> 25
 4.603109e+001 2.448140e+001 2.397955e+001 2.086908e+001 2.941823e+001 4.289733e+001 3.833290e+001 4.891519e+001 4.496989e+001 3.525946e+001 3.571182e+001 2.141072e+001 1.572175e+000 3.064585e+000 2.507236e+000 2.852143e+000 2.969130e+000 4.712306e+000 3.860369e+000 5.246804e+000 4.196665e+000 4.309209e+000 6.014342e+000 2.553899e+000 1.455544e+000
<GCONST> 1.030632e+002
<TRANSP> 5
 0.000000e+000 1.000000e+000 0.000000e+000 0.000000e+000 0.000000e+000
 0.000000e+000 7.187110e-001 2.812890e-001 0.000000e+000 0.000000e+000
 0.000000e+000 0.000000e+000 7.257908e-001 2.742092e-001 0.000000e+000
 0.000000e+000 0.000000e+000 0.000000e+000 6.162642e-001 3.837358e-001
 0.000000e+000 0.000000e+000 0.000000e+000 0.000000e+000 0.000000e+000
<ENDHMM>
~h "L"
<BEGINHMM>
<NUMSTATES> 5
<STATE> 2
<MEAN> 25
 -2.137954e-001 5.626056e-001 7.708405e+000 2.657242e+000 -1.290232e+000 -4.834330e+000 -3.168899e+000 -5.396147e-001 -1.693060e+000 -4.117725e+000 -1.193318e-001 2.081350e+000 2.258849e-001 4.816709e-001 1.690344e+000 2.300411e-002 -1.013420e+000 -7.827063e-001 -1.915019e-001 1.611101e-001 -1.296660e+000 -8.035437e-001 -1.620941e-001 9.043751e-001 4.065759e-001
<VARIANCE> 25
 2.166444e+001 2.574595e+001 2.195681e+001 2.500282e+001 2.823497e+001 3.937655e+001 4.307336e+001 4.137187e+001 3.904859e+001 3.256337e+001 3.313791e+001 2.302553e+001 2.850209e+000 2.683731e+000 2.999383e+000 2.882187e+000 3.274280e+000 4.140553e+000 4.776438e+000 4.376228e+000 3.593622e+000 3.894383e+000 3.165666e+000 2.837380e+000 1.890420e+000
<GCONST> 1.021726e+002
<STATE> 3
<MEAN> 25
 3.950275e-001 1.201776e+000 9.374220e+000 1.413146e+000 -3.496228e+000 -5.108799e+000 -3.610749e+000 -4.314263e-001 -4.354658e+000 -3.495486e+000 1.526752e-002 3.825851e+000 1.298169e-001 -9.814622e-001 -2.287239e-001 -9.244124e-001 -1.442432e+000 9.855348e-002 -6.033329e-001 7.142843e-001 2.702339e-002 8.773580e-001 3.772323e-001 3.965067e-001 1.241618e+000
<VARIANCE> 25
 7.707052e+000 1.748058e+001 1.993968e+001 2.443654e+001 2.472351e+001 3.076895e+001 3.620867e+001 2.969765e+001 2.764598e+001 2.980661e+001 2.714822e+001 2.385741e+001 1.642428e+000 1.758296e+000 2.302531e+000 2.266759e+000 2.414235e+000 3.118738e+000 4.272063e+000 3.519953e+000 3.501638e+000 2.751863e+000 2.832636e+000 2.255288e+000 7.254367e-001
<GCONST> 9.508244e+001
<STATE> 4
<MEAN> 25
 1.336291e+000 -2.345944e+000 6.076987e+000 -4.635713e-002 -6.521988e+000 -4.161353e+000 -5.029739e+000 1.707909e+000 -1.785112e+000 -8.366163e-001 6.815965e-001 2.779154e+000 4.640486e-001 -8.727933e-001 -1.501220e+000 -5.241234e-001 -3.155611e-001 5.439122e-001 8.328258e-002 2.899822e-001 5.891391e-001 1.182580e+000 2.781312e-001 -9.185923e-001 6.431770e-001
<VARIANCE> 25
 7.374236e+000 1.583185e+001 2.444090e+001 2.680767e+001 2.351964e+001 3.208170e+001 6.294777e+001 3.538394e+001 3.386831e+001 2.977984e+001 2.595002e+001 2.183100e+001 7.269846e-001 1.843874e+000 2.595522e+000 1.746591e+000 3.153455e+000 2.743672e+000 3.971105e+000 4.083392e+000 2.954273e+000 3.351011e+000 3.207428e+000 2.453640e+000 6.442410e-001
<GCONST> 9.544650e+001
<TRANSP> 5
 0.000000e+000 1.000000e+000 0.000000e+000 0.000000e+000 0.000000e+000
 0.000000e+000 4.738240e-001 5.261760e-001 0.000000e+000 0.000000e+000
 0.000000e+000 0.000000e+000 4.409500e-001 5.590500e-001 0.000000e+000
 0.000000e+000 0.000000e+000 0.000000e+000 4.379224e-001 5.620776e-001
 0.000000e+000 0.000000e+000 0.000000e+000 0.000000e+000 0.000000e+000
<ENDHMM>
~h "N"
<BEGINHMM>
<NUMSTATES> 5
<STATE> 2
<MEAN> 25
 2.462129e+000 5.557518e+000 4.974318e+000 -8.972670e-001 -5.319141e-001 4.292474e-003 6.252477e-001 -3.577930e+000 -4.873953e+000 -1.679143e+000 -9.543299e-001 6.492283e-001 -1.863248e-001 -2.733790e-001 1.175182e+000 -1.152475e+000 -1.078997e+000 5.345632e-001 1.189355e-001 2.600905e-001 -7.700586e-001 1.395765e-001 -9.444420e-002 1.812909e-001 1.258771e+000
<VARIANCE> 25
 1.968682e+001 2.506234e+001 2.315911e+001 2.973692e+001 2.993741e+001 3.284839e+001 2.743958e+001 3.471418e+001 3.250585e+001 2.970513e+001 3.004858e+001 2.435484e+001 2.850920e+000 4.214292e+000 2.437983e+000 2.696542e+000 4.410147e+000 3.717464e+000 3.800613e+000 4.046406e+000 3.263299e+000 2.758405e+000 3.011871e+000 2.207927e+000 2.531770e+000
<GCONST> 1.008216e+002
<STATE> 3
<MEAN> 25
 5.599954e-001 -4.789256e-001 7.671348e+000 -4.132438e+000 -6.644127e+000 1.862826e+000 3.065672e+000 8.822055e-001 -4.910909e+000 -1.251915e+000 -1.041292e+000 7.714012e-001 1.210928e-001 -2.082620e+000 -5.416826e-001 3.549522e-001 -6.404908e-001 -2.413200e-001 9.121087e-001 1.526799e+000 4.274600e-001 -3.016897e-001 -3.121004e-001 -1.460399e-001 1.073277e+000
<VARIANCE> 25
 7.836813e+000 1.964840e+001 1.837304e+001 2.366612e+001 2.591329e+001 3.781814e+001 2.955546e+001 3.214178e+001 2.610019e+001 3.239575e+001 2.522875e+001 2.455237e+001 1.076730e+000 1.411337e+000 1.582571e+000 1.662359e+000 2.642745e+000 2.423651e+000 2.712889e+000 2.152429e+000 2.483389e+000 2.501676e+000 2.004658e+000 1.754591e+000 8.114757e-001
<GCONST> 9.185427e+001
<STATE> 4
<MEAN> 25
 9.759822e-001 -3.849122e+000 4.698709e+000 -6.729528e-001 -4.148894e+000 1.134357e+000 4.717396e+000 3.681065e+000 -3.980019e+000 -3.853501e+000 -2.603073e+000 5.115470e-001 4.840683e-001 -7.568536e-001 -1.176227e+000 8.912017e-001 1.083435e+000 -4.678424e-001 -1.486254e-001 7.388744e-001 7.048590e-001 -9.357958e-002 -4.525557e-001 -2.645065e-001 -3.121451e-001
<VARIANCE> 25
 8.612809e+000 2.111659e+001 2.059013e+001 2.650389e+001 3.271196e+001 4.144878e+001 4.451541e+001 3.042584e+001 3.371803e+001 3.554739e+001 2.538419e+001 2.261559e+001 7.023026e-001 1.512586e+000 1.949655e+000 1.825059e+000 2.422777e+000 2.488814e+000 2.666701e+000 2.028107e+000 2.627774e+000 2.722917e+000 2.253118e+000 1.979036e+000 1.260920e+000
<GCONST> 9.382630e+001
<TRANSP> 5
 0.000000e+000 1.000000e+000 0.000000e+000 0.000000e+000 0.000000e+000
 0.000000e+000 7.007837e-001 2.992163e-001 0.000000e+000 0.000000e+000
 0.000000e+000 0.000000e+000 5.255914e-001 4.744086e-001 0.000000e+000
 0.000000e+000 0.000000e+000 0.000000e+000 4.175786e-001 5.824214e-001
 0.000000e+000 0.000000e+000 0.000000e+000 0.000000e+000 0.000000e+000
<ENDHMM>
~h "S"
<BEGINHMM>
<NUMSTATES> 5
<STATE> 2
<MEAN> 25
 -8.157285e+000 9.585651e-001 8.302511e+000 5.824600e+000 -1.052085e+000 4.404766e-001 -1.031797e+000 -1.490976e-001 4.273348e+000 -4.605484e+000 3.596476e+000 2.827885e-001 -4.593665e+000 6.361815e-002 7.501248e-001 1.246351e+000 1.730039e+000 4.200555e-001 6.293122e-001 7.198370e-001 2.900640e+000 -1.077562e+000 -2.452931e-003 5.458273e-002 8.135780e-001
<VARIANCE> 25
 4.381207e+001 2.017302e+001 3.855455e+001 2.950172e+001 3.837762e+001 3.704016e+001 4.308072e+001 5.009014e+001 6.766142e+001 4.998072e+001 4.549881e+001 3.090200e+001 1.656162e+000 3.764767e+000 3.862394e+000 2.850872e+000 3.958895e+000 4.181414e+000 4.023357e+000 5.440385e+000 5.325375e+000 5.489543e+000 6.020442e+000 3.301869e+000 7.217262e-001
<GCONST> 1.062393e+002
<STATE> 3
<MEAN> 25
 -1.890264e+001 -2.472339e+000 6.803706e+000 4.783937e+000 1.958194e+000 1.505680e+000 3.565108e-001 -1.191116e+000 9.705478e+000 -5.133638e+000 1.259810e+000 3.015465e-001 -3.233199e-001 -6.310930e-001 -8.248287e-001 -7.192397e-001 2.520005e-001 2.724022e-001 -1.227959e-001 -2.004003e-001 4.350509e-001 9.341366e-003 -3.641854e-001 5.543961e-002 -5.857317e-001
<VARIANCE> 25
 8.221220e+000 3.222113e+001 1.769654e+001 2.888507e+001 3.069479e+001 3.754008e+001 4.484452e+001 5.709810e+001 4.569873e+001 6.435309e+001 5.794008e+001 3.094898e+001 2.599781e+000 1.547110e+000 1.340855e+000 1.470718e+000 1.944187e+000 2.226503e+000 2.568177e+000 3.312186e+000 2.861105e+000 2.861995e+000 2.344770e+000 2.208417e+000 4.304727e-001
<GCONST> 9.671992e+001
<STATE> 4
<MEAN> 25
 -9.074398e+000 -3.964409e+000 1.003545e+000 2.127393e-001 9.876775e-001 9.909957e-001 -1.319409e+000 -1.236286e+000 8.350114e+000 -3.954504e+000 9.158884e-001 6.857045e-001 3.972712e+000 7.192939e-002 -1.121147e+000 -9.086430e-001 -8.641876e-001 -9.495566e-001 -1.002482e-001 1.077459e-001 -1.636899e+000 8.413111e-001 -1.425064e-001 -2.958440e-002 -3.424326e-001
<VARIANCE> 25
 6.134966e+001 3.509838e+001 2.446472e+001 2.392497e+001 4.428712e+001 5.067241e+001 4.490606e+001 6.869589e+001 5.066272e+001 5.569244e+001 4.348552e+001 2.477823e+001 4.392983e+000 2.029870e+000 2.580477e+000 2.322606e+000 3.309532e+000 4.774117e+000 3.951530e+000 4.399014e+000 3.847020e+000 5.018238e+000 4.614144e+000 2.648370e+000 3.461122e+000
<GCONST> 1.069708e+002
<TRANSP> 5
 0.000000e+000 1.000000e+000 0.000000e+000 0.000000e+000 0.000000e+000
 0.000000e+000 6.596184e-001 3.403817e-001 0.000000e+000 0.000000e+000
 0.000000e+000 0.000000e+000 8.099545e-001 1.900455e-001 0.000000e+000
 0.000000e+000 0.000000e+000 0.000000e+000 6.995870e-001 3.004129e-001
 0.000000e+000 0.000000e+000 0.000000e+000 0.000000e+000 0.000000e+000
<ENDHMM>
~h "Z"
<BEGINHMM>
<NUMSTATES> 5
<STATE> 2
<MEAN> 25
 -5.891589e+000 1.027355e+000 6.089121e+000 4.445377e+000 1.904132e-001 -1.973171e+000 -2.184699e+000 -7.342044e+000 6.005438e+000 -2.599000e+000 3.449202e+000 -5.039332e-002 -3.814388e+000 8.312740e-001 1.920091e+000 1.029412e+000 1.375648e+000 -2.118806e-001 1.151857e+000 9.341852e-002 1.695943e+000 -5.183909e-001 -2.274077e-001 -5.011381e-001 4.793516e-001
<VARIANCE> 25
 3.077885e+001 1.521236e+001 3.842566e+001 2.858157e+001 4.958854e+001 3.267294e+001 4.181630e+001 5.802082e+001 4.008723e+001 4.691761e+001 4.248192e+001 3.167113e+001 1.791920e+000 2.626544e+000 2.053601e+000 2.561450e+000 3.432403e+000 4.854495e+000 3.904364e+000 4.914659e+000 4.257039e+000 3.706612e+000 3.085393e+000 2.726950e+000 7.299296e-001
<GCONST> 1.025760e+002
<STATE> 3
<MEAN> 25
 -1.509505e+001 2.040933e+000 9.742218e+000 5.506107e+000 1.591297e+000 1.014490e-001 9.690986e-001 -4.429644e+000 9.049607e+000 -3.661293e+000 2.214039e+000 -5.912870e-001 1.756361e-001 -1.587550e-001 -4.805191e-001 -5.933878e-001 -3.879918e-002 4.181841e-001 5.346666e-002 3.315218e-001 -7.427932e-002 -4.775137e-001 -3.124417e-001 2.116326e-001 -6.914579e-001
<VARIANCE> 25
 1.523952e+001 2.477173e+001 2.510566e+001 3.249032e+001 4.562555e+001 4.243117e+001 4.975571e+001 5.394202e+001 4.492192e+001 4.852807e+001 4.779914e+001 3.462818e+001 4.295365e+000 1.335567e+000 1.782046e+000 1.735326e+000 2.306102e+000 2.494354e+000 3.267982e+000 2.806531e+000 3.166177e+000 2.661574e+000 2.471861e+000 2.054497e+000 7.749939e-001
<GCONST> 9.948979e+001
<STATE> 4
<MEAN> 25
 -4.737249e+000 -4.600119e-001 3.808973e+000 1.462461e+000 -2.836475e-001 -1.153385e+000 -1.807806e+000 -4.516335e+000 6.504794e+000 -4.051676e+000 1.244702e+000 4.558462e-001 4.146719e+000 -1.130913e+000 -1.968174e+000 -7.565525e-001 -9.486470e-001 -7.010951e-001 -6.314534e-001 4.814594e-001 -1.484346e+000 8.758428e-001 -5.135080e-001 1.030984e-001 6.142371e-002
<VARIANCE> 25
 4.384070e+001 2.584391e+001 3.028073e+001 2.371823e+001 3.436600e+001 3.563096e+001 4.629179e+001 5.070737e+001 4.079200e+001 4.951061e+001 3.549076e+001 2.548565e+001 1.866371e+000 2.552093e+000 2.718825e+000 2.620473e+000 3.221349e+000 3.846483e+000 3.941687e+000 4.941773e+000 4.262152e+000 3.593228e+000 4.234282e+000 2.711710e+000 1.080841e+000
<GCONST> 1.031038e+002
<TRANSP> 5
 0.000000e+000 1.000000e+000 0.000000e+000 0.000000e+000 0.000000e+000
 0.000000e+000 6.904668e-001 3.095331e-001 0.000000e+000 0.000000e+000
 0.000000e+000 0.000000e+000 7.059379e-001 2.940622e-001 0.000000e+000
 0.000000e+000 0.000000e+000 0.000000e+000 6.412239e-001 3.587761e-001
 0.000000e+000 0.000000e+000 0.000000e+000 0.000000e+000 0.000000e+000
<ENDHMM>
~h "a"
<BEGINHMM>
<NUMSTATES> 5
<STATE> 2
<MEAN> 25
 3.406263e+000 -8.315602e+000 -5.298305e+000 -2.516977e+000 2.733166e+000 -2.778044e-002 5.743480e-001 4.059304e+000 2.624228e+000 -1.063353e-001 -5.083001e+000 -2.373480e+000 2.238190e-001 -5.331991e-001 -4.205930e-001 -7.006991e-002 7.989568e-001 5.835516e-001 5.445434e-001 3.182771e-001 -1.537281e-001 -2.440791e-001 -5.703782e-001 -4.045111e-001 2.221694e-001
<VARIANCE> 25
 6.583708e+000 1.307862e+001 1.557947e+001 1.951366e+001 2.770350e+001 3.956274e+001 3.109833e+001 2.888924e+001 2.946736e+001 3.420500e+001 2.987385e+001 2.886576e+001 8.913184e-001 1.020485e+000 1.285082e+000 1.394154e+000 2.047648e+000 2.387625e+000 2.527134e+000 2.412097e+000 2.141528e+000 2.303446e+000 2.279940e+000 1.923250e+000 7.850461e-001
<GCONST> 9.030992e+001
<STATE> 3
<MEAN> 25
 4.082765e+000 -7.894145e+000 -5.677751e+000 -2.098061e+000 4.410264e+000 1.364759e+000 6.445756e-001 3.074191e+000 1.626249e+000 -4.947095e-002 -5.607021e+000 -2.940154e+000 2.996258e-001 1.075703e+000 4.884409e-001 4.247685e-001 -1.926968e-001 -2.006365e-001 7.569762e-002 -3.240820e-001 -4.969153e-003 3.232353e-001 1.245279e-001 7.535113e-002 -1.044100e+000
<VARIANCE> 25
 7.449220e+000 1.373312e+001 1.766961e+001 2.536761e+001 3.284743e+001 4.195841e+001 3.563282e+001 3.241940e+001 3.144254e+001 4.090532e+001 3.724815e+001 3.502255e+001 5.467387e-001 1.170276e+000 1.082288e+000 1.416624e+000 1.941184e+000 2.253195e+000 2.211514e+000 2.284826e+000 2.048530e+000 2.017316e+000 2.041538e+000 1.917880e+000 9.559253e-001
<GCONST> 9.110892e+001
<STATE> 4
<MEAN> 25
 4.556827e+000 -1.398915e+000 -2.428409e+000 4.163863e-001 2.616693e+000 -3.203652e-001 1.725563e+000 3.441884e+000 3.329898e+000 1.347093e-001 -4.806988e+000 -2.364665e+000 -2.291896e-001 2.010685e+000 9.841105e-001 6.830087e-001 -2.692290e-001 9.673497e-002 5.387867e-001 -2.672309e-001 2.822167e-001 -3.498618e-001 3.348812e-001 3.906949e-002 -2.216415e+000
<VARIANCE> 25
 1.102582e+001 2.376169e+001 1.995915e+001 2.441338e+001 3.133754e+001 4.308656e+001 4.037251e+001 3.945777e+001 3.799370e+001 4.427040e+001 3.644533e+001 3.543017e+001 1.186539e+000 1.956942e+000 1.608845e+000 2.266913e+000 2.465677e+000 3.032628e+000 2.823071e+000 3.886087e+000 3.393317e+000 2.885174e+000 3.046236e+000 2.455846e+000 1.595398e+000
<GCONST> 9.818096e+001
<TRANSP> 5
 0.000000e+000 1.000000e+000 0.000000e+000 0.000000e+000 0.000000e+000
 0.000000e+000 5.974635e-001 4.025365e-001 0.000000e+000 0.000000e+000
 0.000000e+000 0.000000e+000 5.856588e-001 4.143413e-001 0.000000e+000
 0.000000e+000 0.000000e+000 0.000000e+000 5.822441e-001 4.177559e-001
 0.000000e+000 0.000000e+000 0.000000e+000 0.000000e+000 0.000000e+000
<ENDHMM>
~h "b"
<BEGINHMM>
<NUMSTATES> 5
<STATE> 2
<MEAN> 25
 7.117052e+000 8.040193e+000 8.511366e-001 6.892419e-001 2.933414e+000 2.848861e+000 1.989984e+000 -1.155236e+000 -3.062039e-001 -2.038238e+000 -2.218661e+000 -3.708137e+000 -5.109311e-001 9.742218e-001 7.884575e-001 1.043154e+000 3.049833e-001 3.582050e-002 4.754174e-001 4.289199e-001 2.540990e-001 -7.197986e-001 -6.166210e-001 -1.196266e-001 -1.130981e+000
<VARIANCE> 25
 1.236353e+001 1.406588e+001 2.053656e+001 2.872539e+001 2.126151e+001 2.822254e+001 2.808530e+001 2.734169e+001 3.116516e+001 2.670029e+001 2.686576e+001 2.618599e+001 1.148726e+000 1.863521e+000 1.138496e+000 1.803942e+000 1.496672e+000 1.860601e+000 2.109689e+000 2.238548e+000 2.307674e+000 2.178840e+000 2.483046e+000 1.706098e+000 1.563571e+000
<GCONST> 9.136916e+001
<STATE> 3
<MEAN> 25
 5.226639e+000 8.475762e+000 1.972601e+000 1.937289e+000 2.889536e+000 2.631595e+000 2.401986e+000 1.414849e-001 5.281735e-001 -2.885990e+000 -2.198813e+000 -2.840053e+000 -1.801791e+000 -2.513258e+000 -1.346666e-001 6.304055e-001 -5.537448e-001 -5.416918e-001 -1.380373e+000 2.680931e-002 -2.801481e-001 9.318455e-002 1.076775e+000 6.845092e-001 2.133951e+000
<VARIANCE> 25
 1.444079e+001 1.568008e+001 2.081643e+001 2.782865e+001 2.060552e+001 2.633402e+001 2.689132e+001 2.945939e+001 2.959970e+001 2.493840e+001 2.509672e+001 2.507843e+001 1.699360e+000 2.167248e+000 3.156728e+000 3.282691e+000 3.018876e+000 3.684034e+000 2.986126e+000 3.367657e+000 3.639554e+000 3.492470e+000 3.014988e+000 2.626250e+000 1.450535e+000
<GCONST> 9.709389e+001
<STATE> 4
<MEAN> 25
 5.753853e-001 -8.662917e-001 -7.658172e-002 2.572888e+000 1.304744e+000 1.203855e+000 -2.454653e+000 -2.512130e-001 -1.459837e-001 -1.736344e+000 1.494220e+000 -1.059562e+000 -2.647243e-001 -2.795575e+000 -5.788422e-001 -1.320843e+000 -1.957252e+000 -7.496258e-001 -1.642737e+000 -5.966476e-001 -9.915104e-001 1.030183e+000 1.441260e+000 6.649542e-001 3.192668e+000
<VARIANCE> 25
 1.918080e+001 2.222490e+001 3.420882e+001 4.219957e+001 2.893983e+001 4.231429e+001 3.518846e+001 3.306729e+001 2.978235e+001 3.155796e+001 3.331246e+001 2.351064e+001 2.467675e+000 3.023664e+000 5.580197e+000 5.858591e+000 4.531827e+000 4.910150e+000 3.880748e+000 6.230107e+000 5.749818e+000 6.496752e+000 4.437355e+000 3.635286e+000 1.305463e+000
<GCONST> 1.054082e+002
<TRANSP> 5
 0.000000e+000 1.000000e+000 0.000000e+000 0.000000e+000 0.000000e+000
 0.000000e+000 6.223301e-001 3.776699e-001 0.000000e+000 0.000000e+000
 0.000000e+000 0.000000e+000 3.345266e-001 6.654735e-001 0.000000e+000
 0.000000e+000 0.000000e+000 0.000000e+000 3.931478e-001 6.068522e-001
 0.000000e+000 0.000000e+000 0.000000e+000 0.000000e+000 0.000000e+000
<ENDHMM>
~h "c"
<BEGINHMM>
<NUMSTATES> 5
<STATE> 2
<MEAN> 25
 -9.007143e+000 1.042776e+001 -1.799292e+000 7.244677e+000 1.650222e+000 8.979481e-001 1.426993e+000 4.450693e-001 7.493483e-001 -1.834085e+000 3.427229e-001 3.187594e-001 -3.402626e+000 -3.185461e-003 -2.299499e+000 1.127968e-002 7.631060e-001 6.205373e-001 2.183015e-001 1.597564e-002 1.554470e-003 -4.257469e-001 3.681316e-001 3.535318e-001 1.269200e+000
<VARIANCE> 25
 3.302002e+001 2.427667e+001 3.185404e+001 1.966633e+001 2.339507e+001 3.151996e+001 2.718668e+001 3.166717e+001 2.793454e+001 2.298119e+001 3.104534e+001 2.227245e+001 1.528609e+000 2.748783e+000 2.231648e+000 2.018868e+000 2.571367e+000 2.502401e+000 2.927748e+000 2.597296e+000 2.375730e+000 2.106626e+000 2.605475e+000 1.774423e+000 1.900710e+000
<GCONST> 9.605302e+001
<STATE> 3
<MEAN> 25
 -1.773949e+001 6.399165e+000 -7.693638e+000 4.130086e+000 3.644574e+000 -3.383665e-001 5.480520e+000 1.242267e+000 9.649131e-001 -2.342643e+000 1.053459e+000 3.315360e+000 -1.533533e-001 -1.786884e+000 4.749978e-002 -1.050137e+000 -6.517498e-001 -1.331601e+000 9.411690e-001 4.343297e-001 4.975562e-002 3.934095e-001 1.716097e-001 6.196740e-001 6.490467e-001
<VARIANCE> 25
 5.945392e+000 2.020032e+001 1.721053e+001 2.131902e+001 2.494859e+001 3.511301e+001 2.551686e+001 2.602355e+001 2.431663e+001 2.168467e+001 4.768581e+001 2.629087e+001 1.937727e+000 1.658494e+000 2.332646e+000 1.363878e+000 2.285789e+000 2.361720e+000 2.325719e+000 2.700448e+000 2.101246e+000 1.925374e+000 2.219241e+000 1.809541e+000 7.094696e-001
<GCONST> 9.160867e+001
<STATE> 4
<MEAN> 25
 -9.749063e+000 4.638060e-001 -3.538911e+000 1.763767e+000 -2.490953e+000 -7.955202e+000 3.670966e+000 6.366492e-001 7.421006e-003 -5.826911e-001 1.715222e-002 3.694417e+000 4.312647e+000 -1.237457e+000 1.943596e+000 -4.971842e-001 -1.910437e+000 -2.083767e+000 -1.803836e+000 -8.483710e-001 -6.422158e-001 6.430190e-001 -8.253400e-001 -2.333943e-001 1.240556e+000
<VARIANCE> 25
 5.266314e+001 1.593884e+001 2.442827e+001 1.588734e+001 3.325336e+001 4.045165e+001 4.081897e+001 3.385003e+001 2.853274e+001 2.209467e+001 4.334694e+001 2.307243e+001 1.396372e+000 2.519141e+000 2.532450e+000 2.413990e+000 2.610940e+000 4.308309e+000 3.478860e+000 4.082194e+000 3.395993e+000 2.673451e+000 4.967286e+000 3.886118e+000 1.242085e+000
<GCONST> 9.995538e+001
<TRANSP> 5
 0.000000e+000 1.000000e+000 0.000000e+000 0.000000e+000 0.000000e+000
 0.000000e+000 7.408204e-001 2.591796e-001 0.000000e+000 0.000000e+000
 0.000000e+000 0.000000e+000 6.988474e-001 3.011527e-001 0.000000e+000
 0.000000e+000 0.000000e+000 0.000000e+000 6.635591e-001 3.364409e-001
 0.000000e+000 0.000000e+000 0.000000e+000 0.000000e+000 0.000000e+000
<ENDHMM>
~h "d"
<BEGINHMM>
<NUMSTATES> 5
<STATE> 2
<MEAN> 25
 5.059020e+000 6.962956e+000 3.113212e+000 3.146914e+000 1.250800e+000 -2.870112e+000 -1.012861e+000 -1.043724e-001 2.954866e+000 -5.643882e-001 -3.684841e+000 -2.434983e+000 -2.487101e-001 9.918789e-001 7.346106e-001 4.901077e-001 4.999248e-001 7.103558e-001 5.102328e-001 3.818818e-001 1.374048e-001 -9.192853e-001 7.110127e-003 -5.130681e-001 -1.133681e+000
<VARIANCE> 25
 1.342449e+001 1.891276e+001 2.253808e+001 2.106495e+001 2.550122e+001 3.268926e+001 3.093283e+001 3.277831e+001 2.900453e+001 3.200933e+001 2.861886e+001 2.659984e+001 2.466254e+000 2.449981e+000 2.005279e+000 2.071081e+000 2.679339e+000 3.119524e+000 3.397931e+000 3.028399e+000 2.780224e+000 2.966910e+000 3.591267e+000 2.879833e+000 2.705640e+000
<GCONST> 9.788119e+001
<STATE> 3
<MEAN> 25
 2.904797e+000 7.091360e+000 4.059841e+000 3.328382e+000 2.524522e+000 -6.350253e-001 9.927340e-002 5.976342e-001 2.273437e+000 -1.677514e+000 -2.166006e+000 -2.578267e+000 -1.938247e+000 -1.818803e+000 -4.532245e-001 -6.270592e-001 3.512804e-001 4.049696e-001 -3.055967e-001 -2.682202e-001 -6.357321e-001 -1.299186e-001 1.085956e+000 7.852034e-001 1.864330e+000
<VARIANCE> 25
 1.848154e+001 2.271920e+001 2.568322e+001 2.179541e+001 2.420450e+001 2.902556e+001 2.777900e+001 3.181833e+001 2.808659e+001 2.752602e+001 2.880863e+001 2.015568e+001 2.629827e+000 2.826544e+000 2.547711e+000 2.747511e+000 3.482585e+000 4.067868e+000 3.562839e+000 3.597127e+000 3.046388e+000 3.111775e+000 3.787379e+000 2.716439e+000 2.208238e+000
<GCONST> 9.919386e+001
<STATE> 4
<MEAN> 25
 -1.629031e+000 -2.498125e-001 5.306243e-001 6.251104e-002 2.121039e+000 -1.734084e+000 -2.260898e+000 -2.200721e-001 1.377031e+000 -5.726216e-001 2.758363e-001 5.946529e-001 -1.013185e-001 -1.932297e+000 -1.125315e+000 -1.197178e+000 -1.377232e+000 -1.040591e+000 -1.289854e+000 -3.900731e-001 -1.609700e-001 1.151996e+000 2.953885e-001 8.662312e-001 2.678843e+000
<VARIANCE> 25
 2.042006e+001 2.264007e+001 2.758430e+001 2.478744e+001 3.511169e+001 4.536905e+001 4.348029e+001 3.074208e+001 2.713420e+001 3.015906e+001 3.178918e+001 2.519218e+001 3.122329e+000 2.969379e+000 3.757393e+000 3.047020e+000 3.594615e+000 4.510774e+000 4.396666e+000 4.693322e+000 4.174974e+000 3.722458e+000 4.495773e+000 3.601274e+000 2.169292e+000
<GCONST> 1.033550e+002
<TRANSP> 5
 0.000000e+000 1.000000e+000 0.000000e+000 0.000000e+000 0.000000e+000
 0.000000e+000 4.517339e-001 5.482661e-001 0.000000e+000 0.000000e+000
 0.000000e+000 0.000000e+000 2.857491e-001 7.142509e-001 0.000000e+000
 0.000000e+000 0.000000e+000 0.000000e+000 4.521415e-001 5.478585e-001
 0.000000e+000 0.000000e+000 0.000000e+000 0.000000e+000 0.000000e+000
<ENDHMM>
~h "e"
<BEGINHMM>
<NUMSTATES> 5
<STATE> 2
<MEAN> 25
 2.049965e+000 -5.209332e+000 2.601495e+000 -4.900327e-001 -6.805780e+000 -6.703606e+000 1.288976e+000 4.693109e+000 -9.983315e-001 1.033111e+000 -3.092911e-001 1.854142e+000 3.367307e-001 2.983131e-001 2.973452e-001 1.522973e-001 -6.903419e-002 -4.727188e-002 2.986221e-001 5.844051e-002 -2.165802e-001 3.841618e-001 -7.751017e-002 1.999026e-002 -2.103291e-001
<VARIANCE> 25
 6.640137e+000 1.535940e+001 1.898698e+001 1.940515e+001 2.565053e+001 3.600365e+001 4.085856e+001 2.918283e+001 3.222525e+001 2.871021e+001 2.635477e+001 2.239542e+001 1.175663e+000 1.128152e+000 1.560398e+000 1.516985e+000 2.594595e+000 2.330160e+000 3.007560e+000 2.504949e+000 2.488253e+000 2.546901e+000 1.999090e+000 1.801288e+000 9.437407e-001
<GCONST> 9.163606e+001
<STATE> 3
<MEAN> 25
 2.750990e+000 -2.296904e+000 3.731901e+000 1.165093e+000 -5.990879e+000 -6.361436e+000 4.660316e-001 2.712809e+000 -1.031638e+000 1.496635e+000 -7.226477e-001 1.959064e+000 3.189315e-001 1.764523e+000 3.086658e-001 1.029452e+000 1.021683e+000 3.933020e-001 1.441197e-002 -7.366905e-001 6.117333e-001 -2.112791e-001 -1.396039e-001 -3.269224e-001 -1.944717e+000
<VARIANCE> 25
 8.408272e+000 2.388596e+001 2.601657e+001 2.193841e+001 3.226062e+001 3.895568e+001 4.616623e+001 3.951582e+001 3.984316e+001 3.613957e+001 3.012584e+001 2.900050e+001 9.545661e-001 1.533640e+000 1.571812e+000 1.674789e+000 2.349789e+000 2.699869e+000 2.996375e+000 3.086821e+000 2.824707e+000 2.681788e+000 2.291668e+000 2.138351e+000 1.489213e+000
<GCONST> 9.572025e+001
<STATE> 4
<MEAN> 25
 2.987293e+000 2.028645e+000 3.915473e+000 3.424417e+000 -3.021204e+000 -5.092091e+000 5.889583e-001 1.655120e+000 1.510422e+000 4.314470e-001 -5.179046e-001 7.377716e-001 -4.569910e-001 1.578493e+000 6.482007e-003 5.054891e-001 1.254322e+000 9.089234e-001 1.220366e-001 -5.369108e-001 5.950230e-001 -2.213577e-001 2.197631e-001 -5.440288e-001 -1.864787e+000
<VARIANCE> 25
 1.204857e+001 3.055675e+001 2.449394e+001 1.971163e+001 2.944535e+001 3.282570e+001 4.291660e+001 3.416473e+001 3.683884e+001 3.241872e+001 3.044588e+001 2.728693e+001 1.997607e+000 2.616101e+000 2.024121e+000 2.357795e+000 2.728554e+000 3.352962e+000 3.450830e+000 4.510408e+000 3.680005e+000 3.033391e+000 3.022832e+000 2.716299e+000 1.730923e+000
<GCONST> 9.924877e+001
<TRANSP> 5
 0.000000e+000 1.000000e+000 0.000000e+000 0.000000e+000 0.000000e+000
 0.000000e+000 5.340736e-001 4.659265e-001 0.000000e+000 0.000000e+000
 0.000000e+000 0.000000e+000 4.194075e-001 5.805925e-001 0.000000e+000
 0.000000e+000 0.000000e+000 0.000000e+000 3.187136e-001 6.812864e-001
 0.000000e+000 0.000000e+000 0.000000e+000 0.000000e+000 0.000000e+000
<ENDHMM>
~h "f"
<BEGINHMM>
<NUMSTATES> 5
<STATE> 2
<MEAN> 25
 -9.743896e+000 5.993140e-001 -5.940228e-001 6.033475e+000 4.097773e+000 4.121480e+000 3.641714e-001 3.300822e+000 1.507945e+000 -2.003101e+000 -8.668889e-001 4.954834e-002 -6.585715e-001 -1.549780e+000 -8.070616e-001 -2.121962e-001 -4.065665e-001 2.778319e-001 -5.421212e-001 2.439576e-001 4.469503e-001 1.295766e-001 6.221182e-002 1.283197e-001 2.389675e-001
<VARIANCE> 25
 1.550827e+001 2.465567e+001 2.512504e+001 2.056967e+001 1.255449e+001 2.465065e+001 2.574144e+001 2.298741e+001 2.294446e+001 2.468965e+001 3.359420e+001 1.867643e+001 3.949781e+000 1.750546e+000 2.470339e+000 2.571162e+000 1.925281e+000 2.430415e+000 2.129187e+000 2.872081e+000 2.192270e+000 2.069977e+000 2.416729e+000 1.718900e+000 1.519671e+000
<GCONST> 9.353127e+001
<STATE> 3
<MEAN> 25
 -9.413737e+000 -3.922952e+000 -4.486544e+000 2.658205e+000 2.203488e+000 2.480940e+000 -7.113250e-001 3.314326e+000 3.113761e+000 -6.057993e-004 -2.062794e-001 -1.486453e-002 3.411438e+000 -1.101998e+000 -1.329291e+000 -1.746432e+000 -1.956958e+000 -1.045054e+000 -1.676663e+000 -1.706672e+000 -9.493886e-002 8.338862e-001 6.057888e-001 -3.729937e-001 1.299899e+000
<VARIANCE> 25
 7.805124e+000 1.246052e+001 1.909441e+001 1.750039e+001 1.818767e+001 2.736477e+001 2.945778e+001 2.401749e+001 1.923472e+001 2.484172e+001 3.011028e+001 1.738443e+001 2.412939e+000 1.976115e+000 2.189148e+000 2.670302e+000 2.407849e+000 3.460527e+000 2.342599e+000 2.657824e+000 2.519201e+000 2.411309e+000 3.852724e+000 1.751391e+000 1.280762e+000
<GCONST> 9.277468e+001
<STATE> 4
<MEAN> 25
 1.042536e+000 -4.202343e+000 -7.383266e+000 -2.242822e+000 -3.260478e+000 -5.295251e-002 -5.381969e+000 -3.588110e+000 1.154361e+000 1.284735e+000 1.215897e+000 -2.986337e-001 4.441927e+000 -2.132620e-001 -2.695131e-001 -1.306679e-001 -1.453748e+000 -3.695959e-001 -9.508781e-001 -2.033044e+000 -2.214856e-001 9.284269e-001 7.349221e-001 8.059738e-002 1.682551e+000
<VARIANCE> 25
 2.470680e+001 1.000416e+001 2.450666e+001 2.116226e+001 2.074225e+001 4.225328e+001 2.584096e+001 3.238979e+001 1.921830e+001 2.606216e+001 1.701657e+001 1.597925e+001 9.307603e-001 2.034866e+000 1.874780e+000 3.495578e+000 2.862934e+000 3.484246e+000 3.970068e+000 3.334416e+000 2.792771e+000 3.682458e+000 3.620211e+000 2.214363e+000 1.018171e+000
<GCONST> 9.486762e+001
<TRANSP> 5
 0.000000e+000 1.000000e+000 0.000000e+000 0.000000e+000 0.000000e+000
 0.000000e+000 6.892804e-001 3.107196e-001 0.000000e+000 0.000000e+000
 0.000000e+000 0.000000e+000 4.418834e-001 5.581166e-001 0.000000e+000
 0.000000e+000 0.000000e+000 0.000000e+000 3.140107e-001 6.859893e-001
 0.000000e+000 0.000000e+000 0.000000e+000 0.000000e+000 0.000000e+000
<ENDHMM>
~h "g"
<BEGINHMM>
<NUMSTATES> 5
<STATE> 2
<MEAN> 25
 5.976531e+000 8.746264e+000 1.764494e+000 -8.303226e-001 -1.437146e+000 8.226260e-001 2.213398e+000 -8.586265e-003 -2.386679e+000 -1.926834e+000 -9.085379e-002 -1.054993e+000 -9.182851e-001 -1.581069e-001 -8.119923e-003 1.221032e+000 9.920725e-001 4.995540e-002 -8.783215e-002 -1.770626e-001 7.554661e-001 -9.485538e-002 -4.779783e-001 6.813391e-002 -7.620646e-001
<VARIANCE> 25
 1.404997e+001 1.770360e+001 2.773816e+001 3.283876e+001 2.851387e+001 3.559707e+001 2.985627e+001 3.495103e+001 3.745789e+001 3.826960e+001 3.594442e+001 2.801561e+001 9.530094e-001 1.999508e+000 2.492169e+000 2.778786e+000 2.853668e+000 3.691238e+000 3.266091e+000 3.527268e+000 3.560537e+000 3.528332e+000 3.759422e+000 2.335188e+000 1.251282e+000
<GCONST> 9.863922e+001
<STATE> 3
<MEAN> 25
 3.855557e+000 6.859444e+000 3.490441e-001 1.036782e+000 1.330158e+000 2.117641e+000 7.516737e-001 -5.378324e-001 -2.521738e+000 -1.107572e+000 2.915884e-001 -7.481079e-001 -1.206331e+000 -1.985705e+000 -1.606173e+000 -1.529149e-001 9.597828e-001 6.843268e-001 -8.920476e-001 -4.199975e-001 -3.837664e-001 6.053415e-001 4.997530e-001 3.447990e-001 1.469356e+000
<VARIANCE> 25
 1.544753e+001 2.215338e+001 4.365554e+001 3.448063e+001 3.619538e+001 4.532308e+001 3.135645e+001 3.665973e+001 3.949014e+001 3.595884e+001 3.311438e+001 2.357776e+001 2.064995e+000 3.885052e+000 5.846504e+000 5.664985e+000 4.577796e+000 6.714539e+000 4.801441e+000 5.155434e+000 5.636801e+000 4.832096e+000 4.515811e+000 3.338445e+000 2.208149e+000
<GCONST> 1.064944e+002
<STATE> 4
<MEAN> 25
 1.459561e+000 3.021041e-001 -3.807296e+000 -9.315341e-001 2.195006e+000 2.353599e+000 -2.207015e+000 -1.656533e+000 -4.029146e+000 1.566498e+000 2.638701e+000 2.340093e-001 -2.943759e-001 -1.540763e+000 -1.878048e-001 -7.224891e-001 -7.474230e-001 -7.048864e-001 -7.530017e-001 -7.748735e-001 -7.438464e-002 9.434032e-001 7.092584e-001 7.950190e-002 2.078876e+000
<VARIANCE> 25
 2.881315e+001 3.866942e+001 7.272614e+001 6.507761e+001 5.497627e+001 7.762561e+001 5.205054e+001 5.060927e+001 5.265509e+001 4.957350e+001 3.961337e+001 2.770146e+001 3.150595e+000 3.883222e+000 4.083240e+000 4.825668e+000 5.028813e+000 5.242674e+000 5.004179e+000 5.566605e+000 5.535362e+000 5.061510e+000 5.549484e+000 3.507650e+000 2.716715e+000
<GCONST> 1.119132e+002
<TRANSP> 5
 0.000000e+000 1.000000e+000 0.000000e+000 0.000000e+000 0.000000e+000
 0.000000e+000 3.400620e-001 6.599380e-001 0.000000e+000 0.000000e+000
 0.000000e+000 0.000000e+000 2.245106e-001 7.754894e-001 0.000000e+000
 0.000000e+000 0.000000e+000 0.000000e+000 4.280294e-001 5.719705e-001
 0.000000e+000 0.000000e+000 0.000000e+000 0.000000e+000 0.000000e+000
<ENDHMM>
~h "h"
<BEGINHMM>
<NUMSTATES> 5
<STATE> 2
<MEAN> 25
 -3.764121e+000 3.521931e+000 7.868077e+000 4.530252e+000 1.480177e+000 -8.469579e-001 2.011497e+000 1.554127e+000 -2.899247e+000 7.546472e-001 3.599670e-001 3.627603e-001 -1.562274e+000 -1.203421e+000 -1.507057e+000 2.944545e-001 2.102408e+000 3.317283e-001 -2.469146e-001 9.587058e-001 1.255079e+000 -1.680228e-001 -3.006169e-003 4.580211e-001 8.989602e-002
<VARIANCE> 25
 3.070560e+001 3.279872e+001 6.048421e+001 3.083511e+001 3.590838e+001 4.444544e+001 3.520359e+001 4.842907e+001 3.929807e+001 3.288246e+001 2.813102e+001 2.225685e+001 2.023786e+000 2.997553e+000 4.722343e+000 3.206377e+000 4.667429e+000 4.343697e+000 4.182397e+000 4.542589e+000 4.148028e+000 3.524850e+000 3.831466e+000 2.388441e+000 1.837801e+000
<GCONST> 1.047918e+002
<STATE> 3
<MEAN> 25
 -5.353135e+000 -1.713120e+000 -5.122545e-001 3.695013e+000 7.346990e+000 8.379875e-001 -1.707894e+000 3.034772e+000 3.505170e-001 1.410962e+000 -4.307663e-001 5.031801e-001 -6.881682e-001 -1.035321e+000 -1.559433e+000 -7.446974e-001 6.954412e-001 7.622969e-001 -4.108246e-001 -4.695049e-001 8.675888e-001 5.347415e-001 8.447567e-002 -4.500684e-002 1.815180e-001
<VARIANCE> 25
 2.415796e+001 3.524174e+001 7.839199e+001 3.284434e+001 5.399915e+001 5.858906e+001 5.451655e+001 4.900856e+001 4.027195e+001 4.356998e+001 3.570935e+001 2.465708e+001 2.102263e+000 2.056639e+000 4.300172e+000 2.468355e+000 3.856243e+000 4.637459e+000 4.110640e+000 3.517464e+000 3.715101e+000 3.719491e+000 3.112518e+000 2.723752e+000 1.882240e+000
<GCONST> 1.055252e+002
<STATE> 4
<MEAN> 25
 -8.279886e+000 -2.058137e+000 2.007960e+000 -9.761639e-001 2.367450e+000 2.414521e+000 1.615644e+000 1.421013e-001 3.387157e-001 2.328892e+000 2.718332e-001 1.296025e+000 8.304323e-001 2.798278e-001 1.819844e-001 -5.829319e-001 -1.105724e+000 -3.375973e-001 -4.856246e-002 -7.340257e-001 -3.911777e-001 -4.295279e-001 -1.450413e-002 1.024453e-001 2.960747e-002
<VARIANCE> 25
 3.860839e+001 3.402015e+001 9.228979e+001 3.108710e+001 5.333187e+001 5.264422e+001 4.850569e+001 4.025079e+001 4.029372e+001 3.477650e+001 3.804413e+001 2.388865e+001 3.770337e+000 2.068599e+000 2.935760e+000 3.039457e+000 3.914565e+000 4.426363e+000 4.036860e+000 3.667191e+000 4.028254e+000 3.273838e+000 3.139983e+000 2.188477e+000 1.562320e+000
<GCONST> 1.054060e+002
<TRANSP> 5
 0.000000e+000 1.000000e+000 0.000000e+000 0.000000e+000 0.000000e+000
 0.000000e+000 3.927572e-001 6.072427e-001 0.000000e+000 0.000000e+000
 0.000000e+000 0.000000e+000 4.359449e-001 5.640550e-001 0.000000e+000
 0.000000e+000 0.000000e+000 0.000000e+000 6.731693e-001 3.268307e-001
 0.000000e+000 0.000000e+000 0.000000e+000 0.000000e+000 0.000000e+000
<ENDHMM>
~h "i"
<BEGINHMM>
<NUMSTATES> 5
<STATE> 2
<MEAN> 25
 -5.069710e-001 -1.893609e-001 1.010874e+001 8.321532e-001 -9.297200e+000 -4.685311e+000 -8.657680e-001 -2.267169e+000 -7.473050e+000 8.150768e-001 2.205086e+000 9.680253e-001 4.182195e-001 3.259417e-001 1.965390e+000 -5.062937e-001 -1.972104e+000 8.458578e-003 -1.122930e-001 -1.022161e+000 -1.716799e+000 1.054123e+000 9.826755e-003 -1.036104e-001 9.316393e-001
<VARIANCE> 25
 1.429901e+001 2.038230e+001 2.437164e+001 2.972065e+001 2.707990e+001 4.478698e+001 3.608091e+001 5.022862e+001 3.444993e+001 4.201830e+001 3.038669e+001 2.060152e+001 3.716196e+000 2.125808e+000 2.807439e+000 3.212141e+000 3.427409e+000 4.662740e+000 4.697441e+000 4.518122e+000 3.876957e+000 3.955462e+000 4.213318e+000 2.492499e+000 1.893286e+000
<GCONST> 1.023397e+002
<STATE> 3
<MEAN> 25
 -8.533558e-001 2.727560e+000 1.339400e+001 -1.879358e+000 -1.044156e+001 -5.272776e-001 -1.327253e+000 -6.215682e+000 -7.353118e+000 3.638194e+000 -4.357001e-001 5.724053e-001 1.736455e-001 5.161581e-001 4.159390e-002 3.838199e-001 2.592489e-001 1.272882e-001 1.487604e-001 -7.240886e-002 1.704153e-001 -9.633428e-002 -1.172440e-001 -5.681304e-002 -4.472493e-001
<VARIANCE> 25
 8.235883e+000 2.212468e+001 2.211653e+001 3.776682e+001 2.429038e+001 5.479703e+001 3.593995e+001 4.420090e+001 3.849934e+001 4.674622e+001 3.818585e+001 2.443091e+001 1.008767e+000 1.510234e+000 1.470840e+000 1.934948e+000 1.776594e+000 2.441781e+000 2.182003e+000 2.368856e+000 1.896452e+000 2.013223e+000 1.970649e+000 1.360337e+000 9.918238e-001
<GCONST> 9.367247e+001
<STATE> 4
<MEAN> 25
 9.462447e-001 3.834551e+000 9.623305e+000 3.826614e+000 -5.880842e+000 -3.962064e+000 4.980475e-001 -2.456620e+000 -5.252744e+000 2.107156e-001 1.257660e+000 5.495008e-001 6.842213e-002 7.795026e-001 -1.261909e+000 8.310215e-001 2.098910e+000 1.484652e-001 1.178027e-001 4.210110e-001 1.418224e+000 -6.228855e-001 -2.074633e-001 -1.411717e-001 -1.541837e+000
<VARIANCE> 25
 1.257680e+001 2.707006e+001 2.317874e+001 2.763323e+001 3.543857e+001 4.279316e+001 3.678507e+001 4.001811e+001 3.854953e+001 3.736867e+001 2.673004e+001 2.070150e+001 1.957278e+000 2.600456e+000 2.291951e+000 2.666249e+000 2.915528e+000 3.836124e+000 3.727448e+000 3.985552e+000 3.382747e+000 3.548599e+000 3.434759e+000 2.448379e+000 1.891394e+000
<GCONST> 1.002490e+002
<TRANSP> 5
 0.000000e+000 1.000000e+000 0.000000e+000 0.000000e+000 0.000000e+000
 0.000000e+000 4.961058e-001 5.038942e-001 0.000000e+000 0.000000e+000
 0.000000e+000 0.000000e+000 6.570385e-001 3.429615e-001 0.000000e+000
 0.000000e+000 0.000000e+000 0.000000e+000 6.096368e-001 3.903632e-001
 0.000000e+000 0.000000e+000 0.000000e+000 0.000000e+000 0.000000e+000
<ENDHMM>
~h "j"
<BEGINHMM>
<NUMSTATES> 5
<STATE> 2
<MEAN> 25
 -1.159501e+000 2.031376e+000 1.097400e+001 -8.723176e-001 -8.017375e+000 -1.612845e+000 -1.171575e+000 -2.437846e+000 -5.146344e+000 6.225447e-001 7.925523e-001 5.728210e-001 -6.124398e-002 3.139064e-002 1.446818e+000 -7.204298e-001 -1.597893e+000 -7.674940e-002 -4.332140e-001 -4.358242e-001 -6.688447e-001 6.698840e-001 2.610047e-001 3.058988e-001 7.876524e-001
<VARIANCE> 25
 1.421083e+001 3.431151e+001 3.516696e+001 3.684488e+001 3.047682e+001 4.422808e+001 3.666097e+001 4.605287e+001 3.462410e+001 3.660555e+001 2.488086e+001 2.084985e+001 3.238879e+000 2.904087e+000 3.193942e+000 3.274008e+000 3.957051e+000 3.783172e+000 3.865389e+000 3.671399e+000 3.497923e+000 3.226286e+000 2.616860e+000 2.081059e+000 2.568399e+000
<GCONST> 1.023462e+002
<STATE> 3
<MEAN> 25
 -8.900692e-001 2.644175e-002 1.062486e+001 -2.335490e+000 -1.094796e+001 -2.946951e+000 -2.627488e-001 -2.873476e+000 -5.160354e+000 3.493454e+000 1.897124e+000 1.568438e+000 3.542384e-001 -9.729881e-001 -1.087899e+000 2.349833e-001 -2.598592e-001 -1.031029e+000 5.797598e-001 1.168571e+000 4.353600e-001 2.405650e-001 3.650797e-001 2.103738e-001 4.869127e-001
<VARIANCE> 25
 7.010493e+000 1.748614e+001 2.342640e+001 3.335782e+001 2.119992e+001 3.811447e+001 3.053568e+001 3.542792e+001 3.166993e+001 3.797058e+001 2.486819e+001 2.018308e+001 7.655911e-001 1.520667e+000 2.004548e+000 1.662046e+000 1.453508e+000 2.138208e+000 2.494311e+000 2.561399e+000 2.094643e+000 1.918456e+000 1.485032e+000 1.262712e+000 8.844868e-001
<GCONST> 9.064938e+001
<STATE> 4
<MEAN> 25
 8.280630e-001 -3.485660e+000 5.047140e+000 -8.957503e-002 -8.709272e+000 -6.444543e+000 1.186554e+000 3.195649e+000 -3.014366e+000 1.519450e+000 1.756730e+000 1.742409e+000 6.662122e-001 -7.914854e-001 -2.098928e+000 3.840645e-001 1.704956e+000 -2.054335e-001 -2.279152e-001 1.216305e+000 1.240546e+000 -5.995042e-001 -7.729009e-001 -1.604580e-001 -2.696382e-002
<VARIANCE> 25
 7.011694e+000 1.635310e+001 2.264771e+001 3.092496e+001 2.388271e+001 3.396963e+001 5.225339e+001 3.219268e+001 3.473085e+001 3.231217e+001 2.730046e+001 1.696642e+001 5.763464e-001 1.501049e+000 2.583992e+000 1.737812e+000 2.168568e+000 2.422455e+000 3.668396e+000 3.331717e+000 2.881854e+000 3.258377e+000 2.081848e+000 1.755012e+000 8.510482e-001
<GCONST> 9.342150e+001
<TRANSP> 5
 0.000000e+000 1.000000e+000 0.000000e+000 0.000000e+000 0.000000e+000
 0.000000e+000 5.604332e-001 4.395668e-001 0.000000e+000 0.000000e+000
 0.000000e+000 0.000000e+000 5.671741e-001 4.328259e-001 0.000000e+000
 0.000000e+000 0.000000e+000 0.000000e+000 4.704598e-001 5.295402e-001
 0.000000e+000 0.000000e+000 0.000000e+000 0.000000e+000 0.000000e+000
<ENDHMM>
~h "k"
<BEGINHMM>
<NUMSTATES> 5
<STATE> 2
<MEAN> 25
 -3.783222e+000 1.106110e+000 -2.240511e+000 3.663088e+000 5.295328e+000 9.166446e-001 1.442569e+000 2.929513e+000 2.635281e+000 -3.247278e-002 -5.592824e-001 -4.609816e-001 -1.152810e+000 -2.623465e+000 -1.843492e+000 -7.650580e-001 3.881507e-001 3.170024e-001 -9.539515e-001 7.543595e-002 -6.590576e-001 6.151020e-001 3.472618e-001 8.560832e-001 1.851133e+000
<VARIANCE> 25
 2.598930e+001 3.747699e+001 3.876217e+001 3.557906e+001 4.146431e+001 4.050146e+001 4.106710e+001 4.171795e+001 3.981532e+001 3.273526e+001 3.359501e+001 2.387212e+001 3.558342e+000 3.859789e+000 5.540235e+000 4.694021e+000 5.759572e+000 6.983774e+000 4.734627e+000 4.660352e+000 4.686502e+000 4.240829e+000 3.366700e+000 3.320572e+000 3.969103e+000
<GCONST> 1.082384e+002
<STATE> 3
<MEAN> 25
 -6.654107e+000 -6.390658e+000 -9.598521e+000 -2.860778e-001 6.222373e+000 1.750901e+000 -1.929434e+000 2.245962e+000 7.592007e-001 2.826280e+000 1.337928e+000 2.002131e+000 4.777042e-001 -1.203871e+000 -8.335790e-001 -2.071091e+000 -1.407723e+000 -4.771751e-001 -9.141005e-001 -4.846877e-001 -1.093296e+000 7.153874e-001 4.895255e-001 2.156325e-001 2.200173e+000
<VARIANCE> 25
 1.738535e+001 2.973091e+001 6.054890e+001 4.835411e+001 5.567625e+001 7.653342e+001 4.683210e+001 4.451759e+001 4.502798e+001 3.434185e+001 3.672539e+001 2.793272e+001 4.177007e+000 2.783300e+000 5.018974e+000 3.720796e+000 4.594702e+000 5.517213e+000 4.255772e+000 4.115461e+000 4.628731e+000 3.790845e+000 3.795884e+000 2.935506e+000 2.297828e+000
<GCONST> 1.080372e+002
<STATE> 4
<MEAN> 25
 -3.587217e+000 -3.046496e+000 -5.602202e+000 -4.008836e+000 1.035236e+000 -3.895427e-001 -2.268138e+000 2.012041e-001 -1.471063e+000 2.381539e+000 1.630095e+000 7.034919e-001 2.365099e+000 9.996610e-001 1.746346e+000 -9.745802e-001 -1.879858e+000 -7.627411e-001 -3.192752e-001 -8.181646e-001 -1.183111e+000 -2.230878e-001 2.228073e-001 -7.798271e-001 1.320419e+000
<VARIANCE> 25
 4.080368e+001 2.232018e+001 7.145831e+001 3.931720e+001 4.076455e+001 7.348750e+001 4.138242e+001 4.214514e+001 4.298714e+001 3.574065e+001 4.116930e+001 2.625348e+001 2.460300e+000 3.045107e+000 3.285403e+000 3.626792e+000 3.611673e+000 4.225908e+000 4.419195e+000 4.680745e+000 4.971156e+000 4.218982e+000 5.440935e+000 2.961054e+000 2.291457e+000
<GCONST> 1.073920e+002
<TRANSP> 5
 0.000000e+000 1.000000e+000 0.000000e+000 0.000000e+000 0.000000e+000
 0.000000e+000 5.231611e-001 4.768389e-001 0.000000e+000 0.000000e+000
 0.000000e+000 0.000000e+000 3.704951e-001 6.295049e-001 0.000000e+000
 0.000000e+000 0.000000e+000 0.000000e+000 5.274885e-001 4.725115e-001
 0.000000e+000 0.000000e+000 0.000000e+000 0.000000e+000 0.000000e+000
<ENDHMM>
~h "l"
<BEGINHMM>
<NUMSTATES> 5
<STATE> 2
<MEAN> 25
 3.731022e+000 -3.437059e+000 -1.519638e+000 -1.816285e+000 -2.806934e+000 2.719688e+000 -1.972659e+000 -8.066378e+000 -1.081545e+000 3.007420e+000 4.035291e+000 7.927442e-002 1.634633e+000 4.239181e-002 4.809663e-001 -9.362795e-001 -4.871230e-001 2.973760e-001 -6.568072e-001 -1.948721e+000 -6.365557e-001 9.694107e-001 2.066747e-001 1.430189e-001 3.565475e-001
<VARIANCE> 25
 3.718491e+001 2.034794e+001 3.830975e+001 3.413597e+001 3.303706e+001 5.064441e+001 5.271578e+001 4.338055e+001 4.642934e+001 3.725483e+001 3.678002e+001 2.920002e+001 3.554964e+000 2.865959e+000 3.237717e+000 5.409257e+000 4.621912e+000 5.877337e+000 5.509142e+000 4.909694e+000 4.977637e+000 4.642462e+000 5.197567e+000 3.389366e+000 2.547978e+000
<GCONST> 1.080722e+002
<STATE> 3
<MEAN> 25
 5.981478e+000 -2.914808e+000 -9.350898e-001 -3.462760e+000 -2.687121e+000 3.592239e+000 -2.528422e+000 -9.569362e+000 -1.947210e+000 4.289207e+000 3.992657e+000 3.404769e-001 5.798786e-001 -1.301844e-001 -6.085004e-002 -1.052482e+000 3.467169e-001 3.142321e-001 -7.165921e-001 5.044884e-001 3.609898e-001 2.630115e-001 -5.213661e-001 -1.117455e-001 6.702029e-001
<VARIANCE> 25
 2.203800e+001 1.889476e+001 3.852028e+001 3.803844e+001 3.734353e+001 4.738818e+001 5.916382e+001 4.376508e+001 4.998496e+001 4.175056e+001 4.299500e+001 2.796385e+001 2.336880e+000 1.675019e+000 3.015373e+000 3.635353e+000 3.580784e+000 4.795456e+000 4.011786e+000 4.210002e+000 4.562364e+000 3.673364e+000 3.773348e+000 3.422554e+000 1.366426e+000
<GCONST> 1.044600e+002
<STATE> 4
<MEAN> 25
 4.988767e+000 -4.249966e+000 -2.154750e+000 -5.305063e+000 -1.590504e-001 3.423857e+000 -4.684103e+000 -4.930156e+000 1.668256e+000 3.954433e+000 1.386278e+000 -1.093814e+000 -3.064324e-001 -4.678157e-001 -7.382284e-001 -2.255046e-001 6.240921e-001 -3.030176e-001 4.905712e-001 2.235991e+000 3.933992e-001 -7.087132e-001 -9.921465e-001 -4.253648e-001 7.643701e-001
<VARIANCE> 25
 1.537120e+001 1.769945e+001 4.532170e+001 4.269052e+001 3.770550e+001 5.677468e+001 5.273965e+001 4.353030e+001 4.297253e+001 3.928712e+001 4.222438e+001 3.045148e+001 1.219986e+000 1.726217e+000 2.782797e+000 3.442343e+000 4.146560e+000 5.648122e+000 4.747831e+000 4.892972e+000 4.499657e+000 3.745828e+000 3.824453e+000 3.214401e+000 6.344387e-001
<GCONST> 1.033012e+002
<TRANSP> 5
 0.000000e+000 1.000000e+000 0.000000e+000 0.000000e+000 0.000000e+000
 0.000000e+000 2.811928e-001 7.188072e-001 0.000000e+000 0.000000e+000
 0.000000e+000 0.000000e+000 2.579954e-001 7.420046e-001 0.000000e+000
 0.000000e+000 0.000000e+000 0.000000e+000 3.985873e-001 6.014127e-001
 0.000000e+000 0.000000e+000 0.000000e+000 0.000000e+000 0.000000e+000
<ENDHMM>
~h "m"
<BEGINHMM>
<NUMSTATES> 5
<STATE> 2
<MEAN> 25
 7.287613e+000 1.101188e+000 1.149117e+000 4.494890e+000 1.821483e+000 -9.742677e-001 1.429373e+000 -6.652803e+000 -5.235759e+000 8.552829e-001 4.483511e-001 -3.246821e+000 2.767482e-001 8.423640e-001 7.168488e-001 1.499587e+000 3.825841e-001 -5.890527e-001 3.462382e-001 -1.557291e+000 -8.950434e-001 2.775567e-001 1.137087e-001 -3.472461e-001 -6.428455e-001
<VARIANCE> 25
 7.011293e+000 1.835015e+001 1.439850e+001 2.298278e+001 2.892434e+001 3.267725e+001 3.554753e+001 4.111846e+001 3.771471e+001 3.461556e+001 3.148731e+001 2.584622e+001 7.759370e-001 1.732880e+000 1.698821e+000 2.045381e+000 2.347001e+000 2.790316e+000 2.610822e+000 3.168069e+000 3.195602e+000 2.503018e+000 2.489174e+000 2.184700e+000 1.527196e+000
<GCONST> 9.435059e+001
<STATE> 3
<MEAN> 25
 7.125615e+000 2.745111e+000 2.371603e+000 5.812173e+000 2.479033e+000 -1.179625e+000 1.718941e+000 -7.533189e+000 -5.385734e+000 3.581664e-001 -1.446195e-001 -2.971679e+000 -2.899003e-001 5.779390e-002 2.873615e-001 -2.115015e-001 -5.191936e-002 2.771061e-001 -2.008351e-001 7.594556e-001 3.010703e-001 -5.057415e-001 -1.519664e-001 2.614781e-001 3.759068e-002
<VARIANCE> 25
 7.182883e+000 1.989818e+001 1.413307e+001 2.434433e+001 2.717237e+001 3.556534e+001 3.398434e+001 4.242858e+001 4.118015e+001 3.679744e+001 3.602677e+001 2.691755e+001 5.411372e-001 1.637333e+000 1.309507e+000 1.483981e+000 1.719881e+000 1.910500e+000 2.093395e+000 2.548474e+000 2.406276e+000 1.988085e+000 2.046262e+000 1.721233e+000 1.390460e+000
<GCONST> 9.165900e+001
<STATE> 4
<MEAN> 25
 6.023827e+000 -1.422109e-001 1.661629e+000 3.227680e+000 1.808096e+000 -7.954506e-002 -2.695224e-001 -2.860738e+000 -3.646000e+000 -1.430874e+000 -3.282824e-001 -2.319161e+000 -1.200089e+000 -1.144346e+000 3.134958e-001 -1.843606e+000 -1.091212e+000 9.155373e-001 -4.214177e-001 2.409785e+000 9.808002e-001 -5.623412e-001 -5.828311e-001 6.504610e-001 1.445422e+000
<VARIANCE> 25
 8.684664e+000 3.144422e+001 2.431804e+001 3.228735e+001 2.917515e+001 3.860624e+001 3.254155e+001 4.925827e+001 4.102224e+001 3.502245e+001 3.264715e+001 2.359174e+001 1.173385e+000 2.045996e+000 5.153257e+000 3.453476e+000 4.909370e+000 3.937751e+000 3.941883e+000 4.746452e+000 5.332209e+000 4.057671e+000 3.738860e+000 3.274242e+000 1.173413e+000
<GCONST> 1.019304e+002
<TRANSP> 5
 0.000000e+000 1.000000e+000 0.000000e+000 0.000000e+000 0.000000e+000
 0.000000e+000 5.392411e-001 4.607589e-001 0.000000e+000 0.000000e+000
 0.000000e+000 0.000000e+000 5.436615e-001 4.563385e-001 0.000000e+000
 0.000000e+000 0.000000e+000 0.000000e+000 4.645956e-001 5.354044e-001
 0.000000e+000 0.000000e+000 0.000000e+000 0.000000e+000 0.000000e+000
<ENDHMM>
~h "n"
<BEGINHMM>
<NUMSTATES> 5
<STATE> 2
<MEAN> 25
 5.985661e+000 1.708274e+000 2.710705e+000 4.469089e+000 5.148357e-004 -2.944427e+000 1.565150e+000 -5.527597e+000 -2.123547e+000 5.492105e-001 -4.861105e+000 -5.344372e-001 4.732317e-001 5.552003e-001 5.316566e-001 6.492676e-001 7.856406e-002 -4.531294e-001 1.758723e-001 -1.075813e+000 -5.462999e-001 2.639327e-001 -6.068782e-001 1.205656e-001 2.011997e-002
<VARIANCE> 25
 9.843695e+000 1.772360e+001 1.690611e+001 2.131571e+001 2.884725e+001 3.238799e+001 3.208392e+001 4.500745e+001 3.770571e+001 3.832548e+001 3.503267e+001 3.008627e+001 1.291831e+000 2.328530e+000 2.089458e+000 1.859432e+000 2.611576e+000 3.031107e+000 2.886141e+000 3.883144e+000 3.129179e+000 2.749275e+000 2.906197e+000 2.354059e+000 2.632107e+000
<GCONST> 9.733383e+001
<STATE> 3
<MEAN> 25
 6.293584e+000 1.137433e+000 2.898713e+000 4.940601e+000 5.914301e-001 -2.409233e+000 1.289473e+000 -6.283094e+000 -2.342937e+000 1.176045e+000 -5.186647e+000 -1.959625e-001 -2.881801e-001 -1.207920e+000 -5.213474e-001 -8.487421e-001 4.565933e-001 1.158935e+000 -7.959865e-001 9.731756e-001 4.049213e-001 -4.252290e-001 1.296689e-001 6.797425e-002 1.218576e+000
<VARIANCE> 25
 7.367782e+000 1.856418e+001 1.671980e+001 2.238343e+001 2.934723e+001 3.456533e+001 3.085280e+001 4.718456e+001 3.810469e+001 3.898656e+001 3.421441e+001 3.072008e+001 8.644029e-001 2.510179e+000 2.341516e+000 1.941348e+000 2.357596e+000 3.227366e+000 2.938498e+000 3.805220e+000 3.411621e+000 2.672540e+000 2.555704e+000 2.212263e+000 1.591903e+000
<GCONST> 9.639655e+001
<STATE> 4
<MEAN> 25
 4.746443e+000 -3.620997e+000 4.749266e-001 9.302368e-001 2.054777e+000 1.333209e+000 -2.107350e+000 -9.506325e-001 -1.744466e-003 -1.381904e+000 -4.708620e+000 -3.738382e-001 -7.067253e-001 -1.517639e+000 -1.318636e+000 -1.752587e+000 3.338747e-001 1.643034e+000 -3.327703e-001 2.079012e+000 3.132441e-001 -8.496492e-001 5.190819e-001 -6.944527e-002 1.618461e+000
<VARIANCE> 25
 9.275916e+000 2.850109e+001 2.713132e+001 2.447542e+001 2.988910e+001 4.146400e+001 3.717445e+001 5.333095e+001 3.598567e+001 3.897271e+001 3.165485e+001 2.715907e+001 1.085566e+000 2.853290e+000 2.937844e+000 2.604131e+000 3.659946e+000 4.370485e+000 4.059271e+000 4.311422e+000 4.574157e+000 3.624672e+000 3.087724e+000 2.759371e+000 1.153433e+000
<GCONST> 1.006330e+002
<TRANSP> 5
 0.000000e+000 1.000000e+000 0.000000e+000 0.000000e+000 0.000000e+000
 0.000000e+000 4.836846e-001 5.163155e-001 0.000000e+000 0.000000e+000
 0.000000e+000 0.000000e+000 3.499075e-001 6.500925e-001 0.000000e+000
 0.000000e+000 0.000000e+000 0.000000e+000 4.061465e-001 5.938535e-001
 0.000000e+000 0.000000e+000 0.000000e+000 0.000000e+000 0.000000e+000
<ENDHMM>
~h "o"
<BEGINHMM>
<NUMSTATES> 5
<STATE> 2
<MEAN> 25
 5.945403e+000 -2.623784e+000 -7.062148e+000 -7.647026e+000 3.712573e-001 6.898191e+000 -3.651661e+000 -2.461136e+000 -8.938203e-001 2.363121e+000 2.571016e+000 -1.618436e+000 7.974738e-001 3.350258e-001 -4.987195e-001 -1.688631e+000 -4.582781e-002 1.412270e+000 3.416847e-001 -2.971436e-002 -5.746821e-001 1.675893e-001 8.766113e-001 -3.518895e-002 3.876559e-001
<VARIANCE> 25
 9.413208e+000 2.173170e+001 1.784637e+001 4.402733e+001 3.863492e+001 4.214071e+001 4.309109e+001 3.388830e+001 4.217071e+001 4.542951e+001 4.392337e+001 2.678549e+001 1.394826e+000 1.485508e+000 2.124726e+000 3.317894e+000 2.991769e+000 3.062908e+000 3.155361e+000 3.688564e+000 3.447691e+000 3.356270e+000 2.927189e+000 2.366863e+000 1.731536e+000
<GCONST> 9.952840e+001
<STATE> 3
<MEAN> 25
 6.800866e+000 -7.717816e-001 -6.970993e+000 -1.135976e+001 -2.131117e-001 1.007072e+001 -5.911129e-001 -2.260345e+000 -2.798746e+000 7.821700e-001 4.368042e+000 5.100326e-002 1.760052e-002 4.311958e-001 3.568317e-001 5.091943e-001 3.595529e-001 -3.031797e-001 -2.026359e-002 -2.676259e-001 -1.325731e-002 2.934048e-001 7.676935e-002 -6.043014e-002 -4.347280e-001
<VARIANCE> 25
 7.570913e+000 1.915361e+001 1.746547e+001 4.203597e+001 4.265306e+001 3.610214e+001 4.284320e+001 3.506199e+001 3.663414e+001 4.583635e+001 3.919382e+001 2.746536e+001 4.520165e-001 1.479382e+000 9.996623e-001 2.449773e+000 2.078623e+000 2.100224e+000 2.675453e+000 2.198730e+000 2.554507e+000 2.555509e+000 2.074604e+000 1.812820e+000 1.037240e+000
<GCONST> 9.356042e+001
<STATE> 4
<MEAN> 25
 6.022003e+000 1.075587e+000 -4.084395e+000 -4.661509e+000 2.645117e+000 4.979383e+000 -2.927031e+000 -3.124396e+000 -4.243384e-001 3.379807e+000 2.352333e+000 -1.735641e+000 -6.383551e-001 1.264942e+000 1.437770e+000 2.055190e+000 2.826329e-001 -1.481734e+000 7.996941e-001 4.232520e-001 6.781601e-001 -5.639046e-001 -8.452680e-001 -3.481926e-002 -1.593347e+000
<VARIANCE> 25
 1.017708e+001 2.822615e+001 2.053097e+001 3.547262e+001 3.294503e+001 3.963206e+001 5.073827e+001 3.704610e+001 4.463271e+001 4.339052e+001 4.391945e+001 2.869405e+001 1.737276e+000 2.480032e+000 1.787380e+000 3.026242e+000 3.230721e+000 3.631380e+000 3.761832e+000 4.348445e+000 4.223736e+000 3.575058e+000 3.669612e+000 2.556427e+000 1.828311e+000
<GCONST> 1.015816e+002
<TRANSP> 5
 0.000000e+000 1.000000e+000 0.000000e+000 0.000000e+000 0.000000e+000
 0.000000e+000 4.786890e-001 5.213110e-001 0.000000e+000 0.000000e+000
 0.000000e+000 0.000000e+000 6.648264e-001 3.351736e-001 0.000000e+000
 0.000000e+000 0.000000e+000 0.000000e+000 5.547880e-001 4.452120e-001
 0.000000e+000 0.000000e+000 0.000000e+000 0.000000e+000 0.000000e+000
<ENDHMM>
~h "p"
<BEGINHMM>
<NUMSTATES> 5
<STATE> 2
<MEAN> 25
 9.900780e-001 5.144878e+000 3.945152e-001 9.010898e-001 1.474943e+000 6.506281e-001 2.337849e+000 2.378153e+000 3.767656e+000 -7.543321e-001 -2.493674e-001 -1.295760e+000 -1.759826e+000 -1.911840e+000 -6.985102e-001 3.572184e-002 -1.621046e-001 1.229309e-001 -8.465777e-001 -1.527237e-001 -1.425843e-001 -6.296235e-002 5.398274e-001 4.556538e-001 1.202900e+000
<VARIANCE> 25
 1.584600e+001 1.442396e+001 1.865861e+001 1.983370e+001 2.042203e+001 2.671881e+001 2.351342e+001 2.915885e+001 2.755118e+001 2.487773e+001 3.114297e+001 2.327323e+001 1.434521e+000 2.724309e+000 2.276776e+000 2.085648e+000 2.377169e+000 2.952491e+000 2.860058e+000 2.851200e+000 2.725198e+000 2.492125e+000 2.646236e+000 2.089560e+000 3.886285e+000
<GCONST> 9.519189e+001
<STATE> 3
<MEAN> 25
 -5.260228e+000 -3.801546e+000 -2.674731e+000 1.512615e+000 1.407169e+000 1.354519e+000 -1.554531e+000 1.410688e+000 2.783545e+000 -8.587190e-001 1.739695e+000 2.586851e-001 1.952782e-001 -2.691743e+000 -1.629373e+000 -1.176179e+000 -1.069942e+000 -2.239485e-001 -1.740165e+000 -7.009916e-001 -9.777955e-001 3.136402e-001 6.392660e-001 3.866701e-001 3.961829e+000
<VARIANCE> 25
 1.232162e+001 2.400098e+001 2.186082e+001 1.966410e+001 2.549254e+001 3.066898e+001 3.208072e+001 3.269920e+001 2.453168e+001 2.404459e+001 3.201655e+001 1.988940e+001 2.508014e+000 2.089143e+000 3.388618e+000 4.063143e+000 3.692015e+000 5.285900e+000 3.448805e+000 4.128043e+000 3.720942e+000 3.466617e+000 3.896777e+000 2.799840e+000 2.633774e+000
<GCONST> 9.997438e+001
<STATE> 4
<MEAN> 25
 2.137816e-001 -4.388800e+000 -6.109581e+000 -3.172373e+000 -1.121115e+000 9.539417e-001 -3.273778e+000 -4.183100e-001 -1.681062e-001 -7.317954e-002 2.325910e+000 2.612046e-001 2.599618e+000 -9.681142e-002 -6.022550e-001 -2.077322e+000 -1.224289e+000 3.731707e-001 -3.388804e-001 -6.813354e-001 -1.199583e+000 3.984331e-001 1.049343e-001 -1.701325e-002 2.580416e+000
<VARIANCE> 25
 2.262992e+001 1.846656e+001 2.613329e+001 4.234963e+001 2.963003e+001 3.996519e+001 3.156515e+001 3.167755e+001 2.682959e+001 2.487950e+001 2.764581e+001 2.117799e+001 2.163602e+000 3.591130e+000 3.896548e+000 8.929091e+000 4.075298e+000 6.189452e+000 4.343226e+000 4.520394e+000 4.257211e+000 3.980146e+000 5.288188e+000 2.802618e+000 3.089324e+000
<GCONST> 1.043103e+002
<TRANSP> 5
 0.000000e+000 1.000000e+000 0.000000e+000 0.000000e+000 0.000000e+000
 0.000000e+000 5.787455e-001 4.212545e-001 0.000000e+000 0.000000e+000
 0.000000e+000 0.000000e+000 3.267537e-001 6.732463e-001 0.000000e+000
 0.000000e+000 0.000000e+000 0.000000e+000 3.284189e-001 6.715811e-001
 0.000000e+000 0.000000e+000 0.000000e+000 0.000000e+000 0.000000e+000
<ENDHMM>
~h "r"
<BEGINHMM>
<NUMSTATES> 5
<STATE> 2
<MEAN> 25
 2.566988e+000 -3.551676e+000 -2.499257e-001 1.603800e+000 -2.727735e+000 -3.039400e+000 -4.712689e+000 9.332207e-001 4.450749e+000 8.125653e-001 -2.220115e-001 -1.081661e-001 8.598314e-001 -5.922953e-001 1.308639e+000 8.404022e-001 -7.362317e-001 4.661009e-001 -6.212760e-001 2.376544e-001 5.993142e-001 -2.580746e-001 -1.433176e-001 1.119106e-001 -1.275896e-001
<VARIANCE> 25
 1.302810e+001 1.862855e+001 3.156256e+001 2.407099e+001 2.888542e+001 4.289679e+001 3.372995e+001 3.920285e+001 3.128862e+001 3.368442e+001 2.823441e+001 2.528552e+001 2.368909e+000 2.251571e+000 3.151446e+000 3.159481e+000 3.428510e+000 4.569407e+000 3.633298e+000 4.113223e+000 3.038057e+000 3.484845e+000 3.401702e+000 2.534575e+000 1.717534e+000
<GCONST> 1.003951e+002
<STATE> 3
<MEAN> 25
 3.134211e+000 -5.701361e+000 1.522751e+000 3.111058e+000 -4.128036e+000 -1.443745e+000 -4.958033e+000 1.502950e+000 4.765972e+000 2.388526e-001 -3.548441e-001 7.548209e-001 5.449119e-001 -1.181273e+000 -1.556267e-002 -1.519383e-001 -6.562166e-001 -8.353334e-002 1.534168e-001 5.274919e-001 -4.835562e-001 1.409631e-001 -2.114177e-001 1.482244e-001 4.249750e-001
<VARIANCE> 25
 1.307164e+001 2.389967e+001 3.189232e+001 2.547861e+001 3.433350e+001 3.760329e+001 3.207408e+001 4.061274e+001 3.229020e+001 3.378893e+001 2.804452e+001 2.327554e+001 1.545427e+000 2.046622e+000 3.229000e+000 2.285772e+000 2.643582e+000 3.504985e+000 3.016618e+000 4.156155e+000 2.784490e+000 3.153569e+000 3.068166e+000 2.299216e+000 1.323991e+000
<GCONST> 9.851519e+001
<STATE> 4
<MEAN> 25
 4.343785e+000 -7.651701e+000 -1.193418e-001 1.505351e+000 -5.020957e+000 -2.547610e+000 -4.266856e+000 2.681886e+000 2.918370e+000 1.080930e+000 -6.951599e-001 4.168681e-001 3.472035e-001 -4.070071e-001 -4.029629e-001 -8.082946e-001 1.234017e-001 -1.650936e-001 7.927289e-001 3.152111e-001 -1.080350e+000 3.081309e-001 -1.488714e-001 -2.021089e-001 5.104840e-001
<VARIANCE> 25
 1.321522e+001 2.367662e+001 3.840072e+001 2.292990e+001 2.970773e+001 3.884295e+001 3.545262e+001 4.550330e+001 3.577810e+001 3.442669e+001 3.604844e+001 2.721601e+001 1.590225e+000 2.136970e+000 2.630535e+000 2.480572e+000 3.512613e+000 3.923640e+000 3.273034e+000 4.499725e+000 3.338974e+000 3.398480e+000 3.713527e+000 2.250196e+000 1.195100e+000
<GCONST> 1.000573e+002
<TRANSP> 5
 0.000000e+000 1.000000e+000 0.000000e+000 0.000000e+000 0.000000e+000
 0.000000e+000 3.880554e-001 6.119447e-001 0.000000e+000 0.000000e+000
 0.000000e+000 0.000000e+000 2.998120e-001 7.001880e-001 0.000000e+000
 0.000000e+000 0.000000e+000 0.000000e+000 2.360074e-001 7.639926e-001
 0.000000e+000 0.000000e+000 0.000000e+000 0.000000e+000 0.000000e+000
<ENDHMM>
~h "s"
<BEGINHMM>
<NUMSTATES> 5
<STATE> 2
<MEAN> 25
 -8.982347e+000 9.271399e+000 4.009959e-001 3.865942e+000 5.006679e+000 -2.674866e+000 2.125376e+000 2.348515e+000 1.221040e+000 -1.177515e+000 3.283187e-001 1.183516e+000 -4.120684e+000 2.177809e+000 -1.322447e+000 9.209592e-001 1.614373e+000 4.408380e-001 9.330781e-001 1.191939e+000 7.962750e-001 -4.914749e-001 7.394313e-001 3.158339e-002 7.578258e-002
<VARIANCE> 25
 3.844076e+001 2.698722e+001 2.962139e+001 2.912651e+001 4.368831e+001 4.304084e+001 4.892972e+001 3.918658e+001 3.287140e+001 3.360395e+001 3.724343e+001 2.894913e+001 1.888046e+000 3.392214e+000 3.093401e+000 3.084579e+000 3.544565e+000 4.705212e+000 4.245963e+000 3.933596e+000 3.080672e+000 3.196324e+000 4.053576e+000 3.446858e+000 1.122173e+000
<GCONST> 1.035216e+002
<STATE> 3
<MEAN> 25
 -1.646054e+001 9.715748e+000 -6.541948e+000 5.230661e+000 5.633914e+000 2.196627e-001 2.451573e+000 2.986262e+000 2.357244e+000 -1.786769e+000 2.014929e+000 1.252409e+000 -3.001401e-001 -8.739197e-001 -6.426582e-001 3.365576e-003 -2.211089e-001 2.304944e-001 -1.055809e-001 -1.481485e-001 6.939115e-002 3.346806e-002 5.460633e-002 1.509035e-002 -6.902705e-001
<VARIANCE> 25
 9.880984e+000 2.270397e+001 1.886889e+001 2.840956e+001 2.870155e+001 3.439923e+001 3.286322e+001 2.873268e+001 2.741174e+001 2.487406e+001 3.918732e+001 2.743111e+001 1.286279e+000 1.778666e+000 2.068782e+000 1.472592e+000 1.976980e+000 2.182336e+000 2.497804e+000 2.247325e+000 2.109437e+000 2.110048e+000 1.925643e+000 1.656477e+000 7.672617e-001
<GCONST> 9.241140e+001
<STATE> 4
<MEAN> 25
 -1.164536e+001 3.026560e+000 -5.585692e+000 3.047859e+000 2.449623e+000 -2.594222e+000 1.716832e+000 1.155803e+000 2.056550e+000 -3.394846e-001 1.172101e+000 1.748126e+000 3.117584e+000 -1.241347e+000 9.295881e-001 -6.944875e-001 -1.318185e+000 -8.694206e-001 -8.279502e-001 -1.100685e+000 -4.318142e-001 4.351138e-001 -3.653626e-001 -1.662221e-001 -1.093089e-002
<VARIANCE> 25
 4.066589e+001 3.108982e+001 2.890164e+001 2.930258e+001 4.684251e+001 4.917225e+001 5.018887e+001 3.710225e+001 3.094819e+001 2.624589e+001 3.790318e+001 2.634534e+001 3.746337e+000 2.805337e+000 2.607547e+000 2.561332e+000 3.335752e+000 4.445934e+000 4.295122e+000 3.966223e+000 3.021201e+000 2.710192e+000 3.724225e+000 2.805099e+000 3.057235e+000
<GCONST> 1.040582e+002
<TRANSP> 5
 0.000000e+000 1.000000e+000 0.000000e+000 0.000000e+000 0.000000e+000
 0.000000e+000 6.372944e-001 3.627056e-001 0.000000e+000 0.000000e+000
 0.000000e+000 0.000000e+000 7.961341e-001 2.038659e-001 0.000000e+000
 0.000000e+000 0.000000e+000 0.000000e+000 6.556160e-001 3.443840e-001
 0.000000e+000 0.000000e+000 0.000000e+000 0.000000e+000 0.000000e+000
<ENDHMM>
~h "t"
<BEGINHMM>
<NUMSTATES> 5
<STATE> 2
<MEAN> 25
 -1.792304e+000 6.423354e+000 2.155272e+000 2.769569e+000 1.249616e+000 -1.124533e+000 1.648725e+000 2.124509e+000 3.617779e+000 -3.687153e-001 6.696438e-001 -6.765647e-003 -1.548765e+000 -1.730237e+000 -7.208391e-001 -8.140005e-001 5.322644e-001 6.062970e-001 -2.268533e-002 -1.707863e-001 -2.761686e-001 -2.396326e-001 5.454158e-001 2.525176e-001 5.986748e-001
<VARIANCE> 25
 3.109552e+001 1.585261e+001 2.460883e+001 2.277828e+001 2.679154e+001 3.380009e+001 2.738325e+001 3.145865e+001 2.926080e+001 2.651928e+001 3.258639e+001 2.146598e+001 3.313071e+000 3.033019e+000 2.485235e+000 2.316628e+000 2.753610e+000 3.081455e+000 3.162343e+000 3.089828e+000 2.691583e+000 2.521988e+000 2.712857e+000 2.179792e+000 4.274883e+000
<GCONST> 9.886870e+001
<STATE> 3
<MEAN> 25
 -8.016898e+000 -1.149637e+000 -9.349784e-001 -5.521487e-002 3.559797e+000 1.054345e+000 1.335632e+000 1.323682e+000 1.755534e+000 -1.463558e+000 2.360684e+000 1.343912e+000 -1.305368e+000 -2.299398e+000 -1.456646e+000 -1.194907e+000 -6.523925e-001 -9.122165e-001 -5.253727e-001 -3.945416e-001 -5.009292e-001 -8.370967e-002 3.798110e-001 7.171233e-001 2.977195e+000
<VARIANCE> 25
 2.079176e+001 3.835492e+001 3.079112e+001 2.703054e+001 2.653172e+001 3.104085e+001 3.243528e+001 3.062205e+001 2.565960e+001 2.352357e+001 3.856962e+001 2.258622e+001 4.484910e+000 2.530595e+000 2.912454e+000 2.927072e+000 3.623956e+000 4.077306e+000 4.342165e+000 3.919279e+000 3.353818e+000 3.116672e+000 3.585911e+000 2.859520e+000 3.390320e+000
<GCONST> 1.021348e+002
<STATE> 4
<MEAN> 25
 -6.246901e+000 -1.858239e+000 -3.330713e+000 -1.246245e+000 -8.577969e-001 -4.575860e+000 -1.585542e-001 7.071649e-001 1.677281e+000 -8.583680e-001 8.883997e-001 2.349518e+000 2.091079e+000 -2.460400e-001 2.832609e-001 -1.039302e-001 -1.359288e+000 -1.147254e+000 -1.094741e+000 -5.581796e-001 -4.487142e-001 6.723202e-001 -6.742193e-001 -4.463085e-001 1.599538e+000
<VARIANCE> 25
 2.973165e+001 2.520414e+001 2.393246e+001 2.374811e+001 3.120114e+001 3.780690e+001 4.625672e+001 3.115256e+001 2.750425e+001 2.652100e+001 4.137839e+001 2.647520e+001 4.191027e+000 3.192934e+000 4.703286e+000 2.923197e+000 4.196125e+000 5.121375e+000 4.472356e+000 5.112115e+000 4.388812e+000 3.528136e+000 5.462814e+000 3.566931e+000 3.255306e+000
<GCONST> 1.051479e+002
<TRANSP> 5
 0.000000e+000 1.000000e+000 0.000000e+000 0.000000e+000 0.000000e+000
 0.000000e+000 4.847232e-001 5.152768e-001 0.000000e+000 0.000000e+000
 0.000000e+000 0.000000e+000 3.713822e-001 6.286178e-001 0.000000e+000
 0.000000e+000 0.000000e+000 0.000000e+000 4.731096e-001 5.268904e-001
 0.000000e+000 0.000000e+000 0.000000e+000 0.000000e+000 0.000000e+000
<ENDHMM>
~h "u"
<BEGINHMM>
<NUMSTATES> 5
<STATE> 2
<MEAN> 25
 5.625754e+000 2.044923e+000 -4.631785e+000 -4.704044e+000 -8.674564e-001 3.827863e+000 -6.582981e+000 -5.688348e+000 -3.670745e+000 1.653783e+000 3.973415e+000 4.503520e-002 1.606070e+000 1.414013e+000 -7.663628e-001 -2.341724e+000 -5.692006e-001 1.464621e+000 5.121339e-001 -7.809525e-001 -1.515298e+000 -2.633593e-001 6.777881e-001 4.211732e-001 5.851427e-002
<VARIANCE> 25
 1.248098e+001 2.680625e+001 2.196716e+001 4.870063e+001 3.689832e+001 4.838351e+001 5.429529e+001 4.495410e+001 4.144183e+001 4.882362e+001 3.911523e+001 2.613988e+001 2.805763e+000 1.910533e+000 2.765635e+000 3.419413e+000 4.435640e+000 4.589539e+000 5.266268e+000 6.256854e+000 4.348598e+000 4.659292e+000 3.764339e+000 2.883303e+000 2.436729e+000
<GCONST> 1.052830e+002
<STATE> 3
<MEAN> 25
 8.184024e+000 6.366601e+000 -4.221647e+000 -9.887953e+000 -4.045399e+000 5.457235e+000 -1.060713e+000 -2.064428e+000 -5.260350e+000 -2.043437e+000 2.165162e+000 8.141782e-001 4.549672e-002 2.923939e-001 2.406246e-001 2.888376e-001 1.685003e-001 3.194394e-003 3.072763e-001 -1.082317e-002 1.018767e-001 -1.044899e-001 -1.217585e-001 -2.179844e-004 -3.487874e-001
<VARIANCE> 25
 6.922491e+000 2.534708e+001 2.078223e+001 3.625140e+001 3.447062e+001 4.258062e+001 3.832773e+001 4.313761e+001 4.122354e+001 4.358481e+001 3.599803e+001 2.932541e+001 5.122375e-001 1.995643e+000 1.264273e+000 2.839231e+000 2.510027e+000 2.789924e+000 3.297145e+000 4.010132e+000 2.674315e+000 3.020528e+000 2.928459e+000 2.178553e+000 1.371200e+000
<GCONST> 9.698282e+001
<STATE> 4
<MEAN> 25
 6.097397e+000 4.203880e+000 -2.284301e+000 -2.941746e+000 9.648544e-001 4.351109e+000 -4.128355e+000 -5.750634e+000 -2.405743e+000 9.864312e-001 3.098309e+000 4.620305e-001 -1.085927e+000 2.627540e-002 1.292314e+000 2.108870e+000 7.998559e-001 -1.415151e+000 2.394039e-001 7.102048e-001 1.367608e+000 8.344147e-002 -7.291064e-001 -4.686486e-001 -8.070958e-001
<VARIANCE> 25
 9.923047e+000 2.631535e+001 2.755864e+001 3.458507e+001 3.419478e+001 4.101582e+001 6.212723e+001 5.119913e+001 4.197309e+001 4.685091e+001 4.076568e+001 2.785941e+001 1.656425e+000 3.029718e+000 1.995573e+000 3.325596e+000 3.731360e+000 3.558915e+000 5.050368e+000 5.464010e+000 4.379622e+000 4.425745e+000 3.645119e+000 2.761109e+000 2.291772e+000
<GCONST> 1.038140e+002
<TRANSP> 5
 0.000000e+000 1.000000e+000 0.000000e+000 0.000000e+000 0.000000e+000
 0.000000e+000 5.411162e-001 4.588838e-001 0.000000e+000 0.000000e+000
 0.000000e+000 0.000000e+000 7.259631e-001 2.740369e-001 0.000000e+000
 0.000000e+000 0.000000e+000 0.000000e+000 5.853629e-001 4.146371e-001
 0.000000e+000 0.000000e+000 0.000000e+000 0.000000e+000 0.000000e+000
<ENDHMM>
~h "v"
<BEGINHMM>
<NUMSTATES> 5
<STATE> 2
<MEAN> 25
 3.632964e+000 1.482802e+000 -3.119940e-001 2.151904e+000 2.754542e+000 1.003499e+000 -3.776364e+000 -2.803159e+000 -1.262906e+000 1.331118e+000 1.582389e+000 -1.498806e+000 6.330976e-001 -4.134148e-002 -3.021558e-001 4.279339e-003 1.461276e-001 2.192900e-001 -5.202940e-001 -4.947522e-001 -2.846146e-001 3.097951e-001 6.085709e-002 -3.500255e-001 4.378623e-001
<VARIANCE> 25
 2.461037e+001 2.406140e+001 2.301373e+001 2.568325e+001 2.300410e+001 3.780056e+001 3.036164e+001 3.065100e+001 2.998293e+001 2.864539e+001 2.721639e+001 2.267095e+001 3.066205e+000 3.558842e+000 2.935799e+000 3.925281e+000 2.720617e+000 4.016581e+000 3.272777e+000 3.565570e+000 3.434121e+000 3.395977e+000 3.101727e+000 2.482656e+000 3.578678e+000
<GCONST> 1.009522e+002
<STATE> 3
<MEAN> 25
 4.502907e+000 -5.223720e-001 -1.881569e+000 4.640991e-001 1.899527e+000 9.929937e-001 -4.156569e+000 -2.353623e+000 -9.375100e-001 2.119272e+000 1.790246e+000 -1.979375e+000 1.752274e-001 -1.557504e+000 -5.626788e-001 -1.102499e+000 -1.062957e+000 -6.748404e-001 -5.094068e-002 8.065773e-001 2.009152e-001 3.434204e-001 -2.593535e-001 -1.227067e-001 1.867223e+000
<VARIANCE> 25
 1.765756e+001 2.321283e+001 3.108665e+001 3.716268e+001 2.216101e+001 3.851598e+001 3.062751e+001 2.893393e+001 3.039742e+001 3.058449e+001 3.041379e+001 2.203484e+001 2.314983e+000 3.175162e+000 3.648205e+000 4.106962e+000 2.381454e+000 3.768259e+000 2.944750e+000 3.814628e+000 4.019239e+000 3.221665e+000 3.251130e+000 2.916631e+000 2.623026e+000
<GCONST> 1.009832e+002
<STATE> 4
<MEAN> 25
 4.636156e+000 -3.452989e+000 -2.392204e+000 -1.172325e+000 -5.255743e-001 -1.345618e+000 -3.894276e+000 1.698259e-001 -2.645034e-001 2.403699e+000 9.116233e-001 -1.789305e+000 -1.404314e-001 -1.308379e+000 1.258123e-001 -8.138002e-001 -1.373306e+000 -6.740707e-001 6.388667e-001 9.782412e-001 -1.614122e-002 -9.852100e-003 -4.936792e-001 2.030466e-001 1.754061e+000
<VARIANCE> 25
 1.385739e+001 2.568058e+001 4.166388e+001 4.340932e+001 2.409447e+001 4.882219e+001 3.274514e+001 3.331455e+001 3.418182e+001 3.424176e+001 3.587587e+001 2.567210e+001 1.644917e+000 1.997712e+000 3.244175e+000 3.016880e+000 3.459615e+000 3.644830e+000 2.995199e+000 3.793828e+000 4.621056e+000 3.164349e+000 3.584046e+000 2.906494e+000 1.520083e+000
<GCONST> 1.011577e+002
<TRANSP> 5
 0.000000e+000 1.000000e+000 0.000000e+000 0.000000e+000 0.000000e+000
 0.000000e+000 3.730811e-001 6.269190e-001 0.000000e+000 0.000000e+000
 0.000000e+000 0.000000e+000 1.851023e-001 8.148977e-001 0.000000e+000
 0.000000e+000 0.000000e+000 0.000000e+000 1.289918e-001 8.710083e-001
 0.000000e+000 0.000000e+000 0.000000e+000 0.000000e+000 0.000000e+000
<ENDHMM>
~h "z"
<BEGINHMM>
<NUMSTATES> 5
<STATE> 2
<MEAN> 25
 -4.829072e+000 1.189764e+001 -2.954695e+000 2.275861e+000 5.533123e+000 -5.141205e+000 -3.222698e+000 -3.172601e+000 1.601766e+000 1.898671e+000 -3.783481e-001 2.679026e-001 -3.329383e+000 3.473789e+000 -4.182660e-001 1.485120e+000 8.937762e-001 -1.974320e-001 1.134111e+000 9.346237e-001 6.530003e-001 -1.111980e+000 3.032412e-001 1.749169e-001 -3.899199e-001
<VARIANCE> 25
 2.770201e+001 3.469301e+001 2.256605e+001 3.673927e+001 4.101175e+001 3.366280e+001 3.822698e+001 3.317834e+001 3.493467e+001 4.008430e+001 2.862482e+001 2.364678e+001 1.440862e+000 3.115274e+000 1.971064e+000 2.584140e+000 3.561892e+000 4.861311e+000 3.305676e+000 3.743812e+000 3.005571e+000 3.020340e+000 4.269777e+000 3.277960e+000 6.600398e-001
<GCONST> 1.005990e+002
<STATE> 3
<MEAN> 25
 -1.242794e+001 1.493546e+001 -3.500717e+000 6.022606e+000 5.811944e+000 -2.056175e+000 1.803607e-001 9.944814e-001 2.494752e+000 -1.327235e+000 1.008564e+000 8.161505e-001 -2.693903e-001 -1.122497e+000 -1.207311e-001 5.089874e-003 -3.098838e-002 2.230003e-001 9.371340e-002 1.259759e-001 -2.041892e-002 -1.503488e-001 2.587782e-002 2.088122e-001 -3.421416e-001
<VARIANCE> 25
 1.262555e+001 1.919123e+001 2.103318e+001 3.072130e+001 3.550280e+001 3.738828e+001 3.523943e+001 3.134395e+001 3.089511e+001 2.738245e+001 3.243591e+001 2.180964e+001 2.641837e+000 2.019252e+000 1.546495e+000 1.650082e+000 2.045651e+000 2.733307e+000 2.251342e+000 2.657907e+000 2.059891e+000 1.957337e+000 1.918648e+000 1.604904e+000 6.845676e-001
<GCONST> 9.366970e+001
<STATE> 4
<MEAN> 25
 -4.658903e+000 5.722815e+000 -4.840518e+000 2.199516e+000 3.199997e+000 -5.864569e+000 -2.735132e+000 -2.091805e+000 3.064806e+000 1.723863e+000 -1.167103e+000 1.348392e+000 3.432567e+000 -3.438945e+000 -1.907895e-001 -1.349148e+000 -1.214800e+000 -6.154919e-001 -6.696500e-001 -1.943427e-001 4.170324e-001 1.057839e+000 -9.097211e-001 -2.907765e-001 1.167729e+000
<VARIANCE> 25
 4.080746e+001 3.725360e+001 1.943974e+001 2.720170e+001 2.929394e+001 2.949735e+001 3.325349e+001 3.364112e+001 2.888371e+001 3.872297e+001 2.751404e+001 2.449480e+001 1.789113e+000 2.560462e+000 1.762075e+000 2.388479e+000 2.452950e+000 4.141250e+000 3.479928e+000 4.094668e+000 2.816123e+000 2.656847e+000 4.298635e+000 3.439494e+000 1.170501e+000
<GCONST> 9.965620e+001
<TRANSP> 5
 0.000000e+000 1.000000e+000 0.000000e+000 0.000000e+000 0.000000e+000
 0.000000e+000 6.655969e-001 3.344031e-001 0.000000e+000 0.000000e+000
 0.000000e+000 0.000000e+000 6.869021e-001 3.130979e-001 0.000000e+000
 0.000000e+000 0.000000e+000 0.000000e+000 6.830062e-001 3.169938e-001
 0.000000e+000 0.000000e+000 0.000000e+000 0.000000e+000 0.000000e+000
<ENDHMM>
~h "Cc"
<BEGINHMM>
<NUMSTATES> 5
<STATE> 2
<MEAN> 25
 -9.756010e+000 7.514633e+000 6.171306e+000 -1.228784e+000 5.973306e-001 5.182654e+000 -3.945532e+000 3.709036e+000 2.234436e+000 -1.948264e+000 2.121606e+000 1.528381e-001 -3.872976e+000 -7.440835e-002 1.075534e-001 -7.062210e-001 -2.932422e-001 1.538124e+000 -2.853848e-003 2.584170e-001 2.451192e-001 -8.644558e-001 8.407595e-001 -1.054308e-001 9.131335e-001
<VARIANCE> 25
 5.688277e+001 3.232506e+001 2.806431e+001 2.548099e+001 3.562107e+001 5.712144e+001 3.474894e+001 4.588495e+001 3.270592e+001 3.216946e+001 4.044680e+001 2.825713e+001 2.949137e+000 4.021232e+000 3.013631e+000 2.094963e+000 3.801145e+000 3.864589e+000 3.882073e+000 4.438035e+000 3.225066e+000 3.008209e+000 3.080661e+000 2.367594e+000 3.589958e+000
<GCONST> 1.044155e+002
<STATE> 3
<MEAN> 25
 -2.022310e+001 2.041160e+000 5.359995e+000 -6.422511e-001 -2.779516e+000 6.169807e+000 -6.231675e-002 2.751501e+000 2.650576e+000 -5.512105e+000 4.815403e+000 1.579856e+000 2.444990e-001 -1.817820e+000 -3.584635e-001 6.553078e-001 -9.094592e-001 -1.456526e+000 1.217985e+000 2.635594e-001 -1.795373e-001 -3.390551e-001 4.347009e-001 3.510815e-001 1.180790e-001
<VARIANCE> 25
 7.208607e+000 2.542342e+001 2.484025e+001 2.752887e+001 3.609736e+001 3.599129e+001 3.128534e+001 3.769229e+001 3.528794e+001 2.925762e+001 5.480659e+001 2.706682e+001 3.601102e+000 1.535169e+000 1.874807e+000 1.593289e+000 2.359204e+000 3.144647e+000 2.645922e+000 2.852887e+000 2.401453e+000 2.237893e+000 2.361281e+000 1.806221e+000 9.012957e-001
<GCONST> 9.602717e+001
<STATE> 4
<MEAN> 25
 -1.026432e+001 -2.306953e+000 4.011390e+000 1.114330e+000 -6.016679e+000 -2.541243e+000 -8.513180e-001 2.434716e+000 8.651705e-001 -5.151675e+000 3.645140e+000 1.853156e+000 4.802917e+000 -4.880339e-001 4.582385e-002 3.749044e-001 -9.630750e-001 -2.476486e+000 -1.402123e+000 -1.115280e+000 -1.004170e+000 8.194629e-001 -8.293605e-001 -1.006506e-001 6.392756e-001
<VARIANCE> 25
 5.433672e+001 1.780343e+001 1.958084e+001 2.387271e+001 2.920395e+001 3.659358e+001 3.582956e+001 3.210907e+001 4.212209e+001 2.599377e+001 3.738402e+001 1.949175e+001 1.489172e+000 2.374658e+000 2.477224e+000 2.086864e+000 3.501482e+000 3.664101e+000 2.994163e+000 3.803257e+000 3.346780e+000 2.795153e+000 4.472827e+000 2.475893e+000 1.271425e+000
<GCONST> 9.935137e+001
<TRANSP> 5
 0.000000e+000 1.000000e+000 0.000000e+000 0.000000e+000 0.000000e+000
 0.000000e+000 7.412760e-001 2.587241e-001 0.000000e+000 0.000000e+000
 0.000000e+000 0.000000e+000 7.107952e-001 2.892048e-001 0.000000e+000
 0.000000e+000 0.000000e+000 0.000000e+000 6.463072e-001 3.536929e-001
 0.000000e+000 0.000000e+000 0.000000e+000 0.000000e+000 0.000000e+000
<ENDHMM>
~h "dz"
<BEGINHMM>
<NUMSTATES> 5
<STATE> 2
<MEAN> 25
 -5.407870e+000 8.329504e+000 1.077805e+001 1.219702e+000 -3.656054e+000 5.996739e+000 -5.042927e+000 3.441697e+000 3.203356e+000 -5.053477e+000 1.935121e+000 9.796373e-002 -4.190167e+000 4.724891e-001 1.942843e-001 5.313836e-001 -1.978153e-001 2.534433e+000 -8.486156e-002 -7.132832e-001 1.535404e+000 -5.732275e-001 7.644833e-001 -6.258049e-001 7.436195e-001
<VARIANCE> 25
 4.226105e+001 2.383524e+001 1.626361e+001 1.794760e+001 3.435312e+001 4.015269e+001 3.203999e+001 3.450707e+001 3.088033e+001 2.330560e+001 3.285280e+001 2.299529e+001 1.829965e+000 4.730843e+000 2.463439e+000 2.364737e+000 2.714387e+000 3.599235e+000 5.420359e+000 4.042529e+000 3.396837e+000 3.286099e+000 3.225499e+000 3.034631e+000 2.499583e+000
<GCONST> 1.008788e+002
<STATE> 3
<MEAN> 25
 -1.488920e+001 4.054124e+000 8.749106e+000 4.638271e+000 -5.648749e+000 6.175817e+000 -1.715791e+000 5.620010e-001 3.248051e+000 -6.859509e+000 5.186769e+000 1.285259e+000 1.304815e+000 -1.862091e+000 -1.664511e+000 1.151082e+000 -4.706877e-001 -2.921454e+000 -3.997141e-001 -8.276886e-001 -3.314361e-001 -7.453188e-001 4.893928e-001 7.239702e-001 7.366045e-001
<VARIANCE> 25
 1.485609e+001 1.836889e+001 2.626414e+001 3.390730e+001 3.092599e+001 4.396619e+001 4.441251e+001 3.797156e+001 3.146436e+001 2.913262e+001 4.554437e+001 2.556448e+001 9.163107e+000 2.167480e+000 1.925097e+000 1.652152e+000 3.640331e+000 3.714595e+000 4.670060e+000 2.966908e+000 3.262612e+000 2.683193e+000 2.775715e+000 2.016066e+000 9.714774e-001
<GCONST> 1.001153e+002
<STATE> 4
<MEAN> 25
 -5.503880e-001 -7.510185e-001 2.041905e+000 5.790544e+000 -4.803906e+000 -2.675494e+000 -9.586870e+000 -4.141057e+000 4.795829e+000 -5.171687e+000 3.235548e+000 1.492871e+000 4.224785e+000 -8.023857e-001 -1.996447e+000 -1.126113e+000 1.156505e+000 -3.427761e-001 -2.256845e+000 -2.077527e+000 1.664847e-001 2.438116e+000 -3.833031e-001 -6.200646e-001 -3.562024e-002
<VARIANCE> 25
 2.776913e+001 9.449118e+000 1.507148e+001 2.297072e+001 2.356268e+001 2.271102e+001 3.552760e+001 3.747429e+001 3.486054e+001 3.410117e+001 2.497200e+001 2.063117e+001 2.656976e+000 1.846385e+000 2.082793e+000 2.793784e+000 3.102544e+000 6.009307e+000 3.565970e+000 3.523151e+000 3.325871e+000 3.570644e+000 4.513411e+000 2.401596e+000 4.459022e-001
<GCONST> 9.702338e+001
<TRANSP> 5
 0.000000e+000 1.000000e+000 0.000000e+000 0.000000e+000 0.000000e+000
 0.000000e+000 6.631812e-001 3.368187e-001 0.000000e+000 0.000000e+000
 0.000000e+000 0.000000e+000 6.389826e-001 3.610174e-001 0.000000e+000
 0.000000e+000 0.000000e+000 0.000000e+000 6.239098e-001 3.760902e-001
 0.000000e+000 0.000000e+000 0.000000e+000 0.000000e+000 0.000000e+000
<ENDHMM>
~h "sp"
<BEGINHMM>
<NUMSTATES> 3
<STATE> 2
~s "silst"
<TRANSP> 3
 0.000000e+000 2.002601e-001 7.997400e-001
 0.000000e+000 8.608383e-001 1.391617e-001
 0.000000e+000 0.000000e+000 0.000000e+000
<ENDHMM>
~h "uzdah"
<BEGINHMM>
<NUMSTATES> 5
<STATE> 2
<MEAN> 25
 -5.348225e+000 -5.557101e+000 1.221631e+000 1.833984e+000 4.329712e+000 7.628478e-001 3.357788e+000 4.186622e+000 1.467507e+000 -2.606382e+000 1.275776e+000 2.235244e+000 -6.303166e-001 -6.472572e-001 7.430736e-002 -2.429719e-001 -1.563193e-001 -3.489991e-001 -8.571366e-002 1.095883e-001 -8.048250e-002 1.294906e-001 3.502457e-001 2.175627e-001 4.929911e-001
<VARIANCE> 25
 9.939592e+000 1.326754e+001 1.691630e+001 1.259509e+001 2.020569e+001 1.929020e+001 2.203942e+001 2.268044e+001 2.674014e+001 2.420529e+001 3.122688e+001 1.840556e+001 4.149040e-001 6.856751e-001 7.152676e-001 8.407541e-001 1.234588e+000 1.355704e+000 1.473954e+000 1.608695e+000 1.651324e+000 1.640594e+000 1.514178e+000 1.410604e+000 2.997852e-001
<GCONST> 8.136058e+001
<STATE> 3
<MEAN> 25
 -9.003675e+000 -8.916839e+000 1.854526e+000 -4.886255e-001 2.360659e+000 -9.352284e-001 3.117433e+000 4.129500e+000 7.277058e-001 -1.857083e+000 2.609293e+000 2.515549e+000 2.353463e-002 -7.123253e-002 -4.030974e-002 -9.936868e-004 -2.858518e-002 4.022421e-002 -5.106067e-002 1.718250e-003 -5.274838e-002 -3.836172e-002 -5.582003e-002 2.117562e-002 -2.927647e-002
<VARIANCE> 25
 6.595517e+000 7.574609e+000 1.369398e+001 1.324443e+001 1.731598e+001 1.866717e+001 2.363884e+001 2.048587e+001 2.875238e+001 2.362171e+001 3.131225e+001 1.808756e+001 1.828908e-001 2.859622e-001 4.959572e-001 6.936790e-001 9.388987e-001 1.135408e+000 1.227072e+000 1.336659e+000 1.453493e+000 1.436605e+000 1.329810e+000 1.246708e+000 1.371404e-001
<GCONST> 7.567581e+001
<STATE> 4
<MEAN> 25
 -5.397895e+000 -8.252248e+000 -1.229833e+000 1.076179e+000 4.398605e+000 2.475878e+000 2.415657e+000 3.915788e+000 7.722776e-001 -3.701670e+000 5.294067e-001 2.881352e+000 7.254373e-001 8.935381e-001 -5.050417e-001 2.382794e-001 3.329938e-001 6.587514e-001 1.650079e-001 -3.258319e-001 1.129502e-001 -9.568752e-002 -2.600508e-001 -7.375675e-002 -9.687503e-001
<VARIANCE> 25
 8.812912e+000 1.577295e+001 2.423090e+001 1.538134e+001 2.768225e+001 2.657476e+001 2.977603e+001 2.606005e+001 3.208353e+001 2.798738e+001 3.502737e+001 2.329749e+001 4.413068e-001 1.424183e+000 1.298133e+000 1.214771e+000 1.510542e+000 1.871722e+000 2.048245e+000 2.078998e+000 2.469119e+000 2.341369e+000 1.900720e+000 1.841367e+000 6.104718e-001
<GCONST> 8.855473e+001
<TRANSP> 5
 0.000000e+000 1.000000e+000 0.000000e+000 0.000000e+000 0.000000e+000
 0.000000e+000 8.575826e-001 1.424174e-001 0.000000e+000 0.000000e+000
 0.000000e+000 0.000000e+000 9.370229e-001 6.297707e-002 0.000000e+000
 0.000000e+000 0.000000e+000 0.000000e+000 7.863982e-001 2.136018e-001
 0.000000e+000 0.000000e+000 0.000000e+000 0.000000e+000 0.000000e+000
<ENDHMM>
~h "sil"
<BEGINHMM>
<NUMSTATES> 5
<STATE> 2
<MEAN> 25
 -4.966792e+000 -1.798997e+000 1.865695e-002 1.833107e+000 3.179911e+000 1.567131e+000 3.197045e+000 2.934800e+000 2.080998e+000 -1.209558e+000 1.244075e+000 1.974759e+000 -7.498858e-002 -4.126467e-002 -1.549842e-002 -8.292922e-004 -3.364469e-003 1.147502e-002 -2.103112e-002 -7.425128e-003 -5.351714e-003 4.128035e-002 4.466838e-002 3.576948e-002 -5.933224e-002
<VARIANCE> 25
 1.003001e+001 2.690847e+001 1.373614e+001 1.370240e+001 1.715051e+001 2.127810e+001 1.944656e+001 2.347766e+001 2.574524e+001 2.261380e+001 2.711808e+001 1.910346e+001 3.065713e-001 5.412958e-001 6.220185e-001 7.847781e-001 1.036978e+000 1.272315e+000 1.379136e+000 1.497431e+000 1.514608e+000 1.561815e+000 1.464081e+000 1.329431e+000 2.660520e-001
<GCONST> 8.011490e+001
<STATE> 3
~s "silst"
<STATE> 4
<MEAN> 25
 -3.923885e+000 -2.946751e-001 -6.175796e-001 1.474036e+000 2.895540e+000 1.232369e+000 1.918159e+000 1.113664e+000 1.287490e+000 -8.604233e-001 1.628069e-001 8.801910e-001 8.634824e-001 9.111950e-002 2.212150e-001 -3.792737e-001 -7.186131e-001 -8.244341e-001 -9.019585e-001 -9.452546e-001 -8.972681e-001 4.173337e-002 -4.027715e-001 -3.666916e-001 1.732653e+000
<VARIANCE> 25
 2.091474e+001 3.160968e+001 2.500870e+001 2.441577e+001 2.973969e+001 3.736775e+001 3.135240e+001 3.617114e+001 3.489585e+001 2.768064e+001 3.111179e+001 2.420425e+001 3.320185e+000 3.224302e+000 2.935887e+000 3.315056e+000 3.581592e+000 4.102262e+000 3.831486e+000 4.571883e+000 4.131914e+000 3.290504e+000 3.506572e+000 2.716283e+000 5.187152e+000
<GCONST> 1.031060e+002
<TRANSP> 5
 0.000000e+000 1.000000e+000 0.000000e+000 0.000000e+000 0.000000e+000
 0.000000e+000 8.753186e-001 3.934385e-002 8.533758e-002 0.000000e+000
 0.000000e+000 0.000000e+000 7.290986e-001 2.709015e-001 0.000000e+000
 0.000000e+000 4.612412e-002 0.000000e+000 4.776926e-001 4.761833e-001
 0.000000e+000 0.000000e+000 0.000000e+000 0.000000e+000 0.000000e+000
<ENDHMM>
~h "udarac"
<BEGINHMM>
<NUMSTATES> 5
<STATE> 2
<MEAN> 25
 -1.203542e+000 -3.129446e+000 -5.092721e+000 -5.196795e+000 -2.282099e+000 1.233183e+000 3.717343e+000 1.552256e+000 2.225010e+000 -2.376546e-001 -2.038609e+000 1.280771e+000 1.695069e-001 -1.181046e-001 -4.872758e-001 -5.718304e-001 -4.149993e-001 -4.697145e-001 -4.193750e-001 -2.805552e-001 1.429222e-002 1.228729e-001 2.884005e-001 -2.467362e-002 2.221476e-001
<VARIANCE> 25
 1.669452e+001 2.070092e+001 4.023401e+001 3.353870e+001 2.362542e+001 3.565153e+001 3.970958e+001 2.876944e+001 2.825424e+001 3.575550e+001 2.999556e+001 2.124232e+001 1.258152e+000 1.665763e+000 4.045691e+000 3.927127e+000 3.268627e+000 2.668807e+000 3.672804e+000 2.718138e+000 2.624931e+000 3.244582e+000 1.985048e+000 2.422370e+000 2.064590e+000
<GCONST> 9.856136e+001
<STATE> 3
<MEAN> 25
 -3.270125e+000 -4.781305e-001 -2.599930e+000 -2.553443e+000 -7.905948e-001 -4.101342e-001 1.405973e+000 -2.705389e+000 1.983631e+000 2.287058e+000 -5.530773e-001 1.391050e+000 -2.623832e-001 3.809928e-001 2.580449e-001 3.653361e-001 4.098024e-001 3.416441e-001 1.988691e-001 2.103910e-001 2.081498e-001 2.659455e-002 4.890159e-003 2.229528e-002 -5.352568e-001
<VARIANCE> 25
 1.053729e+001 2.759719e+001 2.046763e+001 3.552275e+001 2.076358e+001 2.697782e+001 3.397115e+001 2.062880e+001 1.905504e+001 1.224268e+001 2.332946e+001 1.471898e+001 4.769983e-001 4.956309e-001 1.352579e+000 1.071545e+000 1.274078e+000 1.693395e+000 1.664373e+000 1.579478e+000 1.140093e+000 1.149404e+000 1.473911e+000 1.439379e+000 4.511236e-001
<GCONST> 8.327103e+001
<STATE> 4
<MEAN> 25
 -6.495185e+000 2.258179e+000 -1.628055e-001 1.142283e+000 2.747375e+000 4.227890e+000 4.280561e+000 3.791397e+000 6.421558e+000 -1.495582e+000 -3.856578e+000 1.366152e+000 -7.474068e-002 -1.370184e-002 3.612788e-002 2.667502e-002 -7.166339e-002 9.559207e-003 7.201659e-002 6.120156e-002 8.983883e-002 -4.985334e-002 -5.899256e-002 7.814220e-002 -6.768828e-002
<VARIANCE> 25
 2.226065e+001 3.374763e+001 3.234082e+001 3.222312e+001 2.943116e+001 2.678963e+001 2.696714e+001 1.622622e+001 1.726259e+001 1.780103e+001 1.709877e+001 1.375989e+001 1.182429e+000 1.849173e+000 2.046949e+000 1.969980e+000 1.906533e+000 1.337320e+000 2.004587e+000 1.657535e+000 1.348298e+000 1.554395e+000 1.524105e+000 1.419055e+000 1.606328e+000
<GCONST> 8.975623e+001
<TRANSP> 5
 0.000000e+000 1.000000e+000 0.000000e+000 0.000000e+000 0.000000e+000
 0.000000e+000 7.689291e-001 2.310709e-001 0.000000e+000 0.000000e+000
 0.000000e+000 0.000000e+000 7.675377e-001 2.324624e-001 0.000000e+000
 0.000000e+000 0.000000e+000 0.000000e+000 8.978540e-001 1.021460e-001
 0.000000e+000 0.000000e+000 0.000000e+000 0.000000e+000 0.000000e+000
<ENDHMM>
~h "greska"
<BEGINHMM>
<NUMSTATES> 5
<STATE> 2
<MEAN> 25
 1.602762e+000 5.145833e-001 3.076528e+000 -1.249754e+000 -2.487007e+000 -2.485286e+000 -4.849875e+000 -2.443244e-001 -1.888895e+000 -9.743136e-001 4.129205e-001 -8.374923e-001 6.256891e-002 -1.486811e-002 6.202058e-002 1.444384e-003 -4.983484e-002 -2.044895e-001 -1.461355e-001 2.479542e-002 -9.394531e-002 6.489017e-003 -2.906456e-002 1.047841e-001 3.053799e-001
<VARIANCE> 25
 2.527025e+001 3.984557e+001 6.492591e+001 5.681615e+001 4.393694e+001 5.554879e+001 5.158177e+001 4.155682e+001 4.978370e+001 4.444695e+001 4.106496e+001 2.778322e+001 2.776039e+000 3.244385e+000 3.540863e+000 4.245784e+000 4.501480e+000 3.774803e+000 4.741220e+000 4.047813e+000 3.741518e+000 3.373890e+000 3.192953e+000 2.522684e+000 3.653779e+000
<GCONST> 1.078995e+002
<STATE> 3
<MEAN> 25
 -6.055760e+000 2.800187e+000 -1.982801e+000 1.101777e+000 3.204852e+000 -2.613027e+000 -1.769311e+000 1.664045e+000 4.173081e-001 -1.445843e+000 2.355882e-001 1.986316e+000 1.315402e-001 2.808425e-001 -4.039411e-002 8.649599e-002 1.206943e-001 2.800088e-002 -6.487944e-004 -1.059908e-001 6.007109e-002 -1.002290e-002 3.238833e-002 -1.451616e-001 -3.405582e-001
<VARIANCE> 25
 8.411438e+001 5.339462e+001 4.048301e+001 4.003957e+001 4.079356e+001 6.009474e+001 5.349066e+001 4.458137e+001 4.195661e+001 3.703715e+001 3.590969e+001 3.292887e+001 5.836893e+000 3.458963e+000 2.896817e+000 2.604900e+000 3.181577e+000 3.329752e+000 3.976177e+000 4.142399e+000 3.304387e+000 2.646199e+000 2.680409e+000 2.524416e+000 2.937235e+000
<GCONST> 1.070986e+002
<STATE> 4
<MEAN> 25
 2.434007e+000 4.369664e+000 1.696784e+000 3.315075e+000 2.519583e+000 -1.320895e+000 6.686498e-002 -1.697784e+000 -2.027227e-001 -2.488479e-001 -1.427780e+000 -2.470464e+000 -1.255004e-001 1.085356e-002 7.015536e-002 9.525532e-002 7.533025e-002 3.030514e-001 1.193687e-001 6.617763e-002 1.365836e-001 -1.149993e-001 -1.400103e-001 -1.152430e-001 -3.769196e-001
<VARIANCE> 25
 3.489200e+001 3.583234e+001 2.376665e+001 2.645053e+001 2.767543e+001 3.909614e+001 3.679709e+001 3.823187e+001 2.866549e+001 3.216226e+001 3.215899e+001 2.367900e+001 1.522336e+000 2.178349e+000 1.522279e+000 1.713603e+000 1.834510e+000 2.450197e+000 2.302098e+000 2.446183e+000 2.160519e+000 2.054858e+000 2.418995e+000 1.661108e+000 2.390905e+000
<GCONST> 9.636100e+001
<TRANSP> 5
 0.000000e+000 1.000000e+000 0.000000e+000 0.000000e+000 0.000000e+000
 0.000000e+000 9.199194e-001 8.008059e-002 0.000000e+000 0.000000e+000
 0.000000e+000 0.000000e+000 8.930625e-001 1.069375e-001 0.000000e+000
 0.000000e+000 0.000000e+000 0.000000e+000 9.085486e-001 9.145136e-002
 0.000000e+000 0.000000e+000 0.000000e+000 0.000000e+000 0.000000e+000
<ENDHMM>
~h "papir"
<BEGINHMM>
<NUMSTATES> 5
<STATE> 2
<MEAN> 25
 -1.997491e+000 -1.110374e+000 1.393895e+000 2.444152e+000 1.892929e+000 9.476876e-001 1.627798e+000 4.215266e-001 2.437326e+000 -1.386744e+000 -3.888731e+000 -3.354459e-001 -2.959524e-001 7.692208e-001 6.898130e-001 5.391881e-001 2.669338e-001 2.453269e-001 3.684404e-001 4.409027e-001 5.037658e-001 -4.561663e-001 -3.994345e-001 8.105499e-002 -1.071974e+000
<VARIANCE> 25
 4.502550e+001 2.631967e+001 2.876176e+001 2.655252e+001 2.611201e+001 3.268842e+001 3.054935e+001 3.792116e+001 4.784758e+001 2.629852e+001 4.075389e+001 2.543487e+001 1.900985e+000 1.413939e+000 2.092695e+000 1.760895e+000 2.584179e+000 2.579394e+000 3.284039e+000 2.900777e+000 1.896940e+000 1.257466e+000 1.524422e+000 1.847154e+000 1.175613e+000
<GCONST> 9.605855e+001
<STATE> 3
<MEAN> 25
 -3.633883e+000 2.643488e+000 2.251344e+000 4.832179e+000 4.128001e+000 2.455430e+000 5.330820e+000 2.503368e+000 3.782125e+000 -1.486828e+000 -2.136945e+000 -9.371235e-001 -4.390818e-001 1.064863e-001 -5.610603e-002 -1.271240e-001 4.480316e-002 1.366108e-001 6.192579e-002 2.700442e-001 1.891745e-001 2.201187e-001 6.106825e-001 5.892046e-001 -5.495947e-001
<VARIANCE> 25
 2.272687e+001 1.890632e+001 4.882678e+001 2.797233e+001 2.869353e+001 3.091949e+001 2.682076e+001 3.457307e+001 3.235162e+001 2.578571e+001 3.026859e+001 3.762999e+001 8.424173e-001 1.887150e+000 1.748043e+000 2.113421e+000 1.233436e+000 1.452156e+000 1.572001e+000 1.945458e+000 1.607339e+000 1.851174e+000 2.069195e+000 1.844234e+000 5.808482e-001
<GCONST> 9.197162e+001
<STATE> 4
<MEAN> 25
 -6.235483e+000 -5.344884e+000 -4.618128e-001 7.913427e-001 3.003016e+000 6.304544e-001 3.810528e+000 2.676479e+000 2.075775e+000 -1.650663e+000 -3.524665e-001 1.438094e+000 1.158288e-002 -1.390093e-001 -5.554822e-002 2.310540e-002 -5.652108e-002 1.780994e-002 -7.375162e-002 9.781792e-003 5.224779e-003 -5.701986e-002 -3.340631e-002 1.044531e-001 -4.097893e-002
<VARIANCE> 25
 2.045374e+001 4.057946e+001 2.495022e+001 1.780865e+001 1.953148e+001 2.642103e+001 1.379788e+001 2.272611e+001 3.253893e+001 1.891404e+001 2.440383e+001 2.143168e+001 1.111405e+000 2.073215e+000 1.224393e+000 1.205335e+000 1.416541e+000 1.777649e+000 1.370472e+000 1.525028e+000 1.832476e+000 1.356436e+000 1.534828e+000 1.467796e+000 1.503612e+000
<GCONST> 8.845628e+001
<TRANSP> 5
 0.000000e+000 1.000000e+000 0.000000e+000 0.000000e+000 0.000000e+000
 0.000000e+000 4.410997e-001 5.589003e-001 0.000000e+000 0.000000e+000
 0.000000e+000 0.000000e+000 6.697319e-001 3.302681e-001 0.000000e+000
 0.000000e+000 0.000000e+000 0.000000e+000 9.003801e-001 9.961991e-002
 0.000000e+000 0.000000e+000 0.000000e+000 0.000000e+000 0.000000e+000
<ENDHMM>
