~o
<STREAMINFO> 1 25
<VECSIZE> 25<NULLD><MFCC_D_N_Z_0><DIAGC>
~s "silst"
<MEAN> 25
 -3.056574e+000 -7.492763e-002 -4.282884e-001 2.204263e+000 4.139826e+000 2.067108e+000 3.606257e+000 3.191021e+000 2.587323e+000 -1.999307e+000 -4.805627e-001 5.661566e-001 -2.470153e-001 1.081462e-001 9.954850e-002 5.224503e-002 3.246142e-002 -4.839537e-002 -9.510268e-002 -7.650317e-002 5.587745e-003 8.100208e-002 1.468378e-001 1.267610e-002 -4.480644e-001
<VARIANCE> 25
 1.607162e+001 3.125227e+001 2.109886e+001 1.877011e+001 2.635440e+001 3.009868e+001 2.921515e+001 3.076042e+001 2.870608e+001 2.849813e+001 3.388466e+001 2.429476e+001 1.268162e+000 2.358137e+000 1.507326e+000 1.566496e+000 1.996576e+000 2.367005e+000 2.455562e+000 2.448974e+000 2.392493e+000 2.238379e+000 2.161383e+000 1.980983e+000 2.274095e+000
<GCONST> 9.430048e+001
~h "C"
<BEGINHMM>
<NUMSTATES> 5
<STATE> 2
<MEAN> 25
 -7.627938e+000 -1.527051e+000 2.994641e+000 3.479386e+000 -1.348258e+000 2.624779e+000 2.394850e+000 -6.901742e-001 4.945121e+000 -2.420034e+000 2.446020e+000 -1.011067e+000 -4.245139e+000 -1.417180e+000 -1.061541e-001 -3.963812e-001 -5.535885e-001 4.861903e-001 3.530101e-001 -7.310385e-001 6.760004e-001 -1.004600e+000 1.057837e+000 3.852054e-001 2.604246e+000
<VARIANCE> 25
 5.974952e+001 5.414242e+001 3.157784e+001 3.657735e+001 3.336415e+001 4.312494e+001 4.825066e+001 5.214932e+001 3.531821e+001 2.820654e+001 4.418157e+001 2.421011e+001 3.208777e+000 4.695031e+000 3.065085e+000 2.861012e+000 3.334839e+000 4.372855e+000 4.820817e+000 5.269682e+000 4.787562e+000 3.796416e+000 4.538676e+000 2.961864e+000 4.732165e+000
<GCONST> 1.079130e+002
<STATE> 3
<MEAN> 25
 -1.885118e+001 -1.644114e+000 3.289515e+000 2.015674e+000 -5.264328e-001 3.091805e+000 1.644056e+000 -5.953724e-001 9.454992e+000 -5.615430e+000 2.222129e+000 3.878622e-001 8.799060e-001 8.595588e-002 -2.731388e-001 -3.040597e-001 2.820625e-001 -4.498510e-001 -5.557702e-001 4.244690e-001 2.754451e-001 -4.683672e-001 -4.351411e-001 1.570052e-001 -6.189730e-001
<VARIANCE> 25
 1.287585e+001 2.653303e+001 2.554018e+001 3.544724e+001 2.823699e+001 3.813927e+001 4.515027e+001 6.552593e+001 4.792418e+001 4.503172e+001 5.837909e+001 2.890551e+001 5.817570e+000 2.398659e+000 2.396838e+000 2.192019e+000 2.379156e+000 3.500597e+000 3.716443e+000 4.142050e+000 4.608329e+000 3.333821e+000 2.864202e+000 2.636935e+000 1.267503e+000
<GCONST> 1.028106e+002
<STATE> 4
<MEAN> 25
 -5.452499e+000 -3.092221e+000 6.646234e-001 8.955076e-002 -1.900486e+000 -1.382102e+000 -1.281945e+000 -1.089430e+000 5.473462e+000 -5.685829e+000 1.237096e+000 3.391613e-001 4.979439e+000 -5.768738e-002 -5.112562e-001 -3.344507e-001 -7.397921e-001 -1.494688e+000 -7.797964e-001 -4.494838e-001 -2.049315e+000 1.368030e+000 -5.705271e-001 -3.011338e-001 7.911751e-001
<VARIANCE> 25
 4.612167e+001 2.433572e+001 2.358721e+001 2.074765e+001 2.936408e+001 4.268076e+001 3.824371e+001 4.854642e+001 4.502726e+001 3.524626e+001 3.564779e+001 2.136624e+001 1.590412e+000 3.040119e+000 2.500546e+000 2.806531e+000 2.957917e+000 4.682921e+000 3.861487e+000 5.236943e+000 4.182171e+000 4.294686e+000 6.010225e+000 2.545210e+000 1.445295e+000
<GCONST> 1.029722e+002
<TRANSP> 5
 0.000000e+000 1.000000e+000 0.000000e+000 0.000000e+000 0.000000e+000
 0.000000e+000 7.180235e-001 2.819765e-001 0.000000e+000 0.000000e+000
 0.000000e+000 0.000000e+000 7.260678e-001 2.739322e-001 0.000000e+000
 0.000000e+000 0.000000e+000 0.000000e+000 6.144381e-001 3.855619e-001
 0.000000e+000 0.000000e+000 0.000000e+000 0.000000e+000 0.000000e+000
<ENDHMM>
~h "L"
<BEGINHMM>
<NUMSTATES> 5
<STATE> 2
<MEAN> 25
 -2.133281e-001 5.254925e-001 7.634379e+000 2.661897e+000 -1.258417e+000 -4.806769e+000 -3.149356e+000 -5.177329e-001 -1.609730e+000 -4.078619e+000 -1.109178e-001 2.038470e+000 2.082234e-001 5.003054e-001 1.710458e+000 3.715020e-002 -9.938173e-001 -7.894795e-001 -1.711912e-001 1.591735e-001 -1.300721e+000 -8.325008e-001 -1.681573e-001 9.040141e-001 3.872222e-001
<VARIANCE> 25
 2.212994e+001 2.582621e+001 2.207151e+001 2.510192e+001 2.840255e+001 3.962022e+001 4.350123e+001 4.165634e+001 3.916062e+001 3.270115e+001 3.332251e+001 2.302207e+001 2.829197e+000 2.681767e+000 2.985965e+000 2.874778e+000 3.284157e+000 4.137925e+000 4.752706e+000 4.391704e+000 3.588055e+000 3.869126e+000 3.163689e+000 2.842096e+000 1.893843e+000
<GCONST> 1.022279e+002
<STATE> 3
<MEAN> 25
 3.780077e-001 1.333332e+000 9.384398e+000 1.483774e+000 -3.337772e+000 -5.095362e+000 -3.507288e+000 -5.120112e-001 -4.396927e+000 -3.560685e+000 -1.810678e-002 3.760040e+000 1.273059e-001 -9.589120e-001 -1.754614e-001 -9.238323e-001 -1.443645e+000 8.187309e-002 -6.221269e-001 7.103782e-001 -1.986872e-002 8.444421e-001 3.745300e-001 4.323780e-001 1.243370e+000
<VARIANCE> 25
 7.890089e+000 1.749378e+001 1.992313e+001 2.441453e+001 2.478368e+001 3.091028e+001 3.579134e+001 2.976967e+001 2.767105e+001 2.974273e+001 2.727494e+001 2.411509e+001 1.711244e+000 1.758483e+000 2.275311e+000 2.299187e+000 2.425478e+000 3.173272e+000 4.258609e+000 3.532422e+000 3.508388e+000 2.757818e+000 2.828238e+000 2.244136e+000 7.378856e-001
<GCONST> 9.519736e+001
<STATE> 4
<MEAN> 25
 1.313597e+000 -2.283900e+000 6.189578e+000 5.627689e-003 -6.472792e+000 -4.212548e+000 -5.093826e+000 1.683572e+000 -1.826936e+000 -9.372643e-001 6.715383e-001 2.888203e+000 4.541629e-001 -8.962125e-001 -1.498214e+000 -5.473427e-001 -3.755469e-001 5.321950e-001 5.612273e-002 3.127637e-001 6.088982e-001 1.205814e+000 2.827437e-001 -8.980720e-001 6.856112e-001
<VARIANCE> 25
 7.342584e+000 1.583037e+001 2.427425e+001 2.672574e+001 2.316621e+001 3.197542e+001 6.192848e+001 3.498102e+001 3.358890e+001 2.988870e+001 2.570152e+001 2.170888e+001 7.533208e-001 1.842982e+000 2.619509e+000 1.755732e+000 3.186243e+000 2.749646e+000 4.051779e+000 4.108336e+000 2.994182e+000 3.337166e+000 3.206851e+000 2.492214e+000 6.506182e-001
<GCONST> 9.548889e+001
<TRANSP> 5
 0.000000e+000 1.000000e+000 0.000000e+000 0.000000e+000 0.000000e+000
 0.000000e+000 4.713317e-001 5.286683e-001 0.000000e+000 0.000000e+000
 0.000000e+000 0.000000e+000 4.323128e-001 5.676872e-001 0.000000e+000
 0.000000e+000 0.000000e+000 0.000000e+000 4.434492e-001 5.565509e-001
 0.000000e+000 0.000000e+000 0.000000e+000 0.000000e+000 0.000000e+000
<ENDHMM>
~h "N"
<BEGINHMM>
<NUMSTATES> 5
<STATE> 2
<MEAN> 25
 2.493517e+000 5.622939e+000 4.761372e+000 -6.913399e-001 -3.039446e-001 -9.295571e-002 5.935417e-001 -3.637279e+000 -4.750287e+000 -1.739763e+000 -9.430806e-001 6.237273e-001 -1.622866e-001 -1.770981e-001 1.180697e+000 -1.162147e+000 -1.037873e+000 5.271959e-001 8.672489e-002 1.970545e-001 -8.074048e-001 1.349746e-001 -1.063350e-001 1.916603e-001 1.224850e+000
<VARIANCE> 25
 2.037617e+001 2.517114e+001 2.286150e+001 2.949056e+001 2.924714e+001 3.261617e+001 2.765529e+001 3.479855e+001 3.309265e+001 2.971045e+001 3.047396e+001 2.438456e+001 2.925157e+000 4.136589e+000 2.474643e+000 2.734513e+000 4.422942e+000 3.771123e+000 3.796001e+000 4.035684e+000 3.258702e+000 2.774879e+000 3.040546e+000 2.220362e+000 2.581047e+000
<GCONST> 1.009405e+002
<STATE> 3
<MEAN> 25
 5.615273e-001 -2.941278e-002 7.861284e+000 -4.227993e+000 -6.526707e+000 1.880980e+000 2.827464e+000 5.609949e-001 -4.984174e+000 -1.148687e+000 -9.912929e-001 8.476711e-001 7.107364e-002 -2.146042e+000 -3.993585e-001 2.309771e-001 -8.259720e-001 -1.754448e-001 9.321521e-001 1.551628e+000 3.969755e-001 -2.487055e-001 -2.651103e-001 -1.372410e-001 1.188081e+000
<VARIANCE> 25
 7.933809e+000 1.955571e+001 1.844172e+001 2.403157e+001 2.604619e+001 3.783149e+001 2.911637e+001 3.235603e+001 2.614910e+001 3.258956e+001 2.549292e+001 2.460112e+001 1.200151e+000 1.435055e+000 1.640436e+000 1.716519e+000 2.683578e+000 2.502951e+000 2.826524e+000 2.217390e+000 2.550202e+000 2.505046e+000 2.067093e+000 1.794135e+000 8.305497e-001
<GCONST> 9.231381e+001
<STATE> 4
<MEAN> 25
 9.813977e-001 -3.954187e+000 4.789388e+000 -1.084436e+000 -4.591076e+000 1.010392e+000 4.409842e+000 3.691113e+000 -3.949414e+000 -3.646748e+000 -2.465879e+000 6.016446e-001 4.922848e-001 -9.625607e-001 -1.261681e+000 9.188355e-001 1.060049e+000 -5.003813e-001 -8.312627e-002 8.301435e-001 7.024369e-001 -1.511770e-001 -5.108059e-001 -2.654634e-001 -1.167339e-001
<VARIANCE> 25
 8.458705e+000 2.022336e+001 2.041263e+001 2.567791e+001 3.163227e+001 4.068211e+001 4.188963e+001 3.037238e+001 3.291478e+001 3.513397e+001 2.529440e+001 2.248718e+001 6.960077e-001 1.332403e+000 1.872484e+000 1.754827e+000 2.354608e+000 2.402955e+000 2.654776e+000 1.994593e+000 2.580670e+000 2.757430e+000 2.196119e+000 1.958784e+000 9.537494e-001
<GCONST> 9.294401e+001
<TRANSP> 5
 0.000000e+000 1.000000e+000 0.000000e+000 0.000000e+000 0.000000e+000
 0.000000e+000 6.948177e-001 3.051824e-001 0.000000e+000 0.000000e+000
 0.000000e+000 0.000000e+000 5.149466e-001 4.850534e-001 0.000000e+000
 0.000000e+000 0.000000e+000 0.000000e+000 4.184255e-001 5.815745e-001
 0.000000e+000 0.000000e+000 0.000000e+000 0.000000e+000 0.000000e+000
<ENDHMM>
~h "S"
<BEGINHMM>
<NUMSTATES> 5
<STATE> 2
<MEAN> 25
 -7.842025e+000 9.605762e-001 8.212540e+000 5.736154e+000 -1.135354e+000 4.436533e-001 -1.046357e+000 -2.760875e-001 4.127703e+000 -4.493523e+000 3.578534e+000 2.661561e-001 -4.621224e+000 9.678999e-002 7.874700e-001 1.291006e+000 1.749852e+000 4.027916e-001 6.415730e-001 7.453400e-001 2.912484e+000 -1.104590e+000 1.885631e-002 5.408959e-002 8.224198e-001
<VARIANCE> 25
 4.474331e+001 2.015380e+001 3.982412e+001 2.959295e+001 3.873065e+001 3.710335e+001 4.285202e+001 5.017328e+001 6.797127e+001 4.995935e+001 4.492139e+001 3.072593e+001 1.606452e+000 3.803159e+000 3.876874e+000 2.863322e+000 3.968147e+000 4.244331e+000 4.062409e+000 5.467659e+000 5.351608e+000 5.524545e+000 6.069112e+000 3.313222e+000 7.146729e-001
<GCONST> 1.063203e+002
<STATE> 3
<MEAN> 25
 -1.890084e+001 -2.445920e+000 6.881793e+000 4.839474e+000 1.933707e+000 1.454386e+000 3.885283e-001 -1.150373e+000 9.661165e+000 -5.173404e+000 1.297896e+000 3.162687e-001 -3.989739e-001 -6.418213e-001 -8.111770e-001 -7.046207e-001 2.589389e-001 2.774310e-001 -1.150493e-001 -2.034824e-001 4.739093e-001 5.824020e-003 -3.781720e-001 5.209648e-002 -5.571247e-001
<VARIANCE> 25
 8.241877e+000 3.188758e+001 1.757505e+001 2.888881e+001 3.045783e+001 3.725713e+001 4.473233e+001 5.674204e+001 4.574969e+001 6.415501e+001 5.813640e+001 3.093828e+001 2.532316e+000 1.541525e+000 1.335340e+000 1.471423e+000 1.931510e+000 2.216455e+000 2.561136e+000 3.313453e+000 2.859358e+000 2.870655e+000 2.354629e+000 2.216502e+000 4.014318e-001
<GCONST> 9.657568e+001
<STATE> 4
<MEAN> 25
 -9.325694e+000 -3.920887e+000 1.095271e+000 3.071047e-001 1.047122e+000 1.067115e+000 -1.316942e+000 -1.235030e+000 8.431149e+000 -3.933630e+000 9.207079e-001 6.590841e-001 3.916051e+000 6.844357e-002 -1.127565e+000 -9.153043e-001 -8.303557e-001 -9.133808e-001 -1.000035e-001 1.044078e-001 -1.607517e+000 8.196199e-001 -1.287412e-001 -2.128732e-002 -3.887240e-001
<VARIANCE> 25
 6.172974e+001 3.558397e+001 2.459200e+001 2.430355e+001 4.439640e+001 5.082151e+001 4.500585e+001 6.903290e+001 5.078113e+001 5.602943e+001 4.383969e+001 2.502226e+001 4.418828e+000 2.022491e+000 2.555722e+000 2.298672e+000 3.329413e+000 4.742313e+000 3.926452e+000 4.372232e+000 3.836725e+000 4.968299e+000 4.527595e+000 2.631250e+000 3.441267e+000
<GCONST> 1.069756e+002
<TRANSP> 5
 0.000000e+000 1.000000e+000 0.000000e+000 0.000000e+000 0.000000e+000
 0.000000e+000 6.582726e-001 3.417274e-001 0.000000e+000 0.000000e+000
 0.000000e+000 0.000000e+000 8.082782e-001 1.917218e-001 0.000000e+000
 0.000000e+000 0.000000e+000 0.000000e+000 7.081762e-001 2.918238e-001
 0.000000e+000 0.000000e+000 0.000000e+000 0.000000e+000 0.000000e+000
<ENDHMM>
~h "Z"
<BEGINHMM>
<NUMSTATES> 5
<STATE> 2
<MEAN> 25
 -5.728375e+000 1.016489e+000 5.971125e+000 4.415895e+000 1.841573e-001 -1.975505e+000 -2.196841e+000 -7.397706e+000 5.912192e+000 -2.589206e+000 3.507255e+000 -2.967036e-002 -3.852494e+000 8.437416e-001 1.936348e+000 1.050402e+000 1.404152e+000 -2.455020e-001 1.150601e+000 9.995762e-002 1.722878e+000 -5.353502e-001 -2.224184e-001 -5.079258e-001 4.992758e-001
<VARIANCE> 25
 3.066083e+001 1.509533e+001 3.880415e+001 2.844974e+001 4.989178e+001 3.262388e+001 4.146645e+001 5.817933e+001 4.033592e+001 4.674441e+001 4.245635e+001 3.169159e+001 1.740713e+000 2.662525e+000 2.066547e+000 2.583112e+000 3.455969e+000 4.925381e+000 3.949358e+000 4.972075e+000 4.284686e+000 3.759855e+000 3.129815e+000 2.753180e+000 7.284351e-001
<GCONST> 1.026574e+002
<STATE> 3
<MEAN> 25
 -1.504764e+001 2.057962e+000 9.767975e+000 5.542902e+000 1.574229e+000 3.718227e-002 9.669623e-001 -4.463325e+000 9.021525e+000 -3.620818e+000 2.219379e+000 -6.066478e-001 7.724883e-002 -1.408621e-001 -4.308152e-001 -5.650243e-001 -1.562542e-002 4.414510e-001 8.790284e-002 3.369275e-001 -3.772904e-002 -4.650590e-001 -3.203776e-001 2.005093e-001 -6.860865e-001
<VARIANCE> 25
 1.526068e+001 2.462090e+001 2.503154e+001 3.253622e+001 4.566819e+001 4.238141e+001 4.968840e+001 5.386625e+001 4.483507e+001 4.836549e+001 4.768010e+001 3.455585e+001 4.239363e+000 1.333350e+000 1.790207e+000 1.737436e+000 2.307120e+000 2.466378e+000 3.252350e+000 2.795670e+000 3.141152e+000 2.664104e+000 2.456397e+000 2.047133e+000 7.703077e-001
<GCONST> 9.941923e+001
<STATE> 4
<MEAN> 25
 -4.926074e+000 -4.392451e-001 3.904795e+000 1.487577e+000 -2.622587e-001 -1.099249e+000 -1.782180e+000 -4.493357e+000 6.582318e+000 -4.089004e+000 1.247712e+000 4.526699e-001 4.142564e+000 -1.126393e+000 -1.972266e+000 -7.662134e-001 -9.458263e-001 -7.087249e-001 -6.376416e-001 4.746351e-001 -1.480614e+000 8.484367e-001 -5.029751e-001 1.120637e-001 5.089372e-002
<VARIANCE> 25
 4.504382e+001 2.593952e+001 3.055525e+001 2.375813e+001 3.445029e+001 3.588930e+001 4.639914e+001 5.090787e+001 4.091519e+001 4.967067e+001 3.572745e+001 2.564145e+001 1.864106e+000 2.539193e+000 2.695500e+000 2.613090e+000 3.203481e+000 3.812147e+000 3.939144e+000 4.908860e+000 4.243158e+000 3.609991e+000 4.209674e+000 2.703754e+000 1.076575e+000
<GCONST> 1.031281e+002
<TRANSP> 5
 0.000000e+000 1.000000e+000 0.000000e+000 0.000000e+000 0.000000e+000
 0.000000e+000 6.843427e-001 3.156573e-001 0.000000e+000 0.000000e+000
 0.000000e+000 0.000000e+000 7.075856e-001 2.924144e-001 0.000000e+000
 0.000000e+000 0.000000e+000 0.000000e+000 6.451698e-001 3.548302e-001
 0.000000e+000 0.000000e+000 0.000000e+000 0.000000e+000 0.000000e+000
<ENDHMM>
~h "a"
<BEGINHMM>
<NUMSTATES> 5
<STATE> 2
<MEAN> 25
 3.424197e+000 -8.292841e+000 -5.257022e+000 -2.497650e+000 2.637609e+000 -6.474615e-002 5.789460e-001 4.095051e+000 2.649994e+000 -7.758412e-002 -5.060981e+000 -2.357721e+000 2.147088e-001 -5.438741e-001 -4.208842e-001 -6.394344e-002 8.020877e-001 5.867961e-001 5.644116e-001 3.326511e-001 -1.535124e-001 -2.609981e-001 -5.745167e-001 -4.016191e-001 2.282883e-001
<VARIANCE> 25
 6.587955e+000 1.313127e+001 1.564870e+001 1.949580e+001 2.765378e+001 3.946189e+001 3.114818e+001 2.890543e+001 2.960157e+001 3.427025e+001 2.989160e+001 2.895313e+001 8.850825e-001 9.950327e-001 1.293345e+000 1.397360e+000 2.059949e+000 2.393007e+000 2.526517e+000 2.407868e+000 2.148414e+000 2.298018e+000 2.272708e+000 1.921837e+000 7.289264e-001
<GCONST> 9.023142e+001
<STATE> 3
<MEAN> 25
 3.999147e+000 -8.029336e+000 -5.678393e+000 -2.102648e+000 4.428657e+000 1.415671e+000 6.898801e-001 3.088885e+000 1.570405e+000 -1.792771e-001 -5.615199e+000 -2.870153e+000 2.911230e-001 1.003965e+000 4.584226e-001 3.796000e-001 -1.878119e-001 -1.869372e-001 5.899600e-002 -3.231828e-001 -2.991786e-002 3.457435e-001 1.287472e-001 7.001537e-002 -9.699444e-001
<VARIANCE> 25
 7.405406e+000 1.349536e+001 1.781429e+001 2.540574e+001 3.330796e+001 4.197561e+001 3.545612e+001 3.237095e+001 3.138728e+001 4.035268e+001 3.654680e+001 3.452982e+001 5.387321e-001 1.082155e+000 1.094014e+000 1.402437e+000 1.973732e+000 2.250501e+000 2.197812e+000 2.241944e+000 2.020298e+000 2.008560e+000 2.032180e+000 1.912957e+000 8.231575e-001
<GCONST> 9.077757e+001
<STATE> 4
<MEAN> 25
 4.685579e+000 -1.614221e+000 -2.554674e+000 2.756408e-001 2.643114e+000 -3.438249e-001 1.530873e+000 3.331455e+000 3.260604e+000 3.249935e-001 -4.803658e+000 -2.438833e+000 -1.687751e-001 2.077621e+000 9.943792e-001 7.303653e-001 -2.468975e-001 8.743361e-002 5.478236e-001 -2.792034e-001 2.982209e-001 -3.524399e-001 3.021235e-001 2.521048e-002 -2.278474e+000
<VARIANCE> 25
 1.072698e+001 2.392391e+001 2.022791e+001 2.473334e+001 3.119791e+001 4.322247e+001 4.044114e+001 3.924850e+001 3.786032e+001 4.419009e+001 3.741984e+001 3.605227e+001 1.165285e+000 1.852778e+000 1.573876e+000 2.226497e+000 2.438926e+000 3.025901e+000 2.802157e+000 3.875330e+000 3.371902e+000 2.870965e+000 3.043185e+000 2.445648e+000 1.536211e+000
<GCONST> 9.802990e+001
<TRANSP> 5
 0.000000e+000 1.000000e+000 0.000000e+000 0.000000e+000 0.000000e+000
 0.000000e+000 5.905753e-001 4.094246e-001 0.000000e+000 0.000000e+000
 0.000000e+000 0.000000e+000 5.779647e-001 4.220353e-001 0.000000e+000
 0.000000e+000 0.000000e+000 0.000000e+000 5.896947e-001 4.103053e-001
 0.000000e+000 0.000000e+000 0.000000e+000 0.000000e+000 0.000000e+000
<ENDHMM>
~h "b"
<BEGINHMM>
<NUMSTATES> 5
<STATE> 2
<MEAN> 25
 7.093101e+000 8.066215e+000 8.797141e-001 6.979716e-001 2.910960e+000 2.842055e+000 2.021142e+000 -1.115376e+000 -2.945165e-001 -2.081781e+000 -2.245312e+000 -3.687506e+000 -5.122572e-001 9.784583e-001 7.852280e-001 1.031804e+000 3.070515e-001 3.219216e-002 4.869616e-001 4.393697e-001 2.585175e-001 -7.107061e-001 -6.171002e-001 -1.204335e-001 -1.139963e+000
<VARIANCE> 25
 1.239726e+001 1.395253e+001 2.056042e+001 2.887664e+001 2.132376e+001 2.833214e+001 2.801933e+001 2.737778e+001 3.113082e+001 2.651590e+001 2.667627e+001 2.620600e+001 1.097246e+000 1.752704e+000 1.129722e+000 1.802468e+000 1.495904e+000 1.852338e+000 2.076246e+000 2.215022e+000 2.288711e+000 2.149909e+000 2.463246e+000 1.692781e+000 1.458587e+000
<GCONST> 9.110744e+001
<STATE> 3
<MEAN> 25
 5.346581e+000 8.569320e+000 1.938038e+000 1.842663e+000 2.848955e+000 2.641817e+000 2.447419e+000 1.141602e-001 4.938563e-001 -2.864769e+000 -2.190960e+000 -2.845582e+000 -1.813859e+000 -2.465654e+000 -1.082755e-001 6.701458e-001 -5.128882e-001 -5.255535e-001 -1.349422e+000 4.394466e-002 -2.536787e-001 7.591367e-002 1.040937e+000 6.678704e-001 2.078164e+000
<VARIANCE> 25
 1.413680e+001 1.530768e+001 2.077725e+001 2.776726e+001 2.064168e+001 2.644035e+001 2.686013e+001 2.951232e+001 2.972381e+001 2.508707e+001 2.510947e+001 2.526049e+001 1.675818e+000 2.159191e+000 3.087917e+000 3.225318e+000 2.979498e+000 3.635479e+000 2.963195e+000 3.332528e+000 3.594298e+000 3.432769e+000 3.019660e+000 2.599158e+000 1.450445e+000
<GCONST> 9.692820e+001
<STATE> 4
<MEAN> 25
 5.834185e-001 -7.530362e-001 -4.074486e-002 2.617904e+000 1.409565e+000 1.249053e+000 -2.385652e+000 -2.229458e-001 -6.469128e-002 -1.744536e+000 1.390485e+000 -1.115616e+000 -2.885960e-001 -2.814806e+000 -5.887914e-001 -1.297847e+000 -1.938519e+000 -7.565369e-001 -1.650223e+000 -5.833925e-001 -9.766194e-001 1.016305e+000 1.433607e+000 6.666978e-001 3.196559e+000
<VARIANCE> 25
 1.903690e+001 2.271518e+001 3.388992e+001 4.201557e+001 2.868899e+001 4.184113e+001 3.519248e+001 3.281783e+001 2.952491e+001 3.138988e+001 3.337357e+001 2.342927e+001 2.454455e+000 2.996258e+000 5.535667e+000 5.811972e+000 4.503937e+000 4.900417e+000 3.873329e+000 6.181778e+000 5.714732e+000 6.451199e+000 4.422734e+000 3.635449e+000 1.297642e+000
<GCONST> 1.052949e+002
<TRANSP> 5
 0.000000e+000 1.000000e+000 0.000000e+000 0.000000e+000 0.000000e+000
 0.000000e+000 6.149293e-001 3.850708e-001 0.000000e+000 0.000000e+000
 0.000000e+000 0.000000e+000 3.361803e-001 6.638197e-001 0.000000e+000
 0.000000e+000 0.000000e+000 0.000000e+000 3.995320e-001 6.004680e-001
 0.000000e+000 0.000000e+000 0.000000e+000 0.000000e+000 0.000000e+000
<ENDHMM>
~h "c"
<BEGINHMM>
<NUMSTATES> 5
<STATE> 2
<MEAN> 25
 -8.903770e+000 1.041752e+001 -1.728160e+000 7.239659e+000 1.631213e+000 8.783375e-001 1.445687e+000 4.553021e-001 7.662889e-001 -1.823551e+000 3.333250e-001 3.123378e-001 -3.391522e+000 1.205646e-002 -2.293793e+000 1.608929e-002 7.688372e-001 6.256329e-001 2.069166e-001 2.158015e-002 1.001170e-002 -4.231417e-001 3.659613e-001 3.481055e-001 1.239478e+000
<VARIANCE> 25
 3.340626e+001 2.423301e+001 3.215284e+001 1.966802e+001 2.347138e+001 3.156770e+001 2.722013e+001 3.170504e+001 2.799764e+001 2.304913e+001 3.103388e+001 2.226775e+001 1.537699e+000 2.764856e+000 2.231653e+000 2.021279e+000 2.587899e+000 2.512438e+000 2.941512e+000 2.609803e+000 2.392502e+000 2.114084e+000 2.610540e+000 1.784469e+000 1.963141e+000
<GCONST> 9.616743e+001
<STATE> 3
<MEAN> 25
 -1.773814e+001 6.390722e+000 -7.680801e+000 4.118670e+000 3.642170e+000 -3.549944e-001 5.483765e+000 1.249364e+000 9.594914e-001 -2.336107e+000 1.046928e+000 3.320774e+000 -1.495842e-001 -1.784371e+000 5.129505e-002 -1.046066e+000 -6.533204e-001 -1.331023e+000 9.356273e-001 4.311554e-001 4.664010e-002 3.925022e-001 1.698555e-001 6.153848e-001 6.460912e-001
<VARIANCE> 25
 5.956665e+000 2.026743e+001 1.726382e+001 2.137243e+001 2.496370e+001 3.520075e+001 2.557191e+001 2.610357e+001 2.434150e+001 2.168767e+001 4.766881e+001 2.629674e+001 1.940358e+000 1.658185e+000 2.345834e+000 1.367930e+000 2.289142e+000 2.367020e+000 2.336494e+000 2.702853e+000 2.105398e+000 1.926158e+000 2.218782e+000 1.811102e+000 7.112458e-001
<GCONST> 9.165337e+001
<STATE> 4
<MEAN> 25
 -9.683408e+000 4.411112e-001 -3.539728e+000 1.763408e+000 -2.509717e+000 -7.965743e+000 3.637322e+000 6.408893e-001 2.313448e-002 -5.720330e-001 9.564971e-003 3.681374e+000 4.319261e+000 -1.237530e+000 1.937646e+000 -4.999668e-001 -1.904053e+000 -2.076777e+000 -1.802456e+000 -8.426912e-001 -6.359250e-001 6.457191e-001 -8.252077e-001 -2.341059e-001 1.248820e+000
<VARIANCE> 25
 5.291124e+001 1.594687e+001 2.429998e+001 1.585221e+001 3.308732e+001 4.040555e+001 4.084032e+001 3.362682e+001 2.840006e+001 2.210358e+001 4.328655e+001 2.308798e+001 1.373668e+000 2.519475e+000 2.531859e+000 2.411585e+000 2.620699e+000 4.331359e+000 3.489718e+000 4.086710e+000 3.395166e+000 2.674781e+000 4.971967e+000 3.890629e+000 1.229385e+000
<GCONST> 9.992376e+001
<TRANSP> 5
 0.000000e+000 1.000000e+000 0.000000e+000 0.000000e+000 0.000000e+000
 0.000000e+000 7.438616e-001 2.561384e-001 0.000000e+000 0.000000e+000
 0.000000e+000 0.000000e+000 7.002439e-001 2.997561e-001 0.000000e+000
 0.000000e+000 0.000000e+000 0.000000e+000 6.631001e-001 3.368999e-001
 0.000000e+000 0.000000e+000 0.000000e+000 0.000000e+000 0.000000e+000
<ENDHMM>
~h "d"
<BEGINHMM>
<NUMSTATES> 5
<STATE> 2
<MEAN> 25
 5.042093e+000 7.059693e+000 3.195811e+000 3.188769e+000 1.233053e+000 -2.829878e+000 -9.514449e-001 -9.355289e-002 2.911399e+000 -6.309683e-001 -3.657730e+000 -2.463575e+000 -2.725846e-001 9.528699e-001 7.181876e-001 4.689467e-001 5.034882e-001 7.105949e-001 5.016611e-001 3.872672e-001 1.334257e-001 -9.057680e-001 1.893243e-002 -5.016795e-001 -1.091374e+000
<VARIANCE> 25
 1.352919e+001 1.872572e+001 2.255959e+001 2.107498e+001 2.561868e+001 3.259405e+001 3.082278e+001 3.277683e+001 2.901869e+001 3.174931e+001 2.851743e+001 2.613971e+001 2.472352e+000 2.421856e+000 2.008203e+000 2.072296e+000 2.699797e+000 3.130408e+000 3.393206e+000 3.029134e+000 2.781636e+000 2.949526e+000 3.593311e+000 2.869961e+000 2.640504e+000
<GCONST> 9.782015e+001
<STATE> 3
<MEAN> 25
 2.882013e+000 7.084726e+000 4.078588e+000 3.318862e+000 2.534361e+000 -6.262602e-001 1.087097e-001 5.935547e-001 2.261424e+000 -1.676302e+000 -2.147483e+000 -2.575427e+000 -1.950978e+000 -1.839637e+000 -4.641168e-001 -6.354790e-001 3.479205e-001 3.936897e-001 -3.148934e-001 -2.698132e-001 -6.347678e-001 -1.290039e-001 1.089653e+000 7.945653e-001 1.888691e+000
<VARIANCE> 25
 1.853605e+001 2.270506e+001 2.579579e+001 2.180179e+001 2.434952e+001 2.909728e+001 2.774747e+001 3.182656e+001 2.806594e+001 2.753494e+001 2.877339e+001 2.017053e+001 2.608879e+000 2.832617e+000 2.566998e+000 2.765463e+000 3.502952e+000 4.078889e+000 3.577801e+000 3.619894e+000 3.055279e+000 3.117878e+000 3.792176e+000 2.712000e+000 2.204350e+000
<GCONST> 9.923750e+001
<STATE> 4
<MEAN> 25
 -1.634233e+000 -2.912464e-001 5.063239e-001 6.691204e-002 2.061983e+000 -1.806482e+000 -2.220895e+000 -1.855841e-001 1.389661e+000 -5.858975e-001 2.507566e-001 6.353102e-001 -9.800938e-002 -1.934502e+000 -1.109170e+000 -1.186429e+000 -1.381630e+000 -1.058502e+000 -1.290123e+000 -3.739956e-001 -1.603363e-001 1.143579e+000 2.810762e-001 8.703022e-001 2.680816e+000
<VARIANCE> 25
 2.041442e+001 2.260688e+001 2.742190e+001 2.455393e+001 3.536588e+001 4.557550e+001 4.309222e+001 3.062183e+001 2.708105e+001 2.994861e+001 3.179549e+001 2.530709e+001 3.104713e+000 2.935781e+000 3.745605e+000 3.036869e+000 3.596682e+000 4.493650e+000 4.407012e+000 4.690262e+000 4.169188e+000 3.716249e+000 4.493011e+000 3.592677e+000 2.151396e+000
<GCONST> 1.032932e+002
<TRANSP> 5
 0.000000e+000 1.000000e+000 0.000000e+000 0.000000e+000 0.000000e+000
 0.000000e+000 4.456007e-001 5.543993e-001 0.000000e+000 0.000000e+000
 0.000000e+000 0.000000e+000 2.825827e-001 7.174173e-001 0.000000e+000
 0.000000e+000 0.000000e+000 0.000000e+000 4.519385e-001 5.480615e-001
 0.000000e+000 0.000000e+000 0.000000e+000 0.000000e+000 0.000000e+000
<ENDHMM>
~h "e"
<BEGINHMM>
<NUMSTATES> 5
<STATE> 2
<MEAN> 25
 2.055905e+000 -5.228718e+000 2.615364e+000 -4.885761e-001 -6.824498e+000 -6.665771e+000 1.286103e+000 4.702058e+000 -9.807308e-001 1.045606e+000 -3.057806e-001 1.837988e+000 3.257065e-001 2.945838e-001 2.905273e-001 1.477641e-001 -6.304582e-002 -4.014437e-002 3.059005e-001 6.404474e-002 -2.174665e-001 3.729305e-001 -7.683398e-002 1.885206e-002 -2.102289e-001
<VARIANCE> 25
 6.667422e+000 1.541405e+001 1.904040e+001 1.947632e+001 2.575840e+001 3.614026e+001 4.097763e+001 2.925037e+001 3.232876e+001 2.882414e+001 2.637648e+001 2.241168e+001 1.144029e+000 1.111199e+000 1.552686e+000 1.508787e+000 2.562304e+000 2.313663e+000 2.981302e+000 2.498029e+000 2.471199e+000 2.531394e+000 1.984177e+000 1.787802e+000 9.109887e-001
<GCONST> 9.152484e+001
<STATE> 3
<MEAN> 25
 2.717274e+000 -2.402022e+000 3.736876e+000 1.079374e+000 -6.052743e+000 -6.322897e+000 4.441324e-001 2.700904e+000 -1.123465e+000 1.515568e+000 -7.158669e-001 1.968886e+000 3.304909e-001 1.758975e+000 2.996413e-001 1.043962e+000 1.032266e+000 3.827007e-001 2.213529e-003 -7.515497e-001 5.992105e-001 -2.103640e-001 -1.426390e-001 -3.188440e-001 -1.927628e+000
<VARIANCE> 25
 8.469465e+000 2.363983e+001 2.626410e+001 2.192189e+001 3.224785e+001 3.941959e+001 4.635264e+001 3.970382e+001 3.980825e+001 3.630790e+001 3.026619e+001 2.910451e+001 9.523453e-001 1.525224e+000 1.580952e+000 1.671908e+000 2.352559e+000 2.715083e+000 2.998366e+000 3.061139e+000 2.826381e+000 2.697364e+000 2.288906e+000 2.131084e+000 1.460183e+000
<GCONST> 9.573551e+001
<STATE> 4
<MEAN> 25
 3.056411e+000 1.937044e+000 3.891268e+000 3.441661e+000 -3.057579e+000 -5.172979e+000 5.621542e-001 1.678107e+000 1.488331e+000 4.376899e-001 -5.474033e-001 7.729320e-001 -4.219655e-001 1.624929e+000 3.723394e-002 5.264822e-001 1.243602e+000 8.979104e-001 1.463528e-001 -5.257864e-001 6.212094e-001 -2.271313e-001 2.037545e-001 -5.521750e-001 -1.925000e+000
<VARIANCE> 25
 1.175406e+001 3.048676e+001 2.446473e+001 1.967636e+001 2.932711e+001 3.286880e+001 4.310952e+001 3.404639e+001 3.674273e+001 3.229808e+001 3.028324e+001 2.730315e+001 1.949742e+000 2.538260e+000 2.011737e+000 2.336214e+000 2.733005e+000 3.356686e+000 3.457617e+000 4.527706e+000 3.687135e+000 3.031413e+000 3.025286e+000 2.721032e+000 1.729585e+000
<GCONST> 9.914775e+001
<TRANSP> 5
 0.000000e+000 1.000000e+000 0.000000e+000 0.000000e+000 0.000000e+000
 0.000000e+000 5.368433e-001 4.631567e-001 0.000000e+000 0.000000e+000
 0.000000e+000 0.000000e+000 4.058443e-001 5.941557e-001 0.000000e+000
 0.000000e+000 0.000000e+000 0.000000e+000 3.189799e-001 6.810201e-001
 0.000000e+000 0.000000e+000 0.000000e+000 0.000000e+000 0.000000e+000
<ENDHMM>
~h "f"
<BEGINHMM>
<NUMSTATES> 5
<STATE> 2
<MEAN> 25
 -9.715571e+000 6.512710e-001 -5.520709e-001 6.056159e+000 4.082223e+000 4.116149e+000 3.708256e-001 3.312271e+000 1.504406e+000 -2.032811e+000 -8.584736e-001 4.037805e-002 -6.800429e-001 -1.546881e+000 -8.118006e-001 -2.092300e-001 -3.959272e-001 2.817417e-001 -5.451957e-001 2.510092e-001 4.529168e-001 1.239742e-001 6.266637e-002 1.293236e-001 2.436007e-001
<VARIANCE> 25
 1.577734e+001 2.470698e+001 2.502247e+001 2.049700e+001 1.254713e+001 2.469656e+001 2.568012e+001 2.298853e+001 2.301091e+001 2.427338e+001 3.359693e+001 1.871276e+001 3.963370e+000 1.761842e+000 2.485288e+000 2.603690e+000 1.931216e+000 2.447051e+000 2.137617e+000 2.913424e+000 2.199593e+000 2.105790e+000 2.419061e+000 1.733123e+000 1.532430e+000
<GCONST> 9.362444e+001
<STATE> 3
<MEAN> 25
 -9.395989e+000 -3.883357e+000 -4.446348e+000 2.616991e+000 2.188370e+000 2.417300e+000 -7.387857e-001 3.342960e+000 3.083658e+000 1.353898e-002 -1.556904e-001 -2.987033e-002 3.423872e+000 -1.107172e+000 -1.331828e+000 -1.744214e+000 -1.950905e+000 -1.038098e+000 -1.679770e+000 -1.718233e+000 -1.006731e-001 8.490512e-001 6.058700e-001 -3.870877e-001 1.306113e+000
<VARIANCE> 25
 7.921515e+000 1.247538e+001 1.928061e+001 1.767792e+001 1.853352e+001 2.744784e+001 2.953325e+001 2.418430e+001 1.915264e+001 2.468168e+001 3.024925e+001 1.738366e+001 2.418801e+000 1.960855e+000 2.147444e+000 2.646093e+000 2.455024e+000 3.475829e+000 2.346863e+000 2.665629e+000 2.485234e+000 2.362990e+000 3.843476e+000 1.736111e+000 1.270320e+000
<GCONST> 9.277737e+001
<STATE> 4
<MEAN> 25
 1.058465e+000 -4.268419e+000 -7.494453e+000 -2.370832e+000 -3.256680e+000 -1.123208e-001 -5.300649e+000 -3.629751e+000 1.130939e+000 1.383771e+000 1.138743e+000 -2.497390e-001 4.429488e+000 -1.979743e-001 -2.347995e-001 -1.204345e-001 -1.435835e+000 -3.687173e-001 -9.383180e-001 -2.021946e+000 -2.141951e-001 9.204705e-001 7.436709e-001 7.454073e-002 1.667139e+000
<VARIANCE> 25
 2.433628e+001 1.022848e+001 2.313066e+001 1.994112e+001 2.046447e+001 4.305836e+001 2.595934e+001 3.140414e+001 1.857823e+001 2.603420e+001 1.647849e+001 1.546539e+001 9.800023e-001 2.028254e+000 1.868357e+000 3.505662e+000 2.886361e+000 3.481763e+000 3.995446e+000 3.362564e+000 2.859684e+000 3.663707e+000 3.632173e+000 2.205754e+000 1.062704e+000
<GCONST> 9.476750e+001
<TRANSP> 5
 0.000000e+000 1.000000e+000 0.000000e+000 0.000000e+000 0.000000e+000
 0.000000e+000 6.898743e-001 3.101257e-001 0.000000e+000 0.000000e+000
 0.000000e+000 0.000000e+000 4.458602e-001 5.541399e-001 0.000000e+000
 0.000000e+000 0.000000e+000 0.000000e+000 3.005192e-001 6.994808e-001
 0.000000e+000 0.000000e+000 0.000000e+000 0.000000e+000 0.000000e+000
<ENDHMM>
~h "g"
<BEGINHMM>
<NUMSTATES> 5
<STATE> 2
<MEAN> 25
 6.105214e+000 8.782660e+000 1.657766e+000 -1.079762e+000 -1.534351e+000 8.702641e-001 2.229845e+000 5.589056e-002 -2.451208e+000 -1.942762e+000 -4.427451e-002 -1.071315e+000 -8.857151e-001 -3.617009e-002 9.950431e-002 1.289630e+000 9.599037e-001 -2.847846e-002 -2.517171e-002 -1.540202e-001 8.458847e-001 -1.274011e-001 -5.359554e-001 4.991127e-002 -8.932132e-001
<VARIANCE> 25
 1.410009e+001 1.759654e+001 2.781400e+001 3.380655e+001 2.863661e+001 3.576474e+001 2.981028e+001 3.510183e+001 3.723446e+001 3.841380e+001 3.580259e+001 2.818587e+001 9.068007e-001 1.864207e+000 2.371435e+000 2.678957e+000 2.752288e+000 3.539243e+000 3.196866e+000 3.445910e+000 3.494521e+000 3.487334e+000 3.757287e+000 2.297553e+000 1.166609e+000
<GCONST> 9.823386e+001
<STATE> 3
<MEAN> 25
 3.995842e+000 7.123336e+000 6.848416e-001 1.109671e+000 1.101121e+000 1.887838e+000 8.499538e-001 -5.469640e-001 -2.361875e+000 -1.160642e+000 2.257447e-001 -7.998186e-001 -1.236284e+000 -1.949210e+000 -1.575104e+000 -6.431142e-002 1.017250e+000 6.970439e-001 -8.574762e-001 -3.801151e-001 -3.292017e-001 5.593715e-001 4.444771e-001 3.353155e-001 1.382080e+000
<VARIANCE> 25
 1.524285e+001 2.126880e+001 4.040395e+001 3.276578e+001 3.457162e+001 4.339279e+001 3.079275e+001 3.581822e+001 3.878750e+001 3.563732e+001 3.306556e+001 2.356320e+001 2.000472e+000 3.817122e+000 5.734418e+000 5.518296e+000 4.553475e+000 6.711105e+000 4.771455e+000 5.132915e+000 5.549234e+000 4.748573e+000 4.399054e+000 3.309919e+000 2.126373e+000
<GCONST> 1.059350e+002
<STATE> 4
<MEAN> 25
 1.463683e+000 3.929546e-001 -3.869184e+000 -9.040802e-001 2.287370e+000 2.418681e+000 -2.154376e+000 -1.548646e+000 -4.035357e+000 1.482175e+000 2.568374e+000 2.350488e-001 -3.139040e-001 -1.583747e+000 -2.542964e-001 -7.441255e-001 -7.217213e-001 -6.688451e-001 -7.743195e-001 -7.767958e-001 -1.127237e-001 9.535091e-001 7.337531e-001 9.490743e-002 2.108720e+000
<VARIANCE> 25
 2.827542e+001 3.858629e+001 7.241669e+001 6.461348e+001 5.489454e+001 7.797125e+001 5.159058e+001 5.034447e+001 5.235632e+001 4.939322e+001 3.954915e+001 2.754005e+001 3.143439e+000 3.857423e+000 4.241614e+000 4.874958e+000 5.050980e+000 5.332335e+000 4.980034e+000 5.548141e+000 5.572365e+000 5.067184e+000 5.547617e+000 3.494565e+000 2.636606e+000
<GCONST> 1.118791e+002
<TRANSP> 5
 0.000000e+000 1.000000e+000 0.000000e+000 0.000000e+000 0.000000e+000
 0.000000e+000 3.560513e-001 6.439487e-001 0.000000e+000 0.000000e+000
 0.000000e+000 0.000000e+000 2.276119e-001 7.723881e-001 0.000000e+000
 0.000000e+000 0.000000e+000 0.000000e+000 4.428991e-001 5.571010e-001
 0.000000e+000 0.000000e+000 0.000000e+000 0.000000e+000 0.000000e+000
<ENDHMM>
~h "h"
<BEGINHMM>
<NUMSTATES> 5
<STATE> 2
<MEAN> 25
 -3.896353e+000 3.662270e+000 8.325228e+000 4.369836e+000 1.134346e+000 -8.335775e-001 2.175459e+000 1.283170e+000 -3.068399e+000 9.266572e-001 3.864073e-001 3.941210e-001 -1.573677e+000 -1.133033e+000 -1.451345e+000 3.250957e-001 2.124464e+000 3.128669e-001 -1.684754e-001 9.832160e-001 1.281052e+000 -2.002874e-001 1.782440e-002 4.514208e-001 3.063223e-002
<VARIANCE> 25
 3.024269e+001 3.151520e+001 5.964415e+001 3.054380e+001 3.599251e+001 4.341396e+001 3.460895e+001 4.919844e+001 3.933963e+001 3.269263e+001 2.779650e+001 2.208381e+001 2.004758e+000 2.994652e+000 4.591693e+000 3.244101e+000 4.586128e+000 4.319776e+000 4.121512e+000 4.509265e+000 4.054480e+000 3.509052e+000 3.902919e+000 2.378748e+000 1.752956e+000
<GCONST> 1.045342e+002
<STATE> 3
<MEAN> 25
 -5.410974e+000 -2.046367e+000 -1.137665e+000 3.438176e+000 7.629127e+000 1.141314e+000 -1.929446e+000 2.978734e+000 4.389401e-001 1.656278e+000 -2.054722e-001 3.780956e-001 -6.124316e-001 -1.009927e+000 -1.471037e+000 -7.156702e-001 6.204782e-001 7.465841e-001 -3.739057e-001 -4.894909e-001 8.462849e-001 4.927178e-001 1.162872e-001 -5.190923e-002 1.282184e-001
<VARIANCE> 25
 2.380484e+001 3.530338e+001 8.107162e+001 3.396204e+001 5.443259e+001 6.214000e+001 5.498444e+001 4.920258e+001 4.192061e+001 4.393268e+001 3.648290e+001 2.540344e+001 2.056570e+000 2.011567e+000 4.343337e+000 2.532781e+000 3.989915e+000 4.698547e+000 4.185627e+000 3.541692e+000 3.849108e+000 3.754521e+000 3.147455e+000 2.741120e+000 1.772885e+000
<GCONST> 1.058245e+002
<STATE> 4
<MEAN> 25
 -8.271935e+000 -1.801156e+000 2.587216e+000 -9.846541e-001 1.836420e+000 2.181224e+000 1.969944e+000 1.107129e-002 1.948796e-001 2.228383e+000 1.963902e-001 1.443081e+000 9.067041e-001 3.548221e-001 2.065271e-001 -5.463026e-001 -1.117508e+000 -3.985307e-001 -8.263183e-002 -7.248533e-001 -4.157498e-001 -4.714777e-001 -4.945553e-002 1.061825e-001 1.672640e-002
<VARIANCE> 25
 3.993015e+001 3.437004e+001 8.911289e+001 3.172999e+001 5.037451e+001 5.171210e+001 4.633833e+001 3.973120e+001 3.942620e+001 3.413611e+001 3.788968e+001 2.344298e+001 3.859315e+000 2.020631e+000 2.919382e+000 3.070153e+000 4.022051e+000 4.314399e+000 4.043694e+000 3.712184e+000 4.050456e+000 3.238209e+000 3.125638e+000 2.185637e+000 1.644168e+000
<GCONST> 1.052979e+002
<TRANSP> 5
 0.000000e+000 1.000000e+000 0.000000e+000 0.000000e+000 0.000000e+000
 0.000000e+000 4.065263e-001 5.934737e-001 0.000000e+000 0.000000e+000
 0.000000e+000 0.000000e+000 4.837664e-001 5.162336e-001 0.000000e+000
 0.000000e+000 0.000000e+000 0.000000e+000 6.596568e-001 3.403433e-001
 0.000000e+000 0.000000e+000 0.000000e+000 0.000000e+000 0.000000e+000
<ENDHMM>
~h "i"
<BEGINHMM>
<NUMSTATES> 5
<STATE> 2
<MEAN> 25
 -5.012560e-001 -2.071946e-001 1.004633e+001 8.764795e-001 -9.259672e+000 -4.732790e+000 -8.987759e-001 -2.234041e+000 -7.454268e+000 7.566138e-001 2.203642e+000 9.739559e-001 4.284903e-001 3.122200e-001 1.982617e+000 -5.029077e-001 -2.005458e+000 -1.590178e-002 -1.143884e-001 -1.008431e+000 -1.741243e+000 1.046306e+000 2.369706e-002 -9.753709e-002 9.571952e-001
<VARIANCE> 25
 1.441317e+001 2.045647e+001 2.452447e+001 2.965561e+001 2.707170e+001 4.466531e+001 3.630688e+001 5.032059e+001 3.439729e+001 4.187220e+001 3.031859e+001 2.057010e+001 3.770402e+000 2.138934e+000 2.837013e+000 3.250646e+000 3.426008e+000 4.703074e+000 4.750007e+000 4.582088e+000 3.885796e+000 4.006927e+000 4.260126e+000 2.523729e+000 1.896106e+000
<GCONST> 1.024682e+002
<STATE> 3
<MEAN> 25
 -8.753037e-001 2.707840e+000 1.338782e+001 -1.948425e+000 -1.043605e+001 -5.105604e-001 -1.362863e+000 -6.229395e+000 -7.323682e+000 3.647751e+000 -4.450181e-001 5.862916e-001 1.631135e-001 5.071630e-001 8.268817e-002 3.437027e-001 2.100202e-001 1.543818e-001 1.336494e-001 -1.015704e-001 1.359853e-001 -5.878932e-002 -1.248085e-001 -5.851157e-002 -4.072119e-001
<VARIANCE> 25
 8.236526e+000 2.221719e+001 2.218119e+001 3.773580e+001 2.432363e+001 5.492161e+001 3.593709e+001 4.407683e+001 3.836546e+001 4.659471e+001 3.814259e+001 2.440659e+001 1.009081e+000 1.497915e+000 1.462941e+000 1.928671e+000 1.738232e+000 2.423151e+000 2.167063e+000 2.364824e+000 1.872573e+000 2.000401e+000 1.961305e+000 1.343918e+000 9.366198e-001
<GCONST> 9.352290e+001
<STATE> 4
<MEAN> 25
 9.522341e-001 3.739250e+000 9.758583e+000 3.729270e+000 -6.104076e+000 -3.936788e+000 4.831640e-001 -2.508728e+000 -5.413496e+000 3.032876e-001 1.267327e+000 5.417864e-001 1.001363e-001 7.936913e-001 -1.244520e+000 8.554786e-001 2.082058e+000 1.228490e-001 1.355668e-001 4.224081e-001 1.415221e+000 -6.289891e-001 -2.084597e-001 -1.392820e-001 -1.562692e+000
<VARIANCE> 25
 1.224012e+001 2.690870e+001 2.324128e+001 2.799033e+001 3.545387e+001 4.314329e+001 3.670962e+001 4.045760e+001 3.883192e+001 3.812304e+001 2.700237e+001 2.077199e+001 1.893866e+000 2.550827e+000 2.274956e+000 2.627713e+000 2.886271e+000 3.819352e+000 3.703029e+000 3.940578e+000 3.342037e+000 3.513341e+000 3.394509e+000 2.427956e+000 1.860185e+000
<GCONST> 1.001242e+002
<TRANSP> 5
 0.000000e+000 1.000000e+000 0.000000e+000 0.000000e+000 0.000000e+000
 0.000000e+000 4.870668e-001 5.129333e-001 0.000000e+000 0.000000e+000
 0.000000e+000 0.000000e+000 6.534200e-001 3.465800e-001 0.000000e+000
 0.000000e+000 0.000000e+000 0.000000e+000 6.143947e-001 3.856053e-001
 0.000000e+000 0.000000e+000 0.000000e+000 0.000000e+000 0.000000e+000
<ENDHMM>
~h "j"
<BEGINHMM>
<NUMSTATES> 5
<STATE> 2
<MEAN> 25
 -1.141713e+000 2.022569e+000 1.097180e+001 -8.642120e-001 -8.025838e+000 -1.614126e+000 -1.171386e+000 -2.434786e+000 -5.144354e+000 6.298153e-001 7.932400e-001 5.695002e-001 -6.478592e-002 3.373592e-002 1.444961e+000 -7.168407e-001 -1.592667e+000 -7.625463e-002 -4.314650e-001 -4.316450e-001 -6.641502e-001 6.644434e-001 2.606601e-001 3.068367e-001 7.835922e-001
<VARIANCE> 25
 1.419808e+001 3.411094e+001 3.521323e+001 3.686274e+001 3.043918e+001 4.421051e+001 3.666645e+001 4.601526e+001 3.465678e+001 3.667879e+001 2.490247e+001 2.087842e+001 3.233476e+000 2.897095e+000 3.201489e+000 3.289450e+000 3.964566e+000 3.789140e+000 3.862806e+000 3.676784e+000 3.496733e+000 3.222369e+000 2.616027e+000 2.079850e+000 2.565529e+000
<GCONST> 1.023478e+002
<STATE> 3
<MEAN> 25
 -8.825786e-001 2.579479e-003 1.059014e+001 -2.321661e+000 -1.095199e+001 -2.998773e+000 -2.375833e-001 -2.859617e+000 -5.154433e+000 3.506864e+000 1.917859e+000 1.576978e+000 3.588129e-001 -9.826999e-001 -1.101097e+000 2.355020e-001 -2.555158e-001 -1.036296e+000 5.858313e-001 1.185127e+000 4.431629e-001 2.345106e-001 3.628342e-001 2.094035e-001 4.917292e-001
<VARIANCE> 25
 7.026189e+000 1.735448e+001 2.333726e+001 3.325365e+001 2.121607e+001 3.794371e+001 3.050331e+001 3.536473e+001 3.164909e+001 3.787861e+001 2.483120e+001 2.011190e+001 7.703221e-001 1.521022e+000 2.006494e+000 1.662171e+000 1.460016e+000 2.137982e+000 2.501193e+000 2.557469e+000 2.100274e+000 1.926088e+000 1.488304e+000 1.264456e+000 8.906128e-001
<GCONST> 9.065260e+001
<STATE> 4
<MEAN> 25
 8.309491e-001 -3.480770e+000 5.050866e+000 -6.850275e-002 -8.699575e+000 -6.442934e+000 1.151696e+000 3.198723e+000 -3.024508e+000 1.501250e+000 1.757660e+000 1.737798e+000 6.662908e-001 -7.962481e-001 -2.105591e+000 3.783431e-001 1.708046e+000 -2.030528e-001 -2.320016e-001 1.215726e+000 1.241691e+000 -5.944335e-001 -7.741523e-001 -1.622145e-001 -2.058083e-002
<VARIANCE> 25
 7.005435e+000 1.637384e+001 2.273736e+001 3.108544e+001 2.392489e+001 3.401476e+001 5.247922e+001 3.222064e+001 3.482005e+001 3.236896e+001 2.732370e+001 1.699755e+001 5.806970e-001 1.496976e+000 2.596074e+000 1.743597e+000 2.180284e+000 2.429234e+000 3.679115e+000 3.338155e+000 2.892437e+000 3.270788e+000 2.092923e+000 1.760441e+000 8.436110e-001
<GCONST> 9.347919e+001
<TRANSP> 5
 0.000000e+000 1.000000e+000 0.000000e+000 0.000000e+000 0.000000e+000
 0.000000e+000 5.627999e-001 4.372001e-001 0.000000e+000 0.000000e+000
 0.000000e+000 0.000000e+000 5.644769e-001 4.355231e-001 0.000000e+000
 0.000000e+000 0.000000e+000 0.000000e+000 4.639694e-001 5.360306e-001
 0.000000e+000 0.000000e+000 0.000000e+000 0.000000e+000 0.000000e+000
<ENDHMM>
~h "k"
<BEGINHMM>
<NUMSTATES> 5
<STATE> 2
<MEAN> 25
 -3.643090e+000 1.335570e+000 -2.064576e+000 3.634490e+000 5.147369e+000 9.146774e-001 1.573533e+000 2.955277e+000 2.639731e+000 -1.214608e-001 -6.041565e-001 -5.254014e-001 -1.161726e+000 -2.585044e+000 -1.820246e+000 -7.508339e-001 3.927147e-001 3.384787e-001 -9.384789e-001 6.912985e-002 -6.517903e-001 5.931455e-001 3.450408e-001 8.430188e-001 1.790884e+000
<VARIANCE> 25
 2.597208e+001 3.575036e+001 3.774252e+001 3.529015e+001 4.066849e+001 4.015436e+001 4.066685e+001 4.166483e+001 3.968578e+001 3.260334e+001 3.349372e+001 2.370631e+001 3.507455e+000 3.915591e+000 5.520882e+000 4.662937e+000 5.717287e+000 6.888865e+000 4.693409e+000 4.641612e+000 4.675756e+000 4.214291e+000 3.353875e+000 3.299497e+000 3.994401e+000
<GCONST> 1.080430e+002
<STATE> 3
<MEAN> 25
 -6.650632e+000 -6.423014e+000 -9.633469e+000 -2.003970e-001 6.339896e+000 1.771282e+000 -1.941941e+000 2.282575e+000 7.553923e-001 2.825032e+000 1.320662e+000 1.979168e+000 4.401053e-001 -1.263826e+000 -8.800859e-001 -2.049921e+000 -1.368400e+000 -4.837753e-001 -9.332975e-001 -4.731883e-001 -1.082292e+000 7.345112e-001 4.927807e-001 2.380990e-001 2.231918e+000
<VARIANCE> 25
 1.735931e+001 2.983167e+001 6.008364e+001 4.893488e+001 5.574902e+001 7.599725e+001 4.676366e+001 4.440984e+001 4.505757e+001 3.438202e+001 3.673786e+001 2.792963e+001 4.208522e+000 2.814119e+000 5.026812e+000 3.756072e+000 4.676825e+000 5.574708e+000 4.271016e+000 4.142796e+000 4.638538e+000 3.796981e+000 3.785834e+000 2.966376e+000 2.291004e+000
<GCONST> 1.081122e+002
<STATE> 4
<MEAN> 25
 -3.654816e+000 -3.072614e+000 -5.576410e+000 -3.953323e+000 1.033424e+000 -4.339971e-001 -2.214690e+000 2.327476e-001 -1.433057e+000 2.369403e+000 1.584598e+000 7.440321e-001 2.349973e+000 1.000158e+000 1.746955e+000 -9.742253e-001 -1.883071e+000 -7.689042e-001 -3.194702e-001 -8.168092e-001 -1.172419e+000 -2.264669e-001 2.108370e-001 -7.794849e-001 1.319818e+000
<VARIANCE> 25
 4.054711e+001 2.242081e+001 7.137368e+001 3.936692e+001 4.086645e+001 7.354726e+001 4.131258e+001 4.217274e+001 4.292319e+001 3.552388e+001 4.107574e+001 2.619789e+001 2.480428e+000 3.044424e+000 3.270633e+000 3.636009e+000 3.605276e+000 4.200572e+000 4.410826e+000 4.663401e+000 4.966651e+000 4.203722e+000 5.423478e+000 2.956127e+000 2.298490e+000
<GCONST> 1.073668e+002
<TRANSP> 5
 0.000000e+000 1.000000e+000 0.000000e+000 0.000000e+000 0.000000e+000
 0.000000e+000 5.236605e-001 4.763395e-001 0.000000e+000 0.000000e+000
 0.000000e+000 0.000000e+000 3.804210e-001 6.195790e-001 0.000000e+000
 0.000000e+000 0.000000e+000 0.000000e+000 5.281532e-001 4.718468e-001
 0.000000e+000 0.000000e+000 0.000000e+000 0.000000e+000 0.000000e+000
<ENDHMM>
~h "l"
<BEGINHMM>
<NUMSTATES> 5
<STATE> 2
<MEAN> 25
 3.642260e+000 -3.443113e+000 -1.502544e+000 -1.715977e+000 -2.824979e+000 2.701676e+000 -1.901182e+000 -7.984164e+000 -1.046592e+000 2.947025e+000 4.054199e+000 1.142285e-001 1.623230e+000 4.285553e-002 4.949741e-001 -8.913280e-001 -5.097171e-001 2.647188e-001 -6.229536e-001 -1.998243e+000 -6.680759e-001 9.488053e-001 2.152092e-001 1.681560e-001 3.381635e-001
<VARIANCE> 25
 3.842245e+001 2.031719e+001 3.805728e+001 3.408931e+001 3.290465e+001 5.069091e+001 5.292967e+001 4.326529e+001 4.626836e+001 3.722395e+001 3.660292e+001 2.922104e+001 3.556589e+000 2.915097e+000 3.222793e+000 5.423157e+000 4.587080e+000 5.865455e+000 5.526046e+000 4.844526e+000 4.965748e+000 4.686311e+000 5.188434e+000 3.368200e+000 2.561649e+000
<GCONST> 1.080852e+002
<STATE> 3
<MEAN> 25
 5.974483e+000 -2.826339e+000 -9.680784e-001 -3.330743e+000 -2.774055e+000 3.466866e+000 -2.312821e+000 -9.599154e+000 -2.123653e+000 4.128826e+000 4.028400e+000 4.264299e-001 6.402571e-001 -1.101646e-001 -3.281732e-002 -1.079499e+000 3.041779e-001 3.446473e-001 -7.485166e-001 3.906666e-001 3.110336e-001 2.959744e-001 -4.908330e-001 -9.330672e-002 6.666421e-001
<VARIANCE> 25
 2.272869e+001 1.911434e+001 3.883128e+001 3.751752e+001 3.740229e+001 4.700325e+001 5.936610e+001 4.390671e+001 5.013001e+001 4.190043e+001 4.298512e+001 2.834431e+001 2.443174e+000 1.681473e+000 2.991492e+000 3.719693e+000 3.514450e+000 4.803180e+000 4.019968e+000 3.959466e+000 4.448020e+000 3.699973e+000 3.776848e+000 3.368077e+000 1.383797e+000
<GCONST> 1.044827e+002
<STATE> 4
<MEAN> 25
 5.023902e+000 -4.223550e+000 -2.113399e+000 -5.342783e+000 -2.015193e-001 3.502942e+000 -4.745686e+000 -5.139656e+000 1.634455e+000 4.062042e+000 1.465335e+000 -1.062566e+000 -2.992321e-001 -4.845298e-001 -7.422320e-001 -2.750437e-001 6.586717e-001 -2.848785e-001 4.358510e-001 2.259095e+000 4.471908e-001 -6.738996e-001 -1.010425e+000 -4.533584e-001 7.927137e-001
<VARIANCE> 25
 1.521783e+001 1.771358e+001 4.487381e+001 4.241963e+001 3.755663e+001 5.626879e+001 5.241473e+001 4.400283e+001 4.302196e+001 3.943079e+001 4.242438e+001 3.001085e+001 1.266714e+000 1.723636e+000 2.795808e+000 3.474884e+000 4.151627e+000 5.665451e+000 4.811380e+000 4.872129e+000 4.549506e+000 3.797747e+000 3.817868e+000 3.241180e+000 6.354625e-001
<GCONST> 1.033588e+002
<TRANSP> 5
 0.000000e+000 1.000000e+000 0.000000e+000 0.000000e+000 0.000000e+000
 0.000000e+000 2.707295e-001 7.292705e-001 0.000000e+000 0.000000e+000
 0.000000e+000 0.000000e+000 2.501304e-001 7.498696e-001 0.000000e+000
 0.000000e+000 0.000000e+000 0.000000e+000 4.108767e-001 5.891233e-001
 0.000000e+000 0.000000e+000 0.000000e+000 0.000000e+000 0.000000e+000
<ENDHMM>
~h "m"
<BEGINHMM>
<NUMSTATES> 5
<STATE> 2
<MEAN> 25
 7.279399e+000 1.013770e+000 1.084592e+000 4.390866e+000 1.801127e+000 -9.330097e-001 1.417243e+000 -6.514478e+000 -5.195205e+000 8.323404e-001 4.789076e-001 -3.232837e+000 2.970771e-001 8.712691e-001 7.447795e-001 1.566875e+000 4.035256e-001 -6.236322e-001 3.776945e-001 -1.640006e+000 -9.400654e-001 2.914051e-001 1.152161e-001 -3.686551e-001 -6.732869e-001
<VARIANCE> 25
 7.074800e+000 1.847231e+001 1.460077e+001 2.292205e+001 2.890482e+001 3.271207e+001 3.550541e+001 4.115646e+001 3.768784e+001 3.457056e+001 3.133665e+001 2.575305e+001 8.040651e-001 1.776948e+000 1.769228e+000 2.075833e+000 2.445761e+000 2.886617e+000 2.685519e+000 3.190805e+000 3.278461e+000 2.570272e+000 2.550963e+000 2.233480e+000 1.581289e+000
<GCONST> 9.472739e+001
<STATE> 3
<MEAN> 25
 7.143626e+000 2.714880e+000 2.345139e+000 5.780219e+000 2.455003e+000 -1.182728e+000 1.713272e+000 -7.571913e+000 -5.370577e+000 3.780986e-001 -1.699152e-001 -2.975129e+000 -2.594990e-001 1.112465e-001 2.921078e-001 -1.424434e-001 -2.762612e-002 2.395770e-001 -1.781448e-001 6.599953e-001 2.562511e-001 -4.637869e-001 -1.325543e-001 2.356949e-001 -7.068460e-003
<VARIANCE> 25
 7.143219e+000 1.969849e+001 1.410568e+001 2.442015e+001 2.728071e+001 3.552682e+001 3.417923e+001 4.221957e+001 4.087956e+001 3.671867e+001 3.592111e+001 2.696241e+001 5.209433e-001 1.588472e+000 1.238043e+000 1.438273e+000 1.663777e+000 1.880672e+000 2.037001e+000 2.499378e+000 2.343463e+000 1.959402e+000 2.020050e+000 1.699885e+000 1.324818e+000
<GCONST> 9.127137e+001
<STATE> 4
<MEAN> 25
 6.090623e+000 -1.072895e-001 1.618421e+000 3.313387e+000 1.856030e+000 -1.267653e-001 -2.293291e-001 -3.024926e+000 -3.726727e+000 -1.345635e+000 -2.788522e-001 -2.363913e+000 -1.179816e+000 -1.149606e+000 3.045149e-001 -1.822308e+000 -1.069857e+000 9.046132e-001 -4.282452e-001 2.408214e+000 9.823165e-001 -5.765402e-001 -5.878537e-001 6.457906e-001 1.439789e+000
<VARIANCE> 25
 8.562444e+000 3.132626e+001 2.381596e+001 3.219217e+001 2.890135e+001 3.854300e+001 3.263205e+001 4.965834e+001 4.128828e+001 3.526404e+001 3.279506e+001 2.369973e+001 1.145539e+000 2.021203e+000 5.080969e+000 3.425252e+000 4.845757e+000 3.905139e+000 3.921103e+000 4.691735e+000 5.288773e+000 4.028858e+000 3.705829e+000 3.255536e+000 1.165717e+000
<GCONST> 1.017776e+002
<TRANSP> 5
 0.000000e+000 1.000000e+000 0.000000e+000 0.000000e+000 0.000000e+000
 0.000000e+000 5.186408e-001 4.813592e-001 0.000000e+000 0.000000e+000
 0.000000e+000 0.000000e+000 5.583528e-001 4.416472e-001 0.000000e+000
 0.000000e+000 0.000000e+000 0.000000e+000 4.750648e-001 5.249351e-001
 0.000000e+000 0.000000e+000 0.000000e+000 0.000000e+000 0.000000e+000
<ENDHMM>
~h "n"
<BEGINHMM>
<NUMSTATES> 5
<STATE> 2
<MEAN> 25
 5.976533e+000 1.713595e+000 2.706051e+000 4.465193e+000 1.133893e-002 -2.939243e+000 1.568442e+000 -5.525803e+000 -2.114603e+000 5.418299e-001 -4.856216e+000 -5.332561e-001 4.719608e-001 5.614745e-001 5.331313e-001 6.498734e-001 8.202846e-002 -4.554830e-001 1.758957e-001 -1.074534e+000 -5.505975e-001 2.622890e-001 -6.033822e-001 1.183081e-001 1.510176e-002
<VARIANCE> 25
 9.927270e+000 1.774478e+001 1.695536e+001 2.132003e+001 2.888727e+001 3.240549e+001 3.210463e+001 4.500867e+001 3.763210e+001 3.836961e+001 3.507718e+001 3.008327e+001 1.298131e+000 2.312649e+000 2.086749e+000 1.855298e+000 2.611226e+000 3.016210e+000 2.875075e+000 3.870149e+000 3.118739e+000 2.748226e+000 2.907241e+000 2.352417e+000 2.612426e+000
<GCONST> 9.732024e+001
<STATE> 3
<MEAN> 25
 6.302470e+000 1.185523e+000 2.897960e+000 4.943335e+000 5.731047e-001 -2.433936e+000 1.332266e+000 -6.289659e+000 -2.387238e+000 1.180577e+000 -5.166423e+000 -2.046572e-001 -2.793507e-001 -1.189507e+000 -5.024680e-001 -8.250337e-001 4.498462e-001 1.142468e+000 -7.898760e-001 9.424292e-001 3.989384e-001 -4.114719e-001 1.245445e-001 6.997684e-002 1.205211e+000
<VARIANCE> 25
 7.400554e+000 1.849980e+001 1.667589e+001 2.239083e+001 2.935092e+001 3.452715e+001 3.084537e+001 4.726265e+001 3.824713e+001 3.904916e+001 3.426859e+001 3.077087e+001 8.775285e-001 2.493577e+000 2.329649e+000 1.926562e+000 2.349684e+000 3.199204e+000 2.922322e+000 3.759549e+000 3.392567e+000 2.660675e+000 2.558732e+000 2.205483e+000 1.590567e+000
<GCONST> 9.635742e+001
<STATE> 4
<MEAN> 25
 4.750408e+000 -3.573938e+000 5.477540e-001 1.007959e+000 2.047572e+000 1.229448e+000 -2.079224e+000 -1.001423e+000 -1.444689e-002 -1.352153e+000 -4.743386e+000 -3.585445e-001 -7.098671e-001 -1.545809e+000 -1.318927e+000 -1.749164e+000 3.361204e-001 1.642153e+000 -3.420252e-001 2.088383e+000 3.270538e-001 -8.546537e-001 5.037619e-001 -6.384503e-002 1.637526e+000
<VARIANCE> 25
 9.250190e+000 2.847736e+001 2.692682e+001 2.463578e+001 2.989183e+001 4.121970e+001 3.694693e+001 5.359986e+001 3.585551e+001 3.906798e+001 3.165271e+001 2.720923e+001 1.083830e+000 2.834092e+000 2.929178e+000 2.589668e+000 3.655617e+000 4.380750e+000 4.082574e+000 4.317770e+000 4.578356e+000 3.614815e+000 3.089620e+000 2.757887e+000 1.142841e+000
<GCONST> 1.006026e+002
<TRANSP> 5
 0.000000e+000 1.000000e+000 0.000000e+000 0.000000e+000 0.000000e+000
 0.000000e+000 4.823613e-001 5.176386e-001 0.000000e+000 0.000000e+000
 0.000000e+000 0.000000e+000 3.416858e-001 6.583142e-001 0.000000e+000
 0.000000e+000 0.000000e+000 0.000000e+000 4.114970e-001 5.885030e-001
 0.000000e+000 0.000000e+000 0.000000e+000 0.000000e+000 0.000000e+000
<ENDHMM>
~h "o"
<BEGINHMM>
<NUMSTATES> 5
<STATE> 2
<MEAN> 25
 5.902242e+000 -2.706287e+000 -7.015951e+000 -7.429180e+000 3.436630e-001 6.630682e+000 -3.853743e+000 -2.517220e+000 -7.776126e-001 2.504713e+000 2.475118e+000 -1.671884e+000 8.461261e-001 3.227659e-001 -5.440388e-001 -1.734612e+000 -3.959815e-002 1.445425e+000 3.139954e-001 -4.168312e-002 -5.771469e-001 2.077875e-001 8.930942e-001 -6.658664e-002 4.319533e-001
<VARIANCE> 25
 9.539017e+000 2.180646e+001 1.798716e+001 4.411026e+001 3.807952e+001 4.230077e+001 4.292456e+001 3.371661e+001 4.256016e+001 4.519688e+001 4.428643e+001 2.662365e+001 1.462503e+000 1.517714e+000 2.211125e+000 3.399144e+000 3.085364e+000 3.153961e+000 3.252004e+000 3.832064e+000 3.555007e+000 3.462534e+000 3.023916e+000 2.421542e+000 1.759486e+000
<GCONST> 9.993594e+001
<STATE> 3
<MEAN> 25
 6.787388e+000 -8.147976e-001 -7.006870e+000 -1.139239e+001 -2.349718e-001 1.012080e+001 -5.657313e-001 -2.202420e+000 -2.766810e+000 7.135217e-001 4.330907e+000 4.486590e-002 2.862285e-002 4.144388e-001 3.248682e-001 4.166423e-001 3.357271e-001 -2.320890e-001 -3.548120e-003 -2.476965e-001 -3.830338e-002 2.752748e-001 1.120369e-001 -4.388100e-002 -3.975634e-001
<VARIANCE> 25
 7.557030e+000 1.924510e+001 1.738275e+001 4.191483e+001 4.281116e+001 3.590232e+001 4.252750e+001 3.508390e+001 3.654137e+001 4.550186e+001 3.896859e+001 2.735468e+001 4.481762e-001 1.435764e+000 9.863387e-001 2.466520e+000 2.067265e+000 2.091146e+000 2.639058e+000 2.183030e+000 2.509255e+000 2.535903e+000 2.039512e+000 1.793508e+000 1.001255e+000
<GCONST> 9.336304e+001
<STATE> 4
<MEAN> 25
 6.069529e+000 9.714084e-001 -4.190435e+000 -4.833766e+000 2.612905e+000 5.099060e+000 -3.003480e+000 -3.174068e+000 -5.028659e-001 3.427028e+000 2.434539e+000 -1.724943e+000 -5.994198e-001 1.269043e+000 1.432511e+000 2.052939e+000 2.952209e-001 -1.474333e+000 7.828173e-001 3.981456e-001 6.680160e-001 -5.436164e-001 -8.427057e-001 -4.379943e-002 -1.602816e+000
<VARIANCE> 25
 1.005162e+001 2.804991e+001 2.067762e+001 3.581857e+001 3.303118e+001 3.990510e+001 5.045050e+001 3.680473e+001 4.468776e+001 4.360693e+001 4.441994e+001 2.876941e+001 1.659025e+000 2.447337e+000 1.761617e+000 3.009030e+000 3.202573e+000 3.611499e+000 3.769315e+000 4.314989e+000 4.217736e+000 3.582732e+000 3.644042e+000 2.555454e+000 1.816835e+000
<GCONST> 1.014846e+002
<TRANSP> 5
 0.000000e+000 1.000000e+000 0.000000e+000 0.000000e+000 0.000000e+000
 0.000000e+000 4.559272e-001 5.440728e-001 0.000000e+000 0.000000e+000
 0.000000e+000 0.000000e+000 6.689392e-001 3.310608e-001 0.000000e+000
 0.000000e+000 0.000000e+000 0.000000e+000 5.607186e-001 4.392814e-001
 0.000000e+000 0.000000e+000 0.000000e+000 0.000000e+000 0.000000e+000
<ENDHMM>
~h "p"
<BEGINHMM>
<NUMSTATES> 5
<STATE> 2
<MEAN> 25
 1.125427e+000 5.197472e+000 3.456423e-001 8.205833e-001 1.447074e+000 6.484852e-001 2.382793e+000 2.410173e+000 3.787252e+000 -7.367259e-001 -2.978308e-001 -1.338627e+000 -1.767673e+000 -1.867607e+000 -6.716002e-001 4.565611e-002 -1.646544e-001 1.117074e-001 -8.250352e-001 -1.375408e-001 -1.262085e-001 -7.018920e-002 5.304151e-001 4.520704e-001 1.138876e+000
<VARIANCE> 25
 1.565127e+001 1.421342e+001 1.886997e+001 1.982575e+001 2.042730e+001 2.681661e+001 2.349349e+001 2.927150e+001 2.773199e+001 2.499447e+001 3.121921e+001 2.341628e+001 1.405818e+000 2.711814e+000 2.249959e+000 2.061978e+000 2.353120e+000 2.926244e+000 2.824876e+000 2.836849e+000 2.712318e+000 2.471964e+000 2.640318e+000 2.068614e+000 3.862446e+000
<GCONST> 9.508649e+001
<STATE> 3
<MEAN> 25
 -5.224898e+000 -3.670106e+000 -2.573822e+000 1.552840e+000 1.436984e+000 1.345780e+000 -1.478650e+000 1.452510e+000 2.808750e+000 -8.785473e-001 1.702456e+000 2.367665e-001 1.489655e-001 -2.722889e+000 -1.626133e+000 -1.149547e+000 -1.060977e+000 -2.377769e-001 -1.747014e+000 -6.876295e-001 -9.588795e-001 3.141086e-001 6.393355e-001 3.904690e-001 3.964401e+000
<VARIANCE> 25
 1.235608e+001 2.452813e+001 2.183267e+001 1.964054e+001 2.549367e+001 3.063153e+001 3.205946e+001 3.253084e+001 2.447650e+001 2.400991e+001 3.199177e+001 1.988423e+001 2.514412e+000 2.068980e+000 3.369099e+000 3.971406e+000 3.702463e+000 5.265996e+000 3.441963e+000 4.129342e+000 3.718144e+000 3.464471e+000 3.880609e+000 2.802821e+000 2.621197e+000
<GCONST> 9.993705e+001
<STATE> 4
<MEAN> 25
 1.604616e-001 -4.458395e+000 -6.118083e+000 -3.121408e+000 -1.105056e+000 8.895469e-001 -3.292185e+000 -3.909801e-001 -1.192885e-001 -4.339373e-002 2.294504e+000 2.498014e-001 2.578105e+000 -1.208729e-001 -6.135156e-001 -2.064158e+000 -1.216570e+000 3.708130e-001 -3.447334e-001 -6.740354e-001 -1.194139e+000 3.955148e-001 1.072923e-001 -1.371365e-002 2.595286e+000
<VARIANCE> 25
 2.265545e+001 1.830615e+001 2.582597e+001 4.125766e+001 2.956878e+001 3.984300e+001 3.141975e+001 3.161530e+001 2.664216e+001 2.478258e+001 2.789474e+001 2.130263e+001 2.189412e+000 3.530693e+000 3.920630e+000 8.952435e+000 4.062575e+000 6.150509e+000 4.332970e+000 4.508606e+000 4.256080e+000 3.971973e+000 5.292272e+000 2.801645e+000 3.047542e+000
<GCONST> 1.042307e+002
<TRANSP> 5
 0.000000e+000 1.000000e+000 0.000000e+000 0.000000e+000 0.000000e+000
 0.000000e+000 5.815409e-001 4.184591e-001 0.000000e+000 0.000000e+000
 0.000000e+000 0.000000e+000 3.332425e-001 6.667575e-001 0.000000e+000
 0.000000e+000 0.000000e+000 0.000000e+000 3.322347e-001 6.677653e-001
 0.000000e+000 0.000000e+000 0.000000e+000 0.000000e+000 0.000000e+000
<ENDHMM>
~h "r"
<BEGINHMM>
<NUMSTATES> 5
<STATE> 2
<MEAN> 25
 2.692860e+000 -3.515802e+000 -2.697272e-001 1.614870e+000 -2.772371e+000 -3.075136e+000 -4.733159e+000 9.595128e-001 4.449559e+000 8.731122e-001 -2.317177e-001 -1.311135e-001 8.092774e-001 -5.196798e-001 1.383173e+000 8.703931e-001 -6.655699e-001 5.133945e-001 -6.070432e-001 2.249263e-001 6.196634e-001 -3.057211e-001 -1.190888e-001 1.086959e-001 -2.002410e-001
<VARIANCE> 25
 1.262280e+001 1.873576e+001 3.127853e+001 2.363761e+001 2.890063e+001 4.230761e+001 3.371135e+001 3.928710e+001 3.120995e+001 3.361680e+001 2.820851e+001 2.548454e+001 2.373689e+000 2.177774e+000 3.030854e+000 3.128968e+000 3.452977e+000 4.537669e+000 3.630103e+000 4.094014e+000 3.009903e+000 3.436476e+000 3.392148e+000 2.517995e+000 1.670931e+000
<GCONST> 1.001870e+002
<STATE> 3
<MEAN> 25
 2.834859e+000 -5.324668e+000 1.804527e+000 3.170795e+000 -3.727957e+000 -1.252674e+000 -4.818888e+000 1.452942e+000 4.813881e+000 3.035502e-002 -2.331083e-001 7.204384e-001 5.244055e-001 -1.212554e+000 5.767346e-003 -1.231516e-001 -6.868879e-001 -7.949111e-002 1.400867e-001 4.854120e-001 -4.796185e-001 1.390883e-001 -2.115887e-001 1.640041e-001 4.109095e-001
<VARIANCE> 25
 1.423252e+001 2.422899e+001 3.228175e+001 2.639477e+001 3.519254e+001 3.805959e+001 3.229573e+001 4.101684e+001 3.261825e+001 3.446646e+001 2.832885e+001 2.301995e+001 1.581813e+000 2.071066e+000 3.123127e+000 2.178137e+000 2.642715e+000 3.382828e+000 2.966549e+000 4.092688e+000 2.737256e+000 3.085356e+000 2.980380e+000 2.273843e+000 1.278026e+000
<GCONST> 9.851520e+001
<STATE> 4
<MEAN> 25
 4.296467e+000 -7.730326e+000 -1.268516e-001 1.531304e+000 -5.160149e+000 -2.615011e+000 -4.416392e+000 2.577708e+000 2.970972e+000 1.098923e+000 -6.761082e-001 4.604361e-001 4.047418e-001 -5.344668e-001 -4.729582e-001 -8.303404e-001 -5.086808e-004 -2.321993e-001 7.552356e-001 3.553456e-001 -1.079005e+000 3.589881e-001 -1.806293e-001 -1.866479e-001 6.053240e-001
<VARIANCE> 25
 1.320783e+001 2.318064e+001 3.811750e+001 2.272423e+001 2.964173e+001 3.819187e+001 3.523262e+001 4.486292e+001 3.547092e+001 3.385788e+001 3.532101e+001 2.698260e+001 1.663091e+000 2.184180e+000 2.698997e+000 2.532580e+000 3.547336e+000 4.042381e+000 3.373925e+000 4.696503e+000 3.429802e+000 3.513000e+000 3.820843e+000 2.317613e+000 1.181754e+000
<GCONST> 1.002580e+002
<TRANSP> 5
 0.000000e+000 1.000000e+000 0.000000e+000 0.000000e+000 0.000000e+000
 0.000000e+000 3.834415e-001 6.165584e-001 0.000000e+000 0.000000e+000
 0.000000e+000 0.000000e+000 2.796705e-001 7.203295e-001 0.000000e+000
 0.000000e+000 0.000000e+000 0.000000e+000 2.397624e-001 7.602376e-001
 0.000000e+000 0.000000e+000 0.000000e+000 0.000000e+000 0.000000e+000
<ENDHMM>
~h "s"
<BEGINHMM>
<NUMSTATES> 5
<STATE> 2
<MEAN> 25
 -8.717220e+000 9.151890e+000 4.823916e-001 3.819228e+000 4.900970e+000 -2.693137e+000 2.061924e+000 2.250030e+000 1.171552e+000 -1.153826e+000 2.826120e-001 1.173606e+000 -4.156958e+000 2.219227e+000 -1.283974e+000 9.447973e-001 1.644629e+000 4.220457e-001 9.496407e-001 1.217096e+000 8.069283e-001 -5.060921e-001 7.453855e-001 3.036167e-002 8.911227e-002
<VARIANCE> 25
 3.933848e+001 2.721163e+001 2.981602e+001 2.916985e+001 4.415203e+001 4.335105e+001 4.911002e+001 3.951017e+001 3.303504e+001 3.381104e+001 3.724660e+001 2.897067e+001 1.827794e+000 3.376606e+000 3.127729e+000 3.129269e+000 3.550561e+000 4.758928e+000 4.266608e+000 3.949554e+000 3.102386e+000 3.220109e+000 4.088433e+000 3.482796e+000 1.125236e+000
<GCONST> 1.036490e+002
<STATE> 3
<MEAN> 25
 -1.646784e+001 9.758018e+000 -6.501559e+000 5.219658e+000 5.652008e+000 2.099890e-001 2.476433e+000 3.012319e+000 2.349360e+000 -1.784990e+000 2.021587e+000 1.257606e+000 -3.402259e-001 -8.594792e-001 -6.720924e-001 7.545284e-003 -2.102988e-001 2.382644e-001 -1.045855e-001 -1.432750e-001 7.362353e-002 2.893435e-002 5.779204e-002 1.778616e-002 -6.778777e-001
<VARIANCE> 25
 9.796734e+000 2.261856e+001 1.899340e+001 2.836229e+001 2.871145e+001 3.436515e+001 3.288138e+001 2.873326e+001 2.743858e+001 2.490612e+001 3.919877e+001 2.745442e+001 1.288921e+000 1.795820e+000 2.086116e+000 1.477302e+000 1.984797e+000 2.194067e+000 2.506428e+000 2.257157e+000 2.115633e+000 2.115402e+000 1.936037e+000 1.659947e+000 7.432927e-001
<GCONST> 9.242883e+001
<STATE> 4
<MEAN> 25
 -1.167230e+001 3.089703e+000 -5.604822e+000 3.084768e+000 2.500156e+000 -2.573614e+000 1.707426e+000 1.175735e+000 2.071033e+000 -3.487800e-001 1.156070e+000 1.742161e+000 3.090633e+000 -1.232114e+000 9.244187e-001 -6.781778e-001 -1.301170e+000 -8.542934e-001 -8.101185e-001 -1.082473e+000 -4.195922e-001 4.327110e-001 -3.619705e-001 -1.684477e-001 -4.357634e-002
<VARIANCE> 25
 4.074287e+001 3.136436e+001 2.880219e+001 2.944682e+001 4.696024e+001 4.918254e+001 4.994123e+001 3.693600e+001 3.089637e+001 2.623362e+001 3.790688e+001 2.637311e+001 3.722715e+000 2.789948e+000 2.587316e+000 2.542118e+000 3.326790e+000 4.421614e+000 4.278636e+000 3.937752e+000 3.003364e+000 2.695173e+000 3.690751e+000 2.785950e+000 3.093371e+000
<GCONST> 1.040007e+002
<TRANSP> 5
 0.000000e+000 1.000000e+000 0.000000e+000 0.000000e+000 0.000000e+000
 0.000000e+000 6.357730e-001 3.642270e-001 0.000000e+000 0.000000e+000
 0.000000e+000 0.000000e+000 7.961777e-001 2.038223e-001 0.000000e+000
 0.000000e+000 0.000000e+000 0.000000e+000 6.612393e-001 3.387608e-001
 0.000000e+000 0.000000e+000 0.000000e+000 0.000000e+000 0.000000e+000
<ENDHMM>
~h "t"
<BEGINHMM>
<NUMSTATES> 5
<STATE> 2
<MEAN> 25
 -1.698571e+000 6.416519e+000 2.181858e+000 2.759964e+000 1.171638e+000 -1.177742e+000 1.692448e+000 2.165357e+000 3.642804e+000 -3.453768e-001 6.529459e-001 -4.591756e-003 -1.537289e+000 -1.693334e+000 -7.129954e-001 -8.051956e-001 5.388023e-001 6.179127e-001 -2.858615e-002 -1.725415e-001 -2.691121e-001 -2.373044e-001 5.457082e-001 2.402374e-001 5.458555e-001
<VARIANCE> 25
 3.077172e+001 1.572854e+001 2.455371e+001 2.270825e+001 2.703621e+001 3.389024e+001 2.747479e+001 3.164626e+001 2.931035e+001 2.666476e+001 3.265551e+001 2.144533e+001 3.257064e+000 3.025991e+000 2.469142e+000 2.281220e+000 2.745307e+000 3.059694e+000 3.144545e+000 3.086814e+000 2.686532e+000 2.515020e+000 2.706969e+000 2.177243e+000 4.277820e+000
<GCONST> 9.880911e+001
<STATE> 3
<MEAN> 25
 -8.019257e+000 -1.144334e+000 -9.527947e-001 -6.121131e-002 3.549696e+000 1.054092e+000 1.322516e+000 1.308907e+000 1.742797e+000 -1.466993e+000 2.370185e+000 1.350323e+000 -1.296718e+000 -2.295293e+000 -1.453050e+000 -1.194139e+000 -6.579393e-001 -9.207739e-001 -5.236697e-001 -3.885157e-001 -4.937953e-001 -8.229594e-002 3.733614e-001 7.156404e-001 2.974842e+000
<VARIANCE> 25
 2.076417e+001 3.854132e+001 3.087579e+001 2.719132e+001 2.648139e+001 3.101505e+001 3.245914e+001 3.063323e+001 2.564373e+001 2.350609e+001 3.857039e+001 2.258292e+001 4.489698e+000 2.544139e+000 2.909719e+000 2.937175e+000 3.628062e+000 4.077646e+000 4.341700e+000 3.916683e+000 3.354729e+000 3.118774e+000 3.590154e+000 2.860598e+000 3.397240e+000
<GCONST> 1.021578e+002
<STATE> 4
<MEAN> 25
 -6.194447e+000 -1.841229e+000 -3.316450e+000 -1.220151e+000 -9.003424e-001 -4.641465e+000 -1.310687e-001 7.194504e-001 1.683100e+000 -8.544628e-001 8.435557e-001 2.357443e+000 2.093081e+000 -2.396984e-001 3.033049e-001 -8.854446e-002 -1.348281e+000 -1.142697e+000 -1.089336e+000 -5.389584e-001 -4.406804e-001 6.669320e-001 -6.847141e-001 -4.528792e-001 1.582847e+000
<VARIANCE> 25
 2.997349e+001 2.527626e+001 2.386502e+001 2.365899e+001 3.113041e+001 3.768148e+001 4.607608e+001 3.101417e+001 2.748421e+001 2.644563e+001 4.137802e+001 2.650423e+001 4.168142e+000 3.181001e+000 4.676847e+000 2.903858e+000 4.200482e+000 5.094932e+000 4.471263e+000 5.098891e+000 4.370298e+000 3.512988e+000 5.441113e+000 3.558894e+000 3.256451e+000
<GCONST> 1.050929e+002
<TRANSP> 5
 0.000000e+000 1.000000e+000 0.000000e+000 0.000000e+000 0.000000e+000
 0.000000e+000 4.948397e-001 5.051603e-001 0.000000e+000 0.000000e+000
 0.000000e+000 0.000000e+000 3.774607e-001 6.225393e-001 0.000000e+000
 0.000000e+000 0.000000e+000 0.000000e+000 4.723119e-001 5.276881e-001
 0.000000e+000 0.000000e+000 0.000000e+000 0.000000e+000 0.000000e+000
<ENDHMM>
~h "u"
<BEGINHMM>
<NUMSTATES> 5
<STATE> 2
<MEAN> 25
 5.596097e+000 2.002836e+000 -4.629158e+000 -4.659283e+000 -8.334006e-001 3.828679e+000 -6.609378e+000 -5.706478e+000 -3.648167e+000 1.669066e+000 3.971632e+000 4.850342e-002 1.615294e+000 1.417078e+000 -7.747398e-001 -2.349785e+000 -5.698885e-001 1.465885e+000 5.078239e-001 -7.888902e-001 -1.517738e+000 -2.596838e-001 6.822610e-001 4.181507e-001 5.857971e-002
<VARIANCE> 25
 1.265419e+001 2.657653e+001 2.200228e+001 4.857525e+001 3.674961e+001 4.832920e+001 5.437096e+001 4.486477e+001 4.149572e+001 4.872241e+001 3.915095e+001 2.609738e+001 2.826712e+000 1.908398e+000 2.780124e+000 3.408808e+000 4.451182e+000 4.596630e+000 5.275746e+000 6.285054e+000 4.361729e+000 4.676528e+000 3.773763e+000 2.889949e+000 2.429518e+000
<GCONST> 1.053083e+002
<STATE> 3
<MEAN> 25
 8.179235e+000 6.390862e+000 -4.193293e+000 -9.885380e+000 -4.095019e+000 5.392622e+000 -1.036956e+000 -1.987728e+000 -5.203732e+000 -2.052944e+000 2.104976e+000 7.851378e-001 5.481735e-002 3.033634e-001 2.343824e-001 2.583079e-001 1.545120e-001 1.741235e-002 3.223712e-001 2.782862e-003 7.833400e-002 -1.246911e-001 -1.218210e-001 1.047853e-002 -3.454559e-001
<VARIANCE> 25
 6.942055e+000 2.543142e+001 2.079288e+001 3.644016e+001 3.449398e+001 4.271667e+001 3.838445e+001 4.271697e+001 4.123770e+001 4.335859e+001 3.563739e+001 2.926413e+001 5.146459e-001 1.978541e+000 1.261458e+000 2.807266e+000 2.503023e+000 2.801234e+000 3.250485e+000 3.981214e+000 2.647930e+000 2.964202e+000 2.913274e+000 2.166038e+000 1.375450e+000
<GCONST> 9.689889e+001
<STATE> 4
<MEAN> 25
 6.156452e+000 4.131333e+000 -2.417967e+000 -3.109224e+000 9.441785e-001 4.527312e+000 -4.211634e+000 -5.916053e+000 -2.582528e+000 1.011819e+000 3.226097e+000 5.260779e-001 -1.061635e+000 1.571860e-002 1.282103e+000 2.119299e+000 8.079438e-001 -1.411992e+000 2.105126e-001 6.758073e-001 1.380231e+000 1.157519e-001 -7.188410e-001 -4.831497e-001 -7.940665e-001
<VARIANCE> 25
 9.823442e+000 2.597720e+001 2.778954e+001 3.539158e+001 3.406081e+001 4.103779e+001 6.146836e+001 5.058903e+001 4.263464e+001 4.735666e+001 4.111478e+001 2.806249e+001 1.617664e+000 3.050928e+000 2.004868e+000 3.332805e+000 3.724193e+000 3.551693e+000 5.128757e+000 5.549381e+000 4.377114e+000 4.502714e+000 3.685939e+000 2.769082e+000 2.305319e+000
<GCONST> 1.038921e+002
<TRANSP> 5
 0.000000e+000 1.000000e+000 0.000000e+000 0.000000e+000 0.000000e+000
 0.000000e+000 5.393470e-001 4.606530e-001 0.000000e+000 0.000000e+000
 0.000000e+000 0.000000e+000 7.236460e-001 2.763541e-001 0.000000e+000
 0.000000e+000 0.000000e+000 0.000000e+000 5.838203e-001 4.161797e-001
 0.000000e+000 0.000000e+000 0.000000e+000 0.000000e+000 0.000000e+000
<ENDHMM>
~h "v"
<BEGINHMM>
<NUMSTATES> 5
<STATE> 2
<MEAN> 25
 3.577051e+000 1.534351e+000 -2.129008e-001 2.263079e+000 2.775002e+000 9.403449e-001 -3.736852e+000 -2.716033e+000 -1.197702e+000 1.280405e+000 1.543400e+000 -1.479506e+000 5.939201e-001 3.202641e-002 -2.685818e-001 7.424961e-002 1.863253e-001 2.510818e-001 -4.928896e-001 -5.061038e-001 -2.940642e-001 2.707261e-001 5.236246e-002 -3.215367e-001 3.467445e-001
<VARIANCE> 25
 2.550446e+001 2.419025e+001 2.267025e+001 2.507718e+001 2.278169e+001 3.738735e+001 3.058780e+001 3.080821e+001 2.995622e+001 2.869447e+001 2.717828e+001 2.276606e+001 3.059863e+000 3.391690e+000 2.840708e+000 3.713312e+000 2.696247e+000 3.980877e+000 3.237750e+000 3.530323e+000 3.395405e+000 3.320977e+000 3.027803e+000 2.455747e+000 3.403384e+000
<GCONST> 1.006536e+002
<STATE> 3
<MEAN> 25
 4.325498e+000 -3.804683e-001 -1.829026e+000 6.230896e-001 2.011388e+000 1.112338e+000 -4.068200e+000 -2.371026e+000 -9.376655e-001 1.996456e+000 1.767185e+000 -1.891388e+000 2.178392e-001 -1.602020e+000 -6.191812e-001 -1.166563e+000 -1.079794e+000 -6.776016e-001 -9.213176e-002 7.605273e-001 1.884180e-001 3.905093e-001 -2.233430e-001 -1.370980e-001 1.897842e+000
<VARIANCE> 25
 1.852199e+001 2.301454e+001 3.057502e+001 3.635822e+001 2.212625e+001 3.842089e+001 3.044600e+001 2.899405e+001 3.024093e+001 3.009896e+001 2.980493e+001 2.187582e+001 2.401541e+000 3.180151e+000 3.709747e+000 4.161309e+000 2.365577e+000 3.750548e+000 2.968400e+000 3.848438e+000 4.045864e+000 3.263167e+000 3.307429e+000 2.920644e+000 2.597433e+000
<GCONST> 1.010291e+002
<STATE> 4
<MEAN> 25
 4.657589e+000 -3.480078e+000 -2.450952e+000 -1.244400e+000 -5.430424e-001 -1.338045e+000 -3.931651e+000 1.120992e-001 -2.911935e-001 2.446722e+000 9.539385e-001 -1.784892e+000 -1.084855e-001 -1.328442e+000 1.086687e-001 -8.494722e-001 -1.382053e+000 -6.770413e-001 6.158893e-001 9.708467e-001 -2.134078e-002 1.594069e-002 -4.864415e-001 1.799872e-001 1.780093e+000
<VARIANCE> 25
 1.379297e+001 2.543788e+001 4.156604e+001 4.324868e+001 2.393228e+001 4.872528e+001 3.269110e+001 3.334182e+001 3.417233e+001 3.418933e+001 3.607383e+001 2.562913e+001 1.726668e+000 2.018503e+000 3.268826e+000 3.058116e+000 3.468664e+000 3.670302e+000 3.042003e+000 3.866994e+000 4.659398e+000 3.197965e+000 3.627268e+000 2.937637e+000 1.519748e+000
<GCONST> 1.012954e+002
<TRANSP> 5
 0.000000e+000 1.000000e+000 0.000000e+000 0.000000e+000 0.000000e+000
 0.000000e+000 3.747029e-001 6.252971e-001 0.000000e+000 0.000000e+000
 0.000000e+000 0.000000e+000 2.012525e-001 7.987475e-001 0.000000e+000
 0.000000e+000 0.000000e+000 0.000000e+000 1.335510e-001 8.664491e-001
 0.000000e+000 0.000000e+000 0.000000e+000 0.000000e+000 0.000000e+000
<ENDHMM>
~h "z"
<BEGINHMM>
<NUMSTATES> 5
<STATE> 2
<MEAN> 25
 -4.662493e+000 1.173178e+001 -2.923561e+000 2.212867e+000 5.477434e+000 -5.141722e+000 -3.260842e+000 -3.227829e+000 1.559270e+000 1.946432e+000 -3.787706e-001 2.533185e-001 -3.348623e+000 3.526852e+000 -4.215723e-001 1.492951e+000 9.164594e-001 -2.320767e-001 1.128574e+000 9.195294e-001 6.573778e-001 -1.116235e+000 3.020273e-001 1.774523e-001 -3.836472e-001
<VARIANCE> 25
 2.771149e+001 3.521358e+001 2.276611e+001 3.681645e+001 4.122346e+001 3.388274e+001 3.834090e+001 3.306892e+001 3.515515e+001 4.030410e+001 2.879481e+001 2.377827e+001 1.422010e+000 3.023149e+000 1.996906e+000 2.609638e+000 3.602210e+000 4.904233e+000 3.337423e+000 3.789089e+000 3.035479e+000 3.046554e+000 4.302001e+000 3.306398e+000 6.654639e-001
<GCONST> 1.007238e+002
<STATE> 3
<MEAN> 25
 -1.239479e+001 1.500542e+001 -3.492812e+000 6.008243e+000 5.814701e+000 -2.097799e+000 1.514315e-001 9.692828e-001 2.489309e+000 -1.300045e+000 9.919056e-001 8.092965e-001 -3.400021e-001 -1.065381e+000 -1.246302e-001 3.342567e-002 -1.099889e-002 2.539853e-001 1.224435e-001 1.662328e-001 -1.029031e-002 -1.693219e-001 3.441438e-002 2.068408e-001 -3.549318e-001
<VARIANCE> 25
 1.256076e+001 1.894646e+001 2.103350e+001 3.082419e+001 3.570005e+001 3.743810e+001 3.521348e+001 3.135843e+001 3.095641e+001 2.742797e+001 3.231697e+001 2.179849e+001 2.588775e+000 2.041693e+000 1.544443e+000 1.655454e+000 2.045271e+000 2.711891e+000 2.253513e+000 2.659423e+000 2.062176e+000 1.956178e+000 1.929223e+000 1.598049e+000 6.656269e-001
<GCONST> 9.362098e+001
<STATE> 4
<MEAN> 25
 -4.758915e+000 5.798020e+000 -4.831493e+000 2.235943e+000 3.233822e+000 -5.820265e+000 -2.687266e+000 -2.038677e+000 3.064946e+000 1.680561e+000 -1.149767e+000 1.350405e+000 3.417024e+000 -3.431756e+000 -1.907720e-001 -1.342206e+000 -1.208381e+000 -6.211243e-001 -6.684848e-001 -2.022028e-001 4.111542e-001 1.048232e+000 -9.071656e-001 -2.839044e-001 1.157736e+000
<VARIANCE> 25
 4.137453e+001 3.773431e+001 1.944817e+001 2.731679e+001 2.944822e+001 2.971207e+001 3.343711e+001 3.376069e+001 2.884790e+001 3.871644e+001 2.764181e+001 2.447069e+001 1.798412e+000 2.550060e+000 1.760556e+000 2.379672e+000 2.447558e+000 4.125543e+000 3.467035e+000 4.091098e+000 2.811065e+000 2.656808e+000 4.265153e+000 3.425820e+000 1.175677e+000
<GCONST> 9.968804e+001
<TRANSP> 5
 0.000000e+000 1.000000e+000 0.000000e+000 0.000000e+000 0.000000e+000
 0.000000e+000 6.629719e-001 3.370281e-001 0.000000e+000 0.000000e+000
 0.000000e+000 0.000000e+000 6.878459e-001 3.121541e-001 0.000000e+000
 0.000000e+000 0.000000e+000 0.000000e+000 6.869842e-001 3.130158e-001
 0.000000e+000 0.000000e+000 0.000000e+000 0.000000e+000 0.000000e+000
<ENDHMM>
~h "Cc"
<BEGINHMM>
<NUMSTATES> 5
<STATE> 2
<MEAN> 25
 -9.652595e+000 7.504403e+000 6.166456e+000 -1.195998e+000 5.905502e-001 5.123699e+000 -3.910700e+000 3.683790e+000 2.222054e+000 -1.934832e+000 2.099207e+000 1.678450e-001 -3.855101e+000 -5.379353e-002 1.136458e-001 -7.000697e-001 -2.818608e-001 1.532560e+000 -5.497391e-004 2.718717e-001 2.553602e-001 -8.586053e-001 8.316620e-001 -1.066047e-001 8.832686e-001
<VARIANCE> 25
 5.735563e+001 3.212731e+001 2.805582e+001 2.551657e+001 3.559422e+001 5.744842e+001 3.492650e+001 4.588811e+001 3.276588e+001 3.220607e+001 4.034912e+001 2.824424e+001 2.970657e+000 4.060664e+000 3.020342e+000 2.101300e+000 3.830303e+000 3.874802e+000 3.893527e+000 4.449664e+000 3.235433e+000 3.011932e+000 3.094158e+000 2.373909e+000 3.639225e+000
<GCONST> 1.044922e+002
<STATE> 3
<MEAN> 25
 -2.021219e+001 1.997075e+000 5.349008e+000 -6.033978e-001 -2.801580e+000 6.118058e+000 -3.864598e-002 2.750048e+000 2.670752e+000 -5.516423e+000 4.794981e+000 1.591044e+000 2.614628e-001 -1.809500e+000 -3.614027e-001 6.524160e-001 -9.009036e-001 -1.458311e+000 1.202186e+000 2.642844e-001 -1.806051e-001 -3.347502e-001 4.307043e-001 3.453513e-001 1.060665e-001
<VARIANCE> 25
 7.242458e+000 2.574009e+001 2.481207e+001 2.771760e+001 3.612336e+001 3.624389e+001 3.141322e+001 3.757359e+001 3.535432e+001 2.927908e+001 5.480064e+001 2.709127e+001 3.570993e+000 1.538724e+000 1.875538e+000 1.594539e+000 2.365813e+000 3.146928e+000 2.671398e+000 2.847217e+000 2.402243e+000 2.238076e+000 2.361278e+000 1.810185e+000 9.027413e-001
<GCONST> 9.607239e+001
<STATE> 4
<MEAN> 25
 -1.017727e+001 -2.283677e+000 4.002929e+000 1.075231e+000 -6.004180e+000 -2.569199e+000 -8.953810e-001 2.444163e+000 8.230757e-001 -5.133221e+000 3.663271e+000 1.839361e+000 4.827403e+000 -4.880111e-001 5.016432e-002 3.754512e-001 -9.734159e-001 -2.478922e+000 -1.405262e+000 -1.128126e+000 -1.008946e+000 8.283284e-001 -8.347913e-001 -9.865526e-002 6.583436e-001
<VARIANCE> 25
 5.433609e+001 1.780269e+001 1.959911e+001 2.373147e+001 2.924471e+001 3.659617e+001 3.565104e+001 3.212025e+001 4.195678e+001 2.593483e+001 3.723606e+001 1.941748e+001 1.430413e+000 2.390471e+000 2.478996e+000 2.088149e+000 3.500638e+000 3.673152e+000 3.002518e+000 3.795712e+000 3.345610e+000 2.793807e+000 4.490370e+000 2.481265e+000 1.247194e+000
<GCONST> 9.928590e+001
<TRANSP> 5
 0.000000e+000 1.000000e+000 0.000000e+000 0.000000e+000 0.000000e+000
 0.000000e+000 7.449095e-001 2.550906e-001 0.000000e+000 0.000000e+000
 0.000000e+000 0.000000e+000 7.126120e-001 2.873880e-001 0.000000e+000
 0.000000e+000 0.000000e+000 0.000000e+000 6.435972e-001 3.564028e-001
 0.000000e+000 0.000000e+000 0.000000e+000 0.000000e+000 0.000000e+000
<ENDHMM>
~h "dz"
<BEGINHMM>
<NUMSTATES> 5
<STATE> 2
<MEAN> 25
 -5.368267e+000 8.307007e+000 1.074942e+001 1.220504e+000 -3.633103e+000 5.967830e+000 -5.031625e+000 3.439023e+000 3.195971e+000 -5.036750e+000 1.925801e+000 9.799805e-002 -4.188040e+000 4.774827e-001 1.922748e-001 5.286747e-001 -1.908404e-001 2.537031e+000 -9.101944e-002 -7.085837e-001 1.537581e+000 -5.730800e-001 7.640193e-001 -6.257411e-001 7.389793e-001
<VARIANCE> 25
 4.225565e+001 2.400974e+001 1.641369e+001 1.791169e+001 3.439859e+001 4.034278e+001 3.216064e+001 3.451314e+001 3.089195e+001 2.335711e+001 3.283506e+001 2.296852e+001 1.825854e+000 4.736121e+000 2.474626e+000 2.371669e+000 2.734875e+000 3.578315e+000 5.409309e+000 4.047024e+000 3.393158e+000 3.293589e+000 3.224427e+000 3.041133e+000 2.506207e+000
<GCONST> 1.009167e+002
<STATE> 3
<MEAN> 25
 -1.492568e+001 4.086639e+000 8.781188e+000 4.626432e+000 -5.646702e+000 6.221642e+000 -1.704310e+000 5.670161e-001 3.260339e+000 -6.848202e+000 5.171051e+000 1.274489e+000 1.283485e+000 -1.860355e+000 -1.657148e+000 1.156460e+000 -4.742054e-001 -2.918159e+000 -3.836342e-001 -8.298546e-001 -3.346402e-001 -7.496511e-001 4.935057e-001 7.228523e-001 7.374082e-001
<VARIANCE> 25
 1.459377e+001 1.833249e+001 2.624840e+001 3.382779e+001 3.090056e+001 4.359057e+001 4.437207e+001 3.798267e+001 3.141283e+001 2.914018e+001 4.564208e+001 2.557981e+001 9.127586e+000 2.169605e+000 1.927662e+000 1.650477e+000 3.632966e+000 3.713406e+000 4.659028e+000 2.961205e+000 3.267699e+000 2.676209e+000 2.766054e+000 2.020247e+000 9.672590e-001
<GCONST> 1.000679e+002
<STATE> 4
<MEAN> 25
 -6.359164e-001 -7.388237e-001 2.094656e+000 5.825489e+000 -4.843734e+000 -2.713372e+000 -9.531704e+000 -4.075437e+000 4.768243e+000 -5.253597e+000 3.253012e+000 1.526443e+000 4.248302e+000 -8.233045e-001 -2.000569e+000 -1.104065e+000 1.151880e+000 -3.859994e-001 -2.277842e+000 -2.075401e+000 1.889749e-001 2.424066e+000 -3.986836e-001 -6.169183e-001 -2.975366e-002
<VARIANCE> 25
 2.794712e+001 9.456523e+000 1.502225e+001 2.307906e+001 2.356034e+001 2.259895e+001 3.569959e+001 3.719332e+001 3.496951e+001 3.379632e+001 2.508263e+001 2.060077e+001 2.622609e+000 1.841561e+000 2.089705e+000 2.788826e+000 3.118771e+000 5.990960e+000 3.548058e+000 3.522436e+000 3.276257e+000 3.597103e+000 4.500650e+000 2.407481e+000 4.457078e-001
<GCONST> 9.699568e+001
<TRANSP> 5
 0.000000e+000 1.000000e+000 0.000000e+000 0.000000e+000 0.000000e+000
 0.000000e+000 6.643738e-001 3.356262e-001 0.000000e+000 0.000000e+000
 0.000000e+000 0.000000e+000 6.375735e-001 3.624265e-001 0.000000e+000
 0.000000e+000 0.000000e+000 0.000000e+000 6.220294e-001 3.779706e-001
 0.000000e+000 0.000000e+000 0.000000e+000 0.000000e+000 0.000000e+000
<ENDHMM>
~h "sp"
<BEGINHMM>
<NUMSTATES> 3
<STATE> 2
~s "silst"
<TRANSP> 3
 0.000000e+000 2.096858e-001 7.903143e-001
 0.000000e+000 8.606524e-001 1.393476e-001
 0.000000e+000 0.000000e+000 0.000000e+000
<ENDHMM>
~h "uzdah"
<BEGINHMM>
<NUMSTATES> 5
<STATE> 2
<MEAN> 25
 -5.384854e+000 -5.636724e+000 1.233422e+000 1.830257e+000 4.337195e+000 7.362769e-001 3.327830e+000 4.192549e+000 1.442916e+000 -2.599952e+000 1.323470e+000 2.265371e+000 -6.293830e-001 -6.408818e-001 7.441363e-002 -2.483652e-001 -1.637657e-001 -3.557382e-001 -8.837470e-002 1.073323e-001 -7.824037e-002 1.333775e-001 3.449667e-001 2.101074e-001 4.985798e-001
<VARIANCE> 25
 9.639599e+000 1.285140e+001 1.687888e+001 1.256339e+001 2.012750e+001 1.923947e+001 2.200031e+001 2.250871e+001 2.673052e+001 2.415926e+001 3.099900e+001 1.826008e+001 4.126036e-001 6.801964e-001 7.161336e-001 8.402075e-001 1.229683e+000 1.355839e+000 1.474003e+000 1.606410e+000 1.652941e+000 1.640222e+000 1.512071e+000 1.402189e+000 2.986501e-001
<GCONST> 8.123121e+001
<STATE> 3
<MEAN> 25
 -9.030334e+000 -8.907654e+000 1.869654e+000 -5.029288e-001 2.353602e+000 -9.469067e-001 3.136518e+000 4.125576e+000 7.323835e-001 -1.835917e+000 2.624583e+000 2.504958e+000 1.599543e-002 -7.300428e-002 -3.594413e-002 -3.850728e-003 -3.373889e-002 3.362057e-002 -5.119649e-002 2.465307e-003 -5.099089e-002 -3.348393e-002 -5.073648e-002 1.998412e-002 -2.375264e-002
<VARIANCE> 25
 6.566359e+000 7.578271e+000 1.364082e+001 1.322255e+001 1.726970e+001 1.865280e+001 2.361212e+001 2.048265e+001 2.871828e+001 2.356429e+001 3.133658e+001 1.806848e+001 1.790882e-001 2.846603e-001 4.917853e-001 6.907161e-001 9.352178e-001 1.129616e+000 1.224888e+000 1.333856e+000 1.447884e+000 1.430721e+000 1.325310e+000 1.243729e+000 1.341519e-001
<GCONST> 7.557068e+001
<STATE> 4
<MEAN> 25
 -5.600775e+000 -8.494851e+000 -1.074741e+000 1.032463e+000 4.334400e+000 2.286765e+000 2.348821e+000 4.015293e+000 7.260427e-001 -3.684996e+000 6.055881e-001 2.890880e+000 7.432431e-001 7.960237e-001 -5.457143e-001 2.316436e-001 3.517455e-001 6.808733e-001 1.576708e-001 -3.142049e-001 7.463400e-002 -1.397282e-001 -2.871625e-001 -4.640559e-002 -9.209217e-001
<VARIANCE> 25
 8.665865e+000 1.418055e+001 2.392207e+001 1.522911e+001 2.707131e+001 2.614115e+001 2.968074e+001 2.571045e+001 3.208944e+001 2.793970e+001 3.480600e+001 2.319486e+001 4.120695e-001 1.310132e+000 1.216959e+000 1.190059e+000 1.471228e+000 1.817957e+000 1.996525e+000 2.046307e+000 2.415020e+000 2.279489e+000 1.864499e+000 1.803961e+000 5.698001e-001
<GCONST> 8.784922e+001
<TRANSP> 5
 0.000000e+000 1.000000e+000 0.000000e+000 0.000000e+000 0.000000e+000
 0.000000e+000 8.554185e-001 1.445815e-001 0.000000e+000 0.000000e+000
 0.000000e+000 0.000000e+000 9.361783e-001 6.382173e-002 0.000000e+000
 0.000000e+000 0.000000e+000 0.000000e+000 7.856665e-001 2.143335e-001
 0.000000e+000 0.000000e+000 0.000000e+000 0.000000e+000 0.000000e+000
<ENDHMM>
~h "sil"
<BEGINHMM>
<NUMSTATES> 5
<STATE> 2
<MEAN> 25
 -4.995645e+000 -1.832824e+000 2.372371e-002 1.829265e+000 3.174698e+000 1.556106e+000 3.186122e+000 2.932697e+000 2.071774e+000 -1.204266e+000 1.266939e+000 1.995619e+000 -7.114197e-002 -4.098544e-002 -1.656256e-002 -2.364292e-003 -5.736869e-003 1.013761e-002 -2.149668e-002 -9.211287e-003 -6.202112e-003 4.039187e-002 4.021441e-002 3.211544e-002 -5.549450e-002
<VARIANCE> 25
 9.930194e+000 2.690831e+001 1.369880e+001 1.366209e+001 1.711208e+001 2.127053e+001 1.940491e+001 2.341748e+001 2.569495e+001 2.256582e+001 2.702110e+001 1.903164e+001 3.055844e-001 5.393444e-001 6.215486e-001 7.844784e-001 1.037215e+000 1.273880e+000 1.379655e+000 1.498457e+000 1.515668e+000 1.561462e+000 1.462081e+000 1.327716e+000 2.645105e-001
<GCONST> 8.006704e+001
<STATE> 3
~s "silst"
<STATE> 4
<MEAN> 25
 -3.880332e+000 -3.162766e-001 -6.206629e-001 1.444028e+000 2.875195e+000 1.208223e+000 1.868527e+000 1.077682e+000 1.246513e+000 -8.565491e-001 1.430669e-001 8.596904e-001 8.789252e-001 9.156374e-002 2.255647e-001 -3.778998e-001 -7.167410e-001 -8.231037e-001 -9.064885e-001 -9.518571e-001 -9.011735e-001 4.440594e-002 -4.057269e-001 -3.723199e-001 1.746454e+000
<VARIANCE> 25
 2.126798e+001 3.193028e+001 2.518396e+001 2.461673e+001 2.981789e+001 3.750835e+001 3.152893e+001 3.635365e+001 3.512530e+001 2.779897e+001 3.126644e+001 2.441155e+001 3.316823e+000 3.216345e+000 2.931455e+000 3.307499e+000 3.568106e+000 4.101361e+000 3.827201e+000 4.561472e+000 4.121472e+000 3.300333e+000 3.510480e+000 2.725505e+000 5.181913e+000
<GCONST> 1.031786e+002
<TRANSP> 5
 0.000000e+000 1.000000e+000 0.000000e+000 0.000000e+000 0.000000e+000
 0.000000e+000 8.752345e-001 3.751599e-002 8.724951e-002 0.000000e+000
 0.000000e+000 0.000000e+000 7.426263e-001 2.573736e-001 0.000000e+000
 0.000000e+000 4.346521e-002 0.000000e+000 4.847576e-001 4.717772e-001
 0.000000e+000 0.000000e+000 0.000000e+000 0.000000e+000 0.000000e+000
<ENDHMM>
~h "udarac"
<BEGINHMM>
<NUMSTATES> 5
<STATE> 2
<MEAN> 25
 -1.118121e+000 -3.066658e+000 -4.702235e+000 -4.576965e+000 -1.889445e+000 1.193301e+000 3.979439e+000 1.881130e+000 1.978009e+000 -5.171042e-001 -2.024934e+000 1.240906e+000 1.934993e-001 -1.982713e-001 -6.297921e-001 -6.802856e-001 -5.047346e-001 -5.581180e-001 -4.671769e-001 -3.358480e-001 4.309613e-002 1.367059e-001 2.644729e-001 7.053358e-002 3.607375e-001
<VARIANCE> 25
 1.800051e+001 2.064607e+001 3.962198e+001 3.217721e+001 2.434805e+001 3.689909e+001 3.940569e+001 2.866401e+001 2.919757e+001 3.569345e+001 3.088162e+001 2.197273e+001 1.330023e+000 1.810282e+000 4.301449e+000 4.102213e+000 3.314129e+000 2.618381e+000 3.838274e+000 2.728209e+000 2.770246e+000 3.422555e+000 2.087859e+000 2.460538e+000 2.083944e+000
<GCONST> 9.919338e+001
<STATE> 3
<MEAN> 25
 -3.292358e+000 -7.734913e-001 -3.149019e+000 -3.215783e+000 -1.084295e+000 -2.212629e-001 1.283476e+000 -2.759682e+000 2.204763e+000 2.418772e+000 -8.032677e-001 1.429418e+000 -2.476892e-001 3.943957e-001 2.656780e-001 3.648483e-001 4.010654e-001 3.664798e-001 2.342346e-001 2.127642e-001 1.822336e-001 2.894364e-003 2.330109e-002 -3.676413e-002 -5.852033e-001
<VARIANCE> 25
 1.036902e+001 2.836436e+001 2.374568e+001 3.964223e+001 2.180127e+001 2.734233e+001 3.356281e+001 1.974902e+001 1.886432e+001 1.269250e+001 2.371693e+001 1.452236e+001 4.809910e-001 4.860112e-001 1.277992e+000 1.053453e+000 1.293599e+000 1.705759e+000 1.637244e+000 1.558710e+000 1.114919e+000 1.105496e+000 1.426162e+000 1.477589e+000 4.758534e-001
<GCONST> 8.346934e+001
<STATE> 4
<MEAN> 25
 -6.477913e+000 2.286501e+000 -1.605582e-001 1.104231e+000 2.674660e+000 4.208307e+000 4.285901e+000 3.826773e+000 6.449034e+000 -1.524119e+000 -3.842089e+000 1.365712e+000 -7.219812e-002 -5.340455e-003 5.551086e-002 4.054229e-002 -5.978557e-002 9.768033e-003 6.691933e-002 7.600327e-002 8.987281e-002 -4.671130e-002 -5.206988e-002 7.000133e-002 -8.040019e-002
<VARIANCE> 25
 2.214636e+001 3.336678e+001 3.237513e+001 3.254929e+001 2.980787e+001 2.697294e+001 2.685600e+001 1.604750e+001 1.701077e+001 1.774736e+001 1.726851e+001 1.377035e+001 1.173990e+000 1.823387e+000 1.971710e+000 1.948400e+000 1.932774e+000 1.348827e+000 1.986328e+000 1.672064e+000 1.332636e+000 1.573747e+000 1.521613e+000 1.410958e+000 1.568101e+000
<GCONST> 8.966952e+001
<TRANSP> 5
 0.000000e+000 1.000000e+000 0.000000e+000 0.000000e+000 0.000000e+000
 0.000000e+000 7.527359e-001 2.472641e-001 0.000000e+000 0.000000e+000
 0.000000e+000 0.000000e+000 7.805899e-001 2.194100e-001 0.000000e+000
 0.000000e+000 0.000000e+000 0.000000e+000 8.973470e-001 1.026529e-001
 0.000000e+000 0.000000e+000 0.000000e+000 0.000000e+000 0.000000e+000
<ENDHMM>
~h "greska"
<BEGINHMM>
<NUMSTATES> 5
<STATE> 2
<MEAN> 25
 1.547435e+000 7.067892e-001 3.234710e+000 -1.270370e+000 -2.570299e+000 -2.404435e+000 -4.868145e+000 -3.310378e-001 -2.046692e+000 -1.023080e+000 4.758583e-001 -9.372722e-001 4.131900e-002 -2.207412e-002 5.229425e-002 6.475862e-004 -3.634376e-002 -1.895837e-001 -1.503121e-001 1.627343e-002 -9.859663e-002 1.523711e-002 -2.725024e-002 7.701430e-002 3.349961e-001
<VARIANCE> 25
 2.560275e+001 3.936419e+001 6.543214e+001 5.732910e+001 4.419773e+001 5.616072e+001 5.139214e+001 4.120670e+001 5.018177e+001 4.407999e+001 4.089065e+001 2.726080e+001 2.818357e+000 3.243778e+000 3.572723e+000 4.319730e+000 4.565374e+000 3.806583e+000 4.768902e+000 4.064447e+000 3.808323e+000 3.379146e+000 3.211287e+000 2.392458e+000 3.649731e+000
<GCONST> 1.079428e+002
<STATE> 3
<MEAN> 25
 -6.191968e+000 2.396585e+000 -2.210349e+000 1.228187e+000 2.909183e+000 -2.555872e+000 -1.774504e+000 2.064571e+000 8.613745e-001 -1.140500e+000 2.168539e-001 2.121068e+000 1.695829e-001 1.756987e-001 -3.270577e-002 4.596884e-002 1.090407e-001 -4.124209e-002 -1.141850e-002 -1.472312e-001 2.876732e-002 2.024441e-002 -9.599699e-003 -1.152038e-001 -2.169641e-001
<VARIANCE> 25
 8.308965e+001 5.303046e+001 3.848204e+001 3.967924e+001 4.055294e+001 5.793184e+001 5.304757e+001 4.863618e+001 4.166285e+001 3.643618e+001 3.396882e+001 3.206152e+001 5.690829e+000 3.570264e+000 2.896596e+000 2.739920e+000 3.088161e+000 3.637094e+000 4.198017e+000 4.339470e+000 3.215048e+000 2.783684e+000 2.631418e+000 2.646291e+000 3.411783e+000
<GCONST> 1.073681e+002
<STATE> 4
<MEAN> 25
 2.577547e+000 4.237391e+000 1.811625e+000 3.201474e+000 2.414578e+000 -1.474100e+000 1.476721e-001 -1.705717e+000 -2.553741e-001 -2.623496e-001 -1.523587e+000 -2.471223e+000 -1.308768e-001 8.046284e-002 9.075372e-002 1.113378e-001 9.835985e-002 2.858848e-001 1.199562e-001 5.137623e-002 1.757774e-001 -1.223593e-001 -1.327253e-001 -1.115461e-001 -4.220068e-001
<VARIANCE> 25
 3.437725e+001 3.766174e+001 2.369248e+001 2.656930e+001 2.824053e+001 3.941801e+001 3.674753e+001 3.660166e+001 2.835947e+001 3.235355e+001 3.153500e+001 2.368532e+001 1.392866e+000 2.087564e+000 1.447973e+000 1.624511e+000 1.799738e+000 2.363510e+000 2.278279e+000 2.408884e+000 2.071204e+000 1.919351e+000 2.376728e+000 1.620258e+000 2.316344e+000
<GCONST> 9.585619e+001
<TRANSP> 5
 0.000000e+000 1.000000e+000 0.000000e+000 0.000000e+000 0.000000e+000
 0.000000e+000 9.179913e-001 8.200871e-002 0.000000e+000 0.000000e+000
 0.000000e+000 0.000000e+000 9.007430e-001 9.925694e-002 0.000000e+000
 0.000000e+000 0.000000e+000 0.000000e+000 9.085430e-001 9.145701e-002
 0.000000e+000 0.000000e+000 0.000000e+000 0.000000e+000 0.000000e+000
<ENDHMM>
~h "papir"
<BEGINHMM>
<NUMSTATES> 5
<STATE> 2
<MEAN> 25
 -2.069828e+000 -8.912003e-001 1.685362e+000 2.290887e+000 1.633928e+000 8.931411e-001 1.730876e+000 3.345288e-001 2.242711e+000 -1.675244e+000 -3.792514e+000 -4.614510e-001 -2.983151e-001 7.925648e-001 7.515216e-001 6.258268e-001 2.476878e-001 2.195770e-001 3.669231e-001 4.942887e-001 5.465758e-001 -5.195248e-001 -3.618279e-001 8.921001e-002 -1.116901e+000
<VARIANCE> 25
 4.329274e+001 2.654171e+001 2.607646e+001 2.684305e+001 2.526921e+001 3.422827e+001 3.126869e+001 3.752491e+001 4.721075e+001 2.959468e+001 4.245721e+001 2.698627e+001 1.898809e+000 1.318073e+000 2.185378e+000 1.992684e+000 2.572749e+000 2.686898e+000 3.253276e+000 2.840725e+000 1.942848e+000 1.372647e+000 1.479153e+000 1.877829e+000 1.129185e+000
<GCONST> 9.633070e+001
<STATE> 3
<MEAN> 25
 -3.694378e+000 2.879738e+000 2.554472e+000 4.770193e+000 4.085659e+000 2.657402e+000 5.429568e+000 2.615312e+000 4.187175e+000 -1.471254e+000 -1.661206e+000 -6.359243e-002 -4.350429e-001 7.720824e-002 -7.999578e-002 -1.498302e-001 4.247548e-002 6.730554e-002 3.552943e-002 1.753725e-001 1.617215e-001 2.613513e-001 5.855405e-001 5.045815e-001 -4.990551e-001
<VARIANCE> 25
 2.165479e+001 1.831272e+001 4.581665e+001 2.654746e+001 2.787381e+001 2.978695e+001 2.638071e+001 3.287556e+001 3.066107e+001 2.408613e+001 2.926873e+001 3.981691e+001 8.603372e-001 1.728271e+000 1.592185e+000 1.948581e+000 1.251040e+000 1.455116e+000 1.600107e+000 1.851652e+000 1.582565e+000 1.748986e+000 2.044033e+000 1.782323e+000 5.650393e-001
<GCONST> 9.114007e+001
<STATE> 4
<MEAN> 25
 -6.227772e+000 -5.390720e+000 -5.558757e-001 7.448369e-001 2.957978e+000 4.740939e-001 3.840838e+000 2.692021e+000 1.996923e+000 -1.473903e+000 -4.444420e-001 1.450965e+000 1.426988e-002 -1.544079e-001 -7.528704e-002 2.355181e-002 -4.639994e-002 2.514543e-002 -5.972272e-002 3.150776e-002 1.018248e-002 -5.413208e-002 -3.667606e-002 9.094881e-002 -1.321969e-002
<VARIANCE> 25
 1.981746e+001 3.870136e+001 2.477207e+001 1.730656e+001 1.887334e+001 2.510924e+001 1.350998e+001 2.274764e+001 3.262140e+001 1.919281e+001 2.412110e+001 2.176219e+001 1.077471e+000 2.066080e+000 1.263619e+000 1.226354e+000 1.440925e+000 1.723271e+000 1.359691e+000 1.567713e+000 1.800463e+000 1.379315e+000 1.521617e+000 1.535966e+000 1.504503e+000
<GCONST> 8.831351e+001
<TRANSP> 5
 0.000000e+000 1.000000e+000 0.000000e+000 0.000000e+000 0.000000e+000
 0.000000e+000 4.613749e-001 5.386252e-001 0.000000e+000 0.000000e+000
 0.000000e+000 0.000000e+000 6.983848e-001 3.016152e-001 0.000000e+000
 0.000000e+000 0.000000e+000 0.000000e+000 9.032421e-001 9.675792e-002
 0.000000e+000 0.000000e+000 0.000000e+000 0.000000e+000 0.000000e+000
<ENDHMM>
