~o
<STREAMINFO> 1 25
<VECSIZE> 25<NULLD><MFCC_D_N_Z_0><DIAGC>
~s "silst"
<MEAN> 25
 -4.673469e+000 -1.054956e+000 -8.348729e-001 2.103968e+000 3.906832e+000 2.629848e+000 3.374136e+000 2.799440e+000 2.327572e+000 -1.760822e+000 6.835244e-001 1.744350e+000 1.255217e-001 3.980108e-001 8.529082e-002 3.282166e-003 -1.350551e-001 -2.116168e-001 -2.923310e-001 -3.573802e-001 -5.925442e-002 2.160684e-001 -2.695574e-002 -2.135202e-001 9.981337e-003
<VARIANCE> 25
 1.160309e+001 2.830978e+001 1.853836e+001 1.592194e+001 2.200229e+001 2.658874e+001 2.410439e+001 2.786677e+001 2.797956e+001 2.630121e+001 3.125801e+001 2.282285e+001 1.222818e+000 2.436347e+000 1.673596e+000 1.662802e+000 2.099491e+000 2.529409e+000 2.515241e+000 2.635613e+000 2.803758e+000 2.506548e+000 2.250384e+000 2.060891e+000 2.146968e+000
<GCONST> 9.340600e+001
~h "C"
<BEGINHMM>
<NUMSTATES> 5
<STATE> 2
<MEAN> 25
 -8.727049e+000 -9.348146e-001 3.556007e+000 3.760166e+000 -1.166957e+000 2.692492e+000 2.484903e+000 -6.005996e-001 5.730713e+000 -2.436358e+000 2.080766e+000 -1.127961e+000 -3.559457e+000 -1.171468e+000 -5.643963e-002 -3.077372e-001 -3.562092e-001 4.539276e-001 3.958411e-001 -5.321069e-001 7.641070e-001 -9.023509e-001 8.199519e-001 3.300978e-001 1.894110e+000
<VARIANCE> 25
 7.044797e+001 5.055182e+001 2.953297e+001 3.573588e+001 3.238324e+001 4.079235e+001 4.717775e+001 5.391923e+001 3.919831e+001 2.897719e+001 4.351428e+001 2.451375e+001 5.256859e+000 4.741181e+000 2.947958e+000 2.705849e+000 3.321554e+000 4.164915e+000 4.637715e+000 5.081723e+000 4.649667e+000 3.678560e+000 4.453570e+000 2.921503e+000 6.607748e+000
<GCONST> 1.084942e+002
<STATE> 3
<MEAN> 25
 -1.820819e+001 -2.295822e+000 2.744601e+000 1.686810e+000 -4.103385e-001 3.071800e+000 1.521628e+000 -6.880312e-001 9.609366e+000 -5.932225e+000 2.491901e+000 6.490823e-001 9.406176e-001 8.654448e-002 -3.742176e-001 -4.414322e-001 1.458499e-001 -5.190991e-001 -7.012410e-001 4.568664e-001 1.725067e-001 -5.263689e-001 -3.371032e-001 2.361141e-001 -4.210692e-001
<VARIANCE> 25
 1.709925e+001 2.584872e+001 2.599125e+001 3.404770e+001 2.805122e+001 3.959128e+001 4.532378e+001 6.456611e+001 4.715450e+001 4.419093e+001 5.938791e+001 2.851400e+001 7.393991e+000 2.392410e+000 2.491754e+000 2.285255e+000 2.427714e+000 3.587641e+000 3.692775e+000 4.366507e+000 4.881752e+000 3.508631e+000 3.221275e+000 2.698288e+000 2.054477e+000
<GCONST> 1.041747e+002
<STATE> 4
<MEAN> 25
 -6.183956e+000 -2.536520e+000 7.099616e-001 3.876356e-002 -1.818564e+000 -6.744873e-001 -1.310974e+000 -1.168949e+000 5.079573e+000 -5.766652e+000 1.649919e+000 3.578709e-001 4.643975e+000 1.652125e-002 -4.401369e-001 -3.733903e-001 -6.444525e-001 -1.319686e+000 -6.532277e-001 -3.865650e-001 -1.990637e+000 1.234773e+000 -5.481212e-001 -2.733953e-001 6.039386e-001
<VARIANCE> 25
 5.837809e+001 2.518601e+001 2.575390e+001 2.264127e+001 2.940365e+001 4.508048e+001 3.828106e+001 5.205167e+001 4.776854e+001 3.581027e+001 3.789772e+001 2.192526e+001 2.262002e+000 2.957817e+000 2.499478e+000 3.014122e+000 3.038488e+000 4.787630e+000 3.883532e+000 5.121886e+000 4.269845e+000 4.346490e+000 5.609629e+000 2.524065e+000 1.772955e+000
<GCONST> 1.042941e+002
<TRANSP> 5
 0.000000e+000 1.000000e+000 0.000000e+000 0.000000e+000 0.000000e+000
 0.000000e+000 7.611590e-001 2.388410e-001 0.000000e+000 0.000000e+000
 0.000000e+000 0.000000e+000 6.795862e-001 3.204138e-001 0.000000e+000
 0.000000e+000 0.000000e+000 0.000000e+000 6.628377e-001 3.371623e-001
 0.000000e+000 0.000000e+000 0.000000e+000 0.000000e+000 0.000000e+000
<ENDHMM>
~h "L"
<BEGINHMM>
<NUMSTATES> 5
<STATE> 2
<MEAN> 25
 2.487927e-001 4.287487e-001 8.012874e+000 2.648726e+000 -1.707165e+000 -5.083788e+000 -3.585904e+000 -4.731200e-001 -2.203102e+000 -4.123326e+000 -1.044839e-001 2.316489e+000 1.692685e-001 1.222017e-001 1.618275e+000 -9.914094e-002 -1.204595e+000 -7.635911e-001 -3.579611e-001 3.376400e-001 -1.180283e+000 -6.142589e-001 -4.151424e-002 9.335646e-001 6.453457e-001
<VARIANCE> 25
 1.668607e+001 2.330852e+001 2.259971e+001 2.395594e+001 2.700831e+001 3.583501e+001 4.139241e+001 3.609053e+001 3.813421e+001 3.271472e+001 3.106234e+001 2.407455e+001 2.704193e+000 2.846153e+000 3.178738e+000 2.963688e+000 3.211476e+000 4.092903e+000 4.784992e+000 4.328006e+000 3.810068e+000 4.323720e+000 3.486989e+000 2.884168e+000 1.941626e+000
<GCONST> 1.017986e+002
<STATE> 3
<MEAN> 25
 7.261648e-001 1.754921e-001 9.168214e+000 1.313951e+000 -4.415286e+000 -5.020735e+000 -4.409502e+000 1.044812e-001 -3.987788e+000 -3.234209e+000 2.647898e-001 3.759313e+000 1.782150e-001 -8.031151e-001 -4.116379e-001 -7.708686e-001 -1.228011e+000 1.819210e-001 -4.706188e-001 5.375908e-001 8.342034e-002 9.642866e-001 3.352723e-001 1.272538e-001 1.016836e+000
<VARIANCE> 25
 7.462422e+000 1.826918e+001 2.015406e+001 2.462046e+001 2.667902e+001 3.077995e+001 4.158489e+001 3.031057e+001 2.963751e+001 3.069245e+001 2.719560e+001 2.277135e+001 1.369603e+000 2.041232e+000 2.671315e+000 2.201675e+000 2.718170e+000 2.954014e+000 4.224785e+000 3.578340e+000 3.427891e+000 3.109566e+000 2.920595e+000 2.470950e+000 9.295732e-001
<GCONST> 9.602924e+001
<STATE> 4
<MEAN> 25
 1.493614e+000 -2.124294e+000 5.966920e+000 -2.110150e-001 -6.374749e+000 -4.058084e+000 -4.800718e+000 1.412448e+000 -2.248574e+000 -3.675574e-001 9.676684e-001 2.375719e+000 4.426154e-001 -6.313403e-001 -1.414410e+000 -4.462641e-001 -4.107697e-002 5.978786e-001 2.604279e-001 9.785755e-002 4.567217e-001 1.011180e+000 2.337273e-001 -7.937107e-001 3.986089e-001
<VARIANCE> 25
 7.505423e+000 1.705114e+001 2.618426e+001 2.657028e+001 2.781796e+001 3.289400e+001 6.217214e+001 3.705796e+001 3.355425e+001 3.118499e+001 2.805944e+001 2.289708e+001 6.852671e-001 2.002307e+000 2.320947e+000 1.944391e+000 3.130953e+000 2.823515e+000 3.515273e+000 4.004929e+000 2.920803e+000 3.075848e+000 3.131342e+000 2.267409e+000 8.697353e-001
<GCONST> 9.598673e+001
<TRANSP> 5
 0.000000e+000 1.000000e+000 0.000000e+000 0.000000e+000 0.000000e+000
 0.000000e+000 5.073726e-001 4.926274e-001 0.000000e+000 0.000000e+000
 0.000000e+000 0.000000e+000 4.454440e-001 5.545560e-001 0.000000e+000
 0.000000e+000 0.000000e+000 0.000000e+000 4.647139e-001 5.352861e-001
 0.000000e+000 0.000000e+000 0.000000e+000 0.000000e+000 0.000000e+000
<ENDHMM>
~h "N"
<BEGINHMM>
<NUMSTATES> 5
<STATE> 2
<MEAN> 25
 2.220166e+000 3.422000e+000 5.957665e+000 -2.046765e+000 -2.405161e+000 4.950732e-001 1.722170e+000 -1.881238e+000 -5.297513e+000 -1.808204e+000 -1.660312e+000 8.685126e-001 -8.555293e-002 -5.972812e-001 6.990971e-001 -6.198090e-001 -8.017519e-001 2.878120e-001 4.920238e-001 5.067302e-001 -4.899379e-001 -5.578828e-002 -1.821736e-001 8.897411e-002 9.303370e-001
<VARIANCE> 25
 1.497263e+001 3.455986e+001 2.217080e+001 2.869159e+001 3.464986e+001 3.390630e+001 2.801455e+001 3.873101e+001 2.975353e+001 3.167618e+001 2.766765e+001 2.342857e+001 2.145457e+000 4.739432e+000 2.514352e+000 2.554465e+000 4.243121e+000 3.148319e+000 3.456232e+000 4.117045e+000 3.008307e+000 2.635228e+000 2.566666e+000 2.040897e+000 2.548575e+000
<GCONST> 1.001207e+002
<STATE> 3
<MEAN> 25
 1.375174e+000 -1.129949e+000 6.423138e+000 -2.706568e+000 -5.035201e+000 1.317618e+000 3.633011e+000 1.697644e+000 -5.180636e+000 -2.323908e+000 -2.288082e+000 8.721225e-001 1.478934e-001 -1.107700e+000 -4.535300e-001 4.729320e-001 -3.081564e-003 -2.157847e-001 4.423234e-001 9.339875e-001 3.856207e-001 -1.979259e-001 -2.579745e-001 -1.109753e-001 4.148923e-001
<VARIANCE> 25
 8.862216e+000 2.980266e+001 2.068092e+001 2.417224e+001 3.222273e+001 3.668017e+001 3.188300e+001 3.319545e+001 2.836163e+001 3.628129e+001 2.516938e+001 2.322107e+001 9.172505e-001 2.807751e+000 2.063787e+000 2.000387e+000 3.297151e+000 2.305735e+000 2.691823e+000 2.682946e+000 2.500589e+000 2.517040e+000 2.060500e+000 1.785169e+000 1.681458e+000
<GCONST> 9.511538e+001
<STATE> 4
<MEAN> 25
 2.492302e-002 -2.015832e+000 3.800245e+000 9.496582e-001 -1.054000e+000 1.127862e+000 5.145797e+000 3.733001e+000 -2.422068e+000 -3.197945e+000 -2.223265e+000 6.114786e-001 1.039286e-001 2.177399e-003 -5.446762e-001 5.302757e-001 6.254728e-001 -2.052933e-001 -1.656852e-001 2.680437e-001 6.203269e-001 9.779872e-002 -5.012928e-002 -1.913980e-001 -7.884642e-001
<VARIANCE> 25
 1.547450e+001 3.080332e+001 2.281721e+001 2.560178e+001 4.119571e+001 3.524034e+001 3.898359e+001 3.239281e+001 3.420329e+001 3.324487e+001 2.880268e+001 2.400849e+001 7.516505e-001 2.364957e+000 1.804130e+000 1.857147e+000 2.421766e+000 2.336240e+000 2.450414e+000 2.303280e+000 2.479916e+000 2.278492e+000 2.093640e+000 1.822795e+000 2.155557e+000
<GCONST> 9.556771e+001
<TRANSP> 5
 0.000000e+000 1.000000e+000 0.000000e+000 0.000000e+000 0.000000e+000
 0.000000e+000 6.954080e-001 3.045920e-001 0.000000e+000 0.000000e+000
 0.000000e+000 0.000000e+000 5.224793e-001 4.775207e-001 0.000000e+000
 0.000000e+000 0.000000e+000 0.000000e+000 6.740820e-001 3.259180e-001
 0.000000e+000 0.000000e+000 0.000000e+000 0.000000e+000 0.000000e+000
<ENDHMM>
~h "S"
<BEGINHMM>
<NUMSTATES> 5
<STATE> 2
<MEAN> 25
 -1.153856e+001 5.570460e-001 8.570805e+000 6.235185e+000 -1.201506e-001 6.651015e-001 -8.304137e-001 6.218389e-001 5.688802e+000 -5.648135e+000 3.751215e+000 5.449889e-001 -3.823268e+000 -1.821695e-001 3.445030e-001 6.994631e-001 1.381847e+000 4.767541e-001 4.994059e-001 2.776052e-001 2.513766e+000 -7.586632e-001 -3.592519e-001 8.477464e-002 5.191499e-001
<VARIANCE> 25
 4.432021e+001 2.114912e+001 2.916923e+001 2.885044e+001 3.302291e+001 3.589057e+001 4.439664e+001 4.939450e+001 5.968352e+001 5.336163e+001 5.179619e+001 3.185300e+001 3.366984e+000 3.204738e+000 3.571057e+000 2.767337e+000 3.479948e+000 3.519936e+000 3.613339e+000 4.827489e+000 5.138037e+000 4.718702e+000 4.942842e+000 3.094338e+000 8.725256e-001
<GCONST> 1.055836e+002
<STATE> 3
<MEAN> 25
 -1.866215e+001 -2.873434e+000 6.141311e+000 4.263475e+000 2.288239e+000 1.939169e+000 2.958390e-001 -1.564290e+000 1.043141e+001 -4.784173e+000 6.744375e-001 2.316880e-001 2.142744e-001 -5.597946e-001 -8.703471e-001 -8.238409e-001 1.134778e-001 1.818156e-001 -1.658302e-001 -1.266141e-001 1.370044e-001 8.522698e-002 -2.341965e-001 3.862834e-002 -7.137752e-001
<VARIANCE> 25
 1.044422e+001 3.323784e+001 1.748340e+001 2.912085e+001 3.138680e+001 3.939179e+001 4.630838e+001 5.984237e+001 4.178609e+001 6.512712e+001 5.454450e+001 3.099706e+001 3.588278e+000 1.603583e+000 1.429819e+000 1.465910e+000 2.061908e+000 2.422983e+000 2.635709e+000 3.315397e+000 2.847671e+000 2.745661e+000 2.241380e+000 2.133304e+000 6.606138e-001
<GCONST> 9.789117e+001
<STATE> 4
<MEAN> 25
 -8.517244e+000 -3.991837e+000 8.692623e-001 3.593357e-002 8.022645e-001 6.770093e-001 -1.189263e+000 -1.252117e+000 7.985814e+000 -3.974793e+000 7.296636e-001 6.660617e-001 3.967655e+000 -3.869665e-002 -1.153328e+000 -8.483189e-001 -8.918200e-001 -1.047438e+000 -1.158960e-001 1.220346e-001 -1.711375e+000 9.261355e-001 -1.959352e-001 -4.278820e-002 -1.455173e-001
<VARIANCE> 25
 5.961134e+001 3.419406e+001 2.342377e+001 2.347234e+001 4.216698e+001 4.916256e+001 4.352131e+001 6.547489e+001 5.025018e+001 5.259849e+001 4.148394e+001 2.374722e+001 4.810212e+000 2.139774e+000 2.611280e+000 2.321725e+000 3.369940e+000 4.893234e+000 3.984364e+000 4.469689e+000 3.979968e+000 5.168043e+000 4.824854e+000 2.687321e+000 3.249879e+000
<GCONST> 1.068213e+002
<TRANSP> 5
 0.000000e+000 1.000000e+000 0.000000e+000 0.000000e+000 0.000000e+000
 0.000000e+000 7.126749e-001 2.873251e-001 0.000000e+000 0.000000e+000
 0.000000e+000 0.000000e+000 7.908116e-001 2.091884e-001 0.000000e+000
 0.000000e+000 0.000000e+000 0.000000e+000 6.647795e-001 3.352205e-001
 0.000000e+000 0.000000e+000 0.000000e+000 0.000000e+000 0.000000e+000
<ENDHMM>
~h "Z"
<BEGINHMM>
<NUMSTATES> 5
<STATE> 2
<MEAN> 25
 -7.010224e+000 1.253682e+000 6.883540e+000 4.598320e+000 4.827530e-002 -1.672182e+000 -2.015610e+000 -6.846321e+000 6.494575e+000 -2.813607e+000 3.280319e+000 -7.303037e-002 -3.504414e+000 7.239763e-001 1.701643e+000 8.938434e-001 1.276814e+000 -5.963708e-002 1.075525e+000 5.451655e-002 1.639248e+000 -4.974590e-001 -2.682075e-001 -4.075960e-001 3.530999e-001
<VARIANCE> 25
 3.747558e+001 1.645726e+001 3.926109e+001 2.906001e+001 4.911108e+001 3.376683e+001 4.369683e+001 5.903939e+001 4.150132e+001 4.754121e+001 4.350226e+001 3.176384e+001 2.340908e+000 2.408174e+000 2.326975e+000 2.483051e+000 3.355533e+000 4.749609e+000 3.818598e+000 4.605941e+000 4.186241e+000 3.598348e+000 2.957505e+000 2.718220e+000 7.609763e-001
<GCONST> 1.031413e+002
<STATE> 3
<MEAN> 25
 -1.474774e+001 1.896355e+000 9.355524e+000 5.198256e+000 1.784286e+000 1.651677e-001 7.929540e-001 -4.651166e+000 9.241413e+000 -3.901219e+000 2.167976e+000 -4.951821e-001 6.986821e-001 -2.783269e-001 -6.622469e-001 -6.719321e-001 -2.178510e-001 1.965132e-001 -8.206502e-002 3.132604e-001 -2.796521e-001 -4.441948e-001 -2.718512e-001 2.250625e-001 -6.285262e-001
<VARIANCE> 25
 1.919338e+001 2.391009e+001 2.483252e+001 3.287017e+001 4.440036e+001 4.235881e+001 5.007694e+001 5.471092e+001 4.346833e+001 5.049069e+001 4.775605e+001 3.498800e+001 5.357655e+000 1.511665e+000 2.176524e+000 1.891695e+000 2.384203e+000 2.750376e+000 3.534901e+000 2.875530e+000 3.380351e+000 2.722805e+000 2.598480e+000 2.122195e+000 7.939634e-001
<GCONST> 1.007533e+002
<STATE> 4
<MEAN> 25
 -4.440953e+000 -4.884692e-001 3.702801e+000 1.818999e+000 -2.971360e-001 -1.327857e+000 -1.490541e+000 -4.601507e+000 6.015776e+000 -3.672491e+000 1.252328e+000 3.269888e-001 3.872691e+000 -1.036281e+000 -1.811371e+000 -7.417008e-001 -8.805088e-001 -5.314313e-001 -5.803860e-001 5.514011e-001 -1.504681e+000 8.851002e-001 -5.958115e-001 8.489991e-002 -6.769730e-003
<VARIANCE> 25
 4.562495e+001 2.648913e+001 3.035851e+001 2.526361e+001 3.587837e+001 3.612942e+001 4.704610e+001 4.918086e+001 4.027364e+001 4.710098e+001 3.435658e+001 2.534644e+001 2.317353e+000 2.570889e+000 2.778385e+000 2.483205e+000 3.187913e+000 3.908889e+000 3.818773e+000 5.001979e+000 4.111145e+000 3.669077e+000 4.196747e+000 2.689757e+000 1.271893e+000
<GCONST> 1.034842e+002
<TRANSP> 5
 0.000000e+000 1.000000e+000 0.000000e+000 0.000000e+000 0.000000e+000
 0.000000e+000 7.266526e-001 2.733474e-001 0.000000e+000 0.000000e+000
 0.000000e+000 0.000000e+000 6.713390e-001 3.286610e-001 0.000000e+000
 0.000000e+000 0.000000e+000 0.000000e+000 6.521603e-001 3.478397e-001
 0.000000e+000 0.000000e+000 0.000000e+000 0.000000e+000 0.000000e+000
<ENDHMM>
~h "a"
<BEGINHMM>
<NUMSTATES> 5
<STATE> 2
<MEAN> 25
 3.354567e+000 -8.126746e+000 -5.431491e+000 -2.447674e+000 3.147835e+000 -1.755574e-002 3.101350e-001 3.848727e+000 2.561373e+000 -7.952084e-002 -5.294266e+000 -2.401505e+000 3.009525e-001 -4.428748e-001 -4.136482e-001 -7.392221e-002 7.330803e-001 4.917521e-001 4.552619e-001 3.440420e-001 -8.346484e-002 -1.880731e-001 -6.365072e-001 -3.752824e-001 2.111768e-001
<VARIANCE> 25
 7.804536e+000 1.458023e+001 1.631639e+001 1.981934e+001 2.867286e+001 3.984235e+001 3.182388e+001 2.929080e+001 2.901434e+001 3.505379e+001 3.035025e+001 2.979124e+001 1.050822e+000 1.650140e+000 1.458123e+000 1.578226e+000 2.135986e+000 2.569908e+000 2.571159e+000 2.651362e+000 2.258235e+000 2.455975e+000 2.428102e+000 2.080785e+000 1.569695e+000
<GCONST> 9.286015e+001
<STATE> 3
<MEAN> 25
 4.103011e+000 -6.883465e+000 -5.237501e+000 -1.530963e+000 4.294128e+000 8.023795e-001 9.957138e-001 3.494813e+000 2.202708e+000 -1.270037e-001 -5.866101e+000 -2.897191e+000 1.855919e-001 1.116227e+000 4.985923e-001 4.629137e-001 -7.837382e-002 -5.214711e-002 2.598838e-001 -1.572427e-001 1.099113e-001 9.428015e-002 6.500959e-002 3.834959e-003 -1.238029e+000
<VARIANCE> 25
 7.964437e+000 1.983205e+001 1.726508e+001 2.325169e+001 3.017174e+001 4.019432e+001 3.549379e+001 3.193578e+001 3.189625e+001 4.106161e+001 3.457163e+001 3.449954e+001 6.202813e-001 1.672865e+000 1.179081e+000 1.479787e+000 1.885419e+000 2.313837e+000 2.336407e+000 2.480065e+000 2.235855e+000 2.163388e+000 2.104879e+000 1.951169e+000 1.647534e+000
<GCONST> 9.271134e+001
<STATE> 4
<MEAN> 25
 2.879539e+000 -1.510352e+000 -2.252644e+000 6.800116e-001 3.243708e+000 5.170739e-001 2.441962e+000 3.662073e+000 3.209356e+000 -7.691561e-001 -4.411180e+000 -1.958123e+000 -3.554473e-001 1.363692e+000 7.816495e-001 4.200470e-001 -3.517481e-001 4.553454e-003 2.455352e-001 -3.596920e-001 2.016809e-002 -1.103736e-001 4.970878e-001 1.437938e-001 -1.491252e+000
<VARIANCE> 25
 2.059956e+001 2.931857e+001 1.969347e+001 2.395916e+001 3.057540e+001 3.935884e+001 3.659048e+001 3.698726e+001 3.521352e+001 4.111804e+001 3.511102e+001 3.332803e+001 1.333267e+000 2.575241e+000 1.563426e+000 2.029695e+000 2.199363e+000 2.742929e+000 2.688167e+000 3.277942e+000 2.925613e+000 2.706589e+000 2.634816e+000 2.270790e+000 2.010053e+000
<GCONST> 9.807103e+001
<TRANSP> 5
 0.000000e+000 1.000000e+000 0.000000e+000 0.000000e+000 0.000000e+000
 0.000000e+000 6.042489e-001 3.957511e-001 0.000000e+000 0.000000e+000
 0.000000e+000 0.000000e+000 6.056794e-001 3.943206e-001 0.000000e+000
 0.000000e+000 0.000000e+000 0.000000e+000 6.388079e-001 3.611921e-001
 0.000000e+000 0.000000e+000 0.000000e+000 0.000000e+000 0.000000e+000
<ENDHMM>
~h "b"
<BEGINHMM>
<NUMSTATES> 5
<STATE> 2
<MEAN> 25
 6.973216e+000 7.888938e+000 7.606145e-001 2.451204e-001 2.725012e+000 3.063270e+000 1.962928e+000 -1.385097e+000 -6.047483e-001 -1.921708e+000 -1.512576e+000 -3.336954e+000 -4.960536e-001 7.142528e-001 7.485358e-001 1.163855e+000 2.644127e-001 -4.050348e-002 2.411615e-001 2.398640e-001 1.333283e-001 -6.882652e-001 -4.863256e-001 -1.250829e-001 -7.902419e-001
<VARIANCE> 25
 1.440232e+001 1.801865e+001 1.988998e+001 3.399303e+001 2.171943e+001 2.838984e+001 3.071632e+001 2.772199e+001 3.085260e+001 2.863322e+001 2.849093e+001 2.627897e+001 1.926795e+000 3.415005e+000 1.615140e+000 2.411745e+000 1.825207e+000 2.262900e+000 2.828138e+000 2.710385e+000 2.827163e+000 2.516434e+000 2.996095e+000 2.038488e+000 3.118723e+000
<GCONST> 9.620341e+001
<STATE> 3
<MEAN> 25
 4.458703e+000 7.261675e+000 1.737735e+000 2.332638e+000 3.068025e+000 2.605678e+000 1.657440e+000 -1.030499e-001 4.912301e-001 -2.863170e+000 -1.846953e+000 -2.766670e+000 -1.431372e+000 -2.312494e+000 -1.439323e-001 3.384559e-001 -7.219474e-001 -5.720611e-001 -1.321499e+000 3.030627e-002 -3.299850e-001 1.236949e-001 9.997659e-001 5.928959e-001 2.073424e+000
<VARIANCE> 25
 1.862645e+001 2.461111e+001 2.058173e+001 2.911598e+001 2.095015e+001 2.591365e+001 2.952695e+001 2.881341e+001 2.881099e+001 2.520498e+001 2.612378e+001 2.404923e+001 2.105654e+000 3.277875e+000 3.307840e+000 4.105117e+000 3.143866e+000 3.704798e+000 3.421082e+000 3.558374e+000 3.810359e+000 3.825691e+000 3.328925e+000 2.713781e+000 2.468222e+000
<GCONST> 9.982285e+001
<STATE> 4
<MEAN> 25
 1.368814e+000 -1.641989e-001 9.874129e-002 1.845657e+000 5.754679e-001 9.788861e-001 -2.356810e+000 -4.385682e-001 -5.931543e-001 -1.722211e+000 1.605735e+000 -1.042411e+000 -2.233547e-001 -2.481298e+000 -4.414898e-001 -1.283496e+000 -1.888765e+000 -7.148598e-001 -1.467963e+000 -6.063613e-001 -9.565536e-001 1.062738e+000 1.343175e+000 6.821358e-001 2.937140e+000
<VARIANCE> 25
 2.108038e+001 3.106553e+001 3.622322e+001 4.740142e+001 3.122764e+001 4.281313e+001 3.662275e+001 3.605476e+001 3.291771e+001 3.588135e+001 3.390031e+001 2.509758e+001 2.813204e+000 3.789483e+000 5.277787e+000 6.078557e+000 4.842629e+000 4.735278e+000 4.057775e+000 6.307771e+000 5.824224e+000 6.548636e+000 4.785834e+000 3.615063e+000 1.846454e+000
<GCONST> 1.073991e+002
<TRANSP> 5
 0.000000e+000 1.000000e+000 0.000000e+000 0.000000e+000 0.000000e+000
 0.000000e+000 5.578136e-001 4.421864e-001 0.000000e+000 0.000000e+000
 0.000000e+000 0.000000e+000 3.279593e-001 6.720406e-001 0.000000e+000
 0.000000e+000 0.000000e+000 0.000000e+000 4.063876e-001 5.936124e-001
 0.000000e+000 0.000000e+000 0.000000e+000 0.000000e+000 0.000000e+000
<ENDHMM>
~h "c"
<BEGINHMM>
<NUMSTATES> 5
<STATE> 2
<MEAN> 25
 -9.452227e+000 1.029901e+001 -2.120965e+000 7.175168e+000 2.026978e+000 8.184135e-001 1.669700e+000 4.796772e-001 8.689486e-001 -1.918859e+000 3.873114e-001 5.266064e-001 -3.113692e+000 -5.017081e-002 -2.109669e+000 -4.151150e-002 7.366862e-001 5.425642e-001 3.482735e-001 9.252933e-002 9.588176e-002 -3.953245e-001 3.282380e-001 3.833627e-001 1.081373e+000
<VARIANCE> 25
 3.648643e+001 2.353547e+001 3.221891e+001 1.945253e+001 2.356052e+001 3.092135e+001 2.693251e+001 3.019264e+001 2.755247e+001 2.248998e+001 3.087248e+001 2.217682e+001 2.101269e+000 2.902858e+000 2.448282e+000 1.989647e+000 2.573192e+000 2.541529e+000 2.885217e+000 2.581720e+000 2.389131e+000 2.063987e+000 2.553361e+000 1.762722e+000 2.176230e+000
<GCONST> 9.654791e+001
<STATE> 3
<MEAN> 25
 -1.747455e+001 6.349429e+000 -7.634166e+000 4.300972e+000 3.442531e+000 -1.467104e-001 5.440818e+000 1.192089e+000 1.031459e+000 -2.386119e+000 1.355317e+000 3.197805e+000 -8.952672e-002 -1.825369e+000 2.719167e-002 -1.094622e+000 -7.403566e-001 -1.431938e+000 8.912318e-001 3.631883e-001 4.820589e-003 3.678204e-001 1.326815e-001 6.933156e-001 7.673976e-001
<VARIANCE> 25
 7.400301e+000 2.023629e+001 1.722159e+001 2.034644e+001 2.542177e+001 3.448593e+001 2.607978e+001 2.515914e+001 2.372318e+001 2.130582e+001 4.846533e+001 2.593879e+001 2.958351e+000 1.768852e+000 2.357580e+000 1.392818e+000 2.324386e+000 2.552512e+000 2.484793e+000 2.789272e+000 2.103752e+000 1.962210e+000 2.407711e+000 1.835596e+000 8.287362e-001
<GCONST> 9.271597e+001
<STATE> 4
<MEAN> 25
 -1.028370e+001 8.825312e-001 -3.666907e+000 1.608882e+000 -1.859193e+000 -7.640123e+000 4.022992e+000 7.085523e-001 9.746683e-002 -5.639665e-001 -1.047762e-001 3.961248e+000 3.812720e+000 -1.191702e+000 1.873918e+000 -4.754723e-001 -1.806856e+000 -1.913662e+000 -1.546855e+000 -7.406796e-001 -6.454901e-001 6.284989e-001 -6.842914e-001 -2.469282e-001 9.973629e-001
<VARIANCE> 25
 5.274258e+001 1.712917e+001 2.635525e+001 1.588691e+001 3.717008e+001 4.170492e+001 3.970544e+001 3.569851e+001 2.959662e+001 2.201580e+001 4.275679e+001 2.304202e+001 2.921734e+000 2.445049e+000 2.589080e+000 2.328292e+000 2.642807e+000 4.352392e+000 4.000222e+000 4.148507e+000 3.293584e+000 2.622305e+000 4.779747e+000 3.622032e+000 1.613663e+000
<GCONST> 1.012656e+002
<TRANSP> 5
 0.000000e+000 1.000000e+000 0.000000e+000 0.000000e+000 0.000000e+000
 0.000000e+000 7.640472e-001 2.359528e-001 0.000000e+000 0.000000e+000
 0.000000e+000 0.000000e+000 6.532279e-001 3.467721e-001 0.000000e+000
 0.000000e+000 0.000000e+000 0.000000e+000 6.956902e-001 3.043098e-001
 0.000000e+000 0.000000e+000 0.000000e+000 0.000000e+000 0.000000e+000
<ENDHMM>
~h "d"
<BEGINHMM>
<NUMSTATES> 5
<STATE> 2
<MEAN> 25
 4.464642e+000 6.028170e+000 2.494192e+000 2.738381e+000 1.641440e+000 -2.876799e+000 -1.321887e+000 -2.827536e-001 2.948521e+000 -6.846973e-002 -3.393052e+000 -2.036353e+000 -2.569851e-001 9.178788e-001 6.923932e-001 5.327138e-001 4.312124e-001 4.773283e-001 3.140526e-001 2.216222e-001 1.704729e-001 -8.451697e-001 -1.409958e-002 -3.825994e-001 -9.677238e-001
<VARIANCE> 25
 1.595352e+001 2.284117e+001 2.304669e+001 2.151815e+001 2.485323e+001 3.376753e+001 3.266969e+001 3.204006e+001 2.819310e+001 3.341778e+001 2.988276e+001 2.925996e+001 2.771352e+000 3.583205e+000 2.362163e+000 2.395397e+000 2.681350e+000 3.436394e+000 3.770430e+000 3.259274e+000 2.832781e+000 3.247148e+000 3.699622e+000 3.123077e+000 4.023005e+000
<GCONST> 1.001755e+002
<STATE> 3
<MEAN> 25
 2.509538e+000 6.080226e+000 3.296117e+000 3.003041e+000 2.685216e+000 -1.052266e+000 -4.620691e-001 3.844407e-001 2.422067e+000 -1.501486e+000 -2.218219e+000 -2.096049e+000 -1.391298e+000 -1.343308e+000 -2.931696e-001 -4.870570e-001 8.675526e-002 2.437594e-001 -3.199417e-001 -1.506139e-001 -4.558377e-001 -8.059372e-002 8.196365e-001 6.007897e-001 1.470071e+000
<VARIANCE> 25
 2.220551e+001 2.793905e+001 2.360603e+001 2.139027e+001 2.448929e+001 3.044230e+001 2.947788e+001 3.105125e+001 2.741981e+001 2.837833e+001 2.973435e+001 2.254851e+001 3.109311e+000 3.588900e+000 2.701229e+000 2.714476e+000 3.222007e+000 4.217416e+000 3.893081e+000 3.399708e+000 2.994138e+000 3.339980e+000 3.837192e+000 3.164281e+000 3.424926e+000
<GCONST> 1.008270e+002
<STATE> 4
<MEAN> 25
 -8.823468e-001 8.166732e-001 1.114844e+000 5.284410e-001 2.075909e+000 -1.610550e+000 -2.334243e+000 -1.688288e-001 1.483726e+000 -5.360855e-001 -5.449415e-002 2.282732e-001 -1.804290e-001 -1.853190e+000 -9.660877e-001 -1.149882e+000 -1.155388e+000 -5.663875e-001 -9.852623e-001 -3.098251e-001 -2.712448e-001 9.718872e-001 4.105336e-001 6.969467e-001 2.400639e+000
<VARIANCE> 25
 2.198375e+001 2.961194e+001 2.902496e+001 2.510250e+001 3.287514e+001 4.342923e+001 4.042800e+001 3.195187e+001 2.797845e+001 3.031132e+001 3.084124e+001 2.566195e+001 3.486700e+000 3.271941e+000 3.866800e+000 3.124596e+000 3.798968e+000 4.874896e+000 4.514863e+000 4.427975e+000 3.942427e+000 3.730887e+000 4.473859e+000 3.589793e+000 2.819370e+000
<GCONST> 1.042025e+002
<TRANSP> 5
 0.000000e+000 1.000000e+000 0.000000e+000 0.000000e+000 0.000000e+000
 0.000000e+000 4.485087e-001 5.514913e-001 0.000000e+000 0.000000e+000
 0.000000e+000 0.000000e+000 3.284981e-001 6.715019e-001 0.000000e+000
 0.000000e+000 0.000000e+000 0.000000e+000 4.754097e-001 5.245903e-001
 0.000000e+000 0.000000e+000 0.000000e+000 0.000000e+000 0.000000e+000
<ENDHMM>
~h "e"
<BEGINHMM>
<NUMSTATES> 5
<STATE> 2
<MEAN> 25
 2.007745e+000 -4.658050e+000 2.564149e+000 -8.637628e-002 -6.694640e+000 -7.159842e+000 9.515679e-001 4.203627e+000 -9.431509e-001 9.001204e-001 -2.568639e-001 2.216899e+000 5.046112e-001 4.172494e-001 3.451079e-001 2.847902e-001 -6.332362e-002 -2.145917e-001 2.364970e-001 5.465802e-002 -7.595153e-002 3.928054e-001 -1.112879e-001 4.435891e-002 -2.880057e-001
<VARIANCE> 25
 7.563849e+000 1.692357e+001 1.942718e+001 1.917620e+001 2.598857e+001 3.473627e+001 4.045075e+001 3.039486e+001 3.175587e+001 2.847933e+001 2.610371e+001 2.335515e+001 1.670671e+000 1.684767e+000 1.731828e+000 1.713214e+000 3.034529e+000 2.640030e+000 3.273246e+000 2.911180e+000 2.815376e+000 2.754557e+000 2.288619e+000 2.057240e+000 1.691560e+000
<GCONST> 9.444022e+001
<STATE> 3
<MEAN> 25
 2.664546e+000 -1.964136e+000 3.512029e+000 1.468945e+000 -5.623877e+000 -6.658911e+000 9.077733e-001 3.056039e+000 -3.606639e-001 1.229428e+000 -5.961474e-001 1.926377e+000 1.745580e-001 1.494748e+000 2.974740e-001 7.769312e-001 8.852662e-001 4.561721e-001 2.263016e-002 -5.655823e-001 4.915507e-001 -1.045426e-001 -7.486511e-002 -3.386000e-001 -1.676813e+000
<VARIANCE> 25
 8.570575e+000 2.566055e+001 2.274731e+001 2.147579e+001 3.086441e+001 3.568177e+001 4.446638e+001 3.586426e+001 3.757760e+001 3.289153e+001 2.820065e+001 2.697823e+001 1.145024e+000 1.932869e+000 1.589034e+000 1.759757e+000 2.455641e+000 2.615422e+000 2.994406e+000 3.103659e+000 2.866141e+000 2.604926e+000 2.292213e+000 2.164234e+000 1.801891e+000
<GCONST> 9.577697e+001
<STATE> 4
<MEAN> 25
 2.252891e+000 1.963073e+000 3.872799e+000 3.150965e+000 -2.784468e+000 -4.800653e+000 1.073709e+000 1.816045e+000 1.306794e+000 4.405225e-001 -4.515942e-001 7.682464e-001 -5.593652e-001 1.248050e+000 -1.504906e-001 4.174294e-001 1.211589e+000 9.403362e-001 -1.561902e-002 -5.730632e-001 4.166487e-001 -2.016782e-001 2.362384e-001 -4.808373e-001 -1.440945e+000
<VARIANCE> 25
 1.590589e+001 3.205257e+001 2.392409e+001 2.045609e+001 3.179086e+001 3.434986e+001 4.196103e+001 3.578775e+001 3.738626e+001 3.245518e+001 3.088231e+001 2.674358e+001 2.359730e+000 3.159627e+000 1.986567e+000 2.337621e+000 2.652272e+000 3.026204e+000 3.230491e+000 3.954910e+000 3.384655e+000 2.846815e+000 2.817584e+000 2.550931e+000 2.106628e+000
<GCONST> 9.965967e+001
<TRANSP> 5
 0.000000e+000 1.000000e+000 0.000000e+000 0.000000e+000 0.000000e+000
 0.000000e+000 4.743928e-001 5.256072e-001 0.000000e+000 0.000000e+000
 0.000000e+000 0.000000e+000 4.554651e-001 5.445349e-001 0.000000e+000
 0.000000e+000 0.000000e+000 0.000000e+000 4.317645e-001 5.682355e-001
 0.000000e+000 0.000000e+000 0.000000e+000 0.000000e+000 0.000000e+000
<ENDHMM>
~h "f"
<BEGINHMM>
<NUMSTATES> 5
<STATE> 2
<MEAN> 25
 -9.924448e+000 4.966648e-001 -9.288869e-001 5.672289e+000 4.183964e+000 4.020627e+000 4.735857e-001 3.358998e+000 1.648069e+000 -1.954421e+000 -1.028444e+000 5.673900e-002 -4.674346e-001 -1.550215e+000 -8.724503e-001 -3.105463e-001 -5.023489e-001 2.360619e-001 -6.266348e-001 7.325812e-002 3.485928e-001 1.829032e-001 1.341416e-001 1.376502e-001 2.451636e-001
<VARIANCE> 25
 1.522754e+001 2.339809e+001 2.548783e+001 2.246278e+001 1.325702e+001 2.441320e+001 2.577722e+001 2.256203e+001 2.261895e+001 2.399154e+001 3.215720e+001 1.823477e+001 4.182696e+000 1.822896e+000 2.384905e+000 2.753393e+000 1.880176e+000 2.499670e+000 2.107488e+000 2.848412e+000 2.079967e+000 2.042637e+000 2.427136e+000 1.686768e+000 1.652817e+000
<GCONST> 9.360037e+001
<STATE> 3
<MEAN> 25
 -9.149084e+000 -3.720419e+000 -4.504733e+000 2.490959e+000 2.332335e+000 2.833241e+000 -1.233171e+000 2.808882e+000 2.861525e+000 -2.279949e-001 -2.958392e-001 -2.338580e-002 3.140371e+000 -1.131246e+000 -1.252244e+000 -1.565374e+000 -1.782627e+000 -8.756753e-001 -1.481913e+000 -1.577853e+000 3.926690e-002 8.105333e-001 6.500399e-001 -2.629361e-001 1.171398e+000
<VARIANCE> 25
 1.120622e+001 1.322732e+001 1.995696e+001 1.860633e+001 1.861444e+001 2.576097e+001 2.828990e+001 2.648729e+001 2.004595e+001 2.660401e+001 2.683745e+001 1.834660e+001 2.990335e+000 1.946298e+000 2.188693e+000 2.928466e+000 2.460940e+000 3.296030e+000 2.476032e+000 3.274969e+000 2.430066e+000 2.328107e+000 3.648065e+000 1.897676e+000 1.424052e+000
<GCONST> 9.395969e+001
<STATE> 4
<MEAN> 25
 6.708629e-001 -4.311820e+000 -7.126966e+000 -7.766697e-001 -2.541300e+000 1.047727e+000 -4.891360e+000 -3.280306e+000 1.758246e+000 1.507229e+000 1.367443e+000 -4.331912e-001 4.205942e+000 -3.897945e-001 -4.335711e-001 -1.574767e-001 -1.453972e+000 -3.459494e-001 -8.810656e-001 -1.856901e+000 -2.241101e-001 9.396051e-001 6.321082e-001 1.908981e-002 1.567926e+000
<VARIANCE> 25
 3.502509e+001 1.175111e+001 2.436806e+001 2.707281e+001 2.285647e+001 3.407656e+001 2.809530e+001 3.951590e+001 2.065441e+001 2.664757e+001 2.058848e+001 1.806413e+001 1.337331e+000 2.042100e+000 1.971354e+000 3.867833e+000 2.819303e+000 3.486333e+000 4.122385e+000 3.505620e+000 2.814033e+000 3.913172e+000 3.560316e+000 2.285137e+000 9.446718e-001
<GCONST> 9.678871e+001
<TRANSP> 5
 0.000000e+000 1.000000e+000 0.000000e+000 0.000000e+000 0.000000e+000
 0.000000e+000 6.855791e-001 3.144209e-001 0.000000e+000 0.000000e+000
 0.000000e+000 0.000000e+000 3.949618e-001 6.050382e-001 0.000000e+000
 0.000000e+000 0.000000e+000 0.000000e+000 4.589621e-001 5.410379e-001
 0.000000e+000 0.000000e+000 0.000000e+000 0.000000e+000 0.000000e+000
<ENDHMM>
~h "g"
<BEGINHMM>
<NUMSTATES> 5
<STATE> 2
<MEAN> 25
 5.656261e+000 7.645067e+000 1.238983e+000 -7.179832e-001 -8.979872e-001 1.569720e+000 1.806236e+000 -2.604777e-001 -3.805098e+000 -1.755991e+000 7.219415e-001 -7.155648e-001 -7.746367e-001 -2.922100e-001 -4.102084e-001 8.433753e-001 9.221306e-001 2.312420e-001 -1.010722e-001 -3.913551e-001 3.113978e-001 1.333832e-001 -3.591232e-001 1.367742e-001 -3.856505e-001
<VARIANCE> 25
 1.585714e+001 2.281811e+001 3.412603e+001 3.842859e+001 3.477553e+001 4.075595e+001 3.264792e+001 3.817830e+001 4.455822e+001 4.625036e+001 4.296248e+001 2.950409e+001 1.268425e+000 3.778742e+000 4.218704e+000 3.971046e+000 3.473536e+000 4.779926e+000 3.827350e+000 4.017343e+000 4.758929e+000 4.090966e+000 4.606513e+000 2.695908e+000 2.924328e+000
<GCONST> 1.046664e+002
<STATE> 3
<MEAN> 25
 3.775317e+000 5.338361e+000 -9.880528e-001 2.775193e-001 1.538763e+000 2.638773e+000 4.394728e-001 -1.127848e+000 -3.825436e+000 -4.643962e-001 1.108370e+000 -3.591579e-001 -8.852509e-001 -1.702798e+000 -1.046221e+000 -8.584490e-002 5.326565e-001 2.133000e-001 -9.317492e-001 -6.191711e-001 -7.162786e-002 7.864891e-001 4.675171e-001 1.523879e-001 1.352739e+000
<VARIANCE> 25
 1.852281e+001 3.157344e+001 5.541979e+001 4.291267e+001 4.450292e+001 5.155834e+001 3.812766e+001 4.227216e+001 4.494130e+001 4.236224e+001 3.687195e+001 2.568898e+001 2.087058e+000 4.348539e+000 5.325032e+000 5.415703e+000 4.627982e+000 6.063457e+000 4.843301e+000 5.080016e+000 5.881409e+000 5.342063e+000 5.394366e+000 3.427929e+000 3.363580e+000
<GCONST> 1.093032e+002
<STATE> 4
<MEAN> 25
 2.213877e+000 9.840891e-001 -2.636912e+000 -3.903462e-001 1.603034e+000 1.857611e+000 -1.924748e+000 -2.109419e+000 -3.558210e+000 1.707922e+000 2.407468e+000 -2.182566e-001 -3.934626e-001 -1.343165e+000 -8.023734e-002 -5.292486e-001 -4.839030e-001 -4.855640e-001 -6.670985e-001 -6.160799e-001 2.619871e-001 7.482705e-001 4.108206e-001 1.030519e-002 1.704859e+000
<VARIANCE> 25
 2.662014e+001 4.059231e+001 6.687930e+001 5.620947e+001 5.116357e+001 6.807269e+001 5.112908e+001 5.387051e+001 5.173706e+001 4.839393e+001 3.934409e+001 2.741907e+001 2.959701e+000 4.081308e+000 3.993718e+000 4.644023e+000 5.092665e+000 5.502239e+000 5.255922e+000 5.505261e+000 5.518216e+000 5.157879e+000 5.467989e+000 3.326032e+000 3.312977e+000
<GCONST> 1.116068e+002
<TRANSP> 5
 0.000000e+000 1.000000e+000 0.000000e+000 0.000000e+000 0.000000e+000
 0.000000e+000 3.062218e-001 6.937782e-001 0.000000e+000 0.000000e+000
 0.000000e+000 0.000000e+000 2.557083e-001 7.442917e-001 0.000000e+000
 0.000000e+000 0.000000e+000 0.000000e+000 3.285054e-001 6.714946e-001
 0.000000e+000 0.000000e+000 0.000000e+000 0.000000e+000 0.000000e+000
<ENDHMM>
~h "h"
<BEGINHMM>
<NUMSTATES> 5
<STATE> 2
<MEAN> 25
 -3.126006e+000 2.166342e+000 5.215082e+000 5.054670e+000 3.382399e+000 -1.189653e+000 1.078484e+000 2.706952e+000 -2.070654e+000 2.261224e-001 -4.328590e-002 3.650449e-001 -1.189191e+000 -1.111189e+000 -1.494563e+000 8.866544e-002 1.708913e+000 4.742805e-001 -3.854133e-001 6.385922e-001 1.218593e+000 -3.352524e-002 -3.334892e-001 2.147796e-001 1.778336e-002
<VARIANCE> 25
 3.139481e+001 3.880091e+001 5.879774e+001 3.049895e+001 4.388884e+001 4.902815e+001 4.193610e+001 4.588795e+001 3.679259e+001 3.407875e+001 2.865955e+001 2.409458e+001 2.541669e+000 3.250249e+000 5.212890e+000 2.758076e+000 4.854760e+000 4.524482e+000 4.390210e+000 4.197582e+000 4.228729e+000 3.533610e+000 3.388200e+000 2.631165e+000 2.322066e+000
<GCONST> 1.059666e+002
<STATE> 3
<MEAN> 25
 -5.103681e+000 -3.806347e-001 1.739836e+000 3.872610e+000 5.650868e+000 2.800904e-001 1.379194e-001 2.868535e+000 1.658582e-001 7.048683e-001 -7.709571e-001 3.538760e-001 -8.292457e-001 -8.555369e-001 -1.220094e+000 -7.596612e-001 4.561219e-001 6.369442e-001 -2.276398e-001 -2.694918e-001 7.546628e-001 1.750320e-001 -1.609706e-001 6.664985e-002 2.425636e-001
<VARIANCE> 25
 3.118386e+001 3.851780e+001 6.379454e+001 2.956106e+001 4.846863e+001 4.599959e+001 5.150280e+001 4.445681e+001 3.480929e+001 3.938883e+001 3.141239e+001 2.438067e+001 2.505813e+000 2.460488e+000 4.925160e+000 2.239945e+000 3.806887e+000 4.759807e+000 4.158797e+000 3.616535e+000 3.683843e+000 3.553046e+000 2.996519e+000 2.634886e+000 2.293854e+000
<GCONST> 1.051860e+002
<STATE> 4
<MEAN> 25
 -7.796099e+000 -2.370025e+000 8.425847e-001 3.058764e-001 3.991599e+000 1.631195e+000 1.087325e+000 1.565010e+000 1.273148e+000 1.613607e+000 -8.014100e-001 8.003118e-001 4.384454e-001 -4.879983e-002 -1.318574e-001 -7.852904e-001 -8.189537e-001 5.937209e-002 -2.479803e-001 -7.841743e-001 -1.755627e-001 -7.542015e-002 1.201300e-001 8.972055e-002 1.475199e-001
<VARIANCE> 25
 4.148531e+001 3.432191e+001 7.547926e+001 3.136067e+001 4.829451e+001 4.700196e+001 5.089808e+001 3.905870e+001 3.631619e+001 3.805115e+001 3.655104e+001 2.505015e+001 3.301342e+000 2.128854e+000 3.414940e+000 2.532204e+000 3.611961e+000 4.439367e+000 3.823493e+000 3.403279e+000 3.498642e+000 3.452041e+000 3.007824e+000 2.277404e+000 1.674495e+000
<GCONST> 1.047296e+002
<TRANSP> 5
 0.000000e+000 1.000000e+000 0.000000e+000 0.000000e+000 0.000000e+000
 0.000000e+000 3.653730e-001 6.346270e-001 0.000000e+000 0.000000e+000
 0.000000e+000 0.000000e+000 3.609414e-001 6.390586e-001 0.000000e+000
 0.000000e+000 0.000000e+000 0.000000e+000 6.263367e-001 3.736633e-001
 0.000000e+000 0.000000e+000 0.000000e+000 0.000000e+000 0.000000e+000
<ENDHMM>
~h "i"
<BEGINHMM>
<NUMSTATES> 5
<STATE> 2
<MEAN> 25
 -7.887259e-001 2.324639e-001 1.060768e+001 2.346810e-001 -9.369138e+000 -3.896767e+000 -7.422780e-001 -2.979766e+000 -7.348290e+000 1.477461e+000 1.749494e+000 9.243333e-001 3.066812e-001 4.416289e-001 1.761681e+000 -4.215795e-001 -1.625171e+000 8.499984e-002 -1.153110e-001 -9.776793e-001 -1.414035e+000 9.048351e-001 -1.015290e-001 -8.170687e-002 6.930825e-001
<VARIANCE> 25
 1.533050e+001 2.030636e+001 2.585979e+001 3.207748e+001 2.863984e+001 4.761432e+001 3.588351e+001 5.000876e+001 3.685107e+001 4.419608e+001 3.260954e+001 2.143383e+001 3.092756e+000 2.075165e+000 2.777592e+000 2.856240e+000 3.813571e+000 4.244313e+000 4.132971e+000 4.123026e+000 3.949856e+000 3.629461e+000 3.762443e+000 2.239619e+000 2.030568e+000
<GCONST> 1.021164e+002
<STATE> 3
<MEAN> 25
 -4.795704e-001 2.698210e+000 1.308358e+001 -6.551941e-001 -1.019156e+001 -1.570935e+000 -9.583423e-001 -5.488762e+000 -7.678934e+000 3.068986e+000 9.257042e-002 6.165865e-001 2.290032e-001 6.556032e-001 -1.512548e-001 5.598672e-001 6.032026e-001 4.950108e-002 2.225921e-001 4.867521e-002 4.292151e-001 -2.426946e-001 -1.281737e-001 -7.248507e-002 -7.106807e-001
<VARIANCE> 25
 8.838143e+000 2.115580e+001 2.204838e+001 3.995124e+001 2.489292e+001 5.469968e+001 3.559519e+001 4.653600e+001 3.696656e+001 4.779422e+001 3.691411e+001 2.340953e+001 1.230302e+000 1.744955e+000 1.680331e+000 2.029646e+000 2.526392e+000 2.688968e+000 2.536316e+000 2.636570e+000 2.483807e+000 2.359855e+000 2.279974e+000 1.587079e+000 1.538733e+000
<GCONST> 9.611874e+001
<STATE> 4
<MEAN> 25
 2.076591e-001 4.546562e+000 9.274237e+000 3.346060e+000 -4.745805e+000 -2.801463e+000 5.392861e-001 -2.962313e+000 -4.151316e+000 1.782171e-001 7.457142e-001 4.572759e-001 -1.650741e-001 4.010845e-001 -1.290874e+000 6.949210e-001 1.870988e+000 1.791408e-001 4.445899e-002 5.077667e-001 1.181861e+000 -6.240343e-001 -3.994126e-002 -9.768732e-002 -1.112639e+000
<VARIANCE> 25
 1.677120e+001 2.797776e+001 2.566790e+001 3.094499e+001 3.766851e+001 4.484730e+001 3.733972e+001 3.949230e+001 3.694558e+001 3.566860e+001 2.811475e+001 2.136720e+001 2.282094e+000 2.827372e+000 2.246587e+000 2.779646e+000 3.242327e+000 3.672574e+000 3.464967e+000 3.802071e+000 3.426649e+000 3.360818e+000 3.401161e+000 2.342400e+000 2.140034e+000
<GCONST> 1.011171e+002
<TRANSP> 5
 0.000000e+000 1.000000e+000 0.000000e+000 0.000000e+000 0.000000e+000
 0.000000e+000 5.935969e-001 4.064030e-001 0.000000e+000 0.000000e+000
 0.000000e+000 0.000000e+000 6.398810e-001 3.601190e-001 0.000000e+000
 0.000000e+000 0.000000e+000 0.000000e+000 6.302907e-001 3.697093e-001
 0.000000e+000 0.000000e+000 0.000000e+000 0.000000e+000 0.000000e+000
<ENDHMM>
~h "j"
<BEGINHMM>
<NUMSTATES> 5
<STATE> 2
<MEAN> 25
 -1.134623e+000 1.732284e+000 1.066576e+001 -8.387654e-001 -8.066966e+000 -1.770533e+000 -9.759937e-001 -2.479015e+000 -5.198821e+000 8.470577e-001 8.144327e-001 7.123640e-001 -5.020142e-002 -9.633886e-002 1.381145e+000 -6.871195e-001 -1.658314e+000 -2.051646e-001 -3.632177e-001 -3.268470e-001 -6.707966e-001 6.991933e-001 3.079601e-001 3.328145e-001 8.416002e-001
<VARIANCE> 25
 1.422168e+001 3.201765e+001 3.524904e+001 3.708079e+001 3.073924e+001 4.359286e+001 3.633842e+001 4.641949e+001 3.385072e+001 3.655664e+001 2.481134e+001 2.067374e+001 3.109528e+000 2.847902e+000 3.404921e+000 3.016254e+000 3.764078e+000 3.684565e+000 3.816810e+000 3.776399e+000 3.400265e+000 3.131648e+000 2.494222e+000 2.001229e+000 2.400386e+000
<GCONST> 1.018924e+002
<STATE> 3
<MEAN> 25
 -7.468820e-001 5.419579e-002 1.072507e+001 -2.055824e+000 -1.079294e+001 -2.961502e+000 -5.126663e-001 -2.352997e+000 -5.357819e+000 3.161294e+000 1.856483e+000 1.539437e+000 3.434203e-001 -8.178371e-001 -9.347107e-001 2.342389e-001 -2.009299e-001 -9.139107e-001 4.314858e-001 9.913890e-001 4.008253e-001 2.314843e-001 3.074816e-001 1.946903e-001 3.896658e-001
<VARIANCE> 25
 7.225117e+000 1.998698e+001 2.504999e+001 3.418653e+001 2.183573e+001 3.947366e+001 3.162519e+001 3.748076e+001 3.179012e+001 3.930388e+001 2.501167e+001 1.996246e+001 8.279724e-001 1.793469e+000 2.369339e+000 1.751406e+000 1.785594e+000 2.325931e+000 2.710769e+000 2.810192e+000 2.287410e+000 2.035461e+000 1.631431e+000 1.329777e+000 1.068118e+000
<GCONST> 9.250419e+001
<STATE> 4
<MEAN> 25
 7.611886e-001 -3.161959e+000 5.440286e+000 -3.516363e-001 -8.862905e+000 -6.062050e+000 1.162529e+000 2.615410e+000 -2.999811e+000 1.817452e+000 1.674160e+000 1.727253e+000 6.140834e-001 -6.714370e-001 -1.948009e+000 4.409803e-001 1.557324e+000 -2.477491e-001 -7.817522e-002 1.130323e+000 1.163016e+000 -5.883642e-001 -6.309938e-001 -1.359888e-001 -1.206989e-001
<VARIANCE> 25
 7.418538e+000 1.771966e+001 2.406380e+001 3.065714e+001 2.543692e+001 3.451681e+001 5.046502e+001 3.484692e+001 3.345939e+001 3.340827e+001 2.722954e+001 1.766782e+001 5.780976e-001 1.730048e+000 2.470204e+000 1.784554e+000 2.313405e+000 2.547781e+000 3.516199e+000 3.384440e+000 2.741191e+000 3.098366e+000 2.111958e+000 1.708341e+000 1.076415e+000
<GCONST> 9.410439e+001
<TRANSP> 5
 0.000000e+000 1.000000e+000 0.000000e+000 0.000000e+000 0.000000e+000
 0.000000e+000 5.791922e-001 4.208078e-001 0.000000e+000 0.000000e+000
 0.000000e+000 0.000000e+000 5.456834e-001 4.543166e-001 0.000000e+000
 0.000000e+000 0.000000e+000 0.000000e+000 5.592091e-001 4.407909e-001
 0.000000e+000 0.000000e+000 0.000000e+000 0.000000e+000 0.000000e+000
<ENDHMM>
~h "k"
<BEGINHMM>
<NUMSTATES> 5
<STATE> 2
<MEAN> 25
 -4.756299e+000 -3.246816e-001 -3.457045e+000 3.696221e+000 6.405572e+000 8.023279e-001 7.521313e-001 2.866629e+000 2.891918e+000 5.314372e-001 -1.361536e-001 -3.325942e-002 -8.614668e-001 -2.388229e+000 -1.735229e+000 -8.579097e-001 2.320125e-001 1.841559e-001 -9.216502e-001 9.898827e-002 -6.399881e-001 6.391758e-001 3.569740e-001 7.768105e-001 1.744934e+000
<VARIANCE> 25
 2.584965e+001 4.269186e+001 4.502135e+001 3.520830e+001 4.606051e+001 4.423468e+001 4.645662e+001 4.445359e+001 4.053015e+001 3.379443e+001 3.442212e+001 2.536374e+001 4.078507e+000 4.477543e+000 5.708503e+000 4.560304e+000 5.829586e+000 6.948971e+000 4.934360e+000 4.501319e+000 4.682366e+000 4.183046e+000 3.350038e+000 3.333728e+000 4.879769e+000
<GCONST> 1.095077e+002
<STATE> 3
<MEAN> 25
 -6.434610e+000 -5.539615e+000 -8.212830e+000 -1.595479e-001 5.456860e+000 1.138727e+000 -1.598031e+000 2.336396e+000 9.632794e-001 2.527475e+000 1.125846e+000 1.776479e+000 5.673084e-001 -9.313938e-001 -5.331087e-001 -1.970712e+000 -1.437037e+000 -3.586589e-001 -7.959073e-001 -5.045887e-001 -1.132396e+000 5.568331e-001 4.440316e-001 8.906294e-002 1.983661e+000
<VARIANCE> 25
 1.921395e+001 3.173280e+001 6.390015e+001 4.296240e+001 5.081028e+001 7.343758e+001 4.854728e+001 4.409498e+001 4.286893e+001 3.429735e+001 3.566268e+001 2.749423e+001 4.444204e+000 3.645631e+000 5.825189e+000 3.926061e+000 4.823810e+000 5.859646e+000 4.465158e+000 4.293156e+000 4.839479e+000 4.110915e+000 4.061517e+000 3.212844e+000 3.036394e+000
<GCONST> 1.092320e+002
<STATE> 4
<MEAN> 25
 -3.634269e+000 -3.525065e+000 -5.845498e+000 -3.561206e+000 1.494412e+000 -3.623682e-001 -2.207136e+000 6.608670e-001 -1.183254e+000 2.597408e+000 1.618066e+000 6.386701e-001 2.224580e+000 8.341765e-001 1.417215e+000 -1.107899e+000 -1.727737e+000 -4.765533e-001 -2.837794e-001 -9.005362e-001 -1.141520e+000 -1.207905e-001 2.001133e-001 -7.021713e-001 1.233398e+000
<VARIANCE> 25
 3.795199e+001 2.251005e+001 6.905860e+001 3.928798e+001 4.092065e+001 7.518694e+001 4.312159e+001 4.286842e+001 4.201959e+001 3.548139e+001 4.096796e+001 2.731650e+001 2.889868e+000 3.207113e+000 3.973133e+000 3.654783e+000 4.022027e+000 4.689072e+000 4.378439e+000 4.465620e+000 4.996861e+000 4.240393e+000 5.335346e+000 2.994288e+000 2.889441e+000
<GCONST> 1.081822e+002
<TRANSP> 5
 0.000000e+000 1.000000e+000 0.000000e+000 0.000000e+000 0.000000e+000
 0.000000e+000 5.087537e-001 4.912463e-001 0.000000e+000 0.000000e+000
 0.000000e+000 0.000000e+000 3.662467e-001 6.337532e-001 0.000000e+000
 0.000000e+000 0.000000e+000 0.000000e+000 4.886113e-001 5.113887e-001
 0.000000e+000 0.000000e+000 0.000000e+000 0.000000e+000 0.000000e+000
<ENDHMM>
~h "l"
<BEGINHMM>
<NUMSTATES> 5
<STATE> 2
<MEAN> 25
 3.880017e+000 -3.771841e+000 -1.967014e+000 -2.625577e+000 -2.088394e+000 3.430241e+000 -2.655604e+000 -7.888886e+000 -5.006746e-001 3.416803e+000 3.800551e+000 -2.826461e-001 1.504983e+000 -1.109736e-001 3.091796e-001 -1.099847e+000 -3.010190e-001 4.281311e-001 -7.844642e-001 -1.587410e+000 -2.370550e-001 1.031229e+000 1.246764e-001 -3.957206e-002 4.910848e-001
<VARIANCE> 25
 3.344588e+001 2.087879e+001 3.703249e+001 3.620784e+001 3.754805e+001 5.239259e+001 5.315055e+001 4.744110e+001 4.734840e+001 3.880932e+001 3.842448e+001 2.926624e+001 3.387904e+000 2.649737e+000 3.189523e+000 5.102371e+000 4.807349e+000 5.772974e+000 5.144333e+000 6.022470e+000 5.193572e+000 4.289654e+000 5.071744e+000 3.446031e+000 2.456289e+000
<GCONST> 1.082591e+002
<STATE> 3
<MEAN> 25
 5.706292e+000 -3.692980e+000 -1.491492e+000 -4.258332e+000 -1.713358e+000 4.043506e+000 -3.523494e+000 -8.406630e+000 -1.994814e-001 4.699949e+000 3.383010e+000 -3.558688e-001 3.845604e-001 -1.862671e-001 -1.687747e-001 -6.260189e-001 3.599662e-001 2.927772e-003 -1.795324e-001 8.378002e-001 2.909115e-001 -1.325635e-002 -6.324981e-001 -1.777554e-001 5.516043e-001
<VARIANCE> 25
 1.980408e+001 1.766278e+001 3.720418e+001 3.997197e+001 3.818678e+001 4.926818e+001 6.021698e+001 4.393416e+001 4.769106e+001 3.992452e+001 4.132811e+001 2.815820e+001 1.982309e+000 1.783917e+000 3.187362e+000 3.461393e+000 4.140954e+000 5.099346e+000 4.254045e+000 6.251285e+000 5.017187e+000 3.731371e+000 4.093745e+000 3.575697e+000 1.385640e+000
<GCONST> 1.050745e+002
<STATE> 4
<MEAN> 25
 5.154530e+000 -4.302568e+000 -2.759876e+000 -4.878820e+000 -4.219863e-001 3.691501e+000 -2.953587e+000 -4.538542e+000 9.974460e-001 3.186120e+000 1.480100e+000 -1.152116e+000 -2.163976e-001 -1.748841e-001 -4.337074e-001 -4.566851e-003 4.014312e-001 -3.358744e-001 5.239969e-001 1.696710e+000 -9.403495e-003 -7.081001e-001 -7.890323e-001 -1.850010e-001 4.133124e-001
<VARIANCE> 25
 1.675687e+001 1.834060e+001 4.340010e+001 4.031277e+001 4.222165e+001 5.765209e+001 5.484361e+001 4.453899e+001 4.499501e+001 3.702840e+001 4.245079e+001 3.559562e+001 1.104723e+000 1.757525e+000 2.713149e+000 3.215872e+000 3.792183e+000 4.965374e+000 4.395404e+000 4.844029e+000 4.060918e+000 3.325528e+000 3.566545e+000 2.966864e+000 8.802594e-001
<GCONST> 1.031370e+002
<TRANSP> 5
 0.000000e+000 1.000000e+000 0.000000e+000 0.000000e+000 0.000000e+000
 0.000000e+000 3.727192e-001 6.272808e-001 0.000000e+000 0.000000e+000
 0.000000e+000 0.000000e+000 3.181164e-001 6.818836e-001 0.000000e+000
 0.000000e+000 0.000000e+000 0.000000e+000 3.922168e-001 6.077832e-001
 0.000000e+000 0.000000e+000 0.000000e+000 0.000000e+000 0.000000e+000
<ENDHMM>
~h "m"
<BEGINHMM>
<NUMSTATES> 5
<STATE> 2
<MEAN> 25
 7.073301e+000 1.479733e+000 1.286128e+000 4.601738e+000 1.911320e+000 -1.039424e+000 1.570381e+000 -6.805604e+000 -5.175689e+000 7.910248e-001 2.857143e-001 -3.190819e+000 2.462669e-001 6.538911e-001 6.266076e-001 1.219369e+000 3.430980e-001 -3.818225e-001 2.478656e-001 -1.226607e+000 -7.270964e-001 1.000926e-001 3.879167e-003 -2.586400e-001 -4.621997e-001
<VARIANCE> 25
 8.758246e+000 1.860353e+001 1.380338e+001 2.468285e+001 2.850062e+001 3.227158e+001 3.491145e+001 4.303528e+001 3.844937e+001 3.446626e+001 3.181548e+001 2.627167e+001 8.674108e-001 1.779575e+000 1.612764e+000 2.258978e+000 2.223646e+000 2.646486e+000 2.541576e+000 3.801326e+000 3.327091e+000 2.494113e+000 2.398299e+000 2.149585e+000 1.755468e+000
<GCONST> 9.501432e+001
<STATE> 3
<MEAN> 25
 7.063951e+000 2.414496e+000 2.272589e+000 5.653781e+000 2.368987e+000 -1.118442e+000 1.615336e+000 -7.229951e+000 -5.598390e+000 2.836183e-001 4.643336e-002 -3.014552e+000 -3.919102e-001 -1.524406e-001 3.115636e-001 -3.772310e-001 -1.668869e-001 3.229800e-001 -2.694725e-001 9.738337e-001 3.892571e-001 -5.176726e-001 -2.215214e-001 2.950195e-001 2.697639e-001
<VARIANCE> 25
 7.454176e+000 2.066797e+001 1.428260e+001 2.446047e+001 2.724484e+001 3.466604e+001 3.379095e+001 4.418169e+001 4.152174e+001 3.698368e+001 3.542683e+001 2.643271e+001 7.000083e-001 1.931677e+000 1.773259e+000 2.225742e+000 2.194046e+000 2.345487e+000 2.449519e+000 3.551772e+000 3.076223e+000 2.423802e+000 2.358832e+000 2.015121e+000 1.717856e+000
<GCONST> 9.476346e+001
<STATE> 4
<MEAN> 25
 5.277465e+000 5.750395e-001 2.215528e+000 2.872741e+000 1.652131e+000 4.635637e-001 2.472269e-001 -2.260582e+000 -3.389443e+000 -1.753950e+000 -7.409474e-001 -2.072701e+000 -1.165242e+000 -8.372317e-001 2.963437e-001 -1.686749e+000 -9.770869e-001 8.365995e-001 -3.422681e-001 2.061109e+000 8.394837e-001 -4.280905e-001 -3.760334e-001 6.072707e-001 1.120267e+000
<VARIANCE> 25
 1.220833e+001 3.294373e+001 2.612125e+001 3.574270e+001 3.253219e+001 3.984883e+001 3.313432e+001 4.979593e+001 4.013765e+001 3.450450e+001 3.235054e+001 2.320901e+001 1.278507e+000 2.226770e+000 4.637033e+000 3.593533e+000 4.586936e+000 3.704658e+000 3.624574e+000 4.848177e+000 4.819066e+000 3.702971e+000 3.452286e+000 2.969886e+000 1.620388e+000
<GCONST> 1.024639e+002
<TRANSP> 5
 0.000000e+000 1.000000e+000 0.000000e+000 0.000000e+000 0.000000e+000
 0.000000e+000 6.087682e-001 3.912319e-001 0.000000e+000 0.000000e+000
 0.000000e+000 0.000000e+000 4.796370e-001 5.203630e-001 0.000000e+000
 0.000000e+000 0.000000e+000 0.000000e+000 4.904242e-001 5.095758e-001
 0.000000e+000 0.000000e+000 0.000000e+000 0.000000e+000 0.000000e+000
<ENDHMM>
~h "n"
<BEGINHMM>
<NUMSTATES> 5
<STATE> 2
<MEAN> 25
 5.626761e+000 1.249229e+000 2.380796e+000 4.319805e+000 2.169251e-001 -2.435826e+000 1.426170e+000 -5.340315e+000 -1.714607e+000 5.431913e-001 -4.887906e+000 -5.969366e-001 4.432017e-001 2.525460e-001 4.156234e-001 5.211747e-001 1.071224e-001 -2.932852e-001 2.608651e-002 -9.589712e-001 -4.011867e-001 1.837447e-001 -6.604785e-001 1.366564e-001 2.363999e-001
<VARIANCE> 25
 1.279863e+001 1.888934e+001 1.756330e+001 2.229408e+001 2.892490e+001 3.405034e+001 3.193839e+001 4.810089e+001 3.741051e+001 3.802823e+001 3.418510e+001 2.957830e+001 1.333900e+000 2.862820e+000 2.409408e+000 2.268348e+000 2.723354e+000 3.768171e+000 3.150461e+000 4.567797e+000 3.490739e+000 2.915987e+000 2.949072e+000 2.403939e+000 2.944335e+000
<GCONST> 9.920594e+001
<STATE> 3
<MEAN> 25
 6.026924e+000 3.004159e-001 2.513957e+000 4.304904e+000 8.344672e-001 -1.639904e+000 7.196760e-001 -5.677869e+000 -1.778832e+000 6.322889e-001 -5.436991e+000 -2.402867e-001 -2.713328e-001 -1.049014e+000 -5.563112e-001 -8.671827e-001 4.153645e-001 1.096863e+000 -6.145753e-001 9.993407e-001 2.327867e-001 -4.458804e-001 1.337481e-001 4.878463e-002 1.111876e+000
<VARIANCE> 25
 8.370935e+000 2.209879e+001 1.895430e+001 2.409657e+001 2.957575e+001 3.705079e+001 3.360539e+001 5.058364e+001 3.789909e+001 4.005107e+001 3.350388e+001 2.974404e+001 8.131121e-001 2.956689e+000 2.588755e+000 2.393988e+000 2.486632e+000 3.777112e+000 3.154611e+000 4.560343e+000 3.566803e+000 2.928288e+000 2.489414e+000 2.289253e+000 1.905370e+000
<GCONST> 9.829676e+001
<STATE> 4
<MEAN> 25
 4.757216e+000 -2.838624e+000 3.828108e-001 9.493790e-001 1.948206e+000 1.681477e+000 -1.064466e+000 -1.431280e+000 -7.701636e-001 -1.355916e+000 -4.436314e+000 -4.548911e-001 -6.148818e-001 -1.028583e+000 -1.032188e+000 -1.503712e+000 2.648813e-001 1.367318e+000 -2.503908e-001 1.702753e+000 1.602234e-001 -6.317818e-001 6.696997e-001 -1.035023e-001 1.178692e+000
<VARIANCE> 25
 1.093344e+001 3.170263e+001 2.784598e+001 2.704941e+001 3.117714e+001 4.447785e+001 4.000548e+001 5.454255e+001 3.707510e+001 3.969512e+001 3.150149e+001 2.730960e+001 1.019250e+000 3.069362e+000 2.871255e+000 2.698341e+000 3.283268e+000 4.030449e+000 3.662926e+000 4.316717e+000 4.092690e+000 3.430370e+000 2.777621e+000 2.524217e+000 1.591058e+000
<GCONST> 1.009788e+002
<TRANSP> 5
 0.000000e+000 1.000000e+000 0.000000e+000 0.000000e+000 0.000000e+000
 0.000000e+000 4.602365e-001 5.397635e-001 0.000000e+000 0.000000e+000
 0.000000e+000 0.000000e+000 3.898995e-001 6.101005e-001 0.000000e+000
 0.000000e+000 0.000000e+000 0.000000e+000 4.194176e-001 5.805824e-001
 0.000000e+000 0.000000e+000 0.000000e+000 0.000000e+000 0.000000e+000
<ENDHMM>
~h "o"
<BEGINHMM>
<NUMSTATES> 5
<STATE> 2
<MEAN> 25
 6.023981e+000 -1.954311e+000 -7.183161e+000 -9.241762e+000 1.299683e-001 8.213893e+000 -2.561291e+000 -2.156149e+000 -1.683429e+000 1.459162e+000 3.110160e+000 -1.004804e+000 6.336241e-001 3.048305e-001 -3.355088e-001 -1.346484e+000 -4.817640e-002 1.069268e+000 2.162715e-001 -1.528798e-001 -4.316275e-001 2.281813e-001 7.456320e-001 -3.111280e-003 3.121058e-001
<VARIANCE> 25
 1.012520e+001 2.028542e+001 1.850396e+001 4.584560e+001 4.094756e+001 4.186035e+001 4.534863e+001 3.415432e+001 4.041405e+001 4.605810e+001 3.999897e+001 2.663027e+001 1.390763e+000 1.519857e+000 1.978808e+000 3.521554e+000 2.745457e+000 3.004293e+000 2.993516e+000 3.257540e+000 3.195389e+000 3.124689e+000 2.720166e+000 2.148322e+000 1.680961e+000
<GCONST> 9.897007e+001
<STATE> 3
<MEAN> 25
 6.697184e+000 -8.166474e-001 -6.808537e+000 -1.037448e+001 5.842130e-001 9.291793e+000 -1.567016e+000 -2.831698e+000 -2.569460e+000 1.891078e+000 4.404266e+000 -4.831037e-001 1.239223e-002 6.145197e-001 5.493300e-001 7.905560e-001 3.908189e-001 -5.096205e-001 6.533344e-002 -2.555556e-001 5.772961e-002 2.185129e-001 -2.588750e-002 -7.923423e-002 -6.513367e-001
<VARIANCE> 25
 7.697477e+000 1.874888e+001 1.771018e+001 4.434490e+001 3.952627e+001 3.893003e+001 4.558829e+001 3.342974e+001 3.817888e+001 4.718796e+001 4.130381e+001 2.845147e+001 6.305304e-001 1.723465e+000 1.219399e+000 2.711148e+000 2.235183e+000 2.472083e+000 3.015029e+000 2.566019e+000 3.034300e+000 2.864659e+000 2.429915e+000 2.018795e+000 1.369370e+000
<GCONST> 9.591985e+001
<STATE> 4
<MEAN> 25
 5.633097e+000 1.625579e+000 -3.856991e+000 -4.537006e+000 2.473537e+000 5.111894e+000 -1.847489e+000 -2.720513e+000 -3.496226e-001 2.650040e+000 2.419335e+000 -1.433888e+000 -7.720429e-001 1.033534e+000 1.291142e+000 1.957102e+000 2.459873e-001 -1.467873e+000 6.534802e-001 4.476251e-001 6.231646e-001 -4.950658e-001 -7.877928e-001 -2.627610e-002 -1.353635e+000
<VARIANCE> 25
 1.296706e+001 2.737675e+001 2.012229e+001 3.961740e+001 3.513124e+001 3.840256e+001 5.102473e+001 3.877942e+001 4.361245e+001 4.227229e+001 4.074200e+001 2.872262e+001 1.999285e+000 2.692008e+000 1.840084e+000 3.036509e+000 3.163107e+000 3.392168e+000 3.794645e+000 4.127178e+000 3.970559e+000 3.466220e+000 3.428504e+000 2.455504e+000 1.847955e+000
<GCONST> 1.017763e+002
<TRANSP> 5
 0.000000e+000 1.000000e+000 0.000000e+000 0.000000e+000 0.000000e+000
 0.000000e+000 6.115077e-001 3.884923e-001 0.000000e+000 0.000000e+000
 0.000000e+000 0.000000e+000 5.964493e-001 4.035507e-001 0.000000e+000
 0.000000e+000 0.000000e+000 0.000000e+000 5.739768e-001 4.260232e-001
 0.000000e+000 0.000000e+000 0.000000e+000 0.000000e+000 0.000000e+000
<ENDHMM>
~h "p"
<BEGINHMM>
<NUMSTATES> 5
<STATE> 2
<MEAN> 25
 -4.934554e-001 3.884853e+000 3.330699e-001 1.434317e+000 2.203531e+000 1.040576e+000 1.991758e+000 2.256856e+000 3.613238e+000 -8.697545e-001 3.130789e-001 -9.585096e-001 -1.375626e+000 -1.797249e+000 -7.455329e-001 -7.042415e-002 -2.173031e-001 1.062595e-001 -8.167387e-001 -1.431715e-001 -1.367984e-001 -2.424492e-002 4.912107e-001 3.802458e-001 1.291300e+000
<VARIANCE> 25
 2.085531e+001 2.304129e+001 1.778609e+001 1.935507e+001 2.046538e+001 2.556575e+001 2.474524e+001 2.860712e+001 2.595054e+001 2.362326e+001 3.059849e+001 2.225896e+001 2.095233e+000 3.483911e+000 2.540057e+000 2.334638e+000 2.478830e+000 3.036422e+000 3.247338e+000 2.943861e+000 2.835768e+000 2.487599e+000 2.700276e+000 2.156981e+000 4.897452e+000
<GCONST> 9.707589e+001
<STATE> 3
<MEAN> 25
 -4.208943e+000 -3.039121e+000 -2.910832e+000 9.290836e-001 1.149510e+000 1.194050e+000 -1.505867e+000 1.132340e+000 2.510327e+000 -7.571462e-001 1.819412e+000 1.183915e-001 3.236592e-001 -2.291814e+000 -1.480458e+000 -1.243142e+000 -1.046847e+000 -3.116727e-002 -1.507059e+000 -7.224156e-001 -1.063113e+000 2.434744e-001 6.269067e-001 3.590088e-001 3.573321e+000
<VARIANCE> 25
 1.691262e+001 2.846150e+001 2.406421e+001 2.217860e+001 2.518048e+001 3.049847e+001 3.234954e+001 3.276706e+001 2.551925e+001 2.359648e+001 3.103033e+001 2.069439e+001 3.530656e+000 3.206324e+000 3.472657e+000 4.956863e+000 3.680020e+000 5.228397e+000 3.801065e+000 3.993521e+000 3.707853e+000 3.485867e+000 3.943771e+000 2.758898e+000 3.501718e+000
<GCONST> 1.020272e+002
<STATE> 4
<MEAN> 25
 1.503694e-001 -3.928236e+000 -5.062280e+000 -2.621957e+000 -1.400472e+000 8.839136e-001 -3.161716e+000 -4.074734e-001 -2.236737e-001 -1.333430e-001 2.350392e+000 1.278136e-001 2.239983e+000 -3.071041e-001 -3.682635e-001 -1.705894e+000 -1.269922e+000 2.432150e-001 -4.168972e-001 -6.083221e-001 -1.111291e+000 4.120107e-001 6.818930e-002 3.890230e-002 2.567020e+000
<VARIANCE> 25
 2.449401e+001 2.387989e+001 3.171802e+001 4.309486e+001 3.168429e+001 4.004691e+001 3.290132e+001 3.395674e+001 2.935577e+001 2.608628e+001 2.801077e+001 2.144499e+001 2.897469e+000 3.902243e+000 4.108624e+000 8.263761e+000 4.034770e+000 6.023396e+000 4.374473e+000 4.526505e+000 4.210073e+000 3.864671e+000 4.980916e+000 2.741699e+000 3.337349e+000
<GCONST> 1.054776e+002
<TRANSP> 5
 0.000000e+000 1.000000e+000 0.000000e+000 0.000000e+000 0.000000e+000
 0.000000e+000 5.736224e-001 4.263776e-001 0.000000e+000 0.000000e+000
 0.000000e+000 0.000000e+000 3.285263e-001 6.714737e-001 0.000000e+000
 0.000000e+000 0.000000e+000 0.000000e+000 3.466502e-001 6.533498e-001
 0.000000e+000 0.000000e+000 0.000000e+000 0.000000e+000 0.000000e+000
<ENDHMM>
~h "r"
<BEGINHMM>
<NUMSTATES> 5
<STATE> 2
<MEAN> 25
 2.544803e+000 -4.551409e+000 -4.689769e-001 1.793430e+000 -3.271497e+000 -2.892028e+000 -4.833384e+000 1.059847e+000 4.296006e+000 8.511443e-001 -2.611728e-001 1.062941e-001 9.511081e-001 -8.967226e-001 8.672350e-001 5.710115e-001 -9.529969e-001 1.138276e-001 -5.516658e-001 4.143035e-001 3.922242e-001 -1.399206e-002 -2.558991e-001 1.257615e-001 2.375489e-001
<VARIANCE> 25
 1.331466e+001 1.917960e+001 3.036008e+001 2.495894e+001 2.901773e+001 4.258559e+001 3.387510e+001 3.860492e+001 3.146097e+001 3.270185e+001 2.814914e+001 2.481008e+001 2.185143e+000 2.311680e+000 3.682579e+000 3.397555e+000 3.265332e+000 4.668670e+000 3.716639e+000 4.334308e+000 3.386270e+000 3.624462e+000 3.517160e+000 2.615338e+000 1.917668e+000
<GCONST> 1.009280e+002
<STATE> 3
<MEAN> 25
 3.778654e+000 -6.453483e+000 6.068493e-001 2.384559e+000 -4.638767e+000 -2.230651e+000 -4.929860e+000 2.119711e+000 4.280471e+000 8.646765e-001 -6.131800e-001 5.405216e-001 5.180424e-001 -7.651350e-001 1.021420e-001 -1.859839e-001 -3.487704e-001 8.242499e-002 2.966005e-001 4.684375e-001 -4.431515e-001 8.519884e-002 -1.676129e-001 3.710884e-002 2.595705e-001
<VARIANCE> 25
 1.116296e+001 2.271895e+001 3.141619e+001 2.374040e+001 3.090612e+001 3.830100e+001 3.323553e+001 4.187194e+001 3.355659e+001 3.285133e+001 2.923994e+001 2.476475e+001 1.360991e+000 1.991048e+000 3.275930e+000 2.646340e+000 2.861174e+000 3.801749e+000 3.245226e+000 4.128032e+000 3.079653e+000 3.244159e+000 3.187587e+000 2.268813e+000 1.429532e+000
<GCONST> 9.877795e+001
<STATE> 4
<MEAN> 25
 4.304672e+000 -7.124159e+000 2.783218e-002 1.258296e+000 -4.335321e+000 -2.242815e+000 -3.333698e+000 2.913797e+000 2.663383e+000 1.009787e+000 -9.081795e-001 2.295699e-001 1.660876e-001 8.614864e-002 -1.371206e-001 -5.458046e-001 4.380571e-001 8.583195e-002 8.262801e-001 -6.403744e-003 -9.262308e-001 8.651167e-002 -7.819001e-002 -1.593073e-001 4.971794e-002
<VARIANCE> 25
 1.299353e+001 2.531107e+001 3.558397e+001 2.436567e+001 3.113385e+001 4.087500e+001 3.741950e+001 4.728221e+001 3.851779e+001 3.496474e+001 3.756874e+001 2.760541e+001 1.259826e+000 2.160646e+000 2.261133e+000 2.279613e+000 3.176361e+000 3.380051e+000 2.923971e+000 3.864034e+000 3.005373e+000 2.947204e+000 3.097557e+000 2.028315e+000 1.280214e+000
<GCONST> 9.899011e+001
<TRANSP> 5
 0.000000e+000 1.000000e+000 0.000000e+000 0.000000e+000 0.000000e+000
 0.000000e+000 4.128622e-001 5.871378e-001 0.000000e+000 0.000000e+000
 0.000000e+000 0.000000e+000 3.543125e-001 6.456875e-001 0.000000e+000
 0.000000e+000 0.000000e+000 0.000000e+000 3.654462e-001 6.345538e-001
 0.000000e+000 0.000000e+000 0.000000e+000 0.000000e+000 0.000000e+000
<ENDHMM>
~h "s"
<BEGINHMM>
<NUMSTATES> 5
<STATE> 2
<MEAN> 25
 -1.088269e+001 1.002137e+001 -8.295689e-001 4.202880e+000 5.746833e+000 -2.188129e+000 2.429672e+000 2.909322e+000 1.641247e+000 -1.338655e+000 6.825956e-001 1.157552e+000 -3.504019e+000 1.663256e+000 -1.474642e+000 7.469175e-001 1.235257e+000 5.195280e-001 6.803638e-001 9.048972e-001 6.769059e-001 -4.058410e-001 6.067128e-001 4.071774e-002 -8.850645e-002
<VARIANCE> 25
 3.392739e+001 2.670248e+001 2.847667e+001 2.905437e+001 3.855845e+001 4.038099e+001 4.539286e+001 3.553222e+001 3.121194e+001 3.208403e+001 3.822116e+001 2.876762e+001 3.147963e+000 3.798826e+000 2.775208e+000 2.641491e+000 3.435617e+000 4.168567e+000 4.091300e+000 3.771850e+000 2.850254e+000 2.955046e+000 3.630982e+000 3.034161e+000 1.183328e+000
<GCONST> 1.026927e+002
<STATE> 3
<MEAN> 25
 -1.633308e+001 9.326086e+000 -6.716453e+000 5.255426e+000 5.590600e+000 2.632878e-001 2.397994e+000 2.927283e+000 2.492063e+000 -1.794374e+000 1.942466e+000 1.276308e+000 -5.642071e-002 -9.718686e-001 -4.587797e-001 -4.871478e-002 -2.946502e-001 1.480509e-001 -9.797677e-002 -1.802157e-001 2.714754e-002 7.922447e-002 4.025429e-002 3.001522e-003 -7.122577e-001
<VARIANCE> 25
 1.123469e+001 2.328283e+001 1.904719e+001 2.837596e+001 2.833404e+001 3.461754e+001 3.306282e+001 2.848023e+001 2.696368e+001 2.458353e+001 3.891781e+001 2.715200e+001 1.580815e+000 1.787252e+000 1.913556e+000 1.462608e+000 2.003377e+000 2.212515e+000 2.472362e+000 2.227754e+000 2.094653e+000 2.080714e+000 1.910544e+000 1.665402e+000 9.574438e-001
<GCONST> 9.285062e+001
<STATE> 4
<MEAN> 25
 -1.176791e+001 3.203750e+000 -5.531025e+000 3.175198e+000 2.398373e+000 -2.098390e+000 1.871090e+000 1.122203e+000 2.042220e+000 -4.507548e-001 1.411849e+000 1.646692e+000 2.915160e+000 -1.357221e+000 8.817325e-001 -7.972500e-001 -1.311444e+000 -8.507309e-001 -8.261115e-001 -1.068663e+000 -4.522558e-001 4.219051e-001 -3.154142e-001 -1.101428e-001 1.178338e-001
<VARIANCE> 25
 3.699310e+001 3.064442e+001 2.799968e+001 2.929552e+001 4.236182e+001 4.806948e+001 4.827043e+001 3.684277e+001 2.993127e+001 2.553568e+001 3.713113e+001 2.574923e+001 4.434333e+000 2.791910e+000 2.616368e+000 2.588486e+000 3.295302e+000 4.352788e+000 4.275445e+000 4.023710e+000 2.968194e+000 2.639392e+000 3.610191e+000 2.725638e+000 2.740596e+000
<GCONST> 1.035845e+002
<TRANSP> 5
 0.000000e+000 1.000000e+000 0.000000e+000 0.000000e+000 0.000000e+000
 0.000000e+000 6.788775e-001 3.211225e-001 0.000000e+000 0.000000e+000
 0.000000e+000 0.000000e+000 7.788693e-001 2.211307e-001 0.000000e+000
 0.000000e+000 0.000000e+000 0.000000e+000 6.536468e-001 3.463532e-001
 0.000000e+000 0.000000e+000 0.000000e+000 0.000000e+000 0.000000e+000
<ENDHMM>
~h "t"
<BEGINHMM>
<NUMSTATES> 5
<STATE> 2
<MEAN> 25
 -2.636079e+000 5.323724e+000 1.708811e+000 2.594402e+000 2.068646e+000 -7.022362e-001 1.599277e+000 1.955797e+000 3.354097e+000 -6.518438e-001 8.082801e-001 3.325518e-001 -1.321875e+000 -1.498818e+000 -5.972337e-001 -7.167851e-001 3.173301e-001 3.111747e-001 5.014636e-002 -6.625697e-003 -8.551431e-002 -2.231855e-001 4.582149e-001 2.840096e-001 5.399655e-001
<VARIANCE> 25
 3.343797e+001 2.270866e+001 2.637370e+001 2.248119e+001 2.676917e+001 3.374964e+001 2.913383e+001 3.054243e+001 2.882735e+001 2.613252e+001 3.264548e+001 2.199149e+001 3.808746e+000 3.833025e+000 2.747841e+000 2.606951e+000 2.900676e+000 3.430535e+000 3.405567e+000 3.158718e+000 2.860777e+000 2.589114e+000 2.869192e+000 2.397464e+000 5.473161e+000
<GCONST> 1.007164e+002
<STATE> 3
<MEAN> 25
 -7.002765e+000 -1.726895e-001 -7.161373e-001 1.418782e-001 2.812943e+000 -9.556925e-002 1.455011e+000 1.616415e+000 2.314428e+000 -1.307288e+000 2.035514e+000 1.467242e+000 -1.038437e+000 -2.040482e+000 -1.157604e+000 -1.027090e+000 -5.282984e-001 -6.806192e-001 -5.340626e-001 -3.989517e-001 -5.084507e-001 -3.836634e-002 2.966141e-001 5.026863e-001 2.514461e+000
<VARIANCE> 25
 2.611676e+001 3.689883e+001 2.981927e+001 2.500529e+001 2.802627e+001 3.381273e+001 3.223343e+001 3.035596e+001 2.661895e+001 2.412142e+001 3.774371e+001 2.321914e+001 5.360247e+000 3.179530e+000 3.332871e+000 2.845850e+000 3.653916e+000 4.506751e+000 4.264534e+000 3.821602e+000 3.353823e+000 3.049293e+000 3.733517e+000 2.969436e+000 4.479458e+000
<GCONST> 1.033205e+002
<STATE> 4
<MEAN> 25
 -6.171214e+000 -2.077540e+000 -2.758860e+000 -1.177125e+000 -1.716730e-001 -3.550650e+000 -2.462865e-001 8.174617e-001 1.697478e+000 -8.696890e-001 1.321173e+000 2.079626e+000 1.691727e+000 -4.071255e-001 8.301616e-002 -2.098370e-001 -1.258968e+000 -9.555038e-001 -1.043500e+000 -6.547461e-001 -5.456010e-001 6.000679e-001 -5.115848e-001 -3.287781e-001 1.716491e+000
<VARIANCE> 25
 2.757640e+001 2.760360e+001 2.594685e+001 2.412251e+001 3.196387e+001 4.067838e+001 4.512411e+001 3.239191e+001 2.802844e+001 2.605331e+001 4.020583e+001 2.572618e+001 5.258172e+000 3.511785e+000 4.844172e+000 2.983546e+000 4.284197e+000 5.368841e+000 4.499050e+000 5.041264e+000 4.357919e+000 3.577666e+000 5.418267e+000 3.519912e+000 3.648521e+000
<GCONST> 1.058466e+002
<TRANSP> 5
 0.000000e+000 1.000000e+000 0.000000e+000 0.000000e+000 0.000000e+000
 0.000000e+000 4.613211e-001 5.386789e-001 0.000000e+000 0.000000e+000
 0.000000e+000 0.000000e+000 3.750539e-001 6.249461e-001 0.000000e+000
 0.000000e+000 0.000000e+000 0.000000e+000 4.840835e-001 5.159165e-001
 0.000000e+000 0.000000e+000 0.000000e+000 0.000000e+000 0.000000e+000
<ENDHMM>
~h "u"
<BEGINHMM>
<NUMSTATES> 5
<STATE> 2
<MEAN> 25
 5.955185e+000 2.874016e+000 -4.640480e+000 -5.832373e+000 -1.391592e+000 4.198506e+000 -5.450135e+000 -4.795744e+000 -3.940969e+000 9.455356e-001 3.641268e+000 2.054417e-001 1.322888e+000 1.259313e+000 -5.894430e-001 -2.009908e+000 -5.399112e-001 1.264053e+000 3.923094e-001 -6.164918e-001 -1.327226e+000 -2.940772e-001 5.845520e-001 3.810701e-001 6.638866e-002
<VARIANCE> 25
 1.398031e+001 2.914334e+001 2.219071e+001 5.151593e+001 3.839815e+001 4.761105e+001 5.580651e+001 4.790859e+001 4.198678e+001 4.935949e+001 3.815638e+001 2.678738e+001 2.634710e+000 2.012245e+000 2.556109e+000 3.759202e+000 4.064948e+000 4.581240e+000 4.952490e+000 5.781652e+000 4.214252e+000 4.237543e+000 3.610002e+000 2.748228e+000 2.275659e+000
<GCONST> 1.051758e+002
<STATE> 3
<MEAN> 25
 7.933904e+000 5.845199e+000 -4.425681e+000 -9.469592e+000 -3.160717e+000 6.183181e+000 -2.179305e+000 -3.381810e+000 -5.741412e+000 -1.471470e+000 3.161461e+000 1.172116e+000 -2.304137e-002 3.292641e-001 3.486360e-001 4.559194e-001 2.523396e-001 -1.508625e-001 2.491134e-001 5.478508e-002 2.986897e-001 -6.467853e-002 -1.647703e-001 -9.480007e-002 -4.209362e-001
<VARIANCE> 25
 7.378411e+000 2.425360e+001 2.128643e+001 3.880714e+001 3.674668e+001 3.955752e+001 4.261340e+001 4.657647e+001 4.132769e+001 4.857479e+001 3.829193e+001 2.888817e+001 7.132619e-001 2.179280e+000 1.431006e+000 3.262254e+000 2.699847e+000 2.973990e+000 3.951716e+000 4.305943e+000 3.213573e+000 3.517081e+000 3.138191e+000 2.376433e+000 1.536368e+000
<GCONST> 9.910191e+001
<STATE> 4
<MEAN> 25
 5.994256e+000 5.417816e+000 -1.841269e+000 -3.267932e+000 -5.888468e-002 3.409465e+000 -2.657360e+000 -3.751216e+000 -1.896839e+000 -5.390435e-002 2.195319e+000 1.100164e-001 -1.049905e+000 -1.087075e-001 1.064819e+000 1.871983e+000 7.268346e-001 -1.166815e+000 3.470528e-001 6.063719e-001 1.099160e+000 2.241793e-002 -6.620000e-001 -3.185380e-001 -6.962538e-001
<VARIANCE> 25
 1.327060e+001 2.867728e+001 2.511886e+001 3.798042e+001 4.069641e+001 3.958816e+001 5.938594e+001 5.329646e+001 3.980779e+001 4.392381e+001 3.688422e+001 2.736858e+001 1.824709e+000 2.779744e+000 2.054890e+000 3.200721e+000 3.492732e+000 3.606586e+000 4.315754e+000 5.124708e+000 4.019417e+000 3.834058e+000 3.381638e+000 2.574197e+000 2.059961e+000
<GCONST> 1.033364e+002
<TRANSP> 5
 0.000000e+000 1.000000e+000 0.000000e+000 0.000000e+000 0.000000e+000
 0.000000e+000 6.109802e-001 3.890198e-001 0.000000e+000 0.000000e+000
 0.000000e+000 0.000000e+000 6.672049e-001 3.327951e-001 0.000000e+000
 0.000000e+000 0.000000e+000 0.000000e+000 6.425912e-001 3.574088e-001
 0.000000e+000 0.000000e+000 0.000000e+000 0.000000e+000 0.000000e+000
<ENDHMM>
~h "v"
<BEGINHMM>
<NUMSTATES> 5
<STATE> 2
<MEAN> 25
 3.893466e+000 2.929275e-001 -1.302119e+000 8.068503e-001 2.202222e+000 1.185917e+000 -3.484497e+000 -2.358506e+000 -1.008952e+000 1.860551e+000 1.945639e+000 -1.781065e+000 5.992626e-001 -3.996094e-001 -3.769923e-001 -2.046262e-001 -2.752169e-002 -6.111044e-002 -5.214775e-001 -2.113739e-001 -1.697991e-001 3.314045e-001 5.005166e-003 -4.323599e-001 7.637707e-001
<VARIANCE> 25
 2.466010e+001 2.646319e+001 2.548201e+001 3.302775e+001 2.413375e+001 3.959099e+001 3.335823e+001 3.105859e+001 3.014864e+001 2.949792e+001 2.957800e+001 2.297235e+001 2.642546e+000 4.234922e+000 3.027620e+000 4.368047e+000 2.838157e+000 4.083677e+000 3.402872e+000 4.055953e+000 3.560539e+000 3.332600e+000 3.200794e+000 2.636501e+000 4.494995e+000
<GCONST> 1.024620e+002
<STATE> 3
<MEAN> 25
 4.755648e+000 -1.268725e+000 -1.931816e+000 3.328750e-002 1.542739e+000 5.811248e-001 -3.903256e+000 -1.604916e+000 -7.118810e-001 2.297359e+000 1.574181e+000 -2.342868e+000 -1.781500e-002 -1.045986e+000 -2.185927e-001 -5.329369e-001 -7.223408e-001 -4.708166e-001 1.917331e-001 7.202002e-001 1.271449e-001 3.212310e-002 -4.107982e-001 -3.900994e-002 1.386491e+000
<VARIANCE> 25
 1.773487e+001 2.795262e+001 3.162149e+001 3.955573e+001 2.410699e+001 4.104055e+001 3.312536e+001 3.041140e+001 3.085324e+001 3.144813e+001 3.184932e+001 2.371589e+001 1.785199e+000 3.152598e+000 3.001299e+000 3.510489e+000 2.721725e+000 3.783377e+000 2.960465e+000 3.721758e+000 3.573890e+000 2.980875e+000 2.911830e+000 2.721380e+000 2.898999e+000
<GCONST> 1.009156e+002
<STATE> 4
<MEAN> 25
 3.897273e+000 -3.118792e+000 -1.974065e+000 -4.912328e-001 1.697507e-001 -5.422178e-001 -2.713188e+000 4.322008e-001 -1.556779e-001 1.777293e+000 6.279131e-001 -1.885143e+000 -2.632858e-001 -8.866804e-001 2.250202e-001 -4.266452e-001 -1.030480e+000 -4.796247e-001 6.076869e-001 6.663283e-001 -3.463953e-002 -1.616694e-001 -4.958525e-001 2.836706e-001 1.261458e+000
<VARIANCE> 25
 1.812915e+001 2.907777e+001 3.946227e+001 4.172955e+001 2.917884e+001 5.021873e+001 3.622720e+001 3.386542e+001 3.330486e+001 3.244221e+001 3.398484e+001 2.664593e+001 1.370030e+000 2.054018e+000 2.824244e+000 2.817649e+000 3.319816e+000 3.295570e+000 2.764597e+000 3.386031e+000 4.029174e+000 2.897383e+000 3.114931e+000 2.533087e+000 1.780241e+000
<GCONST> 1.006543e+002
<TRANSP> 5
 0.000000e+000 1.000000e+000 0.000000e+000 0.000000e+000 0.000000e+000
 0.000000e+000 3.165254e-001 6.834746e-001 0.000000e+000 0.000000e+000
 0.000000e+000 0.000000e+000 2.167510e-001 7.832490e-001 0.000000e+000
 0.000000e+000 0.000000e+000 0.000000e+000 2.369072e-001 7.630928e-001
 0.000000e+000 0.000000e+000 0.000000e+000 0.000000e+000 0.000000e+000
<ENDHMM>
~h "z"
<BEGINHMM>
<NUMSTATES> 5
<STATE> 2
<MEAN> 25
 -5.459477e+000 1.209047e+001 -3.018420e+000 2.567764e+000 5.799270e+000 -4.850753e+000 -3.030323e+000 -2.665628e+000 1.745039e+000 1.741349e+000 -4.491622e-001 2.925220e-001 -3.050908e+000 3.019774e+000 -3.768250e-001 1.412369e+000 7.898993e-001 -1.149506e-001 1.044307e+000 8.312606e-001 6.020542e-001 -1.029651e+000 2.558371e-001 1.984673e-001 -3.979306e-001
<VARIANCE> 25
 3.265808e+001 3.796568e+001 2.113061e+001 3.672389e+001 3.912827e+001 3.427605e+001 3.862790e+001 3.387616e+001 3.367441e+001 3.939455e+001 2.957801e+001 2.424244e+001 1.902952e+000 4.383570e+000 1.821955e+000 2.468020e+000 3.293191e+000 4.668341e+000 3.263294e+000 3.671582e+000 2.891513e+000 2.936916e+000 3.991794e+000 3.034014e+000 7.382031e-001
<GCONST> 1.010377e+002
<STATE> 3
<MEAN> 25
 -1.219238e+001 1.454875e+001 -3.741718e+000 5.993141e+000 5.874484e+000 -2.258344e+000 1.875652e-001 7.823981e-001 2.691577e+000 -1.278267e+000 9.734053e-001 9.118555e-001 7.124820e-002 -1.291544e+000 -1.361360e-001 -1.194109e-001 -2.088184e-001 5.856428e-002 -3.602870e-002 -3.005598e-002 -1.056847e-002 -2.453583e-002 -4.485316e-003 1.956591e-001 -2.211616e-001
<VARIANCE> 25
 1.539306e+001 2.148571e+001 1.987407e+001 2.981121e+001 3.418009e+001 3.690903e+001 3.478242e+001 3.235018e+001 2.948993e+001 2.780033e+001 3.234941e+001 2.117690e+001 3.574512e+000 2.836990e+000 1.478977e+000 1.690462e+000 2.096069e+000 2.930646e+000 2.413554e+000 2.760084e+000 2.038498e+000 2.132898e+000 2.082258e+000 1.830343e+000 9.869970e-001
<GCONST> 9.527610e+001
<STATE> 4
<MEAN> 25
 -4.488640e+000 5.479611e+000 -4.750561e+000 2.236383e+000 3.042727e+000 -5.689900e+000 -2.656285e+000 -1.863942e+000 3.213938e+000 1.690643e+000 -1.216316e+000 1.277282e+000 3.215963e+000 -3.282284e+000 -1.376114e-001 -1.328575e+000 -1.097454e+000 -5.021732e-001 -5.976174e-001 -1.135166e-001 3.567869e-001 9.648351e-001 -8.641694e-001 -3.053448e-001 1.099202e+000
<VARIANCE> 25
 4.067934e+001 3.775810e+001 1.984890e+001 2.728485e+001 2.780239e+001 3.094703e+001 3.304832e+001 3.458189e+001 2.854508e+001 3.849884e+001 2.735017e+001 2.491877e+001 2.338673e+000 2.796225e+000 1.760222e+000 2.343494e+000 2.551522e+000 4.194335e+000 3.547315e+000 4.033204e+000 2.824643e+000 2.701658e+000 4.204185e+000 3.293504e+000 1.352024e+000
<GCONST> 1.001915e+002
<TRANSP> 5
 0.000000e+000 1.000000e+000 0.000000e+000 0.000000e+000 0.000000e+000
 0.000000e+000 7.037432e-001 2.962568e-001 0.000000e+000 0.000000e+000
 0.000000e+000 0.000000e+000 6.599481e-001 3.400520e-001 0.000000e+000
 0.000000e+000 0.000000e+000 0.000000e+000 6.891532e-001 3.108468e-001
 0.000000e+000 0.000000e+000 0.000000e+000 0.000000e+000 0.000000e+000
<ENDHMM>
~h "Cc"
<BEGINHMM>
<NUMSTATES> 5
<STATE> 2
<MEAN> 25
 -1.091900e+001 7.486934e+000 6.222764e+000 -1.383232e+000 5.767860e-001 5.795990e+000 -4.170596e+000 3.721032e+000 2.423985e+000 -2.301169e+000 2.314549e+000 1.646772e-001 -3.740004e+000 -3.087650e-001 8.156328e-002 -6.257876e-001 -3.948093e-001 1.437108e+000 1.467315e-001 1.985587e-001 2.361359e-001 -9.165062e-001 8.768960e-001 -3.700063e-002 1.006627e+000
<VARIANCE> 25
 5.884553e+001 3.154753e+001 2.782221e+001 2.517423e+001 3.518486e+001 5.318343e+001 3.335876e+001 4.603932e+001 3.192374e+001 3.239292e+001 4.178313e+001 2.849643e+001 3.434813e+000 3.858830e+000 2.950323e+000 2.169840e+000 3.506169e+000 3.959677e+000 3.960284e+000 4.235127e+000 3.132450e+000 2.929500e+000 3.004800e+000 2.324851e+000 3.238817e+000
<GCONST> 1.041468e+002
<STATE> 3
<MEAN> 25
 -1.987297e+001 2.199848e+000 5.272613e+000 -9.178471e-001 -2.567236e+000 6.413864e+000 -2.153339e-001 2.867791e+000 2.619789e+000 -5.468503e+000 4.898279e+000 1.524046e+000 2.066786e-001 -1.814213e+000 -3.751475e-001 6.341307e-001 -9.715313e-001 -1.506896e+000 1.181908e+000 1.833108e-001 -2.408610e-001 -3.608363e-001 4.276083e-001 3.628190e-001 2.428728e-001
<VARIANCE> 25
 1.014399e+001 2.363170e+001 2.501325e+001 2.692577e+001 3.594783e+001 3.460178e+001 3.111272e+001 3.879934e+001 3.487303e+001 2.919186e+001 5.564376e+001 2.664026e+001 4.992631e+000 1.654427e+000 1.904400e+000 1.668444e+000 2.419790e+000 3.364307e+000 2.830713e+000 2.995227e+000 2.445251e+000 2.251288e+000 2.483591e+000 1.839090e+000 1.078928e+000
<GCONST> 9.719040e+001
<STATE> 4
<MEAN> 25
 -1.102055e+001 -2.255635e+000 4.285349e+000 1.322909e+000 -6.123331e+000 -2.017661e+000 -4.007190e-001 2.111902e+000 9.736863e-001 -5.162371e+000 3.755477e+000 1.877329e+000 4.276207e+000 -5.171152e-001 6.514093e-002 3.998717e-001 -8.830333e-001 -2.304307e+000 -1.134717e+000 -9.427266e-001 -9.387593e-001 7.622278e-001 -7.424030e-001 -8.423923e-002 4.249681e-001
<VARIANCE> 25
 5.811988e+001 1.799142e+001 2.030392e+001 2.402081e+001 2.979669e+001 3.782858e+001 3.546563e+001 3.229542e+001 4.409579e+001 2.652174e+001 3.844467e+001 2.012489e+001 2.965190e+000 2.317598e+000 2.390038e+000 2.009710e+000 3.426888e+000 3.667544e+000 3.309377e+000 3.941695e+000 3.310484e+000 2.758257e+000 4.244408e+000 2.343149e+000 1.477544e+000
<GCONST> 1.003710e+002
<TRANSP> 5
 0.000000e+000 1.000000e+000 0.000000e+000 0.000000e+000 0.000000e+000
 0.000000e+000 7.369034e-001 2.630966e-001 0.000000e+000 0.000000e+000
 0.000000e+000 0.000000e+000 6.691406e-001 3.308593e-001 0.000000e+000
 0.000000e+000 0.000000e+000 0.000000e+000 6.925659e-001 3.074341e-001
 0.000000e+000 0.000000e+000 0.000000e+000 0.000000e+000 0.000000e+000
<ENDHMM>
~h "dz"
<BEGINHMM>
<NUMSTATES> 5
<STATE> 2
<MEAN> 25
 -5.780448e+000 8.214162e+000 1.094618e+001 1.324305e+000 -3.904281e+000 5.994396e+000 -4.908763e+000 3.309224e+000 2.989935e+000 -5.278708e+000 2.209748e+000 1.654959e-001 -3.836438e+000 4.543319e-001 1.999887e-001 6.522959e-001 -2.274511e-001 2.219029e+000 -3.446374e-002 -6.826820e-001 1.495107e+000 -6.584480e-001 7.033865e-001 -5.660058e-001 5.970276e-001
<VARIANCE> 25
 4.870311e+001 2.103669e+001 1.640529e+001 1.873147e+001 3.421732e+001 3.940897e+001 3.214127e+001 3.391492e+001 3.118884e+001 2.274216e+001 3.482969e+001 2.328923e+001 2.728569e+000 4.888652e+000 2.440073e+000 2.265639e+000 2.819543e+000 4.827929e+000 5.278867e+000 3.969822e+000 3.700335e+000 3.209189e+000 3.268542e+000 3.215809e+000 2.603514e+000
<GCONST> 1.018079e+002
<STATE> 3
<MEAN> 25
 -1.430359e+001 3.736718e+000 8.507401e+000 4.705634e+000 -5.710038e+000 6.075366e+000 -2.124689e+000 4.892792e-001 3.418078e+000 -6.788456e+000 5.110746e+000 1.395257e+000 1.340183e+000 -1.916016e+000 -1.755362e+000 1.067496e+000 -4.292247e-001 -2.791826e+000 -5.038486e-001 -8.727307e-001 -2.560614e-001 -6.207694e-001 4.538265e-001 6.996779e-001 7.887716e-001
<VARIANCE> 25
 2.066453e+001 1.965935e+001 2.579376e+001 3.360303e+001 3.084772e+001 4.515942e+001 4.618799e+001 3.732497e+001 3.092639e+001 2.886056e+001 4.508649e+001 2.525397e+001 1.018127e+001 2.109463e+000 1.891093e+000 1.775375e+000 3.501382e+000 4.766974e+000 4.698776e+000 3.001409e+000 3.260116e+000 2.965399e+000 2.924315e+000 2.037469e+000 1.019256e+000
<GCONST> 1.010540e+002
<STATE> 4
<MEAN> 25
 -8.086202e-001 -6.322649e-001 1.957566e+000 5.515110e+000 -4.555586e+000 -2.099261e+000 -9.231766e+000 -4.499798e+000 4.770470e+000 -4.775960e+000 3.458209e+000 1.372569e+000 3.986382e+000 -6.411732e-001 -1.952690e+000 -1.157810e+000 1.125508e+000 -2.237811e-001 -2.019591e+000 -1.985289e+000 -6.903905e-002 2.271807e+000 -2.227236e-001 -5.229059e-001 -9.158657e-002
<VARIANCE> 25
 3.755245e+001 9.940162e+000 1.807480e+001 2.342166e+001 2.435740e+001 2.583266e+001 4.137078e+001 4.286728e+001 3.416729e+001 3.773753e+001 2.643755e+001 2.091276e+001 2.977029e+000 2.023119e+000 2.036613e+000 2.965502e+000 3.110316e+000 6.756508e+000 3.875475e+000 3.554698e+000 3.625208e+000 3.923492e+000 4.388772e+000 2.398420e+000 4.950549e-001
<GCONST> 9.888739e+001
<TRANSP> 5
 0.000000e+000 1.000000e+000 0.000000e+000 0.000000e+000 0.000000e+000
 0.000000e+000 6.936910e-001 3.063090e-001 0.000000e+000 0.000000e+000
 0.000000e+000 0.000000e+000 6.023201e-001 3.976799e-001 0.000000e+000
 0.000000e+000 0.000000e+000 0.000000e+000 6.675318e-001 3.324682e-001
 0.000000e+000 0.000000e+000 0.000000e+000 0.000000e+000 0.000000e+000
<ENDHMM>
~h "sp"
<BEGINHMM>
<NUMSTATES> 3
<STATE> 2
~s "silst"
<TRANSP> 3
 0.000000e+000 7.000000e-001 3.000000e-001
 0.000000e+000 9.000000e-001 9.999999e-002
 0.000000e+000 0.000000e+000 0.000000e+000
<ENDHMM>
~h "uzdah"
<BEGINHMM>
<NUMSTATES> 5
<STATE> 2
<MEAN> 25
 -5.884293e+000 -5.073518e+000 1.258765e+000 1.570285e+000 4.125751e+000 6.999553e-001 3.784748e+000 4.015037e+000 1.729192e+000 -2.318601e+000 1.686379e+000 1.937062e+000 -5.362674e-001 -5.631462e-001 6.507540e-002 -1.882404e-001 -1.371608e-001 -2.836790e-001 -8.132192e-002 7.871898e-002 -7.580201e-002 9.948260e-002 2.952800e-001 1.760783e-001 3.757322e-001
<VARIANCE> 25
 1.259996e+001 1.932637e+001 1.598440e+001 1.362810e+001 1.977781e+001 2.015830e+001 2.305243e+001 2.334579e+001 2.668553e+001 2.365047e+001 3.152594e+001 1.866212e+001 4.396000e-001 7.697261e-001 7.260544e-001 8.764456e-001 1.253258e+000 1.406707e+000 1.508736e+000 1.623947e+000 1.682583e+000 1.637345e+000 1.503941e+000 1.402449e+000 4.285862e-001
<GCONST> 8.276698e+001
<STATE> 3
<MEAN> 25
 -8.783751e+000 -8.927329e+000 1.724175e+000 -4.227186e-001 2.361008e+000 -8.906611e-001 2.862473e+000 4.115489e+000 6.317235e-001 -1.948518e+000 2.389007e+000 2.613261e+000 8.738331e-002 -4.853771e-002 -6.145225e-002 3.261228e-002 1.487296e-002 9.344896e-002 -4.398701e-002 6.160410e-004 -6.268507e-002 -6.967942e-002 -9.333945e-002 2.571623e-002 -8.446645e-002
<VARIANCE> 25
 6.882680e+000 7.930721e+000 1.421810e+001 1.338462e+001 1.785944e+001 1.884994e+001 2.310079e+001 2.040894e+001 2.890837e+001 2.391718e+001 3.101808e+001 1.818600e+001 1.992686e-001 3.014016e-001 5.230612e-001 7.035283e-001 9.502189e-001 1.161732e+000 1.240682e+000 1.352139e+000 1.476487e+000 1.465675e+000 1.345406e+000 1.257998e+000 1.559930e-001
<GCONST> 7.628847e+001
<STATE> 4
<MEAN> 25
 -4.806854e+000 -4.907848e+000 -9.326427e-001 1.676266e+000 4.370236e+000 2.809335e+000 2.907395e+000 3.351033e+000 1.477169e+000 -3.023408e+000 4.474684e-001 2.278269e+000 4.252416e-001 9.712377e-001 -1.551019e-001 2.266216e-001 1.402413e-001 3.338815e-001 7.180607e-002 -2.828320e-001 2.005122e-001 1.170346e-001 -1.341171e-001 -1.841891e-001 -8.373991e-001
<VARIANCE> 25
 9.599697e+000 3.322614e+001 2.067186e+001 1.553303e+001 2.490006e+001 2.519978e+001 2.713610e+001 2.566329e+001 2.977196e+001 2.694142e+001 3.282985e+001 2.261589e+001 7.069690e-001 1.604147e+000 1.577496e+000 1.246915e+000 1.648247e+000 2.084728e+000 2.113931e+000 2.089358e+000 2.396614e+000 2.357472e+000 1.931431e+000 1.860569e+000 8.463045e-001
<GCONST> 9.013460e+001
<TRANSP> 5
 0.000000e+000 1.000000e+000 0.000000e+000 0.000000e+000 0.000000e+000
 0.000000e+000 8.992757e-001 1.007243e-001 0.000000e+000 0.000000e+000
 0.000000e+000 0.000000e+000 9.353838e-001 6.461623e-002 0.000000e+000
 0.000000e+000 0.000000e+000 0.000000e+000 8.386185e-001 1.613815e-001
 0.000000e+000 0.000000e+000 0.000000e+000 0.000000e+000 0.000000e+000
<ENDHMM>
~h "sil"
<BEGINHMM>
<NUMSTATES> 5
<STATE> 2
<MEAN> 25
 -4.659812e+000 -1.588755e+000 -1.154122e-001 1.983642e+000 3.365521e+000 1.679281e+000 3.391148e+000 3.066318e+000 2.184190e+000 -1.434482e+000 9.573510e-001 1.857875e+000 -1.144452e-001 -2.039744e-002 -4.338264e-003 7.522385e-003 1.237456e-002 1.069751e-002 -3.853627e-002 -5.835760e-003 4.687699e-003 4.686703e-002 8.506374e-002 4.818194e-002 -1.394591e-001
<VARIANCE> 25
 1.073080e+001 2.721203e+001 1.450369e+001 1.425095e+001 1.844028e+001 2.225882e+001 2.074308e+001 2.436303e+001 2.611079e+001 2.383206e+001 2.818916e+001 1.984907e+001 3.980972e-001 7.809051e-001 7.210315e-001 8.771953e-001 1.145071e+000 1.411602e+000 1.499549e+000 1.589067e+000 1.605044e+000 1.654863e+000 1.541253e+000 1.402847e+000 4.609390e-001
<GCONST> 8.265349e+001
<STATE> 3
~s "silst"
<STATE> 4
<MEAN> 25
 -4.472360e+000 -4.692673e-001 -6.718264e-001 1.829493e+000 3.395535e+000 1.461497e+000 2.268337e+000 1.512644e+000 1.642130e+000 -1.091770e+000 3.439586e-001 1.057533e+000 6.939639e-001 8.932026e-002 1.727815e-001 -2.905213e-001 -6.244705e-001 -7.323768e-001 -7.731337e-001 -8.001432e-001 -7.511721e-001 6.154555e-002 -3.214684e-001 -2.956936e-001 1.518782e+000
<VARIANCE> 25
 1.772647e+001 3.106031e+001 2.327115e+001 2.121098e+001 2.772496e+001 3.501108e+001 2.947836e+001 3.287244e+001 3.113204e+001 2.676586e+001 3.081387e+001 2.291108e+001 3.101830e+000 3.044162e+000 2.689919e+000 2.827789e+000 3.282008e+000 3.925331e+000 3.687230e+000 4.277876e+000 3.882665e+000 2.967734e+000 3.317622e+000 2.597725e+000 5.311172e+000
<GCONST> 1.013554e+002
<TRANSP> 5
 0.000000e+000 1.000000e+000 0.000000e+000 0.000000e+000 0.000000e+000
 0.000000e+000 7.166687e-001 8.333129e-002 2.000000e-001 0.000000e+000
 0.000000e+000 0.000000e+000 4.204436e-001 5.795564e-001 0.000000e+000
 0.000000e+000 2.000000e-001 0.000000e+000 3.144792e-001 4.855208e-001
 0.000000e+000 0.000000e+000 0.000000e+000 0.000000e+000 0.000000e+000
<ENDHMM>
~h "udarac"
<BEGINHMM>
<NUMSTATES> 5
<STATE> 2
<MEAN> 25
 -1.998134e+000 -2.271671e+000 -2.995226e+000 -5.087660e+000 -1.983795e+000 1.511414e+000 2.954185e+000 1.328428e-002 1.790894e+000 7.184508e-002 -1.857549e+000 1.443944e+000 -3.177188e-002 -8.117116e-002 -2.154513e-001 -2.937377e-001 -2.115378e-001 -2.957349e-001 -2.159159e-001 -3.360056e-001 -5.006913e-002 1.505625e-001 2.079586e-001 -6.111637e-002 -1.811333e-001
<VARIANCE> 25
 1.195904e+001 1.853160e+001 4.368850e+001 4.651765e+001 2.749530e+001 3.082419e+001 3.789687e+001 2.996904e+001 2.649391e+001 3.890588e+001 2.766137e+001 2.068600e+001 8.690052e-001 1.094210e+000 2.994999e+000 3.080316e+000 2.401799e+000 2.904605e+000 3.278602e+000 2.416266e+000 1.832338e+000 2.141525e+000 1.821675e+000 2.154149e+000 1.808013e+000
<GCONST> 9.553996e+001
<STATE> 3
<MEAN> 25
 -2.803058e+000 1.210967e+000 -9.853393e-001 -6.429331e-001 7.104539e-001 -1.107461e+000 1.778689e+000 -1.593102e+000 1.929320e+000 1.264105e+000 -3.307619e-001 1.962248e+000 -3.324620e-001 3.226356e-001 1.599305e-001 1.543100e-001 3.674358e-001 -1.269313e-001 1.206050e-001 1.026253e-001 2.475369e-001 1.128884e-001 1.159012e-001 1.681180e-001 -4.126298e-001
<VARIANCE> 25
 1.442490e+001 3.354295e+001 2.057345e+001 2.867790e+001 2.887629e+001 2.779147e+001 3.495993e+001 2.334637e+001 2.339329e+001 1.616596e+001 2.589944e+001 1.584651e+001 8.852744e-001 1.005883e+000 1.663941e+000 1.121173e+000 1.672172e+000 2.469892e+000 2.287208e+000 2.046916e+000 1.682128e+000 1.432158e+000 1.919483e+000 1.531304e+000 1.092902e+000
<GCONST> 8.936955e+001
<STATE> 4
<MEAN> 25
 -5.912931e+000 5.914730e-001 -1.128110e+000 8.086272e-001 2.315827e+000 2.622183e+000 4.317274e+000 2.098176e+000 4.024958e+000 -1.276899e+000 -2.384431e+000 1.836956e+000 -5.704331e-002 -6.648201e-002 -5.472701e-002 2.057645e-002 -8.226496e-003 2.897929e-002 4.969037e-002 4.589930e-003 1.906211e-002 -2.761234e-002 -8.955061e-002 8.225696e-003 -1.164722e-003
<VARIANCE> 25
 1.814735e+001 3.691230e+001 3.168165e+001 2.688374e+001 2.374290e+001 2.771310e+001 2.319346e+001 2.157759e+001 2.860533e+001 2.203630e+001 1.874805e+001 1.486774e+001 1.028317e+000 1.777181e+000 1.845109e+000 1.698622e+000 1.843537e+000 1.487035e+000 1.913601e+000 1.747685e+000 1.952094e+000 1.802511e+000 1.385034e+000 1.618025e+000 1.588418e+000
<GCONST> 9.047134e+001
<TRANSP> 5
 0.000000e+000 1.000000e+000 0.000000e+000 0.000000e+000 0.000000e+000
 0.000000e+000 7.729504e-001 2.270496e-001 0.000000e+000 0.000000e+000
 0.000000e+000 0.000000e+000 6.733068e-001 3.266932e-001 0.000000e+000
 0.000000e+000 0.000000e+000 0.000000e+000 9.372430e-001 6.275704e-002
 0.000000e+000 0.000000e+000 0.000000e+000 0.000000e+000 0.000000e+000
<ENDHMM>
~h "greska"
<BEGINHMM>
<NUMSTATES> 5
<STATE> 2
<MEAN> 25
 1.107994e+000 -3.446342e-003 2.283021e+000 -2.627541e-001 -1.502707e+000 -3.128084e+000 -2.636251e+000 -8.783291e-002 -1.523212e+000 2.571660e-001 -2.794308e-001 7.841845e-001 -1.186926e-002 7.563739e-002 2.372434e-001 3.454108e-002 -1.123326e-001 -2.299770e-001 -7.213653e-002 -8.689044e-002 -2.220415e-001 -1.067615e-001 -7.418125e-002 8.541986e-002 4.864311e-002
<VARIANCE> 25
 3.864607e+001 4.065768e+001 5.059028e+001 4.544396e+001 5.821823e+001 5.112481e+001 4.891526e+001 5.227494e+001 3.979991e+001 3.109668e+001 3.626892e+001 3.409691e+001 2.845417e+000 2.515120e+000 3.078570e+000 2.556077e+000 4.212327e+000 2.942597e+000 3.693389e+000 4.010145e+000 2.649626e+000 2.327515e+000 2.182865e+000 2.315640e+000 3.623357e+000
<GCONST> 1.051036e+002
<STATE> 3
<MEAN> 25
 -3.533969e+000 2.381636e+000 1.395343e+000 1.242802e+000 1.486056e-001 -3.823036e+000 -1.374276e+000 8.861766e-001 -1.372611e+000 -1.155431e+000 -4.969933e-001 9.871556e-001 1.123051e-001 4.117656e-001 -6.846341e-002 2.677143e-001 2.698725e-001 -1.318587e-002 2.605421e-004 -4.562542e-002 9.294719e-002 -1.051511e-001 5.963764e-002 -1.338207e-001 -6.091151e-001
<VARIANCE> 25
 8.665855e+001 3.781066e+001 6.102922e+001 3.145348e+001 5.222889e+001 4.540683e+001 5.110131e+001 3.639522e+001 4.254132e+001 3.158908e+001 2.932031e+001 3.362302e+001 3.685059e+000 2.604419e+000 2.129492e+000 2.356914e+000 2.490193e+000 2.858028e+000 3.435506e+000 2.611282e+000 2.482313e+000 2.166692e+000 2.030446e+000 2.171273e+000 2.644787e+000
<GCONST> 1.031675e+002
<STATE> 4
<MEAN> 25
 -9.016478e-001 4.243498e+000 1.383978e+000 3.631274e+000 3.214731e+000 -6.809534e-001 5.420079e-001 -2.892641e-001 1.004285e+000 -4.432170e-001 -2.598165e-001 -1.272896e+000 -2.444273e-001 -1.113808e-001 -8.320162e-002 -1.305074e-002 8.176740e-002 2.665468e-001 3.019148e-002 -1.689614e-002 1.395810e-001 9.442931e-002 1.179351e-002 -4.122093e-002 -2.782866e-001
<VARIANCE> 25
 5.167356e+001 3.259402e+001 2.431307e+001 2.796363e+001 2.949561e+001 3.746544e+001 4.602142e+001 3.076284e+001 3.089266e+001 2.992639e+001 2.898213e+001 2.530469e+001 2.242956e+000 2.404049e+000 1.804708e+000 2.162772e+000 2.455310e+000 2.769531e+000 2.676240e+000 2.587280e+000 2.353196e+000 2.482668e+000 2.394040e+000 1.851170e+000 2.606885e+000
<GCONST> 9.869868e+001
<TRANSP> 5
 0.000000e+000 1.000000e+000 0.000000e+000 0.000000e+000 0.000000e+000
 0.000000e+000 8.573431e-001 1.426569e-001 0.000000e+000 0.000000e+000
 0.000000e+000 0.000000e+000 8.515079e-001 1.484921e-001 0.000000e+000
 0.000000e+000 0.000000e+000 0.000000e+000 9.333540e-001 6.664600e-002
 0.000000e+000 0.000000e+000 0.000000e+000 0.000000e+000 0.000000e+000
<ENDHMM>
~h "papir"
<BEGINHMM>
<NUMSTATES> 5
<STATE> 2
<MEAN> 25
 -2.151731e+000 -1.175305e+000 -1.729397e-001 1.673429e+000 2.690722e+000 -9.471090e-002 2.510975e+000 2.109962e+000 1.387272e+000 -4.345545e-001 -1.519441e+000 -7.450832e-001 -2.631215e-001 2.018622e-001 1.923040e-001 6.571657e-002 2.812028e-001 8.060198e-002 1.338748e-001 2.927413e-001 2.477492e-001 -3.590383e-002 -1.323690e-001 5.343074e-003 -6.072246e-001
<VARIANCE> 25
 3.777502e+001 3.706466e+001 3.953329e+001 2.343501e+001 2.576963e+001 3.176884e+001 2.752446e+001 3.581837e+001 2.975706e+001 2.401260e+001 3.534439e+001 2.723905e+001 1.282349e+000 1.641431e+000 1.787167e+000 1.483676e+000 2.023444e+000 1.680091e+000 2.501178e+000 2.211271e+000 2.068192e+000 1.607077e+000 2.276093e+000 1.660055e+000 1.076488e+000
<GCONST> 9.432277e+001
<STATE> 3
<MEAN> 25
 -3.491948e+000 -2.291395e-001 4.589532e-001 2.370426e+000 3.877078e+000 4.981486e-001 3.228187e+000 2.534934e+000 2.319959e+000 -9.816993e-001 -2.875451e+000 -1.513955e+000 -2.706700e-001 9.105681e-002 -3.860330e-002 -2.392123e-002 1.390297e-001 2.207811e-001 -3.164222e-002 2.720584e-001 2.340843e-001 -5.518287e-002 2.899400e-002 4.196483e-001 -5.885180e-001
<VARIANCE> 25
 3.109714e+001 4.277979e+001 4.057999e+001 2.214558e+001 2.720419e+001 3.132308e+001 2.258187e+001 2.880411e+001 2.876088e+001 3.085738e+001 3.318086e+001 3.293029e+001 8.956240e-001 2.284715e+000 2.008556e+000 1.371024e+000 1.458670e+000 1.599306e+000 2.159149e+000 2.141569e+000 1.903923e+000 2.183790e+000 2.071800e+000 1.979650e+000 9.881709e-001
<GCONST> 9.388292e+001
<STATE> 4
<MEAN> 25
 -6.161448e+000 -3.353356e+000 -3.966866e-002 1.936182e+000 4.180275e+000 1.820936e+000 3.652775e+000 2.112237e+000 3.137459e+000 -2.034809e+000 -2.205487e-001 1.427362e+000 1.122048e-002 4.834778e-002 -4.782718e-002 2.445187e-002 1.401679e-003 3.150513e-002 -6.608984e-002 -2.159822e-002 -1.200117e-002 -2.842959e-003 8.818413e-002 1.395461e-001 -1.215887e-001
<VARIANCE> 25
 1.871509e+001 4.204230e+001 2.562132e+001 2.004498e+001 2.405021e+001 2.580627e+001 1.883430e+001 2.336970e+001 3.326728e+001 1.819393e+001 2.888125e+001 2.222933e+001 1.212802e+000 2.096563e+000 1.512056e+000 1.361512e+000 1.680613e+000 2.159773e+000 1.706110e+000 2.041692e+000 2.106350e+000 1.516637e+000 1.801109e+000 1.617383e+000 1.539789e+000
<GCONST> 9.109925e+001
<TRANSP> 5
 0.000000e+000 1.000000e+000 0.000000e+000 0.000000e+000 0.000000e+000
 0.000000e+000 5.939144e-001 4.060856e-001 0.000000e+000 0.000000e+000
 0.000000e+000 0.000000e+000 5.643926e-001 4.356074e-001 0.000000e+000
 0.000000e+000 0.000000e+000 0.000000e+000 9.130022e-001 8.699785e-002
 0.000000e+000 0.000000e+000 0.000000e+000 0.000000e+000 0.000000e+000
<ENDHMM>
