~o
<STREAMINFO> 1 25
<VECSIZE> 25<NULLD><MFCC_D_N_Z_0><DIAGC>
~s "silst"
<MEAN> 25
 -3.496252e+000 -2.233018e-001 -4.023556e-001 2.237199e+000 4.192359e+000 2.003467e+000 3.533999e+000 3.129598e+000 2.522290e+000 -1.902858e+000 -1.778658e-001 8.026389e-001 -1.944692e-001 9.069281e-002 9.434702e-002 4.637795e-002 1.258261e-002 -6.879804e-002 -1.218698e-001 -1.163030e-001 -1.595003e-002 9.151533e-002 1.114458e-001 -1.071058e-002 -3.788578e-001
<VARIANCE> 25
 1.494079e+001 3.112026e+001 2.027976e+001 1.797564e+001 2.540183e+001 2.954386e+001 2.830220e+001 2.992544e+001 2.806990e+001 2.754634e+001 3.297780e+001 2.351706e+001 1.318390e+000 2.356518e+000 1.526366e+000 1.583729e+000 2.001424e+000 2.405783e+000 2.457232e+000 2.449430e+000 2.410263e+000 2.240195e+000 2.151431e+000 1.960496e+000 2.251888e+000
<GCONST> 9.397429e+001
~h "C"
<BEGINHMM>
<NUMSTATES> 5
<STATE> 2
<MEAN> 25
 -7.550084e+000 -1.365855e+000 3.103121e+000 3.570482e+000 -1.343103e+000 2.613050e+000 2.317585e+000 -6.656460e-001 4.985773e+000 -2.357658e+000 2.432952e+000 -1.035442e+000 -4.148257e+000 -1.393798e+000 -8.613280e-002 -3.721731e-001 -5.409573e-001 4.924950e-001 3.900453e-001 -7.133082e-001 6.724141e-001 -9.785478e-001 1.042489e+000 3.702686e-001 2.488298e+000
<VARIANCE> 25
 6.016961e+001 5.444064e+001 3.137775e+001 3.663969e+001 3.346434e+001 4.317432e+001 4.859983e+001 5.198906e+001 3.588604e+001 2.818340e+001 4.362878e+001 2.417265e+001 3.590958e+000 4.735072e+000 3.071736e+000 2.881275e+000 3.321296e+000 4.373336e+000 4.822731e+000 5.222327e+000 4.764974e+000 3.791644e+000 4.534447e+000 2.956292e+000 5.257084e+000
<GCONST> 1.081442e+002
<STATE> 3
<MEAN> 25
 -1.884724e+001 -1.719631e+000 3.241385e+000 1.993561e+000 -5.219050e-001 3.076118e+000 1.662839e+000 -6.506876e-001 9.523021e+000 -5.633414e+000 2.198864e+000 4.228190e-001 8.591486e-001 9.174433e-002 -2.868015e-001 -3.197936e-001 2.826893e-001 -4.560018e-001 -5.781130e-001 4.527085e-001 2.883758e-001 -4.856349e-001 -4.249071e-001 1.729253e-001 -6.013652e-001
<VARIANCE> 25
 1.285993e+001 2.621864e+001 2.556640e+001 3.523817e+001 2.806892e+001 3.811537e+001 4.498088e+001 6.519035e+001 4.759111e+001 4.502517e+001 5.857389e+001 2.886102e+001 5.909359e+000 2.381702e+000 2.394791e+000 2.191479e+000 2.364603e+000 3.481649e+000 3.717362e+000 4.119673e+000 4.605303e+000 3.343755e+000 2.865870e+000 2.634774e+000 1.315542e+000
<GCONST> 1.028018e+002
<STATE> 4
<MEAN> 25
 -5.518203e+000 -2.948373e+000 6.001825e-001 9.964312e-002 -1.830318e+000 -1.202960e+000 -1.295097e+000 -1.172180e+000 5.364804e+000 -5.705594e+000 1.342076e+000 3.097917e-001 4.981267e+000 -2.798871e-002 -5.011721e-001 -3.611760e-001 -7.393680e-001 -1.463615e+000 -7.562464e-001 -4.819566e-001 -2.078035e+000 1.332957e+000 -5.591403e-001 -2.912783e-001 7.687745e-001
<VARIANCE> 25
 4.614371e+001 2.471582e+001 2.449086e+001 2.102694e+001 2.945079e+001 4.314821e+001 3.840408e+001 4.941179e+001 4.483931e+001 3.518716e+001 3.582222e+001 2.145363e+001 1.568590e+000 3.096792e+000 2.515201e+000 2.909924e+000 2.996094e+000 4.752896e+000 3.858698e+000 5.256994e+000 4.213224e+000 4.316492e+000 6.011538e+000 2.561634e+000 1.475039e+000
<GCONST> 1.031948e+002
<TRANSP> 5
 0.000000e+000 1.000000e+000 0.000000e+000 0.000000e+000 0.000000e+000
 0.000000e+000 7.229483e-001 2.770517e-001 0.000000e+000 0.000000e+000
 0.000000e+000 0.000000e+000 7.251168e-001 2.748832e-001 0.000000e+000
 0.000000e+000 0.000000e+000 0.000000e+000 6.192393e-001 3.807607e-001
 0.000000e+000 0.000000e+000 0.000000e+000 0.000000e+000 0.000000e+000
<ENDHMM>
~h "L"
<BEGINHMM>
<NUMSTATES> 5
<STATE> 2
<MEAN> 25
 -1.817321e-001 5.897575e-001 7.790732e+000 2.646776e+000 -1.338801e+000 -4.891614e+000 -3.214537e+000 -5.554879e-001 -1.786584e+000 -4.157072e+000 -1.459779e-001 2.130340e+000 2.437945e-001 4.443448e-001 1.676762e+000 8.999865e-003 -1.047930e+000 -7.821065e-001 -2.211193e-001 1.780989e-001 -1.287870e+000 -7.732849e-001 -1.512051e-001 9.129318e-001 4.352396e-001
<VARIANCE> 25
 2.080227e+001 2.560530e+001 2.191101e+001 2.481872e+001 2.783919e+001 3.883550e+001 4.249987e+001 4.075849e+001 3.893180e+001 3.240923e+001 3.283188e+001 2.308867e+001 2.873451e+000 2.709055e+000 3.014978e+000 2.903097e+000 3.248771e+000 4.145459e+000 4.817033e+000 4.365005e+000 3.611049e+000 3.946758e+000 3.193941e+000 2.842393e+000 1.898384e+000
<GCONST> 1.021087e+002
<STATE> 3
<MEAN> 25
 4.279581e-001 1.023169e+000 9.379929e+000 1.350195e+000 -3.708730e+000 -5.108457e+000 -3.768080e+000 -3.239109e-001 -4.291993e+000 -3.439218e+000 5.481294e-002 3.892631e+000 1.368362e-001 -9.937062e-001 -2.890948e-001 -9.164463e-001 -1.432784e+000 1.220479e-001 -5.872556e-001 7.092847e-001 7.561477e-002 9.200058e-001 3.794831e-001 3.464134e-001 1.226735e+000
<VARIANCE> 25
 7.489528e+000 1.751740e+001 1.991223e+001 2.442978e+001 2.463619e+001 3.062513e+001 3.697102e+001 2.967531e+001 2.772575e+001 2.981256e+001 2.699026e+001 2.349104e+001 1.562988e+000 1.777971e+000 2.333062e+000 2.228908e+000 2.417265e+000 3.046273e+000 4.274827e+000 3.502084e+000 3.476608e+000 2.756530e+000 2.839042e+000 2.273959e+000 7.259361e-001
<GCONST> 9.498479e+001
<STATE> 4
<MEAN> 25
 1.371980e+000 -2.404155e+000 5.942226e+000 -1.164015e-001 -6.574192e+000 -4.108480e+000 -4.948673e+000 1.721924e+000 -1.753499e+000 -6.836977e-001 7.175733e-001 2.639818e+000 4.721363e-001 -8.367562e-001 -1.502460e+000 -4.978181e-001 -2.388604e-001 5.586182e-001 1.232130e-001 2.587368e-001 5.597589e-001 1.151173e+000 2.718041e-001 -9.334275e-001 5.868370e-001
<VARIANCE> 25
 7.405112e+000 1.581026e+001 2.460612e+001 2.680756e+001 2.408322e+001 3.209035e+001 6.386354e+001 3.589358e+001 3.404301e+001 2.969167e+001 2.632732e+001 2.200250e+001 6.955695e-001 1.850997e+000 2.541876e+000 1.742189e+000 3.101356e+000 2.741110e+000 3.847133e+000 4.054877e+000 2.907563e+000 3.333783e+000 3.202895e+000 2.390646e+000 6.479427e-001
<GCONST> 9.537035e+001
<TRANSP> 5
 0.000000e+000 1.000000e+000 0.000000e+000 0.000000e+000 0.000000e+000
 0.000000e+000 4.759517e-001 5.240483e-001 0.000000e+000 0.000000e+000
 0.000000e+000 0.000000e+000 4.483385e-001 5.516616e-001 0.000000e+000
 0.000000e+000 0.000000e+000 0.000000e+000 4.359654e-001 5.640346e-001
 0.000000e+000 0.000000e+000 0.000000e+000 0.000000e+000 0.000000e+000
<ENDHMM>
~h "N"
<BEGINHMM>
<NUMSTATES> 5
<STATE> 2
<MEAN> 25
 2.451609e+000 5.436639e+000 5.258817e+000 -1.157765e+000 -8.405153e-001 1.221382e-001 7.165717e-001 -3.481675e+000 -5.025253e+000 -1.591209e+000 -9.932914e-001 6.811727e-001 -1.924381e-001 -3.572839e-001 1.142238e+000 -1.113132e+000 -1.092034e+000 5.320093e-001 1.665706e-001 3.163402e-001 -7.225810e-001 1.356909e-001 -8.456986e-002 1.613600e-001 1.256905e+000
<VARIANCE> 25
 1.864573e+001 2.518828e+001 2.319921e+001 2.990976e+001 3.077729e+001 3.308603e+001 2.728691e+001 3.481322e+001 3.179840e+001 2.983659e+001 2.956811e+001 2.420508e+001 2.758324e+000 4.311068e+000 2.429320e+000 2.676787e+000 4.433131e+000 3.648762e+000 3.796792e+000 4.084866e+000 3.257927e+000 2.733662e+000 2.967680e+000 2.186445e+000 2.541256e+000
<GCONST> 1.007144e+002
<STATE> 3
<MEAN> 25
 6.126913e-001 -9.251689e-001 7.467594e+000 -4.005877e+000 -6.709855e+000 1.857898e+000 3.307433e+000 1.219263e+000 -4.908355e+000 -1.383261e+000 -1.157233e+000 6.999165e-001 1.623894e-001 -1.983816e+000 -6.607489e-001 4.743902e-001 -4.396135e-001 -2.957737e-001 8.686925e-001 1.479514e+000 4.498703e-001 -3.520681e-001 -3.509235e-001 -1.475754e-001 9.473218e-001
<VARIANCE> 25
 7.716247e+000 1.987809e+001 1.832857e+001 2.327105e+001 2.599874e+001 3.787335e+001 3.006321e+001 3.172732e+001 2.616893e+001 3.260364e+001 2.505088e+001 2.443278e+001 9.600771e-001 1.441409e+000 1.557667e+000 1.629932e+000 2.630812e+000 2.349324e+000 2.639207e+000 2.117042e+000 2.429045e+000 2.514142e+000 1.967895e+000 1.731439e+000 8.275838e-001
<GCONST> 9.159878e+001
<STATE> 4
<MEAN> 25
 9.739894e-001 -3.618097e+000 4.618598e+000 -1.985007e-001 -3.574127e+000 1.211209e+000 5.024233e+000 3.701813e+000 -3.892511e+000 -3.996497e+000 -2.729459e+000 4.299200e-001 4.515060e-001 -5.218021e-001 -1.063236e+000 8.435043e-001 1.077000e+000 -4.337253e-001 -2.006201e-001 6.461718e-001 7.201193e-001 -3.245779e-002 -3.699318e-001 -2.708320e-001 -5.334395e-001
<VARIANCE> 25
 8.872569e+000 2.254587e+001 2.048224e+001 2.708962e+001 3.342692e+001 4.169873e+001 4.637828e+001 3.047724e+001 3.399940e+001 3.548871e+001 2.548258e+001 2.277057e+001 6.908367e-001 1.750094e+000 1.971106e+000 1.874788e+000 2.421287e+000 2.545787e+000 2.660533e+000 2.053491e+000 2.643601e+000 2.647251e+000 2.285958e+000 1.977993e+000 1.583466e+000
<GCONST> 9.444468e+001
<TRANSP> 5
 0.000000e+000 1.000000e+000 0.000000e+000 0.000000e+000 0.000000e+000
 0.000000e+000 7.068552e-001 2.931448e-001 0.000000e+000 0.000000e+000
 0.000000e+000 0.000000e+000 5.344558e-001 4.655442e-001 0.000000e+000
 0.000000e+000 0.000000e+000 0.000000e+000 4.326544e-001 5.673456e-001
 0.000000e+000 0.000000e+000 0.000000e+000 0.000000e+000 0.000000e+000
<ENDHMM>
~h "S"
<BEGINHMM>
<NUMSTATES> 5
<STATE> 2
<MEAN> 25
 -8.710096e+000 9.357655e-001 8.425612e+000 5.952030e+000 -9.057978e-001 4.484735e-001 -1.026757e+000 8.200400e-002 4.518555e+000 -4.812570e+000 3.640376e+000 3.230224e-001 -4.518665e+000 9.577277e-003 6.820996e-001 1.163008e+000 1.687079e+000 4.453559e-001 6.064194e-001 6.595228e-001 2.868005e+000 -1.027547e+000 -5.081230e-002 5.726655e-002 7.887652e-001
<VARIANCE> 25
 4.284784e+001 2.028466e+001 3.655077e+001 2.937093e+001 3.764698e+001 3.701780e+001 4.344087e+001 4.998561e+001 6.692054e+001 5.012090e+001 4.665611e+001 3.111761e+001 1.805727e+000 3.696673e+000 3.833341e+000 2.832152e+000 3.926518e+000 4.076830e+000 3.961942e+000 5.386898e+000 5.271828e+000 5.419904e+000 5.911347e+000 3.279806e+000 7.432967e-001
<GCONST> 1.061519e+002
<STATE> 3
<MEAN> 25
 -1.890747e+001 -2.543591e+000 6.675593e+000 4.692940e+000 2.011756e+000 1.574875e+000 3.312230e-001 -1.288755e+000 9.807757e+000 -5.052113e+000 1.174057e+000 2.808942e-001 -2.062162e-001 -6.155807e-001 -8.425998e-001 -7.436382e-001 2.343407e-001 2.624208e-001 -1.339769e-001 -1.922245e-001 3.747737e-001 1.778370e-002 -3.408030e-001 6.023712e-002 -6.272664e-001
<VARIANCE> 25
 8.242120e+000 3.260632e+001 1.782721e+001 2.891030e+001 3.100565e+001 3.791907e+001 4.497855e+001 5.756901e+001 4.528212e+001 6.478264e+001 5.744772e+001 3.100226e+001 2.696053e+000 1.547883e+000 1.342752e+000 1.464400e+000 1.954137e+000 2.237568e+000 2.574464e+000 3.308784e+000 2.837684e+000 2.830888e+000 2.318824e+000 2.193210e+000 4.722894e-001
<GCONST> 9.686554e+001
<STATE> 4
<MEAN> 25
 -8.763931e+000 -4.001215e+000 8.927864e-001 8.991320e-002 9.029692e-001 9.034765e-001 -1.326776e+000 -1.222692e+000 8.231494e+000 -4.008687e+000 9.117679e-001 7.160507e-001 4.044328e+000 7.136223e-002 -1.117257e+000 -8.986007e-001 -9.060769e-001 -9.981728e-001 -1.030372e-001 1.096551e-001 -1.680313e+000 8.712331e-001 -1.649328e-001 -4.235220e-002 -2.770075e-001
<VARIANCE> 25
 6.054263e+001 3.450110e+001 2.428843e+001 2.341222e+001 4.398755e+001 5.045747e+001 4.477167e+001 6.822614e+001 5.050558e+001 5.506834e+001 4.307566e+001 2.441770e+001 4.387043e+000 2.050589e+000 2.613181e+000 2.352161e+000 3.300843e+000 4.819965e+000 3.977231e+000 4.436835e+000 3.865203e+000 5.085810e+000 4.734271e+000 2.671951e+000 3.463728e+000
<GCONST> 1.069615e+002
<TRANSP> 5
 0.000000e+000 1.000000e+000 0.000000e+000 0.000000e+000 0.000000e+000
 0.000000e+000 6.649281e-001 3.350719e-001 0.000000e+000 0.000000e+000
 0.000000e+000 0.000000e+000 8.107255e-001 1.892745e-001 0.000000e+000
 0.000000e+000 0.000000e+000 0.000000e+000 6.865748e-001 3.134252e-001
 0.000000e+000 0.000000e+000 0.000000e+000 0.000000e+000 0.000000e+000
<ENDHMM>
~h "Z"
<BEGINHMM>
<NUMSTATES> 5
<STATE> 2
<MEAN> 25
 -6.075113e+000 1.047013e+000 6.218007e+000 4.479317e+000 1.888405e-001 -1.960172e+000 -2.156164e+000 -7.288435e+000 6.085853e+000 -2.607852e+000 3.404733e+000 -6.682803e-002 -3.769761e+000 8.145983e-001 1.897214e+000 1.008964e+000 1.350515e+000 -1.785590e-001 1.151548e+000 8.962701e-002 1.671639e+000 -5.000103e-001 -2.351495e-001 -4.927751e-001 4.572126e-001
<VARIANCE> 25
 3.130802e+001 1.541075e+001 3.838434e+001 2.872658e+001 4.949533e+001 3.281045e+001 4.218057e+001 5.801556e+001 3.989301e+001 4.708638e+001 4.250548e+001 3.169111e+001 1.849915e+000 2.587486e+000 2.049460e+000 2.536623e+000 3.419029e+000 4.815421e+000 3.858941e+000 4.849650e+000 4.226225e+000 3.656991e+000 3.035293e+000 2.710719e+000 7.331284e-001
<GCONST> 1.025502e+002
<STATE> 3
<MEAN> 25
 -1.514506e+001 2.023141e+000 9.713586e+000 5.456327e+000 1.613770e+000 1.716523e-001 9.574088e-001 -4.391391e+000 9.094110e+000 -3.712265e+000 2.201150e+000 -5.629757e-001 2.988411e-001 -1.815975e-001 -5.410119e-001 -6.283760e-001 -7.360088e-002 3.866285e-001 1.114112e-002 3.237040e-001 -1.185628e-001 -4.921013e-001 -2.997115e-001 2.251753e-001 -6.935080e-001
<VARIANCE> 25
 1.526421e+001 2.504401e+001 2.504366e+001 3.242189e+001 4.551369e+001 4.248613e+001 4.984937e+001 5.402947e+001 4.494817e+001 4.881770e+001 4.791817e+001 3.472055e+001 4.354193e+000 1.340006e+000 1.781766e+000 1.731130e+000 2.294698e+000 2.529025e+000 3.290398e+000 2.813693e+000 3.186374e+000 2.657700e+000 2.487677e+000 2.060497e+000 7.779152e-001
<GCONST> 9.956232e+001
<STATE> 4
<MEAN> 25
 -4.513300e+000 -4.712446e-001 3.682445e+000 1.446955e+000 -3.027373e-001 -1.228951e+000 -1.823862e+000 -4.538127e+000 6.385093e+000 -3.995171e+000 1.252818e+000 4.548302e-001 4.141923e+000 -1.134587e+000 -1.955616e+000 -7.444140e-001 -9.510709e-001 -6.868577e-001 -6.205211e-001 4.927451e-001 -1.490758e+000 9.078768e-001 -5.293798e-001 8.917643e-002 7.021551e-002
<VARIANCE> 25
 4.233620e+001 2.583160e+001 2.994018e+001 2.377188e+001 3.433526e+001 3.540763e+001 4.627994e+001 5.039139e+001 4.057611e+001 4.921521e+001 3.514484e+001 2.530910e+001 1.880318e+000 2.585947e+000 2.747630e+000 2.625478e+000 3.241855e+000 3.889670e+000 3.940129e+000 4.984239e+000 4.281288e+000 3.573802e+000 4.256046e+000 2.718327e+000 1.098594e+000
<GCONST> 1.030993e+002
<TRANSP> 5
 0.000000e+000 1.000000e+000 0.000000e+000 0.000000e+000 0.000000e+000
 0.000000e+000 6.983150e-001 3.016849e-001 0.000000e+000 0.000000e+000
 0.000000e+000 0.000000e+000 7.031549e-001 2.968452e-001 0.000000e+000
 0.000000e+000 0.000000e+000 0.000000e+000 6.377533e-001 3.622467e-001
 0.000000e+000 0.000000e+000 0.000000e+000 0.000000e+000 0.000000e+000
<ENDHMM>
~h "a"
<BEGINHMM>
<NUMSTATES> 5
<STATE> 2
<MEAN> 25
 3.386094e+000 -8.322388e+000 -5.350524e+000 -2.564182e+000 2.815441e+000 -8.436255e-003 5.260152e-001 4.012905e+000 2.610189e+000 -1.061243e-001 -5.097135e+000 -2.397829e+000 2.411538e-001 -5.327951e-001 -4.296179e-001 -8.242594e-002 8.011650e-001 5.816162e-001 5.255427e-001 3.126569e-001 -1.533010e-001 -2.269288e-001 -5.797700e-001 -4.113457e-001 2.320507e-001
<VARIANCE> 25
 6.625342e+000 1.302625e+001 1.555771e+001 1.950080e+001 2.772025e+001 3.975730e+001 3.108545e+001 2.888465e+001 2.927697e+001 3.414490e+001 2.991805e+001 2.882491e+001 9.174590e-001 1.076575e+000 1.291438e+000 1.408312e+000 2.046021e+000 2.403341e+000 2.540730e+000 2.440765e+000 2.150640e+000 2.329578e+000 2.305390e+000 1.940017e+000 8.954862e-001
<GCONST> 9.059425e+001
<STATE> 3
<MEAN> 25
 4.165916e+000 -7.708278e+000 -5.666194e+000 -2.042352e+000 4.417556e+000 1.281766e+000 6.436406e-001 3.085922e+000 1.698129e+000 5.986758e-002 -5.640337e+000 -3.002281e+000 2.972193e-001 1.138330e+000 5.132440e-001 4.719847e-001 -1.851942e-001 -2.004995e-001 1.068434e-001 -3.072070e-001 3.295672e-002 2.789333e-001 1.103757e-001 7.299868e-002 -1.123009e+000
<VARIANCE> 25
 7.412720e+000 1.427895e+001 1.737229e+001 2.505881e+001 3.214978e+001 4.177917e+001 3.579428e+001 3.245700e+001 3.150483e+001 4.146629e+001 3.747681e+001 3.540312e+001 5.508683e-001 1.273636e+000 1.069637e+000 1.423194e+000 1.896148e+000 2.246374e+000 2.227790e+000 2.322451e+000 2.077113e+000 2.026623e+000 2.043125e+000 1.914361e+000 1.117979e+000
<GCONST> 9.138242e+001
<STATE> 4
<MEAN> 25
 4.346467e+000 -1.199579e+000 -2.292711e+000 5.679036e-001 2.608848e+000 -2.265803e-001 1.984147e+000 3.591323e+000 3.402284e+000 -1.504434e-001 -4.799248e+000 -2.285504e+000 -3.015985e-001 1.903725e+000 9.645645e-001 6.149348e-001 -3.023642e-001 9.829997e-002 5.066293e-001 -2.652898e-001 2.444582e-001 -3.247232e-001 3.884454e-001 6.423517e-002 -2.111133e+000
<VARIANCE> 25
 1.156896e+001 2.403876e+001 1.967956e+001 2.427053e+001 3.155609e+001 4.285076e+001 4.012331e+001 3.950195e+001 3.803075e+001 4.429490e+001 3.533651e+001 3.457576e+001 1.217518e+000 2.097916e+000 1.638383e+000 2.293202e+000 2.479969e+000 3.021859e+000 2.843590e+000 3.869251e+000 3.392254e+000 2.897621e+000 3.021115e+000 2.456682e+000 1.669164e+000
<GCONST> 9.833470e+001
<TRANSP> 5
 0.000000e+000 1.000000e+000 0.000000e+000 0.000000e+000 0.000000e+000
 0.000000e+000 6.004826e-001 3.995174e-001 0.000000e+000 0.000000e+000
 0.000000e+000 0.000000e+000 5.990723e-001 4.009277e-001 0.000000e+000
 0.000000e+000 0.000000e+000 0.000000e+000 5.754613e-001 4.245388e-001
 0.000000e+000 0.000000e+000 0.000000e+000 0.000000e+000 0.000000e+000
<ENDHMM>
~h "b"
<BEGINHMM>
<NUMSTATES> 5
<STATE> 2
<MEAN> 25
 7.141484e+000 8.026336e+000 8.350146e-001 6.794160e-001 2.944261e+000 2.856281e+000 1.946716e+000 -1.233002e+000 -3.531184e-001 -1.990025e+000 -2.155208e+000 -3.705071e+000 -5.107707e-001 9.604115e-001 7.927446e-001 1.064257e+000 3.063183e-001 4.097194e-002 4.565131e-001 4.111453e-001 2.481827e-001 -7.330518e-001 -6.160633e-001 -1.208679e-001 -1.108190e+000
<VARIANCE> 25
 1.233582e+001 1.420850e+001 2.034766e+001 2.862612e+001 2.117636e+001 2.806886e+001 2.829287e+001 2.729963e+001 3.119426e+001 2.696701e+001 2.711896e+001 2.616765e+001 1.239080e+000 2.043834e+000 1.162488e+000 1.818688e+000 1.505652e+000 1.884772e+000 2.180464e+000 2.286694e+000 2.349457e+000 2.226658e+000 2.510143e+000 1.738192e+000 1.734027e+000
<GCONST> 9.182307e+001
<STATE> 3
<MEAN> 25
 5.039556e+000 8.318919e+000 2.016688e+000 2.088121e+000 2.966396e+000 2.612837e+000 2.321826e+000 1.775069e-001 5.932980e-001 -2.913141e+000 -2.223147e+000 -2.847099e+000 -1.781039e+000 -2.567115e+000 -1.691172e-001 5.727307e-001 -6.074049e-001 -5.632997e-001 -1.416425e+000 1.131479e-002 -3.142448e-001 1.127933e-001 1.119554e+000 7.057213e-001 2.201570e+000
<VARIANCE> 25
 1.494758e+001 1.644718e+001 2.081272e+001 2.773145e+001 2.047449e+001 2.613889e+001 2.695059e+001 2.931842e+001 2.936879e+001 2.468650e+001 2.502608e+001 2.478647e+001 1.732157e+000 2.193225e+000 3.229659e+000 3.338472e+000 3.041684e+000 3.737041e+000 3.023772e+000 3.401417e+000 3.678879e+000 3.564696e+000 2.987624e+000 2.650321e+000 1.470363e+000
<GCONST> 9.728338e+001
<STATE> 4
<MEAN> 25
 5.863196e-001 -9.547487e-001 -1.014983e-001 2.514447e+000 1.160801e+000 1.133397e+000 -2.525042e+000 -2.787788e-001 -2.623345e-001 -1.738086e+000 1.618945e+000 -9.870684e-001 -2.358450e-001 -2.767233e+000 -5.601497e-001 -1.346707e+000 -1.984031e+000 -7.417623e-001 -1.629118e+000 -6.146572e-001 -1.016101e+000 1.049332e+000 1.456103e+000 6.636569e-001 3.181545e+000
<VARIANCE> 25
 1.936757e+001 2.210628e+001 3.465020e+001 4.241328e+001 2.927763e+001 4.290453e+001 3.530344e+001 3.346632e+001 3.022726e+001 3.185400e+001 3.316883e+001 2.365462e+001 2.491946e+000 3.067868e+000 5.643751e+000 5.919567e+000 4.574525e+000 4.927637e+000 3.889544e+000 6.289935e+000 5.804427e+000 6.558188e+000 4.455602e+000 3.643800e+000 1.321079e+000
<GCONST> 1.056050e+002
<TRANSP> 5
 0.000000e+000 1.000000e+000 0.000000e+000 0.000000e+000 0.000000e+000
 0.000000e+000 6.304520e-001 3.695480e-001 0.000000e+000 0.000000e+000
 0.000000e+000 0.000000e+000 3.284695e-001 6.715305e-001 0.000000e+000
 0.000000e+000 0.000000e+000 0.000000e+000 3.863509e-001 6.136491e-001
 0.000000e+000 0.000000e+000 0.000000e+000 0.000000e+000 0.000000e+000
<ENDHMM>
~h "c"
<BEGINHMM>
<NUMSTATES> 5
<STATE> 2
<MEAN> 25
 -9.104558e+000 1.043787e+001 -1.863791e+000 7.251000e+000 1.680354e+000 9.107221e-001 1.411152e+000 4.386193e-001 7.350551e-001 -1.841907e+000 3.505637e-001 3.303051e-001 -3.402143e+000 -1.350310e-002 -2.298673e+000 8.224843e-003 7.588669e-001 6.194808e-001 2.327767e-001 1.463508e-002 -3.304585e-004 -4.276506e-001 3.670741e-001 3.572156e-001 1.284849e+000
<VARIANCE> 25
 3.281766e+001 2.425319e+001 3.149183e+001 1.966775e+001 2.331267e+001 3.148762e+001 2.709487e+001 3.156938e+001 2.789795e+001 2.286273e+001 3.104319e+001 2.226385e+001 1.539194e+000 2.741725e+000 2.237101e+000 2.012290e+000 2.555390e+000 2.488768e+000 2.911960e+000 2.585743e+000 2.365422e+000 2.095804e+000 2.599883e+000 1.765012e+000 1.867139e+000
<GCONST> 9.596374e+001
<STATE> 3
<MEAN> 25
 -1.773953e+001 6.412179e+000 -7.723965e+000 4.158477e+000 3.640058e+000 -2.924190e-001 5.482158e+000 1.225779e+000 9.807901e-001 -2.359152e+000 1.081406e+000 3.300660e+000 -1.558891e-001 -1.793724e+000 4.048659e-002 -1.062105e+000 -6.546971e-001 -1.340157e+000 9.497193e-001 4.362091e-001 5.434378e-002 3.940509e-001 1.744213e-001 6.338497e-001 6.589714e-001
<VARIANCE> 25
 5.921977e+000 2.004264e+001 1.708959e+001 2.118108e+001 2.490631e+001 3.485291e+001 2.535461e+001 2.582032e+001 2.424241e+001 2.165664e+001 4.778268e+001 2.624703e+001 1.975101e+000 1.658277e+000 2.303475e+000 1.354989e+000 2.281549e+000 2.354822e+000 2.304142e+000 2.699391e+000 2.090970e+000 1.923834e+000 2.224690e+000 1.806987e+000 7.092218e-001
<GCONST> 9.153635e+001
<STATE> 4
<MEAN> 25
 -9.863427e+000 5.033264e-001 -3.541178e+000 1.746481e+000 -2.444360e+000 -7.958883e+000 3.725390e+000 6.430261e-001 -1.073663e-002 -5.928538e-001 1.187936e-002 3.729569e+000 4.290060e+000 -1.232389e+000 1.953838e+000 -4.884665e-001 -1.915706e+000 -2.087953e+000 -1.802521e+000 -8.537303e-001 -6.523917e-001 6.387622e-001 -8.202197e-001 -2.376525e-001 1.218783e+000
<VARIANCE> 25
 5.235854e+001 1.596452e+001 2.458692e+001 1.592668e+001 3.362122e+001 4.032181e+001 4.087182e+001 3.425333e+001 2.876577e+001 2.208645e+001 4.335357e+001 2.307946e+001 1.474085e+000 2.510887e+000 2.530242e+000 2.415489e+000 2.596985e+000 4.276337e+000 3.470359e+000 4.079368e+000 3.396313e+000 2.671603e+000 4.959240e+000 3.868169e+000 1.282834e+000
<GCONST> 1.000494e+002
<TRANSP> 5
 0.000000e+000 1.000000e+000 0.000000e+000 0.000000e+000 0.000000e+000
 0.000000e+000 7.389901e-001 2.610100e-001 0.000000e+000 0.000000e+000
 0.000000e+000 0.000000e+000 6.963264e-001 3.036735e-001 0.000000e+000
 0.000000e+000 0.000000e+000 0.000000e+000 6.643789e-001 3.356211e-001
 0.000000e+000 0.000000e+000 0.000000e+000 0.000000e+000 0.000000e+000
<ENDHMM>
~h "d"
<BEGINHMM>
<NUMSTATES> 5
<STATE> 2
<MEAN> 25
 5.067049e+000 6.819739e+000 2.989580e+000 3.087137e+000 1.287014e+000 -2.936173e+000 -1.108128e+000 -1.258013e-001 3.014158e+000 -4.600783e-001 -3.721691e+000 -2.390702e+000 -2.258876e-001 1.037003e+000 7.566870e-001 5.184219e-001 4.983483e-001 7.079281e-001 5.152096e-001 3.693402e-001 1.414751e-001 -9.404856e-001 -4.301855e-003 -5.223722e-001 -1.176889e+000
<VARIANCE> 25
 1.332067e+001 1.924344e+001 2.252904e+001 2.100941e+001 2.523717e+001 3.276143e+001 3.112259e+001 3.279642e+001 2.896771e+001 3.239609e+001 2.876000e+001 2.730738e+001 2.482044e+000 2.543384e+000 2.015884e+000 2.088177e+000 2.655982e+000 3.123815e+000 3.423426e+000 3.045534e+000 2.779822e+000 2.993891e+000 3.600579e+000 2.903507e+000 2.838022e+000
<GCONST> 9.805857e+001
<STATE> 3
<MEAN> 25
 2.902548e+000 7.070320e+000 4.015220e+000 3.342858e+000 2.543100e+000 -6.419124e-001 8.014701e-002 6.062609e-001 2.291382e+000 -1.694948e+000 -2.193012e+000 -2.568804e+000 -1.912600e+000 -1.784927e+000 -4.394621e-001 -6.166185e-001 3.440425e-001 4.128289e-001 -2.953934e-001 -2.666466e-001 -6.382489e-001 -1.285430e-001 1.079733e+000 7.727585e-001 1.831091e+000
<VARIANCE> 25
 1.857070e+001 2.289644e+001 2.543920e+001 2.171808e+001 2.397428e+001 2.887046e+001 2.782120e+001 3.180943e+001 2.808178e+001 2.746179e+001 2.890660e+001 2.014050e+001 2.667777e+000 2.841281e+000 2.516848e+000 2.718751e+000 3.432960e+000 4.055212e+000 3.544901e+000 3.549822e+000 3.028141e+000 3.099773e+000 3.779075e+000 2.726176e+000 2.237736e+000
<GCONST> 9.914565e+001
<STATE> 4
<MEAN> 25
 -1.623364e+000 -1.681394e-001 5.779623e-001 6.719744e-002 2.201979e+000 -1.642910e+000 -2.308718e+000 -2.563353e-001 1.357290e+000 -5.716169e-001 3.104794e-001 5.396043e-001 -1.054665e-001 -1.931810e+000 -1.142767e+000 -1.212571e+000 -1.370893e+000 -1.009388e+000 -1.285899e+000 -4.080603e-001 -1.643707e-001 1.160953e+000 3.153804e-001 8.581914e-001 2.672753e+000
<VARIANCE> 25
 2.040440e+001 2.283738e+001 2.784522e+001 2.502897e+001 3.467206e+001 4.508252e+001 4.378353e+001 3.094148e+001 2.720141e+001 3.035339e+001 3.169901e+001 2.499651e+001 3.153636e+000 3.009183e+000 3.787425e+000 3.061197e+000 3.594891e+000 4.537707e+000 4.386033e+000 4.689165e+000 4.180614e+000 3.724299e+000 4.500691e+000 3.612295e+000 2.203478e+000
<GCONST> 1.034350e+002
<TRANSP> 5
 0.000000e+000 1.000000e+000 0.000000e+000 0.000000e+000 0.000000e+000
 0.000000e+000 4.612873e-001 5.387127e-001 0.000000e+000 0.000000e+000
 0.000000e+000 0.000000e+000 2.876812e-001 7.123188e-001 0.000000e+000
 0.000000e+000 0.000000e+000 0.000000e+000 4.523462e-001 5.476539e-001
 0.000000e+000 0.000000e+000 0.000000e+000 0.000000e+000 0.000000e+000
<ENDHMM>
~h "e"
<BEGINHMM>
<NUMSTATES> 5
<STATE> 2
<MEAN> 25
 2.040860e+000 -5.174369e+000 2.577116e+000 -4.825357e-001 -6.784785e+000 -6.778916e+000 1.270943e+000 4.670651e+000 -1.021175e+000 1.013912e+000 -3.075120e-001 1.892908e+000 3.613750e-001 3.026221e-001 3.088897e-001 1.615168e-001 -8.114039e-002 -6.838024e-002 2.890412e-001 5.519061e-002 -2.146816e-001 4.037020e-001 -8.102418e-002 2.425550e-002 -2.061597e-001
<VARIANCE> 25
 6.601868e+000 1.531383e+001 1.888335e+001 1.927571e+001 2.543743e+001 3.571404e+001 4.064191e+001 2.909207e+001 3.205243e+001 2.845479e+001 2.628839e+001 2.240061e+001 1.246000e+000 1.169711e+000 1.579538e+000 1.535553e+000 2.655766e+000 2.363882e+000 3.056156e+000 2.527295e+000 2.524002e+000 2.577053e+000 2.035929e+000 1.829556e+000 1.011202e+000
<GCONST> 9.188382e+001
<STATE> 3
<MEAN> 25
 2.783299e+000 -2.192507e+000 3.707597e+000 1.258368e+000 -5.930455e+000 -6.421258e+000 5.189102e-001 2.760028e+000 -9.047222e-001 1.475093e+000 -7.252284e-001 1.953120e+000 2.998561e-001 1.752882e+000 3.183475e-001 9.999233e-001 1.001612e+000 4.073943e-001 2.224688e-002 -7.174248e-001 6.170637e-001 -2.075419e-001 -1.335541e-001 -3.337443e-001 -1.942426e+000
<VARIANCE> 25
 8.273767e+000 2.405886e+001 2.557942e+001 2.187327e+001 3.216671e+001 3.830927e+001 4.598462e+001 3.911628e+001 3.981739e+001 3.582126e+001 2.985823e+001 2.878692e+001 9.633179e-001 1.559564e+000 1.559969e+000 1.679574e+000 2.346465e+000 2.670667e+000 2.987401e+000 3.098763e+000 2.813251e+000 2.653838e+000 2.286370e+000 2.138399e+000 1.525677e+000
<GCONST> 9.564896e+001
<STATE> 4
<MEAN> 25
 2.876943e+000 2.145141e+000 3.956906e+000 3.396665e+000 -2.981312e+000 -5.000972e+000 6.451035e-001 1.629954e+000 1.520574e+000 4.231851e-001 -4.865730e-001 7.022486e-001 -5.011963e-001 1.516232e+000 -3.412651e-002 4.831522e-001 1.269963e+000 9.265906e-001 9.014936e-002 -5.479940e-001 5.640019e-001 -2.167414e-001 2.386453e-001 -5.340174e-001 -1.785944e+000
<VARIANCE> 25
 1.248965e+001 3.058814e+001 2.453502e+001 1.976658e+001 2.967775e+001 3.286149e+001 4.270617e+001 3.441590e+001 3.704085e+001 3.259721e+001 3.065949e+001 2.722001e+001 2.072815e+000 2.729403e+000 2.030035e+000 2.373586e+000 2.712776e+000 3.320994e+000 3.425864e+000 4.455261e+000 3.649728e+000 3.021334e+000 3.009553e+000 2.703185e+000 1.757796e+000
<GCONST> 9.936499e+001
<TRANSP> 5
 0.000000e+000 1.000000e+000 0.000000e+000 0.000000e+000 0.000000e+000
 0.000000e+000 5.270939e-001 4.729061e-001 0.000000e+000 0.000000e+000
 0.000000e+000 0.000000e+000 4.342150e-001 5.657849e-001 0.000000e+000
 0.000000e+000 0.000000e+000 0.000000e+000 3.279746e-001 6.720254e-001
 0.000000e+000 0.000000e+000 0.000000e+000 0.000000e+000 0.000000e+000
<ENDHMM>
~h "f"
<BEGINHMM>
<NUMSTATES> 5
<STATE> 2
<MEAN> 25
 -9.775496e+000 5.594478e-001 -6.169144e-001 6.025710e+000 4.111463e+000 4.135872e+000 3.586580e-001 3.319077e+000 1.529121e+000 -2.003127e+000 -8.844168e-001 5.389478e-002 -6.412905e-001 -1.554137e+000 -8.114118e-001 -2.216293e-001 -4.226169e-001 2.704554e-001 -5.396789e-001 2.356052e-001 4.321472e-001 1.358956e-001 6.237261e-002 1.300193e-001 2.404335e-001
<VARIANCE> 25
 1.524377e+001 2.442637e+001 2.516432e+001 2.068103e+001 1.250101e+001 2.459952e+001 2.594928e+001 2.297826e+001 2.285979e+001 2.480382e+001 3.365406e+001 1.866434e+001 3.938053e+000 1.740035e+000 2.450143e+000 2.546291e+000 1.913204e+000 2.422571e+000 2.128484e+000 2.841087e+000 2.174191e+000 2.033331e+000 2.415418e+000 1.705433e+000 1.507427e+000
<GCONST> 9.342477e+001
<STATE> 3
<MEAN> 25
 -9.433190e+000 -3.952437e+000 -4.532143e+000 2.677748e+000 2.230883e+000 2.559134e+000 -7.033232e-001 3.284833e+000 3.111723e+000 -2.455086e-002 -2.634086e-001 -8.976272e-003 3.387061e+000 -1.106115e+000 -1.331573e+000 -1.753381e+000 -1.951293e+000 -1.044816e+000 -1.667712e+000 -1.690784e+000 -8.575450e-002 8.312988e-001 6.103134e-001 -3.659020e-001 1.289217e+000
<VARIANCE> 25
 7.745342e+000 1.250474e+001 1.886354e+001 1.726326e+001 1.788742e+001 2.733544e+001 2.918350e+001 2.377116e+001 1.945581e+001 2.500165e+001 2.973411e+001 1.743319e+001 2.427472e+000 1.983628e+000 2.214422e+000 2.685658e+000 2.388433e+000 3.449107e+000 2.325873e+000 2.687099e+000 2.533892e+000 2.416887e+000 3.857806e+000 1.764777e+000 1.300174e+000
<GCONST> 9.276691e+001
<STATE> 4
<MEAN> 25
 1.064648e+000 -4.145558e+000 -7.327931e+000 -2.040509e+000 -3.219653e+000 4.106785e-002 -5.388626e+000 -3.592370e+000 1.199623e+000 1.279867e+000 1.292293e+000 -3.846209e-001 4.434067e+000 -2.333539e-001 -2.973258e-001 -1.146006e-001 -1.461375e+000 -3.655137e-001 -9.644212e-001 -2.036988e+000 -2.170248e-001 9.493607e-001 7.251163e-001 8.469869e-002 1.684488e+000
<VARIANCE> 25
 2.597759e+001 1.012457e+001 2.539739e+001 2.241512e+001 2.105459e+001 4.101540e+001 2.578643e+001 3.401333e+001 1.975687e+001 2.677717e+001 1.787453e+001 1.641867e+001 9.215524e-001 2.036358e+000 1.860342e+000 3.487903e+000 2.854475e+000 3.475976e+000 3.963143e+000 3.299714e+000 2.750955e+000 3.691422e+000 3.587034e+000 2.212093e+000 9.877668e-001
<GCONST> 9.509610e+001
<TRANSP> 5
 0.000000e+000 1.000000e+000 0.000000e+000 0.000000e+000 0.000000e+000
 0.000000e+000 6.868990e-001 3.131010e-001 0.000000e+000 0.000000e+000
 0.000000e+000 0.000000e+000 4.362229e-001 5.637771e-001 0.000000e+000
 0.000000e+000 0.000000e+000 0.000000e+000 3.378702e-001 6.621298e-001
 0.000000e+000 0.000000e+000 0.000000e+000 0.000000e+000 0.000000e+000
<ENDHMM>
~h "g"
<BEGINHMM>
<NUMSTATES> 5
<STATE> 2
<MEAN> 25
 5.860706e+000 8.662714e+000 1.867770e+000 -5.840551e-001 -1.352715e+000 8.294753e-001 2.193243e+000 -8.704390e-002 -2.428073e+000 -1.944006e+000 -9.305439e-002 -1.027520e+000 -9.414710e-001 -2.810508e-001 -1.441486e-001 1.132959e+000 1.026042e+000 1.420407e-001 -1.440392e-001 -2.159709e-001 6.446541e-001 -5.071957e-002 -4.258969e-001 9.661741e-002 -6.146739e-001
<VARIANCE> 25
 1.400186e+001 1.791048e+001 2.795097e+001 3.243727e+001 2.873152e+001 3.566277e+001 3.003614e+001 3.490854e+001 3.807884e+001 3.880186e+001 3.654463e+001 2.813730e+001 1.022360e+000 2.241431e+000 2.688355e+000 2.916855e+000 2.985033e+000 3.919797e+000 3.361062e+000 3.644429e+000 3.689033e+000 3.590326e+000 3.826548e+000 2.398730e+000 1.408072e+000
<GCONST> 9.939876e+001
<STATE> 3
<MEAN> 25
 3.717453e+000 6.529181e+000 -7.395677e-002 9.150633e-001 1.573666e+000 2.393524e+000 6.453136e-001 -5.693286e-001 -2.740571e+000 -1.035789e+000 4.082378e-001 -6.545092e-001 -1.164727e+000 -2.012976e+000 -1.608376e+000 -2.329189e-001 8.866607e-001 6.448714e-001 -9.393296e-001 -4.720159e-001 -4.206395e-001 6.670581e-001 5.557392e-001 3.424278e-001 1.550276e+000
<VARIANCE> 25
 1.570434e+001 2.331150e+001 4.745599e+001 3.678993e+001 3.798289e+001 4.750538e+001 3.206890e+001 3.765578e+001 4.045773e+001 3.641803e+001 3.329074e+001 2.365154e+001 2.122624e+000 3.956509e+000 5.907366e+000 5.782021e+000 4.583358e+000 6.676067e+000 4.827938e+000 5.169569e+000 5.734504e+000 4.952780e+000 4.671373e+000 3.379943e+000 2.333734e+000
<GCONST> 1.071236e+002
<STATE> 4
<MEAN> 25
 1.466609e+000 2.357761e-001 -3.720904e+000 -8.908086e-001 2.134891e+000 2.236834e+000 -2.278642e+000 -1.752586e+000 -3.986649e+000 1.667582e+000 2.667058e+000 2.093400e-001 -2.905611e-001 -1.500148e+000 -1.277218e-001 -6.984326e-001 -7.560022e-001 -7.341670e-001 -7.291785e-001 -7.582990e-001 -2.606068e-002 9.272814e-001 6.719873e-001 6.254137e-002 2.041388e+000
<VARIANCE> 25
 2.899154e+001 3.892837e+001 7.284881e+001 6.482925e+001 5.493337e+001 7.721809e+001 5.257938e+001 5.103557e+001 5.275855e+001 4.956259e+001 3.953891e+001 2.777444e+001 3.157040e+000 3.900821e+000 3.947166e+000 4.773078e+000 5.033350e+000 5.202820e+000 5.047601e+000 5.584871e+000 5.504014e+000 5.064519e+000 5.535790e+000 3.514265e+000 2.816761e+000
<GCONST> 1.119362e+002
<TRANSP> 5
 0.000000e+000 1.000000e+000 0.000000e+000 0.000000e+000 0.000000e+000
 0.000000e+000 3.198003e-001 6.801997e-001 0.000000e+000 0.000000e+000
 0.000000e+000 0.000000e+000 2.211248e-001 7.788752e-001 0.000000e+000
 0.000000e+000 0.000000e+000 0.000000e+000 4.035181e-001 5.964819e-001
 0.000000e+000 0.000000e+000 0.000000e+000 0.000000e+000 0.000000e+000
<ENDHMM>
~h "h"
<BEGINHMM>
<NUMSTATES> 5
<STATE> 2
<MEAN> 25
 -3.590930e+000 3.249393e+000 7.171921e+000 4.786725e+000 2.010920e+000 -9.302771e-001 1.765528e+000 1.960589e+000 -2.718720e+000 5.241621e-001 3.109006e-001 3.460554e-001 -1.513556e+000 -1.269732e+000 -1.590633e+000 2.542610e-001 2.072336e+000 3.864675e-001 -3.499210e-001 8.965402e-001 1.236573e+000 -1.047066e-001 -5.537645e-002 4.362004e-001 1.329059e-001
<VARIANCE> 25
 3.129397e+001 3.408647e+001 6.070842e+001 3.109088e+001 3.640594e+001 4.658097e+001 3.638822e+001 4.768220e+001 3.918911e+001 3.327168e+001 2.827622e+001 2.268458e+001 2.090741e+000 3.040016e+000 4.892937e+000 3.105994e+000 4.735991e+000 4.362525e+000 4.303626e+000 4.507353e+000 4.253228e+000 3.561097e+000 3.707254e+000 2.410678e+000 1.939012e+000
<GCONST> 1.051278e+002
<STATE> 3
<MEAN> 25
 -5.248355e+000 -1.296264e+000 2.234319e-001 3.897638e+000 6.984597e+000 6.685801e-001 -1.355780e+000 3.014447e+000 2.881681e-001 1.127672e+000 -6.097679e-001 5.567808e-001 -7.800710e-001 -1.052836e+000 -1.583014e+000 -7.763445e-001 7.131572e-001 7.452988e-001 -3.968909e-001 -4.256010e-001 8.675946e-001 5.260724e-001 4.181036e-002 -2.127440e-002 2.469283e-001
<VARIANCE> 25
 2.516204e+001 3.536709e+001 7.449008e+001 3.154716e+001 5.292818e+001 5.472859e+001 5.431945e+001 4.885730e+001 3.829176e+001 4.277974e+001 3.483377e+001 2.416296e+001 2.164886e+000 2.157085e+000 4.368629e+000 2.369535e+000 3.742790e+000 4.610765e+000 4.087327e+000 3.521711e+000 3.623980e+000 3.704695e+000 3.072096e+000 2.746626e+000 2.061080e+000
<GCONST> 1.053385e+002
<STATE> 4
<MEAN> 25
 -8.265114e+000 -2.328991e+000 1.474815e+000 -8.956538e-001 2.871174e+000 2.488238e+000 1.315297e+000 3.462119e-001 5.284874e-001 2.426462e+000 1.904270e-001 1.152481e+000 7.275217e-001 1.994254e-001 1.425592e-001 -6.328518e-001 -1.067280e+000 -2.542005e-001 -4.506515e-002 -7.520570e-001 -3.622906e-001 -3.572582e-001 2.471178e-002 9.791400e-002 4.538535e-002
<VARIANCE> 25
 3.805605e+001 3.327808e+001 9.331933e+001 3.052458e+001 5.555292e+001 5.263392e+001 5.022124e+001 4.067380e+001 4.043934e+001 3.548224e+001 3.847839e+001 2.428437e+001 3.680695e+000 2.084627e+000 3.000448e+000 2.965667e+000 3.835527e+000 4.517725e+000 3.996129e+000 3.607552e+000 3.965274e+000 3.316979e+000 3.156346e+000 2.197840e+000 1.496585e+000
<GCONST> 1.054179e+002
<TRANSP> 5
 0.000000e+000 1.000000e+000 0.000000e+000 0.000000e+000 0.000000e+000
 0.000000e+000 3.743207e-001 6.256794e-001 0.000000e+000 0.000000e+000
 0.000000e+000 0.000000e+000 3.781490e-001 6.218510e-001 0.000000e+000
 0.000000e+000 0.000000e+000 0.000000e+000 6.833904e-001 3.166096e-001
 0.000000e+000 0.000000e+000 0.000000e+000 0.000000e+000 0.000000e+000
<ENDHMM>
~h "i"
<BEGINHMM>
<NUMSTATES> 5
<STATE> 2
<MEAN> 25
 -5.272132e-001 -1.506133e-001 1.019701e+001 7.518650e-001 -9.345377e+000 -4.597826e+000 -8.276951e-001 -2.338229e+000 -7.487833e+000 9.077439e-001 2.186518e+000 9.570090e-001 4.031056e-001 3.467157e-001 1.943716e+000 -5.113686e-001 -1.924530e+000 4.063277e-002 -1.121404e-001 -1.037129e+000 -1.679760e+000 1.059675e+000 -1.151624e-002 -1.093706e-001 8.973531e-001
<VARIANCE> 25
 1.423875e+001 2.030002e+001 2.422510e+001 2.991923e+001 2.707503e+001 4.503757e+001 3.584336e+001 5.012955e+001 3.456208e+001 4.222776e+001 3.055475e+001 2.066229e+001 3.639349e+000 2.109300e+000 2.764260e+000 3.157114e+000 3.434149e+000 4.608283e+000 4.623082e+000 4.430686e+000 3.864480e+000 3.882767e+000 4.148934e+000 2.446498e+000 1.891958e+000
<GCONST> 1.021823e+002
<STATE> 3
<MEAN> 25
 -8.069471e-001 2.731784e+000 1.340133e+001 -1.736063e+000 -1.045872e+001 -6.028395e-001 -1.275703e+000 -6.153893e+000 -7.430080e+000 3.598710e+000 -3.871554e-001 5.562738e-001 1.881027e-001 5.371050e-001 -1.405006e-002 4.363640e-001 3.329125e-001 9.324846e-002 1.711282e-001 -3.690680e-002 2.263862e-001 -1.447273e-001 -1.142395e-001 -5.498140e-002 -5.076064e-001
<VARIANCE> 25
 8.223290e+000 2.194890e+001 2.196876e+001 3.803481e+001 2.411752e+001 5.473118e+001 3.591003e+001 4.454652e+001 3.857776e+001 4.703917e+001 3.828664e+001 2.443675e+001 1.013301e+000 1.533936e+000 1.476457e+000 1.933125e+000 1.846255e+000 2.460273e+000 2.207372e+000 2.375782e+000 1.945942e+000 2.034870e+000 1.988317e+000 1.387362e+000 1.073868e+000
<GCONST> 9.390104e+001
<STATE> 4
<MEAN> 25
 8.971276e-001 4.010820e+000 9.442300e+000 3.903955e+000 -5.547623e+000 -3.922738e+000 5.287047e-001 -2.440382e+000 -4.978895e+000 1.137707e-001 1.202523e+000 5.533487e-001 1.693392e-002 7.383482e-001 -1.286774e+000 7.995090e-001 2.109256e+000 1.768257e-001 9.165650e-002 4.328704e-001 1.405917e+000 -6.204224e-001 -1.904756e-001 -1.406104e-001 -1.496160e+000
<VARIANCE> 25
 1.318528e+001 2.722519e+001 2.304703e+001 2.741098e+001 3.534566e+001 4.265628e+001 3.686209e+001 3.945633e+001 3.799569e+001 3.632683e+001 2.646296e+001 2.063190e+001 2.054570e+000 2.684546e+000 2.308246e+000 2.723305e+000 2.970554e+000 3.854468e+000 3.746358e+000 4.029180e+000 3.447681e+000 3.582719e+000 3.493803e+000 2.468766e+000 1.947818e+000
<GCONST> 1.004455e+002
<TRANSP> 5
 0.000000e+000 1.000000e+000 0.000000e+000 0.000000e+000 0.000000e+000
 0.000000e+000 5.094785e-001 4.905215e-001 0.000000e+000 0.000000e+000
 0.000000e+000 0.000000e+000 6.612360e-001 3.387639e-001 0.000000e+000
 0.000000e+000 0.000000e+000 0.000000e+000 6.037766e-001 3.962233e-001
 0.000000e+000 0.000000e+000 0.000000e+000 0.000000e+000 0.000000e+000
<ENDHMM>
~h "j"
<BEGINHMM>
<NUMSTATES> 5
<STATE> 2
<MEAN> 25
 -1.186578e+000 2.046058e+000 1.097188e+001 -8.775339e-001 -8.008213e+000 -1.615633e+000 -1.179477e+000 -2.452695e+000 -5.150156e+000 6.120266e-001 7.880421e-001 5.766636e-001 -5.579812e-002 2.187977e-002 1.451736e+000 -7.253990e-001 -1.611429e+000 -8.049288e-002 -4.349863e-001 -4.388166e-001 -6.780922e-001 6.773837e-001 2.635154e-001 3.071723e-001 7.997853e-001
<VARIANCE> 25
 1.425577e+001 3.450940e+001 3.512787e+001 3.683961e+001 3.044023e+001 4.428587e+001 3.663335e+001 4.612131e+001 3.454001e+001 3.649731e+001 2.486928e+001 2.080156e+001 3.257741e+000 2.912326e+000 3.193856e+000 3.253238e+000 3.943180e+000 3.785086e+000 3.872074e+000 3.672263e+000 3.494358e+000 3.233349e+000 2.616842e+000 2.081124e+000 2.564784e+000
<GCONST> 1.023475e+002
<STATE> 3
<MEAN> 25
 -8.987862e-001 5.821492e-002 1.068529e+001 -2.346451e+000 -1.094909e+001 -2.872313e+000 -3.154271e-001 -2.884200e+000 -5.181424e+000 3.468722e+000 1.870315e+000 1.559923e+000 3.486841e-001 -9.536551e-001 -1.065345e+000 2.359317e-001 -2.629433e-001 -1.021985e+000 5.656387e-001 1.140255e+000 4.234641e-001 2.495672e-001 3.677136e-001 2.113521e-001 4.760283e-001
<VARIANCE> 25
 6.981982e+000 1.768003e+001 2.351996e+001 3.352095e+001 2.114590e+001 3.837274e+001 3.055652e+001 3.556669e+001 3.167442e+001 3.817902e+001 2.491766e+001 2.028531e+001 7.594928e-001 1.530050e+000 2.010392e+000 1.661429e+000 1.450304e+000 2.142643e+000 2.491731e+000 2.571505e+000 2.088560e+000 1.905126e+000 1.482464e+000 1.260484e+000 8.825637e-001
<GCONST> 9.067455e+001
<STATE> 4
<MEAN> 25
 8.243786e-001 -3.484895e+000 5.052290e+000 -1.265406e-001 -8.732653e+000 -6.445874e+000 1.237847e+000 3.172425e+000 -2.998396e+000 1.555984e+000 1.758800e+000 1.748540e+000 6.648895e-001 -7.778511e-001 -2.083418e+000 3.943253e-001 1.695330e+000 -2.102515e-001 -2.161229e-001 1.214678e+000 1.237936e+000 -6.083148e-001 -7.674662e-001 -1.567240e-001 -4.094543e-002
<VARIANCE> 25
 7.031571e+000 1.631121e+001 2.240762e+001 3.069184e+001 2.382873e+001 3.391718e+001 5.199160e+001 3.220376e+001 3.447610e+001 3.222538e+001 2.723659e+001 1.695891e+001 5.686699e-001 1.516197e+000 2.563536e+000 1.731293e+000 2.153502e+000 2.407992e+000 3.648458e+000 3.325926e+000 2.859001e+000 3.236587e+000 2.063962e+000 1.744914e+000 8.720810e-001
<GCONST> 9.334234e+001
<TRANSP> 5
 0.000000e+000 1.000000e+000 0.000000e+000 0.000000e+000 0.000000e+000
 0.000000e+000 5.576186e-001 4.423814e-001 0.000000e+000 0.000000e+000
 0.000000e+000 0.000000e+000 5.709442e-001 4.290558e-001 0.000000e+000
 0.000000e+000 0.000000e+000 0.000000e+000 4.818462e-001 5.181538e-001
 0.000000e+000 0.000000e+000 0.000000e+000 0.000000e+000 0.000000e+000
<ENDHMM>
~h "k"
<BEGINHMM>
<NUMSTATES> 5
<STATE> 2
<MEAN> 25
 -3.973637e+000 8.369572e-001 -2.476825e+000 3.708988e+000 5.530734e+000 9.102272e-001 1.257832e+000 2.897321e+000 2.659161e+000 9.180935e-002 -4.956878e-001 -3.918664e-001 -1.126599e+000 -2.652152e+000 -1.865740e+000 -7.771342e-001 3.845314e-001 2.953054e-001 -9.660681e-001 8.549199e-002 -6.639355e-001 6.380515e-001 3.490306e-001 8.703519e-001 1.898391e+000
<VARIANCE> 25
 2.599335e+001 3.924825e+001 3.998397e+001 3.578056e+001 4.268739e+001 4.088892e+001 4.189487e+001 4.198555e+001 4.005251e+001 3.298626e+001 3.376884e+001 2.409201e+001 3.645782e+000 3.838625e+000 5.559160e+000 4.706141e+000 5.801821e+000 7.082451e+000 4.796562e+000 4.679436e+000 4.696972e+000 4.263468e+000 3.369324e+000 3.332454e+000 4.008645e+000
<GCONST> 1.084993e+002
<STATE> 3
<MEAN> 25
 -6.674782e+000 -6.334044e+000 -9.484247e+000 -3.454658e-001 6.081891e+000 1.724663e+000 -1.883641e+000 2.213238e+000 7.737145e-001 2.809284e+000 1.338924e+000 2.026288e+000 5.069082e-001 -1.146113e+000 -7.811331e-001 -2.093878e+000 -1.451813e+000 -4.645947e-001 -8.927341e-001 -4.923978e-001 -1.108059e+000 6.930323e-001 4.865710e-001 1.953715e-001 2.167377e+000
<VARIANCE> 25
 1.742145e+001 2.982191e+001 6.136992e+001 4.742104e+001 5.528474e+001 7.683309e+001 4.700441e+001 4.454807e+001 4.492894e+001 3.427574e+001 3.658852e+001 2.782367e+001 4.153579e+000 2.794177e+000 5.066319e+000 3.700137e+000 4.528281e+000 5.499643e+000 4.259435e+000 4.105323e+000 4.634076e+000 3.805263e+000 3.814988e+000 2.922643e+000 2.334208e+000
<GCONST> 1.080298e+002
<STATE> 4
<MEAN> 25
 -3.553121e+000 -3.060461e+000 -5.675559e+000 -4.046966e+000 1.073100e+000 -3.499869e-001 -2.326286e+000 2.033293e-001 -1.484077e+000 2.423382e+000 1.672440e+000 6.689181e-001 2.375997e+000 9.922389e-001 1.730136e+000 -9.878075e-001 -1.877133e+000 -7.491264e-001 -3.189694e-001 -8.270769e-001 -1.191769e+000 -2.146292e-001 2.339530e-001 -7.802914e-001 1.319852e+000
<VARIANCE> 25
 4.075997e+001 2.211995e+001 7.141103e+001 3.919002e+001 4.071515e+001 7.382459e+001 4.159058e+001 4.214263e+001 4.296769e+001 3.583735e+001 4.124694e+001 2.638490e+001 2.456734e+000 3.053992e+000 3.333620e+000 3.621268e+000 3.624175e+000 4.261897e+000 4.420589e+000 4.681926e+000 4.974622e+000 4.234579e+000 5.458950e+000 2.964146e+000 2.300460e+000
<GCONST> 1.074351e+002
<TRANSP> 5
 0.000000e+000 1.000000e+000 0.000000e+000 0.000000e+000 0.000000e+000
 0.000000e+000 5.202564e-001 4.797436e-001 0.000000e+000 0.000000e+000
 0.000000e+000 0.000000e+000 3.588351e-001 6.411650e-001 0.000000e+000
 0.000000e+000 0.000000e+000 0.000000e+000 5.246431e-001 4.753568e-001
 0.000000e+000 0.000000e+000 0.000000e+000 0.000000e+000 0.000000e+000
<ENDHMM>
~h "l"
<BEGINHMM>
<NUMSTATES> 5
<STATE> 2
<MEAN> 25
 3.803311e+000 -3.464453e+000 -1.560149e+000 -1.972947e+000 -2.744168e+000 2.784117e+000 -2.103511e+000 -8.126923e+000 -1.058382e+000 3.093225e+000 3.988928e+000 5.570897e-003 1.648103e+000 3.266649e-002 4.628692e-001 -1.004467e+000 -4.567962e-001 3.425561e-001 -7.161127e-001 -1.888957e+000 -5.749151e-001 1.012531e+000 1.993049e-001 1.032955e-001 3.868399e-001
<VARIANCE> 25
 3.580264e+001 2.037911e+001 3.851728e+001 3.434687e+001 3.346573e+001 5.095957e+001 5.245588e+001 4.372617e+001 4.672991e+001 3.732278e+001 3.709086e+001 2.920748e+001 3.546189e+000 2.813339e+000 3.252239e+000 5.388936e+000 4.691093e+000 5.901907e+000 5.466877e+000 5.032448e+000 5.007665e+000 4.557806e+000 5.217051e+000 3.419515e+000 2.542255e+000
<GCONST> 1.081001e+002
<STATE> 3
<MEAN> 25
 5.959964e+000 -3.064097e+000 -9.065088e-001 -3.650043e+000 -2.513478e+000 3.730062e+000 -2.890346e+000 -9.479833e+000 -1.608303e+000 4.533229e+000 3.915034e+000 1.809723e-001 5.088899e-001 -1.530759e-001 -9.316383e-002 -9.862249e-001 3.901846e-001 2.437427e-001 -6.398764e-001 6.439113e-001 4.034728e-001 2.110386e-001 -5.614666e-001 -1.340237e-001 6.631578e-001
<VARIANCE> 25
 2.123481e+001 1.856498e+001 3.807276e+001 3.885923e+001 3.709959e+001 4.783998e+001 5.908493e+001 4.350511e+001 4.964649e+001 4.142522e+001 4.297656e+001 2.742425e+001 2.209570e+000 1.682364e+000 3.077701e+000 3.540268e+000 3.711684e+000 4.837329e+000 4.030591e+000 4.646806e+000 4.763562e+000 3.652070e+000 3.822397e+000 3.513494e+000 1.365881e+000
<GCONST> 1.045424e+002
<STATE> 4
<MEAN> 25
 4.970025e+000 -4.257022e+000 -2.211952e+000 -5.213171e+000 -1.605198e-001 3.324306e+000 -4.491860e+000 -4.705869e+000 1.632317e+000 3.779894e+000 1.342433e+000 -1.118040e+000 -3.049293e-001 -4.289114e-001 -7.166564e-001 -1.560430e-001 5.674971e-001 -3.211036e-001 5.515327e-001 2.172775e+000 3.058416e-001 -7.496716e-001 -9.563951e-001 -3.723207e-001 7.103802e-001
<VARIANCE> 25
 1.565204e+001 1.773613e+001 4.576302e+001 4.286615e+001 3.818312e+001 5.743705e+001 5.337738e+001 4.303337e+001 4.341956e+001 3.891736e+001 4.194125e+001 3.133911e+001 1.164996e+000 1.725601e+000 2.762194e+000 3.385537e+000 4.106888e+000 5.581754e+000 4.647656e+000 4.900433e+000 4.408840e+000 3.651550e+000 3.801344e+000 3.171558e+000 6.499596e-001
<GCONST> 1.032298e+002
<TRANSP> 5
 0.000000e+000 1.000000e+000 0.000000e+000 0.000000e+000 0.000000e+000
 0.000000e+000 2.975248e-001 7.024751e-001 0.000000e+000 0.000000e+000
 0.000000e+000 0.000000e+000 2.671336e-001 7.328663e-001 0.000000e+000
 0.000000e+000 0.000000e+000 0.000000e+000 3.828701e-001 6.171299e-001
 0.000000e+000 0.000000e+000 0.000000e+000 0.000000e+000 0.000000e+000
<ENDHMM>
~h "m"
<BEGINHMM>
<NUMSTATES> 5
<STATE> 2
<MEAN> 25
 7.285212e+000 1.197990e+000 1.219867e+000 4.590664e+000 1.837932e+000 -1.027439e+000 1.441653e+000 -6.774607e+000 -5.255702e+000 8.672190e-001 3.976687e-001 -3.257886e+000 2.623380e-001 8.125567e-001 6.858957e-001 1.425820e+000 3.640374e-001 -5.446399e-001 3.169940e-001 -1.469357e+000 -8.490684e-001 2.537941e-001 1.086615e-001 -3.243376e-001 -6.098458e-001
<VARIANCE> 25
 7.023787e+000 1.826878e+001 1.419465e+001 2.309991e+001 2.888593e+001 3.264022e+001 3.555159e+001 4.111020e+001 3.775973e+001 3.462922e+001 3.164939e+001 2.592168e+001 7.612309e-001 1.697417e+000 1.634633e+000 2.027480e+000 2.259780e+000 2.703790e+000 2.544620e+000 3.178281e+000 3.128568e+000 2.450228e+000 2.430327e+000 2.140984e+000 1.497643e+000
<GCONST> 9.406068e+001
<STATE> 3
<MEAN> 25
 7.120505e+000 2.752931e+000 2.390281e+000 5.860581e+000 2.495503e+000 -1.186271e+000 1.711184e+000 -7.498164e+000 -5.424221e+000 3.597363e-001 -8.612192e-002 -2.974305e+000 -3.248369e-001 -9.007893e-003 2.864598e-001 -2.861474e-001 -8.178093e-002 3.132699e-001 -2.300760e-001 8.696548e-001 3.484996e-001 -5.483208e-001 -1.746963e-001 2.889009e-001 9.688919e-002
<VARIANCE> 25
 7.129930e+000 2.006208e+001 1.412458e+001 2.407049e+001 2.703742e+001 3.547763e+001 3.377388e+001 4.263432e+001 4.156776e+001 3.690247e+001 3.618710e+001 2.684185e+001 5.629877e-001 1.700327e+000 1.403133e+000 1.558151e+000 1.794887e+000 1.959626e+000 2.166341e+000 2.633020e+000 2.494804e+000 2.038419e+000 2.088197e+000 1.758894e+000 1.471285e+000
<GCONST> 9.214261e+001
<STATE> 4
<MEAN> 25
 5.921039e+000 -1.479986e-001 1.744186e+000 3.123202e+000 1.754130e+000 -1.333958e-002 -2.974074e-001 -2.638214e+000 -3.545264e+000 -1.557447e+000 -4.063232e-001 -2.259094e+000 -1.223449e+000 -1.123144e+000 3.253036e-001 -1.860065e+000 -1.111346e+000 9.281188e-001 -4.104963e-001 2.398643e+000 9.757107e-001 -5.440212e-001 -5.672133e-001 6.549081e-001 1.436288e+000
<VARIANCE> 25
 8.927492e+000 3.173637e+001 2.494865e+001 3.244813e+001 2.955812e+001 3.870780e+001 3.249628e+001 4.874625e+001 4.071014e+001 3.473310e+001 3.249102e+001 2.343832e+001 1.209668e+000 2.084837e+000 5.211407e+000 3.492241e+000 4.972979e+000 3.963237e+000 3.958474e+000 4.815615e+000 5.365040e+000 4.073208e+000 3.769856e+000 3.285768e+000 1.214290e+000
<GCONST> 1.021400e+002
<TRANSP> 5
 0.000000e+000 1.000000e+000 0.000000e+000 0.000000e+000 0.000000e+000
 0.000000e+000 5.620108e-001 4.379892e-001 0.000000e+000 0.000000e+000
 0.000000e+000 0.000000e+000 5.261869e-001 4.738131e-001 0.000000e+000
 0.000000e+000 0.000000e+000 0.000000e+000 4.545126e-001 5.454875e-001
 0.000000e+000 0.000000e+000 0.000000e+000 0.000000e+000 0.000000e+000
<ENDHMM>
~h "n"
<BEGINHMM>
<NUMSTATES> 5
<STATE> 2
<MEAN> 25
 5.988419e+000 1.685220e+000 2.702160e+000 4.474976e+000 -1.617596e-002 -2.944848e+000 1.555086e+000 -5.528987e+000 -2.128769e+000 5.717091e-001 -4.859707e+000 -5.473773e-001 4.785522e-001 5.418295e-001 5.316638e-001 6.499158e-001 7.083982e-002 -4.530922e-001 1.749617e-001 -1.083678e+000 -5.363577e-001 2.680885e-001 -6.208329e-001 1.266547e-001 3.226534e-002
<VARIANCE> 25
 9.837418e+000 1.771043e+001 1.687754e+001 2.132633e+001 2.880290e+001 3.245218e+001 3.204310e+001 4.501693e+001 3.779229e+001 3.823113e+001 3.495061e+001 3.007033e+001 1.290978e+000 2.371893e+000 2.110051e+000 1.879720e+000 2.629002e+000 3.078598e+000 2.918194e+000 3.922574e+000 3.166015e+000 2.762907e+000 2.909332e+000 2.361760e+000 2.679992e+000
<GCONST> 9.744841e+001
<STATE> 3
<MEAN> 25
 6.280789e+000 1.053278e+000 2.897404e+000 4.923873e+000 6.162765e-001 -2.363091e+000 1.215914e+000 -6.268949e+000 -2.263299e+000 1.158676e+000 -5.233733e+000 -1.796810e-001 -2.978437e-001 -1.224017e+000 -5.444869e-001 -8.770946e-001 4.665352e-001 1.175079e+000 -7.972842e-001 1.011598e+000 4.046769e-001 -4.437298e-001 1.347333e-001 6.627041e-002 1.229141e+000
<VARIANCE> 25
 7.311877e+000 1.871512e+001 1.681658e+001 2.237139e+001 2.936980e+001 3.463923e+001 3.095897e+001 4.708014e+001 3.797606e+001 3.898394e+001 3.412979e+001 3.064908e+001 8.395218e-001 2.548928e+000 2.356982e+000 1.963153e+000 2.366277e+000 3.273255e+000 2.961236e+000 3.875851e+000 3.434497e+000 2.689548e+000 2.538499e+000 2.219606e+000 1.606135e+000
<GCONST> 9.646439e+001
<STATE> 4
<MEAN> 25
 4.748629e+000 -3.661279e+000 3.806769e-001 8.361439e-001 2.059259e+000 1.471751e+000 -2.108877e+000 -9.152368e-001 -1.752421e-002 -1.419987e+000 -4.651964e+000 -3.885140e-001 -6.998703e-001 -1.466258e+000 -1.309655e+000 -1.754944e+000 3.295164e-001 1.642183e+000 -3.229818e-001 2.058071e+000 2.901130e-001 -8.386448e-001 5.513381e-001 -8.055200e-002 1.582018e+000
<VARIANCE> 25
 9.328176e+000 2.856961e+001 2.737294e+001 2.430087e+001 2.991183e+001 4.189009e+001 3.763689e+001 5.316027e+001 3.624342e+001 3.889322e+001 3.158271e+001 2.710848e+001 1.077207e+000 2.879011e+000 2.946103e+000 2.617904e+000 3.652657e+000 4.334064e+000 4.016238e+000 4.293881e+000 4.557956e+000 3.629582e+000 3.069669e+000 2.753324e+000 1.179526e+000
<GCONST> 1.006602e+002
<TRANSP> 5
 0.000000e+000 1.000000e+000 0.000000e+000 0.000000e+000 0.000000e+000
 0.000000e+000 4.860116e-001 5.139884e-001 0.000000e+000 0.000000e+000
 0.000000e+000 0.000000e+000 3.608562e-001 6.391438e-001 0.000000e+000
 0.000000e+000 0.000000e+000 0.000000e+000 4.005928e-001 5.994072e-001
 0.000000e+000 0.000000e+000 0.000000e+000 0.000000e+000 0.000000e+000
<ENDHMM>
~h "o"
<BEGINHMM>
<NUMSTATES> 5
<STATE> 2
<MEAN> 25
 5.994306e+000 -2.453640e+000 -7.105275e+000 -8.016230e+000 3.081368e-001 7.248695e+000 -3.341687e+000 -2.348629e+000 -1.079984e+000 2.099689e+000 2.698276e+000 -1.490306e+000 7.428427e-001 3.363276e-001 -4.470347e-001 -1.628503e+000 -5.920309e-002 1.362938e+000 3.540101e-001 -2.830464e-002 -5.544783e-001 1.405287e-001 8.517175e-001 -7.369646e-003 3.538281e-001
<VARIANCE> 25
 9.289915e+000 2.172728e+001 1.774538e+001 4.435799e+001 3.950619e+001 4.195117e+001 4.353362e+001 3.433702e+001 4.180930e+001 4.589725e+001 4.310217e+001 2.693708e+001 1.342705e+000 1.456277e+000 2.030084e+000 3.241984e+000 2.893322e+000 2.961474e+000 3.050873e+000 3.524456e+000 3.324866e+000 3.233475e+000 2.824383e+000 2.291425e+000 1.688208e+000
<GCONST> 9.910636e+001
<STATE> 3
<MEAN> 25
 6.815754e+000 -7.649188e-001 -6.936789e+000 -1.124730e+001 -1.168686e-001 9.968589e+000 -6.898454e-001 -2.383699e+000 -2.820578e+000 9.521030e-001 4.417477e+000 1.322983e-002 8.801371e-003 4.619726e-001 4.001032e-001 6.204761e-001 3.884837e-001 -3.893950e-001 -3.228500e-002 -2.906232e-001 1.072145e-002 3.072223e-001 3.695383e-002 -7.683072e-002 -4.885857e-001
<VARIANCE> 25
 7.552778e+000 1.897463e+001 1.753405e+001 4.229182e+001 4.236264e+001 3.649417e+001 4.336239e+001 3.476375e+001 3.683676e+001 4.629839e+001 3.964513e+001 2.771284e+001 4.613326e-001 1.534655e+000 1.018282e+000 2.421322e+000 2.090129e+000 2.112751e+000 2.731410e+000 2.226102e+000 2.630065e+000 2.591466e+000 2.120936e+000 1.845183e+000 1.080200e+000
<GCONST> 9.383394e+001
<STATE> 4
<MEAN> 25
 5.951890e+000 1.226927e+000 -3.960382e+000 -4.476411e+000 2.664818e+000 4.867286e+000 -2.781250e+000 -3.048472e+000 -3.285701e-001 3.283718e+000 2.269227e+000 -1.726659e+000 -6.891039e-001 1.246062e+000 1.435387e+000 2.054102e+000 2.689405e-001 -1.489705e+000 8.096818e-001 4.580114e-001 6.884052e-001 -5.817105e-001 -8.473577e-001 -2.624931e-002 -1.571312e+000
<VARIANCE> 25
 1.037817e+001 2.836291e+001 2.030568e+001 3.521193e+001 3.298285e+001 3.916864e+001 5.118137e+001 3.740272e+001 4.439418e+001 4.305638e+001 4.316559e+001 2.862316e+001 1.836296e+000 2.526683e+000 1.818709e+000 3.044348e+000 3.257695e+000 3.635944e+000 3.761698e+000 4.366014e+000 4.213135e+000 3.559139e+000 3.677182e+000 2.551193e+000 1.843711e+000
<GCONST> 1.016748e+002
<TRANSP> 5
 0.000000e+000 1.000000e+000 0.000000e+000 0.000000e+000 0.000000e+000
 0.000000e+000 5.094901e-001 4.905100e-001 0.000000e+000 0.000000e+000
 0.000000e+000 0.000000e+000 6.573443e-001 3.426557e-001 0.000000e+000
 0.000000e+000 0.000000e+000 0.000000e+000 5.493358e-001 4.506642e-001
 0.000000e+000 0.000000e+000 0.000000e+000 0.000000e+000 0.000000e+000
<ENDHMM>
~h "p"
<BEGINHMM>
<NUMSTATES> 5
<STATE> 2
<MEAN> 25
 7.882302e-001 5.055687e+000 4.729856e-001 1.047774e+000 1.550825e+000 6.630216e-001 2.275797e+000 2.345147e+000 3.756906e+000 -7.798558e-001 -1.732629e-001 -1.244867e+000 -1.736137e+000 -1.946308e+000 -7.247543e-001 2.280606e-002 -1.571658e-001 1.398686e-001 -8.570236e-001 -1.609965e-001 -1.535060e-001 -5.424835e-002 5.436547e-001 4.557391e-001 1.259336e+000
<VARIANCE> 25
 1.629895e+001 1.495855e+001 1.833179e+001 1.977640e+001 2.035993e+001 2.656144e+001 2.354316e+001 2.896592e+001 2.727114e+001 2.470071e+001 3.100579e+001 2.299535e+001 1.483989e+000 2.770162e+000 2.296883e+000 2.099130e+000 2.393036e+000 2.964255e+000 2.923303e+000 2.862267e+000 2.731697e+000 2.503275e+000 2.642204e+000 2.109194e+000 3.952753e+000
<GCONST> 9.532163e+001
<STATE> 3
<MEAN> 25
 -5.259121e+000 -3.891459e+000 -2.795506e+000 1.460578e+000 1.381342e+000 1.362276e+000 -1.619959e+000 1.350633e+000 2.754103e+000 -8.261679e-001 1.769782e+000 2.751731e-001 2.475748e-001 -2.654245e+000 -1.643919e+000 -1.218534e+000 -1.080005e+000 -1.979570e-001 -1.736317e+000 -7.285393e-001 -1.009675e+000 3.118740e-001 6.473456e-001 3.862301e-001 3.954671e+000
<VARIANCE> 25
 1.248301e+001 2.374469e+001 2.190981e+001 1.965553e+001 2.534192e+001 3.067594e+001 3.201099e+001 3.284636e+001 2.454411e+001 2.403697e+001 3.202116e+001 1.991727e+001 2.536661e+000 2.141338e+000 3.400434e+000 4.189595e+000 3.677251e+000 5.320399e+000 3.464134e+000 4.124498e+000 3.727821e+000 3.480981e+000 3.922582e+000 2.800111e+000 2.648333e+000
<GCONST> 1.000712e+002
<STATE> 4
<MEAN> 25
 2.207004e-001 -4.335433e+000 -6.076591e+000 -3.162293e+000 -1.144176e+000 9.765058e-001 -3.283034e+000 -4.520814e-001 -1.999926e-001 -1.036639e-001 2.367049e+000 2.707591e-001 2.609900e+000 -9.069563e-002 -5.818497e-001 -2.071285e+000 -1.244501e+000 3.583191e-001 -3.466942e-001 -6.866904e-001 -1.203891e+000 3.995568e-001 9.973009e-002 -1.796881e-002 2.580705e+000
<VARIANCE> 25
 2.251414e+001 1.868614e+001 2.652242e+001 4.286639e+001 2.970395e+001 3.989191e+001 3.178739e+001 3.189051e+001 2.694717e+001 2.498173e+001 2.744106e+001 2.110400e+001 2.156353e+000 3.672135e+000 3.885956e+000 8.892523e+000 4.084153e+000 6.235612e+000 4.344739e+000 4.536455e+000 4.259391e+000 3.987542e+000 5.280848e+000 2.801744e+000 3.146552e+000
<GCONST> 1.044005e+002
<TRANSP> 5
 0.000000e+000 1.000000e+000 0.000000e+000 0.000000e+000 0.000000e+000
 0.000000e+000 5.763538e-001 4.236462e-001 0.000000e+000 0.000000e+000
 0.000000e+000 0.000000e+000 3.180417e-001 6.819584e-001 0.000000e+000
 0.000000e+000 0.000000e+000 0.000000e+000 3.198100e-001 6.801900e-001
 0.000000e+000 0.000000e+000 0.000000e+000 0.000000e+000 0.000000e+000
<ENDHMM>
~h "r"
<BEGINHMM>
<NUMSTATES> 5
<STATE> 2
<MEAN> 25
 2.469274e+000 -3.688744e+000 -2.817762e-001 1.630492e+000 -2.769279e+000 -2.999374e+000 -4.723162e+000 8.656811e-001 4.443094e+000 7.759233e-001 -2.308599e-001 -6.882937e-002 9.216899e-001 -6.928616e-001 1.211509e+000 8.020831e-001 -8.347892e-001 3.928633e-001 -6.380712e-001 2.685094e-001 5.662335e-001 -1.970523e-001 -1.754543e-001 1.205018e-001 -2.749514e-002
<VARIANCE> 25
 1.316360e+001 1.848801e+001 3.159095e+001 2.453897e+001 2.878483e+001 4.340351e+001 3.368403e+001 3.888682e+001 3.137844e+001 3.354514e+001 2.818197e+001 2.507906e+001 2.355482e+000 2.332306e+000 3.329462e+000 3.226097e+000 3.390719e+000 4.629775e+000 3.646538e+000 4.168570e+000 3.104392e+000 3.564196e+000 3.434824e+000 2.569163e+000 1.776059e+000
<GCONST> 1.006307e+002
<STATE> 3
<MEAN> 25
 3.433180e+000 -6.040656e+000 1.256384e+000 3.001776e+000 -4.487112e+000 -1.666825e+000 -5.079728e+000 1.617101e+000 4.678301e+000 4.485072e-001 -4.687373e-001 7.724208e-001 5.546530e-001 -1.112672e+000 -8.330508e-003 -1.784098e-001 -5.946540e-001 -6.119896e-002 1.786313e-001 5.595989e-001 -4.802290e-001 1.321114e-001 -1.982623e-001 1.233422e-001 4.126683e-001
<VARIANCE> 25
 1.195278e+001 2.353382e+001 3.164854e+001 2.457054e+001 3.324027e+001 3.734061e+001 3.188452e+001 4.045195e+001 3.220443e+001 3.322204e+001 2.790353e+001 2.366145e+001 1.488617e+000 2.000878e+000 3.313887e+000 2.398599e+000 2.648627e+000 3.628810e+000 3.058429e+000 4.194408e+000 2.851346e+000 3.204058e+000 3.143962e+000 2.305259e+000 1.368505e+000
<GCONST> 9.848222e+001
<STATE> 4
<MEAN> 25
 4.373243e+000 -7.558953e+000 -6.312016e-002 1.469647e+000 -4.853536e+000 -2.457958e+000 -4.055821e+000 2.830310e+000 2.874290e+000 1.045120e+000 -7.428982e-001 3.700742e-001 2.782649e-001 -2.585364e-001 -3.227363e-001 -7.682865e-001 2.643720e-001 -8.345711e-002 8.294296e-001 2.592539e-001 -1.061368e+000 2.430376e-001 -1.188910e-001 -2.151989e-001 3.874353e-001
<VARIANCE> 25
 1.312965e+001 2.417056e+001 3.812125e+001 2.321821e+001 2.993718e+001 3.943067e+001 3.569138e+001 4.612243e+001 3.623823e+001 3.492638e+001 3.669078e+001 2.737540e+001 1.487558e+000 2.082426e+000 2.516608e+000 2.399189e+000 3.427103e+000 3.748870e+000 3.141243e+000 4.240788e+000 3.211225e+000 3.242193e+000 3.553738e+000 2.167975e+000 1.208071e+000
<GCONST> 9.967300e+001
<TRANSP> 5
 0.000000e+000 1.000000e+000 0.000000e+000 0.000000e+000 0.000000e+000
 0.000000e+000 3.932255e-001 6.067746e-001 0.000000e+000 0.000000e+000
 0.000000e+000 0.000000e+000 3.156467e-001 6.843532e-001 0.000000e+000
 0.000000e+000 0.000000e+000 0.000000e+000 2.507827e-001 7.492173e-001
 0.000000e+000 0.000000e+000 0.000000e+000 0.000000e+000 0.000000e+000
<ENDHMM>
~h "s"
<BEGINHMM>
<NUMSTATES> 5
<STATE> 2
<MEAN> 25
 -9.379199e+000 9.446694e+000 2.465761e-001 3.925174e+000 5.179472e+000 -2.635907e+000 2.204278e+000 2.491193e+000 1.294313e+000 -1.205671e+000 3.926974e-001 1.193796e+000 -4.053634e+000 2.110291e+000 -1.377470e+000 8.867372e-001 1.561429e+000 4.655059e-001 9.032707e-001 1.149010e+000 7.802449e-001 -4.710076e-001 7.251649e-001 3.341451e-002 5.218675e-002
<VARIANCE> 25
 3.722030e+001 2.671690e+001 2.928129e+001 2.913221e+001 4.288364e+001 4.259880e+001 4.866676e+001 3.866928e+001 3.260921e+001 3.336242e+001 3.732032e+001 2.893233e+001 2.006368e+000 3.424328e+000 3.046653e+000 3.017738e+000 3.536187e+000 4.627679e+000 4.222532e+000 3.919282e+000 3.049699e+000 3.163368e+000 3.999273e+000 3.387438e+000 1.123796e+000
<GCONST> 1.033616e+002
<STATE> 3
<MEAN> 25
 -1.645053e+001 9.653589e+000 -6.605862e+000 5.249401e+000 5.607864e+000 2.403964e-001 2.414937e+000 2.949579e+000 2.372911e+000 -1.790708e+000 2.007591e+000 1.243178e+000 -2.434663e-001 -8.956903e-001 -5.996897e-001 -3.176357e-003 -2.358335e-001 2.198687e-001 -1.068383e-001 -1.538548e-001 6.201002e-002 4.003328e-002 5.052693e-002 1.103742e-002 -7.064248e-001
<VARIANCE> 25
 9.999763e+000 2.278261e+001 1.868256e+001 2.845353e+001 2.866653e+001 3.441815e+001 3.281116e+001 2.871698e+001 2.736221e+001 2.482141e+001 3.915639e+001 2.740067e+001 1.282969e+000 1.750251e+000 2.029598e+000 1.462120e+000 1.962079e+000 2.160819e+000 2.479713e+000 2.229439e+000 2.097769e+000 2.098893e+000 1.908222e+000 1.649555e+000 7.997164e-001
<GCONST> 9.234943e+001
<STATE> 4
<MEAN> 25
 -1.165306e+001 2.963067e+000 -5.574761e+000 3.007806e+000 2.387210e+000 -2.602214e+000 1.746351e+000 1.140554e+000 2.038538e+000 -3.377358e-001 1.207600e+000 1.755575e+000 3.145555e+000 -1.260884e+000 9.365827e-001 -7.198668e-001 -1.344645e+000 -8.930914e-001 -8.517232e-001 -1.125338e+000 -4.478303e-001 4.381389e-001 -3.682322e-001 -1.612205e-001 3.383490e-002
<VARIANCE> 25
 4.025833e+001 3.072241e+001 2.892309e+001 2.914360e+001 4.637653e+001 4.912096e+001 5.050213e+001 3.725580e+001 3.096053e+001 2.624445e+001 3.792941e+001 2.630205e+001 3.796133e+000 2.823698e+000 2.633433e+000 2.585123e+000 3.340707e+000 4.469996e+000 4.317867e+000 4.002964e+000 3.043977e+000 2.726863e+000 3.766311e+000 2.828946e+000 2.990078e+000
<GCONST> 1.041016e+002
<TRANSP> 5
 0.000000e+000 1.000000e+000 0.000000e+000 0.000000e+000 0.000000e+000
 0.000000e+000 6.409714e-001 3.590286e-001 0.000000e+000 0.000000e+000
 0.000000e+000 0.000000e+000 7.950976e-001 2.049024e-001 0.000000e+000
 0.000000e+000 0.000000e+000 0.000000e+000 6.474008e-001 3.525993e-001
 0.000000e+000 0.000000e+000 0.000000e+000 0.000000e+000 0.000000e+000
<ENDHMM>
~h "t"
<BEGINHMM>
<NUMSTATES> 5
<STATE> 2
<MEAN> 25
 -1.928374e+000 6.409698e+000 2.113901e+000 2.792824e+000 1.404406e+000 -1.033210e+000 1.583286e+000 2.076380e+000 3.586063e+000 -4.081066e-001 6.792368e-001 -1.009655e-002 -1.546441e+000 -1.751597e+000 -7.175887e-001 -8.184549e-001 5.115007e-001 5.825419e-001 -1.276903e-003 -1.505092e-001 -2.682253e-001 -2.410920e-001 5.421938e-001 2.656836e-001 6.363273e-001
<VARIANCE> 25
 3.167594e+001 1.619873e+001 2.473026e+001 2.281328e+001 2.651173e+001 3.365594e+001 2.744275e+001 3.124843e+001 2.923856e+001 2.637613e+001 3.251156e+001 2.144885e+001 3.401024e+000 3.094645e+000 2.515040e+000 2.370594e+000 2.766421e+000 3.115964e+000 3.191147e+000 3.093399e+000 2.704863e+000 2.531546e+000 2.720025e+000 2.190718e+000 4.345880e+000
<GCONST> 9.902676e+001
<STATE> 3
<MEAN> 25
 -7.976710e+000 -1.096723e+000 -9.005237e-001 -4.180193e-002 3.544287e+000 1.011266e+000 1.369764e+000 1.356896e+000 1.798188e+000 -1.449936e+000 2.339724e+000 1.337391e+000 -1.317104e+000 -2.304712e+000 -1.456042e+000 -1.195880e+000 -6.385981e-001 -8.913898e-001 -5.273200e-001 -4.058492e-001 -5.174086e-001 -8.853509e-002 3.888837e-001 7.154592e-001 2.971493e+000
<VARIANCE> 25
 2.114267e+001 3.815270e+001 3.064657e+001 2.669985e+001 2.667050e+001 3.120440e+001 3.230727e+001 3.059158e+001 2.571327e+001 2.356215e+001 3.858582e+001 2.260928e+001 4.508677e+000 2.532020e+000 2.931413e+000 2.906306e+000 3.617392e+000 4.095947e+000 4.339332e+000 3.921130e+000 3.352348e+000 3.111455e+000 3.588416e+000 2.860159e+000 3.400885e+000
<GCONST> 1.021496e+002
<STATE> 4
<MEAN> 25
 -6.328794e+000 -1.898391e+000 -3.345563e+000 -1.296705e+000 -7.934974e-001 -4.475392e+000 -2.021381e-001 6.895639e-001 1.663211e+000 -8.744202e-001 9.683263e-001 2.342991e+000 2.080419e+000 -2.596848e-001 2.531979e-001 -1.257216e-001 -1.376714e+000 -1.156244e+000 -1.107085e+000 -5.881445e-001 -4.636613e-001 6.792865e-001 -6.577152e-001 -4.341331e-001 1.633942e+000
<VARIANCE> 25
 2.919084e+001 2.524310e+001 2.404559e+001 2.386618e+001 3.121443e+001 3.801364e+001 4.646988e+001 3.131863e+001 2.748669e+001 2.656489e+001 4.134832e+001 2.640124e+001 4.255760e+000 3.215762e+000 4.751776e+000 2.951419e+000 4.201103e+000 5.163237e+000 4.474234e+000 5.137663e+000 4.426364e+000 3.554631e+000 5.502647e+000 3.580555e+000 3.250690e+000
<GCONST> 1.052368e+002
<TRANSP> 5
 0.000000e+000 1.000000e+000 0.000000e+000 0.000000e+000 0.000000e+000
 0.000000e+000 4.720775e-001 5.279225e-001 0.000000e+000 0.000000e+000
 0.000000e+000 0.000000e+000 3.642270e-001 6.357730e-001 0.000000e+000
 0.000000e+000 0.000000e+000 0.000000e+000 4.714309e-001 5.285692e-001
 0.000000e+000 0.000000e+000 0.000000e+000 0.000000e+000 0.000000e+000
<ENDHMM>
~h "u"
<BEGINHMM>
<NUMSTATES> 5
<STATE> 2
<MEAN> 25
 5.673109e+000 2.118222e+000 -4.639790e+000 -4.788842e+000 -9.290119e-001 3.820710e+000 -6.520241e+000 -5.635516e+000 -3.691352e+000 1.623096e+000 3.957985e+000 3.372534e-002 1.587712e+000 1.405402e+000 -7.512221e-001 -2.326706e+000 -5.670310e-001 1.462103e+000 5.139911e-001 -7.674600e-001 -1.512140e+000 -2.687493e-001 6.717465e-001 4.264984e-001 6.192544e-002
<VARIANCE> 25
 1.226733e+001 2.728217e+001 2.193465e+001 4.885518e+001 3.720134e+001 4.852596e+001 5.425026e+001 4.519260e+001 4.132133e+001 4.893366e+001 3.902457e+001 2.621540e+001 2.775696e+000 1.917816e+000 2.737696e+000 3.435305e+000 4.405952e+000 4.573478e+000 5.237786e+000 6.198340e+000 4.318305e+000 4.620795e+000 3.742649e+000 2.870537e+000 2.446297e+000
<GCONST> 1.052414e+002
<STATE> 3
<MEAN> 25
 8.188820e+000 6.302659e+000 -4.277227e+000 -9.901205e+000 -3.946585e+000 5.595346e+000 -1.133802e+000 -2.213309e+000 -5.374778e+000 -2.005860e+000 2.286593e+000 8.797789e-001 3.404744e-002 2.833286e-001 2.511538e-001 3.240336e-001 1.835062e-001 -2.107551e-002 2.837095e-001 -2.126011e-002 1.374559e-001 -8.022444e-002 -1.242038e-001 -1.828025e-002 -3.542721e-001
<VARIANCE> 25
 6.870055e+000 2.518375e+001 2.083848e+001 3.604943e+001 3.453115e+001 4.221617e+001 3.834069e+001 4.380841e+001 4.112142e+001 4.406572e+001 3.656005e+001 2.932938e+001 5.105122e-001 2.019121e+000 1.267621e+000 2.867247e+000 2.518657e+000 2.771910e+000 3.376739e+000 4.041958e+000 2.715050e+000 3.105434e+000 2.946407e+000 2.201447e+000 1.362704e+000
<GCONST> 9.710160e+001
<STATE> 4
<MEAN> 25
 6.024746e+000 4.382181e+000 -2.089055e+000 -2.768391e+000 9.152576e-001 4.067072e+000 -3.913333e+000 -5.421893e+000 -2.152065e+000 8.802823e-001 2.879688e+000 3.584307e-001 -1.112640e+000 2.804176e-002 1.290618e+000 2.091077e+000 7.900221e-001 -1.402140e+000 2.802433e-001 7.363737e-001 1.337505e+000 4.502342e-002 -7.354069e-001 -4.412758e-001 -8.209030e-001
<VARIANCE> 25
 1.011292e+001 2.690007e+001 2.696688e+001 3.358344e+001 3.482015e+001 4.090995e+001 6.295069e+001 5.216103e+001 4.083321e+001 4.612753e+001 4.017522e+001 2.762765e+001 1.693872e+000 2.986019e+000 1.987490e+000 3.297290e+000 3.714049e+000 3.569549e+000 4.900816e+000 5.352229e+000 4.356248e+000 4.284426e+000 3.582147e+000 2.733032e+000 2.258790e+000
<GCONST> 1.036479e+002
<TRANSP> 5
 0.000000e+000 1.000000e+000 0.000000e+000 0.000000e+000 0.000000e+000
 0.000000e+000 5.457131e-001 4.542869e-001 0.000000e+000 0.000000e+000
 0.000000e+000 0.000000e+000 7.272725e-001 2.727274e-001 0.000000e+000
 0.000000e+000 0.000000e+000 0.000000e+000 5.898623e-001 4.101377e-001
 0.000000e+000 0.000000e+000 0.000000e+000 0.000000e+000 0.000000e+000
<ENDHMM>
~h "v"
<BEGINHMM>
<NUMSTATES> 5
<STATE> 2
<MEAN> 25
 3.744855e+000 1.350443e+000 -4.933509e-001 1.933956e+000 2.685452e+000 1.051939e+000 -3.834209e+000 -2.896802e+000 -1.328529e+000 1.441743e+000 1.659831e+000 -1.537192e+000 6.851965e-001 -1.289776e-001 -3.375894e-001 -7.330187e-002 9.993305e-002 1.726594e-001 -5.599279e-001 -4.784198e-001 -2.702951e-001 3.606203e-001 7.130519e-002 -3.920050e-001 5.439873e-001
<VARIANCE> 25
 2.338874e+001 2.412429e+001 2.358069e+001 2.689877e+001 2.330680e+001 3.837245e+001 3.022315e+001 3.055797e+001 3.007256e+001 2.860073e+001 2.740737e+001 2.248490e+001 3.042544e+000 3.792415e+000 3.045847e+000 4.189692e+000 2.753507e+000 4.081377e+000 3.311594e+000 3.640709e+000 3.492149e+000 3.482242e+000 3.191918e+000 2.529777e+000 3.836781e+000
<GCONST> 1.013725e+002
<STATE> 3
<MEAN> 25
 4.703068e+000 -6.749284e-001 -1.908041e+000 3.187942e-001 1.792393e+000 8.432326e-001 -4.265593e+000 -2.307120e+000 -9.193576e-001 2.271845e+000 1.805564e+000 -2.106471e+000 1.165985e-001 -1.479760e+000 -4.877842e-001 -9.976152e-001 -1.019386e+000 -6.538576e-001 7.971246e-003 8.486801e-001 2.135276e-001 2.735648e-001 -3.101735e-001 -1.021961e-001 1.807171e+000
<VARIANCE> 25
 1.681010e+001 2.380697e+001 3.159307e+001 3.813974e+001 2.222170e+001 3.861612e+001 3.084077e+001 2.886185e+001 3.053502e+001 3.119251e+001 3.105967e+001 2.229767e+001 2.197333e+000 3.170912e+000 3.542654e+000 3.999789e+000 2.412832e+000 3.807210e+000 2.909282e+000 3.776086e+000 3.961752e+000 3.158022e+000 3.160901e+000 2.897058e+000 2.667787e+000
<GCONST> 1.009077e+002
<STATE> 4
<MEAN> 25
 4.587906e+000 -3.403347e+000 -2.304155e+000 -1.043605e+000 -4.705412e-001 -1.339244e+000 -3.817920e+000 2.452761e-001 -2.191436e-001 2.329529e+000 8.385043e-001 -1.814926e+000 -1.895415e-001 -1.267681e+000 1.517397e-001 -7.526171e-001 -1.351088e+000 -6.634521e-001 6.752759e-001 9.786890e-001 -1.004301e-002 -5.707874e-002 -5.098423e-001 2.386683e-001 1.705884e+000
<VARIANCE> 25
 1.407138e+001 2.611503e+001 4.162307e+001 4.347305e+001 2.438465e+001 4.903038e+001 3.282921e+001 3.331063e+001 3.410299e+001 3.425623e+001 3.555906e+001 2.576907e+001 1.540894e+000 1.972616e+000 3.203132e+000 2.963795e+000 3.447991e+000 3.596963e+000 2.922657e+000 3.683831e+000 4.570662e+000 3.113822e+000 3.507746e+000 2.856416e+000 1.526746e+000
<GCONST> 1.009614e+002
<TRANSP> 5
 0.000000e+000 1.000000e+000 0.000000e+000 0.000000e+000 0.000000e+000
 0.000000e+000 3.628995e-001 6.371005e-001 0.000000e+000 0.000000e+000
 0.000000e+000 0.000000e+000 1.737011e-001 8.262989e-001 0.000000e+000
 0.000000e+000 0.000000e+000 0.000000e+000 1.298812e-001 8.701188e-001
 0.000000e+000 0.000000e+000 0.000000e+000 0.000000e+000 0.000000e+000
<ENDHMM>
~h "z"
<BEGINHMM>
<NUMSTATES> 5
<STATE> 2
<MEAN> 25
 -4.986579e+000 1.203553e+001 -2.988297e+000 2.327845e+000 5.600215e+000 -5.132153e+000 -3.199868e+000 -3.107501e+000 1.646203e+000 1.864244e+000 -3.932483e-001 2.841391e-001 -3.299941e+000 3.408670e+000 -4.113841e-001 1.478948e+000 8.667093e-001 -1.643253e-001 1.137225e+000 9.428685e-001 6.479169e-001 -1.106760e+000 2.999690e-001 1.739260e-001 -3.961216e-001
<VARIANCE> 25
 2.800642e+001 3.449805e+001 2.228330e+001 3.662902e+001 4.070098e+001 3.350294e+001 3.813370e+001 3.328557e+001 3.469485e+001 3.986505e+001 2.854681e+001 2.359538e+001 1.472934e+000 3.243823e+000 1.940278e+000 2.556371e+000 3.512688e+000 4.816788e+000 3.273556e+000 3.710498e+000 2.978669e+000 2.994828e+000 4.231404e+000 3.244039e+000 6.580859e-001
<GCONST> 1.005140e+002
<STATE> 3
<MEAN> 25
 -1.246508e+001 1.485440e+001 -3.519988e+000 6.049594e+000 5.802524e+000 -2.006927e+000 2.239520e-001 1.019561e+000 2.520417e+000 -1.365995e+000 1.033949e+000 8.244312e-001 -1.817606e-001 -1.189912e+000 -1.170225e-001 -3.107556e-002 -5.714832e-002 1.843374e-001 5.758490e-002 7.598396e-002 -3.296193e-002 -1.254183e-001 1.589816e-002 2.115902e-001 -3.261364e-001
<VARIANCE> 25
 1.271452e+001 1.945781e+001 2.097226e+001 3.052348e+001 3.521372e+001 3.727550e+001 3.519248e+001 3.136329e+001 3.082250e+001 2.727463e+001 3.259062e+001 2.179231e+001 2.721490e+000 2.018090e+000 1.545703e+000 1.638594e+000 2.047685e+000 2.761236e+000 2.247393e+000 2.652617e+000 2.053177e+000 1.958174e+000 1.910196e+000 1.617327e+000 7.146488e-001
<GCONST> 9.373941e+001
<STATE> 4
<MEAN> 25
 -4.539086e+000 5.629772e+000 -4.850066e+000 2.153310e+000 3.160743e+000 -5.918470e+000 -2.797152e+000 -2.164991e+000 3.065468e+000 1.778443e+000 -1.190989e+000 1.347359e+000 3.449238e+000 -3.445458e+000 -1.911581e-001 -1.358660e+000 -1.222445e+000 -6.074917e-001 -6.734645e-001 -1.832661e-001 4.240400e-001 1.069661e+000 -9.114541e-001 -3.007922e-001 1.179645e+000
<VARIANCE> 25
 4.000840e+001 3.650144e+001 1.944033e+001 2.702685e+001 2.911036e+001 2.928706e+001 3.301346e+001 3.348667e+001 2.894152e+001 3.871413e+001 2.729963e+001 2.450714e+001 1.785585e+000 2.575960e+000 1.766004e+000 2.396081e+000 2.459633e+000 4.158035e+000 3.498428e+000 4.099546e+000 2.825590e+000 2.657127e+000 4.343041e+000 3.451753e+000 1.167338e+000
<GCONST> 9.961608e+001
<TRANSP> 5
 0.000000e+000 1.000000e+000 0.000000e+000 0.000000e+000 0.000000e+000
 0.000000e+000 6.704535e-001 3.295465e-001 0.000000e+000 0.000000e+000
 0.000000e+000 0.000000e+000 6.859279e-001 3.140721e-001 0.000000e+000
 0.000000e+000 0.000000e+000 0.000000e+000 6.777510e-001 3.222490e-001
 0.000000e+000 0.000000e+000 0.000000e+000 0.000000e+000 0.000000e+000
<ENDHMM>
~h "Cc"
<BEGINHMM>
<NUMSTATES> 5
<STATE> 2
<MEAN> 25
 -9.900747e+000 7.532160e+000 6.166231e+000 -1.277108e+000 6.245158e-001 5.270182e+000 -4.011917e+000 3.746731e+000 2.254259e+000 -1.968758e+000 2.154854e+000 1.279917e-001 -3.889289e+000 -1.043788e-001 1.016024e-001 -7.124673e-001 -3.111363e-001 1.546431e+000 -1.075135e-003 2.381688e-001 2.312482e-001 -8.737035e-001 8.528180e-001 -1.009683e-001 9.506344e-001
<VARIANCE> 25
 5.650255e+001 3.255748e+001 2.808741e+001 2.541300e+001 3.561539e+001 5.651683e+001 3.448823e+001 4.589078e+001 3.263098e+001 3.213449e+001 4.060260e+001 2.828012e+001 2.946628e+000 3.967275e+000 3.011216e+000 2.089609e+000 3.751659e+000 3.841543e+000 3.871111e+000 4.421702e+000 3.214175e+000 3.006350e+000 3.067803e+000 2.359162e+000 3.518256e+000
<GCONST> 1.043219e+002
<STATE> 3
<MEAN> 25
 -2.022972e+001 2.100432e+000 5.375120e+000 -7.074999e-001 -2.747612e+000 6.262152e+000 -9.310914e-002 2.753187e+000 2.619001e+000 -5.509327e+000 4.841892e+000 1.568388e+000 2.245212e-001 -1.831130e+000 -3.553922e-001 6.610445e-001 -9.264013e-001 -1.461684e+000 1.240500e+000 2.608248e-001 -1.800046e-001 -3.448780e-001 4.383794e-001 3.605345e-001 1.392827e-001
<VARIANCE> 25
 7.183911e+000 2.479826e+001 2.489697e+001 2.720225e+001 3.603064e+001 3.546801e+001 3.101231e+001 3.792098e+001 3.513247e+001 2.919794e+001 5.489915e+001 2.701217e+001 3.702221e+000 1.530036e+000 1.873366e+000 1.590805e+000 2.350811e+000 3.134493e+000 2.608153e+000 2.861920e+000 2.398710e+000 2.236121e+000 2.362628e+000 1.799703e+000 9.017907e-001
<GCONST> 9.596275e+001
<STATE> 4
<MEAN> 25
 -1.040194e+001 -2.349859e+000 4.028123e+000 1.188963e+000 -6.055615e+000 -2.520492e+000 -7.708756e-001 2.402303e+000 9.286696e-001 -5.178480e+000 3.613755e+000 1.875579e+000 4.755017e+000 -4.856091e-001 4.332599e-002 3.741225e-001 -9.444638e-001 -2.467845e+000 -1.394702e+000 -1.092980e+000 -9.967644e-001 8.057094e-001 -8.207835e-001 -1.050911e-001 6.063808e-001
<VARIANCE> 25
 5.430700e+001 1.778884e+001 1.961688e+001 2.408668e+001 2.912624e+001 3.646256e+001 3.608153e+001 3.204582e+001 4.251883e+001 2.605163e+001 3.764015e+001 1.959162e+001 1.615546e+000 2.346180e+000 2.473984e+000 2.081739e+000 3.499318e+000 3.656453e+000 2.983284e+000 3.822750e+000 3.352957e+000 2.797382e+000 4.448420e+000 2.466028e+000 1.314885e+000
<GCONST> 9.947426e+001
<TRANSP> 5
 0.000000e+000 1.000000e+000 0.000000e+000 0.000000e+000 0.000000e+000
 0.000000e+000 7.367985e-001 2.632014e-001 0.000000e+000 0.000000e+000
 0.000000e+000 0.000000e+000 7.078748e-001 2.921251e-001 0.000000e+000
 0.000000e+000 0.000000e+000 0.000000e+000 6.505753e-001 3.494247e-001
 0.000000e+000 0.000000e+000 0.000000e+000 0.000000e+000 0.000000e+000
<ENDHMM>
~h "dz"
<BEGINHMM>
<NUMSTATES> 5
<STATE> 2
<MEAN> 25
 -5.435154e+000 8.357830e+000 1.082710e+001 1.221544e+000 -3.694717e+000 6.010448e+000 -5.055529e+000 3.442192e+000 3.190993e+000 -5.086408e+000 1.948838e+000 1.026543e-001 -4.176469e+000 4.797232e-001 2.013724e-001 5.385978e-001 -2.033446e-001 2.524630e+000 -7.796790e-002 -7.151932e-001 1.538966e+000 -5.781054e-001 7.587969e-001 -6.304598e-001 7.334886e-001
<VARIANCE> 25
 4.244522e+001 2.334703e+001 1.602544e+001 1.800220e+001 3.425935e+001 3.983199e+001 3.183726e+001 3.441611e+001 3.094019e+001 2.320349e+001 3.290256e+001 2.301555e+001 1.865561e+000 4.732857e+000 2.438833e+000 2.351369e+000 2.692172e+000 3.645469e+000 5.429086e+000 4.036803e+000 3.408490e+000 3.278476e+000 3.232631e+000 3.033786e+000 2.508641e+000
<GCONST> 1.008463e+002
<STATE> 3
<MEAN> 25
 -1.484188e+001 4.005376e+000 8.711273e+000 4.643792e+000 -5.653244e+000 6.145004e+000 -1.731842e+000 5.559233e-001 3.225989e+000 -6.859857e+000 5.213527e+000 1.304615e+000 1.324340e+000 -1.872141e+000 -1.676714e+000 1.145571e+000 -4.725864e-001 -2.924495e+000 -4.146786e-001 -8.197581e-001 -3.312325e-001 -7.429722e-001 4.869455e-001 7.297362e-001 7.406505e-001
<VARIANCE> 25
 1.525981e+001 1.846486e+001 2.629360e+001 3.398620e+001 3.099953e+001 4.432862e+001 4.450923e+001 3.796455e+001 3.149396e+001 2.913753e+001 4.537892e+001 2.554224e+001 9.201272e+000 2.157501e+000 1.916950e+000 1.652894e+000 3.643314e+000 3.736934e+000 4.664352e+000 2.968803e+000 3.254740e+000 2.686992e+000 2.787210e+000 2.005159e+000 9.799663e-001
<GCONST> 1.001683e+002
<STATE> 4
<MEAN> 25
 -4.595507e-001 -7.585256e-001 1.965665e+000 5.735120e+000 -4.730702e+000 -2.599190e+000 -9.635951e+000 -4.252001e+000 4.830176e+000 -5.044070e+000 3.222361e+000 1.435175e+000 4.184106e+000 -7.641644e-001 -1.990477e+000 -1.158568e+000 1.164314e+000 -2.779652e-001 -2.222532e+000 -2.079385e+000 1.275696e-001 2.448355e+000 -3.545591e-001 -6.175436e-001 -4.704138e-002
<VARIANCE> 25
 2.808512e+001 9.438513e+000 1.525321e+001 2.284115e+001 2.357901e+001 2.299063e+001 3.559573e+001 3.816843e+001 3.465176e+001 3.479585e+001 2.487531e+001 2.069084e+001 2.713617e+000 1.861017e+000 2.070444e+000 2.806552e+000 3.071126e+000 6.076559e+000 3.588977e+000 3.516787e+000 3.401904e+000 3.541624e+000 4.530527e+000 2.394974e+000 4.467935e-001
<GCONST> 9.713691e+001
<TRANSP> 5
 0.000000e+000 1.000000e+000 0.000000e+000 0.000000e+000 0.000000e+000
 0.000000e+000 6.638483e-001 3.361517e-001 0.000000e+000 0.000000e+000
 0.000000e+000 0.000000e+000 6.391734e-001 3.608266e-001 0.000000e+000
 0.000000e+000 0.000000e+000 0.000000e+000 6.298735e-001 3.701265e-001
 0.000000e+000 0.000000e+000 0.000000e+000 0.000000e+000 0.000000e+000
<ENDHMM>
~h "sp"
<BEGINHMM>
<NUMSTATES> 3
<STATE> 2
~s "silst"
<TRANSP> 3
 0.000000e+000 1.853313e-001 8.146687e-001
 0.000000e+000 8.596973e-001 1.403026e-001
 0.000000e+000 0.000000e+000 0.000000e+000
<ENDHMM>
~h "uzdah"
<BEGINHMM>
<NUMSTATES> 5
<STATE> 2
<MEAN> 25
 -5.344004e+000 -5.417829e+000 1.227122e+000 1.836245e+000 4.322053e+000 7.855450e-001 3.406728e+000 4.165926e+000 1.503592e+000 -2.582826e+000 1.262562e+000 2.174552e+000 -6.255189e-001 -6.490276e-001 7.130630e-002 -2.341336e-001 -1.469591e-001 -3.359742e-001 -7.811091e-002 1.119584e-001 -8.266262e-002 1.214433e-001 3.512193e-001 2.218861e-001 4.790074e-001
<VARIANCE> 25
 1.038698e+001 1.407005e+001 1.685374e+001 1.270935e+001 2.024152e+001 1.937202e+001 2.221648e+001 2.292885e+001 2.666052e+001 2.418535e+001 3.145696e+001 1.855691e+001 4.187149e-001 6.946509e-001 7.148700e-001 8.428658e-001 1.239537e+000 1.356463e+000 1.476621e+000 1.609427e+000 1.645434e+000 1.636607e+000 1.512818e+000 1.412683e+000 3.051771e-001
<GCONST> 8.154860e+001
<STATE> 3
<MEAN> 25
 -8.968840e+000 -8.928828e+000 1.835582e+000 -4.778711e-001 2.365111e+000 -9.245514e-001 3.090533e+000 4.130248e+000 7.147163e-001 -1.883129e+000 2.581125e+000 2.533109e+000 3.438612e-002 -6.833425e-002 -4.544725e-002 3.747123e-003 -2.085381e-002 4.998241e-002 -5.058002e-002 1.046308e-003 -5.486538e-002 -4.478574e-002 -6.270632e-002 2.241868e-002 -3.726466e-002
<VARIANCE> 25
 6.630399e+000 7.567815e+000 1.374820e+001 1.324503e+001 1.738371e+001 1.870688e+001 2.362922e+001 2.048975e+001 2.881103e+001 2.369252e+001 3.130210e+001 1.810831e+001 1.865527e-001 2.866738e-001 5.001923e-001 6.956907e-001 9.420903e-001 1.142335e+000 1.229611e+000 1.339584e+000 1.459662e+000 1.444106e+000 1.335981e+000 1.249581e+000 1.401612e-001
<GCONST> 7.578146e+001
<STATE> 4
<MEAN> 25
 -5.157784e+000 -7.815469e+000 -1.366234e+000 1.159806e+000 4.464580e+000 2.666785e+000 2.510283e+000 3.799666e+000 8.570696e-001 -3.678672e+000 4.235080e-001 2.822889e+000 6.862349e-001 9.918514e-001 -4.422100e-001 2.458399e-001 3.082674e-001 6.270285e-001 1.768913e-001 -3.283165e-001 1.562834e-001 -4.082043e-002 -2.281349e-001 -1.052414e-001 -1.011399e+000
<VARIANCE> 25
 8.943628e+000 1.832701e+001 2.420833e+001 1.553684e+001 2.782560e+001 2.672524e+001 2.971402e+001 2.628056e+001 3.182585e+001 2.794154e+001 3.508385e+001 2.330570e+001 4.865030e-001 1.493659e+000 1.402905e+000 1.231022e+000 1.546957e+000 1.916312e+000 2.085157e+000 2.096879e+000 2.491744e+000 2.386454e+000 1.925683e+000 1.872458e+000 6.389555e-001
<GCONST> 8.915150e+001
<TRANSP> 5
 0.000000e+000 1.000000e+000 0.000000e+000 0.000000e+000 0.000000e+000
 0.000000e+000 8.629178e-001 1.370822e-001 0.000000e+000 0.000000e+000
 0.000000e+000 0.000000e+000 9.377671e-001 6.223289e-002 0.000000e+000
 0.000000e+000 0.000000e+000 0.000000e+000 7.903633e-001 2.096367e-001
 0.000000e+000 0.000000e+000 0.000000e+000 0.000000e+000 0.000000e+000
<ENDHMM>
~h "sil"
<BEGINHMM>
<NUMSTATES> 5
<STATE> 2
<MEAN> 25
 -4.913072e+000 -1.726539e+000 4.862755e-003 1.848628e+000 3.202357e+000 1.588165e+000 3.221655e+000 2.946035e+000 2.099955e+000 -1.223028e+000 1.197123e+000 1.933665e+000 -8.282578e-002 -4.232650e-002 -1.366070e-002 2.698633e-003 1.996869e-003 1.505351e-002 -1.881062e-002 -2.454828e-003 -2.965368e-003 4.368329e-002 5.347317e-002 4.262352e-002 -6.746769e-002
<VARIANCE> 25
 1.021377e+001 2.698831e+001 1.382571e+001 1.382708e+001 1.732825e+001 2.135213e+001 1.961048e+001 2.365418e+001 2.582985e+001 2.277030e+001 2.733137e+001 1.926391e+001 3.123690e-001 5.534709e-001 6.265910e-001 7.885046e-001 1.040763e+000 1.275708e+000 1.383711e+000 1.498935e+000 1.514649e+000 1.565025e+000 1.469506e+000 1.334936e+000 2.739459e-001
<GCONST> 8.031043e+001
<STATE> 3
~s "silst"
<STATE> 4
<MEAN> 25
 -4.044003e+000 -2.580989e-001 -5.971506e-001 1.552092e+000 2.952374e+000 1.273851e+000 2.030174e+000 1.221441e+000 1.381457e+000 -8.925699e-001 1.887613e-001 9.286802e-001 8.253934e-001 9.079579e-002 2.123642e-001 -3.760156e-001 -7.102253e-001 -8.216136e-001 -8.908466e-001 -9.263084e-001 -8.861158e-001 3.677702e-002 -3.891787e-001 -3.536825e-001 1.691426e+000
<VARIANCE> 25
 1.998873e+001 3.108373e+001 2.451600e+001 2.387471e+001 2.955883e+001 3.700311e+001 3.088857e+001 3.553619e+001 3.409272e+001 2.734710e+001 3.083819e+001 2.378966e+001 3.311517e+000 3.234814e+000 2.918475e+000 3.310553e+000 3.592781e+000 4.108957e+000 3.825811e+000 4.566743e+000 4.127583e+000 3.253626e+000 3.498507e+000 2.698670e+000 5.179418e+000
<GCONST> 1.028644e+002
<TRANSP> 5
 0.000000e+000 1.000000e+000 0.000000e+000 0.000000e+000 0.000000e+000
 0.000000e+000 8.754169e-001 4.135702e-002 8.322611e-002 0.000000e+000
 0.000000e+000 0.000000e+000 6.899455e-001 3.100544e-001 0.000000e+000
 0.000000e+000 5.546798e-002 0.000000e+000 4.603727e-001 4.841593e-001
 0.000000e+000 0.000000e+000 0.000000e+000 0.000000e+000 0.000000e+000
<ENDHMM>
~h "udarac"
<BEGINHMM>
<NUMSTATES> 5
<STATE> 2
<MEAN> 25
 -1.384017e+000 -3.305969e+000 -4.994766e+000 -5.716242e+000 -2.430094e+000 1.045510e+000 3.485426e+000 9.327324e-001 2.341377e+000 3.319879e-001 -2.075888e+000 1.061339e+000 1.272385e-001 -8.607791e-002 -3.906674e-001 -4.891777e-001 -3.212376e-001 -4.444484e-001 -4.128647e-001 -2.677428e-001 -1.335724e-002 1.080804e-001 2.648623e-001 -5.248452e-002 1.125372e-001
<VARIANCE> 25
 1.540079e+001 2.030501e+001 4.139341e+001 3.437128e+001 2.248666e+001 3.353396e+001 3.835651e+001 2.979487e+001 2.708941e+001 3.546619e+001 2.822412e+001 2.106436e+001 1.165532e+000 1.525636e+000 3.716516e+000 3.695989e+000 3.096124e+000 2.540282e+000 3.394749e+000 2.543838e+000 2.422772e+000 2.999284e+000 1.863950e+000 2.293775e+000 1.962085e+000
<GCONST> 9.739893e+001
<STATE> 3
<MEAN> 25
 -3.185274e+000 4.583635e-002 -1.983109e+000 -1.515143e+000 -4.541386e-001 -6.953871e-001 1.427378e+000 -2.545496e+000 1.755566e+000 2.015383e+000 -1.494471e-001 1.718553e+000 -2.983029e-001 3.782843e-001 2.227685e-001 3.359311e-001 3.968669e-001 3.744190e-001 2.105295e-001 2.327985e-001 2.447391e-001 4.833196e-002 1.837431e-002 5.700215e-002 -5.068440e-001
<VARIANCE> 25
 1.112558e+001 2.616723e+001 1.830818e+001 2.871796e+001 2.062688e+001 2.668739e+001 3.559016e+001 2.152722e+001 1.965398e+001 1.190612e+001 2.336866e+001 1.418395e+001 5.012709e-001 5.289129e-001 1.383149e+000 1.080068e+000 1.302529e+000 1.704443e+000 1.692583e+000 1.677675e+000 1.199755e+000 1.223004e+000 1.611918e+000 1.482952e+000 4.396967e-001
<GCONST> 8.344484e+001
<STATE> 4
<MEAN> 25
 -6.490035e+000 2.296008e+000 -2.389449e-001 1.108034e+000 2.768080e+000 4.235502e+000 4.261066e+000 3.669550e+000 6.296032e+000 -1.463220e+000 -3.790615e+000 1.332395e+000 -7.975501e-002 -1.070792e-002 4.686407e-002 3.618301e-002 -6.263147e-002 2.008864e-002 8.119594e-002 5.227986e-002 9.277470e-002 -4.325997e-002 -5.565324e-002 7.518216e-002 -6.260663e-002
<VARIANCE> 25
 2.198348e+001 3.409880e+001 3.245202e+001 3.181545e+001 2.887189e+001 2.676948e+001 2.717905e+001 1.693885e+001 1.764036e+001 1.769897e+001 1.719939e+001 1.388962e+001 1.172530e+000 1.827628e+000 2.098317e+000 1.964417e+000 1.864872e+000 1.335153e+000 2.021719e+000 1.645573e+000 1.347665e+000 1.530492e+000 1.499110e+000 1.436251e+000 1.593489e+000
<GCONST> 8.975768e+001
<TRANSP> 5
 0.000000e+000 1.000000e+000 0.000000e+000 0.000000e+000 0.000000e+000
 0.000000e+000 7.916764e-001 2.083236e-001 0.000000e+000 0.000000e+000
 0.000000e+000 0.000000e+000 7.373334e-001 2.626666e-001 0.000000e+000
 0.000000e+000 0.000000e+000 0.000000e+000 9.005730e-001 9.942708e-002
 0.000000e+000 0.000000e+000 0.000000e+000 0.000000e+000 0.000000e+000
<ENDHMM>
~h "greska"
<BEGINHMM>
<NUMSTATES> 5
<STATE> 2
<MEAN> 25
 1.535214e+000 2.976366e-001 2.817819e+000 -1.216706e+000 -2.354481e+000 -2.598204e+000 -4.677347e+000 -1.685188e-001 -1.678871e+000 -1.012213e+000 3.068478e-001 -6.297219e-001 8.354788e-002 -1.457498e-002 9.529318e-002 -8.698060e-003 -7.322022e-002 -2.257908e-001 -1.329439e-001 2.343164e-002 -9.480815e-002 2.355043e-004 -3.538746e-002 1.053874e-001 2.945397e-001
<VARIANCE> 25
 2.601244e+001 3.998684e+001 6.368503e+001 5.612082e+001 4.399130e+001 5.667071e+001 5.095532e+001 4.146791e+001 4.922490e+001 4.378578e+001 4.082268e+001 2.885607e+001 2.758253e+000 3.239426e+000 3.547897e+000 4.174729e+000 4.409387e+000 3.778259e+000 4.712401e+000 4.080805e+000 3.652240e+000 3.365964e+000 3.163611e+000 2.586992e+000 3.643143e+000
<GCONST> 1.078589e+002
<STATE> 3
<MEAN> 25
 -6.149079e+000 3.171190e+000 -1.753158e+000 8.508337e-001 2.655061e+000 -2.791223e+000 -2.138282e+000 1.931724e+000 -3.945122e-002 -1.867470e+000 2.372043e-001 1.990475e+000 1.083292e-001 4.271965e-001 -4.110295e-002 1.446338e-001 1.422090e-001 5.630162e-002 1.242117e-003 -9.487133e-002 7.793053e-002 -3.320643e-002 2.839981e-002 -1.800069e-001 -4.800851e-001
<VARIANCE> 25
 8.785000e+001 4.707358e+001 4.374072e+001 3.962898e+001 4.395139e+001 5.853226e+001 5.401019e+001 4.337531e+001 4.523889e+001 3.676663e+001 3.696852e+001 3.281702e+001 5.648510e+000 2.988281e+000 2.705120e+000 2.394301e+000 3.265489e+000 3.210061e+000 3.994426e+000 4.038961e+000 3.446541e+000 2.427428e+000 2.649810e+000 2.379212e+000 2.543112e+000
<GCONST> 1.065852e+002
<STATE> 4
<MEAN> 25
 1.846325e+000 4.575641e+000 1.502713e+000 3.543162e+000 2.924595e+000 -1.237630e+000 2.160711e-001 -1.647384e+000 1.500243e-001 -1.304094e-001 -1.235445e+000 -2.442891e+000 -1.620541e-001 -1.340372e-001 1.812899e-002 5.667584e-002 1.019605e-001 3.150536e-001 1.032842e-001 5.567105e-002 1.145072e-001 -3.187079e-002 -9.440052e-002 -8.122320e-002 -3.272723e-001
<VARIANCE> 25
 3.978370e+001 3.600086e+001 2.392631e+001 2.652846e+001 2.512241e+001 3.839342e+001 3.788077e+001 3.929824e+001 2.828694e+001 3.219070e+001 3.358474e+001 2.409878e+001 1.960206e+000 2.468552e+000 1.692353e+000 1.952286e+000 1.910218e+000 2.573157e+000 2.354587e+000 2.554168e+000 2.237916e+000 2.215518e+000 2.538676e+000 1.764095e+000 2.661213e+000
<GCONST> 9.759204e+001
<TRANSP> 5
 0.000000e+000 1.000000e+000 0.000000e+000 0.000000e+000 0.000000e+000
 0.000000e+000 9.225882e-001 7.741174e-002 0.000000e+000 0.000000e+000
 0.000000e+000 0.000000e+000 8.816515e-001 1.183486e-001 0.000000e+000
 0.000000e+000 0.000000e+000 0.000000e+000 9.126238e-001 8.737621e-002
 0.000000e+000 0.000000e+000 0.000000e+000 0.000000e+000 0.000000e+000
<ENDHMM>
~h "papir"
<BEGINHMM>
<NUMSTATES> 5
<STATE> 2
<MEAN> 25
 -2.043080e+000 -1.284322e+000 1.280489e+000 2.579705e+000 2.169757e+000 9.133806e-001 1.668971e+000 7.331253e-001 2.526385e+000 -1.040316e+000 -3.698050e+000 -3.019436e-001 -3.073499e-001 6.141181e-001 5.479946e-001 3.901828e-001 3.071775e-001 2.137554e-001 3.492760e-001 4.538248e-001 4.494304e-001 -3.475732e-001 -4.221021e-001 6.301873e-002 -9.210849e-001
<VARIANCE> 25
 4.539840e+001 2.724114e+001 3.382725e+001 2.682440e+001 2.613268e+001 3.205056e+001 3.070400e+001 3.799805e+001 4.730430e+001 2.377133e+001 4.006455e+001 2.446948e+001 1.849826e+000 1.530127e+000 1.944819e+000 1.465872e+000 2.463739e+000 2.359532e+000 3.208133e+000 2.743091e+000 1.955160e+000 1.204948e+000 1.776686e+000 1.803440e+000 1.245701e+000
<GCONST> 9.584718e+001
<STATE> 3
<MEAN> 25
 -3.581029e+000 2.185898e+000 2.021724e+000 4.568293e+000 4.175084e+000 1.815206e+000 4.925453e+000 2.499526e+000 3.507414e+000 -1.560390e+000 -2.593217e+000 -1.502692e+000 -4.096552e-001 1.208504e-001 -6.072609e-002 -1.320448e-001 5.979895e-002 2.154027e-001 9.303240e-002 3.154124e-001 1.781653e-001 9.793623e-002 5.800065e-001 6.708466e-001 -5.497050e-001
<VARIANCE> 25
 2.394328e+001 2.111063e+001 4.882432e+001 2.907606e+001 2.926956e+001 3.072502e+001 2.676285e+001 3.448690e+001 3.260861e+001 2.636798e+001 3.079878e+001 3.713786e+001 8.086107e-001 2.029483e+000 1.830404e+000 2.084237e+000 1.254199e+000 1.487311e+000 1.538085e+000 2.011407e+000 1.485443e+000 1.987054e+000 2.146750e+000 1.867416e+000 6.389269e-001
<GCONST> 9.246863e+001
<STATE> 4
<MEAN> 25
 -6.387969e+000 -5.175211e+000 -3.638945e-001 9.210272e-001 3.242340e+000 8.838082e-001 3.799306e+000 2.710843e+000 2.270615e+000 -1.801982e+000 -3.452852e-001 1.470881e+000 1.923858e-002 -9.490873e-002 -4.526120e-002 1.874160e-002 -7.178806e-002 2.557966e-002 -7.376263e-002 -3.023176e-003 5.476939e-004 -5.609826e-002 -1.109651e-002 1.106191e-001 -7.447931e-002
<VARIANCE> 25
 2.030999e+001 4.208611e+001 2.488799e+001 1.838796e+001 2.134945e+001 2.714869e+001 1.502648e+001 2.252066e+001 3.280317e+001 1.826218e+001 2.454740e+001 2.128275e+001 1.138673e+000 2.079480e+000 1.235785e+000 1.189373e+000 1.419848e+000 1.822138e+000 1.352849e+000 1.500756e+000 1.883627e+000 1.332128e+000 1.549958e+000 1.473091e+000 1.510047e+000
<GCONST> 8.872787e+001
<TRANSP> 5
 0.000000e+000 1.000000e+000 0.000000e+000 0.000000e+000 0.000000e+000
 0.000000e+000 4.443331e-001 5.556669e-001 0.000000e+000 0.000000e+000
 0.000000e+000 0.000000e+000 6.381314e-001 3.618686e-001 0.000000e+000
 0.000000e+000 0.000000e+000 0.000000e+000 9.013510e-001 9.864897e-002
 0.000000e+000 0.000000e+000 0.000000e+000 0.000000e+000 0.000000e+000
<ENDHMM>
