~o
<STREAMINFO> 1 25
<VECSIZE> 25<NULLD><MFCC_D_N_Z_0><DIAGC>
~h "C"
<BEGINHMM>
<NUMSTATES> 5
<STATE> 2
<MEAN> 25
 -8.097162e-001 -3.569487e-001 3.628016e-001 -1.027667e-002 -5.457864e-001 6.401657e-001 2.025906e-001 -4.847759e-001 8.751867e-001 -5.582014e-001 5.629272e-001 -1.990404e-001 5.050902e-002 -1.111479e-002 -5.840565e-003 -8.932998e-003 7.885298e-003 -9.875828e-003 5.793049e-003 1.007478e-002 -3.937868e-002 2.024489e-002 -7.250037e-003 2.757540e-004 -1.599019e-002
<VARIANCE> 25
 7.407883e+001 4.094849e+001 5.114795e+001 4.280151e+001 4.666602e+001 5.535738e+001 4.348602e+001 5.102063e+001 5.417864e+001 4.165372e+001 4.395549e+001 2.781430e+001 5.373850e+000 3.425025e+000 2.869850e+000 3.158662e+000 3.346626e+000 3.931256e+000 3.640088e+000 4.188629e+000 4.063978e+000 3.472606e+000 3.423337e+000 2.381273e+000 3.526796e+000
<GCONST> 1.084716e+002
<STATE> 3
<MEAN> 25
 -6.957928e-001 -3.787251e-001 3.487129e-001 -3.078304e-002 -5.287991e-001 6.167340e-001 2.128810e-001 -4.633983e-001 7.855687e-001 -5.112106e-001 5.462639e-001 -1.989185e-001 5.305175e-002 -9.121793e-003 -7.269507e-003 -8.818625e-003 1.094580e-002 -1.246742e-002 4.987597e-003 1.282442e-002 -4.385714e-002 2.181326e-002 -8.945025e-003 5.685365e-004 -1.917976e-002
<VARIANCE> 25
 7.231609e+001 4.101458e+001 5.153778e+001 4.255835e+001 4.714331e+001 5.549608e+001 4.328064e+001 5.066917e+001 5.387088e+001 4.155286e+001 4.373170e+001 2.778596e+001 5.214509e+000 3.403580e+000 2.857810e+000 3.150235e+000 3.351030e+000 3.920834e+000 3.609633e+000 4.160645e+000 4.036259e+000 3.448853e+000 3.394423e+000 2.367680e+000 3.483891e+000
<GCONST> 1.083380e+002
<STATE> 4
<MEAN> 25
 -5.609492e-001 -3.910015e-001 3.392491e-001 -5.076469e-002 -5.098045e-001 5.764865e-001 2.171341e-001 -4.301098e-001 6.692647e-001 -4.511311e-001 5.264252e-001 -1.977369e-001 5.275393e-002 -7.110008e-003 -8.509148e-003 -7.600891e-003 1.425948e-002 -1.355721e-002 4.736263e-003 1.446573e-002 -4.635295e-002 2.288493e-002 -1.047528e-002 2.807565e-004 -2.313286e-002
<VARIANCE> 25
 7.012234e+001 4.119633e+001 5.202650e+001 4.232448e+001 4.779867e+001 5.562133e+001 4.313657e+001 5.030336e+001 5.332101e+001 4.143350e+001 4.346586e+001 2.775516e+001 5.005543e+000 3.377568e+000 2.846799e+000 3.136509e+000 3.361194e+000 3.904459e+000 3.575817e+000 4.126170e+000 3.989864e+000 3.418527e+000 3.357685e+000 2.352585e+000 3.444937e+000
<GCONST> 1.081761e+002
<TRANSP> 5
 0.000000e+000 1.000000e+000 0.000000e+000 0.000000e+000 0.000000e+000
 0.000000e+000 5.381229e-001 4.618771e-001 0.000000e+000 0.000000e+000
 0.000000e+000 0.000000e+000 5.381207e-001 4.618792e-001 0.000000e+000
 0.000000e+000 0.000000e+000 0.000000e+000 6.292716e-001 3.707284e-001
 0.000000e+000 0.000000e+000 0.000000e+000 0.000000e+000 0.000000e+000
<ENDHMM>
~h "L"
<BEGINHMM>
<NUMSTATES> 5
<STATE> 2
<MEAN> 25
 4.985125e-001 1.275378e-001 1.737134e+000 8.431261e-002 -7.985035e-001 -5.213708e-001 -9.166462e-001 -2.574348e-001 -1.346716e+000 -1.506700e-001 6.194340e-001 4.756478e-001 -2.578569e-002 -7.773266e-003 -4.380962e-002 -2.375565e-002 4.567749e-002 5.532363e-002 1.378003e-002 1.802845e-002 8.656730e-003 5.474119e-003 6.428577e-003 -7.073439e-003 -2.419431e-002
<VARIANCE> 25
 4.482117e+001 3.785468e+001 5.715514e+001 4.721434e+001 5.267189e+001 5.450468e+001 4.892908e+001 4.766406e+001 4.657922e+001 3.950152e+001 3.893702e+001 2.693162e+001 2.605052e+000 3.160312e+000 3.038185e+000 3.245186e+000 3.837207e+000 3.706606e+000 3.499672e+000 3.884524e+000 3.617379e+000 3.185828e+000 3.064907e+000 2.419255e+000 2.712343e+000
<GCONST> 1.065803e+002
<STATE> 3
<MEAN> 25
 4.316413e-001 1.159923e-001 1.640968e+000 4.321099e-002 -6.980556e-001 -4.045926e-001 -8.779876e-001 -2.176279e-001 -1.316990e+000 -1.364906e-001 6.298791e-001 4.537131e-001 -3.377858e-002 -4.935448e-003 -5.006549e-002 -1.904650e-002 4.972426e-002 5.792785e-002 2.048486e-002 1.872785e-002 1.832855e-002 7.622730e-003 3.803210e-003 -1.211846e-002 -3.166148e-002
<VARIANCE> 25
 4.564644e+001 3.809874e+001 5.744115e+001 4.753956e+001 5.310545e+001 5.458850e+001 4.893876e+001 4.779477e+001 4.659820e+001 3.962538e+001 3.927264e+001 2.695107e+001 2.610334e+000 3.141161e+000 3.016061e+000 3.238632e+000 3.820044e+000 3.678795e+000 3.478940e+000 3.876222e+000 3.593236e+000 3.172264e+000 3.058765e+000 2.406422e+000 2.701857e+000
<GCONST> 1.065867e+002
<STATE> 4
<MEAN> 25
 3.294411e-001 1.198145e-001 1.521158e+000 1.847013e-002 -5.780958e-001 -2.834956e-001 -8.157254e-001 -1.752940e-001 -1.249945e+000 -1.168251e-001 6.230453e-001 4.155224e-001 -4.258730e-002 -1.580772e-003 -5.305319e-002 -8.702379e-003 5.406898e-002 5.480348e-002 2.604897e-002 1.826525e-002 2.806918e-002 7.176644e-003 -1.110269e-003 -1.548722e-002 -3.972051e-002
<VARIANCE> 25
 4.677756e+001 3.856155e+001 5.776662e+001 4.780777e+001 5.353501e+001 5.459063e+001 4.879678e+001 4.795671e+001 4.657664e+001 3.974812e+001 3.956430e+001 2.702146e+001 2.629547e+000 3.129213e+000 2.983332e+000 3.229974e+000 3.791721e+000 3.649865e+000 3.461071e+000 3.864433e+000 3.560573e+000 3.153762e+000 3.052176e+000 2.392773e+000 2.699884e+000
<GCONST> 1.065986e+002
<TRANSP> 5
 0.000000e+000 1.000000e+000 0.000000e+000 0.000000e+000 0.000000e+000
 0.000000e+000 5.261749e-001 4.738251e-001 0.000000e+000 0.000000e+000
 0.000000e+000 0.000000e+000 5.261758e-001 4.738243e-001 0.000000e+000
 0.000000e+000 0.000000e+000 0.000000e+000 6.149920e-001 3.850079e-001
 0.000000e+000 0.000000e+000 0.000000e+000 0.000000e+000 0.000000e+000
<ENDHMM>
~h "N"
<BEGINHMM>
<NUMSTATES> 5
<STATE> 2
<MEAN> 25
 -1.338905e-002 -9.722929e-001 9.707914e-001 1.653683e-001 1.750177e-001 1.597355e-001 1.256381e+000 1.174481e+000 -3.024147e-001 -1.057445e+000 -9.385539e-001 1.619910e-002 -1.852006e-002 -2.865317e-002 -1.613759e-002 1.319479e-002 3.724056e-002 2.415780e-002 2.174995e-002 1.905120e-002 1.946341e-002 1.547543e-003 7.442237e-003 -5.450052e-003 -5.326775e-002
<VARIANCE> 25
 4.413174e+001 4.703913e+001 4.410537e+001 3.633382e+001 4.551908e+001 4.397349e+001 4.071666e+001 4.502760e+001 4.361354e+001 3.711837e+001 3.841528e+001 2.751865e+001 2.591596e+000 3.388367e+000 2.735553e+000 2.778753e+000 3.375740e+000 3.275924e+000 3.233160e+000 3.576424e+000 3.223129e+000 2.809773e+000 2.790453e+000 2.262372e+000 3.140955e+000
<GCONST> 1.046754e+002
<STATE> 3
<MEAN> 25
 -6.135112e-002 -1.027561e+000 9.382392e-001 1.945016e-001 2.469392e-001 2.095034e-001 1.299151e+000 1.213465e+000 -2.542367e-001 -1.046072e+000 -9.101242e-001 3.893538e-003 -2.772214e-002 -2.629598e-002 -2.386029e-002 1.478134e-002 3.613194e-002 2.297244e-002 1.628558e-002 1.714196e-002 2.751614e-002 7.156945e-003 1.819281e-002 -5.086591e-003 -6.470112e-002
<VARIANCE> 25
 4.413623e+001 4.682184e+001 4.402841e+001 3.663808e+001 4.551680e+001 4.392607e+001 4.063331e+001 4.502020e+001 4.341418e+001 3.722163e+001 3.857010e+001 2.756445e+001 2.548305e+000 3.324567e+000 2.715447e+000 2.766516e+000 3.346519e+000 3.251861e+000 3.206120e+000 3.549050e+000 3.194610e+000 2.801247e+000 2.785367e+000 2.252645e+000 3.087458e+000
<GCONST> 1.045630e+002
<STATE> 4
<MEAN> 25
 -1.141448e-001 -1.060822e+000 9.043154e-001 2.287307e-001 3.125911e-001 2.610261e-001 1.325495e+000 1.228616e+000 -1.985435e-001 -1.020199e+000 -8.488082e-001 -1.872941e-002 -3.608343e-002 -2.364432e-002 -2.738720e-002 1.563869e-002 3.234439e-002 2.023257e-002 1.013453e-002 1.425297e-002 3.400173e-002 1.321950e-002 2.918960e-002 -3.374100e-003 -7.589321e-002
<VARIANCE> 25
 4.426105e+001 4.664011e+001 4.392491e+001 3.698232e+001 4.554877e+001 4.388043e+001 4.058733e+001 4.512737e+001 4.306158e+001 3.722010e+001 3.876151e+001 2.757997e+001 2.495346e+000 3.247458e+000 2.686815e+000 2.747941e+000 3.306508e+000 3.226325e+000 3.178841e+000 3.517967e+000 3.156725e+000 2.791569e+000 2.775541e+000 2.234818e+000 3.022951e+000
<GCONST> 1.044201e+002
<TRANSP> 5
 0.000000e+000 1.000000e+000 0.000000e+000 0.000000e+000 0.000000e+000
 0.000000e+000 5.393195e-001 4.606805e-001 0.000000e+000 0.000000e+000
 0.000000e+000 0.000000e+000 5.393131e-001 4.606869e-001 0.000000e+000
 0.000000e+000 0.000000e+000 0.000000e+000 6.318203e-001 3.681797e-001
 0.000000e+000 0.000000e+000 0.000000e+000 0.000000e+000 0.000000e+000
<ENDHMM>
~h "S"
<BEGINHMM>
<NUMSTATES> 5
<STATE> 2
<MEAN> 25
 -2.479000e+000 -2.816848e-001 1.078156e+000 6.436988e-001 -2.495201e-001 -4.445440e-001 -2.809113e-001 -1.281605e-001 1.374793e+000 -9.278466e-001 4.109077e-001 1.883650e-001 6.140709e-002 3.097013e-002 -6.340659e-002 -9.068280e-003 2.890645e-002 -3.168027e-002 6.012082e-003 2.930586e-002 -6.030879e-004 2.652898e-002 -2.612545e-002 -8.728251e-003 -5.204046e-002
<VARIANCE> 25
 8.850500e+001 4.670899e+001 5.265012e+001 4.103205e+001 4.968452e+001 5.321225e+001 4.344964e+001 4.953130e+001 6.199080e+001 4.728956e+001 4.494613e+001 2.856242e+001 5.565064e+000 3.355681e+000 2.978443e+000 2.947181e+000 3.547673e+000 3.748842e+000 3.500849e+000 3.842740e+000 4.352213e+000 3.581790e+000 3.355200e+000 2.435074e+000 2.735147e+000
<GCONST> 1.087865e+002
<STATE> 3
<MEAN> 25
 -2.321090e+000 -2.109134e-001 9.414949e-001 6.228532e-001 -1.995419e-001 -5.098219e-001 -2.655371e-001 -6.787641e-002 1.345272e+000 -8.617940e-001 3.575433e-001 1.702639e-001 7.774629e-002 3.488155e-002 -6.287876e-002 -1.146748e-002 2.080685e-002 -2.706873e-002 5.906091e-003 2.598643e-002 -1.954987e-002 3.367388e-002 -2.142704e-002 -7.392348e-003 -5.747208e-002
<VARIANCE> 25
 8.712123e+001 4.692858e+001 5.181629e+001 4.084857e+001 4.923880e+001 5.323218e+001 4.336179e+001 4.938436e+001 6.079924e+001 4.669857e+001 4.469842e+001 2.847961e+001 5.463904e+000 3.387892e+000 2.971997e+000 2.940232e+000 3.533529e+000 3.762842e+000 3.492849e+000 3.842151e+000 4.277353e+000 3.546802e+000 3.342662e+000 2.436707e+000 2.785475e+000
<GCONST> 1.086729e+002
<STATE> 4
<MEAN> 25
 -2.095850e+000 -1.272042e-001 7.882916e-001 5.928944e-001 -1.654431e-001 -5.682582e-001 -2.433098e-001 -8.788687e-003 1.255518e+000 -7.632778e-001 3.103874e-001 1.476692e-001 8.770391e-002 3.691688e-002 -5.910150e-002 -1.227789e-002 1.258644e-002 -2.044892e-002 5.730301e-003 2.040828e-002 -3.738794e-002 3.789169e-002 -1.600606e-002 -5.147269e-003 -5.869839e-002
<VARIANCE> 25
 8.523819e+001 4.712603e+001 5.097155e+001 4.081701e+001 4.890599e+001 5.322180e+001 4.316245e+001 4.922245e+001 5.924479e+001 4.590499e+001 4.435767e+001 2.835217e+001 5.311368e+000 3.415431e+000 2.959847e+000 2.934376e+000 3.517969e+000 3.772096e+000 3.479133e+000 3.842246e+000 4.180431e+000 3.500005e+000 3.321123e+000 2.432064e+000 2.839539e+000
<GCONST> 1.085105e+002
<TRANSP> 5
 0.000000e+000 1.000000e+000 0.000000e+000 0.000000e+000 0.000000e+000
 0.000000e+000 5.398195e-001 4.601805e-001 0.000000e+000 0.000000e+000
 0.000000e+000 0.000000e+000 5.398229e-001 4.601772e-001 0.000000e+000
 0.000000e+000 0.000000e+000 0.000000e+000 6.313714e-001 3.686286e-001
 0.000000e+000 0.000000e+000 0.000000e+000 0.000000e+000 0.000000e+000
<ENDHMM>
~h "Z"
<BEGINHMM>
<NUMSTATES> 5
<STATE> 2
<MEAN> 25
 -3.734926e-001 -1.550295e-001 1.958224e+000 6.458559e-001 -6.222277e-001 -2.656691e-001 -7.252121e-001 -1.529846e+000 6.063132e-001 -2.703187e-001 5.463629e-001 -1.561055e-001 5.447781e-002 -1.349184e-002 -9.460013e-002 -4.294669e-002 4.367533e-002 3.319509e-002 2.079943e-002 6.207129e-002 -7.796202e-003 2.941454e-002 -2.963000e-002 -2.429267e-002 -3.022814e-002
<VARIANCE> 25
 5.815998e+001 3.761775e+001 5.503226e+001 4.017260e+001 4.882983e+001 5.106023e+001 4.494820e+001 5.567839e+001 5.605286e+001 4.316382e+001 4.312496e+001 2.756035e+001 4.559755e+000 3.201591e+000 3.417673e+000 3.107085e+000 3.540977e+000 3.962989e+000 3.670292e+000 4.228814e+000 4.157176e+000 3.382972e+000 3.354405e+000 2.400692e+000 2.601753e+000
<GCONST> 1.079699e+002
<STATE> 3
<MEAN> 25
 -2.362953e-001 -1.841156e-001 1.752144e+000 5.486663e-001 -5.404945e-001 -1.952756e-001 -6.777459e-001 -1.387202e+000 5.697411e-001 -1.994128e-001 4.779303e-001 -2.094505e-001 6.544703e-002 -1.302112e-002 -9.653726e-002 -4.620574e-002 3.534096e-002 2.988444e-002 2.333574e-002 7.118540e-002 -2.024258e-002 3.455935e-002 -3.391426e-002 -2.364146e-002 -3.849918e-002
<VARIANCE> 25
 5.746714e+001 3.792853e+001 5.461498e+001 4.045793e+001 4.850021e+001 5.094164e+001 4.478652e+001 5.541362e+001 5.518354e+001 4.258900e+001 4.308652e+001 2.746884e+001 4.446752e+000 3.223825e+000 3.385420e+000 3.106246e+000 3.527085e+000 3.924559e+000 3.646897e+000 4.211282e+000 4.120539e+000 3.351233e+000 3.354670e+000 2.391501e+000 2.635346e+000
<GCONST> 1.078535e+002
<STATE> 4
<MEAN> 25
 -6.148847e-002 -2.060682e-001 1.522115e+000 4.337862e-001 -4.682569e-001 -1.312151e-001 -6.189376e-001 -1.204274e+000 5.023991e-001 -1.119574e-001 3.938150e-001 -2.675224e-001 6.785513e-002 -1.110149e-002 -9.101841e-002 -4.305483e-002 2.701441e-002 2.579712e-002 2.719061e-002 7.605764e-002 -2.899592e-002 3.530835e-002 -3.547584e-002 -2.104513e-002 -4.573498e-002
<VARIANCE> 25
 5.650010e+001 3.831420e+001 5.404888e+001 4.063577e+001 4.820851e+001 5.087618e+001 4.469726e+001 5.507098e+001 5.406166e+001 4.192129e+001 4.299247e+001 2.739542e+001 4.292816e+000 3.246947e+000 3.343148e+000 3.099701e+000 3.510533e+000 3.879905e+000 3.629089e+000 4.189895e+000 4.068090e+000 3.313702e+000 3.347032e+000 2.382689e+000 2.677515e+000
<GCONST> 1.077009e+002
<TRANSP> 5
 0.000000e+000 1.000000e+000 0.000000e+000 0.000000e+000 0.000000e+000
 0.000000e+000 5.351145e-001 4.648855e-001 0.000000e+000 0.000000e+000
 0.000000e+000 0.000000e+000 5.351134e-001 4.648867e-001 0.000000e+000
 0.000000e+000 0.000000e+000 0.000000e+000 6.254083e-001 3.745917e-001
 0.000000e+000 0.000000e+000 0.000000e+000 0.000000e+000 0.000000e+000
<ENDHMM>
~h "a"
<BEGINHMM>
<NUMSTATES> 5
<STATE> 2
<MEAN> 25
 4.713749e-001 -6.428823e-001 -7.562237e-001 -1.924602e-001 7.265255e-001 7.093531e-002 2.783220e-001 5.606803e-001 5.574751e-001 -9.526585e-002 -9.834741e-001 -3.139570e-001 -1.525834e-002 2.387293e-002 2.627267e-002 -1.870898e-003 -1.609983e-002 8.426078e-003 6.278487e-003 -7.699966e-003 -1.937749e-002 -1.756720e-003 2.995722e-002 1.267302e-002 -2.826198e-002
<VARIANCE> 25
 5.318020e+001 5.062590e+001 4.540735e+001 4.094300e+001 4.626749e+001 4.966495e+001 4.146883e+001 4.829113e+001 4.406113e+001 3.894142e+001 4.330075e+001 2.967692e+001 3.117486e+000 3.615462e+000 2.697784e+000 2.974818e+000 3.137795e+000 3.537574e+000 3.317747e+000 3.866106e+000 3.320456e+000 3.073467e+000 3.150091e+000 2.424071e+000 3.106895e+000
<GCONST> 1.062738e+002
<STATE> 3
<MEAN> 25
 4.338433e-001 -5.803080e-001 -6.898245e-001 -1.909877e-001 6.884137e-001 8.671891e-002 2.911705e-001 5.378144e-001 5.120864e-001 -9.634476e-002 -9.110303e-001 -2.828250e-001 -1.876012e-002 2.954508e-002 3.158733e-002 1.573114e-003 -1.853451e-002 6.476359e-003 5.253387e-003 -1.230474e-002 -2.217972e-002 1.026598e-004 3.573671e-002 1.550031e-002 -3.774598e-002
<VARIANCE> 25
 5.359660e+001 5.043158e+001 4.559279e+001 4.115148e+001 4.639391e+001 4.977634e+001 4.149504e+001 4.831582e+001 4.414729e+001 3.887376e+001 4.324932e+001 2.958334e+001 3.112946e+000 3.585296e+000 2.696249e+000 2.978375e+000 3.141494e+000 3.540737e+000 3.314941e+000 3.855418e+000 3.320470e+000 3.066932e+000 3.134438e+000 2.413988e+000 3.065933e+000
<GCONST> 1.062536e+002
<STATE> 4
<MEAN> 25
 3.880329e-001 -5.017458e-001 -6.048039e-001 -1.815319e-001 6.401247e-001 9.718603e-002 2.983725e-001 4.990924e-001 4.516850e-001 -9.708206e-002 -8.185813e-001 -2.433455e-001 -2.190377e-002 3.043181e-002 3.407808e-002 3.667709e-003 -1.920624e-002 4.389756e-003 3.087982e-003 -1.536982e-002 -2.322851e-002 1.251883e-003 3.889564e-002 1.730681e-002 -4.221344e-002
<VARIANCE> 25
 5.408504e+001 5.013694e+001 4.586956e+001 4.137407e+001 4.657415e+001 4.988692e+001 4.147051e+001 4.834938e+001 4.412244e+001 3.873101e+001 4.312669e+001 2.943966e+001 3.106177e+000 3.543056e+000 2.691633e+000 2.980030e+000 3.147412e+000 3.543902e+000 3.313230e+000 3.843923e+000 3.316687e+000 3.057698e+000 3.114936e+000 2.398244e+000 3.028802e+000
<GCONST> 1.062175e+002
<TRANSP> 5
 0.000000e+000 1.000000e+000 0.000000e+000 0.000000e+000 0.000000e+000
 0.000000e+000 5.381988e-001 4.618013e-001 0.000000e+000 0.000000e+000
 0.000000e+000 0.000000e+000 5.381962e-001 4.618039e-001 0.000000e+000
 0.000000e+000 0.000000e+000 0.000000e+000 6.295690e-001 3.704310e-001
 0.000000e+000 0.000000e+000 0.000000e+000 0.000000e+000 0.000000e+000
<ENDHMM>
~h "b"
<BEGINHMM>
<NUMSTATES> 5
<STATE> 2
<MEAN> 25
 8.497890e-001 5.722241e-001 -4.481550e-001 -7.699502e-001 2.525622e-001 8.667197e-001 -3.647144e-001 -2.919319e-001 -9.586147e-002 -8.052390e-002 4.501148e-002 -5.934307e-001 -2.851387e-002 -1.595589e-002 6.439564e-002 5.026078e-002 -2.965675e-002 -2.862108e-002 1.767519e-003 2.188566e-003 -2.335713e-002 -9.859258e-003 -1.553819e-003 1.426391e-002 2.138370e-002
<VARIANCE> 25
 5.666611e+001 4.758089e+001 5.255148e+001 5.467902e+001 4.854189e+001 5.399799e+001 4.522063e+001 4.928039e+001 4.879178e+001 4.107016e+001 4.193551e+001 3.022082e+001 3.250822e+000 3.728085e+000 2.910352e+000 3.771841e+000 3.643599e+000 3.716531e+000 3.775772e+000 4.282356e+000 3.835584e+000 3.449671e+000 3.417109e+000 2.554347e+000 3.366127e+000
<GCONST> 1.083802e+002
<STATE> 3
<MEAN> 25
 7.699426e-001 5.187160e-001 -3.203445e-001 -6.707151e-001 1.830854e-001 8.087274e-001 -3.539844e-001 -2.754818e-001 -1.383700e-001 -9.957022e-002 4.581064e-002 -5.496117e-001 -4.249523e-002 -2.863888e-002 5.667831e-002 4.480397e-002 -3.043425e-002 -2.629584e-002 8.341318e-003 9.646678e-003 -1.779928e-002 -9.492540e-003 1.293347e-004 2.258260e-002 2.326298e-002
<VARIANCE> 25
 5.670732e+001 4.753012e+001 5.302421e+001 5.413854e+001 4.914069e+001 5.390405e+001 4.529945e+001 4.965668e+001 4.925727e+001 4.117749e+001 4.191034e+001 3.014859e+001 3.235895e+000 3.702786e+000 2.933575e+000 3.744924e+000 3.682720e+000 3.725152e+000 3.770297e+000 4.277901e+000 3.839073e+000 3.444170e+000 3.406426e+000 2.552979e+000 3.335584e+000
<GCONST> 1.083943e+002
<STATE> 4
<MEAN> 25
 6.681103e-001 4.378792e-001 -2.006059e-001 -5.835881e-001 9.786045e-002 7.455264e-001 -3.369732e-001 -2.469539e-001 -1.800743e-001 -1.204788e-001 5.408975e-002 -4.849967e-001 -5.118906e-002 -3.631957e-002 4.621710e-002 3.572839e-002 -2.933408e-002 -2.311261e-002 1.468314e-002 1.404051e-002 -1.270206e-002 -9.793688e-003 2.516565e-003 2.737779e-002 2.030999e-002
<VARIANCE> 25
 5.672374e+001 4.739193e+001 5.349379e+001 5.352163e+001 4.999729e+001 5.387146e+001 4.544376e+001 5.015355e+001 4.962433e+001 4.134515e+001 4.191948e+001 2.996761e+001 3.213344e+000 3.650516e+000 2.953217e+000 3.706081e+000 3.707625e+000 3.731189e+000 3.759581e+000 4.268652e+000 3.831085e+000 3.428337e+000 3.381185e+000 2.546244e+000 3.276012e+000
<GCONST> 1.083681e+002
<TRANSP> 5
 0.000000e+000 1.000000e+000 0.000000e+000 0.000000e+000 0.000000e+000
 0.000000e+000 5.354782e-001 4.645217e-001 0.000000e+000 0.000000e+000
 0.000000e+000 0.000000e+000 5.354800e-001 4.645201e-001 0.000000e+000
 0.000000e+000 0.000000e+000 0.000000e+000 6.260191e-001 3.739809e-001
 0.000000e+000 0.000000e+000 0.000000e+000 0.000000e+000 0.000000e+000
<ENDHMM>
~h "c"
<BEGINHMM>
<NUMSTATES> 5
<STATE> 2
<MEAN> 25
 -2.026263e+000 1.349649e+000 3.495526e-001 1.141877e+000 -4.004957e-001 -1.392492e+000 6.142569e-001 -3.967190e-001 -3.268933e-001 -8.371865e-002 -1.623390e-001 6.200549e-001 3.528519e-002 -5.393382e-002 7.916891e-003 -3.987085e-002 1.616028e-002 1.998970e-002 -3.212427e-002 8.340473e-003 1.271588e-002 2.823974e-003 -3.754189e-003 -5.486728e-003 -3.094302e-003
<VARIANCE> 25
 7.228352e+001 4.943000e+001 5.543669e+001 3.983607e+001 5.064373e+001 5.404440e+001 4.297205e+001 5.119121e+001 4.549907e+001 3.650558e+001 4.002951e+001 2.914732e+001 4.641850e+000 3.612653e+000 3.327402e+000 2.906494e+000 3.688080e+000 3.886675e+000 3.615045e+000 3.911905e+000 3.455254e+000 3.012409e+000 3.147787e+000 2.451020e+000 2.860630e+000
<GCONST> 1.077533e+002
<STATE> 3
<MEAN> 25
 -1.932016e+000 1.228536e+000 3.744876e-001 1.053291e+000 -3.681056e-001 -1.341164e+000 5.424389e-001 -3.848024e-001 -3.056754e-001 -7.915982e-002 -1.670224e-001 6.035035e-001 4.941492e-002 -5.954122e-002 1.093390e-002 -4.146725e-002 1.555153e-002 2.880382e-002 -3.442269e-002 3.842956e-003 9.593639e-003 1.358507e-003 -3.173153e-003 -1.013445e-002 -5.123219e-003
<VARIANCE> 25
 7.176141e+001 4.936680e+001 5.553173e+001 4.009152e+001 5.079284e+001 5.420164e+001 4.316217e+001 5.149694e+001 4.571774e+001 3.667698e+001 3.999047e+001 2.909000e+001 4.565832e+000 3.592852e+000 3.303755e+000 2.913316e+000 3.671510e+000 3.868577e+000 3.608837e+000 3.931670e+000 3.459624e+000 3.018790e+000 3.151299e+000 2.444283e+000 2.849637e+000
<GCONST> 1.077409e+002
<STATE> 4
<MEAN> 25
 -1.770809e+000 1.079759e+000 4.066469e-001 9.432856e-001 -3.298592e-001 -1.243231e+000 4.532677e-001 -3.877413e-001 -2.918869e-001 -7.207316e-002 -1.716909e-001 5.649723e-001 6.091455e-002 -6.235044e-002 1.269935e-002 -3.995578e-002 1.613955e-002 3.766386e-002 -3.497541e-002 1.184456e-003 7.826272e-003 5.742734e-004 -2.872710e-003 -1.348169e-002 -8.335832e-003
<VARIANCE> 25
 7.094051e+001 4.919196e+001 5.560613e+001 4.049152e+001 5.103088e+001 5.434428e+001 4.325713e+001 5.178015e+001 4.586097e+001 3.690345e+001 3.994920e+001 2.902050e+001 4.454466e+000 3.558614e+000 3.265316e+000 2.925332e+000 3.650163e+000 3.850120e+000 3.591625e+000 3.953172e+000 3.454780e+000 3.021674e+000 3.149110e+000 2.431707e+000 2.841735e+000
<GCONST> 1.076971e+002
<TRANSP> 5
 0.000000e+000 1.000000e+000 0.000000e+000 0.000000e+000 0.000000e+000
 0.000000e+000 5.415712e-001 4.584288e-001 0.000000e+000 0.000000e+000
 0.000000e+000 0.000000e+000 5.415727e-001 4.584272e-001 0.000000e+000
 0.000000e+000 0.000000e+000 0.000000e+000 6.334291e-001 3.665709e-001
 0.000000e+000 0.000000e+000 0.000000e+000 0.000000e+000 0.000000e+000
<ENDHMM>
~h "d"
<BEGINHMM>
<NUMSTATES> 5
<STATE> 2
<MEAN> 25
 6.808359e-001 3.619784e-001 2.848161e-001 1.360756e-001 -4.746142e-002 -5.848130e-001 -2.259885e-001 -8.648773e-003 3.317236e-001 3.120219e-001 -5.604859e-001 7.053979e-003 -2.124934e-002 3.484764e-003 3.824229e-004 1.005550e-002 -2.886795e-003 7.649363e-003 9.561811e-003 -2.750959e-003 -4.082440e-003 -4.227281e-003 1.672630e-002 9.918863e-003 3.060165e-003
<VARIANCE> 25
 5.043699e+001 4.830960e+001 4.765253e+001 4.090306e+001 4.776992e+001 5.221357e+001 4.189833e+001 4.520258e+001 4.205289e+001 3.733157e+001 4.220053e+001 2.999718e+001 3.186014e+000 3.701499e+000 2.866550e+000 3.041806e+000 3.387673e+000 3.764735e+000 3.504354e+000 3.733039e+000 3.266933e+000 3.131673e+000 3.144494e+000 2.516328e+000 3.444478e+000
<GCONST> 1.065716e+002
<STATE> 3
<MEAN> 25
 6.310148e-001 3.611112e-001 2.768799e-001 1.525348e-001 -5.290158e-002 -5.633022e-001 -2.021415e-001 -1.340677e-002 3.218408e-001 3.049549e-001 -5.188251e-001 2.901882e-002 -2.540060e-002 -2.433660e-004 -4.596858e-003 7.322410e-003 -2.817226e-003 1.106021e-002 1.240555e-002 -1.775145e-003 -5.935450e-003 -4.003694e-003 2.067338e-002 1.065402e-002 1.313491e-004
<VARIANCE> 25
 5.110677e+001 4.835347e+001 4.758071e+001 4.085955e+001 4.780971e+001 5.221256e+001 4.207068e+001 4.529171e+001 4.208075e+001 3.730797e+001 4.226327e+001 2.998076e+001 3.203333e+000 3.685572e+000 2.866075e+000 3.039981e+000 3.390032e+000 3.768363e+000 3.502560e+000 3.733816e+000 3.267479e+000 3.123060e+000 3.137895e+000 2.510319e+000 3.419461e+000
<GCONST> 1.065783e+002
<STATE> 4
<MEAN> 25
 5.707659e-001 3.547934e-001 2.554168e-001 1.669941e-001 -5.934772e-002 -5.312133e-001 -1.678147e-001 -2.155964e-002 3.072782e-001 2.934155e-001 -4.650284e-001 5.119989e-002 -2.842233e-002 -8.997265e-004 -7.704850e-003 5.579378e-003 -1.539231e-003 1.338501e-002 1.543398e-002 -9.460155e-004 -7.275288e-003 -4.540045e-003 2.262604e-002 9.655922e-003 -5.737507e-003
<VARIANCE> 25
 5.189655e+001 4.835908e+001 4.756850e+001 4.089452e+001 4.795284e+001 5.221757e+001 4.224451e+001 4.543515e+001 4.207266e+001 3.728672e+001 4.233054e+001 2.993235e+001 3.217038e+000 3.649803e+000 2.860337e+000 3.029088e+000 3.388488e+000 3.765421e+000 3.494121e+000 3.729996e+000 3.260503e+000 3.106548e+000 3.123878e+000 2.497415e+000 3.380281e+000
<GCONST> 1.065596e+002
<TRANSP> 5
 0.000000e+000 1.000000e+000 0.000000e+000 0.000000e+000 0.000000e+000
 0.000000e+000 5.384733e-001 4.615267e-001 0.000000e+000 0.000000e+000
 0.000000e+000 0.000000e+000 5.384699e-001 4.615301e-001 0.000000e+000
 0.000000e+000 0.000000e+000 0.000000e+000 6.302912e-001 3.697088e-001
 0.000000e+000 0.000000e+000 0.000000e+000 0.000000e+000 0.000000e+000
<ENDHMM>
~h "e"
<BEGINHMM>
<NUMSTATES> 5
<STATE> 2
<MEAN> 25
 -2.087462e-001 8.574305e-002 6.502267e-001 5.925577e-001 -9.149539e-001 -1.120868e+000 1.397683e-001 3.288143e-001 3.407264e-002 1.915501e-002 1.102778e-001 2.825906e-001 6.633876e-003 -8.869961e-004 -2.999981e-002 -2.966810e-003 3.546718e-002 2.781627e-002 4.950686e-005 -4.719814e-003 1.229838e-002 1.508969e-003 -4.196707e-004 -7.610667e-003 -2.612317e-002
<VARIANCE> 25
 5.695897e+001 4.705027e+001 4.760807e+001 4.014470e+001 4.933907e+001 5.255389e+001 4.246355e+001 4.588183e+001 4.420958e+001 3.734024e+001 4.022217e+001 2.858692e+001 3.458474e+000 3.534426e+000 2.800724e+000 3.032380e+000 3.511888e+000 3.743891e+000 3.457488e+000 3.888786e+000 3.482444e+000 3.032497e+000 3.003735e+000 2.407155e+000 3.147361e+000
<GCONST> 1.065871e+002
<STATE> 3
<MEAN> 25
 -1.960722e-001 8.458582e-002 5.815250e-001 5.810758e-001 -8.340212e-001 -1.052193e+000 1.380399e-001 3.145618e-001 5.882319e-002 2.317937e-002 1.114707e-001 2.650559e-001 6.315876e-003 -6.054058e-004 -3.337694e-002 -7.658021e-003 3.927261e-002 3.517380e-002 -2.133560e-003 -8.711908e-003 1.059854e-002 1.956279e-003 1.290112e-003 -8.898094e-003 -2.825188e-002
<VARIANCE> 25
 5.693289e+001 4.707921e+001 4.774704e+001 4.032979e+001 4.926792e+001 5.256954e+001 4.246306e+001 4.594838e+001 4.428955e+001 3.738264e+001 4.036605e+001 2.858578e+001 3.449817e+000 3.541405e+000 2.802215e+000 3.037241e+000 3.499442e+000 3.738325e+000 3.452913e+000 3.885298e+000 3.483775e+000 3.034140e+000 3.011279e+000 2.404919e+000 3.145303e+000
<GCONST> 1.065978e+002
<STATE> 4
<MEAN> 25
 -1.765375e-001 8.582962e-002 4.985593e-001 5.554326e-001 -7.408065e-001 -9.546067e-001 1.315867e-001 2.849133e-001 8.068723e-002 3.292133e-002 1.211403e-001 2.409787e-001 6.022402e-003 -1.667356e-003 -3.522046e-002 -1.209877e-002 4.068836e-002 4.098041e-002 -4.031185e-003 -1.176101e-002 8.566797e-003 2.598312e-003 3.253059e-003 -9.673104e-003 -2.850279e-002
<VARIANCE> 25
 5.687650e+001 4.704218e+001 4.792807e+001 4.061015e+001 4.922889e+001 5.260993e+001 4.243201e+001 4.603333e+001 4.428002e+001 3.742948e+001 4.050494e+001 2.854388e+001 3.431617e+000 3.537565e+000 2.799698e+000 3.036717e+000 3.482713e+000 3.729351e+000 3.444225e+000 3.874663e+000 3.475587e+000 3.031677e+000 3.013635e+000 2.398700e+000 3.140018e+000
<GCONST> 1.065842e+002
<TRANSP> 5
 0.000000e+000 1.000000e+000 0.000000e+000 0.000000e+000 0.000000e+000
 0.000000e+000 5.371384e-001 4.628616e-001 0.000000e+000 0.000000e+000
 0.000000e+000 0.000000e+000 5.371327e-001 4.628673e-001 0.000000e+000
 0.000000e+000 0.000000e+000 0.000000e+000 6.284891e-001 3.715109e-001
 0.000000e+000 0.000000e+000 0.000000e+000 0.000000e+000 0.000000e+000
<ENDHMM>
~h "f"
<BEGINHMM>
<NUMSTATES> 5
<STATE> 2
<MEAN> 25
 -1.783341e-001 -2.733621e-001 -1.091219e+000 -2.896124e-001 1.535129e+000 1.514421e+000 1.064583e-001 -5.240818e-001 -5.864458e-001 3.236087e-001 -1.212309e-001 -3.549220e-001 9.507120e-002 -2.363285e-002 -2.321271e-002 -6.109445e-002 -1.217892e-002 3.048255e-002 -3.017576e-002 -6.212077e-002 -1.848820e-002 3.869410e-002 2.696829e-002 -2.167711e-003 1.996085e-002
<VARIANCE> 25
 6.445318e+001 4.432930e+001 4.805420e+001 3.737645e+001 4.293432e+001 4.591050e+001 4.161914e+001 4.677887e+001 4.023967e+001 3.684023e+001 3.936523e+001 2.864955e+001 4.123332e+000 3.617293e+000 2.937757e+000 3.511348e+000 3.581210e+000 3.614550e+000 3.447580e+000 4.108925e+000 3.434281e+000 3.189788e+000 3.123791e+000 2.320291e+000 2.703174e+000
<GCONST> 1.065042e+002
<STATE> 3
<MEAN> 25
 5.047000e-002 -3.141759e-001 -1.137373e+000 -4.200805e-001 1.490448e+000 1.561236e+000 5.131158e-002 -6.659949e-001 -6.233525e-001 3.919424e-001 -8.457585e-002 -3.740652e-001 1.085978e-001 -1.594818e-002 -1.594192e-002 -6.224138e-002 -2.143544e-002 2.041127e-002 -2.240541e-002 -7.001305e-002 -2.107793e-002 2.961989e-002 1.463143e-002 -1.376208e-002 1.852140e-002
<VARIANCE> 25
 6.304896e+001 4.438025e+001 4.848528e+001 3.754493e+001 4.353871e+001 4.660574e+001 4.186660e+001 4.674949e+001 4.062838e+001 3.667579e+001 3.926259e+001 2.865294e+001 4.100845e+000 3.619905e+000 2.979184e+000 3.564235e+000 3.630145e+000 3.654388e+000 3.469307e+000 4.144104e+000 3.459151e+000 3.217159e+000 3.166333e+000 2.314420e+000 2.763974e+000
<GCONST> 1.066462e+002
<STATE> 4
<MEAN> 25
 2.911951e-001 -3.432461e-001 -1.118219e+000 -5.468485e-001 1.415695e+000 1.556669e+000 2.235837e-002 -8.029130e-001 -6.584532e-001 4.218507e-001 -7.532261e-002 -4.107671e-001 1.025470e-001 -2.714097e-003 2.833612e-004 -4.938994e-002 -1.820786e-002 9.037297e-003 -9.974018e-003 -6.645577e-002 -2.344557e-002 1.929835e-002 1.441733e-003 -2.341804e-002 1.165845e-002
<VARIANCE> 25
 6.121142e+001 4.448149e+001 4.888467e+001 3.755112e+001 4.422551e+001 4.697120e+001 4.207679e+001 4.661702e+001 4.106475e+001 3.680299e+001 3.931595e+001 2.888475e+001 4.034942e+000 3.634213e+000 3.004928e+000 3.593256e+000 3.638285e+000 3.685565e+000 3.466606e+000 4.141852e+000 3.480028e+000 3.246626e+000 3.205215e+000 2.299482e+000 2.822116e+000
<GCONST> 1.067320e+002
<TRANSP> 5
 0.000000e+000 1.000000e+000 0.000000e+000 0.000000e+000 0.000000e+000
 0.000000e+000 5.361558e-001 4.638442e-001 0.000000e+000 0.000000e+000
 0.000000e+000 0.000000e+000 5.361552e-001 4.638448e-001 0.000000e+000
 0.000000e+000 0.000000e+000 0.000000e+000 6.271354e-001 3.728646e-001
 0.000000e+000 0.000000e+000 0.000000e+000 0.000000e+000 0.000000e+000
<ENDHMM>
~h "g"
<BEGINHMM>
<NUMSTATES> 5
<STATE> 2
<MEAN> 25
 1.101047e+000 7.178795e-001 -7.610604e-001 -7.082173e-001 1.885342e-001 4.997122e-001 -4.297318e-001 -5.308613e-001 -7.436381e-001 5.527119e-001 3.975075e-001 -3.552316e-001 -4.504565e-002 -8.100499e-003 -8.743724e-003 2.087808e-002 2.454182e-002 -3.477630e-002 1.021292e-002 2.159959e-002 5.749230e-002 6.156348e-003 -1.850645e-002 1.288390e-002 1.130480e-002
<VARIANCE> 25
 5.137100e+001 4.984542e+001 5.401978e+001 5.003453e+001 5.057742e+001 5.785443e+001 4.430410e+001 4.953197e+001 5.060250e+001 4.175171e+001 4.394382e+001 2.868536e+001 3.132657e+000 3.881707e+000 2.985640e+000 3.635914e+000 3.529434e+000 3.969469e+000 3.731883e+000 4.200385e+000 3.900608e+000 3.438525e+000 3.472217e+000 2.488136e+000 3.057118e+000
<GCONST> 1.083118e+002
<STATE> 3
<MEAN> 25
 1.000065e+000 6.933198e-001 -7.715999e-001 -6.569716e-001 2.364354e-001 4.221554e-001 -4.088818e-001 -4.811300e-001 -6.157950e-001 5.654198e-001 3.566047e-001 -3.254195e-001 -4.710227e-002 -1.196686e-002 -3.310573e-003 2.655837e-002 2.209690e-002 -3.780273e-002 9.011670e-003 2.511669e-002 6.087759e-002 4.887193e-003 -2.210109e-002 1.483304e-002 8.802996e-003
<VARIANCE> 25
 5.181242e+001 5.016053e+001 5.348625e+001 4.944963e+001 5.039853e+001 5.773699e+001 4.421374e+001 4.950791e+001 5.023095e+001 4.156054e+001 4.389238e+001 2.871362e+001 3.159707e+000 3.887010e+000 2.944782e+000 3.582021e+000 3.507376e+000 3.935572e+000 3.711442e+000 4.175099e+000 3.855645e+000 3.416224e+000 3.452772e+000 2.483191e+000 3.030125e+000
<GCONST> 1.082050e+002
<STATE> 4
<MEAN> 25
 8.857930e-001 6.622125e-001 -7.714738e-001 -5.859227e-001 2.827083e-001 3.225247e-001 -3.895263e-001 -4.148474e-001 -4.663780e-001 5.836264e-001 2.983623e-001 -2.892947e-001 -4.768470e-002 -1.426835e-002 2.312531e-003 3.279774e-002 1.976918e-002 -3.982041e-002 9.250975e-003 2.935477e-002 6.041995e-002 1.976356e-003 -2.388612e-002 1.637465e-002 4.215952e-003
<VARIANCE> 25
 5.230745e+001 5.040783e+001 5.286822e+001 4.872227e+001 5.024694e+001 5.747316e+001 4.408199e+001 4.949909e+001 4.975555e+001 4.132218e+001 4.375962e+001 2.871274e+001 3.185514e+000 3.879000e+000 2.901796e+000 3.516815e+000 3.476219e+000 3.895473e+000 3.683391e+000 4.142147e+000 3.800824e+000 3.385317e+000 3.422601e+000 2.473514e+000 2.999265e+000
<GCONST> 1.080560e+002
<TRANSP> 5
 0.000000e+000 1.000000e+000 0.000000e+000 0.000000e+000 0.000000e+000
 0.000000e+000 5.346942e-001 4.653059e-001 0.000000e+000 0.000000e+000
 0.000000e+000 0.000000e+000 5.347011e-001 4.652989e-001 0.000000e+000
 0.000000e+000 0.000000e+000 0.000000e+000 6.250256e-001 3.749743e-001
 0.000000e+000 0.000000e+000 0.000000e+000 0.000000e+000 0.000000e+000
<ENDHMM>
~h "h"
<BEGINHMM>
<NUMSTATES> 5
<STATE> 2
<MEAN> 25
 1.899789e-001 -5.852449e-001 5.888323e-001 6.483356e-001 3.709833e-001 -8.228418e-002 1.876226e-001 2.988850e-001 -7.667457e-001 -1.299211e-002 -7.199621e-001 -4.627711e-001 -1.819004e-002 -3.318297e-002 -1.064475e-001 1.469817e-002 3.804519e-002 -5.598720e-003 4.295617e-002 3.529241e-002 5.737844e-002 -1.308315e-002 -3.512458e-002 -1.129256e-002 2.455314e-002
<VARIANCE> 25
 5.567630e+001 4.813589e+001 6.663004e+001 4.087094e+001 5.215978e+001 5.169382e+001 4.411018e+001 4.384776e+001 4.594672e+001 3.826672e+001 4.129451e+001 2.851997e+001 3.206032e+000 3.414175e+000 3.211251e+000 3.101211e+000 3.906191e+000 3.871176e+000 3.569385e+000 3.822890e+000 3.694594e+000 3.114788e+000 3.198024e+000 2.491230e+000 2.668752e+000
<GCONST> 1.072814e+002
<STATE> 3
<MEAN> 25
 1.498086e-001 -6.404549e-001 3.768176e-001 6.788227e-001 4.294748e-001 -9.363404e-002 2.815137e-001 3.769953e-001 -6.401778e-001 -4.780150e-002 -7.770991e-001 -4.811853e-001 -2.256228e-002 -1.801720e-002 -9.453134e-002 1.131895e-002 2.078812e-002 -3.691921e-003 4.449325e-002 3.651659e-002 5.783318e-002 -1.493225e-002 -2.294626e-002 -7.882905e-003 1.735514e-002
<VARIANCE> 25
 5.641507e+001 4.831274e+001 6.518991e+001 4.040031e+001 5.123581e+001 5.162176e+001 4.431614e+001 4.359795e+001 4.552335e+001 3.808264e+001 4.152256e+001 2.877538e+001 3.219180e+000 3.395737e+000 3.175610e+000 3.063533e+000 3.838274e+000 3.855532e+000 3.559151e+000 3.809944e+000 3.657258e+000 3.083025e+000 3.185058e+000 2.497542e+000 2.655936e+000
<GCONST> 1.071656e+002
<STATE> 4
<MEAN> 25
 8.570934e-002 -6.648936e-001 1.696916e-001 7.070963e-001 4.385689e-001 -9.700029e-002 3.771063e-001 4.561275e-001 -4.982145e-001 -8.273401e-002 -7.981685e-001 -4.855878e-001 -2.807148e-002 -1.884132e-003 -8.059651e-002 9.221910e-003 3.536596e-003 -1.221621e-003 4.524796e-002 3.685652e-002 5.565161e-002 -1.346034e-002 -1.041214e-002 -4.383438e-003 7.495444e-003
<VARIANCE> 25
 5.758818e+001 4.837389e+001 6.343211e+001 4.000649e+001 5.031039e+001 5.157724e+001 4.438031e+001 4.340862e+001 4.507132e+001 3.795440e+001 4.187611e+001 2.902037e+001 3.239977e+000 3.365618e+000 3.127939e+000 3.015250e+000 3.753198e+000 3.831235e+000 3.538728e+000 3.790548e+000 3.608047e+000 3.047818e+000 3.167688e+000 2.495567e+000 2.644488e+000
<GCONST> 1.070232e+002
<TRANSP> 5
 0.000000e+000 1.000000e+000 0.000000e+000 0.000000e+000 0.000000e+000
 0.000000e+000 5.368291e-001 4.631709e-001 0.000000e+000 0.000000e+000
 0.000000e+000 0.000000e+000 5.368282e-001 4.631718e-001 0.000000e+000
 0.000000e+000 0.000000e+000 0.000000e+000 6.277896e-001 3.722104e-001
 0.000000e+000 0.000000e+000 0.000000e+000 0.000000e+000 0.000000e+000
<ENDHMM>
~h "i"
<BEGINHMM>
<NUMSTATES> 5
<STATE> 2
<MEAN> 25
 -9.052449e-001 6.653138e-001 2.208775e+000 6.238989e-001 -1.274284e+000 -5.380801e-001 4.792517e-003 -7.701781e-001 -1.073784e+000 3.027670e-002 4.657864e-001 2.900933e-001 7.167269e-003 -2.923336e-002 -5.534653e-002 -1.202055e-002 3.722620e-002 1.246981e-002 7.006172e-004 2.398637e-002 2.936947e-002 -7.849691e-003 -5.621435e-003 -7.837140e-004 2.226580e-003
<VARIANCE> 25
 5.798589e+001 4.371218e+001 6.160999e+001 4.305022e+001 5.483437e+001 5.212990e+001 4.291801e+001 4.939515e+001 5.001891e+001 4.067715e+001 4.003253e+001 2.707788e+001 3.519668e+000 3.221921e+000 3.264747e+000 3.137539e+000 3.911124e+000 3.787350e+000 3.498876e+000 3.954963e+000 3.747299e+000 3.196076e+000 3.119414e+000 2.326982e+000 2.998903e+000
<GCONST> 1.075329e+002
<STATE> 3
<MEAN> 25
 -8.845649e-001 5.990713e-001 2.070826e+000 5.981834e-001 -1.180430e+000 -5.083017e-001 1.043036e-002 -7.094117e-001 -1.000805e+000 1.452833e-002 4.517821e-001 2.875922e-001 1.117974e-002 -3.181314e-002 -6.958294e-002 -1.296943e-002 4.730863e-002 1.519529e-002 3.112047e-003 3.060001e-002 3.760954e-002 -6.936993e-003 -7.669094e-003 -1.905488e-003 -3.573482e-003
<VARIANCE> 25
 5.805917e+001 4.403761e+001 6.125173e+001 4.316299e+001 5.465815e+001 5.215208e+001 4.306666e+001 4.940637e+001 4.984790e+001 4.064526e+001 4.011188e+001 2.713829e+001 3.506822e+000 3.225288e+000 3.241213e+000 3.136597e+000 3.870735e+000 3.776536e+000 3.494568e+000 3.938773e+000 3.719923e+000 3.186284e+000 3.113575e+000 2.326829e+000 2.973860e+000
<GCONST> 1.074898e+002
<STATE> 4
<MEAN> 25
 -8.452976e-001 5.260987e-001 1.886222e+000 5.609550e-001 -1.055582e+000 -4.648944e-001 1.747044e-002 -6.358192e-001 -9.021282e-001 7.215256e-003 4.283073e-001 2.791878e-001 1.549821e-002 -3.385016e-002 -7.916711e-002 -1.370637e-002 5.407948e-002 1.741833e-002 5.027336e-003 3.527270e-002 4.221347e-002 -5.696651e-003 -9.368194e-003 -2.719964e-003 -9.250499e-003
<VARIANCE> 25
 5.809127e+001 4.441593e+001 6.073523e+001 4.321843e+001 5.440353e+001 5.220609e+001 4.321204e+001 4.944578e+001 4.949591e+001 4.052990e+001 4.017457e+001 2.723195e+001 3.483215e+000 3.224549e+000 3.211306e+000 3.129353e+000 3.823058e+000 3.762961e+000 3.488556e+000 3.923018e+000 3.680533e+000 3.170346e+000 3.102863e+000 2.324466e+000 2.954273e+000
<GCONST> 1.074203e+002
<TRANSP> 5
 0.000000e+000 1.000000e+000 0.000000e+000 0.000000e+000 0.000000e+000
 0.000000e+000 5.366880e-001 4.633119e-001 0.000000e+000 0.000000e+000
 0.000000e+000 0.000000e+000 5.366987e-001 4.633013e-001 0.000000e+000
 0.000000e+000 0.000000e+000 0.000000e+000 6.274832e-001 3.725167e-001
 0.000000e+000 0.000000e+000 0.000000e+000 0.000000e+000 0.000000e+000
<ENDHMM>
~h "j"
<BEGINHMM>
<NUMSTATES> 5
<STATE> 2
<MEAN> 25
 2.391765e-001 -2.884967e-002 1.455678e+000 1.500090e-001 -1.498937e+000 -8.948480e-001 5.128036e-002 4.438672e-002 -7.845412e-001 1.715297e-001 -7.730861e-002 1.628542e-001 1.042299e-002 -9.584863e-003 -1.981901e-002 8.249552e-003 1.408265e-002 -7.850531e-003 -1.299523e-002 1.229356e-002 2.680587e-002 -3.750464e-003 -8.870661e-004 1.427963e-003 1.087103e-002
<VARIANCE> 25
 4.978064e+001 4.624693e+001 5.595362e+001 4.159591e+001 5.403379e+001 5.053930e+001 4.351747e+001 4.987997e+001 4.810060e+001 3.938288e+001 4.078825e+001 2.740919e+001 2.931327e+000 3.266815e+000 3.308037e+000 3.158576e+000 3.720157e+000 3.746529e+000 3.498439e+000 3.989489e+000 3.531471e+000 3.126026e+000 2.992972e+000 2.265391e+000 2.843908e+000
<GCONST> 1.068391e+002
<STATE> 3
<MEAN> 25
 2.603006e-001 -4.842984e-002 1.385986e+000 1.773413e-001 -1.437469e+000 -9.016964e-001 2.481605e-002 7.564350e-002 -7.037172e-001 1.551394e-001 -8.195402e-002 1.646105e-001 9.383612e-003 -8.014893e-003 -3.707847e-002 1.281798e-002 3.465828e-002 1.527639e-003 -1.299846e-002 1.335893e-002 4.006800e-002 -8.553773e-003 -2.140607e-003 4.358168e-005 -4.448100e-003
<VARIANCE> 25
 5.005197e+001 4.626049e+001 5.554155e+001 4.157391e+001 5.374107e+001 5.064996e+001 4.366732e+001 4.973989e+001 4.813081e+001 3.947982e+001 4.096886e+001 2.745003e+001 2.961744e+000 3.295620e+000 3.288184e+000 3.156158e+000 3.694780e+000 3.747725e+000 3.498267e+000 3.982638e+000 3.533865e+000 3.128851e+000 3.009490e+000 2.270576e+000 2.847339e+000
<GCONST> 1.068579e+002
<STATE> 4
<MEAN> 25
 2.781987e-001 -6.055323e-002 1.267880e+000 2.096063e-001 -1.321167e+000 -8.805920e-001 -6.543292e-003 1.074474e-001 -5.792578e-001 1.271864e-001 -9.315591e-002 1.618554e-001 6.413984e-003 -6.862203e-003 -4.999056e-002 1.210154e-002 5.107977e-002 1.315844e-002 -1.187417e-002 1.264315e-002 4.843171e-002 -1.188567e-002 -3.758326e-003 -1.596552e-003 -1.559554e-002
<VARIANCE> 25
 5.055769e+001 4.636620e+001 5.495730e+001 4.157953e+001 5.325661e+001 5.076059e+001 4.376041e+001 4.963935e+001 4.800818e+001 3.958923e+001 4.123427e+001 2.749028e+001 3.002654e+000 3.324711e+000 3.260929e+000 3.148773e+000 3.662900e+000 3.748073e+000 3.495414e+000 3.973470e+000 3.528188e+000 3.133540e+000 3.032891e+000 2.276609e+000 2.862525e+000
<GCONST> 1.068769e+002
<TRANSP> 5
 0.000000e+000 1.000000e+000 0.000000e+000 0.000000e+000 0.000000e+000
 0.000000e+000 5.353349e-001 4.646651e-001 0.000000e+000 0.000000e+000
 0.000000e+000 0.000000e+000 5.353289e-001 4.646711e-001 0.000000e+000
 0.000000e+000 0.000000e+000 0.000000e+000 6.260127e-001 3.739872e-001
 0.000000e+000 0.000000e+000 0.000000e+000 0.000000e+000 0.000000e+000
<ENDHMM>
~h "k"
<BEGINHMM>
<NUMSTATES> 5
<STATE> 2
<MEAN> 25
 -1.599885e-001 -5.288718e-001 -1.056952e+000 -3.132075e-002 7.353916e-001 -6.525910e-003 -3.319302e-001 2.292439e-001 -6.224626e-002 3.699988e-001 3.756280e-001 -2.528148e-001 5.126787e-002 -2.012318e-002 8.447159e-003 -6.836590e-003 -2.049294e-002 6.716546e-003 -9.544965e-003 -2.336964e-002 -1.043826e-002 1.343612e-003 1.001438e-002 2.824181e-003 9.419033e-003
<VARIANCE> 25
 5.981216e+001 4.658171e+001 5.388504e+001 4.611186e+001 5.109486e+001 5.290158e+001 4.490029e+001 5.119017e+001 5.081987e+001 4.119392e+001 4.432783e+001 2.842599e+001 3.569001e+000 3.651199e+000 3.329696e+000 3.432887e+000 3.681965e+000 3.842686e+000 3.625245e+000 4.076661e+000 3.953399e+000 3.367297e+000 3.372672e+000 2.532669e+000 3.447902e+000
<GCONST> 1.084427e+002
<STATE> 3
<MEAN> 25
 -5.494031e-002 -5.626038e-001 -1.028876e+000 -3.937523e-002 6.941412e-001 8.452085e-003 -3.440211e-001 1.788340e-001 -8.248850e-002 3.667350e-001 3.940513e-001 -2.434033e-001 5.187735e-002 -1.625028e-002 1.533104e-002 -3.681512e-003 -2.015173e-002 8.868148e-003 -3.295643e-003 -2.279252e-002 -9.805611e-003 -2.259108e-003 7.782566e-003 5.455160e-003 5.973903e-003
<VARIANCE> 25
 5.951281e+001 4.644771e+001 5.319001e+001 4.591491e+001 5.053134e+001 5.277757e+001 4.478710e+001 5.132513e+001 5.068125e+001 4.127103e+001 4.443433e+001 2.835842e+001 3.515657e+000 3.609386e+000 3.280293e+000 3.416386e+000 3.644105e+000 3.825915e+000 3.605830e+000 4.069000e+000 3.930503e+000 3.362119e+000 3.367195e+000 2.522952e+000 3.380167e+000
<GCONST> 1.083025e+002
<STATE> 4
<MEAN> 25
 6.202737e-002 -5.835849e-001 -9.841971e-001 -4.362768e-002 6.511991e-001 2.952454e-002 -3.382028e-001 1.309913e-001 -1.074753e-001 3.539062e-001 4.003967e-001 -2.276647e-001 4.775144e-002 -1.111439e-002 1.885251e-002 -1.119206e-003 -1.580529e-002 1.145070e-002 3.416594e-003 -1.913926e-002 -8.467973e-003 -5.910548e-003 2.715734e-003 7.542610e-003 1.310493e-003
<VARIANCE> 25
 5.909887e+001 4.638680e+001 5.233953e+001 4.569291e+001 4.995892e+001 5.268251e+001 4.459436e+001 5.142308e+001 5.034949e+001 4.130179e+001 4.446574e+001 2.829183e+001 3.446812e+000 3.563067e+000 3.219665e+000 3.392097e+000 3.594988e+000 3.805749e+000 3.581800e+000 4.054040e+000 3.891379e+000 3.351317e+000 3.349760e+000 2.505670e+000 3.305444e+000
<GCONST> 1.081148e+002
<TRANSP> 5
 0.000000e+000 1.000000e+000 0.000000e+000 0.000000e+000 0.000000e+000
 0.000000e+000 5.368409e-001 4.631591e-001 0.000000e+000 0.000000e+000
 0.000000e+000 0.000000e+000 5.368334e-001 4.631666e-001 0.000000e+000
 0.000000e+000 0.000000e+000 0.000000e+000 6.278216e-001 3.721784e-001
 0.000000e+000 0.000000e+000 0.000000e+000 0.000000e+000 0.000000e+000
<ENDHMM>
~h "l"
<BEGINHMM>
<NUMSTATES> 5
<STATE> 2
<MEAN> 25
 5.005089e-001 -6.226636e-002 -8.233242e-001 -9.545929e-001 3.130615e-001 1.078684e+000 -2.168741e-001 -1.055561e+000 7.962646e-003 5.023423e-001 4.453329e-001 -2.686613e-001 -2.064509e-002 1.261975e-002 4.304252e-002 2.230152e-002 1.527010e-003 -2.484535e-002 1.955091e-002 2.739911e-002 4.681091e-003 -1.513243e-002 -2.186518e-002 1.680837e-003 -2.846813e-002
<VARIANCE> 25
 6.054808e+001 4.473790e+001 5.231434e+001 5.081673e+001 5.100961e+001 5.901058e+001 4.409056e+001 5.078474e+001 4.784124e+001 3.912540e+001 4.264107e+001 2.988146e+001 3.450002e+000 3.328629e+000 2.943582e+000 3.564153e+000 3.533705e+000 3.963162e+000 3.680727e+000 4.336297e+000 3.697378e+000 3.250814e+000 3.248837e+000 2.452071e+000 2.944108e+000
<GCONST> 1.079875e+002
<STATE> 3
<MEAN> 25
 4.478981e-001 -2.767447e-002 -7.263297e-001 -9.013117e-001 3.169461e-001 1.021526e+000 -1.725579e-001 -9.903653e-001 1.702818e-002 4.651805e-001 3.997971e-001 -2.619872e-001 -2.640726e-002 1.635377e-002 4.665906e-002 2.721580e-002 1.937371e-003 -2.820168e-002 2.067351e-002 3.327856e-002 3.994368e-003 -1.903076e-002 -2.157300e-002 3.816938e-003 -3.342605e-002
<VARIANCE> 25
 6.059911e+001 4.470020e+001 5.238379e+001 5.040292e+001 5.106603e+001 5.881820e+001 4.402912e+001 5.076494e+001 4.794907e+001 3.912369e+001 4.259059e+001 2.988903e+001 3.453475e+000 3.322909e+000 2.946364e+000 3.536194e+000 3.527930e+000 3.949259e+000 3.669109e+000 4.306352e+000 3.688071e+000 3.237174e+000 3.237724e+000 2.447659e+000 2.955789e+000
<GCONST> 1.079471e+002
<STATE> 4
<MEAN> 25
 3.815387e-001 1.996478e-002 -6.133073e-001 -8.314746e-001 3.255830e-001 9.556390e-001 -1.256379e-001 -9.057617e-001 2.759054e-002 4.157335e-001 3.493894e-001 -2.508755e-001 -3.302990e-002 1.867503e-002 4.768776e-002 3.137206e-002 2.868627e-003 -3.107541e-002 2.043628e-002 3.773323e-002 3.802496e-003 -2.111680e-002 -2.010509e-002 6.586979e-003 -3.699822e-002
<VARIANCE> 25
 6.061470e+001 4.467953e+001 5.242704e+001 4.994970e+001 5.117294e+001 5.852374e+001 4.394218e+001 5.074911e+001 4.793272e+001 3.911681e+001 4.249048e+001 2.982755e+001 3.446382e+000 3.314312e+000 2.949271e+000 3.498082e+000 3.517236e+000 3.928529e+000 3.651481e+000 4.263982e+000 3.665908e+000 3.217854e+000 3.221801e+000 2.439313e+000 2.969630e+000
<GCONST> 1.078754e+002
<TRANSP> 5
 0.000000e+000 1.000000e+000 0.000000e+000 0.000000e+000 0.000000e+000
 0.000000e+000 5.367451e-001 4.632550e-001 0.000000e+000 0.000000e+000
 0.000000e+000 0.000000e+000 5.367445e-001 4.632555e-001 0.000000e+000
 0.000000e+000 0.000000e+000 0.000000e+000 6.276193e-001 3.723807e-001
 0.000000e+000 0.000000e+000 0.000000e+000 0.000000e+000 0.000000e+000
<ENDHMM>
~h "m"
<BEGINHMM>
<NUMSTATES> 5
<STATE> 2
<MEAN> 25
 1.057857e+000 2.949634e-002 2.519879e-001 2.669238e-001 -1.592739e-001 2.154881e-001 7.869035e-002 -4.147698e-001 -8.268957e-001 -2.309554e-001 -6.605677e-002 -3.477294e-001 -1.902078e-002 4.870063e-003 -6.575070e-003 -1.698124e-002 -6.484825e-003 1.221081e-002 3.944356e-003 2.064061e-002 6.577745e-003 -3.463060e-003 -3.601659e-003 1.105053e-002 3.637953e-002
<VARIANCE> 25
 5.384373e+001 4.464311e+001 4.687991e+001 4.700381e+001 5.020921e+001 5.225044e+001 4.122548e+001 5.230083e+001 4.717884e+001 3.837029e+001 3.989178e+001 2.866848e+001 3.106103e+000 3.239530e+000 2.915789e+000 3.490801e+000 3.535929e+000 3.728845e+000 3.439351e+000 4.375240e+000 3.681732e+000 3.094433e+000 3.052925e+000 2.428259e+000 2.804120e+000
<GCONST> 1.069078e+002
<STATE> 3
<MEAN> 25
 1.002259e+000 3.787534e-002 2.287496e-001 2.202925e-001 -1.748554e-001 2.402416e-001 8.293004e-002 -3.532672e-001 -7.903836e-001 -2.349229e-001 -7.037218e-002 -3.188342e-001 -2.979172e-002 4.064962e-003 -1.270094e-002 -2.189521e-002 -7.055320e-003 9.922815e-003 1.075686e-003 3.021172e-002 2.146777e-002 -1.145258e-003 -9.151985e-004 1.511513e-002 2.492094e-002
<VARIANCE> 25
 5.420756e+001 4.493615e+001 4.726588e+001 4.743021e+001 5.033918e+001 5.257773e+001 4.130028e+001 5.223598e+001 4.713781e+001 3.845523e+001 4.004984e+001 2.865712e+001 3.112478e+000 3.255277e+000 2.915671e+000 3.488831e+000 3.536059e+000 3.728704e+000 3.438452e+000 4.345086e+000 3.657674e+000 3.093246e+000 3.050803e+000 2.419672e+000 2.771703e+000
<GCONST> 1.069289e+002
<STATE> 4
<MEAN> 25
 9.220964e-001 4.848505e-002 1.877452e-001 1.595541e-001 -1.889857e-001 2.603163e-001 7.308260e-002 -2.819728e-001 -7.161808e-001 -2.277507e-001 -6.570291e-002 -2.785935e-001 -3.507943e-002 1.597883e-003 -1.622691e-002 -2.043664e-002 -5.867370e-003 5.201684e-003 -2.818834e-003 3.010953e-002 3.093698e-002 3.497227e-003 2.528481e-003 1.775157e-002 1.184642e-002
<VARIANCE> 25
 5.469293e+001 4.522890e+001 4.779864e+001 4.794789e+001 5.059107e+001 5.301909e+001 4.144118e+001 5.203702e+001 4.687606e+001 3.850431e+001 4.020318e+001 2.858928e+001 3.122858e+000 3.263023e+000 2.911160e+000 3.471977e+000 3.534759e+000 3.727459e+000 3.435994e+000 4.301533e+000 3.624148e+000 3.091425e+000 3.048350e+000 2.408031e+000 2.746679e+000
<GCONST> 1.069398e+002
<TRANSP> 5
 0.000000e+000 1.000000e+000 0.000000e+000 0.000000e+000 0.000000e+000
 0.000000e+000 5.370696e-001 4.629305e-001 0.000000e+000 0.000000e+000
 0.000000e+000 0.000000e+000 5.370656e-001 4.629345e-001 0.000000e+000
 0.000000e+000 0.000000e+000 0.000000e+000 6.281713e-001 3.718288e-001
 0.000000e+000 0.000000e+000 0.000000e+000 0.000000e+000 0.000000e+000
<ENDHMM>
~h "n"
<BEGINHMM>
<NUMSTATES> 5
<STATE> 2
<MEAN> 25
 7.276671e-001 -1.157980e-001 5.185827e-002 4.383907e-002 2.285733e-001 4.026140e-001 1.886817e-001 -2.313619e-001 -2.259970e-001 -2.084609e-001 -8.458717e-001 -2.350730e-001 -1.620244e-002 9.043697e-004 -5.860071e-003 -1.507747e-002 -5.761978e-003 -5.014210e-003 3.390287e-004 8.113655e-003 -1.812340e-004 3.918177e-003 6.136168e-003 4.186181e-003 3.155774e-002
<VARIANCE> 25
 5.518591e+001 4.746569e+001 4.744950e+001 4.412912e+001 4.922021e+001 5.280917e+001 4.197984e+001 5.013732e+001 4.492884e+001 3.952960e+001 4.278157e+001 2.838616e+001 3.198324e+000 3.477579e+000 2.802265e+000 3.244868e+000 3.348420e+000 3.765819e+000 3.428711e+000 4.165271e+000 3.453963e+000 3.167390e+000 3.142234e+000 2.355762e+000 2.977705e+000
<GCONST> 1.068588e+002
<STATE> 3
<MEAN> 25
 6.763361e-001 -1.163552e-001 3.468946e-002 5.360385e-003 2.168422e-001 4.014887e-001 1.940623e-001 -1.985527e-001 -2.205169e-001 -2.026328e-001 -8.137593e-001 -2.265050e-001 -2.679318e-002 6.947659e-004 -8.377440e-003 -1.795628e-002 -6.242986e-003 -1.615602e-003 2.436808e-003 1.651946e-002 4.020277e-003 2.882740e-003 1.898664e-002 4.761613e-003 1.770459e-002
<VARIANCE> 25
 5.536773e+001 4.770188e+001 4.776320e+001 4.427406e+001 4.947591e+001 5.283796e+001 4.210781e+001 5.005153e+001 4.499315e+001 3.958516e+001 4.277778e+001 2.833028e+001 3.195709e+000 3.480628e+000 2.809872e+000 3.244539e+000 3.355027e+000 3.749263e+000 3.426955e+000 4.143686e+000 3.448112e+000 3.169688e+000 3.128745e+000 2.349574e+000 2.933527e+000
<GCONST> 1.068564e+002
<STATE> 4
<MEAN> 25
 6.030260e-001 -1.061298e-001 2.240906e-002 -4.122515e-002 1.929651e-001 4.016031e-001 1.954729e-001 -1.588838e-001 -2.108015e-001 -1.957046e-001 -7.475221e-001 -2.169759e-001 -3.347464e-002 5.537943e-003 -7.047620e-003 -1.615734e-002 -8.304061e-003 -1.479610e-003 2.145207e-003 1.701765e-002 6.218175e-003 4.305647e-003 2.975876e-002 5.360821e-003 2.356303e-004
<VARIANCE> 25
 5.563193e+001 4.791750e+001 4.822670e+001 4.443690e+001 4.988710e+001 5.288583e+001 4.226533e+001 4.994698e+001 4.498642e+001 3.964665e+001 4.269669e+001 2.825132e+001 3.196216e+000 3.469632e+000 2.815494e+000 3.232425e+000 3.359386e+000 3.728679e+000 3.423307e+000 4.108969e+000 3.432273e+000 3.166586e+000 3.115731e+000 2.339719e+000 2.887239e+000
<GCONST> 1.068383e+002
<TRANSP> 5
 0.000000e+000 1.000000e+000 0.000000e+000 0.000000e+000 0.000000e+000
 0.000000e+000 5.368850e-001 4.631149e-001 0.000000e+000 0.000000e+000
 0.000000e+000 0.000000e+000 5.368710e-001 4.631290e-001 0.000000e+000
 0.000000e+000 0.000000e+000 0.000000e+000 6.278846e-001 3.721154e-001
 0.000000e+000 0.000000e+000 0.000000e+000 0.000000e+000 0.000000e+000
<ENDHMM>
~h "o"
<BEGINHMM>
<NUMSTATES> 5
<STATE> 2
<MEAN> 25
 8.407745e-001 2.748496e-001 -1.164860e+000 -1.134497e+000 4.843222e-001 1.320501e+000 -5.129615e-001 -6.438938e-001 -8.295882e-002 3.597376e-001 5.112376e-001 -3.432933e-001 -3.743453e-002 4.047453e-003 2.542864e-002 2.436810e-002 -5.536842e-003 -3.084271e-002 1.833591e-002 2.377442e-002 1.422033e-002 -4.691169e-003 -1.156369e-002 8.381735e-003 -3.068275e-003
<VARIANCE> 25
 5.768165e+001 4.456271e+001 4.931099e+001 5.360846e+001 4.922540e+001 5.807591e+001 4.452590e+001 4.881675e+001 4.843556e+001 4.014759e+001 4.279422e+001 2.864158e+001 3.513683e+000 3.441632e+000 2.906806e+000 3.709917e+000 3.379589e+000 3.877987e+000 3.606084e+000 4.049865e+000 3.693179e+000 3.255750e+000 3.266616e+000 2.415170e+000 3.015716e+000
<GCONST> 1.077863e+002
<STATE> 3
<MEAN> 25
 7.516881e-001 2.816319e-001 -1.099624e+000 -1.065346e+000 4.710295e-001 1.242056e+000 -4.707927e-001 -5.915644e-001 -5.026828e-002 3.493081e-001 4.836649e-001 -3.216315e-001 -4.349107e-002 2.682911e-003 3.352222e-002 3.562716e-002 -7.227574e-003 -4.037366e-002 2.020091e-002 2.543416e-002 1.521612e-002 -5.535089e-003 -1.445691e-002 1.138870e-002 -8.880552e-003
<VARIANCE> 25
 5.802747e+001 4.473097e+001 4.936475e+001 5.311124e+001 4.927650e+001 5.790660e+001 4.449580e+001 4.881844e+001 4.841549e+001 4.006660e+001 4.270633e+001 2.868044e+001 3.525463e+000 3.443995e+000 2.893862e+000 3.672945e+000 3.376322e+000 3.867098e+000 3.601986e+000 4.041538e+000 3.681967e+000 3.249605e+000 3.258425e+000 2.416797e+000 2.998579e+000
<GCONST> 1.077523e+002
<STATE> 4
<MEAN> 25
 6.413904e-001 2.881876e-001 -1.003897e+000 -9.605545e-001 4.436637e-001 1.126278e+000 -4.223560e-001 -5.323229e-001 -1.288989e-002 3.375035e-001 4.451235e-001 -2.897362e-001 -4.629558e-002 2.921376e-004 4.014908e-002 4.376523e-002 -9.762527e-003 -4.791822e-002 2.200085e-002 2.618689e-002 1.444587e-002 -6.248444e-003 -1.637663e-002 1.412889e-002 -1.311498e-002
<VARIANCE> 25
 5.840303e+001 4.489607e+001 4.945637e+001 5.231201e+001 4.937678e+001 5.761160e+001 4.441314e+001 4.883053e+001 4.831810e+001 3.995960e+001 4.258232e+001 2.869547e+001 3.533143e+000 3.437280e+000 2.879117e+000 3.619769e+000 3.369399e+000 3.851510e+000 3.592813e+000 4.030218e+000 3.662526e+000 3.236618e+000 3.241790e+000 2.416400e+000 2.985344e+000
<GCONST> 1.076874e+002
<TRANSP> 5
 0.000000e+000 1.000000e+000 0.000000e+000 0.000000e+000 0.000000e+000
 0.000000e+000 5.378819e-001 4.621181e-001 0.000000e+000 0.000000e+000
 0.000000e+000 0.000000e+000 5.378832e-001 4.621167e-001 0.000000e+000
 0.000000e+000 0.000000e+000 0.000000e+000 6.292381e-001 3.707618e-001
 0.000000e+000 0.000000e+000 0.000000e+000 0.000000e+000 0.000000e+000
<ENDHMM>
~h "p"
<BEGINHMM>
<NUMSTATES> 5
<STATE> 2
<MEAN> 25
 8.531628e-001 -1.684424e-001 -5.196841e-001 -5.419500e-001 -1.704669e-001 1.566688e-001 -4.912257e-001 8.477803e-002 2.002935e-001 2.010031e-001 3.509489e-001 -2.349997e-001 2.943561e-002 -2.200847e-002 1.570961e-002 -2.391670e-002 -2.720352e-002 9.532984e-003 -7.403819e-003 -2.159497e-002 -3.493115e-002 1.097653e-002 -1.078169e-004 -1.807124e-003 6.903859e-002
<VARIANCE> 25
 4.665642e+001 4.500764e+001 4.737093e+001 4.717585e+001 4.713926e+001 5.316085e+001 4.291006e+001 4.658541e+001 4.549570e+001 3.751635e+001 4.092088e+001 2.809582e+001 3.222307e+000 3.808875e+000 2.795195e+000 3.647174e+000 3.390076e+000 3.815586e+000 3.618146e+000 3.925980e+000 3.687780e+000 3.168398e+000 3.223204e+000 2.412737e+000 4.115819e+000
<GCONST> 1.071920e+002
<STATE> 3
<MEAN> 25
 9.022639e-001 -2.016112e-001 -4.758968e-001 -5.808343e-001 -2.171475e-001 1.727900e-001 -4.991089e-001 4.348132e-002 1.268181e-001 2.239833e-001 3.437108e-001 -2.381263e-001 1.748024e-002 -1.165755e-002 2.183419e-002 -1.457921e-002 -1.798397e-002 6.986042e-003 -1.958941e-003 -1.813361e-002 -3.449172e-002 1.039057e-002 -4.211763e-003 -8.543815e-004 5.662451e-002
<VARIANCE> 25
 4.633257e+001 4.497497e+001 4.787943e+001 4.765059e+001 4.753563e+001 5.360059e+001 4.318040e+001 4.691829e+001 4.574004e+001 3.771723e+001 4.105334e+001 2.811035e+001 3.197809e+000 3.784341e+000 2.790816e+000 3.658910e+000 3.398314e+000 3.822728e+000 3.609635e+000 3.948141e+000 3.706390e+000 3.185663e+000 3.229328e+000 2.415695e+000 4.012302e+000
<GCONST> 1.072327e+002
<STATE> 4
<MEAN> 25
 9.103288e-001 -2.037893e-001 -4.109424e-001 -5.863295e-001 -2.433708e-001 1.707614e-001 -4.877412e-001 8.710265e-003 4.991750e-002 2.460019e-001 3.213652e-001 -2.387944e-001 -3.109812e-004 -2.910640e-004 2.731891e-002 6.734197e-004 -6.617960e-003 1.471352e-003 5.847046e-003 -1.353255e-002 -2.962433e-002 8.234537e-003 -7.704175e-003 1.187548e-003 3.855227e-002
<VARIANCE> 25
 4.627471e+001 4.503113e+001 4.832986e+001 4.782356e+001 4.804336e+001 5.400555e+001 4.344168e+001 4.728130e+001 4.592737e+001 3.794923e+001 4.118425e+001 2.810621e+001 3.167439e+000 3.756354e+000 2.780056e+000 3.636037e+000 3.400624e+000 3.822400e+000 3.595416e+000 3.969595e+000 3.712977e+000 3.198438e+000 3.224916e+000 2.414198e+000 3.886875e+000
<GCONST> 1.072378e+002
<TRANSP> 5
 0.000000e+000 1.000000e+000 0.000000e+000 0.000000e+000 0.000000e+000
 0.000000e+000 5.364403e-001 4.635596e-001 0.000000e+000 0.000000e+000
 0.000000e+000 0.000000e+000 5.364343e-001 4.635657e-001 0.000000e+000
 0.000000e+000 0.000000e+000 0.000000e+000 6.276489e-001 3.723511e-001
 0.000000e+000 0.000000e+000 0.000000e+000 0.000000e+000 0.000000e+000
<ENDHMM>
~h "r"
<BEGINHMM>
<NUMSTATES> 5
<STATE> 2
<MEAN> 25
 1.068321e+000 -7.965907e-001 -2.323289e-001 -6.862540e-002 -4.407379e-001 -1.426734e-001 -4.071891e-001 1.151453e-001 1.792146e-001 2.221362e-001 -1.074713e-001 -1.266577e-001 -5.068879e-003 5.927322e-003 1.732301e-003 3.072222e-003 1.575530e-002 1.275502e-002 1.957206e-002 -6.097601e-003 -1.336126e-002 -8.017831e-003 -2.537479e-003 -3.317805e-003 -3.239058e-003
<VARIANCE> 25
 4.857809e+001 4.748487e+001 4.792311e+001 4.272110e+001 4.828721e+001 5.271378e+001 4.345453e+001 4.997550e+001 4.743486e+001 3.872608e+001 4.235421e+001 2.855706e+001 2.910803e+000 3.475006e+000 2.759451e+000 3.191397e+000 3.314934e+000 3.657400e+000 3.458517e+000 4.015096e+000 3.609650e+000 3.124074e+000 3.108818e+000 2.386396e+000 2.963144e+000
<GCONST> 1.065826e+002
<STATE> 3
<MEAN> 25
 1.048606e+000 -7.701510e-001 -2.254312e-001 -6.045810e-002 -3.963502e-001 -1.156555e-001 -3.593078e-001 1.012951e-001 1.486237e-001 2.045274e-001 -1.125919e-001 -1.351972e-001 -1.225495e-002 1.623167e-002 3.590599e-003 2.669907e-003 2.233163e-002 1.252849e-002 2.329492e-002 -6.058385e-003 -1.486992e-002 -9.090495e-003 -1.481937e-003 -3.524929e-003 -1.413341e-002
<VARIANCE> 25
 4.897195e+001 4.763394e+001 4.794833e+001 4.268870e+001 4.848317e+001 5.274236e+001 4.335118e+001 4.995470e+001 4.743807e+001 3.880465e+001 4.241883e+001 2.867062e+001 2.910539e+000 3.471258e+000 2.748873e+000 3.187876e+000 3.306338e+000 3.653233e+000 3.447136e+000 4.008994e+000 3.603901e+000 3.121603e+000 3.100754e+000 2.390540e+000 2.929195e+000
<GCONST> 1.065735e+002
<STATE> 4
<MEAN> 25
 1.003866e+000 -7.053198e-001 -2.091228e-001 -5.448451e-002 -3.350121e-001 -8.987331e-002 -2.958927e-001 8.341193e-002 1.095466e-001 1.839927e-001 -1.186425e-001 -1.428349e-001 -2.098762e-002 2.620231e-002 4.471492e-003 2.541863e-003 2.811856e-002 1.188306e-002 2.498018e-002 -5.553275e-003 -1.409139e-002 -9.722119e-003 -2.225909e-004 -2.459617e-003 -2.189430e-002
<VARIANCE> 25
 4.947090e+001 4.771979e+001 4.802297e+001 4.270848e+001 4.869184e+001 5.270522e+001 4.317755e+001 4.988850e+001 4.732296e+001 3.888731e+001 4.241069e+001 2.878195e+001 2.915375e+000 3.462971e+000 2.736888e+000 3.175273e+000 3.293823e+000 3.643540e+000 3.432449e+000 3.995629e+000 3.586045e+000 3.114252e+000 3.089156e+000 2.391468e+000 2.902746e+000
<GCONST> 1.065462e+002
<TRANSP> 5
 0.000000e+000 1.000000e+000 0.000000e+000 0.000000e+000 0.000000e+000
 0.000000e+000 5.374357e-001 4.625644e-001 0.000000e+000 0.000000e+000
 0.000000e+000 0.000000e+000 5.374233e-001 4.625767e-001 0.000000e+000
 0.000000e+000 0.000000e+000 0.000000e+000 6.285402e-001 3.714599e-001
 0.000000e+000 0.000000e+000 0.000000e+000 0.000000e+000 0.000000e+000
<ENDHMM>
~h "s"
<BEGINHMM>
<NUMSTATES> 5
<STATE> 2
<MEAN> 25
 -2.072879e+000 1.412628e+000 -8.749334e-001 6.861556e-001 5.570334e-001 -6.597930e-001 2.197155e-001 -1.843248e-002 2.641194e-001 6.698707e-002 3.075604e-001 2.879973e-001 5.018454e-002 -3.376531e-002 1.579891e-002 -1.158048e-002 -2.202202e-002 1.585117e-004 -4.817519e-003 -1.864664e-002 -1.003029e-002 9.756407e-003 9.480820e-003 -8.206233e-003 -1.197439e-002
<VARIANCE> 25
 7.847313e+001 5.026567e+001 5.068698e+001 4.320618e+001 5.112945e+001 5.165240e+001 4.337919e+001 4.588597e+001 4.252976e+001 3.679332e+001 4.140991e+001 2.914691e+001 4.761662e+000 3.856689e+000 2.971764e+000 3.161662e+000 3.605401e+000 3.781775e+000 3.604528e+000 3.900320e+000 3.346611e+000 3.036990e+000 3.119742e+000 2.434823e+000 3.076011e+000
<GCONST> 1.077217e+002
<STATE> 3
<MEAN> 25
 -1.935379e+000 1.325472e+000 -8.311164e-001 6.539185e-001 5.057687e-001 -6.535287e-001 2.046792e-001 -6.040254e-002 2.395402e-001 8.508189e-002 3.225532e-001 2.660871e-001 7.144416e-002 -4.517487e-002 2.564726e-002 -1.714288e-002 -2.670520e-002 3.809160e-003 -8.431965e-003 -1.994347e-002 -1.273541e-002 8.985089e-003 6.761081e-003 -1.080918e-002 -1.416029e-002
<VARIANCE> 25
 7.767905e+001 5.001901e+001 5.088554e+001 4.292938e+001 5.104299e+001 5.156549e+001 4.333762e+001 4.596580e+001 4.258674e+001 3.678588e+001 4.140819e+001 2.911723e+001 4.700465e+000 3.836804e+000 2.974236e+000 3.154393e+000 3.597212e+000 3.770530e+000 3.601501e+000 3.901696e+000 3.355767e+000 3.036248e+000 3.121156e+000 2.429071e+000 3.096609e+000
<GCONST> 1.076835e+002
<STATE> 4
<MEAN> 25
 -1.714849e+000 1.196720e+000 -7.659448e-001 6.052949e-001 4.399187e-001 -6.317543e-001 1.752508e-001 -1.122267e-001 2.063223e-001 1.058217e-001 3.297718e-001 2.299943e-001 8.808563e-002 -5.249985e-002 3.369946e-002 -2.117742e-002 -2.742890e-002 7.427772e-003 -1.073742e-002 -1.993142e-002 -1.402896e-002 7.633944e-003 2.869437e-003 -1.316426e-002 -1.476363e-002
<VARIANCE> 25
 7.627834e+001 4.966892e+001 5.098812e+001 4.274751e+001 5.087191e+001 5.150703e+001 4.323520e+001 4.606527e+001 4.258192e+001 3.682237e+001 4.140516e+001 2.908040e+001 4.605014e+000 3.799684e+000 2.966194e+000 3.141836e+000 3.577235e+000 3.755836e+000 3.590227e+000 3.895101e+000 3.356398e+000 3.033564e+000 3.115994e+000 2.421247e+000 3.119801e+000
<GCONST> 1.076015e+002
<TRANSP> 5
 0.000000e+000 1.000000e+000 0.000000e+000 0.000000e+000 0.000000e+000
 0.000000e+000 5.387644e-001 4.612356e-001 0.000000e+000 0.000000e+000
 0.000000e+000 0.000000e+000 5.387639e-001 4.612361e-001 0.000000e+000
 0.000000e+000 0.000000e+000 0.000000e+000 6.306214e-001 3.693786e-001
 0.000000e+000 0.000000e+000 0.000000e+000 0.000000e+000 0.000000e+000
<ENDHMM>
~h "t"
<BEGINHMM>
<NUMSTATES> 5
<STATE> 2
<MEAN> 25
 -8.633878e-001 3.504295e-001 2.896061e-001 1.779919e-001 -3.449121e-001 -6.781986e-001 1.205668e-002 4.645123e-002 2.405355e-001 4.540796e-002 4.332487e-001 2.790055e-001 2.657442e-002 -3.578914e-002 -8.093930e-003 -1.019105e-002 9.874281e-003 2.234802e-002 -4.360650e-003 2.627452e-004 3.683159e-006 -1.063899e-003 1.961684e-003 -9.082565e-003 -1.829747e-003
<VARIANCE> 25
 5.692847e+001 4.607860e+001 5.050294e+001 4.116611e+001 4.838399e+001 5.159268e+001 4.350019e+001 4.626239e+001 4.588080e+001 3.758023e+001 4.105242e+001 2.820842e+001 3.751005e+000 3.573879e+000 3.005126e+000 2.986428e+000 3.460923e+000 3.714490e+000 3.567020e+000 3.803154e+000 3.571003e+000 3.077258e+000 3.166673e+000 2.410067e+000 3.718568e+000
<GCONST> 1.070893e+002
<STATE> 3
<MEAN> 25
 -8.038625e-001 2.751829e-001 2.731864e-001 1.575711e-001 -3.203611e-001 -6.227697e-001 6.596520e-003 4.707341e-002 2.361770e-001 4.347375e-002 4.365443e-001 2.587086e-001 2.772503e-002 -3.488502e-002 -9.141842e-003 -8.226855e-003 1.212543e-002 2.738117e-002 -1.717325e-003 8.417021e-004 -2.493009e-003 -7.002277e-004 1.872566e-003 -8.906589e-003 -4.917569e-003
<VARIANCE> 25
 5.665497e+001 4.615710e+001 5.042652e+001 4.116956e+001 4.818794e+001 5.150593e+001 4.344957e+001 4.630091e+001 4.591580e+001 3.760934e+001 4.105533e+001 2.820389e+001 3.715706e+000 3.552104e+000 2.987319e+000 2.991329e+000 3.444782e+000 3.699143e+000 3.555362e+000 3.795918e+000 3.565925e+000 3.074234e+000 3.160118e+000 2.405769e+000 3.660210e+000
<GCONST> 1.070242e+002
<STATE> 4
<MEAN> 25
 -7.332082e-001 1.984459e-001 2.454008e-001 1.402816e-001 -2.861829e-001 -5.465546e-001 7.360920e-003 4.943049e-002 2.249550e-001 4.631714e-002 4.389551e-001 2.370068e-001 2.648101e-002 -3.216552e-002 -1.122828e-002 -7.245678e-003 1.514481e-002 3.206823e-002 2.129916e-003 9.548152e-004 -3.970331e-003 -8.760892e-004 1.254300e-003 -7.531812e-003 -8.966501e-003
<VARIANCE> 25
 5.641776e+001 4.620354e+001 5.039539e+001 4.119287e+001 4.806840e+001 5.138290e+001 4.334341e+001 4.633438e+001 4.580902e+001 3.763381e+001 4.104675e+001 2.819510e+001 3.662782e+000 3.518510e+000 2.959113e+000 2.989572e+000 3.423228e+000 3.678945e+000 3.534945e+000 3.781835e+000 3.547983e+000 3.065214e+000 3.141345e+000 2.395122e+000 3.587912e+000
<GCONST> 1.069187e+002
<TRANSP> 5
 0.000000e+000 1.000000e+000 0.000000e+000 0.000000e+000 0.000000e+000
 0.000000e+000 5.397208e-001 4.602792e-001 0.000000e+000 0.000000e+000
 0.000000e+000 0.000000e+000 5.397182e-001 4.602818e-001 0.000000e+000
 0.000000e+000 0.000000e+000 0.000000e+000 6.316374e-001 3.683626e-001
 0.000000e+000 0.000000e+000 0.000000e+000 0.000000e+000 0.000000e+000
<ENDHMM>
~h "u"
<BEGINHMM>
<NUMSTATES> 5
<STATE> 2
<MEAN> 25
 9.773005e-001 8.404844e-001 -3.961643e-001 -1.066664e+000 -2.219542e-001 1.061085e+000 -1.002071e+000 -6.618132e-001 -6.895239e-001 -6.853901e-002 5.622615e-001 -2.763906e-002 -9.751748e-003 -2.839750e-002 9.074162e-003 1.412118e-002 1.675653e-003 -2.322044e-002 1.670957e-002 1.512545e-002 1.061837e-002 -1.067068e-003 -1.321349e-002 -6.581021e-003 3.178540e-002
<VARIANCE> 25
 5.693142e+001 4.833546e+001 5.013851e+001 5.162452e+001 5.223933e+001 5.299094e+001 4.815061e+001 5.291961e+001 4.919461e+001 4.112598e+001 4.221574e+001 2.815196e+001 3.362946e+000 3.305404e+000 3.024853e+000 3.718240e+000 3.565084e+000 3.905813e+000 3.812147e+000 4.304183e+000 3.747153e+000 3.316350e+000 3.246908e+000 2.394367e+000 2.814450e+000
<GCONST> 1.080530e+002
<STATE> 3
<MEAN> 25
 9.351098e-001 7.625004e-001 -3.681194e-001 -1.010149e+000 -2.013982e-001 1.010740e+000 -9.492925e-001 -6.230447e-001 -6.549271e-001 -7.111151e-002 5.310772e-001 -3.821118e-002 -2.358270e-002 -3.823232e-002 1.461712e-002 3.077845e-002 1.147153e-002 -2.483901e-002 2.690076e-002 1.975333e-002 1.841617e-002 -1.336108e-003 -1.593790e-002 -4.392170e-003 2.311699e-002
<VARIANCE> 25
 5.668300e+001 4.845977e+001 5.002734e+001 5.115478e+001 5.223450e+001 5.297718e+001 4.810581e+001 5.294944e+001 4.909715e+001 4.109101e+001 4.224951e+001 2.821184e+001 3.351125e+000 3.305822e+000 3.018423e+000 3.659747e+000 3.549094e+000 3.887165e+000 3.789278e+000 4.286773e+000 3.723110e+000 3.308378e+000 3.245508e+000 2.390579e+000 2.805784e+000
<GCONST> 1.079845e+002
<STATE> 4
<MEAN> 25
 8.589760e-001 6.574327e-001 -3.212643e-001 -9.123344e-001 -1.620011e-001 9.389658e-001 -8.697036e-001 -5.636288e-001 -5.960675e-001 -7.215729e-002 4.789191e-001 -4.540805e-002 -3.448873e-002 -4.501836e-002 1.962666e-002 4.145827e-002 1.545316e-002 -2.764313e-002 3.299181e-002 2.646575e-002 2.468907e-002 -1.746955e-003 -1.846089e-002 -2.582767e-003 1.515594e-002
<VARIANCE> 25
 5.637791e+001 4.860113e+001 5.002223e+001 5.034104e+001 5.217643e+001 5.297324e+001 4.787687e+001 5.291014e+001 4.880035e+001 4.096507e+001 4.230130e+001 2.823259e+001 3.328817e+000 3.302210e+000 3.011799e+000 3.586966e+000 3.529217e+000 3.860182e+000 3.754978e+000 4.253610e+000 3.687066e+000 3.290003e+000 3.235108e+000 2.382122e+000 2.802216e+000
<GCONST> 1.078692e+002
<TRANSP> 5
 0.000000e+000 1.000000e+000 0.000000e+000 0.000000e+000 0.000000e+000
 0.000000e+000 5.394214e-001 4.605786e-001 0.000000e+000 0.000000e+000
 0.000000e+000 0.000000e+000 5.394202e-001 4.605799e-001 0.000000e+000
 0.000000e+000 0.000000e+000 0.000000e+000 6.310087e-001 3.689912e-001
 0.000000e+000 0.000000e+000 0.000000e+000 0.000000e+000 0.000000e+000
<ENDHMM>
~h "v"
<BEGINHMM>
<NUMSTATES> 5
<STATE> 2
<MEAN> 25
 2.496670e-001 -5.219468e-001 -3.008056e-002 -1.034846e-001 1.349171e-001 1.825326e-001 -9.878603e-002 3.542668e-002 9.880925e-003 9.136778e-002 -1.778691e-002 -2.139523e-001 -1.980692e-002 -1.104862e-002 3.462543e-002 1.541435e-002 -3.877342e-002 -3.429549e-002 -1.798765e-002 -2.938894e-003 8.856643e-004 -6.835712e-003 -1.142805e-002 8.130973e-004 8.194979e-002
<VARIANCE> 25
 5.324329e+001 4.481885e+001 4.965117e+001 4.403026e+001 4.849514e+001 5.231487e+001 4.177486e+001 4.343637e+001 4.323439e+001 3.766276e+001 4.092459e+001 2.882862e+001 2.941396e+000 3.205355e+000 2.636823e+000 3.047223e+000 3.335957e+000 3.499486e+000 3.268310e+000 3.653430e+000 3.377979e+000 2.995253e+000 2.976397e+000 2.382855e+000 3.127314e+000
<GCONST> 1.059034e+002
<STATE> 3
<MEAN> 25
 1.844096e-001 -5.500335e-001 3.249126e-002 -7.437749e-002 5.544742e-002 1.187383e-001 -1.087161e-001 5.103987e-002 3.319796e-002 6.581048e-002 -4.436355e-002 -1.939104e-001 -3.306896e-002 -1.253376e-002 2.669244e-002 1.484079e-002 -3.516040e-002 -3.004602e-002 -7.120069e-004 1.033548e-002 1.424105e-002 -1.433222e-002 -1.384664e-002 1.183652e-002 5.666560e-002
<VARIANCE> 25
 5.371077e+001 4.512508e+001 4.987679e+001 4.374901e+001 4.895859e+001 5.235225e+001 4.172523e+001 4.351150e+001 4.347269e+001 3.784956e+001 4.099025e+001 2.883695e+001 2.948255e+000 3.213254e+000 2.628028e+000 3.044657e+000 3.334106e+000 3.497616e+000 3.250867e+000 3.651526e+000 3.369279e+000 2.995157e+000 2.974551e+000 2.383356e+000 3.060551e+000
<GCONST> 1.059092e+002
<STATE> 4
<MEAN> 25
 1.003321e-001 -5.750071e-001 6.783840e-002 -4.508868e-002 -7.546847e-003 5.667159e-002 -8.580519e-002 9.652935e-002 8.959281e-002 2.019805e-002 -7.824768e-002 -1.604077e-001 -3.625311e-002 -7.428687e-003 1.421848e-002 1.593146e-002 -2.135792e-002 -2.574631e-002 1.261992e-002 2.055234e-002 2.261952e-002 -2.047184e-002 -1.509063e-002 1.482075e-002 2.111194e-002
<VARIANCE> 25
 5.425188e+001 4.543122e+001 4.975949e+001 4.341775e+001 4.931973e+001 5.240110e+001 4.158610e+001 4.364674e+001 4.353514e+001 3.798751e+001 4.108360e+001 2.883615e+001 2.955141e+000 3.213259e+000 2.613705e+000 3.033320e+000 3.315642e+000 3.497066e+000 3.235582e+000 3.644261e+000 3.343531e+000 2.988462e+000 2.972634e+000 2.382251e+000 2.990642e+000
<GCONST> 1.058780e+002
<TRANSP> 5
 0.000000e+000 1.000000e+000 0.000000e+000 0.000000e+000 0.000000e+000
 0.000000e+000 5.375117e-001 4.624883e-001 0.000000e+000 0.000000e+000
 0.000000e+000 0.000000e+000 5.375138e-001 4.624862e-001 0.000000e+000
 0.000000e+000 0.000000e+000 0.000000e+000 6.288748e-001 3.711252e-001
 0.000000e+000 0.000000e+000 0.000000e+000 0.000000e+000 0.000000e+000
<ENDHMM>
~h "z"
<BEGINHMM>
<NUMSTATES> 5
<STATE> 2
<MEAN> 25
 -4.695927e-001 1.876016e+000 -1.450204e+000 1.824040e-001 1.103689e+000 -1.089863e+000 -6.913732e-001 -1.543825e-001 1.049818e+000 7.841837e-001 -6.488840e-001 -4.788711e-002 -2.750698e-003 -1.047823e-002 4.810639e-002 1.011257e-002 -2.129752e-002 -1.699833e-002 2.520799e-002 2.025896e-002 -6.903991e-003 -1.493315e-002 -2.585715e-003 6.392722e-003 1.003995e-002
<VARIANCE> 25
 5.607460e+001 6.304980e+001 4.315440e+001 4.143704e+001 4.677673e+001 5.227878e+001 4.241181e+001 4.776021e+001 4.419517e+001 3.882200e+001 4.028426e+001 2.970501e+001 4.181760e+000 5.022739e+000 2.332956e+000 3.039899e+000 3.149460e+000 3.662365e+000 3.456131e+000 3.834849e+000 3.188132e+000 3.062979e+000 3.214724e+000 2.467259e+000 2.824406e+000
<GCONST> 1.069782e+002
<STATE> 3
<MEAN> 25
 -4.594651e-001 1.825316e+000 -1.338376e+000 1.886866e-001 1.050564e+000 -1.111800e+000 -6.316808e-001 -1.035950e-001 1.033500e+000 7.540457e-001 -6.499465e-001 -3.430384e-002 9.573800e-003 -3.053524e-002 5.572074e-002 4.927996e-004 -2.878881e-002 -7.491356e-003 2.806732e-002 2.367881e-002 -1.018484e-002 -1.389471e-002 1.084322e-004 6.076684e-003 -3.150624e-003
<VARIANCE> 25
 5.590463e+001 6.241127e+001 4.382011e+001 4.127248e+001 4.684666e+001 5.201268e+001 4.243805e+001 4.781740e+001 4.409768e+001 3.881496e+001 4.019736e+001 2.970180e+001 4.156577e+000 4.954940e+000 2.353405e+000 3.031725e+000 3.153512e+000 3.639573e+000 3.452607e+000 3.837075e+000 3.191988e+000 3.055122e+000 3.200272e+000 2.465709e+000 2.855662e+000
<GCONST> 1.069554e+002
<STATE> 4
<MEAN> 25
 -4.097102e-001 1.715939e+000 -1.191868e+000 1.724679e-001 9.574587e-001 -1.111425e+000 -5.613254e-001 -4.431329e-002 1.001313e+000 7.180843e-001 -6.420420e-001 -1.651699e-002 2.273943e-002 -4.789565e-002 6.314182e-002 -1.010363e-002 -3.848727e-002 2.842239e-003 2.867522e-002 2.397896e-002 -1.574510e-002 -1.357019e-002 3.183093e-003 5.550295e-003 -1.695975e-002
<VARIANCE> 25
 5.556528e+001 6.131404e+001 4.464558e+001 4.113712e+001 4.692735e+001 5.172684e+001 4.245039e+001 4.788845e+001 4.406696e+001 3.883271e+001 4.018223e+001 2.967482e+001 4.111678e+000 4.844167e+000 2.379156e+000 3.024855e+000 3.155303e+000 3.624065e+000 3.449930e+000 3.833165e+000 3.199953e+000 3.049366e+000 3.183899e+000 2.460487e+000 2.899781e+000
<GCONST> 1.069218e+002
<TRANSP> 5
 0.000000e+000 1.000000e+000 0.000000e+000 0.000000e+000 0.000000e+000
 0.000000e+000 5.367388e-001 4.632613e-001 0.000000e+000 0.000000e+000
 0.000000e+000 0.000000e+000 5.367362e-001 4.632637e-001 0.000000e+000
 0.000000e+000 0.000000e+000 0.000000e+000 6.275554e-001 3.724446e-001
 0.000000e+000 0.000000e+000 0.000000e+000 0.000000e+000 0.000000e+000
<ENDHMM>
~h "Cc"
<BEGINHMM>
<NUMSTATES> 5
<STATE> 2
<MEAN> 25
 -1.777767e+000 8.207340e-001 1.380722e+000 4.932965e-002 -8.979007e-001 2.604373e-001 -1.001100e+000 2.922931e-001 -2.345484e-001 -8.501068e-001 8.090392e-001 3.945196e-001 3.341419e-002 -1.159726e-002 -2.741349e-002 3.378103e-002 2.201677e-002 -2.333431e-002 1.821224e-002 -5.781656e-003 4.666853e-003 5.458098e-003 -1.715560e-002 -1.325778e-002 -1.727476e-002
<VARIANCE> 25
 8.297992e+001 4.456518e+001 5.146914e+001 4.031364e+001 5.145026e+001 5.985269e+001 4.299129e+001 4.774964e+001 4.792788e+001 4.010188e+001 4.202620e+001 2.738877e+001 5.456479e+000 3.545795e+000 2.864047e+000 3.025318e+000 3.623931e+000 4.322034e+000 3.627362e+000 3.875492e+000 3.664970e+000 3.215711e+000 3.310535e+000 2.336220e+000 2.733496e+000
<GCONST> 1.081035e+002
<STATE> 3
<MEAN> 25
 -1.686598e+000 7.928249e-001 1.312613e+000 1.165087e-001 -8.505383e-001 2.100782e-001 -9.579751e-001 2.695089e-001 -2.325888e-001 -8.308232e-001 7.670457e-001 3.649238e-001 4.857469e-002 -1.385481e-002 -3.718649e-002 2.753062e-002 2.626559e-002 -2.190490e-002 2.050547e-002 -1.277570e-002 5.210353e-004 1.164049e-002 -2.185248e-002 -1.518392e-002 -2.113722e-002
<VARIANCE> 25
 8.207186e+001 4.476785e+001 5.177475e+001 4.041375e+001 5.168170e+001 5.920289e+001 4.295561e+001 4.763870e+001 4.784389e+001 3.997380e+001 4.200529e+001 2.741952e+001 5.375183e+000 3.538475e+000 2.872356e+000 3.031552e+000 3.622796e+000 4.300231e+000 3.613982e+000 3.873958e+000 3.648103e+000 3.210099e+000 3.300216e+000 2.336516e+000 2.734087e+000
<GCONST> 1.080608e+002
<STATE> 4
<MEAN> 25
 -1.542645e+000 7.545657e-001 1.202749e+000 1.694001e-001 -7.906622e-001 1.641881e-001 -8.961914e-001 2.173791e-001 -2.404268e-001 -7.848086e-001 7.122907e-001 3.322975e-001 6.230827e-002 -1.616352e-002 -4.638812e-002 1.788433e-002 2.888457e-002 -1.720351e-002 2.112147e-002 -1.873237e-002 -4.459127e-003 1.782585e-002 -2.452501e-002 -1.582908e-002 -2.318161e-002
<VARIANCE> 25
 8.056152e+001 4.514381e+001 5.222767e+001 4.071362e+001 5.194188e+001 5.839761e+001 4.294921e+001 4.767911e+001 4.768282e+001 3.984039e+001 4.197741e+001 2.748052e+001 5.220883e+000 3.516680e+000 2.881432e+000 3.040820e+000 3.617308e+000 4.258397e+000 3.589746e+000 3.874909e+000 3.618275e+000 3.194908e+000 3.279025e+000 2.334543e+000 2.732137e+000
<GCONST> 1.079858e+002
<TRANSP> 5
 0.000000e+000 1.000000e+000 0.000000e+000 0.000000e+000 0.000000e+000
 0.000000e+000 5.370290e-001 4.629709e-001 0.000000e+000 0.000000e+000
 0.000000e+000 0.000000e+000 5.370310e-001 4.629690e-001 0.000000e+000
 0.000000e+000 0.000000e+000 0.000000e+000 6.279118e-001 3.720883e-001
 0.000000e+000 0.000000e+000 0.000000e+000 0.000000e+000 0.000000e+000
<ENDHMM>
~h "dz"
<BEGINHMM>
<NUMSTATES> 5
<STATE> 2
<MEAN> 25
 -5.095237e-001 1.892469e+000 1.508525e+000 6.948243e-001 -9.460909e-001 -9.926825e-003 -1.479055e+000 -1.416999e+000 -7.127377e-002 -1.452130e-001 1.055793e+000 6.963078e-001 -4.961972e-002 -2.543469e-002 -5.116257e-002 3.563158e-003 2.415558e-002 -4.046334e-002 5.836263e-002 4.217081e-002 3.205526e-002 1.754492e-002 -2.639715e-002 2.401350e-002 -5.161765e-003
<VARIANCE> 25
 6.591022e+001 4.407741e+001 4.992531e+001 4.270658e+001 5.163929e+001 5.091211e+001 4.920390e+001 5.150719e+001 4.548052e+001 4.114730e+001 3.958372e+001 2.663707e+001 5.181429e+000 3.731869e+000 2.959050e+000 3.251789e+000 3.870099e+000 4.151081e+000 3.671979e+000 3.987710e+000 3.640902e+000 3.373606e+000 3.047267e+000 2.401490e+000 2.856622e+000
<GCONST> 1.080281e+002
<STATE> 3
<MEAN> 25
 -6.198163e-001 1.839947e+000 1.400686e+000 7.141665e-001 -9.033395e-001 -1.025290e-001 -1.345942e+000 -1.325026e+000 -5.119229e-003 -1.092673e-001 9.998689e-001 7.447608e-001 -4.713077e-002 -2.524532e-002 -5.274335e-002 9.716108e-003 2.002997e-002 -4.334974e-002 6.414033e-002 4.257138e-002 2.739407e-002 1.863086e-002 -2.651460e-002 2.006019e-002 -5.894850e-003
<VARIANCE> 25
 6.633949e+001 4.433588e+001 5.015882e+001 4.210075e+001 5.186166e+001 5.090689e+001 4.881640e+001 5.098921e+001 4.540144e+001 4.072265e+001 3.977948e+001 2.685008e+001 5.092992e+000 3.705810e+000 2.945272e+000 3.200302e+000 3.858934e+000 4.106276e+000 3.631191e+000 3.951141e+000 3.617659e+000 3.345433e+000 3.042766e+000 2.402345e+000 2.896027e+000
<GCONST> 1.079366e+002
<STATE> 4
<MEAN> 25
 -7.454209e-001 1.806271e+000 1.283783e+000 7.554098e-001 -8.777567e-001 -2.220821e-001 -1.170691e+000 -1.234910e+000 5.554700e-002 -6.333261e-002 9.278901e-001 7.896815e-001 -4.526941e-002 -2.234084e-002 -5.107256e-002 1.554279e-002 1.436081e-002 -4.311400e-002 6.981666e-002 4.152920e-002 2.148161e-002 1.901044e-002 -2.525605e-002 1.453994e-002 -9.023753e-003
<VARIANCE> 25
 6.667879e+001 4.468415e+001 5.060942e+001 4.132110e+001 5.232009e+001 5.096776e+001 4.811318e+001 5.032333e+001 4.516830e+001 4.026353e+001 4.003251e+001 2.710246e+001 4.974943e+000 3.666127e+000 2.933370e+000 3.127373e+000 3.853505e+000 4.062166e+000 3.577280e+000 3.913685e+000 3.577851e+000 3.309376e+000 3.032592e+000 2.398736e+000 2.938302e+000
<GCONST> 1.078111e+002
<TRANSP> 5
 0.000000e+000 1.000000e+000 0.000000e+000 0.000000e+000 0.000000e+000
 0.000000e+000 5.394381e-001 4.605619e-001 0.000000e+000 0.000000e+000
 0.000000e+000 0.000000e+000 5.394377e-001 4.605623e-001 0.000000e+000
 0.000000e+000 0.000000e+000 0.000000e+000 6.308667e-001 3.691333e-001
 0.000000e+000 0.000000e+000 0.000000e+000 0.000000e+000 0.000000e+000
<ENDHMM>
~h "uzdah"
<BEGINHMM>
<NUMSTATES> 5
<STATE> 2
<MEAN> 25
 -5.281575e+000 -5.494900e+000 6.341531e-001 1.588672e-001 2.208683e+000 2.881169e-001 2.268550e+000 2.947721e+000 8.472143e-001 -1.789845e+000 1.216179e+000 1.653476e+000 5.586587e-002 -2.643015e-002 -2.708150e-002 -2.947434e-003 -2.377383e-003 3.718326e-002 -3.588577e-002 -2.454380e-002 -4.887203e-002 -2.244796e-002 -3.949869e-002 1.882392e-002 -3.132210e-002
<VARIANCE> 25
 3.407281e+001 3.673924e+001 2.668165e+001 2.426391e+001 3.130332e+001 3.138293e+001 3.293129e+001 3.218452e+001 3.403447e+001 2.933378e+001 3.702960e+001 2.346564e+001 1.085211e+000 1.502581e+000 1.329402e+000 1.566357e+000 1.837554e+000 2.059961e+000 2.066252e+000 2.177337e+000 2.245410e+000 2.062240e+000 1.963074e+000 1.674453e+000 1.569987e+000
<GCONST> 9.431265e+001
<STATE> 3
<MEAN> 25
 -5.132828e+000 -5.534771e+000 5.606620e-001 1.584183e-001 2.214264e+000 3.875428e-001 2.193153e+000 2.892310e+000 7.431817e-001 -1.841165e+000 1.112623e+000 1.692963e+000 1.105938e-001 2.469702e-002 -5.330331e-002 1.142150e-002 1.588864e-002 7.817934e-002 -2.619145e-002 -3.674705e-002 -4.934516e-002 -2.673506e-002 -6.472870e-002 1.827931e-002 -8.587637e-002
<VARIANCE> 25
 3.355175e+001 3.687213e+001 2.704163e+001 2.456850e+001 3.203782e+001 3.194049e+001 3.320873e+001 3.240553e+001 3.408883e+001 2.967921e+001 3.689565e+001 2.380704e+001 1.111740e+000 1.549619e+000 1.373765e+000 1.596709e+000 1.863029e+000 2.111225e+000 2.105223e+000 2.224996e+000 2.292118e+000 2.107179e+000 1.985295e+000 1.706335e+000 1.605634e+000
<GCONST> 9.468729e+001
<STATE> 4
<MEAN> 25
 -4.842857e+000 -5.449477e+000 4.356893e-001 1.842150e-001 2.253688e+000 5.672345e-001 2.122230e+000 2.809350e+000 6.120610e-001 -1.886991e+000 9.653090e-001 1.726100e+000 1.608133e-001 1.077194e-001 -8.076371e-002 2.600931e-002 2.670047e-002 1.169109e-001 -1.320234e-002 -5.513505e-002 -4.200525e-002 -2.404396e-002 -8.169415e-002 1.163637e-002 -1.578368e-001
<VARIANCE> 25
 3.291367e+001 3.712807e+001 2.780929e+001 2.495900e+001 3.313096e+001 3.298188e+001 3.365335e+001 3.277824e+001 3.409958e+001 3.014491e+001 3.682192e+001 2.431825e+001 1.160202e+000 1.673537e+000 1.449587e+000 1.646123e+000 1.911821e+000 2.190655e+000 2.172013e+000 2.299062e+000 2.355426e+000 2.176280e+000 2.026745e+000 1.761649e+000 1.688932e+000
<GCONST> 9.533748e+001
<TRANSP> 5
 0.000000e+000 1.000000e+000 0.000000e+000 0.000000e+000 0.000000e+000
 0.000000e+000 5.463705e-001 4.536296e-001 0.000000e+000 0.000000e+000
 0.000000e+000 0.000000e+000 5.463718e-001 4.536282e-001 0.000000e+000
 0.000000e+000 0.000000e+000 0.000000e+000 6.390359e-001 3.609641e-001
 0.000000e+000 0.000000e+000 0.000000e+000 0.000000e+000 0.000000e+000
<ENDHMM>
~h "sil"
<BEGINHMM>
<NUMSTATES> 5
<STATE> 2
<MEAN> 25
 -4.468638e+000 -1.876791e+000 -3.204630e-001 1.686893e+000 3.231368e+000 1.782277e+000 3.035569e+000 2.693975e+000 1.801008e+000 -1.665607e+000 6.976168e-001 1.562923e+000 8.796942e-002 1.208788e-001 1.243719e-002 -3.112781e-002 -8.902431e-002 -7.291668e-002 -1.601014e-001 -1.537746e-001 -7.863045e-002 6.252631e-002 -2.549465e-002 -5.935399e-002 4.632329e-002
<VARIANCE> 25
 1.788376e+001 3.239893e+001 2.173450e+001 1.885742e+001 2.560528e+001 2.857107e+001 2.630932e+001 2.997635e+001 3.010404e+001 2.693377e+001 3.241443e+001 2.286392e+001 1.071540e+000 1.516739e+000 1.348709e+000 1.505036e+000 1.879248e+000 2.168537e+000 2.160042e+000 2.335306e+000 2.320752e+000 2.121627e+000 2.016233e+000 1.799258e+000 1.977823e+000
<GCONST> 9.267798e+001
<STATE> 3
<MEAN> 25
 -4.099599e+000 -1.595334e+000 -2.664822e-001 1.526208e+000 2.881191e+000 1.519645e+000 2.521445e+000 2.212358e+000 1.474854e+000 -1.510843e+000 5.720696e-001 1.365787e+000 1.888311e-001 1.208811e-001 3.620028e-002 -8.448540e-002 -1.809116e-001 -1.258712e-001 -2.431259e-001 -2.208528e-001 -1.641503e-001 6.859934e-002 -5.490430e-002 -9.977695e-002 3.595584e-001
<VARIANCE> 25
 2.204565e+001 3.393741e+001 2.413643e+001 2.204195e+001 2.870840e+001 3.092397e+001 2.924776e+001 3.326293e+001 3.252098e+001 2.749193e+001 3.304445e+001 2.401437e+001 1.496573e+000 1.922121e+000 1.684279e+000 1.851987e+000 2.223804e+000 2.510518e+000 2.475693e+000 2.736186e+000 2.663722e+000 2.287572e+000 2.261050e+000 1.936433e+000 3.145812e+000
<GCONST> 9.623944e+001
<STATE> 4
<MEAN> 25
 -3.519003e+000 -1.436828e+000 -1.787925e-001 1.226526e+000 2.316960e+000 1.200463e+000 1.884422e+000 1.732066e+000 9.919398e-001 -1.375140e+000 4.270560e-001 1.129388e+000 1.955596e-001 5.499812e-002 3.723353e-002 -1.060157e-001 -2.053752e-001 -1.051566e-001 -2.132267e-001 -1.585933e-001 -1.520149e-001 4.891239e-002 -4.982938e-002 -9.146030e-002 5.295918e-001
<VARIANCE> 25
 2.786087e+001 3.583466e+001 2.801884e+001 2.710787e+001 3.366570e+001 3.379137e+001 3.276414e+001 3.672984e+001 3.578270e+001 2.847186e+001 3.438603e+001 2.522139e+001 1.626519e+000 2.017194e+000 1.794890e+000 2.072436e+000 2.351946e+000 2.612638e+000 2.571022e+000 2.912391e+000 2.769454e+000 2.366787e+000 2.361786e+000 1.974952e+000 3.365989e+000
<GCONST> 9.827167e+001
<TRANSP> 5
 0.000000e+000 1.000000e+000 0.000000e+000 0.000000e+000 0.000000e+000
 0.000000e+000 5.435639e-001 4.564361e-001 0.000000e+000 0.000000e+000
 0.000000e+000 0.000000e+000 5.435627e-001 4.564373e-001 0.000000e+000
 0.000000e+000 0.000000e+000 0.000000e+000 6.365823e-001 3.634176e-001
 0.000000e+000 0.000000e+000 0.000000e+000 0.000000e+000 0.000000e+000
<ENDHMM>
~h "udarac"
<BEGINHMM>
<NUMSTATES> 5
<STATE> 2
<MEAN> 25
 -2.679423e+000 -1.141043e+000 -4.263184e-001 -2.608901e-001 2.150435e-001 1.079056e-001 2.735480e+000 9.861857e-001 8.606447e-001 1.266987e-001 -6.047119e-001 1.861145e+000 -1.466087e-001 5.577470e-002 5.286936e-002 6.208465e-002 -5.067590e-003 -4.216090e-002 6.441859e-002 -5.719075e-002 1.547920e-002 3.520527e-002 1.285021e-002 -2.061536e-002 -2.959920e-002
<VARIANCE> 25
 3.153241e+001 2.949391e+001 4.012757e+001 2.824397e+001 3.760554e+001 3.480814e+001 4.515370e+001 2.834657e+001 3.628040e+001 2.546706e+001 3.539265e+001 2.523044e+001 1.459785e+000 1.713300e+000 2.674195e+000 2.187497e+000 2.798056e+000 2.569735e+000 3.226728e+000 2.165920e+000 2.607504e+000 2.051339e+000 2.247569e+000 2.058755e+000 1.289748e+000
<GCONST> 9.783331e+001
<STATE> 3
<MEAN> 25
 -2.981638e+000 -1.040663e+000 -3.477004e-001 -1.428822e-001 1.972187e-001 2.519360e-002 2.830676e+000 8.648373e-001 9.528741e-001 2.141343e-001 -5.598637e-001 1.830561e+000 -1.247603e-001 3.732800e-002 -5.604708e-003 3.391239e-002 -2.528727e-003 1.662892e-002 5.957399e-002 -5.034126e-002 5.420774e-002 -7.852074e-003 -9.201514e-003 -1.095091e-002 -3.553280e-002
<VARIANCE> 25
 3.337160e+001 2.949978e+001 4.119460e+001 2.575421e+001 3.773397e+001 3.492672e+001 4.340553e+001 2.776243e+001 3.541470e+001 2.391212e+001 3.469767e+001 2.546467e+001 1.482195e+000 1.708751e+000 2.694112e+000 2.112745e+000 2.881563e+000 2.483738e+000 3.148795e+000 2.113704e+000 2.532739e+000 1.983272e+000 2.171581e+000 2.072229e+000 1.300929e+000
<GCONST> 9.752259e+001
<STATE> 4
<MEAN> 25
 -3.232011e+000 -9.978534e-001 -4.785450e-001 -1.581961e-001 7.479921e-002 9.611293e-002 2.907883e+000 7.968983e-001 1.164817e+000 1.851869e-001 -4.897696e-001 1.903103e+000 -6.879759e-002 3.131514e-002 -5.568726e-002 1.532627e-002 -1.840257e-002 9.297107e-002 6.732510e-002 -1.184256e-002 6.665058e-002 -7.270207e-002 -2.610622e-002 -9.589038e-003 -7.040832e-002
<VARIANCE> 25
 3.400916e+001 2.790766e+001 4.185262e+001 2.370255e+001 3.667273e+001 3.534339e+001 4.062569e+001 2.714728e+001 3.462520e+001 2.278231e+001 3.404386e+001 2.533480e+001 1.456029e+000 1.653178e+000 2.629103e+000 2.053677e+000 2.862970e+000 2.380343e+000 2.987533e+000 2.049608e+000 2.492366e+000 1.933030e+000 2.053508e+000 2.053814e+000 1.287340e+000
<GCONST> 9.686545e+001
<TRANSP> 5
 0.000000e+000 1.000000e+000 0.000000e+000 0.000000e+000 0.000000e+000
 0.000000e+000 5.329613e-001 4.670387e-001 0.000000e+000 0.000000e+000
 0.000000e+000 0.000000e+000 5.329612e-001 4.670388e-001 0.000000e+000
 0.000000e+000 0.000000e+000 0.000000e+000 6.244863e-001 3.755137e-001
 0.000000e+000 0.000000e+000 0.000000e+000 0.000000e+000 0.000000e+000
<ENDHMM>
~h "greska"
<BEGINHMM>
<NUMSTATES> 5
<STATE> 2
<MEAN> 25
 -5.026828e-001 5.352357e-001 1.357018e+000 -2.069364e-001 6.410090e-002 -8.803195e-001 -2.403369e-001 3.858993e-001 -7.229975e-001 2.973291e-002 -5.189886e-001 6.920654e-001 -3.753670e-003 -2.164972e-002 -2.016635e-002 -3.826810e-002 8.713705e-003 2.965766e-002 -7.091106e-002 3.092250e-002 -5.091798e-003 -2.024590e-002 3.043214e-002 -9.433468e-004 3.426597e-002
<VARIANCE> 25
 5.354321e+001 4.315580e+001 5.004785e+001 4.250591e+001 4.400520e+001 4.565779e+001 5.400734e+001 4.007381e+001 4.271839e+001 3.698383e+001 3.686350e+001 3.238138e+001 2.769207e+000 2.885522e+000 2.904613e+000 2.833084e+000 2.857810e+000 2.934073e+000 3.729170e+000 3.225380e+000 3.070492e+000 2.734939e+000 2.643789e+000 2.329469e+000 2.941910e+000
<GCONST> 1.049146e+002
<STATE> 3
<MEAN> 25
 -5.221300e-001 4.905414e-001 1.271652e+000 -2.474687e-001 8.215873e-002 -8.486556e-001 -4.107309e-001 4.374296e-001 -6.842738e-001 -5.911083e-002 -4.134065e-001 7.101923e-001 -1.087274e-002 -2.402128e-002 -4.550147e-002 -1.458355e-002 1.147725e-002 2.048840e-002 -7.438729e-002 2.453447e-002 3.948230e-002 -5.441816e-002 4.866313e-002 2.111399e-003 2.969353e-002
<VARIANCE> 25
 5.430738e+001 4.339828e+001 5.049780e+001 4.185693e+001 4.393773e+001 4.637497e+001 5.240118e+001 3.971627e+001 4.258292e+001 3.784374e+001 3.753214e+001 3.231205e+001 2.775904e+000 2.876842e+000 2.969824e+000 2.876993e+000 2.909986e+000 2.986448e+000 3.664128e+000 3.256592e+000 3.079803e+000 2.758585e+000 2.693602e+000 2.333343e+000 2.906881e+000
<GCONST> 1.050232e+002
<STATE> 4
<MEAN> 25
 -5.160731e-001 4.950587e-001 1.060750e+000 -2.697695e-001 1.290448e-001 -7.816683e-001 -6.158660e-001 4.111971e-001 -4.961763e-001 -1.514595e-001 -2.469632e-001 6.535570e-001 -2.242157e-002 -2.381191e-002 -9.293427e-002 8.194101e-003 3.592475e-002 3.798026e-002 -4.789790e-002 1.303133e-002 1.015543e-001 -4.022201e-002 5.373703e-002 -1.413236e-002 1.569918e-002
<VARIANCE> 25
 5.571924e+001 4.378659e+001 5.093906e+001 4.140693e+001 4.379356e+001 4.777581e+001 5.051049e+001 3.931551e+001 4.219028e+001 3.860447e+001 3.865489e+001 3.194828e+001 2.849008e+000 2.879172e+000 2.989313e+000 2.919254e+000 2.925506e+000 3.080387e+000 3.542313e+000 3.306153e+000 3.099699e+000 2.778461e+000 2.771461e+000 2.294355e+000 2.844965e+000
<GCONST> 1.051333e+002
<TRANSP> 5
 0.000000e+000 1.000000e+000 0.000000e+000 0.000000e+000 0.000000e+000
 0.000000e+000 5.703373e-001 4.296627e-001 0.000000e+000 0.000000e+000
 0.000000e+000 0.000000e+000 5.703377e-001 4.296624e-001 0.000000e+000
 0.000000e+000 0.000000e+000 0.000000e+000 6.676278e-001 3.323722e-001
 0.000000e+000 0.000000e+000 0.000000e+000 0.000000e+000 0.000000e+000
<ENDHMM>
~h "papir"
<BEGINHMM>
<NUMSTATES> 5
<STATE> 2
<MEAN> 25
 -2.804212e+000 -2.433549e+000 -1.083662e+000 7.236596e-001 1.884537e+000 6.886672e-001 1.247376e+000 1.559665e+000 2.058860e+000 -8.476951e-001 -4.486302e-001 6.765748e-001 -3.956669e-002 -5.404527e-002 7.803433e-003 5.820494e-002 4.102425e-002 4.991267e-002 4.717543e-002 -3.181482e-002 5.801171e-003 -6.353829e-002 3.282955e-002 -3.696526e-002 -5.406369e-003
<VARIANCE> 25
 3.941969e+001 3.747446e+001 3.672649e+001 2.558221e+001 3.381759e+001 4.381070e+001 3.317076e+001 3.804900e+001 3.728334e+001 3.244154e+001 3.683389e+001 2.869595e+001 2.096819e+000 2.430354e+000 2.336336e+000 2.121731e+000 2.663956e+000 2.968213e+000 2.491828e+000 2.714731e+000 2.698344e+000 2.352054e+000 2.296937e+000 1.923605e+000 1.764196e+000
<GCONST> 9.970296e+001
<STATE> 3
<MEAN> 25
 -2.855032e+000 -2.511261e+000 -1.049639e+000 8.073292e-001 1.980402e+000 8.117895e-001 1.318701e+000 1.471402e+000 2.045390e+000 -9.677011e-001 -3.723631e-001 6.132725e-001 -1.788534e-002 -7.955533e-003 3.963369e-002 4.023739e-002 4.440321e-002 5.372288e-002 3.598486e-002 -5.073099e-002 -6.793995e-004 -2.437455e-002 1.990684e-002 -1.276887e-002 -4.820720e-002
<VARIANCE> 25
 3.932055e+001 3.644559e+001 3.594601e+001 2.581930e+001 3.223505e+001 4.492857e+001 3.321904e+001 3.909620e+001 3.761108e+001 3.299511e+001 3.693805e+001 2.859085e+001 2.082094e+000 2.417455e+000 2.325821e+000 2.114176e+000 2.652002e+000 2.978023e+000 2.501969e+000 2.749649e+000 2.704966e+000 2.335754e+000 2.241163e+000 1.931121e+000 1.715706e+000
<GCONST> 9.963319e+001
<STATE> 4
<MEAN> 25
 -2.928556e+000 -2.493272e+000 -9.380390e-001 8.495160e-001 2.069130e+000 9.208988e-001 1.429304e+000 1.454929e+000 2.021995e+000 -9.988031e-001 -3.179780e-001 6.155116e-001 -1.704154e-002 4.714474e-002 8.085459e-002 2.355246e-002 2.075471e-002 5.969968e-002 3.150061e-002 -3.977872e-002 -7.948672e-004 2.360639e-002 -2.126347e-003 1.960451e-003 -9.743865e-002
<VARIANCE> 25
 3.888729e+001 3.504770e+001 3.571822e+001 2.617607e+001 3.038526e+001 4.613182e+001 3.285121e+001 4.084408e+001 3.847856e+001 3.223534e+001 3.737225e+001 2.769384e+001 2.034417e+000 2.332875e+000 2.303235e+000 2.062289e+000 2.585321e+000 2.960862e+000 2.431131e+000 2.776850e+000 2.704736e+000 2.292991e+000 2.162017e+000 1.924658e+000 1.651106e+000
<GCONST> 9.932986e+001
<TRANSP> 5
 0.000000e+000 1.000000e+000 0.000000e+000 0.000000e+000 0.000000e+000
 0.000000e+000 5.491372e-001 4.508629e-001 0.000000e+000 0.000000e+000
 0.000000e+000 0.000000e+000 5.491381e-001 4.508620e-001 0.000000e+000
 0.000000e+000 0.000000e+000 0.000000e+000 6.424000e-001 3.576001e-001
 0.000000e+000 0.000000e+000 0.000000e+000 0.000000e+000 0.000000e+000
<ENDHMM>
