~o
<STREAMINFO> 1 25
<VECSIZE> 25<NULLD><MFCC_D_N_Z_0><DIAGC>
~h "proto"
<BEGINHMM>
<NUMSTATES> 5
<STATE> 2
<MEAN> 25
 -5.295600e-012 3.035041e-010 6.545362e-009 -8.809727e-010 7.075749e-009 -4.294566e-009 4.112364e-010 7.676468e-009 5.140538e-009 -3.019154e-009 -2.525670e-009 -2.526994e-009 -3.443232e-004 -2.462186e-003 5.430795e-004 3.098696e-004 5.585893e-004 -5.997323e-004 4.230652e-004 1.075954e-003 -3.982350e-005 -1.086548e-004 8.048329e-004 4.959482e-004 2.266080e-003
<VARIANCE> 25
 5.663615e+001 4.729173e+001 4.969928e+001 4.382582e+001 4.945463e+001 5.251832e+001 4.294566e+001 4.820510e+001 4.606313e+001 3.869456e+001 4.172746e+001 2.855806e+001 3.335061e+000 3.438228e+000 2.842344e+000 3.168008e+000 3.395931e+000 3.680933e+000 3.450996e+000 3.912703e+000 3.500700e+000 3.104572e+000 3.101156e+000 2.378911e+000 3.063394e+000
<GCONST> 1.068621e+002
<STATE> 3
<MEAN> 25
 -5.295600e-012 3.035041e-010 6.545362e-009 -8.809727e-010 7.075749e-009 -4.294566e-009 4.112364e-010 7.676468e-009 5.140538e-009 -3.019154e-009 -2.525670e-009 -2.526994e-009 -3.443232e-004 -2.462186e-003 5.430795e-004 3.098696e-004 5.585893e-004 -5.997323e-004 4.230652e-004 1.075954e-003 -3.982350e-005 -1.086548e-004 8.048329e-004 4.959482e-004 2.266080e-003
<VARIANCE> 25
 5.663615e+001 4.729173e+001 4.969928e+001 4.382582e+001 4.945463e+001 5.251832e+001 4.294566e+001 4.820510e+001 4.606313e+001 3.869456e+001 4.172746e+001 2.855806e+001 3.335061e+000 3.438228e+000 2.842344e+000 3.168008e+000 3.395931e+000 3.680933e+000 3.450996e+000 3.912703e+000 3.500700e+000 3.104572e+000 3.101156e+000 2.378911e+000 3.063394e+000
<GCONST> 1.068621e+002
<STATE> 4
<MEAN> 25
 -5.295600e-012 3.035041e-010 6.545362e-009 -8.809727e-010 7.075749e-009 -4.294566e-009 4.112364e-010 7.676468e-009 5.140538e-009 -3.019154e-009 -2.525670e-009 -2.526994e-009 -3.443232e-004 -2.462186e-003 5.430795e-004 3.098696e-004 5.585893e-004 -5.997323e-004 4.230652e-004 1.075954e-003 -3.982350e-005 -1.086548e-004 8.048329e-004 4.959482e-004 2.266080e-003
<VARIANCE> 25
 5.663615e+001 4.729173e+001 4.969928e+001 4.382582e+001 4.945463e+001 5.251832e+001 4.294566e+001 4.820510e+001 4.606313e+001 3.869456e+001 4.172746e+001 2.855806e+001 3.335061e+000 3.438228e+000 2.842344e+000 3.168008e+000 3.395931e+000 3.680933e+000 3.450996e+000 3.912703e+000 3.500700e+000 3.104572e+000 3.101156e+000 2.378911e+000 3.063394e+000
<GCONST> 1.068621e+002
<TRANSP> 5
 0.000000e+000 1.000000e+000 0.000000e+000 0.000000e+000 0.000000e+000
 0.000000e+000 6.000000e-001 4.000000e-001 0.000000e+000 0.000000e+000
 0.000000e+000 0.000000e+000 6.000000e-001 4.000000e-001 0.000000e+000
 0.000000e+000 0.000000e+000 0.000000e+000 7.000000e-001 3.000000e-001
 0.000000e+000 0.000000e+000 0.000000e+000 0.000000e+000 0.000000e+000
<ENDHMM>
