~o
<STREAMINFO> 1 25
<VECSIZE> 25<NULLD><MFCC_D_N_Z_0><DIAGC>
~h "C"
<BEGINHMM>
<NUMSTATES> 5
<STATE> 2
<MEAN> 25
 -1.043941e+001 -1.341730e+000 2.955740e+000 2.926126e+000 -9.263629e-001 2.710876e+000 2.122672e+000 -7.457079e-001 6.699162e+000 -3.433079e+000 2.068009e+000 -6.832691e-001 -2.505259e+000 -8.018648e-001 -1.268380e-001 -3.128695e-001 -2.026872e-001 1.491514e-001 8.338980e-002 -2.960684e-001 6.459259e-001 -7.765201e-001 5.106499e-001 2.668307e-001 1.353740e+000
<VARIANCE> 25
 8.490145e+001 4.213052e+001 2.957086e+001 3.499746e+001 3.090519e+001 4.120675e+001 4.626743e+001 5.722681e+001 4.808803e+001 3.686067e+001 4.823093e+001 2.588913e+001 1.004276e+001 4.393617e+000 2.837485e+000 2.633873e+000 3.213197e+000 4.307884e+000 4.604817e+000 5.329953e+000 5.090052e+000 3.899449e+000 4.546012e+000 2.855693e+000 6.333750e+000
<GCONST> 1.097364e+002
<STATE> 3
<MEAN> 25
 -1.388992e+001 -2.420924e+000 2.217671e+000 1.630793e+000 -9.801765e-001 2.254981e+000 1.233816e+000 -9.538699e-001 7.734851e+000 -5.283722e+000 2.607417e+000 1.819905e-001 7.785274e-001 -1.779981e-001 -2.949747e-001 -4.746404e-001 -1.786610e-001 -5.037196e-001 -4.835634e-001 2.635786e-002 -2.333425e-001 -2.516274e-001 -9.615677e-002 1.750230e-001 4.394202e-001
<VARIANCE> 25
 5.990274e+001 3.081101e+001 2.870759e+001 3.259840e+001 2.976376e+001 4.375528e+001 4.588120e+001 5.952303e+001 5.064004e+001 4.164684e+001 5.161497e+001 2.677558e+001 1.466206e+001 3.181504e+000 2.559430e+000 2.583497e+000 2.862491e+000 4.387411e+000 4.031081e+000 5.003840e+000 6.016910e+000 4.447899e+000 4.381958e+000 2.824981e+000 4.072607e+000
<GCONST> 1.087520e+002
<STATE> 4
<MEAN> 25
 -7.023859e+000 -2.386915e+000 1.249102e+000 3.885424e-001 -1.763331e+000 1.794906e-001 -3.078501e-001 -1.323364e+000 5.051123e+000 -4.815558e+000 1.856868e+000 2.147714e-001 3.266788e+000 -3.106020e-002 -3.350349e-001 -4.182508e-001 -3.910954e-001 -8.433779e-001 -4.455468e-001 -4.389692e-002 -1.366005e+000 8.142544e-001 -4.293697e-001 -6.887525e-002 4.400938e-001
<VARIANCE> 25
 8.645119e+001 2.693907e+001 2.824407e+001 2.781067e+001 3.104997e+001 4.831023e+001 4.168417e+001 5.447678e+001 5.484813e+001 3.967555e+001 4.248858e+001 2.441939e+001 7.056921e+000 2.886837e+000 2.467154e+000 2.913068e+000 2.994778e+000 4.676965e+000 3.913782e+000 4.896144e+000 4.971141e+000 4.679489e+000 4.815351e+000 2.546733e+000 2.421851e+000
<GCONST> 1.071543e+002
<TRANSP> 5
 0.000000e+000 1.000000e+000 0.000000e+000 0.000000e+000 0.000000e+000
 0.000000e+000 7.316785e-001 2.683215e-001 0.000000e+000 0.000000e+000
 0.000000e+000 0.000000e+000 6.646307e-001 3.353693e-001 0.000000e+000
 0.000000e+000 0.000000e+000 0.000000e+000 6.743096e-001 3.256904e-001
 0.000000e+000 0.000000e+000 0.000000e+000 0.000000e+000 0.000000e+000
<ENDHMM>
~h "L"
<BEGINHMM>
<NUMSTATES> 5
<STATE> 2
<MEAN> 25
 1.110614e+000 1.993671e-001 7.615569e+000 2.040324e+000 -2.830733e+000 -4.366682e+000 -3.693218e+000 -7.810244e-001 -3.095648e+000 -2.754335e+000 4.600776e-001 2.058079e+000 5.582471e-002 -5.366068e-002 9.020715e-001 -1.890016e-001 -8.653807e-001 -3.509767e-001 -2.820608e-001 2.633801e-001 -6.531905e-001 -1.485961e-001 3.967620e-002 4.976166e-001 5.208352e-001
<VARIANCE> 25
 1.693869e+001 2.290716e+001 2.932618e+001 2.794713e+001 3.556522e+001 3.869721e+001 4.736522e+001 3.791761e+001 3.864687e+001 3.655012e+001 3.130982e+001 2.503846e+001 1.929235e+000 2.634171e+000 3.802775e+000 2.967063e+000 3.656300e+000 3.970696e+000 4.232833e+000 4.054200e+000 3.908007e+000 4.217890e+000 3.432907e+000 2.820014e+000 1.869357e+000
<GCONST> 1.025198e+002
<STATE> 3
<MEAN> 25
 1.277006e+000 -8.365802e-002 7.883351e+000 1.246341e+000 -4.299017e+000 -4.139482e+000 -4.055089e+000 -3.280669e-001 -3.695417e+000 -2.099744e+000 6.716837e-001 2.506882e+000 1.354304e-001 -3.016375e-001 -2.712427e-001 -4.338017e-001 -5.822552e-001 1.677200e-001 -1.213942e-001 2.430696e-001 -5.438162e-002 4.925614e-001 1.486167e-001 3.883619e-002 5.011308e-001
<VARIANCE> 25
 1.167500e+001 2.082405e+001 2.809345e+001 2.898176e+001 3.613105e+001 3.739355e+001 5.011755e+001 3.711879e+001 3.501109e+001 3.641169e+001 3.025127e+001 2.445776e+001 1.401228e+000 2.359637e+000 3.356283e+000 2.625835e+000 3.716292e+000 3.407060e+000 4.042192e+000 3.898286e+000 3.572217e+000 3.621931e+000 3.089764e+000 2.642755e+000 1.544044e+000
<GCONST> 1.003994e+002
<STATE> 4
<MEAN> 25
 1.663501e+000 -7.349263e-001 6.208197e+000 3.822973e-001 -4.893010e+000 -3.306671e+000 -3.791379e+000 4.554875e-002 -3.230608e+000 -7.213227e-001 1.022926e+000 2.027991e+000 2.645702e-001 -2.447842e-001 -9.106311e-001 -3.248347e-001 5.139709e-002 4.342067e-001 2.460726e-001 5.248238e-002 2.509743e-001 5.425147e-001 1.280607e-001 -3.088852e-001 1.390519e-001
<VARIANCE> 25
 1.089644e+001 2.239567e+001 3.460024e+001 2.992916e+001 3.639724e+001 4.108731e+001 5.880360e+001 4.284060e+001 3.673249e+001 3.649877e+001 3.184624e+001 2.430132e+001 1.068972e+000 2.382587e+000 2.657014e+000 2.641638e+000 3.902227e+000 3.317681e+000 3.660191e+000 3.939045e+000 3.292558e+000 3.268202e+000 3.027917e+000 2.453298e+000 1.641886e+000
<GCONST> 1.003710e+002
<TRANSP> 5
 0.000000e+000 1.000000e+000 0.000000e+000 0.000000e+000 0.000000e+000
 0.000000e+000 5.356130e-001 4.643870e-001 0.000000e+000 0.000000e+000
 0.000000e+000 0.000000e+000 5.078856e-001 4.921144e-001 0.000000e+000
 0.000000e+000 0.000000e+000 0.000000e+000 5.616387e-001 4.383613e-001
 0.000000e+000 0.000000e+000 0.000000e+000 0.000000e+000 0.000000e+000
<ENDHMM>
~h "N"
<BEGINHMM>
<NUMSTATES> 5
<STATE> 2
<MEAN> 25
 1.747356e+000 -6.926654e-001 3.613042e+000 -9.952973e-001 -1.489109e+000 4.548244e-002 2.503367e+000 1.435174e+000 -3.396402e+000 -2.624225e+000 -2.555848e+000 7.825570e-001 1.021130e-001 -3.604898e-001 2.051848e-001 -1.044919e-002 -1.511622e-001 1.255856e-002 3.987363e-001 3.963846e-001 -2.674162e-001 -2.074967e-001 -2.698687e-001 6.204535e-002 3.084995e-001
<VARIANCE> 25
 1.514390e+001 4.227769e+001 2.881753e+001 2.499389e+001 3.919133e+001 3.308939e+001 3.198871e+001 3.903920e+001 3.515749e+001 3.287585e+001 3.006950e+001 2.332233e+001 1.573040e+000 4.145203e+000 2.453386e+000 2.323195e+000 3.675905e+000 2.728436e+000 2.966994e+000 3.528876e+000 2.972162e+000 2.458616e+000 2.349618e+000 1.988108e+000 2.738445e+000
<GCONST> 9.969866e+001
<STATE> 3
<MEAN> 25
 1.749153e+000 -1.218690e+000 3.756478e+000 -6.599793e-001 -1.545756e+000 9.531070e-002 3.142902e+000 2.197733e+000 -3.379122e+000 -2.907476e+000 -2.870069e+000 7.526710e-001 8.659369e-002 -1.702322e-001 -2.239017e-002 1.966125e-001 5.453502e-002 -6.836262e-002 1.446094e-001 3.039219e-001 1.195002e-001 -1.686145e-002 -1.363737e-001 -7.005055e-002 -4.260435e-002
<VARIANCE> 25
 1.381701e+001 3.987920e+001 2.777849e+001 2.542135e+001 3.941119e+001 3.325991e+001 3.329122e+001 3.836250e+001 3.469275e+001 3.404678e+001 2.890744e+001 2.297650e+001 1.174415e+000 3.733793e+000 2.342167e+000 2.254828e+000 3.534508e+000 2.458865e+000 2.746801e+000 3.169191e+000 2.813283e+000 2.383846e+000 2.195937e+000 1.937147e+000 2.722617e+000
<GCONST> 9.854317e+001
<STATE> 4
<MEAN> 25
 8.111732e-001 -1.311196e+000 3.205487e+000 5.150586e-001 -4.282892e-001 3.732001e-001 3.785307e+000 2.942101e+000 -2.041224e+000 -2.728662e+000 -2.545836e+000 6.284474e-001 5.112879e-003 1.519705e-001 -1.306374e-001 2.663734e-001 2.077787e-001 -4.269349e-002 -5.873270e-002 5.751653e-002 3.190116e-001 1.305907e-001 3.411020e-002 -1.434872e-001 -5.014839e-001
<VARIANCE> 25
 1.875583e+001 3.815735e+001 2.921581e+001 2.583625e+001 4.277898e+001 3.369167e+001 3.487676e+001 3.856747e+001 3.579893e+001 3.298532e+001 3.089862e+001 2.399464e+001 1.063344e+000 3.035253e+000 2.032881e+000 2.086113e+000 3.088365e+000 2.355687e+000 2.621698e+000 2.803534e+000 2.580714e+000 2.290421e+000 2.131356e+000 1.904571e+000 2.620507e+000
<GCONST> 9.804352e+001
<TRANSP> 5
 0.000000e+000 1.000000e+000 0.000000e+000 0.000000e+000 0.000000e+000
 0.000000e+000 5.952968e-001 4.047032e-001 0.000000e+000 0.000000e+000
 0.000000e+000 0.000000e+000 5.918722e-001 4.081278e-001 0.000000e+000
 0.000000e+000 0.000000e+000 0.000000e+000 7.546209e-001 2.453791e-001
 0.000000e+000 0.000000e+000 0.000000e+000 0.000000e+000 0.000000e+000
<ENDHMM>
~h "S"
<BEGINHMM>
<NUMSTATES> 5
<STATE> 2
<MEAN> 25
 -1.342981e+001 -8.343582e-001 7.421298e+000 5.215438e+000 6.386841e-001 9.743623e-001 -5.383930e-001 -3.433880e-001 7.248437e+000 -5.428596e+000 2.562458e+000 6.124820e-001 -2.521379e+000 -2.351556e-001 -5.693567e-003 1.777994e-001 8.594613e-001 2.745906e-001 3.061519e-001 7.629804e-002 1.701128e+000 -4.926832e-001 -3.278274e-001 4.298083e-002 1.520217e-001
<VARIANCE> 25
 5.842269e+001 2.796893e+001 2.947586e+001 3.123324e+001 3.563982e+001 3.817405e+001 4.472183e+001 5.340687e+001 6.392321e+001 5.859974e+001 5.428937e+001 3.038638e+001 6.533156e+000 2.736403e+000 3.186108e+000 2.940165e+000 3.379212e+000 3.308661e+000 3.415586e+000 4.346021e+000 5.926152e+000 4.506697e+000 4.067533e+000 2.746555e+000 1.134405e+000
<GCONST> 1.068586e+002
<STATE> 3
<MEAN> 25
 -1.639198e+001 -2.412771e+000 5.481801e+000 3.611412e+000 1.628379e+000 1.609891e+000 -2.382115e-001 -7.319593e-001 9.660721e+000 -5.025528e+000 1.147201e+000 4.624305e-001 4.509926e-001 -4.162439e-001 -7.827566e-001 -6.424674e-001 2.687801e-002 -6.431020e-002 -1.090380e-001 -4.720731e-002 5.184507e-002 1.951004e-001 -2.489332e-001 -2.426171e-002 -4.608642e-001
<VARIANCE> 25
 3.336111e+001 3.527125e+001 2.431001e+001 3.207618e+001 3.416692e+001 4.127383e+001 4.611160e+001 6.032609e+001 4.859672e+001 6.212626e+001 5.361302e+001 2.971180e+001 9.045261e+000 2.041101e+000 2.166613e+000 1.971648e+000 2.808245e+000 3.418801e+000 3.106847e+000 3.635763e+000 4.609130e+000 3.526259e+000 3.001996e+000 2.362656e+000 1.264049e+000
<GCONST> 1.042805e+002
<STATE> 4
<MEAN> 25
 -1.029186e+001 -3.555363e+000 2.325928e+000 1.255785e+000 6.298684e-001 4.532747e-001 -8.516899e-001 -7.700499e-001 7.776024e+000 -3.596526e+000 5.769812e-001 3.817965e-001 2.750845e+000 -2.541299e-001 -9.761552e-001 -6.763614e-001 -4.648183e-001 -6.050456e-001 -9.674016e-002 9.571832e-002 -1.124450e+000 7.313968e-001 -1.679646e-001 -4.002632e-002 -1.850133e-001
<VARIANCE> 25
 8.117496e+001 3.619238e+001 2.860716e+001 2.861620e+001 4.133959e+001 4.900112e+001 4.237061e+001 5.938975e+001 5.231989e+001 5.333432e+001 4.399025e+001 2.618211e+001 6.680131e+000 2.299287e+000 2.501672e+000 2.189749e+000 3.380571e+000 4.481607e+000 3.653444e+000 4.148820e+000 4.490811e+000 4.578921e+000 4.051243e+000 2.540452e+000 2.508958e+000
<GCONST> 1.072110e+002
<TRANSP> 5
 0.000000e+000 1.000000e+000 0.000000e+000 0.000000e+000 0.000000e+000
 0.000000e+000 7.678195e-001 2.321806e-001 0.000000e+000 0.000000e+000
 0.000000e+000 0.000000e+000 7.009833e-001 2.990167e-001 0.000000e+000
 0.000000e+000 0.000000e+000 0.000000e+000 7.213086e-001 2.786915e-001
 0.000000e+000 0.000000e+000 0.000000e+000 0.000000e+000 0.000000e+000
<ENDHMM>
~h "Z"
<BEGINHMM>
<NUMSTATES> 5
<STATE> 2
<MEAN> 25
 -7.735700e+000 9.748708e-001 6.735086e+000 4.238917e+000 -1.490339e-001 -8.059272e-001 -1.740792e+000 -6.440832e+000 6.760135e+000 -2.926487e+000 3.065399e+000 -3.786455e-002 -2.182008e+000 3.250107e-001 9.845847e-001 4.665281e-001 8.141013e-001 -1.247539e-001 6.689821e-001 4.863698e-003 1.172572e+000 -4.184547e-001 -2.203790e-001 -2.286237e-001 1.795789e-001
<VARIANCE> 25
 6.269581e+001 1.925622e+001 4.329249e+001 2.961856e+001 4.765393e+001 3.926881e+001 4.800163e+001 6.246053e+001 5.386953e+001 5.017610e+001 4.531242e+001 3.150047e+001 7.308068e+000 2.462050e+000 3.840187e+000 2.936934e+000 3.847091e+000 4.818440e+000 4.378227e+000 4.443900e+000 5.097005e+000 3.861614e+000 3.099550e+000 2.720662e+000 9.272327e-001
<GCONST> 1.071424e+002
<STATE> 3
<MEAN> 25
 -1.048230e+001 9.743693e-001 7.299629e+000 4.118109e+000 8.886383e-001 -6.264942e-001 -5.207691e-001 -5.735295e+000 7.916759e+000 -3.322304e+000 2.265933e+000 -3.354150e-001 6.399329e-001 -2.912139e-001 -4.419983e-001 -3.458386e-001 -1.068147e-001 -9.725888e-002 5.504816e-002 3.558349e-001 -2.067711e-001 -5.116041e-002 -3.418668e-001 3.568940e-002 -2.329784e-001
<VARIANCE> 25
 4.759817e+001 2.219393e+001 3.356561e+001 3.184398e+001 4.575749e+001 3.975193e+001 4.892876e+001 5.760769e+001 4.851613e+001 5.054971e+001 4.412838e+001 3.197261e+001 1.081164e+001 2.327883e+000 4.137730e+000 2.620580e+000 3.462063e+000 3.575503e+000 4.124370e+000 3.708981e+000 4.852829e+000 3.469442e+000 3.057024e+000 2.417737e+000 1.029416e+000
<GCONST> 1.060964e+002
<STATE> 4
<MEAN> 25
 -4.960840e+000 -3.494942e-001 4.360586e+000 2.579578e+000 -1.963987e-001 -1.130114e+000 -1.086398e+000 -4.769000e+000 5.752046e+000 -2.732389e+000 1.230895e+000 -1.259783e-001 2.516884e+000 -6.778514e-001 -1.227097e+000 -5.549408e-001 -4.514771e-001 -1.665252e-001 -2.566247e-001 6.601365e-001 -1.118119e+000 5.394751e-001 -5.752668e-001 2.399391e-002 -1.177282e-001
<VARIANCE> 25
 6.222485e+001 2.667765e+001 3.741288e+001 2.950772e+001 4.216833e+001 3.820650e+001 4.587646e+001 5.356194e+001 4.835094e+001 4.638337e+001 3.756170e+001 2.732473e+001 5.952459e+000 2.556193e+000 3.323380e+000 2.405509e+000 3.327580e+000 3.830955e+000 3.898552e+000 4.634740e+000 4.388984e+000 3.858009e+000 3.772970e+000 2.550203e+000 1.351779e+000
<GCONST> 1.058442e+002
<TRANSP> 5
 0.000000e+000 1.000000e+000 0.000000e+000 0.000000e+000 0.000000e+000
 0.000000e+000 7.207227e-001 2.792773e-001 0.000000e+000 0.000000e+000
 0.000000e+000 0.000000e+000 6.408015e-001 3.591984e-001 0.000000e+000
 0.000000e+000 0.000000e+000 0.000000e+000 6.426728e-001 3.573272e-001
 0.000000e+000 0.000000e+000 0.000000e+000 0.000000e+000 0.000000e+000
<ENDHMM>
~h "a"
<BEGINHMM>
<NUMSTATES> 5
<STATE> 2
<MEAN> 25
 3.297947e+000 -6.264485e+000 -4.384073e+000 -1.416913e+000 3.044327e+000 -1.835003e-001 5.860279e-001 3.264623e+000 2.456445e+000 -1.409086e-001 -5.078448e+000 -2.127926e+000 2.462022e-001 -3.906923e-002 -1.308924e-001 7.053576e-003 3.477551e-001 2.707174e-001 3.104210e-001 2.703548e-001 2.413800e-002 -1.080782e-001 -3.842645e-001 -2.019500e-001 -1.586959e-001
<VARIANCE> 25
 1.311313e+001 2.705172e+001 2.195209e+001 2.396455e+001 3.141769e+001 4.021536e+001 3.496860e+001 3.443471e+001 3.179542e+001 3.717924e+001 3.461261e+001 3.181150e+001 1.470467e+000 2.989072e+000 1.944072e+000 2.013916e+000 2.427106e+000 2.851024e+000 2.699861e+000 3.215011e+000 2.585689e+000 2.686681e+000 2.850458e+000 2.300366e+000 2.858528e+000
<GCONST> 9.820795e+001
<STATE> 3
<MEAN> 25
 3.502656e+000 -5.154833e+000 -3.971940e+000 -9.600476e-001 3.335451e+000 2.098123e-001 1.108314e+000 3.290756e+000 2.448979e+000 -2.491632e-001 -5.190707e+000 -2.282886e+000 3.097674e-002 7.089658e-001 3.218294e-001 2.325278e-001 -6.306837e-003 1.151600e-001 2.355827e-001 -8.624050e-002 -4.448338e-003 -6.862303e-003 6.869563e-002 -2.691974e-002 -8.109613e-001
<VARIANCE> 25
 1.389807e+001 3.319211e+001 2.263581e+001 2.526283e+001 3.178999e+001 4.002416e+001 3.559794e+001 3.575296e+001 3.342240e+001 3.859256e+001 3.555024e+001 3.296921e+001 1.203044e+000 2.742424e+000 1.712565e+000 1.875482e+000 2.226689e+000 2.670645e+000 2.598568e+000 3.026463e+000 2.562167e+000 2.542002e+000 2.614241e+000 2.204461e+000 2.627339e+000
<GCONST> 9.775320e+001
<STATE> 4
<MEAN> 25
 2.990283e+000 -2.773377e+000 -2.774722e+000 -1.563058e-001 3.097074e+000 4.835635e-001 1.717961e+000 3.018070e+000 2.489137e+000 -4.351141e-001 -4.538076e+000 -2.071371e+000 -2.646978e-001 9.327316e-001 5.175213e-001 2.575550e-001 -2.488423e-001 4.879924e-002 1.121189e-001 -3.089455e-001 -9.372777e-002 -1.767652e-003 3.957884e-001 1.290575e-001 -9.077716e-001
<VARIANCE> 25
 2.043579e+001 3.816793e+001 2.481491e+001 2.695031e+001 3.327908e+001 4.011503e+001 3.609421e+001 3.968673e+001 3.539089e+001 3.857421e+001 3.670072e+001 3.270322e+001 1.688364e+000 2.970484e+000 1.749557e+000 2.056241e+000 2.242032e+000 2.784803e+000 2.722856e+000 3.160845e+000 2.735786e+000 2.680181e+000 2.710032e+000 2.303298e+000 2.632296e+000
<GCONST> 9.955305e+001
<TRANSP> 5
 0.000000e+000 1.000000e+000 0.000000e+000 0.000000e+000 0.000000e+000
 0.000000e+000 5.536771e-001 4.463229e-001 0.000000e+000 0.000000e+000
 0.000000e+000 0.000000e+000 5.342107e-001 4.657893e-001 0.000000e+000
 0.000000e+000 0.000000e+000 0.000000e+000 6.216149e-001 3.783852e-001
 0.000000e+000 0.000000e+000 0.000000e+000 0.000000e+000 0.000000e+000
<ENDHMM>
~h "b"
<BEGINHMM>
<NUMSTATES> 5
<STATE> 2
<MEAN> 25
 5.866228e+000 5.288144e+000 -6.509162e-001 -1.653753e+000 1.674105e+000 3.226975e+000 8.860914e-001 -9.190157e-001 -3.975095e-001 -1.505480e+000 -4.678944e-001 -2.429952e+000 -2.212794e-001 2.339513e-001 3.892344e-001 6.140403e-001 -1.344310e-001 -2.266478e-001 -1.552349e-001 -9.304486e-003 -1.005858e-001 -3.127661e-001 1.885344e-002 -4.250220e-002 -1.822529e-001
<VARIANCE> 25
 2.057446e+001 3.292914e+001 2.859211e+001 6.113259e+001 2.955786e+001 3.705139e+001 3.642979e+001 3.182651e+001 3.440730e+001 3.321447e+001 3.475075e+001 2.941751e+001 2.556817e+000 5.592207e+000 2.793455e+000 5.405623e+000 3.093155e+000 3.142386e+000 3.882012e+000 3.501640e+000 3.694221e+000 3.442583e+000 3.891177e+000 2.618944e+000 5.675998e+000
<GCONST> 1.048162e+002
<STATE> 3
<MEAN> 25
 4.992216e+000 4.787776e+000 -8.151079e-002 -6.476134e-001 1.206956e+000 2.567615e+000 2.607350e-001 -6.954755e-001 -4.771819e-001 -1.840091e+000 -2.713532e-001 -2.283853e+000 -4.698057e-001 -8.079165e-001 1.794475e-001 6.341786e-002 -6.209013e-001 -3.838621e-001 -5.736715e-001 -4.824162e-002 -2.719100e-001 1.104582e-001 3.994526e-001 2.669674e-001 9.302465e-001
<VARIANCE> 25
 2.241785e+001 3.784714e+001 2.983865e+001 5.725102e+001 3.138902e+001 3.614169e+001 3.811655e+001 3.401004e+001 3.565374e+001 3.421036e+001 3.458517e+001 2.865829e+001 2.643369e+000 5.997651e+000 3.227466e+000 6.323208e+000 3.925145e+000 3.580198e+000 4.253124e+000 4.302440e+000 4.358854e+000 4.551541e+000 4.364504e+000 2.935702e+000 5.131088e+000
<GCONST> 1.068425e+002
<STATE> 4
<MEAN> 25
 4.067682e+000 2.413648e+000 -5.339934e-003 -1.148552e+000 -4.372914e-001 1.686494e+000 -1.250519e+000 -9.653731e-001 -1.122702e+000 -1.132819e+000 8.388078e-001 -1.471408e+000 -3.018254e-001 -1.167296e+000 9.653375e-002 -5.487622e-001 -9.918519e-001 -3.597708e-001 -6.991386e-001 -3.418025e-001 -4.791497e-001 5.877649e-001 5.810650e-001 4.557020e-001 1.514640e+000
<VARIANCE> 25
 2.337937e+001 4.609015e+001 3.920850e+001 6.889276e+001 3.964661e+001 4.396006e+001 3.998901e+001 4.093039e+001 4.154250e+001 4.418341e+001 3.765892e+001 2.882164e+001 2.667797e+000 5.213337e+000 3.651912e+000 5.958929e+000 4.791269e+000 4.044215e+000 4.338107e+000 5.466133e+000 5.196498e+000 5.405786e+000 4.717292e+000 3.239168e+000 3.770665e+000
<GCONST> 1.094313e+002
<TRANSP> 5
 0.000000e+000 1.000000e+000 0.000000e+000 0.000000e+000 0.000000e+000
 0.000000e+000 4.861916e-001 5.138085e-001 0.000000e+000 0.000000e+000
 0.000000e+000 0.000000e+000 4.675635e-001 5.324365e-001 0.000000e+000
 0.000000e+000 0.000000e+000 0.000000e+000 5.237570e-001 4.762430e-001
 0.000000e+000 0.000000e+000 0.000000e+000 0.000000e+000 0.000000e+000
<ENDHMM>
~h "c"
<BEGINHMM>
<NUMSTATES> 5
<STATE> 2
<MEAN> 25
 -1.051737e+001 9.274356e+000 -2.775494e+000 6.216177e+000 1.869217e+000 -3.344973e-001 2.769570e+000 3.753068e-001 7.587877e-001 -1.871755e+000 2.622487e-001 1.452719e+000 -2.340631e+000 -2.265857e-001 -1.563918e+000 -2.113898e-001 4.810032e-001 3.109151e-002 3.598866e-001 1.505592e-001 1.437837e-001 -2.009193e-001 2.135517e-001 4.262676e-001 8.429438e-001
<VARIANCE> 25
 4.867582e+001 2.734619e+001 4.090629e+001 2.215503e+001 2.805423e+001 3.580583e+001 2.991743e+001 3.087347e+001 2.805254e+001 2.312915e+001 3.415898e+001 2.472814e+001 4.639562e+000 3.528549e+000 3.549326e+000 2.200001e+000 3.220782e+000 3.518336e+000 3.086214e+000 2.830413e+000 2.586716e+000 2.229550e+000 2.752373e+000 2.010307e+000 2.424160e+000
<GCONST> 1.006989e+002
<STATE> 3
<MEAN> 25
 -1.447555e+001 6.374701e+000 -5.466313e+000 4.508004e+000 1.870225e+000 -1.699149e+000 4.147941e+000 8.754598e-001 6.271211e-001 -1.829815e+000 8.396303e-001 2.772470e+000 -6.831651e-003 -1.292028e+000 -1.164444e-001 -6.690710e-001 -5.849475e-001 -1.034025e+000 2.361595e-001 2.304599e-002 -1.548017e-001 1.995199e-001 2.840859e-003 3.729606e-001 9.638085e-001
<VARIANCE> 25
 3.322487e+001 3.208276e+001 2.804477e+001 2.349370e+001 3.209395e+001 4.666964e+001 3.250624e+001 3.018253e+001 2.658952e+001 2.257339e+001 4.335655e+001 2.644283e+001 8.618724e+000 2.663224e+000 4.478578e+000 1.906902e+000 3.353988e+000 4.071134e+000 3.812044e+000 3.178878e+000 2.515575e+000 2.272193e+000 3.078460e+000 2.328460e+000 1.432291e+000
<GCONST> 1.015105e+002
<STATE> 4
<MEAN> 25
 -1.048255e+001 2.454510e+000 -3.523783e+000 2.564748e+000 -1.058191e+000 -5.673717e+000 3.650037e+000 4.075916e-001 -1.095916e-001 -7.526431e-001 2.823949e-001 3.266877e+000 2.446382e+000 -1.117027e+000 1.287340e+000 -4.999599e-001 -1.246432e+000 -1.262954e+000 -7.063634e-001 -3.877780e-001 -3.937577e-001 4.969733e-001 -3.257973e-001 -9.999605e-002 7.974579e-001
<VARIANCE> 25
 6.266068e+001 2.672685e+001 3.625623e+001 2.076398e+001 4.282978e+001 5.420793e+001 3.716714e+001 3.857019e+001 3.139259e+001 2.400130e+001 4.166687e+001 2.497417e+001 6.497188e+000 2.703261e+000 3.511180e+000 2.179595e+000 3.157619e+000 4.581983e+000 4.812432e+000 4.011204e+000 3.028468e+000 2.510759e+000 4.100575e+000 3.112005e+000 1.627841e+000
<GCONST> 1.041798e+002
<TRANSP> 5
 0.000000e+000 1.000000e+000 0.000000e+000 0.000000e+000 0.000000e+000
 0.000000e+000 7.087286e-001 2.912714e-001 0.000000e+000 0.000000e+000
 0.000000e+000 0.000000e+000 6.667447e-001 3.332553e-001 0.000000e+000
 0.000000e+000 0.000000e+000 0.000000e+000 7.067692e-001 2.932308e-001
 0.000000e+000 0.000000e+000 0.000000e+000 0.000000e+000 0.000000e+000
<ENDHMM>
~h "d"
<BEGINHMM>
<NUMSTATES> 5
<STATE> 2
<MEAN> 25
 3.282645e+000 3.577306e+000 1.527496e+000 1.582969e+000 1.347851e+000 -2.343523e+000 -1.253775e+000 -2.804946e-002 2.168860e+000 4.513012e-001 -2.440487e+000 -1.256526e+000 -2.307441e-001 3.305527e-001 3.088014e-001 2.776399e-001 1.355811e-001 1.014671e-002 -3.824279e-002 6.191843e-002 1.286746e-001 -3.323208e-001 7.192791e-003 -1.253041e-002 -2.935946e-001
<VARIANCE> 25
 2.085392e+001 3.592654e+001 2.981719e+001 2.708774e+001 3.083520e+001 3.916014e+001 3.549897e+001 3.445087e+001 3.017187e+001 3.479909e+001 3.430883e+001 3.112917e+001 2.782615e+000 5.090435e+000 2.908287e+000 2.970621e+000 3.103890e+000 3.917845e+000 3.922972e+000 3.437920e+000 3.003132e+000 3.533924e+000 3.690787e+000 3.269466e+000 5.802709e+000
<GCONST> 1.039134e+002
<STATE> 3
<MEAN> 25
 2.523862e+000 3.363337e+000 1.783739e+000 1.648995e+000 1.457149e+000 -2.081178e+000 -1.337755e+000 9.506697e-002 2.094415e+000 -3.543967e-002 -2.065930e+000 -1.078334e+000 -4.397366e-001 -5.521668e-001 -6.131642e-002 -2.100126e-001 -1.383168e-001 6.662041e-002 -1.699843e-001 1.847328e-002 -1.070023e-001 -4.157140e-002 2.647152e-001 2.296995e-001 7.019300e-001
<VARIANCE> 25
 2.307910e+001 3.788963e+001 2.854392e+001 2.530956e+001 3.075514e+001 3.808220e+001 3.478874e+001 3.343504e+001 2.926226e+001 3.283602e+001 3.344031e+001 2.948167e+001 3.068521e+000 4.926764e+000 3.135474e+000 3.027181e+000 3.438481e+000 4.256327e+000 4.070071e+000 3.530823e+000 3.075970e+000 3.622582e+000 3.828925e+000 3.418491e+000 5.445722e+000
<GCONST> 1.041816e+002
<STATE> 4
<MEAN> 25
 1.630586e+000 1.562342e+000 1.335948e+000 8.967372e-001 9.471191e-001 -1.980021e+000 -1.777725e+000 1.042749e-001 1.747609e+000 2.023148e-001 -1.410682e+000 -4.021430e-001 -2.325386e-001 -1.041811e+000 -2.816200e-001 -5.220624e-001 -4.548331e-001 8.145019e-002 -2.558416e-001 -3.148277e-002 -2.215410e-001 2.637348e-001 2.937360e-001 2.784514e-001 1.264706e+000
<VARIANCE> 25
 2.322022e+001 4.100776e+001 3.161823e+001 2.691222e+001 3.437545e+001 4.151913e+001 3.815926e+001 3.552929e+001 3.098697e+001 3.290817e+001 3.348593e+001 2.955560e+001 3.128146e+000 4.189294e+000 3.371739e+000 3.099647e+000 3.806099e+000 4.494421e+000 4.263026e+000 3.834898e+000 3.268406e+000 3.571142e+000 3.893543e+000 3.283853e+000 4.326226e+000
<GCONST> 1.048758e+002
<TRANSP> 5
 0.000000e+000 1.000000e+000 0.000000e+000 0.000000e+000 0.000000e+000
 0.000000e+000 4.565645e-001 5.434355e-001 0.000000e+000 0.000000e+000
 0.000000e+000 0.000000e+000 4.497846e-001 5.502154e-001 0.000000e+000
 0.000000e+000 0.000000e+000 0.000000e+000 5.208011e-001 4.791989e-001
 0.000000e+000 0.000000e+000 0.000000e+000 0.000000e+000 0.000000e+000
<ENDHMM>
~h "e"
<BEGINHMM>
<NUMSTATES> 5
<STATE> 2
<MEAN> 25
 1.739120e+000 -2.705758e+000 2.799162e+000 9.510682e-001 -5.407206e+000 -6.235552e+000 4.862433e-001 2.712836e+000 -3.737506e-001 6.148241e-001 -2.079859e-001 1.822413e+000 3.798673e-001 4.181457e-001 1.602546e-001 2.923805e-001 1.172584e-001 -1.336776e-001 1.111859e-001 5.009146e-002 1.193687e-001 1.590290e-001 -6.724358e-002 -6.077713e-003 -3.637984e-001
<VARIANCE> 25
 1.537737e+001 2.763658e+001 2.421661e+001 2.253625e+001 3.414441e+001 3.864037e+001 4.098453e+001 3.489795e+001 3.402440e+001 3.069410e+001 2.893390e+001 2.589329e+001 2.429005e+000 2.871147e+000 2.101456e+000 2.109670e+000 3.506822e+000 3.356124e+000 3.390617e+000 3.728678e+000 3.168895e+000 2.911825e+000 2.619725e+000 2.392371e+000 2.793489e+000
<GCONST> 9.984052e+001
<STATE> 3
<MEAN> 25
 2.001708e+000 -1.394248e+000 3.131632e+000 1.630139e+000 -4.665570e+000 -5.840617e+000 6.557739e-001 2.440482e+000 -3.483937e-003 7.456762e-001 -3.033230e-001 1.559041e+000 1.155410e-003 8.334097e-001 7.364405e-002 3.909540e-001 5.949021e-001 3.830359e-001 4.070163e-002 -2.630506e-001 2.273705e-001 5.162518e-003 -5.528233e-003 -2.027599e-001 -9.025010e-001
<VARIANCE> 25
 1.586589e+001 3.350587e+001 2.410630e+001 2.381031e+001 3.555348e+001 3.878014e+001 4.202308e+001 3.622699e+001 3.616320e+001 3.151284e+001 2.970623e+001 2.718030e+001 2.105151e+000 3.013016e+000 2.021061e+000 2.159855e+000 3.112535e+000 3.153627e+000 3.226410e+000 3.585871e+000 3.139832e+000 2.756770e+000 2.547337e+000 2.378677e+000 2.618968e+000
<GCONST> 9.984062e+001
<STATE> 4
<MEAN> 25
 1.636834e+000 3.983393e-001 3.159793e+000 2.316328e+000 -3.303370e+000 -4.760033e+000 8.034937e-001 1.799173e+000 4.977354e-001 6.158447e-001 -2.385359e-001 1.048064e+000 -4.112062e-001 7.885451e-001 -2.118153e-001 2.436596e-001 8.222252e-001 7.064232e-001 -2.469032e-002 -3.804035e-001 1.897889e-001 -1.020846e-001 1.013867e-001 -2.672189e-001 -8.380760e-001
<VARIANCE> 25
 2.357663e+001 3.915151e+001 2.595619e+001 2.486819e+001 3.764563e+001 3.951884e+001 4.189564e+001 3.848054e+001 3.758926e+001 3.253697e+001 3.197460e+001 2.767276e+001 2.704522e+000 3.636477e+000 2.283985e+000 2.475908e+000 3.013383e+000 3.207891e+000 3.256294e+000 3.726576e+000 3.299291e+000 2.769072e+000 2.723323e+000 2.456027e+000 2.858667e+000
<GCONST> 1.017756e+002
<TRANSP> 5
 0.000000e+000 1.000000e+000 0.000000e+000 0.000000e+000 0.000000e+000
 0.000000e+000 4.295421e-001 5.704579e-001 0.000000e+000 0.000000e+000
 0.000000e+000 0.000000e+000 4.189530e-001 5.810469e-001 0.000000e+000
 0.000000e+000 0.000000e+000 0.000000e+000 4.901514e-001 5.098487e-001
 0.000000e+000 0.000000e+000 0.000000e+000 0.000000e+000 0.000000e+000
<ENDHMM>
~h "f"
<BEGINHMM>
<NUMSTATES> 5
<STATE> 2
<MEAN> 25
 -9.257390e+000 -3.575708e-001 -2.698089e+000 3.785582e+000 3.999427e+000 3.347568e+000 2.391857e-001 2.363371e+000 1.413667e+000 -1.168215e+000 -9.579603e-001 -3.061549e-001 5.593829e-001 -1.331193e+000 -7.405285e-001 -5.822662e-001 -7.117656e-001 1.807656e-001 -7.108712e-001 -3.496841e-001 2.575685e-001 3.833070e-001 2.682171e-001 4.263072e-002 3.018338e-001
<VARIANCE> 25
 3.119260e+001 2.960838e+001 2.824274e+001 2.477653e+001 2.099648e+001 2.515935e+001 2.830486e+001 2.681927e+001 2.218423e+001 2.615931e+001 3.070485e+001 2.114625e+001 5.610070e+000 2.563902e+000 2.754658e+000 3.231868e+000 2.269203e+000 2.629529e+000 2.427448e+000 3.422427e+000 2.198262e+000 2.395382e+000 2.667597e+000 1.853812e+000 2.211212e+000
<GCONST> 9.787615e+001
<STATE> 3
<MEAN> 25
 -6.734859e+000 -2.622102e+000 -4.477656e+000 2.081332e+000 2.049527e+000 3.110661e+000 -1.358615e+000 1.028895e+000 1.813170e+000 -1.018888e-001 -1.084962e-001 -2.995290e-001 2.304744e+000 -9.797691e-001 -8.078785e-001 -8.282071e-001 -1.250414e+000 -2.444535e-001 -8.618241e-001 -1.046079e+000 7.402116e-002 6.529603e-001 4.412574e-001 -4.996534e-002 8.079336e-001
<VARIANCE> 25
 4.386134e+001 2.252052e+001 2.623567e+001 2.673132e+001 2.586632e+001 2.657039e+001 3.264208e+001 3.559911e+001 2.139210e+001 2.775049e+001 2.804044e+001 1.984439e+001 5.478496e+000 2.349314e+000 2.526893e+000 3.654743e+000 2.659233e+000 2.819259e+000 2.926128e+000 4.023091e+000 2.453468e+000 2.788787e+000 3.170612e+000 2.043918e+000 1.984076e+000
<GCONST> 9.942912e+001
<STATE> 4
<MEAN> 25
 -6.293088e-001 -3.779434e+000 -5.965969e+000 5.265825e-001 -7.831666e-001 2.599088e+000 -3.006171e+000 -1.804591e+000 1.629320e+000 1.352584e+000 7.438825e-001 -5.311130e-001 2.926063e+000 -5.576159e-001 -4.676827e-001 -4.287744e-001 -1.148153e+000 -1.347249e-001 -5.739807e-001 -1.047726e+000 -8.819373e-002 6.286401e-001 3.792543e-001 9.919981e-003 1.057499e+000
<VARIANCE> 25
 5.767212e+001 1.908184e+001 2.483705e+001 2.988555e+001 2.951167e+001 2.948611e+001 3.520264e+001 4.440030e+001 2.203638e+001 3.032938e+001 2.526998e+001 2.123960e+001 4.245165e+000 2.201852e+000 2.317024e+000 4.420537e+000 3.022477e+000 3.430896e+000 3.841852e+000 4.197289e+000 2.873963e+000 3.730126e+000 3.369690e+000 2.234845e+000 1.654598e+000
<GCONST> 1.010491e+002
<TRANSP> 5
 0.000000e+000 1.000000e+000 0.000000e+000 0.000000e+000 0.000000e+000
 0.000000e+000 5.074660e-001 4.925340e-001 0.000000e+000 0.000000e+000
 0.000000e+000 0.000000e+000 4.730979e-001 5.269021e-001 0.000000e+000
 0.000000e+000 0.000000e+000 0.000000e+000 5.213508e-001 4.786492e-001
 0.000000e+000 0.000000e+000 0.000000e+000 0.000000e+000 0.000000e+000
<ENDHMM>
~h "g"
<BEGINHMM>
<NUMSTATES> 5
<STATE> 2
<MEAN> 25
 5.157960e+000 4.751604e+000 -1.027028e+000 -2.177570e+000 -2.553046e-001 2.410466e+000 2.066771e-001 -1.004894e+000 -4.771551e+000 -8.246806e-003 1.842398e+000 -6.832817e-001 -3.739151e-001 -8.468252e-002 -1.456695e-001 4.087501e-001 4.029500e-001 -6.095386e-002 -4.123902e-002 -3.371399e-001 1.834240e-001 2.727597e-001 -1.464124e-001 1.407134e-002 -1.410611e-001
<VARIANCE> 25
 2.212747e+001 3.812732e+001 4.824504e+001 5.423036e+001 4.497987e+001 5.301095e+001 4.057970e+001 4.621353e+001 4.988354e+001 5.166510e+001 4.609416e+001 2.864829e+001 1.727599e+000 4.719650e+000 4.313701e+000 4.948615e+000 3.916044e+000 4.871706e+000 4.484352e+000 4.501527e+000 5.224292e+000 4.682439e+000 4.768787e+000 2.825435e+000 4.306164e+000
<GCONST> 1.092786e+002
<STATE> 3
<MEAN> 25
 4.304896e+000 3.730189e+000 -1.425965e+000 -1.502416e+000 3.701731e-001 2.165633e+000 -2.565455e-001 -1.735509e+000 -4.134620e+000 8.003975e-001 1.780642e+000 -6.494500e-001 -4.091592e-001 -6.447380e-001 -1.812976e-001 1.366969e-001 1.955242e-001 -1.198400e-001 -3.464632e-001 -3.824382e-001 3.918322e-001 3.997804e-001 1.903464e-002 8.587473e-003 5.484832e-001
<VARIANCE> 25
 2.373153e+001 4.244848e+001 5.394613e+001 5.225200e+001 4.608304e+001 5.593943e+001 4.419152e+001 4.913982e+001 4.964721e+001 5.136935e+001 4.299529e+001 2.760874e+001 2.078415e+000 4.522188e+000 3.977259e+000 4.987695e+000 4.349917e+000 5.101169e+000 4.704205e+000 4.863803e+000 5.254464e+000 4.920718e+000 5.006448e+000 2.998367e+000 4.125257e+000
<GCONST> 1.101037e+002
<STATE> 4
<MEAN> 25
 3.633553e+000 2.090845e+000 -1.735935e+000 -1.486520e+000 5.112094e-001 1.812260e+000 -9.934227e-001 -2.289829e+000 -3.185504e+000 1.644397e+000 1.910893e+000 -6.825227e-001 -3.320923e-001 -7.707097e-001 -5.300704e-002 -1.291317e-001 -9.909999e-003 -6.171114e-002 -3.335437e-001 -2.408414e-001 5.031554e-001 2.752025e-001 3.114037e-002 -4.388949e-003 8.724856e-001
<VARIANCE> 25
 2.568120e+001 4.463247e+001 5.543341e+001 5.480839e+001 4.497044e+001 5.994737e+001 4.648798e+001 5.305682e+001 4.962753e+001 5.015774e+001 4.303569e+001 2.758094e+001 2.420070e+000 3.989037e+000 3.533884e+000 4.513419e+000 4.369282e+000 5.099759e+000 4.731143e+000 5.129852e+000 5.072866e+000 4.771321e+000 4.742765e+000 2.916062e+000 3.407839e+000
<GCONST> 1.099884e+002
<TRANSP> 5
 0.000000e+000 1.000000e+000 0.000000e+000 0.000000e+000 0.000000e+000
 0.000000e+000 4.621625e-001 5.378375e-001 0.000000e+000 0.000000e+000
 0.000000e+000 0.000000e+000 4.369752e-001 5.630248e-001 0.000000e+000
 0.000000e+000 0.000000e+000 0.000000e+000 4.840285e-001 5.159714e-001
 0.000000e+000 0.000000e+000 0.000000e+000 0.000000e+000 0.000000e+000
<ENDHMM>
~h "h"
<BEGINHMM>
<NUMSTATES> 5
<STATE> 2
<MEAN> 25
 -2.581219e+000 9.178366e-001 4.035214e+000 3.854347e+000 2.431988e+000 -1.155782e+000 5.645252e-001 1.814394e+000 -2.180397e+000 5.281082e-001 -3.295164e-001 -2.546316e-002 -4.611249e-001 -4.805476e-001 -1.006019e+000 3.143211e-002 1.052502e+000 3.283602e-001 -1.168361e-001 1.922180e-001 8.722671e-001 -9.031902e-002 -3.479495e-001 -2.370350e-002 -2.960062e-001
<VARIANCE> 25
 3.477935e+001 4.261701e+001 7.587698e+001 3.178131e+001 5.745747e+001 4.937051e+001 4.559654e+001 4.440149e+001 4.194188e+001 3.765680e+001 3.150416e+001 2.551563e+001 2.963173e+000 3.243638e+000 4.633493e+000 2.858659e+000 5.197987e+000 4.634361e+000 4.132090e+000 4.078363e+000 4.296037e+000 3.619082e+000 3.175434e+000 2.688490e+000 2.491956e+000
<GCONST> 1.073082e+002
<STATE> 3
<MEAN> 25
 -3.362594e+000 2.619188e-002 2.259477e+000 3.321174e+000 3.669156e+000 -3.140359e-001 4.935438e-001 1.860735e+000 -7.821146e-001 5.294362e-001 -8.197731e-001 -8.887833e-002 -2.633254e-001 -3.593577e-001 -8.352315e-001 -4.488811e-001 3.806391e-001 4.961227e-001 -1.389214e-001 -1.983103e-001 6.207989e-001 -3.380091e-002 -1.601840e-001 1.982945e-002 -6.557454e-002
<VARIANCE> 25
 3.841538e+001 4.600411e+001 7.391339e+001 3.100293e+001 5.231208e+001 4.734321e+001 4.839373e+001 4.134408e+001 3.723966e+001 3.823671e+001 3.214019e+001 2.520823e+001 3.001879e+000 2.784986e+000 4.578670e+000 2.707136e+000 4.746775e+000 4.721770e+000 3.995635e+000 3.800204e+000 4.069139e+000 3.609707e+000 3.191500e+000 2.677997e+000 2.414097e+000
<GCONST> 1.067201e+002
<STATE> 4
<MEAN> 25
 -3.806053e+000 -7.531155e-001 1.028462e+000 2.136967e+000 3.547863e+000 4.838733e-001 5.891242e-001 1.606776e+000 1.318218e-001 5.494569e-001 -1.135068e+000 3.195349e-002 2.046398e-001 -1.696272e-001 -4.251435e-001 -6.841413e-001 -3.163882e-001 3.516354e-001 -2.756645e-001 -5.199811e-001 2.074367e-001 2.734348e-002 1.128095e-001 7.994653e-002 1.591887e-001
<VARIANCE> 25
 4.368165e+001 4.545013e+001 7.067703e+001 3.161526e+001 4.777801e+001 4.691456e+001 4.771132e+001 3.962825e+001 3.596833e+001 3.710463e+001 3.493529e+001 2.534178e+001 3.368169e+000 2.636818e+000 4.066963e+000 2.713056e+000 4.252904e+000 4.507794e+000 3.806293e+000 3.594595e+000 3.769184e+000 3.555393e+000 3.239145e+000 2.579029e+000 2.340664e+000
<GCONST> 1.062171e+002
<TRANSP> 5
 0.000000e+000 1.000000e+000 0.000000e+000 0.000000e+000 0.000000e+000
 0.000000e+000 4.170151e-001 5.829849e-001 0.000000e+000 0.000000e+000
 0.000000e+000 0.000000e+000 4.126588e-001 5.873411e-001 0.000000e+000
 0.000000e+000 0.000000e+000 0.000000e+000 4.973717e-001 5.026283e-001
 0.000000e+000 0.000000e+000 0.000000e+000 0.000000e+000 0.000000e+000
<ENDHMM>
~h "i"
<BEGINHMM>
<NUMSTATES> 5
<STATE> 2
<MEAN> 25
 -1.023073e+000 1.495700e+000 1.057012e+001 5.930129e-001 -8.392326e+000 -2.980773e+000 -4.711473e-001 -3.619505e+000 -6.491508e+000 1.563287e+000 1.242866e+000 8.521019e-001 1.909848e-001 4.298569e-001 1.081014e+000 -4.903372e-002 -7.835306e-001 -9.023109e-003 -7.273688e-002 -5.163314e-001 -7.050238e-001 3.247088e-001 -7.976919e-002 -2.323810e-002 2.131027e-001
<VARIANCE> 25
 2.122589e+001 2.406907e+001 3.417818e+001 3.522012e+001 3.802616e+001 4.834555e+001 3.770129e+001 4.878278e+001 4.251552e+001 4.572962e+001 3.398456e+001 2.243270e+001 2.744565e+000 2.321860e+000 3.635868e+000 2.818074e+000 5.206318e+000 3.920357e+000 3.632067e+000 4.166322e+000 4.517347e+000 3.518626e+000 3.309932e+000 2.114442e+000 2.702436e+000
<GCONST> 1.041367e+002
<STATE> 3
<MEAN> 25
 -5.851059e-001 2.784327e+000 1.141218e+001 1.040805e+000 -8.218246e+000 -2.548050e+000 -4.086596e-001 -4.129122e+000 -6.574452e+000 1.673289e+000 8.719497e-001 6.512718e-001 1.251757e-001 4.523878e-001 -1.356013e-001 3.614787e-001 5.227103e-001 8.931635e-002 6.452937e-002 1.141788e-002 2.695278e-001 -1.250140e-001 -7.644038e-002 -6.689881e-002 -4.532507e-001
<VARIANCE> 25
 1.693774e+001 2.547094e+001 3.039089e+001 3.792467e+001 3.884409e+001 4.857286e+001 3.698078e+001 4.676257e+001 4.133802e+001 4.590299e+001 3.352196e+001 2.242041e+001 2.266170e+000 2.271920e+000 3.175978e+000 2.660063e+000 4.551455e+000 3.409022e+000 3.255088e+000 3.604929e+000 3.868461e+000 3.160806e+000 2.946936e+000 1.973093e+000 2.449116e+000
<GCONST> 1.023692e+002
<STATE> 4
<MEAN> 25
 -5.673593e-001 3.726507e+000 9.574851e+000 2.279123e+000 -5.437486e+000 -2.234352e+000 -8.590076e-002 -3.477553e+000 -4.779743e+000 7.483076e-001 7.157598e-001 5.499536e-001 -1.539775e-001 1.410963e-001 -1.042656e+000 4.049860e-001 1.234297e+000 1.765702e-001 4.021270e-002 3.310760e-001 7.500887e-001 -3.645252e-001 -3.028391e-002 -5.162153e-002 -5.327958e-001
<VARIANCE> 25
 2.430244e+001 2.940996e+001 3.635599e+001 3.728660e+001 4.677051e+001 4.599721e+001 3.896341e+001 4.435865e+001 4.132088e+001 4.150111e+001 3.237650e+001 2.265609e+001 2.566442e+000 2.803102e+000 2.882292e+000 2.892389e+000 4.025826e+000 3.594441e+000 3.316240e+000 3.779243e+000 3.632687e+000 3.252026e+000 3.121465e+000 2.156853e+000 2.444307e+000
<GCONST> 1.034689e+002
<TRANSP> 5
 0.000000e+000 1.000000e+000 0.000000e+000 0.000000e+000 0.000000e+000
 0.000000e+000 6.322059e-001 3.677941e-001 0.000000e+000 0.000000e+000
 0.000000e+000 0.000000e+000 5.901034e-001 4.098966e-001 0.000000e+000
 0.000000e+000 0.000000e+000 0.000000e+000 6.492144e-001 3.507856e-001
 0.000000e+000 0.000000e+000 0.000000e+000 0.000000e+000 0.000000e+000
<ENDHMM>
~h "j"
<BEGINHMM>
<NUMSTATES> 5
<STATE> 2
<MEAN> 25
 -2.703139e-001 5.548747e-001 9.041740e+000 -5.654162e-001 -7.974948e+000 -2.766061e+000 -2.849091e-001 -1.660894e+000 -4.867399e+000 1.393224e+000 9.228047e-001 9.007069e-001 5.554909e-002 -2.164287e-001 8.006802e-001 -3.278154e-001 -1.108587e+000 -3.250126e-001 -1.509494e-001 1.236483e-001 -2.717222e-001 4.050728e-001 1.942269e-001 2.212802e-001 5.710298e-001
<VARIANCE> 25
 1.619102e+001 2.955208e+001 3.894070e+001 3.600578e+001 3.697446e+001 4.197022e+001 3.846040e+001 4.784760e+001 3.574258e+001 3.853294e+001 2.743936e+001 2.107474e+001 2.430215e+000 2.524703e+000 4.380412e+000 2.775007e+000 4.073491e+000 3.395096e+000 3.629067e+000 4.025531e+000 3.465739e+000 2.986742e+000 2.365139e+000 1.861692e+000 2.188074e+000
<GCONST> 1.020388e+002
<STATE> 3
<MEAN> 25
 -1.217164e-001 -1.905582e-001 9.096254e+000 -8.590698e-001 -9.084760e+000 -3.532689e+000 -1.331642e-001 -8.245409e-001 -4.625068e+000 2.010367e+000 1.301043e+000 1.231304e+000 2.568244e-001 -4.813074e-001 -5.656586e-001 8.102174e-002 -2.558097e-002 -4.416143e-001 1.045471e-001 6.394062e-001 3.769076e-001 9.255691e-002 4.731405e-002 9.755228e-002 2.723375e-001
<VARIANCE> 25
 1.161394e+001 2.838618e+001 3.638894e+001 3.411211e+001 3.213564e+001 4.160023e+001 3.843217e+001 4.502789e+001 3.565793e+001 3.902662e+001 2.722508e+001 2.042210e+001 1.337497e+000 2.329382e+000 3.951752e+000 2.342871e+000 3.738807e+000 3.010772e+000 3.253834e+000 3.656044e+000 3.149894e+000 2.793129e+000 2.201747e+000 1.668270e+000 1.821479e+000
<GCONST> 9.941651e+001
<STATE> 4
<MEAN> 25
 5.881236e-001 -1.617656e+000 6.296310e+000 -1.961564e-001 -7.866769e+000 -4.558875e+000 3.369963e-001 1.136511e+000 -3.094116e+000 1.635624e+000 1.034779e+000 1.320861e+000 4.229415e-001 -4.657977e-001 -1.411642e+000 2.992807e-001 1.027162e+000 -1.579798e-001 -1.777584e-002 6.657931e-001 7.866911e-001 -2.564912e-001 -2.677425e-001 -8.078093e-002 -1.004219e-001
<VARIANCE> 25
 1.133381e+001 2.932073e+001 4.023214e+001 3.260573e+001 3.607771e+001 3.919295e+001 4.645976e+001 4.412387e+001 3.763163e+001 3.709423e+001 2.931159e+001 2.024746e+001 9.935285e-001 2.398468e+000 3.184945e+000 2.268209e+000 3.546068e+000 3.325519e+000 3.440110e+000 3.813967e+000 3.071085e+000 3.068039e+000 2.451594e+000 1.832630e+000 1.753143e+000
<GCONST> 9.963361e+001
<TRANSP> 5
 0.000000e+000 1.000000e+000 0.000000e+000 0.000000e+000 0.000000e+000
 0.000000e+000 5.536541e-001 4.463459e-001 0.000000e+000 0.000000e+000
 0.000000e+000 0.000000e+000 5.227762e-001 4.772237e-001 0.000000e+000
 0.000000e+000 0.000000e+000 0.000000e+000 5.765106e-001 4.234895e-001
 0.000000e+000 0.000000e+000 0.000000e+000 0.000000e+000 0.000000e+000
<ENDHMM>
~h "k"
<BEGINHMM>
<NUMSTATES> 5
<STATE> 2
<MEAN> 25
 -4.404233e+000 -1.000857e+000 -4.474399e+000 2.315814e+000 5.743892e+000 5.215386e-001 4.844355e-003 2.283243e+000 2.274308e+000 1.206985e+000 2.716565e-001 -1.245083e-001 -7.871726e-002 -1.411348e+000 -1.042398e+000 -9.362296e-001 -2.035027e-001 1.512099e-001 -6.292379e-001 -4.608632e-002 -5.481268e-001 4.303029e-001 2.865980e-001 3.402780e-001 9.735003e-001
<VARIANCE> 25
 3.483261e+001 4.403304e+001 5.276932e+001 4.128911e+001 5.002499e+001 5.257566e+001 4.895818e+001 5.005044e+001 4.532877e+001 3.610275e+001 3.723312e+001 2.748737e+001 4.590774e+000 5.232393e+000 5.899542e+000 4.389578e+000 5.652916e+000 5.955178e+000 4.750513e+000 4.377343e+000 4.909870e+000 4.087348e+000 3.644434e+000 3.318020e+000 6.214393e+000
<GCONST> 1.112817e+002
<STATE> 3
<MEAN> 25
 -4.310198e+000 -3.254939e+000 -6.006055e+000 2.139444e-002 4.535889e+000 4.431612e-001 -1.169529e+000 1.890804e+000 9.931293e-001 2.052817e+000 8.531158e-001 3.851949e-001 6.097530e-001 -6.415355e-001 -2.431360e-001 -1.273682e+000 -9.331170e-001 -4.558432e-002 -5.087033e-001 -4.063653e-001 -8.219898e-001 3.176734e-001 3.076729e-001 4.819051e-002 1.316278e+000
<VARIANCE> 25
 3.347354e+001 3.749773e+001 6.014322e+001 4.574339e+001 5.103808e+001 6.344943e+001 4.866225e+001 4.798075e+001 4.642385e+001 3.700086e+001 3.892799e+001 2.846379e+001 4.782067e+000 4.974411e+000 6.241370e+000 4.232887e+000 5.259230e+000 5.732189e+000 4.602683e+000 4.476182e+000 5.054952e+000 4.234254e+000 4.144077e+000 3.418049e+000 4.631243e+000
<GCONST> 1.114213e+002
<STATE> 4
<MEAN> 25
 -2.310254e+000 -3.237749e+000 -5.308862e+000 -2.156074e+000 2.377192e+000 1.638706e-001 -1.687929e+000 8.584548e-001 -5.056091e-001 2.338785e+000 1.309610e+000 5.778905e-002 1.372354e+000 3.024853e-001 6.957191e-001 -9.409607e-001 -1.137487e+000 -3.429156e-002 -1.990175e-001 -6.376576e-001 -8.345280e-001 5.206842e-002 1.804940e-001 -2.484194e-001 9.784619e-001
<VARIANCE> 25
 4.429338e+001 3.007438e+001 6.222385e+001 4.409084e+001 4.706355e+001 6.580788e+001 4.458074e+001 4.799933e+001 4.731004e+001 3.819057e+001 4.345227e+001 2.832529e+001 3.839865e+000 4.099975e+000 5.316167e+000 4.049985e+000 4.569286e+000 5.004635e+000 4.372371e+000 4.334395e+000 5.007137e+000 4.110850e+000 4.478089e+000 3.104718e+000 4.027495e+000
<GCONST> 1.103271e+002
<TRANSP> 5
 0.000000e+000 1.000000e+000 0.000000e+000 0.000000e+000 0.000000e+000
 0.000000e+000 4.661499e-001 5.338501e-001 0.000000e+000 0.000000e+000
 0.000000e+000 0.000000e+000 4.391508e-001 5.608492e-001 0.000000e+000
 0.000000e+000 0.000000e+000 0.000000e+000 4.848585e-001 5.151415e-001
 0.000000e+000 0.000000e+000 0.000000e+000 0.000000e+000 0.000000e+000
<ENDHMM>
~h "l"
<BEGINHMM>
<NUMSTATES> 5
<STATE> 2
<MEAN> 25
 3.867531e+000 -3.264863e+000 -2.875613e+000 -3.625418e+000 -9.121047e-001 4.204988e+000 -2.199149e+000 -6.042056e+000 4.138066e-002 3.055856e+000 3.104507e+000 -5.158687e-001 7.905641e-001 -2.181329e-001 1.012076e-001 -6.448418e-001 -8.337183e-002 2.546625e-001 -3.064446e-001 -6.684394e-001 -7.046297e-003 4.455481e-001 -6.849822e-002 -8.307836e-002 3.438023e-001
<VARIANCE> 25
 3.732260e+001 2.559767e+001 3.836847e+001 4.524948e+001 4.288982e+001 5.432089e+001 5.324202e+001 5.208018e+001 4.548635e+001 4.001800e+001 4.133080e+001 3.103695e+001 2.834734e+000 2.738010e+000 2.936289e+000 4.559510e+000 4.349136e+000 5.088897e+000 4.688870e+000 6.744818e+000 4.607682e+000 4.118546e+000 4.330092e+000 3.069218e+000 2.084000e+000
<GCONST> 1.080722e+002
<STATE> 3
<MEAN> 25
 4.699451e+000 -3.386093e+000 -2.804865e+000 -4.387882e+000 -6.953705e-001 4.267478e+000 -2.296831e+000 -5.977599e+000 1.692084e-001 3.266662e+000 2.526676e+000 -6.786872e-001 3.161868e-001 -1.128502e-001 -4.186704e-002 -3.050455e-001 1.470135e-001 -7.028805e-002 7.024657e-002 4.129375e-001 -2.732059e-003 -8.333228e-002 -4.352535e-001 -1.233323e-001 2.953709e-001
<VARIANCE> 25
 2.896255e+001 2.264604e+001 4.003587e+001 4.444708e+001 4.278013e+001 5.476168e+001 5.513214e+001 5.015282e+001 4.636291e+001 3.938446e+001 4.299080e+001 3.250294e+001 2.146402e+000 2.200560e+000 2.919912e+000 3.969858e+000 4.066913e+000 4.883715e+000 4.493225e+000 6.508578e+000 4.374126e+000 3.807310e+000 3.977409e+000 3.073372e+000 1.583774e+000
<GCONST> 1.064962e+002
<STATE> 4
<MEAN> 25
 4.739565e+000 -3.461476e+000 -3.159887e+000 -4.567962e+000 -1.872889e-001 3.987900e+000 -1.719165e+000 -4.283735e+000 2.017094e-001 2.548421e+000 1.476131e+000 -9.519672e-001 -2.935504e-002 4.040577e-002 -3.952875e-002 2.103868e-002 1.721027e-001 -2.554273e-001 2.949586e-001 9.052445e-001 -1.338493e-001 -3.664887e-001 -4.976231e-001 -8.565240e-002 1.334585e-001
<VARIANCE> 25
 2.380717e+001 2.405027e+001 4.276847e+001 4.447018e+001 4.563420e+001 6.106784e+001 5.130647e+001 4.914146e+001 4.537824e+001 3.699244e+001 4.543150e+001 3.512471e+001 1.552210e+000 2.096503e+000 2.718888e+000 3.587056e+000 3.744739e+000 4.571541e+000 4.317346e+000 5.281536e+000 3.946454e+000 3.435193e+000 3.526845e+000 2.787702e+000 1.488028e+000
<GCONST> 1.051282e+002
<TRANSP> 5
 0.000000e+000 1.000000e+000 0.000000e+000 0.000000e+000 0.000000e+000
 0.000000e+000 4.527250e-001 5.472751e-001 0.000000e+000 0.000000e+000
 0.000000e+000 0.000000e+000 4.311362e-001 5.688638e-001 0.000000e+000
 0.000000e+000 0.000000e+000 0.000000e+000 4.833491e-001 5.166510e-001
 0.000000e+000 0.000000e+000 0.000000e+000 0.000000e+000 0.000000e+000
<ENDHMM>
~h "m"
<BEGINHMM>
<NUMSTATES> 5
<STATE> 2
<MEAN> 25
 6.387116e+000 1.096766e+000 1.187387e+000 3.457585e+000 1.464384e+000 -4.221781e-001 1.297118e+000 -5.344029e+000 -4.643447e+000 7.839292e-002 6.833895e-002 -2.656312e+000 1.193877e-001 2.684486e-001 4.783116e-001 6.332079e-001 1.751904e-001 -9.499011e-002 1.332196e-001 -5.014614e-001 -3.894444e-001 -1.187577e-001 -1.380477e-001 -1.211697e-001 -1.246404e-001
<VARIANCE> 25
 1.338591e+001 2.495020e+001 1.939283e+001 3.473698e+001 3.359770e+001 3.670399e+001 3.456818e+001 5.379991e+001 4.222299e+001 3.601165e+001 3.293732e+001 2.680014e+001 1.361216e+000 2.292139e+000 2.141699e+000 3.597699e+000 2.920941e+000 3.158125e+000 2.922210e+000 5.668178e+000 4.035768e+000 2.834235e+000 2.647943e+000 2.419600e+000 2.375095e+000
<GCONST> 1.003943e+002
<STATE> 3
<MEAN> 25
 6.213829e+000 1.260279e+000 1.821140e+000 3.706192e+000 1.499111e+000 -1.870351e-001 1.289101e+000 -5.100299e+000 -4.769044e+000 -3.269388e-001 -2.192083e-001 -2.568258e+000 -3.501611e-001 -5.794782e-002 3.171105e-001 -2.671585e-001 -1.898998e-001 2.339814e-001 -8.535157e-002 5.992386e-001 1.688350e-001 -2.444889e-001 -1.871493e-001 1.666743e-001 2.685639e-001
<VARIANCE> 25
 1.251669e+001 2.648734e+001 2.130316e+001 3.613005e+001 3.432487e+001 3.810771e+001 3.445045e+001 5.648873e+001 4.282528e+001 3.706891e+001 3.357463e+001 2.634230e+001 1.271145e+000 2.312589e+000 2.460398e+000 3.913589e+000 3.141977e+000 3.090082e+000 2.883297e+000 5.596148e+000 3.952571e+000 2.923743e+000 2.704334e+000 2.421182e+000 2.089525e+000
<GCONST> 1.007617e+002
<STATE> 4
<MEAN> 25
 5.071315e+000 9.290110e-001 2.117893e+000 2.237442e+000 8.946021e-001 7.180144e-001 9.758319e-001 -2.859651e+000 -3.803853e+000 -9.629038e-001 -6.207122e-001 -2.034151e+000 -7.551070e-001 -2.781646e-001 2.181455e-001 -9.055354e-001 -5.114287e-001 4.017414e-001 -1.582876e-001 1.157636e+000 4.505209e-001 -1.863895e-001 -1.691118e-001 3.527947e-001 5.444940e-001
<VARIANCE> 25
 1.608920e+001 3.215613e+001 3.172330e+001 4.600742e+001 4.118938e+001 4.324020e+001 3.430534e+001 5.875774e+001 4.223837e+001 3.708964e+001 3.319583e+001 2.528581e+001 1.481284e+000 2.527653e+000 3.382533e+000 3.928179e+000 3.829518e+000 3.373656e+000 3.134722e+000 5.128458e+000 3.981287e+000 3.174781e+000 2.966632e+000 2.522083e+000 1.972179e+000
<GCONST> 1.031361e+002
<TRANSP> 5
 0.000000e+000 1.000000e+000 0.000000e+000 0.000000e+000 0.000000e+000
 0.000000e+000 4.869122e-001 5.130878e-001 0.000000e+000 0.000000e+000
 0.000000e+000 0.000000e+000 4.708649e-001 5.291351e-001 0.000000e+000
 0.000000e+000 0.000000e+000 0.000000e+000 5.336797e-001 4.663203e-001
 0.000000e+000 0.000000e+000 0.000000e+000 0.000000e+000 0.000000e+000
<ENDHMM>
~h "n"
<BEGINHMM>
<NUMSTATES> 5
<STATE> 2
<MEAN> 25
 4.914455e+000 -2.857044e-001 1.185416e+000 2.561484e+000 8.740881e-001 -3.823479e-001 7.329100e-001 -3.461097e+000 -1.173455e+000 -1.417761e-001 -4.284839e+000 -7.104589e-001 2.183542e-001 -3.164425e-002 3.612364e-002 5.902873e-002 2.074288e-001 1.444646e-001 -7.117092e-002 -2.545016e-001 -1.953790e-001 -6.337710e-002 -3.539419e-001 3.073992e-002 2.751781e-001
<VARIANCE> 25
 1.721056e+001 2.921772e+001 2.623286e+001 2.997503e+001 3.319202e+001 4.259884e+001 3.511139e+001 5.483301e+001 3.809035e+001 3.991009e+001 3.640326e+001 2.866094e+001 1.575465e+000 3.350975e+000 2.892581e+000 3.290054e+000 2.939929e+000 4.508702e+000 3.300244e+000 5.382851e+000 3.591142e+000 3.165541e+000 3.133153e+000 2.405077e+000 2.899162e+000
<GCONST> 1.028216e+002
<STATE> 3
<MEAN> 25
 4.974913e+000 -7.263827e-001 9.741924e-001 2.127685e+000 1.199881e+000 3.145306e-001 4.605822e-001 -3.237500e+000 -1.333739e+000 -3.629850e-001 -4.481245e+000 -6.253113e-001 -9.735817e-002 -3.073802e-001 -2.681409e-001 -4.642187e-001 1.949832e-001 5.368353e-001 -1.631349e-001 4.255091e-001 -4.520222e-002 -1.951885e-001 6.854522e-002 1.164624e-002 5.270321e-001
<VARIANCE> 25
 1.546011e+001 3.147993e+001 2.806953e+001 3.214431e+001 3.370832e+001 4.577726e+001 3.644773e+001 5.597703e+001 3.739725e+001 4.044438e+001 3.582640e+001 2.845286e+001 1.311398e+000 3.312620e+000 2.857916e+000 3.226648e+000 2.837496e+000 4.250648e+000 3.274975e+000 5.188132e+000 3.508980e+000 3.185708e+000 2.916862e+000 2.322102e+000 2.512482e+000
<GCONST> 1.024116e+002
<STATE> 4
<MEAN> 25
 4.464727e+000 -1.357095e+000 2.361674e-001 8.643985e-001 1.598907e+000 1.584507e+000 2.340538e-001 -1.858235e+000 -1.287759e+000 -8.891892e-001 -3.957150e+000 -6.669915e-001 -3.383148e-001 -2.676926e-001 -4.001445e-001 -6.957811e-001 1.421070e-001 6.129732e-001 -6.554235e-002 7.513213e-001 -2.973403e-003 -2.245091e-001 4.060783e-001 -3.777056e-002 4.699710e-001
<VARIANCE> 25
 1.693873e+001 3.655275e+001 3.313451e+001 3.547430e+001 3.644534e+001 4.978527e+001 3.872856e+001 5.513935e+001 3.672571e+001 4.032895e+001 3.601365e+001 2.774949e+001 1.408455e+000 3.341778e+000 2.732931e+000 3.095807e+000 2.949943e+000 3.935828e+000 3.317744e+000 4.679634e+000 3.492238e+000 3.206085e+000 2.820853e+000 2.273962e+000 2.286960e+000
<GCONST> 1.028025e+002
<TRANSP> 5
 0.000000e+000 1.000000e+000 0.000000e+000 0.000000e+000 0.000000e+000
 0.000000e+000 4.343278e-001 5.656722e-001 0.000000e+000 0.000000e+000
 0.000000e+000 0.000000e+000 4.256853e-001 5.743147e-001 0.000000e+000
 0.000000e+000 0.000000e+000 0.000000e+000 4.922216e-001 5.077785e-001
 0.000000e+000 0.000000e+000 0.000000e+000 0.000000e+000 0.000000e+000
<ENDHMM>
~h "o"
<BEGINHMM>
<NUMSTATES> 5
<STATE> 2
<MEAN> 25
 5.464752e+000 -1.277968e+000 -6.328965e+000 -8.257189e+000 9.051224e-001 7.520386e+000 -2.400299e+000 -2.440940e+000 -1.579870e+000 1.655819e+000 3.010065e+000 -9.742956e-001 4.532555e-001 3.252938e-001 -1.345647e-001 -7.421990e-001 3.012458e-002 5.080932e-001 4.982290e-002 -1.826479e-001 -1.944412e-001 2.217510e-001 4.365869e-001 -4.066584e-002 1.273479e-001
<VARIANCE> 25
 1.643278e+001 2.265144e+001 2.473043e+001 5.625567e+001 4.031664e+001 4.758706e+001 4.649808e+001 3.706346e+001 4.155138e+001 4.506690e+001 4.136162e+001 2.700817e+001 1.945387e+000 2.153643e+000 2.543695e+000 4.807663e+000 2.919546e+000 3.815368e+000 3.500261e+000 3.610317e+000 3.625958e+000 3.413845e+000 3.203185e+000 2.272813e+000 2.463854e+000
<GCONST> 1.029557e+002
<STATE> 3
<MEAN> 25
 5.910587e+000 -3.687289e-001 -5.800716e+000 -8.141605e+000 1.209853e+000 7.537643e+000 -2.130317e+000 -2.761459e+000 -1.633779e+000 2.054236e+000 3.427126e+000 -9.889029e-001 -3.493098e-002 5.551372e-001 4.930976e-001 5.545842e-001 1.969873e-001 -3.681159e-001 1.858896e-001 -6.838652e-002 8.009929e-002 6.506394e-002 -2.050704e-002 -4.029770e-002 -4.774701e-001
<VARIANCE> 25
 1.341864e+001 2.345573e+001 2.384082e+001 5.740984e+001 3.914621e+001 4.735172e+001 4.719629e+001 3.696474e+001 4.212537e+001 4.548850e+001 4.157188e+001 2.802643e+001 1.648980e+000 2.192459e+000 2.058998e+000 4.340200e+000 2.719726e+000 3.672237e+000 3.502808e+000 3.438341e+000 3.628171e+000 3.353294e+000 3.208830e+000 2.240881e+000 2.189443e+000
<GCONST> 1.020485e+002
<STATE> 4
<MEAN> 25
 5.243019e+000 1.000510e+000 -4.183487e+000 -5.547233e+000 1.765634e+000 5.779854e+000 -1.651907e+000 -2.594449e+000 -8.944675e-001 2.029426e+000 2.744489e+000 -1.128397e+000 -6.086378e-001 6.271142e-001 8.568355e-001 1.343024e+000 1.421557e-001 -9.965007e-001 3.421407e-001 2.214354e-001 3.093917e-001 -2.267081e-001 -4.066360e-001 -1.234292e-003 -7.310996e-001
<VARIANCE> 25
 1.924771e+001 2.865063e+001 2.621403e+001 5.883881e+001 3.944801e+001 4.839110e+001 4.789268e+001 4.062240e+001 4.489576e+001 4.282814e+001 4.079743e+001 2.836234e+001 2.417915e+000 2.897855e+000 2.168053e+000 3.860508e+000 3.085106e+000 3.633040e+000 3.788772e+000 3.937279e+000 3.813097e+000 3.520635e+000 3.376835e+000 2.412651e+000 2.212304e+000
<GCONST> 1.040229e+002
<TRANSP> 5
 0.000000e+000 1.000000e+000 0.000000e+000 0.000000e+000 0.000000e+000
 0.000000e+000 5.704200e-001 4.295800e-001 0.000000e+000 0.000000e+000
 0.000000e+000 0.000000e+000 5.354747e-001 4.645254e-001 0.000000e+000
 0.000000e+000 0.000000e+000 0.000000e+000 5.905499e-001 4.094500e-001
 0.000000e+000 0.000000e+000 0.000000e+000 0.000000e+000 0.000000e+000
<ENDHMM>
~h "p"
<BEGINHMM>
<NUMSTATES> 5
<STATE> 2
<MEAN> 25
 6.426364e-001 1.849609e+000 -1.265023e+000 2.543380e-001 1.381684e+000 1.074611e+000 6.303537e-001 1.376137e+000 2.508968e+000 -4.281651e-001 5.455419e-001 -1.024868e+000 -4.955924e-001 -1.148098e+000 -6.028560e-001 -3.364853e-001 -4.495501e-001 7.297516e-002 -6.015596e-001 -1.036355e-001 -1.391273e-001 -1.037570e-002 3.677492e-001 2.070851e-001 1.080206e+000
<VARIANCE> 25
 2.821482e+001 3.736364e+001 2.701515e+001 2.947726e+001 2.640162e+001 3.288409e+001 3.216354e+001 3.215123e+001 3.107049e+001 2.647857e+001 3.233148e+001 2.465772e+001 3.385365e+000 4.958499e+000 3.202382e+000 4.116224e+000 3.075508e+000 3.839329e+000 3.882746e+000 3.449304e+000 3.676842e+000 2.827448e+000 3.272025e+000 2.339062e+000 8.175160e+000
<GCONST> 1.036295e+002
<STATE> 3
<MEAN> 25
 1.439201e-001 -7.216903e-001 -2.559269e+000 -7.824444e-001 2.086913e-001 1.116904e+000 -7.203240e-001 9.821510e-001 1.777734e+000 -3.539020e-001 1.233035e+000 -6.449553e-001 2.379667e-001 -1.138830e+000 -5.885266e-001 -7.529678e-001 -7.249646e-001 1.026448e-001 -6.259156e-001 -2.795160e-001 -5.111504e-001 1.313139e-001 3.089701e-001 1.942568e-001 1.883637e+000
<VARIANCE> 25
 2.880919e+001 3.843456e+001 2.998988e+001 3.776470e+001 3.125276e+001 3.679766e+001 3.630138e+001 3.355530e+001 3.252546e+001 2.663296e+001 3.189529e+001 2.388361e+001 4.363691e+000 4.836207e+000 3.556448e+000 5.567312e+000 3.429293e+000 4.513554e+000 4.174374e+000 3.783108e+000 3.931030e+000 3.211470e+000 3.780089e+000 2.491006e+000 6.907912e+000
<GCONST> 1.057860e+002
<STATE> 4
<MEAN> 25
 1.335156e+000 -2.221374e+000 -3.145936e+000 -2.363271e+000 -1.306313e+000 1.217814e+000 -1.567895e+000 3.429697e-001 4.877893e-001 8.102833e-002 1.575941e+000 -4.047774e-001 8.022264e-001 -5.611207e-001 -1.423037e-001 -8.067842e-001 -7.275321e-001 2.029665e-001 -2.924685e-001 -3.184000e-001 -5.666266e-001 2.584861e-001 1.083616e-001 1.511199e-001 1.686107e+000
<VARIANCE> 25
 2.838896e+001 3.308537e+001 3.570528e+001 5.287176e+001 3.747731e+001 4.645235e+001 3.773427e+001 3.642722e+001 3.678802e+001 2.968398e+001 3.241166e+001 2.392323e+001 3.965019e+000 4.212002e+000 3.680078e+000 6.172062e+000 3.478325e+000 4.656046e+000 4.146578e+000 3.972306e+000 3.957735e+000 3.421758e+000 3.962739e+000 2.489541e+000 5.010315e+000
<GCONST> 1.067035e+002
<TRANSP> 5
 0.000000e+000 1.000000e+000 0.000000e+000 0.000000e+000 0.000000e+000
 0.000000e+000 4.785919e-001 5.214081e-001 0.000000e+000 0.000000e+000
 0.000000e+000 0.000000e+000 4.559884e-001 5.440115e-001 0.000000e+000
 0.000000e+000 0.000000e+000 0.000000e+000 5.087520e-001 4.912480e-001
 0.000000e+000 0.000000e+000 0.000000e+000 0.000000e+000 0.000000e+000
<ENDHMM>
~h "r"
<BEGINHMM>
<NUMSTATES> 5
<STATE> 2
<MEAN> 25
 2.833590e+000 -4.755558e+000 -5.909027e-001 1.263718e+000 -2.941337e+000 -2.099946e+000 -3.751994e+000 1.292894e+000 3.220128e+000 1.086262e+000 -2.644709e-001 6.393858e-003 5.545406e-001 -6.078911e-001 3.909027e-001 2.308735e-001 -4.642177e-001 1.224123e-002 -1.519915e-001 2.387985e-001 8.231089e-002 2.582011e-002 -2.040806e-001 3.140977e-002 2.449004e-001
<VARIANCE> 25
 1.771849e+001 2.603669e+001 3.389720e+001 2.700687e+001 3.383637e+001 4.356834e+001 3.802552e+001 4.457942e+001 3.672962e+001 3.457590e+001 3.397478e+001 2.663981e+001 2.046679e+000 2.571913e+000 3.268431e+000 3.428818e+000 3.368665e+000 4.168371e+000 3.794301e+000 4.242310e+000 3.734201e+000 3.403738e+000 3.415416e+000 2.498184e+000 2.280391e+000
<GCONST> 1.025953e+002
<STATE> 3
<MEAN> 25
 3.562191e+000 -5.565605e+000 -1.780314e-001 1.306940e+000 -3.382257e+000 -1.899685e+000 -3.478561e+000 1.707626e+000 2.947911e+000 1.083765e+000 -5.680268e-001 3.556042e-002 3.527411e-001 -2.938308e-001 1.496892e-001 -8.596086e-002 -1.121467e-001 9.729382e-002 2.567562e-001 1.278634e-001 -3.226239e-001 3.544158e-004 -1.392022e-001 -1.285088e-002 9.684355e-002
<VARIANCE> 25
 1.585137e+001 2.782669e+001 3.541791e+001 2.628012e+001 3.420396e+001 4.268029e+001 3.897118e+001 4.731359e+001 3.950626e+001 3.489334e+001 3.586270e+001 2.702479e+001 1.590381e+000 2.633638e+000 2.895711e+000 2.976764e+000 3.291270e+000 3.790266e+000 3.480057e+000 4.194332e+000 3.536539e+000 3.242335e+000 3.194110e+000 2.305016e+000 1.805380e+000
<GCONST> 1.016006e+002
<STATE> 4
<MEAN> 25
 3.967420e+000 -5.647905e+000 -2.375544e-001 8.702495e-001 -3.097331e+000 -1.678731e+000 -2.493279e+000 1.779838e+000 1.985065e+000 1.039692e+000 -7.951055e-001 -9.502493e-002 1.483067e-001 2.068476e-001 4.131019e-002 -2.035228e-001 2.267634e-001 1.202263e-001 5.018336e-001 -1.310536e-001 -5.637856e-001 -2.096262e-002 -7.173520e-002 -5.944819e-002 -1.073997e-001
<VARIANCE> 25
 1.669931e+001 3.068400e+001 3.857108e+001 2.713872e+001 3.672502e+001 4.558139e+001 4.130501e+001 5.048176e+001 4.298955e+001 3.611178e+001 4.080555e+001 2.870515e+001 1.433558e+000 2.833104e+000 2.379181e+000 2.671281e+000 3.229997e+000 3.486711e+000 3.127712e+000 4.068836e+000 3.384988e+000 3.061213e+000 3.016253e+000 2.162697e+000 1.715202e+000
<GCONST> 1.015875e+002
<TRANSP> 5
 0.000000e+000 1.000000e+000 0.000000e+000 0.000000e+000 0.000000e+000
 0.000000e+000 4.245815e-001 5.754185e-001 0.000000e+000 0.000000e+000
 0.000000e+000 0.000000e+000 4.170192e-001 5.829808e-001 0.000000e+000
 0.000000e+000 0.000000e+000 0.000000e+000 4.826575e-001 5.173425e-001
 0.000000e+000 0.000000e+000 0.000000e+000 0.000000e+000 0.000000e+000
<ENDHMM>
~h "s"
<BEGINHMM>
<NUMSTATES> 5
<STATE> 2
<MEAN> 25
 -1.236726e+001 9.372737e+000 -3.217707e+000 4.294193e+000 5.443406e+000 -1.317066e+000 2.374341e+000 2.666830e+000 1.928803e+000 -1.282958e+000 1.100683e+000 1.292877e+000 -2.270779e+000 7.335642e-001 -1.066090e+000 4.275303e-001 6.097935e-001 2.386732e-001 3.026513e-001 4.086081e-001 3.827768e-001 -2.433763e-001 3.441753e-001 4.770190e-002 -2.258497e-001
<VARIANCE> 25
 4.427443e+001 3.027971e+001 3.289962e+001 2.992781e+001 3.756995e+001 4.050551e+001 4.140513e+001 3.405623e+001 3.004350e+001 2.948354e+001 3.932389e+001 2.856383e+001 5.353227e+000 4.709946e+000 2.726817e+000 2.503285e+000 3.606620e+000 3.693555e+000 3.822761e+000 3.633673e+000 2.695277e+000 2.713697e+000 3.103472e+000 2.549884e+000 1.356346e+000
<GCONST> 1.031614e+002
<STATE> 3
<MEAN> 25
 -1.521964e+001 8.339410e+000 -5.767078e+000 4.499916e+000 5.249087e+000 -6.648119e-001 2.413192e+000 2.648659e+000 2.296229e+000 -1.392509e+000 1.615629e+000 1.434918e+000 2.813898e-002 -7.686974e-001 -4.005395e-001 -1.044192e-001 -3.250539e-001 -2.738916e-002 -1.256518e-001 -2.195802e-001 3.286780e-002 9.671430e-002 3.951864e-002 -6.218549e-003 -4.376628e-001
<VARIANCE> 25
 2.337517e+001 3.265094e+001 2.629362e+001 2.993206e+001 3.438826e+001 3.854382e+001 3.880339e+001 3.203679e+001 2.812986e+001 2.612350e+001 3.899929e+001 2.746267e+001 5.222442e+000 3.052206e+000 2.636142e+000 2.031691e+000 2.978170e+000 3.192557e+000 3.230788e+000 3.052097e+000 2.474922e+000 2.391401e+000 2.504164e+000 2.072324e+000 1.493752e+000
<GCONST> 9.995737e+001
<STATE> 4
<MEAN> 25
 -1.192702e+001 4.800107e+000 -5.475484e+000 3.528547e+000 3.138891e+000 -1.443214e+000 1.591347e+000 1.236122e+000 1.919058e+000 -7.045354e-001 1.475317e+000 1.351058e+000 2.017146e+000 -1.187024e+000 4.566630e-001 -5.636073e-001 -8.701079e-001 -3.885879e-001 -5.289351e-001 -6.668856e-001 -2.800772e-001 3.135819e-001 -1.441448e-001 -6.109878e-002 -8.049470e-003
<VARIANCE> 25
 4.877383e+001 3.807994e+001 2.906133e+001 3.208746e+001 4.304440e+001 4.498454e+001 4.341884e+001 3.805576e+001 2.950598e+001 2.617330e+001 3.655891e+001 2.618015e+001 5.456083e+000 3.025412e+000 2.812732e+000 2.609354e+000 3.365067e+000 4.007550e+000 4.005025e+000 3.813619e+000 2.855700e+000 2.551066e+000 3.136658e+000 2.435321e+000 2.694672e+000
<GCONST> 1.039386e+002
<TRANSP> 5
 0.000000e+000 1.000000e+000 0.000000e+000 0.000000e+000 0.000000e+000
 0.000000e+000 7.158597e-001 2.841403e-001 0.000000e+000 0.000000e+000
 0.000000e+000 0.000000e+000 6.703173e-001 3.296827e-001 0.000000e+000
 0.000000e+000 0.000000e+000 0.000000e+000 7.134624e-001 2.865376e-001
 0.000000e+000 0.000000e+000 0.000000e+000 0.000000e+000 0.000000e+000
<ENDHMM>
~h "t"
<BEGINHMM>
<NUMSTATES> 5
<STATE> 2
<MEAN> 25
 -2.935985e+000 3.654633e+000 8.991587e-001 1.763779e+000 1.018311e+000 -1.555139e+000 1.133181e+000 1.382718e+000 2.434337e+000 -4.595839e-001 8.808712e-001 8.528701e-001 -6.376187e-001 -9.325334e-001 -3.661840e-001 -4.674250e-001 4.626858e-002 -2.505459e-002 -8.162414e-002 4.451287e-003 7.343996e-002 -1.235516e-001 2.485898e-001 1.418248e-001 2.779897e-001
<VARIANCE> 25
 4.167335e+001 3.438990e+001 3.420723e+001 2.775735e+001 3.424356e+001 4.082509e+001 3.488131e+001 3.357376e+001 3.188651e+001 2.820001e+001 3.451885e+001 2.410536e+001 4.618114e+000 4.662862e+000 3.246647e+000 2.768676e+000 3.359768e+000 4.027438e+000 3.799302e+000 3.497783e+000 3.394995e+000 2.797089e+000 3.330630e+000 2.683391e+000 7.403175e+000
<GCONST> 1.048050e+002
<STATE> 3
<MEAN> 25
 -4.285489e+000 1.359607e+000 -2.005772e-001 7.033066e-001 9.108131e-001 -1.811439e+000 7.663416e-001 1.260270e+000 2.262680e+000 -6.286839e-001 1.291539e+000 1.199654e+000 -2.553627e-001 -1.112352e+000 -4.595124e-001 -5.249959e-001 -3.144067e-001 -2.809178e-001 -3.820307e-001 -2.239604e-001 -2.279930e-001 5.188648e-002 1.146663e-001 9.237023e-002 1.227720e+000
<VARIANCE> 25
 3.838431e+001 3.946017e+001 3.363216e+001 2.796301e+001 3.382488e+001 4.085495e+001 3.692385e+001 3.312994e+001 3.056790e+001 2.711182e+001 3.628418e+001 2.440147e+001 5.952616e+000 4.205890e+000 3.795676e+000 2.806175e+000 3.842554e+000 4.629515e+000 4.155297e+000 3.809193e+000 3.590590e+000 3.080275e+000 3.843704e+000 2.948953e+000 6.309439e+000
<GCONST> 1.058624e+002
<STATE> 4
<MEAN> 25
 -4.059463e+000 -4.483899e-001 -9.448723e-001 -1.493205e-002 3.317619e-002 -2.519767e+000 -4.004727e-002 7.884313e-001 1.755661e+000 -3.607624e-001 1.257197e+000 1.222443e+000 6.213489e-001 -6.367856e-001 -6.113768e-002 -2.824747e-001 -5.958889e-001 -2.653661e-001 -5.289705e-001 -3.937104e-001 -3.972374e-001 2.709204e-001 -1.193266e-001 -1.362852e-001 1.302112e+000
<VARIANCE> 25
 3.823286e+001 3.600035e+001 3.326334e+001 2.745344e+001 3.594764e+001 4.304014e+001 4.234060e+001 3.547601e+001 3.203887e+001 2.794867e+001 3.750481e+001 2.538819e+001 6.135661e+000 4.054399e+000 4.444887e+000 2.908236e+000 4.134096e+000 4.986703e+000 4.270566e+000 4.275993e+000 3.888462e+000 3.300872e+000 4.302245e+000 3.055425e+000 4.782551e+000
<GCONST> 1.067032e+002
<TRANSP> 5
 0.000000e+000 1.000000e+000 0.000000e+000 0.000000e+000 0.000000e+000
 0.000000e+000 4.436665e-001 5.563335e-001 0.000000e+000 0.000000e+000
 0.000000e+000 0.000000e+000 4.337887e-001 5.662113e-001 0.000000e+000
 0.000000e+000 0.000000e+000 0.000000e+000 5.028482e-001 4.971518e-001
 0.000000e+000 0.000000e+000 0.000000e+000 0.000000e+000 0.000000e+000
<ENDHMM>
~h "u"
<BEGINHMM>
<NUMSTATES> 5
<STATE> 2
<MEAN> 25
 5.871667e+000 3.593432e+000 -3.740484e+000 -6.144838e+000 -1.615348e+000 4.560631e+000 -4.288955e+000 -3.998516e+000 -3.980687e+000 9.375808e-002 3.097454e+000 5.323388e-001 7.374371e-001 7.459702e-001 -2.777118e-001 -9.900683e-001 -1.706143e-001 6.164052e-001 5.494830e-002 -3.675300e-001 -5.869883e-001 -1.253920e-001 2.854593e-001 1.184344e-001 -4.243171e-002
<VARIANCE> 25
 1.956038e+001 3.227250e+001 2.814168e+001 5.855104e+001 4.105138e+001 4.737936e+001 5.642307e+001 5.169695e+001 4.569107e+001 4.885994e+001 3.889011e+001 2.719139e+001 2.663032e+000 2.480387e+000 2.834484e+000 5.100078e+000 3.868535e+000 4.677135e+000 4.959769e+000 5.620409e+000 4.751001e+000 4.052618e+000 3.615569e+000 2.649335e+000 2.154294e+000
<GCONST> 1.067946e+002
<STATE> 3
<MEAN> 25
 6.616578e+000 4.786158e+000 -3.484716e+000 -6.758519e+000 -1.713804e+000 5.087661e+000 -3.606684e+000 -4.047794e+000 -4.365553e+000 -3.762252e-001 3.131356e+000 6.590516e-001 -5.540199e-002 2.995996e-001 3.122649e-001 3.354689e-001 2.270015e-001 -1.171991e-001 2.517567e-001 1.051777e-001 2.093161e-001 -8.865585e-002 -1.313157e-001 -7.323034e-002 -2.931922e-001
<VARIANCE> 25
 1.476499e+001 2.923769e+001 2.714598e+001 5.250628e+001 4.173095e+001 4.427679e+001 5.351662e+001 5.117497e+001 4.625943e+001 4.952452e+001 3.971104e+001 2.816017e+001 1.908667e+000 2.562066e+000 2.344485e+000 5.140456e+000 3.456230e+000 4.222485e+000 4.627001e+000 5.091081e+000 4.453315e+000 3.910984e+000 3.514648e+000 2.606279e+000 2.074916e+000
<GCONST> 1.051887e+002
<STATE> 4
<MEAN> 25
 5.703330e+000 4.838905e+000 -2.169201e+000 -4.244459e+000 -7.516592e-001 3.829320e+000 -3.000126e+000 -3.505403e+000 -2.790130e+000 -3.935461e-001 2.321116e+000 2.251132e-001 -7.326123e-001 -1.035492e-001 6.287631e-001 1.157856e+000 4.615145e-001 -6.677245e-001 3.544730e-001 3.904188e-001 6.106914e-001 -2.869067e-002 -3.952115e-001 -1.589222e-001 -3.129145e-001
<VARIANCE> 25
 2.052059e+001 3.181583e+001 2.985135e+001 5.274076e+001 4.506300e+001 4.441932e+001 5.613033e+001 5.434134e+001 4.649617e+001 4.632292e+001 3.910090e+001 2.782397e+001 2.294286e+000 2.887366e+000 2.583961e+000 4.345154e+000 3.666490e+000 4.089543e+000 4.430519e+000 5.308836e+000 4.261751e+000 3.860264e+000 3.508284e+000 2.593091e+000 2.208639e+000
<GCONST> 1.060572e+002
<TRANSP> 5
 0.000000e+000 1.000000e+000 0.000000e+000 0.000000e+000 0.000000e+000
 0.000000e+000 6.120179e-001 3.879820e-001 0.000000e+000 0.000000e+000
 0.000000e+000 0.000000e+000 5.821201e-001 4.178799e-001 0.000000e+000
 0.000000e+000 0.000000e+000 0.000000e+000 6.433491e-001 3.566509e-001
 0.000000e+000 0.000000e+000 0.000000e+000 0.000000e+000 0.000000e+000
<ENDHMM>
~h "v"
<BEGINHMM>
<NUMSTATES> 5
<STATE> 2
<MEAN> 25
 3.679362e+000 -1.392463e+000 -1.682907e+000 -4.517798e-001 1.218200e+000 9.409981e-001 -2.092464e+000 -7.400304e-001 -5.599028e-001 1.464975e+000 1.053337e+000 -1.626060e+000 2.328951e-001 -3.046571e-001 -1.268325e-001 -4.885992e-003 -5.647284e-002 -1.122460e-001 -1.749481e-001 2.904955e-002 -8.919732e-002 8.003230e-002 -1.356644e-001 -2.291581e-001 4.895531e-001
<VARIANCE> 25
 2.662159e+001 3.429977e+001 3.322601e+001 3.838416e+001 3.283786e+001 4.490524e+001 3.696578e+001 3.399200e+001 3.222142e+001 3.140120e+001 3.408518e+001 2.627745e+001 2.148952e+000 3.377977e+000 2.588766e+000 3.632724e+000 3.121733e+000 3.591378e+000 3.339202e+000 3.708202e+000 3.300056e+000 2.926856e+000 2.995614e+000 2.497209e+000 4.042296e+000
<GCONST> 1.028977e+002
<STATE> 3
<MEAN> 25
 3.814463e+000 -2.056908e+000 -1.733985e+000 -5.016065e-001 8.911622e-001 6.199059e-001 -2.040704e+000 -3.508297e-001 -5.471416e-001 1.448000e+000 6.305894e-001 -1.829579e+000 -1.865616e-004 -4.185586e-001 3.968043e-002 -7.771771e-002 -3.401517e-001 -2.156237e-001 1.060872e-001 2.264424e-001 -4.280057e-002 -2.812768e-002 -2.691861e-001 -1.551284e-002 6.518846e-001
<VARIANCE> 25
 2.341356e+001 3.443941e+001 3.733368e+001 3.968546e+001 3.512934e+001 4.765915e+001 3.757363e+001 3.415838e+001 3.303342e+001 3.167484e+001 3.492809e+001 2.719952e+001 1.734100e+000 2.868040e+000 2.521840e+000 3.193015e+000 3.083322e+000 3.296496e+000 3.028547e+000 3.383898e+000 3.190803e+000 2.858379e+000 2.839392e+000 2.466660e+000 3.143639e+000
<GCONST> 1.019687e+002
<STATE> 4
<MEAN> 25
 3.368266e+000 -2.858950e+000 -1.582105e+000 -5.560480e-001 3.314256e-001 2.915530e-001 -1.382457e+000 2.664806e-001 -4.133947e-001 1.171603e+000 7.748581e-002 -1.604975e+000 -1.068558e-001 -3.347738e-001 2.091957e-001 -1.222380e-001 -5.097292e-001 -2.109067e-001 2.253618e-001 1.521196e-001 -7.627121e-002 -5.104211e-002 -2.627496e-001 1.514775e-001 5.612074e-001
<VARIANCE> 25
 2.193098e+001 3.380664e+001 4.352772e+001 4.042173e+001 4.166034e+001 5.213678e+001 3.833765e+001 3.509151e+001 3.537385e+001 3.226249e+001 3.650795e+001 2.852298e+001 1.528352e+000 2.478568e+000 2.468930e+000 2.895391e+000 3.117813e+000 3.071118e+000 2.808446e+000 3.230465e+000 3.277556e+000 2.794138e+000 2.808108e+000 2.357864e+000 2.474611e+000
<GCONST> 1.016784e+002
<TRANSP> 5
 0.000000e+000 1.000000e+000 0.000000e+000 0.000000e+000 0.000000e+000
 0.000000e+000 3.825627e-001 6.174373e-001 0.000000e+000 0.000000e+000
 0.000000e+000 0.000000e+000 3.731616e-001 6.268384e-001 0.000000e+000
 0.000000e+000 0.000000e+000 0.000000e+000 4.447499e-001 5.552502e-001
 0.000000e+000 0.000000e+000 0.000000e+000 0.000000e+000 0.000000e+000
<ENDHMM>
~h "z"
<BEGINHMM>
<NUMSTATES> 5
<STATE> 2
<MEAN> 25
 -5.806781e+000 1.103105e+001 -3.433369e+000 2.843221e+000 5.462162e+000 -4.314480e+000 -2.436241e+000 -1.896483e+000 2.108560e+000 1.527644e+000 -5.104976e-001 3.394825e-001 -2.047684e+000 1.997060e+000 -2.964317e-001 9.557541e-001 4.777716e-001 -2.910433e-001 5.847210e-001 3.815587e-001 4.318603e-001 -5.890087e-001 1.138150e-001 1.903901e-001 -2.568311e-001
<VARIANCE> 25
 4.625779e+001 5.181708e+001 2.066051e+001 3.765400e+001 3.785787e+001 3.751812e+001 3.872215e+001 3.579797e+001 3.332586e+001 3.964399e+001 3.294162e+001 2.650526e+001 4.889782e+000 8.084955e+000 1.672741e+000 2.859000e+000 3.229919e+000 4.348689e+000 3.588217e+000 3.813193e+000 2.729515e+000 3.147752e+000 3.623305e+000 2.773679e+000 1.127346e+000
<GCONST> 1.039156e+002
<STATE> 3
<MEAN> 25
 -8.971775e+000 1.225288e+001 -4.064380e+000 4.154420e+000 5.329888e+000 -4.041198e+000 -1.211852e+000 -7.158155e-001 2.763712e+000 3.505684e-001 -1.574684e-001 7.701892e-001 1.577263e-001 -8.571372e-001 -1.857971e-001 -7.391684e-002 -2.825941e-001 -6.036454e-002 7.940758e-002 1.769957e-001 2.167406e-001 -9.251293e-003 -1.223757e-001 6.098289e-002 7.361568e-002
<VARIANCE> 25
 3.612328e+001 4.316516e+001 2.005689e+001 3.240633e+001 3.505767e+001 3.552156e+001 3.581048e+001 3.567465e+001 2.964665e+001 3.505341e+001 3.060838e+001 2.316204e+001 7.719133e+000 8.200087e+000 1.517957e+000 2.826800e+000 2.700367e+000 3.575816e+000 3.299073e+000 3.420614e+000 2.359004e+000 2.980996e+000 3.226528e+000 2.607469e+000 1.423280e+000
<GCONST> 1.022943e+002
<STATE> 4
<MEAN> 25
 -4.784901e+000 6.225212e+000 -4.416486e+000 2.446172e+000 3.544758e+000 -4.588405e+000 -1.821314e+000 -6.434619e-001 3.343383e+000 1.299874e+000 -1.252544e+000 6.764710e-001 1.939094e+000 -2.355344e+000 -3.375110e-002 -8.150807e-001 -5.879509e-001 -9.154109e-003 -1.220221e-001 1.594463e-001 1.625507e-001 3.702049e-001 -5.212613e-001 -2.252569e-001 5.552839e-001
<VARIANCE> 25
 5.051622e+001 6.278598e+001 2.081542e+001 3.184264e+001 2.996425e+001 3.403445e+001 3.417386e+001 3.671851e+001 2.924249e+001 3.807519e+001 3.047267e+001 2.649729e+001 4.956488e+000 4.592921e+000 1.627744e+000 2.538427e+000 2.711817e+000 3.959509e+000 3.505623e+000 3.729441e+000 2.607685e+000 2.889067e+000 3.585909e+000 2.814998e+000 1.852514e+000
<GCONST> 1.027129e+002
<TRANSP> 5
 0.000000e+000 1.000000e+000 0.000000e+000 0.000000e+000 0.000000e+000
 0.000000e+000 6.946917e-001 3.053083e-001 0.000000e+000 0.000000e+000
 0.000000e+000 0.000000e+000 6.626567e-001 3.373433e-001 0.000000e+000
 0.000000e+000 0.000000e+000 0.000000e+000 7.140091e-001 2.859909e-001
 0.000000e+000 0.000000e+000 0.000000e+000 0.000000e+000 0.000000e+000
<ENDHMM>
~h "Cc"
<BEGINHMM>
<NUMSTATES> 5
<STATE> 2
<MEAN> 25
 -1.217542e+001 5.668470e+000 5.991009e+000 -8.965216e-001 -8.293048e-001 5.499417e+000 -3.114170e+000 2.978333e+000 2.372930e+000 -3.127738e+000 2.605610e+000 7.699040e-001 -2.825831e+000 -5.060515e-001 5.059867e-002 -2.269090e-001 -4.933433e-001 6.357914e-001 3.349600e-001 1.877489e-001 2.004721e-001 -7.580693e-001 6.574053e-001 6.710803e-002 7.883308e-001
<VARIANCE> 25
 7.134420e+001 3.588982e+001 2.744736e+001 2.671765e+001 3.802801e+001 5.487769e+001 3.648510e+001 4.490919e+001 3.419337e+001 3.395094e+001 4.475804e+001 2.803131e+001 7.169499e+000 4.101650e+000 2.848042e+000 2.490821e+000 3.542954e+000 5.681779e+000 4.039067e+000 3.972143e+000 3.208714e+000 2.953053e+000 3.278368e+000 2.292585e+000 2.902932e+000
<GCONST> 1.060785e+002
<STATE> 3
<MEAN> 25
 -1.666674e+001 2.378454e+000 5.241948e+000 -5.795190e-001 -2.700924e+000 4.375673e+000 -1.236418e+000 3.031746e+000 2.203687e+000 -4.760926e+000 4.340352e+000 1.244475e+000 2.277922e-001 -1.204426e+000 -2.398652e-001 2.885159e-001 -7.886858e-001 -1.089999e+000 3.944721e-001 -1.092289e-001 -3.125334e-001 -2.746996e-001 2.811985e-001 1.518088e-001 5.290528e-001
<VARIANCE> 25
 4.146224e+001 3.717840e+001 2.520182e+001 2.751960e+001 3.972564e+001 5.086703e+001 3.642989e+001 3.952369e+001 3.675884e+001 3.139685e+001 4.929807e+001 2.591333e+001 1.197074e+001 2.615707e+000 2.273343e+000 2.081248e+000 3.000655e+000 5.495929e+000 4.030914e+000 3.623438e+000 2.988032e+000 2.850136e+000 3.344199e+000 2.082488e+000 1.788672e+000
<GCONST> 1.040632e+002
<STATE> 4
<MEAN> 25
 -1.122900e+001 -7.553951e-001 4.601973e+000 6.403162e-001 -5.068876e+000 -5.222684e-001 -1.076139e+000 2.000218e+000 7.797724e-001 -4.515239e+000 4.046911e+000 1.553705e+000 3.076107e+000 -6.350756e-001 -4.213433e-003 3.491147e-001 -7.019832e-001 -1.696843e+000 -4.801920e-001 -6.316426e-001 -7.292932e-001 5.701892e-001 -4.261937e-001 8.496659e-003 3.522433e-001
<VARIANCE> 25
 7.626938e+001 2.582371e+001 2.441941e+001 2.523533e+001 3.722873e+001 5.224768e+001 3.592215e+001 3.774772e+001 4.443858e+001 2.967888e+001 4.091890e+001 2.196082e+001 6.893333e+000 2.764876e+000 2.356684e+000 2.025730e+000 3.521112e+000 4.479435e+000 4.108192e+000 3.981255e+000 3.309128e+000 3.035471e+000 4.063259e+000 2.255225e+000 1.514629e+000
<GCONST> 1.037279e+002
<TRANSP> 5
 0.000000e+000 1.000000e+000 0.000000e+000 0.000000e+000 0.000000e+000
 0.000000e+000 7.097759e-001 2.902240e-001 0.000000e+000 0.000000e+000
 0.000000e+000 0.000000e+000 6.682512e-001 3.317488e-001 0.000000e+000
 0.000000e+000 0.000000e+000 0.000000e+000 7.040837e-001 2.959162e-001
 0.000000e+000 0.000000e+000 0.000000e+000 0.000000e+000 0.000000e+000
<ENDHMM>
~h "dz"
<BEGINHMM>
<NUMSTATES> 5
<STATE> 2
<MEAN> 25
 -6.330166e+000 6.380083e+000 9.707352e+000 2.286917e+000 -4.338677e+000 5.043422e+000 -4.429615e+000 1.996375e+000 2.763662e+000 -5.146605e+000 2.587801e+000 6.020039e-001 -2.389174e+000 1.036585e-001 -1.976241e-001 6.209638e-001 -9.089532e-002 1.088508e+000 -3.108427e-001 -7.365549e-001 1.063433e+000 -5.431699e-001 5.454850e-001 -2.413045e-001 4.484345e-001
<VARIANCE> 25
 6.004122e+001 2.752367e+001 2.402711e+001 2.498351e+001 3.400745e+001 4.832004e+001 4.041439e+001 3.912933e+001 3.408357e+001 2.802299e+001 3.626519e+001 2.369918e+001 1.000587e+001 5.254320e+000 3.325734e+000 2.463345e+000 3.274406e+000 8.746212e+000 5.267260e+000 4.029943e+000 4.090639e+000 3.539831e+000 3.380482e+000 3.166030e+000 2.570766e+000
<GCONST> 1.066060e+002
<STATE> 3
<MEAN> 25
 -9.116028e+000 3.969859e+000 7.278106e+000 3.986898e+000 -4.847200e+000 4.169084e+000 -4.811615e+000 -4.146763e-001 3.805066e+000 -5.760437e+000 3.895387e+000 1.122194e+000 6.780359e-001 -1.045742e+000 -1.340200e+000 4.015516e-001 2.816541e-002 -9.952198e-001 -6.635611e-001 -1.089934e+000 1.862630e-001 1.352375e-001 3.219568e-001 1.933026e-001 5.866055e-001
<VARIANCE> 25
 6.285965e+001 2.860501e+001 3.355491e+001 3.068199e+001 3.211440e+001 5.463507e+001 4.962170e+001 4.606657e+001 3.232381e+001 3.252534e+001 3.886071e+001 2.379511e+001 1.557536e+001 3.230818e+000 2.830695e+000 2.926290e+000 3.636286e+000 8.623777e+000 5.660955e+000 3.857086e+000 3.613712e+000 4.680686e+000 3.603991e+000 2.550071e+000 1.516896e+000
<GCONST> 1.073947e+002
<STATE> 4
<MEAN> 25
 -3.149899e+000 1.339465e+000 3.232171e+000 4.210454e+000 -4.111462e+000 4.241354e-001 -7.183349e+000 -3.651132e+000 3.696106e+000 -4.017520e+000 3.972450e+000 1.507796e+000 2.692426e+000 -6.142824e-001 -1.494355e+000 -5.790575e-001 6.231145e-001 -5.609456e-001 -1.010594e+000 -1.262485e+000 -3.110675e-001 1.209923e+000 2.061231e-002 -1.356166e-001 -4.922598e-002
<VARIANCE> 25
 7.174569e+001 2.006212e+001 3.408172e+001 2.908578e+001 3.136666e+001 4.355161e+001 5.140679e+001 5.361379e+001 3.441317e+001 4.380970e+001 3.266614e+001 2.234097e+001 7.465963e+000 3.031668e+000 2.661642e+000 3.574013e+000 3.745414e+000 7.610809e+000 5.373869e+000 4.151565e+000 3.788337e+000 5.105992e+000 3.753436e+000 2.518858e+000 1.204486e+000
<GCONST> 1.063923e+002
<TRANSP> 5
 0.000000e+000 1.000000e+000 0.000000e+000 0.000000e+000 0.000000e+000
 0.000000e+000 6.589866e-001 3.410134e-001 0.000000e+000 0.000000e+000
 0.000000e+000 0.000000e+000 6.303945e-001 3.696055e-001 0.000000e+000
 0.000000e+000 0.000000e+000 0.000000e+000 6.746067e-001 3.253933e-001
 0.000000e+000 0.000000e+000 0.000000e+000 0.000000e+000 0.000000e+000
<ENDHMM>
~h "uzdah"
<BEGINHMM>
<NUMSTATES> 5
<STATE> 2
<MEAN> 25
 -6.854753e+000 -6.513523e+000 1.439672e+000 5.988238e-001 3.173481e+000 -7.033277e-003 3.662009e+000 4.125481e+000 1.412922e+000 -2.176280e+000 1.858542e+000 2.025001e+000 -3.139169e-001 -3.203163e-001 4.116433e-002 -8.979591e-002 -4.682778e-002 -1.213700e-001 -5.805503e-002 3.948439e-002 -5.745059e-002 2.242330e-002 1.592970e-001 1.041068e-001 1.298676e-001
<VARIANCE> 25
 1.666545e+001 2.063802e+001 1.602964e+001 1.471192e+001 2.019366e+001 2.118644e+001 2.423240e+001 2.262679e+001 2.816648e+001 2.414001e+001 3.360009e+001 1.867957e+001 4.569385e-001 7.982764e-001 6.860168e-001 8.569935e-001 1.192641e+000 1.360000e+000 1.443306e+000 1.544483e+000 1.635586e+000 1.581329e+000 1.490209e+000 1.372714e+000 5.819381e-001
<GCONST> 8.345020e+001
<STATE> 3
<MEAN> 25
 -7.939504e+000 -8.407840e+000 1.284925e+000 -3.131939e-002 2.674322e+000 -3.513096e-001 2.841563e+000 4.137191e+000 8.057960e-001 -2.211123e+000 1.829898e+000 2.524263e+000 1.016799e-001 -2.365798e-002 -8.943828e-002 4.655251e-002 5.174735e-002 1.223389e-001 -4.429733e-002 -3.615842e-003 -5.716665e-002 -7.482126e-002 -8.742061e-002 4.301380e-002 -1.630771e-001
<VARIANCE> 25
 1.132883e+001 1.372372e+001 1.640123e+001 1.459726e+001 2.023748e+001 2.090007e+001 2.420157e+001 2.190525e+001 2.899583e+001 2.543862e+001 3.244918e+001 1.888561e+001 3.406836e-001 5.494179e-001 6.683428e-001 8.095312e-001 1.093251e+000 1.327693e+000 1.386101e+000 1.475979e+000 1.601336e+000 1.588564e+000 1.450234e+000 1.348541e+000 3.686763e-001
<GCONST> 8.121857e+001
<STATE> 4
<MEAN> 25
 -5.684515e+000 -6.226343e+000 -9.000886e-002 9.988477e-001 3.738953e+000 1.760285e+000 2.764839e+000 3.663713e+000 9.531456e-001 -2.844654e+000 6.862724e-001 2.386258e+000 3.064712e-001 5.567836e-001 -1.484877e-001 1.739377e-001 1.306087e-001 2.775361e-001 3.064773e-002 -1.525902e-001 8.980086e-002 1.704561e-002 -1.282281e-001 -7.574476e-002 -5.962643e-001
<VARIANCE> 25
 1.298231e+001 3.024578e+001 2.031907e+001 1.627791e+001 2.440810e+001 2.612004e+001 2.633298e+001 2.449749e+001 2.993874e+001 2.725953e+001 3.266039e+001 2.178090e+001 5.994305e-001 1.401317e+000 1.213359e+000 1.102827e+000 1.421178e+000 1.808262e+000 1.811270e+000 1.860716e+000 2.108349e+000 2.083665e+000 1.757058e+000 1.677461e+000 8.365980e-001
<GCONST> 8.857830e+001
<TRANSP> 5
 0.000000e+000 1.000000e+000 0.000000e+000 0.000000e+000 0.000000e+000
 0.000000e+000 9.407607e-001 5.923932e-002 0.000000e+000 0.000000e+000
 0.000000e+000 0.000000e+000 8.433006e-001 1.566994e-001 0.000000e+000
 0.000000e+000 0.000000e+000 0.000000e+000 8.719645e-001 1.280356e-001
 0.000000e+000 0.000000e+000 0.000000e+000 0.000000e+000 0.000000e+000
<ENDHMM>
~h "sil"
<BEGINHMM>
<NUMSTATES> 5
<STATE> 2
<MEAN> 25
 -4.445548e+000 -1.865761e+000 -2.638709e-001 2.067860e+000 3.521965e+000 1.756477e+000 3.587875e+000 3.270817e+000 2.240596e+000 -1.709851e+000 6.956509e-001 1.800325e+000 -1.158304e-001 3.491573e-002 4.486152e-003 1.572270e-002 1.870206e-002 7.116608e-003 -4.604587e-002 -1.453741e-002 1.543859e-002 4.637648e-002 9.491400e-002 4.250837e-002 -2.289304e-001
<VARIANCE> 25
 1.178072e+001 2.749761e+001 1.527043e+001 1.428285e+001 1.920292e+001 2.286573e+001 2.131063e+001 2.463340e+001 2.612828e+001 2.477616e+001 2.969311e+001 2.045779e+001 4.591889e-001 9.530892e-001 7.972028e-001 9.347948e-001 1.232505e+000 1.499341e+000 1.578689e+000 1.664258e+000 1.678446e+000 1.703702e+000 1.586542e+000 1.467639e+000 7.022287e-001
<GCONST> 8.434468e+001
<STATE> 3
<MEAN> 25
 -4.633450e+000 -1.102246e+000 -6.587286e-001 2.073094e+000 3.706953e+000 2.255242e+000 3.203551e+000 2.692191e+000 2.234421e+000 -1.677603e+000 6.123098e-001 1.587424e+000 1.121641e-001 2.365948e-001 4.083224e-002 -4.107777e-002 -1.765420e-001 -2.314408e-001 -3.232076e-001 -3.595487e-001 -1.652950e-001 1.386289e-001 -2.544443e-002 -1.680361e-001 1.600779e-001
<VARIANCE> 25
 1.279254e+001 2.815557e+001 1.810175e+001 1.600392e+001 2.190719e+001 2.649330e+001 2.403313e+001 2.760565e+001 2.777615e+001 2.538147e+001 3.069270e+001 2.216674e+001 1.218662e+000 2.178395e+000 1.549066e+000 1.550806e+000 1.975552e+000 2.426076e+000 2.417647e+000 2.547447e+000 2.628594e+000 2.300168e+000 2.183096e+000 1.965078e+000 2.399893e+000
<GCONST> 9.281326e+001
<STATE> 4
<MEAN> 25
 -4.270619e+000 -1.022853e+000 -6.470246e-001 1.757935e+000 3.283868e+000 1.711713e+000 2.453749e+000 1.767168e+000 1.466402e+000 -1.422248e+000 4.757916e-001 1.131948e+000 4.116578e-001 5.488986e-002 1.128157e-001 -1.803349e-001 -4.216385e-001 -4.313293e-001 -4.817682e-001 -4.681810e-001 -4.344603e-001 9.257166e-002 -1.557641e-001 -2.012803e-001 1.006516e+000
<VARIANCE> 25
 1.977828e+001 3.181201e+001 2.295993e+001 2.057525e+001 2.691046e+001 3.032841e+001 2.787303e+001 3.182761e+001 3.066746e+001 2.593546e+001 3.123993e+001 2.280762e+001 2.052497e+000 2.384502e+000 2.073606e+000 2.130254e+000 2.596513e+000 3.032380e+000 3.066017e+000 3.330171e+000 3.198005e+000 2.478954e+000 2.626330e+000 2.179492e+000 4.654418e+000
<GCONST> 9.810275e+001
<TRANSP> 5
 0.000000e+000 1.000000e+000 0.000000e+000 0.000000e+000 0.000000e+000
 0.000000e+000 9.073650e-001 9.263508e-002 0.000000e+000 0.000000e+000
 0.000000e+000 0.000000e+000 4.369525e-001 5.630475e-001 0.000000e+000
 0.000000e+000 0.000000e+000 0.000000e+000 4.582095e-001 5.417906e-001
 0.000000e+000 0.000000e+000 0.000000e+000 0.000000e+000 0.000000e+000
<ENDHMM>
~h "udarac"
<BEGINHMM>
<NUMSTATES> 5
<STATE> 2
<MEAN> 25
 -1.590332e+000 -1.199805e+000 -1.797537e+000 -2.429184e+000 2.298558e-001 5.463185e-001 3.150017e+000 6.474131e-001 1.783455e+000 -2.276522e-001 -2.520063e+000 1.340431e+000 -2.060527e-001 -2.027722e-002 2.064687e-002 -1.160507e-001 -1.161303e-001 -9.146371e-002 -5.845818e-002 -2.964442e-001 7.634837e-002 1.235615e-001 1.321317e-001 9.974153e-002 -2.428436e-001
<VARIANCE> 25
 1.474083e+001 2.177907e+001 3.281195e+001 4.027223e+001 3.259101e+001 3.768307e+001 3.696502e+001 2.799288e+001 2.914206e+001 3.288969e+001 2.884855e+001 2.335272e+001 9.261143e-001 1.147914e+000 2.375147e+000 2.559608e+000 1.919950e+000 3.052117e+000 2.835601e+000 2.244270e+000 1.929726e+000 2.148645e+000 1.856049e+000 2.054224e+000 1.569616e+000
<GCONST> 9.503450e+001
<STATE> 3
<MEAN> 25
 -2.435842e+000 1.602437e-001 -1.034423e+000 -4.954723e-001 1.383702e+000 -5.700768e-001 2.549217e+000 -3.641880e-001 2.618350e+000 7.707936e-001 -2.396780e+000 1.686373e+000 -2.046406e-001 4.636673e-002 -8.713275e-003 3.670456e-002 1.145340e-001 -5.377722e-002 -1.936539e-002 1.944346e-003 1.168617e-001 9.332533e-002 7.192099e-002 4.459334e-002 -1.838401e-001
<VARIANCE> 25
 1.964595e+001 3.675961e+001 2.781849e+001 3.205015e+001 3.473359e+001 3.032608e+001 3.186367e+001 2.303948e+001 2.976617e+001 2.420414e+001 2.986978e+001 2.018482e+001 8.721493e-001 1.298248e+000 1.936035e+000 1.557188e+000 1.819862e+000 2.639506e+000 2.494657e+000 1.990417e+000 2.056465e+000 1.659099e+000 1.553067e+000 1.674805e+000 1.391207e+000
<GCONST> 9.277522e+001
<STATE> 4
<MEAN> 25
 -4.952999e+000 8.456156e-002 -1.831822e+000 2.214810e-001 1.777955e+000 1.669589e+000 3.694895e+000 1.006322e+000 3.242684e+000 -5.698557e-001 -2.401299e+000 1.732335e+000 -2.587252e-002 -6.580634e-002 -5.881328e-002 5.767564e-002 2.334741e-002 8.939473e-002 6.660899e-002 3.890054e-002 2.181999e-003 -5.395009e-002 -4.633222e-002 4.843280e-003 -1.146301e-002
<VARIANCE> 25
 2.097752e+001 3.438443e+001 3.280310e+001 2.828707e+001 2.435859e+001 2.809774e+001 2.396694e+001 2.110458e+001 2.667997e+001 2.390723e+001 2.363069e+001 1.614753e+001 9.355516e-001 1.608874e+000 1.869836e+000 1.683236e+000 1.830006e+000 1.567712e+000 2.054420e+000 1.901663e+000 1.897142e+000 1.826705e+000 1.438742e+000 1.560158e+000 1.380213e+000
<GCONST> 9.086385e+001
<TRANSP> 5
 0.000000e+000 1.000000e+000 0.000000e+000 0.000000e+000 0.000000e+000
 0.000000e+000 7.884761e-001 2.115239e-001 0.000000e+000 0.000000e+000
 0.000000e+000 0.000000e+000 7.165531e-001 2.834468e-001 0.000000e+000
 0.000000e+000 0.000000e+000 0.000000e+000 9.311195e-001 6.888046e-002
 0.000000e+000 0.000000e+000 0.000000e+000 0.000000e+000 0.000000e+000
<ENDHMM>
~h "greska"
<BEGINHMM>
<NUMSTATES> 5
<STATE> 2
<MEAN> 25
 8.346166e-001 2.007308e+000 2.989571e+000 1.072692e+000 -4.904569e-001 -3.407786e+000 -2.281024e+000 6.122007e-001 -1.579060e+000 4.253343e-001 -5.626012e-001 1.613781e+000 -1.673509e-001 1.940686e-001 3.254243e-001 8.626086e-002 -7.450473e-002 -3.290642e-002 -3.508544e-002 -2.660838e-002 -6.202977e-002 -1.734405e-001 2.673192e-002 6.184766e-002 -2.249471e-001
<VARIANCE> 25
 4.549474e+001 3.469629e+001 4.593948e+001 2.835370e+001 5.022974e+001 4.707269e+001 5.010640e+001 3.356386e+001 4.035324e+001 2.703922e+001 3.170711e+001 3.500780e+001 1.790512e+000 1.866395e+000 2.307502e+000 1.644276e+000 2.949298e+000 2.329460e+000 3.626413e+000 2.695632e+000 2.495610e+000 2.069613e+000 1.937648e+000 2.026196e+000 3.029950e+000
<GCONST> 1.005513e+002
<STATE> 3
<MEAN> 25
 -7.832872e-002 2.739764e+000 3.536498e+000 1.375980e+000 -1.700756e-002 -3.323485e+000 -1.986215e+000 6.907848e-001 -1.068139e+000 6.025261e-002 -1.909237e-001 1.256062e+000 -1.586980e-001 1.401519e-001 7.859136e-002 1.474357e-001 1.058933e-001 5.564384e-002 6.530382e-002 4.955408e-003 1.311942e-001 -1.378608e-001 1.025515e-001 -6.626807e-002 -3.963537e-001
<VARIANCE> 25
 4.776905e+001 3.400388e+001 4.923561e+001 3.004074e+001 4.970872e+001 4.331947e+001 5.004080e+001 3.107489e+001 4.117608e+001 2.768832e+001 2.886899e+001 3.129555e+001 1.785584e+000 2.069210e+000 2.120332e+000 1.765356e+000 2.619204e+000 2.381437e+000 3.170378e+000 2.557796e+000 2.398351e+000 2.149323e+000 1.941810e+000 1.950040e+000 2.867856e+000
<GCONST> 1.000835e+002
<STATE> 4
<MEAN> 25
 -4.837288e-001 4.181209e+000 3.141146e+000 2.906847e+000 2.199651e+000 -1.989148e+000 -8.194919e-001 5.833448e-001 6.205838e-001 -3.177231e-001 5.385770e-001 1.354261e-001 -1.569819e-001 -5.279857e-002 -1.599524e-001 3.320927e-002 8.820618e-002 1.977659e-001 9.118462e-002 -8.493868e-002 2.041647e-001 -5.989905e-003 2.563649e-002 -8.541709e-002 -3.140848e-001
<VARIANCE> 25
 3.974472e+001 3.235503e+001 3.131796e+001 2.759337e+001 4.197287e+001 3.839221e+001 4.796646e+001 2.598735e+001 3.328955e+001 2.790012e+001 2.682057e+001 2.465262e+001 1.921899e+000 1.964455e+000 1.979997e+000 2.189971e+000 2.412294e+000 2.488767e+000 2.585123e+000 2.204024e+000 2.304278e+000 2.210234e+000 2.324556e+000 1.710026e+000 2.817315e+000
<GCONST> 9.808048e+001
<TRANSP> 5
 0.000000e+000 1.000000e+000 0.000000e+000 0.000000e+000 0.000000e+000
 0.000000e+000 7.412277e-001 2.587723e-001 0.000000e+000 0.000000e+000
 0.000000e+000 0.000000e+000 7.209367e-001 2.790633e-001 0.000000e+000
 0.000000e+000 0.000000e+000 0.000000e+000 8.631440e-001 1.368560e-001
 0.000000e+000 0.000000e+000 0.000000e+000 0.000000e+000 0.000000e+000
<ENDHMM>
~h "papir"
<BEGINHMM>
<NUMSTATES> 5
<STATE> 2
<MEAN> 25
 -2.456319e+000 -2.622449e+000 -1.749788e+000 1.304440e+000 2.503373e+000 7.389847e-001 2.263541e+000 1.972522e+000 2.797802e+000 -3.816034e-001 -1.793365e+000 -7.922359e-001 -1.844063e-001 -8.114881e-002 9.131397e-002 1.950139e-002 1.440282e-001 1.156868e-001 2.147145e-001 2.798629e-001 1.174510e-001 -4.602415e-002 -5.888029e-002 -5.163561e-002 -4.565520e-001
<VARIANCE> 25
 4.049785e+001 4.067128e+001 4.310640e+001 2.297966e+001 2.907778e+001 3.538759e+001 3.013673e+001 3.186613e+001 2.985614e+001 3.100581e+001 3.471989e+001 3.299012e+001 1.335850e+000 1.957098e+000 1.855589e+000 1.357325e+000 1.802012e+000 1.898260e+000 2.049106e+000 2.286224e+000 1.997662e+000 1.992840e+000 2.062526e+000 1.520416e+000 1.164112e+000
<GCONST> 9.526500e+001
<STATE> 3
<MEAN> 25
 -3.040473e+000 -2.691385e+000 -1.235710e+000 1.527451e+000 2.882336e+000 1.341956e+000 2.691446e+000 2.406747e+000 2.881405e+000 -1.027937e+000 -1.812748e+000 -8.217204e-001 -1.602191e-001 7.441969e-002 9.091304e-002 5.993367e-002 1.438860e-001 1.260607e-001 1.189796e-001 1.429663e-001 1.261757e-001 -1.503669e-001 -6.614623e-002 1.285978e-001 -4.736312e-001
<VARIANCE> 25
 3.587149e+001 4.338131e+001 3.915343e+001 2.079873e+001 2.581098e+001 2.860301e+001 2.555856e+001 2.903167e+001 3.068058e+001 3.120670e+001 3.787828e+001 3.172255e+001 1.178368e+000 2.528363e+000 1.867961e+000 1.336361e+000 1.732866e+000 1.808023e+000 1.984944e+000 2.255099e+000 2.153862e+000 2.038800e+000 1.981341e+000 1.752150e+000 1.336151e+000
<GCONST> 9.482995e+001
<STATE> 4
<MEAN> 25
 -5.120564e+000 -2.720913e+000 -5.153120e-001 1.725421e+000 3.281731e+000 2.223316e+000 3.252787e+000 2.277565e+000 3.002264e+000 -2.269383e+000 -7.456327e-001 1.463834e+000 -1.234314e-001 2.098325e-001 4.856285e-002 -4.413330e-003 2.862074e-002 6.525610e-002 -2.225699e-002 -5.310959e-002 3.957933e-003 -3.594024e-002 2.961311e-002 1.608253e-001 -2.702139e-001
<VARIANCE> 25
 2.744879e+001 3.608231e+001 2.757155e+001 2.036586e+001 2.565053e+001 2.492871e+001 2.186549e+001 2.677559e+001 3.453455e+001 2.255926e+001 3.757965e+001 2.490353e+001 1.254151e+000 2.033267e+000 1.700495e+000 1.321225e+000 1.703939e+000 2.343056e+000 1.869517e+000 2.357606e+000 2.270601e+000 1.666737e+000 1.986528e+000 1.626862e+000 1.411627e+000
<GCONST> 9.297026e+001
<TRANSP> 5
 0.000000e+000 1.000000e+000 0.000000e+000 0.000000e+000 0.000000e+000
 0.000000e+000 6.562310e-001 3.437690e-001 0.000000e+000 0.000000e+000
 0.000000e+000 0.000000e+000 6.655940e-001 3.344060e-001 0.000000e+000
 0.000000e+000 0.000000e+000 0.000000e+000 8.824381e-001 1.175620e-001
 0.000000e+000 0.000000e+000 0.000000e+000 0.000000e+000 0.000000e+000
<ENDHMM>
